,0,1,2,3,4,5,6,7,8,9,10,11,12,13,14,15,16,17,18,19,20,21,22,23,24,25,26,27,28,29,30,31,32,33,34,35,36,37,38,39,40,41,42,43,44,45,46,47,48,49,50,51,52,53,54,55,56,57,58,59,60,61,62,63,64,65,66,67,68,69,70,71,72,73,74,75,76,77,78,79,80,81,82,83,84,85,86,87,88,89,90,91,92,93,94,95,96,97,98,99,100,101,102,103,104,105,106,107,108,109,110,111,112,113,114,115,116,117,118,119,120,121,122,123,124,125,126,127,128,129,130,131,132,133,134,135,136,137,138,139,140,141,142,143,144,145,146,147,148,149,150,151,152,153,154,155,156,157,158,159,160,161,162,163,164,165,166,167,168,169,170,171,172,173,174,175,176,177,178,179,180,181,182,183,184,185,186,187,188,189,190,191,192,193,194,195,196,197,198,199,200,201,202,203,204,205,206,207,208,209,210,211,212,213,214,215,216,217,218,219,220,221,222,223,224,225,226,227,228,229,230,231,232,233,234,235,236,237,238,239,240,241,242,243,244,245,246,247,248,249,250,251,252,253,254,255,256,257,258,259,260,261,262,263,264,265,266,267,268,269,270,271,272,273,274,275,276,277,278,279,280,281,282,283,284,285,286,287,288,289,290,291,292,293,294,295,296,297,298,299,300,301,302,303,304,305,306,307,308,309,310,311,312,313,314,315,316,317,318,319,320,321,322,323,324,325,326,327,328,329,330,331,332,333,334,335,336,337,338,339,340,341,342,343,344,345,346,347,348,349,350,351,352,353,354,355,356,357,358,359,360,361,362,363,364,365,366,367,368,369,370,371,372,373,374,375,376,377,378,379,380,381,382,383,384,385,386,387,388,389,390,391,392,393,394,395,396,397,398,399,400,401,402,403,404,405,406,407,408,409,410,411,412,413,414,415,416,417,418,419,420,421,422,423,424,425,426,427,428,429,430,431,432,433,434,435,436,437,438,439,440,441,442,443,444,445,446,447,448,449,450,451,452,453,454,455,456,457,458,459,460,461,462,463,464,465,466,467,468,469,470,471,472,473,474,475,476,477,478,479,480,481,482,483,484,485,486,487,488,489,490,491,492,493,494,495,496,497,498,499,500,501,502,503,504,505,506,507,508,509,510,511
airplane,0.1361,0.129,-0.06726,-0.1671,0.1125,-0.01532,0.1779,0.594,0.05063,0.1259,0.3452,0.05768,0.434,0.1675,0.01101,-0.0944,-0.1469,-0.07074,-0.02725,-0.11804,0.0331,-0.0651,-0.1389,0.0801,-0.1271,0.10724,0.02591,-0.1442,0.0907,0.1426,0.2028,0.01678,-0.04214,-0.1693,-0.412,-0.02367,-0.3406,-0.1777,-0.2856,0.1022,-0.015236,-0.1254,0.0924,-0.012794,0.0982,0.4229,0.266,0.005447,-0.1223,0.02039,0.1735,0.0889,0.1368,-0.146,0.0364,-0.02928,-0.2269,0.1727,-0.02007,-0.01816,0.3604,-0.0786,0.0776,-0.1855,-0.03845,-0.0709,-0.001273,0.1858,-0.2935,-0.2152,-0.1406,0.00862,-0.010376,0.11896,-0.2712,-0.1671,-0.01497,-0.1912,-0.04373,-0.2632,-0.125,-0.0966,-0.04416,-0.608,0.2744,0.2208,0.668,-0.1586,-0.2019,-0.054,0.273,-0.08093,-8.66,0.294,0.1787,0.149,-0.2119,-0.0545,-0.00957,-0.02072,0.09717,-0.1195,0.3167,0.04224,0.1298,0.00976,-1.786,0.1191,-0.1431,-0.1421,0.03424,-0.0437,0.03845,-0.000668,0.04413,-0.003588,-0.2155,-0.1726,0.1814,-0.04694,-0.00729,-0.401,0.219,0.1744,0.1472,-0.0998,-0.089,-0.00908,-0.009705,-0.02806,0.09015,-0.428,0.02747,1.091,0.06256,0.1343,0.2678,-0.4302,-0.0879,0.05673,-0.02011,0.1175,-0.03296,0.06088,-0.1533,0.0333,-0.2593,0.2544,-0.0996,-0.1309,-0.02226,-0.0964,0.11163,-0.1837,-0.008415,-0.3892,-0.02478,-0.04562,-0.06207,-0.0846,-0.04053,-0.1407,0.1973,-0.03445,0.1449,0.1378,0.1267,0.1932,0.1261,-0.1376,0.2164,-0.0777,0.00143,-0.1943,-0.152,-0.2413,0.513,0.2448,-0.3108,0.0009294,0.1046,-0.10724,-0.0992,0.05103,-0.261,-0.0748,0.06305,0.02869,0.1467,-0.05707,-0.005245,-0.02785,-0.0243,-0.1785,0.04993,-0.1462,-0.1786,0.1366,-0.391,0.11456,0.02061,0.07635,0.1486,0.1573,-0.003582,-0.06805,-0.2131,-0.0391,-0.0747,-0.0583,-0.306,0.3352,0.01445,0.01726,-0.1263,-0.1006,0.02751,0.1335,0.4307,-0.2532,0.2482,-0.352,-0.05826,-0.01686,0.1635,0.05237,0.1622,-0.0349,0.02106,0.0536,-0.0996,0.1519,0.1737,0.1508,-0.0006275,0.4075,0.00925,-0.0644,-0.1112,-0.2361,0.04025,0.253,-0.0007224,-0.00445,-0.0409,-0.08923,0.03503,0.2214,-0.01646,0.2407,-0.2211,0.2172,0.173,0.04233,-0.05045,-0.04886,0.04343,0.05988,-0.262,-0.1151,-0.1448,0.02362,-0.03442,0.313,0.167,0.0773,0.10065,-0.1561,0.1921,-0.1366,-0.04623,0.1232,-0.1007,-0.1141,0.05017,-0.203,0.161,-0.2776,-0.0771,-0.06525,-0.02136,0.2261,0.03397,0.07715,0.0752,0.006252,0.546,0.0561,-0.2471,-0.1708,0.1088,-0.1904,0.01183,0.203,0.11993,0.283,-0.2145,0.003044,0.05423,-0.08136,0.3018,-0.07513,-0.03955,0.1749,-0.1294,-0.754,-0.1489,0.0304,-0.015236,0.1492,-0.24,0.2466,1.091,-0.1583,0.0692,0.05353,0.3591,0.1315,0.0936,-0.1738,0.1015,1.142,-0.04123,0.1375,-0.1315,0.2296,0.1478,0.012474,0.0537,0.665,-0.1959,0.147,0.1611,-0.1492,-0.0227,0.010056,-0.0193,0.0784,0.07007,-0.02504,-0.08405,0.04153,0.0532,-0.01897,-0.1448,0.0902,-0.0572,0.06177,0.191,0.000982,0.3503,-0.02888,0.0629,-0.1017,0.1252,-0.507,-0.05194,0.593,0.03772,-0.0784,-0.4966,0.1934,0.0832,-0.03784,-0.4023,0.03735,-0.02075,-0.768,-0.06555,0.0764,-0.1384,-0.0671,0.06415,0.0257,0.1091,0.06158,0.4695,-0.0537,-0.441,0.1685,-0.04987,0.178,-0.1814,-0.3145,0.1097,0.02425,-0.002605,0.4492,-0.12463,-0.957,-0.4126,0.137,-0.11237,-0.2546,-0.1482,0.05408,0.1237,-0.093,-0.3572,-0.01509,0.1252,0.1031,0.6685,-0.05286,-0.08453,0.05444,0.1637,-0.12317,0.1497,-0.1691,0.05884,0.005836,-0.09485,0.06433,-0.2429,0.12115,-0.1493,-0.01706,-0.1312,-0.2402,-0.07947,-0.1775,-0.07404,-0.05676,-0.2097,0.0932,-0.1153,-0.0725,-0.459,0.0317,-0.1656,-0.0497,-0.2399,-0.2883,-0.0424,-0.0686,0.2008,0.1605,0.00443,-0.02576,-0.1873,0.3142,0.2047,-0.00931,-0.013176,0.2324,0.01073,0.0511,-0.0804,-0.0342,0.3076,-0.1558,-0.124,-0.4243,-0.1617,0.1013,0.0885,-0.1754,-0.0343,-0.03928,0.145,0.04352,0.0801,-0.0541,0.2415,0.0001578,0.334,-0.1279,-0.0781,-0.2668,0.1714,0.1035,0.0343,-0.1732,-0.1104,-0.1881,-0.1193,0.11383,-0.1819,-0.1609,-0.1875,0.03867,-0.06067,0.11786,0.05722,0.1359,-0.1349,0.309,-0.06186,-0.00733,-0.0983,0.05508,0.2206,-0.1833,-0.04486,-0.3962,-0.0696,-0.1594,-0.1423,0.00833,0.006683,0.0738,-0.1763,0.07965,0.3413,-0.1919,-0.0166,-0.02623,-0.2178,0.7495,0.0821,-0.04178
alligator,0.1041,0.0467,-0.2031,-0.1199,0.1145,-0.0746,0.1702,0.6025,0.0803,0.1764,0.2087,-0.0067,0.2715,0.00928,-0.1549,0.0728,-0.2747,0.1847,0.206,0.01196,-0.265,0.04788,-0.1365,0.10645,-0.1296,0.03607,-0.02866,-0.1978,0.04898,0.04892,0.1371,-0.11816,0.00822,-0.1656,-0.2566,0.01121,-0.252,0.0725,-0.1064,0.03482,-0.2063,-0.1553,-0.05457,-0.02051,0.04785,1.291,0.3042,0.0762,0.0165,-0.06168,0.143,0.0574,0.09393,-0.1439,0.1354,0.009964,-0.05084,0.1504,-0.11194,-0.1553,0.508,-0.1447,-0.169,-0.245,-0.07806,0.02441,-0.1875,0.2847,-0.178,-0.1796,-0.06006,0.02878,0.0575,0.05765,-0.221,-0.1155,-0.08,-0.2725,-0.1359,-0.3071,-0.04254,-0.04736,-0.1161,-0.657,0.2673,0.2798,0.47,-0.0191,-0.04498,-0.12256,0.1605,-0.1403,-8.85,0.5596,0.0952,0.1176,-0.0139,-0.0781,-0.1037,0.3025,0.08264,-0.0633,0.2751,-0.0747,0.03152,0.07715,-0.901,0.1433,-0.1974,-0.09155,0.02124,0.0542,0.1108,-0.0445,0.0022,0.01982,-0.1159,-0.0997,0.1277,0.01643,-0.02277,-0.6504,0.1103,0.1749,0.1774,-0.1248,-0.0648,-0.0973,0.1367,-0.04984,0.10046,-0.3606,-0.1978,1.109,0.01689,0.1771,0.1342,-0.513,-0.2852,-0.01058,0.1236,0.1002,-0.07355,-0.05862,-0.1993,0.09863,-0.261,0.339,-0.1117,0.02963,-0.1318,-0.1777,-0.1242,-0.07513,-0.11743,-0.4604,0.2357,-0.07635,-0.1686,-0.11554,0.03845,0.02762,0.1344,-0.1301,0.1279,0.006847,-0.006584,0.1106,0.0812,-0.0371,0.1222,-0.1054,0.0483,-0.1243,-0.2083,-0.03998,0.3982,0.2465,-0.2441,-0.00425,-0.03577,-0.1871,-0.01901,0.06573,-0.2747,-0.0714,-0.00975,0.01332,0.1376,-0.0852,-0.02036,-0.02716,0.2006,-0.2087,0.0289,-0.03207,-0.02643,0.05426,-0.4902,0.03326,-0.0401,0.08203,-0.01682,0.2064,0.05344,0.0994,-0.2903,-0.07446,0.0445,-0.2272,-0.3853,0.4016,0.05255,0.01166,-0.01738,0.0452,-0.0658,0.02277,0.715,-0.3145,0.5635,0.0708,-0.04416,-0.11694,0.1238,-0.03888,0.1841,-0.02223,0.02882,0.0858,-0.02548,0.03098,0.149,0.00878,0.01561,0.533,-0.006775,0.02072,-0.09814,-0.1772,0.003428,0.2678,0.1764,0.0962,0.07764,-0.389,0.001092,0.0986,0.05624,0.1938,-0.2081,0.1599,0.3284,0.0492,-0.03912,-0.03217,-0.02747,0.10767,-0.8467,-0.1159,-0.01884,-0.0252,0.0267,-0.2018,0.1014,0.09515,0.221,-0.2032,0.10834,-0.2009,0.0978,0.111,-0.0655,-0.05765,-0.02742,-0.1067,0.0884,-0.2351,-0.05884,-0.01342,-0.06058,0.1755,0.2457,0.0749,0.0879,-0.1357,0.4792,0.01383,-0.2754,-0.1399,0.1344,-0.07434,0.05753,0.1671,0.1473,0.2498,0.06775,0.03387,0.02637,-0.0338,0.2301,-0.07025,0.01333,0.08514,-0.04785,-0.7515,-0.1011,-0.0691,0.02148,0.2095,-0.3313,0.011635,1.109,0.1587,0.1461,-0.1306,0.281,0.269,0.1257,-0.0756,0.1219,1.106,-0.1091,0.006306,-0.1813,0.1244,0.10815,0.013145,0.1033,0.7183,-0.1334,-0.03008,0.2798,-0.1984,-0.04163,-0.132,0.01419,0.03625,0.1625,-0.0778,0.0665,0.1401,0.1311,0.01353,-0.2686,0.05524,0.08655,0.03357,0.07214,-0.0927,0.517,0.04874,0.09827,-0.02339,0.208,-0.3447,0.04156,0.3892,0.04272,-0.002522,-0.2693,0.159,0.2129,-0.0539,-0.4558,0.053,-0.10156,-0.6245,-0.0116,0.0761,-0.09015,-0.05325,0.0981,0.114,0.07935,0.2079,0.6094,0.0285,-0.5728,0.1738,0.01772,-0.04123,-0.1425,-0.3164,-0.0249,-0.03952,-0.08307,0.307,-0.1975,-0.991,-0.483,-0.0163,-0.05624,-0.155,-0.09375,-0.076,-0.010475,-0.02307,-0.4927,-0.02545,0.1329,0.1423,0.5913,0.03934,-0.1431,0.0995,0.17,-0.04913,0.2644,-0.254,0.1372,-0.0896,-0.1494,0.222,-0.1532,0.06158,-0.10626,-0.05496,-0.08075,-0.2632,-0.2487,-0.1447,-0.0831,-0.014275,-0.1404,0.009926,-0.1,-0.223,0.3723,-0.007053,-0.1357,0.002052,0.04385,-0.1526,-0.06836,-0.0886,0.1224,0.2756,0.000968,0.02136,-0.2996,0.4048,0.0857,0.01727,0.1503,0.1407,0.03394,0.1092,-0.014885,0.02621,0.1464,-0.2083,0.02478,-0.3044,-0.05713,0.1655,0.2205,-0.04803,-0.2338,0.0272,0.2527,0.06775,-0.02548,-0.1729,0.4622,-0.02069,0.08026,-0.1218,-0.1791,-0.1043,0.0673,-0.05484,-0.02385,-0.12164,-0.0981,-0.1981,-0.06915,-0.0774,-0.102,-0.1287,-0.1863,0.0423,-0.00844,0.1315,-0.1252,0.06042,-0.08923,0.107,-0.1232,-0.0185,0.1146,-0.11194,0.138,-0.05228,-0.06757,-0.2646,-0.2262,-0.2527,-0.08295,0.001415,0.2195,0.2028,-0.1292,-0.02423,0.1339,-0.2109,0.015114,0.01477,-0.1257,0.806,-0.01665,0.10547
animal,0.04074,-0.02303,-0.0884,0.0861,0.1575,-0.02892,0.2228,0.457,0.1523,0.2404,0.1393,-0.03357,0.2241,0.0763,-0.02795,0.08624,-0.419,0.12366,0.1359,-0.02875,-0.3376,0.0574,-0.03793,0.10675,-0.10834,0.0425,0.0411,-0.163,0.1073,0.02972,0.03204,-0.0735,-0.095,-0.2418,-0.11615,0.2036,-0.203,0.075,-0.0671,0.3132,-0.4094,-0.12085,-0.0876,0.05167,0.04904,1.386,0.2507,-0.02972,0.01011,-0.0226,0.3132,0.11487,0.11334,-0.02649,0.1199,0.0878,0.10315,0.1837,-0.253,-0.1373,0.4446,-0.122,-0.0704,-0.116,-0.1431,-0.00817,-0.1417,0.521,-0.1825,-0.1941,0.0559,0.02542,-0.009224,-0.001616,-0.1083,-0.09204,-0.03174,-0.3188,-0.1499,-0.2544,-0.05164,-0.135,-0.2473,-0.4429,0.175,0.2317,0.916,-0.08624,0.127,-0.1285,0.26,-0.0835,-8.53,0.4746,-0.0868,0.257,-0.001149,-0.12164,-0.2101,0.6294,0.03873,-0.1288,0.3289,-0.0649,0.0927,0.05185,-0.1796,0.01493,-0.2363,-0.08246,-0.06714,-0.03793,0.0978,-0.1039,-0.05893,0.01354,-0.2324,-0.1295,0.1394,0.01354,0.01361,-0.6943,0.0401,-0.002804,0.1757,-0.2455,-0.2114,-0.01578,0.0815,-0.06082,0.1337,-0.4263,-0.1816,1.047,-0.1124,0.11145,0.004147,-0.421,-0.4236,-0.02513,-0.0458,-0.04413,0.02747,0.00766,-0.1403,0.1145,-0.1974,0.322,-0.08496,0.03528,-0.1799,-0.1895,-0.2491,-0.0425,-0.0921,-0.4834,0.2288,-0.1726,-0.1827,-0.2415,-0.01034,0.1214,0.1434,-0.10614,0.1459,-0.08496,0.2014,0.2157,0.1987,-0.0707,0.10657,0.005714,-0.1112,0.009674,-0.295,0.00603,0.4253,0.1676,-0.1989,0.0659,-0.06805,-0.3088,-0.04962,0.10583,-0.03687,0.0371,0.07184,0.02585,0.1031,-0.1713,0.1158,-0.06494,0.1447,-0.0819,-0.0991,-0.04138,-0.0895,-0.03123,-0.7007,-0.007812,-0.005894,0.156,-0.04947,0.1439,0.02936,0.12415,-0.3132,-0.137,0.01633,-0.1978,-0.2812,0.3513,0.1409,0.002825,0.02832,0.0633,-0.010864,0.1338,0.936,-0.232,0.5166,0.1548,-0.0825,-0.2559,0.0922,-0.1375,0.0922,0.0633,0.076,0.03445,-0.02989,-0.02907,0.0937,0.204,0.0504,0.565,-0.01729,0.008415,-0.03522,-0.2974,-0.02827,0.2073,0.1782,0.1021,0.00754,0.09766,0.02025,-0.0858,0.01918,0.3103,-0.1406,0.2274,0.271,0.11285,-0.03137,-0.001873,-0.00078,0.1937,-0.8027,-0.0731,-0.0749,0.05298,0.02228,-0.26,0.1633,0.01426,0.134,-0.2009,-0.014946,-0.186,0.01639,0.1788,-0.0124,0.079,-0.0136,-0.06506,-0.10333,-0.2019,-0.05725,0.062,0.0074,0.2751,0.1376,0.0677,0.1209,0.1528,0.3564,-0.03296,-0.1847,-0.21,0.1925,-0.1398,0.1004,0.16,0.05798,0.09045,-0.0429,0.05142,-0.03796,0.01993,0.1929,0.03476,0.04495,0.0624,0.0761,-0.6997,-0.11273,0.08746,0.08954,0.1373,-0.3364,0.2472,1.046,0.08276,0.1648,-0.0821,0.2612,0.2502,0.05478,0.142,0.09937,0.9116,-0.1814,0.07513,-0.2983,0.02074,0.07434,-0.08246,0.0519,0.511,-0.1233,0.01936,0.2627,-0.1958,-0.0668,-0.0521,0.1724,0.0343,0.0835,-0.1425,0.03394,0.03775,0.1644,0.0818,-0.2186,0.010574,0.02736,0.03488,0.1278,-0.273,0.3418,0.04938,0.01576,-0.0784,0.0426,-0.05466,0.0825,0.4575,0.0846,0.02388,-0.1677,0.1412,0.2004,0.03625,-0.03123,0.006977,-0.12085,-0.8345,0.03183,0.1388,-0.02116,-0.0862,0.1554,0.1981,0.1132,0.1023,1.243,0.0754,-0.5806,0.2454,0.1202,-0.2213,-0.2534,-0.2015,0.06537,-0.1732,0.00916,0.2673,-0.145,-1.405,-0.3738,-0.1902,-0.01917,-0.0852,-0.0886,-0.1373,0.0704,0.01106,-0.675,0.03226,0.11017,0.169,0.747,0.1703,-0.04333,0.159,0.1318,-0.1244,0.2646,-0.2242,0.2051,-0.02577,-0.12256,0.1241,-0.1685,-0.0916,0.02315,-0.0784,0.001215,-0.3047,-0.3506,-0.05624,-0.0849,0.24,-0.145,-0.004795,-0.2742,-0.2065,0.5195,0.06064,-0.2354,0.05884,-0.1719,0.02899,-0.002148,-0.1743,0.02658,0.3323,-0.0553,0.013954,-0.126,0.3362,0.036,-0.0372,0.3535,-0.01881,-0.07043,0.0883,-0.1489,-0.0374,0.1781,-0.3384,0.09576,-0.1357,-0.02191,0.02808,0.2651,0.0739,-0.1534,0.1829,0.1903,0.010345,-0.1055,-0.1934,0.4692,0.05145,-0.09454,-0.05695,-0.2264,-0.04538,0.0543,-0.1093,-0.08044,-0.1622,-0.2042,-0.1908,-0.0562,-0.02472,-0.1747,-0.1229,-0.232,-0.03787,-0.01894,0.12134,-0.2186,0.03123,-0.123,0.006462,-0.1378,-0.02425,0.02165,-0.09503,0.2168,-0.0855,-0.0785,-0.2437,-0.1016,-0.0678,-0.2798,0.1377,0.0917,0.3223,-0.1088,-0.0203,-0.0286,-0.1929,-0.0469,0.03537,-0.1737,0.718,0.01868,0.07336
ankle,0.05112,-0.01293,-0.248,-0.1434,-0.04208,-0.0324,0.1091,0.818,0.4185,0.2598,0.3079,0.1002,0.2605,-0.10187,-0.4177,0.05347,0.2081,0.1478,0.184,0.006027,-0.09064,0.0007954,-0.1945,-0.0127,-0.10767,-0.1295,0.001521,-0.233,0.03046,0.1332,0.1493,-0.1798,0.121,-0.2102,-0.263,0.0716,-0.214,-0.06192,-0.352,-0.08295,-0.2942,-0.3335,-0.1212,-0.1646,-0.01846,1.658,0.14,0.1919,-0.03818,-0.2252,0.2423,0.1444,0.2068,-0.3042,0.1813,0.02083,0.01953,0.0361,-0.2096,-0.01173,0.7393,-0.0991,-0.0762,-0.309,-0.01941,-0.0781,-0.2461,-0.01637,-0.1957,-0.2734,-0.086,-0.0429,0.03516,0.096,-0.3691,0.09357,-0.0506,-0.159,-0.1646,-0.2822,-0.1696,0.002115,0.03952,-0.664,0.216,0.2162,0.4731,-0.01284,-0.3298,-0.1431,0.0879,-0.1715,-9.47,0.596,0.0878,0.165,0.03882,-0.0796,0.002642,0.2698,-0.09235,-0.0566,0.42,-0.1595,0.1677,0.01004,-0.2147,0.3481,-0.2324,-0.0163,-0.05035,0.1761,-0.0769,-0.1976,-0.04828,0.0665,-0.009674,-0.2146,0.1836,0.197,-0.3267,-0.588,0.0552,0.2788,0.1844,0.10974,0.06238,-0.11597,0.0686,0.01988,0.01513,-0.09656,-0.0766,1.187,-0.0009694,0.414,0.1973,-0.3997,-0.2446,0.02246,0.1567,0.10693,-0.3079,-0.10535,-0.1709,0.1473,-0.2524,0.365,0.01678,-0.10565,-0.1148,-0.2115,0.1588,0.0367,-0.1383,-0.4753,0.1494,-0.03394,-0.137,-0.0692,0.05463,-0.195,0.1556,-0.1305,0.2045,0.1925,-0.3289,0.1172,0.1265,-0.1489,0.2435,-0.3943,-0.09515,-0.156,0.02763,-0.02122,0.78,0.2137,-0.09216,0.00468,-0.091,-0.2195,0.1659,0.0385,-0.656,-0.2056,0.02774,0.06836,0.178,-0.1416,0.04013,-0.03583,0.06366,-0.2727,0.383,-0.1279,0.04422,-0.1536,-0.3462,-0.17,-0.02448,0.1724,-0.002888,0.3066,0.1788,0.1625,-0.2001,-0.1207,0.1001,-0.4316,-0.1515,0.1892,-0.0688,0.07434,0.003262,0.1559,-0.1366,-0.2407,0.7007,-0.1265,0.4797,0.04153,0.1181,-0.04105,0.1936,0.1098,0.2133,0.11786,0.02888,0.4072,-0.007725,0.2083,0.1675,-0.08344,0.02357,0.2198,-0.10095,-0.1436,-0.1558,-0.2544,-0.074,0.3826,0.3655,0.1239,0.0861,-0.77,-0.01396,0.3054,0.1681,0.1156,-0.1675,0.0462,0.358,-0.2314,0.1101,-0.015305,0.1821,-0.03738,-0.5195,-0.2727,0.1528,-0.119,-0.0896,0.11273,0.1906,0.1043,0.1598,-0.1028,0.3096,-0.3394,0.239,0.1528,-0.3494,-0.0831,-0.1279,0.01584,0.2367,-0.195,-0.10913,-0.05032,-0.1908,0.1761,0.1888,0.01747,0.1355,-0.276,0.947,0.1301,-0.1494,-0.1831,0.2109,0.0419,0.0944,0.3608,0.04785,0.3076,-0.0802,-0.154,0.02307,-0.0689,0.3882,-0.1741,0.02505,0.258,-0.1515,-0.7397,-0.0989,-0.346,-0.172,0.1992,-0.325,-0.07983,1.187,0.05005,0.3293,-0.01688,0.2822,0.3352,0.1462,0.05502,-0.2067,1.054,-0.2336,-0.1132,-0.1885,0.2119,0.03983,0.1761,0.2296,1.063,-0.0764,-0.1493,0.3616,-0.1078,0.1523,-0.1605,-0.05127,0.06097,0.3953,-0.0237,0.1132,0.256,0.1781,0.0776,-0.227,0.00958,0.1181,0.07605,-0.01823,0.003016,0.691,-0.0917,0.04254,-0.1301,0.344,-0.283,-0.0979,0.3828,-0.00828,-0.2184,-0.162,0.1769,0.3022,-0.1214,-0.6284,0.08417,-0.09753,-0.654,0.1094,-0.05515,-0.287,0.09375,-0.02722,0.158,0.09973,0.3684,0.3164,0.04202,-0.717,0.2979,0.03085,0.1048,0.02386,-0.1138,0.009575,0.0105,-0.1334,0.3843,-0.3809,-1.037,-0.45,-0.0785,0.148,-0.2554,-0.1124,-0.0949,-0.012184,-0.05392,-0.2374,0.2194,0.0989,0.2898,0.8384,-0.005314,-0.00599,0.257,0.1738,0.003405,0.3179,-0.089,-0.06696,-0.202,0.0882,0.0687,-0.1704,0.04373,-0.3264,0.0638,-0.196,-0.2485,-0.265,-0.2115,-0.3718,-0.1013,0.01297,-0.0208,-0.02477,-0.411,-0.1085,0.06158,-0.08044,-0.2279,0.10565,-0.145,-0.1711,-0.03586,0.2212,0.2502,0.0677,0.01249,-0.4255,0.06213,0.1556,-0.04907,-0.06635,0.2183,0.03732,0.2191,-0.02489,-0.03003,0.01776,-0.0351,-0.08795,-0.5654,-0.1482,0.2123,-0.0896,-0.2844,-0.2769,-0.149,0.4133,0.0827,0.1432,-0.1437,0.401,-0.04846,0.2078,-0.10974,-0.2379,-0.1884,0.0817,-0.08563,0.2126,-0.2113,0.1848,-0.3027,0.0468,-0.1313,-0.1373,0.01718,-0.1576,0.1844,-0.1528,0.2788,-0.2339,0.1087,0.00983,0.03207,-0.0589,-0.1288,0.1155,-0.0808,0.03784,0.1305,-0.05972,-0.3333,-0.1649,-0.4133,-0.2086,-0.03552,0.175,-0.04248,-0.1449,-0.0921,0.2051,-0.232,0.1512,-0.0925,-0.3337,0.7866,0.06506,0.1401
ant,0.1874,0.02885,-0.2832,-0.317,0.02002,-0.152,0.07745,0.8916,0.2876,0.1882,0.1271,0.01567,0.2969,-0.0662,-0.1654,0.1382,0.04678,0.0579,0.2405,0.04584,0.01544,-0.0629,-0.2815,0.01073,-0.03616,-0.02592,-0.04462,-0.141,-0.0378,-0.0002518,0.2059,-0.2262,0.0819,-0.05353,-0.3125,-0.03262,-0.3618,-0.1492,-0.1415,-0.1813,-0.05252,-0.265,0.1255,-0.1917,0.0697,1.361,0.327,-0.014786,-0.01394,-0.1808,-0.05594,0.03137,0.06366,-0.2837,0.173,-0.04556,-0.1415,0.1603,0.04123,-0.15,0.9014,-0.208,-0.0405,-0.3884,0.05325,-0.0557,-0.423,-0.2712,-0.3794,-0.1583,-0.257,0.0647,-0.0558,0.2925,-0.6377,-0.0222,0.01029,0.00325,-0.08246,-0.4666,0.03546,-0.0878,-0.005524,-0.7046,0.2311,0.3306,0.44,-0.09924,-0.2683,-0.1454,0.00853,0.06033,-9.234,0.6064,0.2527,0.01375,0.02357,-0.3245,-0.04178,0.09375,0.15,-0.006027,0.2444,-0.15,0.01779,0.04306,-1.318,0.5083,-0.1602,0.00819,0.2126,0.0099,0.0865,-0.02428,0.00735,0.1465,-0.1257,-0.2036,0.2032,0.0802,-0.2017,-0.583,0.01501,0.2917,0.2023,-0.0373,-0.1486,-0.1505,-0.00648,-0.07074,0.044,-0.4106,-0.1981,1.185,0.1068,0.313,0.1886,-0.56,-0.07794,0.04837,0.0633,0.2147,-0.443,-0.0424,-0.2393,0.06006,-0.2163,0.3193,-0.0762,-0.1252,-0.1192,-0.2742,0.04688,-0.166,-0.1868,-0.697,0.0792,0.02534,-0.07465,-0.00874,0.1888,-0.1476,0.0718,-0.1251,0.08307,0.2385,-0.32,0.12463,-0.0113,-0.1881,0.1636,-0.3633,0.1437,-0.1787,-0.00576,-0.1802,0.931,0.3525,0.06088,0.07526,-0.1794,0.04156,-0.01842,0.2148,-0.534,-0.3682,-0.010735,0.1169,0.1714,-0.01666,-0.3037,0.00087,0.1467,-0.2327,0.3533,0.001251,0.2932,0.08704,-0.4888,0.2644,0.03973,-0.004314,-0.04846,0.1282,0.212,-0.1288,-0.249,-0.1442,-0.102,-0.3022,-0.5537,0.4976,-0.0908,0.1285,0.07983,0.04843,-0.07086,-0.03815,0.5547,-0.2378,0.4956,-0.1327,0.06073,-0.00882,0.1443,0.0247,0.1954,0.004566,-0.177,0.2869,-0.115,0.2263,0.07166,-0.0801,0.0829,0.3918,-0.10913,-0.1456,-0.1838,-0.207,0.005817,0.4744,0.3123,0.146,0.0296,-0.762,-0.05792,0.4578,0.1895,0.08936,-0.05524,0.1981,0.3237,-0.0938,0.1299,0.08386,0.06274,-0.0985,-0.3298,-0.1458,0.0319,0.03046,-0.05817,-0.1223,0.11365,0.04095,0.2756,-0.317,0.1547,-0.3308,0.3843,0.1992,-0.0722,-0.1007,-0.06033,-0.273,0.3477,-0.293,-0.1558,0.047,0.0346,0.1613,0.0161,0.0771,-0.0556,-0.2424,0.513,0.07465,-0.3103,-0.2015,0.1558,-0.08374,0.04224,0.2886,0.0935,0.4456,-0.04163,-0.1665,0.0996,-0.267,0.3464,-0.2021,0.2175,0.1824,-0.3174,-0.985,-0.03238,-0.2805,-0.00472,0.1647,-0.24,-0.1765,1.184,-0.0254,0.0943,0.1247,0.3628,0.2583,0.06238,-0.1968,0.3462,1.259,-0.1902,-0.1095,-0.0606,0.339,0.1298,0.1187,0.1915,1.043,-0.2451,-0.2195,0.2632,0.00346,0.05966,-0.0337,-0.1222,0.2634,0.3562,-0.09656,0.09186,0.2583,0.1517,0.11145,-0.0869,-0.06088,0.1057,-0.004925,-0.08966,-0.001206,0.6147,0.1713,0.1383,0.02553,0.327,-0.2585,0.1554,-0.1993,0.1053,-0.10297,-0.0202,0.2292,0.2113,-0.2808,-1.022,0.03214,-0.22,-0.5054,0.05182,-0.03745,-0.3098,0.06415,0.06433,0.07263,0.1432,0.3467,-0.06158,-0.1603,-0.816,0.0859,-0.10754,0.1143,0.0351,-0.224,-0.03516,-0.05548,-0.3105,0.396,-0.2625,-0.6157,-0.488,0.006012,0.0973,-0.3213,0.03125,0.07635,-0.00857,0.010704,-0.2795,0.138,0.1138,0.2505,0.555,0.03143,-0.0099,0.1528,0.1855,0.0356,0.443,-0.1365,0.216,-0.0778,-0.124,0.2457,-0.06012,0.107,-0.29,-0.2522,-0.10706,-0.3381,0.005825,-0.3213,-0.3542,-0.1997,-0.0931,0.1302,0.1464,-0.2352,0.504,-0.09796,-0.1625,-0.03964,-0.0869,-0.439,-0.2396,-0.0684,0.253,0.4197,0.1816,0.02548,-0.525,0.285,-0.01167,0.10236,-0.1194,0.3057,-0.04233,0.2556,0.02126,-0.08435,0.0831,-0.1385,-0.3757,-0.492,-0.1508,0.2544,0.02669,-0.4197,-0.3499,-0.135,0.313,0.1342,0.007454,-0.2585,0.4468,-0.00877,0.3535,-0.1664,-0.04938,-0.1888,-0.006325,-0.09204,0.1722,-0.2266,0.096,-0.09076,-0.1743,-0.2289,-0.1616,-0.1617,-0.1444,0.0896,-0.1469,0.2139,-0.072,0.1837,-0.04523,0.2104,-0.2042,-0.2556,0.07196,-0.2151,0.1919,0.02884,0.12024,-0.1626,-0.2391,-0.345,0.05133,-0.1865,0.0005784,-0.1154,-0.332,-0.1556,0.3855,-0.2568,0.1827,-0.14,-0.08093,0.934,0.03078,0.0005226
apple,0.1449,0.09576,-0.378,-0.09485,-0.00827,-0.1207,0.04092,0.856,0.1454,0.2014,0.2595,0.2554,-0.111,-0.05463,-0.2205,0.10516,0.306,0.1877,0.12103,-0.0503,-0.246,-0.0377,-0.07184,-0.08734,-0.1038,-0.05643,0.00432,-0.1897,-0.00719,0.0657,0.3606,-0.268,0.032,-0.05368,-0.2421,-0.038,-0.1719,-0.2216,-0.4053,0.0799,-0.1147,-0.2487,-0.05844,-0.2457,-0.02461,1.06,0.1211,0.3013,0.0832,-0.2261,0.1322,0.0785,0.2756,-0.1506,0.2362,-0.02132,-0.00994,0.0503,-0.0832,0.03378,0.5737,-0.1328,-0.1184,-0.2847,-0.04172,-0.02663,-0.2722,0.12024,-0.2194,-0.1409,-0.1013,-0.1876,0.08307,0.1493,-0.476,0.0428,-0.11896,-0.02917,-0.05432,-0.4111,-0.002714,0.002401,0.0943,-0.686,0.4119,0.1763,0.3682,-0.1348,-0.2041,-0.271,0.1209,-0.07074,-9.02,0.4128,0.1362,0.04413,-0.02449,-0.2086,-0.05972,0.05972,0.091,-0.1372,0.348,-0.19,0.0701,0.05176,-1.002,0.4048,-0.2886,0.0348,0.02979,-0.02313,-0.08716,-0.0941,-0.03534,0.10443,0.12,-0.1785,0.2269,0.1059,-0.457,-0.53,0.01327,0.03964,0.2148,0.02261,0.12085,-0.0423,0.08295,-0.005047,0.1006,-0.1613,0.01624,1.159,0.11414,0.4968,0.1454,-0.527,-0.10657,0.1334,0.1753,0.1282,-0.149,-0.2236,-0.1376,0.1771,-0.3025,0.452,0.04593,-0.1489,-0.2131,-0.1315,0.1398,0.09674,-0.3809,-0.3818,0.2524,-0.06024,-0.3174,-0.0209,0.01498,-0.2385,0.07715,-0.1456,0.002007,0.262,-0.3044,0.1741,0.1173,-0.0813,0.2234,-0.375,-0.0436,-0.2559,0.2396,0.1095,0.3445,0.2485,0.1476,-0.0005846,-0.2031,-0.0801,0.0236,0.07135,-0.4995,-0.4277,0.0213,0.2498,0.03845,0.0508,-0.0787,0.10516,0.0476,-0.1852,0.599,-0.0406,0.0923,-0.2126,-0.3306,0.1952,-0.02533,-0.04855,0.04572,0.17,0.1827,0.2157,-0.0665,-0.1626,0.209,-0.4539,-0.1461,0.3264,-0.2051,-0.05267,-0.01399,0.10516,-0.1138,-0.1599,0.8804,-0.07544,0.718,0.2476,0.1309,-0.0546,0.03824,0.1832,0.1444,0.0769,-0.03912,0.3562,-0.04916,0.2202,0.1681,-0.2115,0.1189,0.548,-0.1327,-0.264,-0.309,-0.1748,-0.1744,0.4968,0.3293,0.008644,-0.0892,-0.696,-0.1298,0.275,0.3472,0.1915,-0.1687,0.0747,0.4167,-0.1772,0.2542,0.1035,0.05212,-0.1729,-0.719,-0.3406,0.048,0.0727,-0.00418,-0.10095,0.02695,-0.03308,0.1584,-0.0671,0.2908,-0.2922,0.2769,0.1718,-0.492,0.006454,-0.1206,-0.02164,0.3806,-0.09393,-0.1296,0.0357,-0.1586,0.29,0.3723,0.0702,0.151,-0.3154,0.6567,0.2178,-0.02043,0.01624,0.214,0.164,0.08673,0.2174,0.04123,0.3777,0.0951,-0.1051,0.04614,-0.1458,0.1761,-0.2449,-0.02731,0.07635,-0.1395,-0.7,0.0713,-0.2211,-0.06934,0.1442,-0.3513,-0.1958,1.159,-0.2064,0.0399,0.0447,0.3223,0.2482,0.2612,0.145,0.0973,1.218,-0.275,-0.1655,-0.08014,0.1748,0.0952,0.03168,0.2201,0.983,0.01245,-0.297,0.212,-0.1257,0.3591,-0.1707,-0.05197,0.1525,0.5337,-0.1974,0.251,0.3223,0.0926,0.2042,-0.182,0.07733,0.1615,0.07074,-0.0402,0.0886,0.3364,0.03482,0.2128,-0.184,0.3447,-0.2401,0.0342,0.067,-0.00807,-0.1439,-0.437,0.1761,0.3423,0.089,-0.895,0.04657,-0.2133,-0.2338,0.1746,-0.1693,-0.2067,0.0814,0.01176,0.03156,0.0635,0.3252,0.1095,0.01407,-0.755,0.2386,-0.05038,-0.1846,0.1927,0.07294,-0.1124,-0.0669,-0.08435,0.369,-0.47,-0.685,-0.4292,-0.1877,0.2433,-0.2102,-0.0912,0.08307,-0.05786,-0.0966,-0.2429,-0.0822,-0.01152,0.07526,0.5273,-0.0821,-0.1512,0.1431,0.07324,0.0478,0.4753,-0.472,-0.2086,-0.1107,0.0749,0.1854,-0.2405,0.1696,-0.4355,-0.03702,-0.2092,-0.228,-0.10333,-0.2886,-0.2322,-0.2979,-0.01084,0.08453,0.0006957,-0.2617,-0.381,-0.1852,-0.2062,-0.1039,0.08563,-0.2546,-0.2852,-0.01332,0.2194,0.2993,0.1425,0.1024,-0.538,0.1221,0.1307,-0.03278,-0.257,0.1078,0.0356,0.277,-0.1225,0.02112,0.1622,-0.1919,-0.168,-0.464,-0.0241,0.2915,-0.1095,-0.4373,-0.2349,-0.3586,0.3293,0.0525,0.132,-0.2241,0.396,-0.02797,0.3892,-0.02925,-0.08154,-0.07513,0.1147,-0.0937,0.0303,-0.3503,0.2065,-0.3381,0.01665,-0.3381,-0.05658,0.04965,0.01567,0.0966,-0.3022,0.1777,-0.3433,0.05988,-0.08246,0.1304,-0.011734,-0.10944,0.0623,-0.1571,0.1299,0.0648,-0.04092,-0.243,-0.04102,-0.3076,-0.05377,-0.08307,0.2329,-0.1196,-0.05606,-0.07117,0.3777,-0.3086,0.1454,0.02121,-0.1382,0.7866,0.08264,0.08057
applesauce,-0.07056,0.1284,-0.1593,0.007465,0.1809,0.05356,0.1521,0.663,-0.00453,0.11096,0.2566,-0.00711,0.1727,0.1191,-0.1737,0.0637,-0.02356,0.2197,0.1873,-0.2522,-0.695,-0.004467,-0.2786,0.07153,-0.1207,0.04507,-0.014534,-0.1142,-0.04965,0.03015,0.1636,-0.0599,-0.001376,-0.1332,-0.0171,0.05045,-0.187,0.02068,-0.2778,0.1547,-0.0732,-0.195,-0.0591,-0.01543,0.0726,1.111,0.4768,0.1727,0.1543,-0.0174,0.1335,0.02325,0.0657,-0.3,0.2041,-0.03784,-0.0848,0.0904,-0.1917,0.003714,0.4165,-0.163,-0.2097,-0.3262,-0.09686,0.03656,-0.2498,0.78,-0.209,-0.2666,-0.1853,-0.1123,0.02339,0.00341,-0.3274,0.0459,-0.1298,-0.2363,-0.1487,-0.2756,0.0722,-0.04276,0.0965,-0.916,0.3208,0.1865,0.6504,0.09125,0.07776,-0.1456,0.132,-0.1721,-8.516,0.4219,0.155,-0.03726,-0.00785,-0.02397,-0.09625,0.4329,0.1444,-0.01959,0.312,-0.0873,-0.3713,-0.02357,-0.971,0.1998,-0.2131,0.02422,0.07556,0.199,0.1882,-0.043,-0.0367,0.116,0.0272,-0.0339,0.0492,-0.1844,-0.1829,-0.637,0.2067,0.1381,0.2281,-0.04993,0.01087,-0.1918,0.0969,-0.1641,0.1384,-0.2563,-0.01752,1.08,0.2612,0.1831,-0.0727,-0.4856,-0.299,0.052,0.2465,0.1827,-0.2788,-0.08453,-0.1609,0.2169,-0.2815,0.3767,-0.1973,0.0134,-0.1381,-0.1495,-0.03003,-0.03036,-0.232,-0.519,0.2764,-0.1001,-0.26,-0.1602,0.0777,0.03705,0.1235,-0.1296,0.0615,0.07916,-0.215,0.08856,0.1384,-0.12384,0.2041,-0.2678,-0.03412,-0.05844,-0.1849,0.2401,0.3909,0.272,0.1148,0.02573,-0.2168,-0.2224,-0.03336,0.02005,-0.4365,-0.1267,-0.1777,0.09094,0.419,-0.07794,-0.06213,0.02672,0.3928,-0.396,0.485,-0.05414,-0.0144,-0.1525,-0.2473,0.03098,-0.0825,0.1761,-0.10126,0.2261,-0.01694,0.1473,-0.326,0.08374,0.0129,-0.2335,-0.2247,0.2368,0.0607,0.007595,0.1137,0.147,0.04678,-0.0899,0.5337,-0.3015,0.657,0.2267,0.10846,-0.2301,0.417,-0.02457,0.156,0.01674,-0.004745,0.1755,0.03084,0.0935,0.1715,-0.1425,-0.03784,0.8403,0.007706,-0.1349,-0.1642,-0.3098,-0.09534,0.3647,0.2358,-0.01694,-0.0687,-0.683,-0.03372,0.496,0.0908,0.001097,-0.1819,0.08905,0.307,-0.01895,-2.37e-05,0.00233,0.1121,0.006332,-0.6484,-0.1254,-0.0328,-0.2144,-0.00428,0.0928,0.01533,0.036,0.1919,-0.2844,0.071,-0.1982,0.1927,0.05475,-0.369,0.05396,-0.01559,0.00855,0.1588,-0.166,-0.01294,-0.0864,-0.02112,0.3184,0.3337,0.0643,0.0852,-0.1537,0.3828,0.03574,-0.0605,-0.2174,0.1824,-0.1348,-0.08545,0.1066,0.182,0.2335,0.03723,0.10956,-0.002094,-0.0913,0.085,-0.02884,-0.1812,0.04095,-0.1153,-0.4475,0.04657,-0.2502,0.0522,0.2153,-0.3257,-0.0916,1.079,-0.1075,0.1974,-0.2695,0.1915,0.256,0.2034,0.1381,0.0971,1.299,-0.132,-0.03156,-0.314,0.1713,0.1262,0.0884,0.2139,0.648,-0.063,-0.1561,0.3887,-0.0811,0.0829,-0.2136,0.02354,0.08923,0.2467,-0.1625,0.13,0.2024,0.2412,0.08624,-0.226,-0.1097,0.02377,0.01831,0.0512,-0.04095,0.468,0.10767,0.02307,-0.11237,0.3008,-0.4097,0.03802,0.3079,-0.02582,-0.1346,-0.5635,0.1559,0.3489,-0.09515,-0.4792,-0.008995,-0.16,-0.637,-0.01311,-0.03436,-0.2148,-0.1137,0.03644,0.173,0.0656,0.2888,0.585,0.03406,-0.6895,0.2559,-0.03802,-0.1906,-0.0868,-0.3167,-0.0802,-0.2229,-0.05472,0.4175,-0.3257,-0.942,-0.2014,-0.1123,0.004776,-0.1092,0.03152,-0.01013,-0.0705,-0.1665,-0.2393,0.2595,0.1417,0.1838,0.4988,0.05197,-0.2471,0.1123,0.2344,-0.1344,0.3228,-0.2854,-0.2429,-0.08276,-0.1057,0.1849,-0.2744,0.03592,-0.306,0.10846,-0.1649,-0.1028,-0.2206,-0.1891,-0.1075,0.0151,-0.1934,0.06836,-0.07794,-0.3086,-0.2386,0.001094,-0.1638,-0.06555,0.2089,-0.172,-0.0387,-0.006855,0.09924,0.284,0.02696,0.0951,-0.4053,0.1831,0.1432,0.05276,0.1699,0.12225,-0.0002286,0.2188,-0.01454,0.11633,0.398,-0.1886,-0.08295,-0.7446,-0.03015,0.2734,0.1096,-0.1147,-0.1699,-0.2018,0.314,0.01717,-0.07117,-0.2151,0.3347,-0.08105,0.10034,0.05313,-0.3015,-0.133,-0.03186,-0.02751,-0.07544,-0.1556,0.01435,-0.2607,-0.043,-0.10925,0.06995,-0.0549,-0.2374,0.10144,-0.1333,0.011505,-0.2483,0.1123,0.013596,0.14,-0.1624,0.03592,0.0914,-0.1207,0.0791,0.03102,-0.1852,-0.03662,-0.2203,-0.354,-0.1549,0.0621,0.4124,0.05856,-0.02371,-0.0343,-0.05835,-0.2993,0.0766,0.0597,-0.165,0.897,0.1339,0.07654
arm,0.02925,-0.007584,0.006115,0.03117,0.043,0.1523,0.2062,0.466,0.1908,0.2152,0.2465,-0.04398,0.2081,-0.007767,-0.1461,0.01187,-0.3945,0.1543,0.2125,-0.124,-0.0778,-0.06152,-0.2727,0.1428,-0.08167,-0.1167,-0.0483,-0.1731,0.2323,0.0531,-0.003952,0.0753,-0.01533,-0.2734,-0.08124,0.268,-0.4023,0.09094,-0.2034,-0.1323,-0.5107,-0.2079,-0.2195,-0.05203,0.06216,1.827,0.4146,0.02655,-0.11566,0.1096,0.3008,0.0976,0.0989,-0.282,0.08075,0.1307,0.1044,0.04947,-0.2742,0.04825,0.4573,-0.1803,-0.167,-0.1824,-0.12213,-0.03021,-0.2142,0.7017,-0.08685,-0.3218,-0.01874,0.1062,0.1161,-0.07794,-0.2935,-0.01712,-0.131,-0.2383,0.003323,-0.1976,-0.1038,-0.0925,-0.04248,-0.4536,0.1508,0.1871,0.99,-0.01167,0.1068,-0.06604,0.3364,-0.1025,-9.04,0.611,-0.01214,0.2979,0.00442,0.0485,0.0313,0.342,-0.02972,0.02977,0.4592,-0.10767,-0.06223,0.05835,-0.2255,0.02625,0.006283,-0.03198,-0.02385,0.1339,0.01917,-0.1064,-0.0555,-0.00925,-0.1602,-0.04367,-0.01135,-0.0317,0.02159,-0.5215,0.1023,0.1121,0.2178,-0.0668,0.1357,-0.1703,0.0662,-0.00857,0.1893,-0.2278,-0.1084,1.096,0.2063,0.153,0.1654,-0.3132,-0.4333,-0.1451,-0.1127,0.0372,-0.0786,0.001637,-0.1891,0.0866,-0.276,0.3132,-0.01541,-0.0264,-0.1492,-0.2076,0.0878,-0.02988,0.213,-0.567,0.1985,-0.1831,-0.1453,-0.1366,0.063,0.01672,0.0784,-0.2339,0.2036,-0.04974,0.1998,0.2339,0.06107,-0.091,0.1625,-0.10474,-0.2754,0.1605,-0.3354,-0.0345,0.738,0.1682,-0.1698,-0.04486,0.04456,-0.3704,0.08344,-0.0803,-0.3005,0.0168,-0.0491,0.0926,0.3167,-0.1573,0.11444,-0.1005,0.2866,-0.2734,0.0671,-0.10223,-0.07477,-0.0474,-0.2458,-0.1743,-0.11096,0.2156,-0.1482,0.01269,0.1677,0.1366,-0.387,-0.03162,-0.08215,-0.2292,-0.1455,0.395,0.1262,0.06152,0.09143,0.02264,-0.1493,0.011765,0.671,-0.2241,0.3518,-0.03467,0.02261,-0.2593,0.3801,-0.11694,0.1654,0.06366,0.1729,0.06506,-0.07117,0.01268,0.2037,-0.105,-0.0975,0.443,-0.05493,0.05344,-0.02899,-0.1921,-0.03625,0.2751,0.2542,0.05295,-0.10974,-0.573,0.02257,0.2693,0.03314,0.09235,-0.2125,0.1663,0.4412,0.01825,-0.1608,-0.1703,0.1677,0.3071,-0.7285,0.0526,-0.0941,-0.12164,0.1292,-0.2216,0.1844,0.0721,0.2416,-0.1449,0.1357,-0.1603,0.02715,0.2502,-0.201,-0.11066,0.0722,-0.11127,-0.05328,-0.2644,-0.02272,-0.11816,-0.02052,0.2445,0.1698,0.1133,0.2063,0.01436,0.559,0.0783,-0.1105,-0.1708,0.2393,-0.1054,0.108,0.1865,0.03473,0.2258,-0.2883,0.1324,-0.0952,-0.0899,0.1788,0.03023,-0.03302,0.1521,-0.01232,-0.64,-0.11237,-0.05923,0.0602,0.2352,-0.3696,0.08417,1.095,0.0699,0.2489,-0.1676,0.2693,0.1947,0.2754,0.1451,-0.1722,0.8726,-0.1194,0.03192,-0.4167,0.08014,0.2018,-0.02266,0.1896,0.6895,-0.1404,0.05295,0.348,0.001487,2.15e-06,-0.02927,0.0177,-0.05222,0.1637,-0.03345,0.04068,-0.02486,0.1219,0.11127,-0.2512,-0.07074,0.06537,-0.09143,0.2554,-0.2091,0.783,0.0427,-0.12335,0.01848,0.02708,-0.491,-0.1646,0.67,0.06757,-0.1401,-0.4312,0.0774,0.4402,-0.0806,-0.06,0.05643,-0.2081,-0.989,0.1604,0.07184,-0.1267,-0.14,0.00744,0.0965,0.1335,0.262,1.1045,0.1516,-0.4695,0.3142,0.02954,-0.1599,-0.1207,-0.446,0.00989,-0.1683,0.1283,0.3086,-0.1464,-1.166,-0.1306,0.07227,-0.1632,-0.07294,-0.10657,-0.02057,0.1954,0.02011,-0.513,0.2766,0.2266,0.245,0.896,0.1531,-0.1251,0.2695,0.2017,-0.1058,0.1421,-0.1569,-0.087,0.00837,-0.02034,0.003874,-0.1174,-0.1266,-0.1069,0.11865,0.0775,-0.223,-0.3577,-0.1707,-0.1771,0.4187,-0.1009,-0.0868,-0.3442,-0.1843,-0.06915,0.1947,-0.2172,-0.1453,-0.1643,0.0552,-0.09717,-0.0356,0.07806,0.1918,-0.0779,0.05637,-0.11096,0.1809,0.0388,0.0598,0.251,0.02031,-0.0893,0.01689,-0.0706,-0.005177,0.2057,-0.191,0.2389,-0.4072,0.03915,0.1049,0.1947,-0.04605,-0.2266,-0.00326,0.1863,-0.08813,0.000453,-0.1294,0.4233,-0.01761,0.2048,-0.003181,-0.2327,-0.0556,-0.11237,-0.1359,0.1293,-0.12476,-0.1548,-0.284,-0.0819,0.0454,-0.1194,-0.1542,-0.2255,0.167,0.0336,0.1041,-0.10474,0.01553,-0.03946,-0.0727,-0.1943,-0.10944,0.243,-0.1787,0.05984,0.1544,-0.114,-0.2479,-0.1482,-0.35,-0.3496,0.2184,0.3188,0.307,-0.1537,-0.07965,0.0892,-0.2097,0.1487,-0.02722,-0.2932,0.972,0.04224,0.04514
ball,0.08044,0.02538,-0.3586,-0.0837,0.02138,-0.1202,0.07587,0.7124,0.1326,0.1191,0.284,0.2491,-0.04425,-0.00291,-0.311,0.2161,0.2786,0.1242,0.0516,-0.09125,-0.319,0.04547,-0.08124,-0.1273,-0.1161,-0.1118,-0.011314,-0.2323,0.010475,0.003273,0.2429,-0.2073,-0.03314,-0.1577,-0.2137,0.0388,-0.2355,-0.1896,-0.3726,0.1202,-0.04648,-0.2627,-0.0795,-0.1442,-0.0335,0.7905,0.005383,0.3147,0.05576,-0.2198,0.2118,0.1996,0.2268,-0.1389,0.0684,-0.0819,-0.1797,0.04575,-0.1831,-0.02962,0.645,-0.2238,-0.02641,-0.2544,-0.003483,-0.1559,-0.2054,0.1827,-0.1469,-0.2532,-0.1298,-0.1508,0.0358,0.0601,-0.4194,0.01662,-0.0772,-0.04785,-0.03992,-0.3958,-0.02266,0.002914,-0.0293,-0.6826,0.423,0.2015,0.3958,-0.1296,-0.3037,-0.29,0.0637,-0.1294,-8.68,0.3281,0.0459,0.1447,-0.0363,-0.257,-0.2246,-0.1016,0.0733,-0.2296,0.4607,-0.12146,0.1167,-0.0696,-1.213,0.2454,-0.25,0.0001401,0.02615,-0.03818,0.0539,-0.0892,-0.1078,0.1414,0.12494,-0.1821,0.2617,0.0751,-0.469,-0.5117,0.0934,0.04337,0.1891,0.01494,0.1229,-0.05676,0.1534,-0.1137,0.05106,-0.2415,0.03955,1.115,0.0846,0.3706,0.1111,-0.541,-0.11725,0.1744,0.2266,0.0593,-0.0572,-0.1796,-0.1299,0.1786,-0.2832,0.4246,-0.02667,-0.03406,-0.04492,-0.1698,-0.01519,0.03513,-0.2898,-0.282,0.2163,-0.02377,-0.341,-0.0782,0.002838,-0.203,0.1032,-0.10583,0.0681,0.2148,-0.2006,0.0938,0.1298,-0.07294,0.12177,-0.3062,-0.08203,-0.2656,0.09753,0.012115,0.2112,0.248,-0.0413,-0.05557,-0.1736,-0.04547,0.02548,0.1175,-0.4636,-0.316,0.03047,0.1504,0.085,-0.0127,-0.01471,0.1396,-0.07294,-0.2622,0.632,-0.06143,0.0689,-0.3008,-0.259,0.1492,0.001764,0.007225,-0.0831,0.232,0.0634,0.165,-0.1481,-0.1571,0.1636,-0.3816,-0.2053,0.294,-0.1647,-0.1536,-0.001323,0.1246,0.03183,-0.03537,0.681,-0.1793,0.719,-0.01636,0.003103,-0.02753,0.09186,0.1183,0.1215,0.01074,-0.03186,0.2201,-0.06238,0.2192,0.1752,-0.05917,0.0992,0.5938,-0.0548,-0.2998,-0.2644,-0.2137,-0.0987,0.459,0.2418,-0.007904,-0.1351,-0.439,-0.1096,0.2854,0.2815,0.2593,-0.1389,0.0758,0.27,-0.03656,0.1707,0.08563,0.03903,-0.263,-0.7095,-0.3203,0.0966,0.07184,-0.04694,-0.07666,0.10895,0.001024,0.165,-0.06064,0.2026,-0.3213,0.2279,0.1561,-0.3018,-0.03214,-0.1464,-0.01611,0.311,-0.01478,-0.0422,0.02888,-0.1359,0.3848,0.2725,-0.0207,0.1677,-0.3066,0.8135,0.1174,-0.03757,-0.0368,0.2041,0.104,-0.047,0.1775,0.04636,0.2196,-0.07623,-0.12067,0.02377,-0.01295,0.2283,-0.1517,0.000928,0.0403,-0.1589,-0.6436,0.1399,-0.1088,-0.10675,0.1035,-0.284,-0.1437,1.115,-0.2343,0.01668,0.04993,0.297,0.1748,0.1711,-0.03049,0.1538,1.208,-0.2734,-0.1454,-0.01107,0.114,0.10364,0.03766,0.07697,0.8364,-0.05075,-0.2306,0.2695,-0.10223,0.2366,-0.097,-0.02327,0.1349,0.4333,-0.2051,0.2534,0.2507,0.0809,0.2603,-0.1942,0.1411,0.1472,0.1603,0.004074,0.01126,0.3457,0.0638,0.2206,-0.1302,0.3423,-0.2455,0.06525,0.2157,-0.0597,-0.08826,-0.3618,0.1282,0.307,-0.0693,-0.9023,-0.03082,-0.2128,-0.3035,0.11975,-0.00788,-0.1953,0.116,0.1054,-0.01011,0.06885,0.2144,0.2318,0.0914,-0.6294,0.2059,-0.032,-0.0811,0.04367,-0.01888,0.00891,-0.06995,-0.1351,0.3772,-0.404,-0.6226,-0.4565,-0.2219,0.1631,-0.279,-0.1985,-0.05423,0.01377,-0.0666,-0.2196,-0.10803,-0.01842,0.007458,0.4993,-0.005795,-0.05884,0.138,0.1371,-0.0477,0.3372,-0.3948,-0.0401,-0.0972,0.0903,0.1206,-0.1752,0.0899,-0.4187,0.001455,-0.2213,-0.1283,-0.1313,-0.3052,-0.2637,-0.304,-0.07904,-0.04028,0.09015,-0.1947,-0.4307,-0.1589,-0.09717,-0.1104,0.02042,-0.1375,-0.2037,-0.04565,0.189,0.3235,0.1746,0.0362,-0.4941,0.0913,0.109,0.02435,-0.1437,0.05063,0.02588,0.2435,-0.06494,0.0975,0.2776,-0.2588,-0.1478,-0.4546,-0.0483,0.1664,-0.0525,-0.271,-0.1436,-0.3455,0.1968,0.03796,0.1804,-0.1794,0.3242,-0.07556,0.3652,0.0009093,-0.1641,-0.10535,0.0722,-0.134,0.0696,-0.282,0.2233,-0.3474,-0.002626,-0.2727,-0.06287,0.1432,-0.0415,0.072,-0.3542,0.1482,-0.2443,0.1151,-0.01671,0.1936,0.0387,-0.06125,-0.01478,-0.1009,0.1908,-0.00842,-0.08185,-0.1716,-0.02042,-0.34,-0.05914,-0.0501,0.1804,-0.0643,-0.02464,-0.04654,0.2627,-0.3403,0.1228,0.1162,-0.1758,0.738,0.0375,0.05902
balloon,0.04617,0.06995,-0.3843,-0.10596,-0.013084,-0.138,0.05075,0.786,0.1777,0.1533,0.321,0.2189,-0.003096,-0.003454,-0.3167,0.1868,0.2081,0.1345,0.09705,-0.07043,-0.2935,0.05612,-0.0919,-0.0877,-0.1362,-0.09247,-0.006176,-0.2573,0.01247,0.02783,0.2262,-0.146,-0.03326,-0.2188,-0.256,0.01888,-0.2056,-0.2004,-0.3933,0.0268,0.03372,-0.2369,-0.10364,-0.11896,-0.03503,0.8164,0.0974,0.304,0.04236,-0.2379,0.2031,0.2195,0.1821,-0.16,0.0955,-0.0469,-0.284,0.0905,-0.1237,-0.02007,0.6675,-0.222,-0.02113,-0.242,-0.01518,-0.1219,-0.2498,0.1545,-0.189,-0.2642,-0.11847,-0.10315,0.0215,0.0984,-0.429,0.005764,-0.0913,-0.11456,-0.05612,-0.381,-0.0672,-0.01525,-0.0597,-0.7314,0.4507,0.2141,0.3894,-0.09924,-0.3047,-0.2705,0.0396,-0.0976,-8.945,0.2384,0.06094,0.1268,-0.01325,-0.1985,-0.08466,-0.0295,0.0481,-0.276,0.444,-0.097,0.1445,-0.06042,-1.191,0.2515,-0.238,0.02232,0.02495,0.0163,0.0849,-0.0903,-0.1323,0.11884,0.0791,-0.1442,0.2566,0.0947,-0.467,-0.516,0.12,0.125,0.2145,0.0228,0.1306,-0.1164,0.1335,-0.1329,0.0718,-0.2952,0.00746,1.142,0.02928,0.363,0.1533,-0.574,-0.0891,0.1624,0.2554,0.04755,-0.0866,-0.1434,-0.11084,0.176,-0.3203,0.4768,-0.03625,-0.01278,-0.05972,-0.178,0.05664,0.02031,-0.2644,-0.3098,0.2117,-0.0054,-0.311,-0.0761,0.02806,-0.2043,0.1083,-0.1127,0.1029,0.2313,-0.217,0.04507,0.1342,-0.04782,0.10565,-0.2703,-0.05273,-0.2295,0.06726,0.000242,0.2598,0.2194,0.010704,-0.05124,-0.11926,-0.05127,0.01102,0.1598,-0.4517,-0.3296,0.0252,0.1383,0.065,-0.03705,-0.02971,0.154,-0.1028,-0.2896,0.546,-0.04178,0.0706,-0.2705,-0.2456,0.161,0.00676,0.04883,-0.08344,0.1962,0.0555,0.10156,-0.08044,-0.0908,0.2345,-0.4316,-0.1865,0.3098,-0.1531,-0.1418,-0.01263,0.1519,0.00822,-0.05276,0.654,-0.2664,0.709,-0.01901,0.00945,-0.05728,0.06067,0.1371,0.1422,-0.008156,-0.0533,0.1838,-0.04083,0.2155,0.1471,-0.0479,0.08105,0.604,-0.03806,-0.2245,-0.2428,-0.2324,-0.05637,0.4583,0.235,0.02548,-0.1519,-0.4656,-0.1285,0.283,0.2285,0.254,-0.1741,0.0962,0.2443,-0.04538,0.1586,0.0736,0.06213,-0.2456,-0.656,-0.363,0.06494,0.02191,-0.05234,0.02249,0.11664,0.0483,0.21,-0.0529,0.1799,-0.2554,0.234,0.1173,-0.269,-0.05405,-0.12494,-0.0787,0.297,-0.05777,-0.0711,-0.01756,-0.1727,0.3892,0.2703,0.02777,0.1312,-0.3186,0.744,0.1476,-0.05554,-0.07196,0.1577,0.091,-0.04404,0.1788,0.084,0.2478,-0.1268,-0.11456,0.023,-0.00808,0.253,-0.1779,0.06506,0.0576,-0.1641,-0.7144,0.1318,-0.1161,-0.10516,0.08057,-0.2698,-0.04352,1.142,-0.2393,0.07336,0.003696,0.3271,0.1455,0.184,0.06125,0.0898,1.217,-0.2256,-0.1293,-0.05865,0.1985,0.09674,0.0609,0.0955,0.941,-0.0901,-0.2249,0.2544,-0.1287,0.2394,-0.0762,-0.05356,0.12103,0.3965,-0.146,0.2583,0.2311,0.0984,0.2233,-0.1687,0.07916,0.1599,0.11725,-0.02878,0.04468,0.3958,0.02423,0.2357,-0.136,0.357,-0.315,0.008514,0.327,-0.02666,-0.1233,-0.3577,0.1846,0.305,-0.0559,-0.9014,-0.0522,-0.195,-0.3982,0.02975,-0.01042,-0.167,0.1231,0.10944,0.06036,0.02295,0.2157,0.2162,0.001918,-0.6055,0.2083,-0.02179,-0.02208,0.007114,-0.02008,-0.01822,-0.0513,-0.1763,0.3977,-0.324,-0.611,-0.456,-0.1698,0.1854,-0.2815,-0.202,-0.02557,0.04575,-0.05283,-0.1998,-0.11035,0.011856,0.0311,0.5034,-0.04187,-0.085,0.1687,0.1455,-0.04736,0.39,-0.3816,-0.04486,-0.09283,0.0595,0.1879,-0.1753,0.05927,-0.4429,0.00638,-0.2041,-0.1575,-0.1226,-0.29,-0.2683,-0.3135,-0.08246,-0.03497,0.05032,-0.1984,-0.43,-0.1501,-0.03983,-0.1415,0.01962,-0.1561,-0.1818,0.004192,0.2527,0.2893,0.1583,-0.012825,-0.4705,0.0975,0.1029,0.03632,-0.144,0.0735,0.058,0.2864,-0.1002,0.1203,0.2993,-0.2494,-0.1501,-0.4375,-0.06067,0.1895,-0.10803,-0.256,-0.1165,-0.3308,0.287,0.005756,0.1436,-0.1687,0.3005,-0.01159,0.4263,-0.011024,-0.1633,-0.1012,0.1154,-0.1127,0.0862,-0.274,0.2673,-0.322,-0.04633,-0.277,-0.0704,0.1349,-0.04437,0.0855,-0.3147,0.1423,-0.2417,0.1345,-0.01816,0.2228,0.002468,-0.0816,-0.02434,-0.0809,0.2524,0.03528,-0.0803,-0.2065,-0.04346,-0.3262,-0.0669,-0.04782,0.0981,-0.0751,-0.03278,-0.0446,0.2605,-0.3635,0.0907,0.0642,-0.2239,0.7324,0.02927,0.0763
banana,0.0675,0.1606,-0.3154,-0.03738,-0.06854,-0.00954,0.122,0.8027,0.05853,0.2021,0.1865,0.1462,0.2085,0.007786,-0.188,-0.0655,0.1339,0.1576,0.1893,-0.01956,-0.55,0.002525,-0.2385,0.04956,-0.004494,0.0901,0.005436,-0.185,-0.04315,0.1423,0.252,-0.2375,0.09204,0.03467,-0.275,-0.155,-0.1927,-0.0697,-0.3333,0.03018,-0.03072,-0.199,-0.05234,-0.1494,-0.02295,1.01,0.3606,0.3064,0.0933,-0.2134,0.01945,-0.04294,0.1748,-0.1582,0.2952,0.05524,0.07574,0.131,-0.1315,-0.00505,0.6133,-0.0864,-0.216,-0.3872,-0.1279,0.1047,-0.2225,0.355,-0.2546,-0.1737,-0.08905,-0.1146,-0.007603,0.1632,-0.27,-0.000805,-0.0552,-0.169,-0.2246,-0.4185,0.02682,-0.1497,0.10706,-0.7407,0.407,0.2393,0.2751,0.0596,-0.04596,-0.3083,0.0846,-0.1486,-9.1,0.5493,0.2151,-0.0506,-0.1222,-0.0833,-0.1017,0.3225,0.1578,-0.07874,0.1246,-0.1898,0.05603,0.1131,-1.089,0.24,-0.2568,-0.0927,-0.05646,0.06143,0.05606,0.001066,0.03357,0.06198,0.1017,-0.179,0.1655,0.01053,-0.1943,-0.5684,0.118,0.2042,0.207,-0.02304,0.0901,-0.05325,0.2106,-0.0575,0.10364,-0.2067,0.02116,1.161,0.165,0.414,-0.001883,-0.5996,-0.2212,-0.02579,0.2947,0.2003,-0.2263,-0.06104,-0.1625,0.161,-0.3423,0.3003,-0.1057,-0.02063,-0.2798,-0.1825,0.02187,0.03214,-0.3552,-0.3564,0.3137,-0.0938,-0.33,-0.07104,0.08136,-0.09924,0.1418,-0.1793,0.0625,0.1046,-0.2708,0.10626,0.10077,-0.0228,0.268,-0.2805,0.1466,-0.1028,0.0709,0.1947,0.5073,0.261,0.1394,-0.04843,-0.1588,-0.1825,-0.0246,0.01933,-0.5454,-0.2903,-0.12427,0.2357,0.2435,0.04996,-0.0846,0.0725,0.2096,-0.2423,0.414,-0.04297,-0.01294,-0.0545,-0.3618,0.0629,-0.1409,0.0373,0.08514,0.2494,0.1088,0.03253,-0.185,-0.077,0.1464,-0.3342,-0.3225,0.3357,-0.0193,-0.02153,-0.0097,0.04794,-0.1873,-0.1476,0.745,-0.1145,0.618,0.11707,0.12177,-0.01371,0.1996,0.11884,0.10706,0.00478,-0.0636,0.2747,0.0778,0.1587,0.2532,-0.1743,0.0878,0.496,0.01965,-0.0922,-0.1692,-0.2139,-0.11237,0.477,0.2625,0.03607,0.05325,-0.61,-0.0761,0.3284,0.2339,0.1259,-0.1484,0.0771,0.338,-0.1686,0.1351,0.0387,-0.00877,-0.0748,-0.6836,-0.2124,-0.05453,-0.00962,0.04373,0.111,0.005062,-0.04025,0.1357,-0.1814,0.149,-0.2231,0.1991,0.1045,-0.4224,-0.0444,-0.05112,0.0195,0.3562,-0.2299,-0.01662,-0.02457,-0.006073,0.0935,0.297,0.07587,0.05035,-0.3584,0.537,0.1353,-0.11127,-0.0879,0.1184,0.09344,0.0673,0.214,0.1173,0.4268,0.1155,-0.10205,-0.03625,-0.0798,0.1388,-0.1926,-0.1418,0.006596,-0.1813,-0.5713,0.03354,-0.24,-0.04434,0.1635,-0.3174,-0.0642,1.16,-0.10065,0.107,0.006924,0.326,0.2766,0.2086,0.01729,0.07245,1.381,-0.1935,-0.02142,-0.1877,0.2734,-0.05792,0.1068,0.2017,0.9233,-0.0705,-0.1793,0.3098,-0.1394,0.237,-0.2466,-0.10474,0.1635,0.3745,-0.01164,0.1364,0.253,0.0902,0.0446,-0.1969,0.0823,0.0897,-0.00944,0.0753,-0.01262,0.4595,0.07806,0.1373,-0.2399,0.323,-0.3967,-0.03864,0.2086,-0.0302,-0.09485,-0.4924,0.2183,0.3145,-0.05548,-0.711,0.1273,-0.08844,-0.3809,0.04242,-0.145,-0.1791,0.01955,0.0242,0.0895,0.2158,0.397,0.2695,-0.03455,-0.744,0.2137,-0.0356,-0.1342,0.02698,-0.1375,-0.1421,-0.03674,-0.1438,0.385,-0.499,-0.701,-0.433,-0.03986,0.084,-0.2378,-0.00761,0.0724,-0.10944,-0.1471,-0.2268,0.03082,0.1103,0.0986,0.571,0.01219,-0.2094,-0.03302,0.1313,-0.01877,0.4124,-0.4329,-0.2324,-0.0954,-0.02113,0.2659,-0.2756,0.2146,-0.3735,0.0612,-0.2313,-0.1879,-0.10565,-0.2786,-0.1843,-0.2151,-0.05652,0.08374,0.03056,-0.338,-0.2966,-0.11163,-0.2177,-0.1456,0.391,-0.261,-0.1863,-0.0682,0.155,0.3625,0.05875,0.0596,-0.4346,0.327,0.09814,-0.02707,-0.1461,0.2534,0.08453,0.2654,0.0649,-0.0417,0.1622,-0.1628,-0.1486,-0.4827,-0.1023,0.3313,0.01217,-0.3113,-0.2058,-0.299,0.3865,0.0752,0.01785,-0.2161,0.52,-0.08636,0.1875,0.004997,-0.196,-0.1174,0.2332,-0.09827,-0.1048,-0.2443,0.08203,-0.2202,-0.1288,-0.1638,-0.03162,-0.02821,-0.1427,0.1351,-0.2108,0.208,-0.3584,0.04144,-0.01527,0.1665,-0.07556,-0.0814,0.1077,0.01368,0.06274,0.0246,-0.09503,-0.2412,-0.2206,-0.3289,-0.05222,-0.0705,0.334,-0.001196,-0.079,0.06094,0.245,-0.3118,0.1021,0.00581,-0.0588,0.841,0.06195,0.1782
basement,-0.0669,-0.1296,-0.014984,0.1509,0.1644,-0.05994,0.2844,0.541,0.05634,0.09406,0.1664,-0.0901,0.11523,0.00964,0.1726,-0.1544,-0.9766,0.07837,0.0678,-0.04208,-0.02928,0.01732,-0.04974,0.4,0.009575,0.0896,0.1433,-0.102,-0.00793,0.05228,0.148,0.1788,-0.2218,-0.3604,-0.2015,0.1528,-0.339,-0.1313,-0.005272,-0.2257,-0.4043,-0.09674,-0.01456,-0.042,-0.1373,1.129,0.05484,-0.08875,0.04214,0.0569,0.2534,0.158,0.1702,-0.008835,0.1184,0.03592,-0.04236,0.05994,-0.1533,0.00462,-0.2993,-0.1461,-0.2018,-0.04263,-0.1615,-0.075,0.03525,0.766,-0.3062,-0.1583,-0.07367,-0.00887,-0.01215,-0.1675,-0.1315,-0.1522,-0.0986,-0.1547,-0.0675,-0.4749,0.0868,-0.1245,-0.2534,0.1802,0.1713,0.3772,1.15,-0.269,0.001194,-0.1617,0.3704,-0.03986,-7.977,0.1814,-0.2377,0.391,0.14,-0.001235,-0.06647,0.367,0.0941,-0.1406,0.2969,0.08655,0.004745,0.1119,-0.4224,0.1703,-0.0924,0.03018,-0.02809,0.0793,0.1697,-0.04044,0.00914,-0.06076,-0.2115,-0.1766,0.1864,-0.02695,0.1632,-0.7827,0.11554,-0.06506,0.1819,-0.2698,-0.3362,-0.1418,0.0278,0.04926,0.09753,-0.3613,-0.1378,1.005,-0.03586,0.0618,-0.0488,-0.2067,-0.3323,0.05722,-0.07837,-0.1229,0.3047,0.10016,-0.0747,-0.0767,-0.3533,0.1898,-0.11224,0.06396,-0.12036,-0.2654,-0.3992,-0.03107,0.0292,-0.4365,0.0917,-0.22,-0.184,-0.2627,-0.1292,0.02397,0.234,-0.162,-0.0484,-0.2112,0.741,0.07983,0.07495,-0.1597,0.1372,-0.01944,-0.10455,0.1693,-0.276,0.2314,0.59,0.1715,-0.376,0.151,-0.01472,-0.385,-0.05508,0.04132,0.003332,-0.0005856,0.1367,0.053,0.0403,-0.1442,0.0879,-0.2239,0.1826,0.05887,-0.321,0.193,-0.1864,0.014725,-0.501,0.10547,-0.00592,0.098,-0.10724,-0.01987,0.138,-0.007515,-0.268,-0.1572,0.04037,-0.2224,-0.256,0.3167,0.1718,-0.0718,0.0795,-0.06177,0.1615,0.2615,1.169,-0.01926,0.3994,-0.03226,-0.1989,-0.3474,-0.03497,-0.09247,0.10596,0.06604,-0.01877,-0.01735,-0.1014,-0.013016,0.0914,0.0364,0.09326,0.53,-0.004047,-0.02861,0.03293,-0.2311,-0.0707,0.2007,0.01134,0.08405,-0.1584,0.669,0.00815,0.1207,0.0699,0.3203,-0.07214,-0.0204,0.2118,0.05783,-0.0968,0.03415,0.06158,0.0866,-0.788,-0.03677,-0.02245,-0.003025,0.03888,0.1943,0.1343,-0.11066,0.004993,-0.05164,0.01512,0.006695,-0.111,0.2532,0.03674,0.1276,0.01393,-0.1736,-0.0459,-0.2822,-0.03796,-0.0324,0.1912,0.455,0.2484,0.1644,0.02718,0.1918,0.4885,-0.07916,-0.0743,-0.3274,0.3618,-0.234,0.286,-0.0991,-0.1843,0.1423,-0.3237,0.1401,0.0667,0.07416,0.0651,0.1032,-0.03757,-0.10504,0.11163,-0.7896,0.004322,-0.01519,0.07214,-0.01599,-0.2803,0.419,1.004,-0.0675,-0.001903,0.04843,0.3086,0.1831,0.2279,0.4368,0.0642,0.7344,-0.02995,0.02708,-0.2898,-0.01327,-0.04562,-0.1376,-0.0462,0.2715,-0.1909,0.10345,0.1566,-0.362,-0.07745,-0.05267,0.2125,0.2362,-0.03558,0.0341,-0.07245,-0.1917,0.1858,0.012596,-0.2056,0.00659,0.0275,0.1327,-0.055,-0.3489,0.6045,0.02779,-0.1543,0.119,-0.08167,-0.1083,0.11523,0.8066,0.04214,0.05188,-0.6646,0.1825,0.4966,0.154,0.1906,0.104,-0.00948,-0.816,0.1279,0.1659,0.0477,-0.0401,0.04984,0.2664,0.1108,0.09467,1.345,0.04996,-0.2045,0.2034,0.07275,-0.0817,-0.3818,-0.2922,0.12366,-0.4358,0.2007,0.1636,-0.1321,-1.943,-0.501,0.2559,-0.078,-0.0477,-0.2861,-0.2053,0.0934,0.05713,-0.3696,0.00767,0.04935,0.1863,1.032,0.0006037,0.07043,0.2744,0.0674,0.111,-0.0817,0.01616,0.1372,0.2668,0.05606,0.1277,-0.04846,-0.0411,-0.1428,-0.1497,0.01369,-0.06082,-0.2761,-0.07477,0.02345,0.2092,-0.336,0.1545,-0.4321,-0.1597,0.1416,0.264,-0.3535,-0.2037,-0.3027,-0.0622,0.03815,-0.11926,0.0407,0.1886,-0.1462,-0.1176,-0.1246,-0.02481,0.2146,0.0725,0.1837,-0.03415,-0.1975,0.1099,-0.1912,0.02957,0.2354,-0.2896,-0.05304,0.2927,0.1053,-0.0113,0.3308,-0.0781,0.0797,0.2715,0.02345,-0.0806,0.02419,-0.2898,0.4878,-0.00484,-0.1263,-0.03418,-0.2124,-0.1858,0.03473,0.06396,0.06934,-0.3538,-0.1263,-0.08,-0.07623,-0.01688,-0.2295,-0.2068,-0.1956,-0.2563,-0.09796,0.02516,-0.12134,0.2324,-0.201,-0.01678,-0.0795,-0.1299,0.00834,0.01249,0.367,-0.02658,0.0316,0.034,-0.01949,0.02437,-0.1638,0.1927,0.001858,0.235,-0.0476,0.09045,0.02487,-0.08765,0.05365,0.0766,-0.1914,0.3982,0.08514,0.01143
basket,-0.0661,-0.02213,-0.2708,-0.1302,0.07324,-0.02518,0.2146,0.763,0.0199,0.1952,0.2876,0.1837,0.3403,-0.05246,-0.187,0.1615,-0.06235,0.1737,0.1367,-0.01048,-0.1239,-0.02942,0.02422,-0.05524,0.03284,0.0448,0.0376,-0.229,0.004826,0.253,0.09204,-0.157,0.12244,-0.1953,-0.3948,-0.167,-0.321,-0.04327,-0.3254,0.0646,-0.147,-0.2761,-0.03412,-0.18,-0.1544,0.632,0.166,0.10614,0.01765,-0.07367,0.1075,0.0616,0.199,-0.1538,0.1393,-0.08563,-0.1099,0.0471,-0.1571,-0.0885,0.1707,-0.1079,0.003613,-0.3787,0.01076,0.07153,-0.05634,0.08624,-0.2705,-0.1847,-0.06866,-0.02899,0.1415,-0.01442,-0.251,-0.11505,-0.04227,-0.1405,-0.1891,-0.3105,-0.12354,-0.01927,0.07623,-0.7886,0.3792,0.273,0.3926,0.02122,-0.2847,-0.2384,0.1126,-0.0503,-8.94,0.422,0.0631,0.073,-0.03073,-0.06384,-0.05762,0.2717,0.015594,-0.2617,0.228,-0.0784,0.0222,0.0988,-1.1,0.27,-0.2695,-0.0731,-0.0352,0.07825,0.1438,-0.0835,0.00184,0.07825,-0.2042,-0.2405,0.0525,0.03793,-0.1725,-0.6074,0.1742,0.2893,0.1885,-0.01464,-0.03268,-0.0928,0.0813,0.05487,0.0652,-0.2373,0.062,1.147,0.1024,0.2993,0.199,-0.463,-0.1383,0.1306,0.2129,0.031,-0.1418,-0.05313,-0.1101,0.135,-0.2825,0.3184,-0.1317,0.005352,-0.075,-0.1497,-0.0843,0.1453,-0.3008,-0.338,0.1644,-0.05435,-0.135,-0.0833,0.00481,-0.0914,0.1908,-0.1007,0.10095,0.1398,-0.0901,0.03099,0.0806,-0.09607,0.3152,-0.2883,0.0549,-0.09735,-0.002739,-0.02284,0.7617,0.257,-0.0469,-0.05887,-0.1378,-0.2032,-0.0569,0.10767,-0.4854,-0.282,-0.08826,0.06018,0.09314,-0.049,-0.04663,0.10046,0.03125,-0.1597,0.2303,-0.0672,-0.02824,-0.0757,-0.455,-0.11017,-0.03592,0.08655,0.0299,0.1882,-0.01907,0.1128,-0.1902,-0.12146,0.1616,-0.3938,-0.2341,0.10657,-0.04858,-0.04974,-0.07056,0.0962,-0.0746,-0.03662,0.646,-0.28,0.5776,-0.01109,0.1434,-0.09,0.1029,0.2537,0.2002,-0.01232,-0.08746,0.3684,0.0746,0.0391,0.163,0.01935,-0.0955,0.528,-0.0433,-0.08203,-0.2397,-0.1454,-0.1626,0.1779,0.09894,0.1685,0.00902,-0.2886,-0.097,0.265,0.2139,0.2074,-0.2722,0.0174,0.3325,-0.07306,0.10583,0.0182,0.0734,-0.0936,-0.4448,-0.3474,0.1055,0.03262,0.01163,0.2522,-0.01976,0.1318,0.1708,-0.0992,0.1854,-0.262,0.1838,-0.01968,-0.2357,-0.0798,-0.2448,0.01715,0.3464,-0.2135,-0.0377,0.03668,-0.05588,0.2998,0.2798,-0.05383,0.05664,-0.2372,0.6562,0.0666,-0.2183,-0.1931,0.1614,0.0326,-0.03656,0.1731,0.11255,0.338,0.02324,-0.1322,0.003254,-0.05957,0.1531,-0.1718,-0.0404,0.1543,-0.1309,-0.6196,-0.106,-0.1017,-0.07733,0.0582,-0.37,0.155,1.147,-0.11615,0.2747,-0.02098,0.3818,0.2732,0.11646,0.02205,0.11975,0.8906,-0.1727,-0.02515,-0.1865,0.07153,0.0645,0.1265,0.1753,0.9385,-0.01952,-0.0843,0.317,-0.3694,0.1971,-0.1416,-0.0671,0.00334,0.3496,-0.054,0.2507,0.10693,0.08563,0.01993,-0.3105,0.01564,0.03543,0.0376,-0.03616,0.1104,0.4238,-0.1805,0.2203,-0.0703,0.1333,-0.557,-0.1985,0.5283,-0.002134,-0.1442,-0.582,0.2234,0.3381,-0.02536,-0.761,-0.01572,0.05286,-0.2448,0.07574,-0.0611,-0.2177,0.02255,0.01563,0.02625,0.04947,0.2046,0.3052,-0.03598,-0.3901,0.1959,-0.05832,0.1247,-0.1495,-0.1338,-0.01773,-0.00894,0.015015,0.3008,-0.3367,-0.784,-0.3481,-0.00922,0.02853,-0.2246,-0.1876,-0.02995,0.00739,0.0177,-0.246,0.0895,0.1159,0.0875,0.6377,-0.0364,-0.1857,0.1137,0.1654,0.0546,0.299,-0.1904,-0.0448,-0.0892,-0.03455,0.1886,-0.1393,0.2522,-0.3557,-0.1218,-0.0345,-0.2327,-0.2201,-0.0173,-0.1552,-0.0903,-0.1225,0.08057,0.1953,-0.4626,-0.33,-0.1037,-0.0577,-0.1503,0.37,-0.2041,-0.00482,-0.007618,0.11194,0.3606,-0.006413,-0.0646,-0.327,0.02287,0.0826,0.00523,0.014915,0.1317,-0.01535,0.1732,-0.02467,0.0568,-0.1279,-0.1757,-0.1415,-0.4631,-0.04517,0.2017,-0.00725,-0.2864,-0.06494,-0.0884,0.3074,0.04987,0.1001,-0.289,0.5103,-0.04837,0.08795,-0.0927,-0.165,-0.1976,0.1837,-0.03094,-0.003433,-0.1573,0.1026,-0.2266,-0.1001,-0.1119,0.012276,-0.081,-0.04584,0.1826,-0.12177,0.2344,-0.0752,0.1707,0.04413,0.2239,0.04172,-0.0787,0.033,-0.07666,0.1766,0.04462,-0.03955,-0.283,-0.0798,-0.321,-0.04526,-0.279,0.1847,-0.0081,-0.07275,-0.0264,0.3376,-0.1461,0.1284,0.01984,-0.1134,0.84,-0.02937,0.0738
bat,-0.1029,0.10223,-0.04407,-0.0203,0.1202,0.01564,0.1007,0.5684,-0.0965,0.0706,0.2847,-0.0216,0.2378,0.00852,-0.07745,0.10626,-0.2,-0.009834,0.1785,-0.2913,-0.1758,0.0636,-0.2324,0.136,-0.1156,0.02762,-0.02835,-0.2086,-0.01167,0.0679,0.1509,-0.02147,0.07874,-0.2343,-0.02667,0.056,-0.3564,0.0852,-0.2664,0.01668,-0.1875,-0.1724,-0.05905,-0.0559,0.0579,0.6626,0.35,0.04242,-0.0739,0.0005307,0.008156,0.1181,0.1053,-0.1278,0.03235,0.01463,-0.02528,0.1969,-0.1133,0.02718,0.533,-0.1608,-0.10016,-0.1542,-0.0966,0.02498,-0.2094,0.584,-0.2351,-0.21,-0.1061,-0.009926,-0.03992,0.1267,-0.1686,-0.2144,-0.0907,-0.244,0.00301,-0.4011,-0.12274,-0.03674,-0.06235,-0.6387,0.223,0.2484,0.5405,-0.04034,0.04922,-0.06635,0.1449,-0.09076,-8.49,0.5386,-0.1257,0.10034,0.009735,0.02951,-0.4617,0.3716,0.1217,-0.05557,0.2434,-0.02571,0.0169,0.0861,-1.194,0.04755,-0.0592,-0.1162,-0.01912,0.2378,0.08636,0.08856,0.007736,-0.003382,-0.0877,-0.1781,0.03192,-0.1288,0.000829,-0.604,0.1604,0.2054,0.1469,-0.04608,0.0201,-0.09235,0.16,-0.1214,0.11993,-0.2202,-0.06174,1.068,0.2148,0.04526,0.099,-0.3745,-0.289,-0.0653,0.00582,0.1573,0.03592,-0.06168,-0.0865,0.1605,-0.2905,0.2367,-0.021,-0.04044,-0.04672,-0.2054,0.0355,-0.10645,-0.1681,-0.4512,0.1615,-0.1573,-0.3064,-0.10535,-0.0629,0.003956,0.1693,-0.2384,0.0997,-0.1367,0.1906,0.2363,0.0974,-0.03955,0.2566,-0.0849,0.02328,-0.0717,-0.2029,-0.1707,0.664,0.1809,-0.2039,0.05002,-0.04022,-0.1493,-0.04645,-0.03653,-0.2866,-0.001724,-0.1139,0.1143,0.3328,-0.0945,0.04837,-0.1366,0.08215,-0.2185,0.0819,-0.1091,-0.0898,-0.03732,-0.1192,-0.03326,-0.02654,0.12024,-0.0678,0.1864,-0.05945,0.004063,-0.284,0.01593,0.03244,-0.253,-0.3105,0.1426,-0.03033,-0.1266,0.00512,-0.04184,0.02177,-0.066,0.3843,-0.2874,0.4463,-0.06354,-0.05215,-0.1438,0.0714,1.615e-05,0.0708,0.02095,0.0788,0.06506,-0.03099,0.10455,0.2764,0.009254,-0.0186,0.411,0.01522,-0.00852,-0.1592,-0.1465,-0.09314,0.254,0.1503,0.1517,-0.03525,-0.3274,-0.0748,0.442,0.11975,0.3367,-0.2229,0.0953,0.2966,0.06915,-0.0536,0.01784,0.0953,0.0183,-0.6704,-0.04648,-0.1365,0.02034,0.1204,-0.218,0.0735,0.1532,0.2372,-0.0583,0.08374,-0.1843,-0.07404,-0.0008426,-0.1164,-0.007233,-0.0651,-0.1488,0.0631,-0.1871,0.1458,-0.139,-0.05426,0.2976,0.1598,0.12366,0.11804,-0.1233,0.8384,0.04718,-0.2383,-0.2103,0.2927,-0.06854,-0.1175,0.0778,0.02089,0.251,-0.3308,0.1255,0.0404,-0.10114,0.3132,-0.139,-0.0892,0.01254,-0.11957,-0.634,-0.0926,-0.1004,-0.022,0.1048,-0.1859,0.0773,1.067,-0.12164,0.173,-0.11694,0.348,0.1126,0.0645,-0.191,-0.02773,1.038,-0.1377,0.1357,-0.4365,0.157,0.1584,-0.0657,0.07385,0.604,-0.061,0.03595,0.2725,-0.08655,0.1578,-0.1447,0.05093,0.05133,0.149,-0.1226,0.04422,-0.01642,0.1519,0.02933,-0.1823,0.05493,0.0679,0.1072,0.189,-0.1819,0.4414,0.03108,0.1456,-0.02303,0.1598,-0.442,0.05707,0.4304,-0.04935,-0.05096,-0.4536,0.2097,0.4797,-0.1377,-0.356,-0.05914,0.01398,-0.6475,-1.59e-05,0.1058,-0.08075,-0.1022,0.03784,0.0303,0.024,0.1628,0.783,0.05093,-0.296,0.3274,0.05298,0.1284,-0.1283,-0.374,-0.0497,-0.04916,-0.02676,0.2869,-0.08765,-1.226,-0.4636,0.003304,-0.03787,-0.286,-0.1716,-0.02382,0.12384,-0.11475,-0.2004,0.03586,0.07294,0.1605,0.6772,-0.00668,-0.043,0.146,0.2942,-0.01935,0.3484,-0.2166,-0.005634,-0.1373,-0.01599,0.1437,-0.12463,0.1012,-0.198,0.02689,-0.01706,0.01685,-0.2452,-0.1228,-0.1171,0.02402,-0.1525,-0.0468,-0.1556,-0.338,-0.3489,-0.05722,-0.1865,-0.0277,0.241,-0.03815,-0.06384,-0.09283,0.06744,0.1852,0.03607,0.0735,-0.2292,0.2532,0.11395,0.05652,0.0804,0.151,0.0833,-0.01167,-0.0831,0.01016,0.2294,-0.1155,0.0218,-0.4917,0.04654,0.04413,0.1433,-0.1139,-0.1469,-0.10516,0.2634,0.0649,0.07574,-0.1842,0.4348,-0.1553,0.2769,-0.02,-0.238,-0.351,0.11035,-0.1403,-0.0699,-0.1038,-0.02989,-0.222,-0.03738,0.0004187,0.01947,-0.12067,-0.1976,0.1525,-0.0624,0.0803,-0.03091,-0.0479,-0.12244,0.1054,-0.0874,-0.1045,0.2095,0.05563,0.1039,-0.003046,-0.1832,-0.2888,-0.05255,-0.255,-0.2151,0.1189,0.10815,0.157,-0.1121,0.02464,0.01364,-0.2705,0.05908,0.0168,-0.2808,0.766,-0.006546,0.1901
bathroom,-0.1059,0.08704,-0.01846,0.329,0.1476,0.08453,0.2047,0.648,0.044,-0.01416,0.1206,-0.01743,0.2415,0.00597,0.1653,-0.2466,-0.5835,0.0751,0.1573,-0.0808,0.09796,-0.0738,-0.05893,0.1522,-0.0779,0.0999,0.04312,-0.1703,0.0986,0.0764,0.1246,0.2896,-0.1065,-0.2751,-0.3386,0.1051,-0.2969,-0.17,-0.08624,-0.2096,-0.2162,-0.07904,-0.1322,-0.1053,-0.0958,0.646,0.04907,-0.10486,-0.11395,0.06885,0.2072,0.0721,0.1467,-0.1279,0.1148,0.06586,-0.1747,-0.03198,-0.04388,0.0964,-0.2598,-0.1768,-0.03564,-0.1194,-0.12213,0.0705,0.274,0.4668,-0.2266,-0.1643,-0.09546,0.02129,0.0233,-0.0695,-0.1953,-0.1455,-0.03302,-0.1465,-0.05582,-0.3567,0.0762,-0.1592,-0.0889,0.02167,0.2286,0.3042,1.157,-0.2092,-0.4417,-0.11835,0.3767,0.09766,-8.89,0.1809,-0.09595,0.3062,0.1697,0.1052,0.0748,0.0941,0.01941,-0.1504,0.1536,0.03888,0.261,0.002329,-0.6074,0.1071,-0.0942,-0.0676,-0.1556,-0.1204,0.0859,-0.1672,-0.00968,0.01081,-0.2278,-0.1875,0.1775,0.11664,0.0722,-0.5444,0.1376,0.04764,0.2496,-0.0705,-0.1421,-0.1505,0.09155,0.1921,0.09546,-0.3936,-0.135,1.107,0.05014,0.156,-0.02058,-0.2776,-0.3616,0.04678,-0.03613,-0.0907,0.06024,0.2257,-0.1159,0.08887,-0.2357,0.252,-0.0815,0.02843,-0.1655,-0.2646,0.05478,-0.1663,0.04422,-0.3757,0.1631,-0.1183,0.07635,-0.1537,-0.2073,-0.1311,0.1768,-0.0567,0.01683,0.0342,0.5664,0.1876,0.1464,-0.265,0.1417,-0.1594,-0.1322,-0.001952,-0.3271,0.0878,0.7617,0.2028,-0.2864,0.02551,0.1726,-0.367,-0.1475,0.06186,-0.1396,-0.02348,0.1284,0.1119,0.03903,-0.1549,0.01987,-0.1392,0.09674,-0.0969,-0.1151,0.05325,-0.12115,0.05008,-0.714,0.04388,-0.0322,0.05823,-0.00231,0.0903,0.1328,-0.05576,-0.1583,-0.03564,0.11676,-0.06247,-0.334,0.4573,0.06647,-0.02158,0.1449,-0.04153,0.1169,0.0933,0.8716,-0.03275,0.2876,0.04532,-0.131,-0.3752,-0.03604,-0.00891,-0.03165,0.0737,0.05997,0.0067,-0.1099,-0.03342,0.02202,0.1611,0.03918,0.604,0.051,0.1127,-0.0215,-0.2683,-0.01492,0.296,-0.1146,0.03897,-0.2113,0.3035,0.05347,0.19,0.1702,0.1833,0.04074,0.06903,0.2133,0.0428,0.03186,0.01401,0.0437,0.1013,-0.4531,0.00376,-0.0529,-0.03735,0.05325,0.4631,0.1197,-0.06018,-0.04932,-0.08514,0.1046,-0.03784,-0.0975,0.2263,-0.03818,0.1932,0.04077,-0.1179,0.087,-0.3545,-0.1277,-0.0731,0.1777,0.3389,0.07965,0.246,0.06116,0.09894,0.3403,-0.044,-0.07214,-0.306,0.2607,-0.2269,0.188,-0.0202,-0.1456,0.218,-0.3474,0.2769,0.08307,-0.01903,0.02025,-0.0803,0.04385,0.04254,0.0925,-0.8345,-0.10187,0.01337,0.04007,0.01467,-0.348,0.4915,1.106,0.05023,0.1622,0.09595,0.2644,0.2017,0.1593,0.1344,0.1046,0.9517,-0.04227,0.007076,-0.2695,0.1698,0.1305,-0.2546,0.03848,0.6836,-0.193,-0.01155,0.10565,-0.3203,0.0771,-0.00011903,0.1272,0.164,0.01321,0.0977,-0.09625,-0.1586,0.03247,0.0586,-0.10864,-0.0594,-0.01127,0.0459,0.1312,-0.2917,0.807,-0.0514,-0.1544,0.01643,-0.03818,-0.471,-0.10565,0.873,0.02849,0.01077,-0.6753,0.11316,0.4802,0.1309,0.04602,0.0595,-0.1555,-0.6836,0.05066,0.1647,0.001337,-0.02664,-0.0344,0.0735,0.24,0.0864,0.89,0.08844,-0.571,0.198,0.00733,-0.00991,-0.3345,-0.0457,0.1282,-0.177,0.2278,0.2062,-0.2438,-1.55,-0.3315,0.1979,0.03442,0.02298,-0.2228,-0.1461,0.142,0.05176,-0.3818,0.10254,-0.10114,0.12366,0.9897,-0.0607,0.010185,0.11224,0.1191,0.0598,-0.03516,-0.02979,-0.03262,0.173,-0.00797,0.1893,-0.06635,0.06635,-0.1941,0.0347,-0.1326,-0.1588,-0.2134,0.00731,0.02533,0.2045,-0.1951,0.1432,-0.2676,-0.0898,-0.03647,0.1571,-0.2463,-0.01707,-0.2238,-0.1611,0.01761,-0.02895,0.11664,0.08026,-0.0751,-0.07605,-0.0975,-0.03488,0.2179,0.03174,-0.05386,0.06464,-0.07947,0.09375,-0.1416,-0.07794,0.406,-0.2817,-0.08167,0.0855,0.01811,0.027,0.1788,-0.1357,0.06805,0.082,0.12146,-0.0549,-0.10333,-0.1672,0.375,0.087,-0.0671,-0.1381,-0.2583,-0.091,0.02087,0.1516,0.1616,-0.3164,-0.1186,-0.139,-0.2153,0.02661,-0.1854,-0.1582,-0.1287,-0.06506,-0.1223,0.2314,-0.01901,0.1589,-0.07306,0.2024,-0.07764,-0.05963,-0.03543,0.1335,0.349,-0.0342,0.0856,-0.04816,-0.0486,0.0644,-0.1182,0.02518,-0.02335,0.0706,-0.06137,0.2435,0.57,-0.07825,0.02237,-0.1835,-0.274,0.5527,0.0969,-0.1091
bathtub,-0.1304,0.10675,-0.02135,0.1462,0.08026,0.04245,0.07086,0.644,0.03204,-0.002705,0.1818,0.04135,0.2051,0.109,0.09204,-0.1295,-0.4092,0.132,0.1738,-0.03964,-0.2988,-0.01062,-0.09717,0.0908,-0.1173,0.0747,-0.1159,-0.2014,0.0303,-0.02069,0.0756,0.0702,-0.02986,-0.2335,-0.3027,0.1573,-0.2986,-0.02446,-0.1194,-0.03186,-0.1978,-0.00962,-0.1222,-0.01153,-0.05188,0.867,0.4028,-0.10614,-0.01979,0.1655,0.0265,0.12,0.1218,-0.1647,0.05643,0.04645,-0.2056,0.1554,-0.0837,0.01964,0.05542,-0.1814,-0.0699,-0.09705,-0.0762,0.1337,0.1444,0.605,-0.2727,-0.1991,-0.1026,-0.01283,0.0703,-0.1249,-0.2421,-0.09576,-0.11084,-0.2096,-0.0693,-0.2129,-0.11005,-0.02708,-0.02354,-0.5996,0.261,0.2067,0.888,-0.0263,-0.231,-0.1598,0.2756,0.01587,-8.836,0.4358,-0.09937,0.1381,0.04068,0.09985,0.02434,0.3643,0.1141,-0.1832,0.1809,0.07306,-0.151,0.04675,-0.9165,0.06555,-0.1098,-0.07965,-0.0944,0.1427,0.1614,-0.1943,0.01306,0.02863,-0.05923,-0.0366,-0.03757,-0.0487,0.07025,-0.6265,0.1383,0.097,0.2181,-0.0939,-0.0659,-0.2428,0.1279,0.0644,0.1005,-0.4219,-0.02989,1.099,-0.00731,0.07733,0.07574,-0.3936,-0.4285,0.05438,-0.04395,-0.00648,-0.01585,0.11414,-0.1989,0.05762,-0.3167,0.3887,-0.0566,-0.0628,-0.1122,-0.2428,-0.00724,-0.08325,-0.0597,-0.4272,0.2554,-0.1152,-0.1104,-0.1171,-0.0637,-0.07117,0.1254,-0.08575,0.1495,0.0714,0.307,0.06094,0.1859,-0.252,0.0874,-0.1356,-0.004974,0.078,-0.3103,0.1054,0.612,0.2441,-0.1931,0.000576,0.03806,-0.3428,-0.1564,0.004337,-0.2615,-0.05792,0.00897,0.02354,0.2566,-0.158,0.017,-0.01441,0.1666,-0.1356,-0.02106,-0.09064,-0.1595,-0.0613,-0.592,-0.0324,0.04065,0.1277,-0.03677,0.1471,-0.05576,0.0087,-0.264,0.0803,0.03702,-0.12335,-0.1231,0.4314,0.1089,-0.0316,0.1059,-0.005116,0.02116,0.0402,0.574,-0.242,0.4631,-0.0779,0.001474,-0.285,0.1643,-0.0329,0.1373,0.02559,0.1555,0.03696,-0.07947,-0.004265,0.0478,0.1481,-0.1272,0.6343,0.0862,0.0634,-0.01111,-0.1902,-0.0334,0.341,0.09375,0.02261,-0.2183,-0.1433,0.05472,0.3481,0.1702,0.1624,-0.187,0.104,0.3062,-0.02957,-0.12305,-0.043,0.1049,0.1757,-0.682,-0.0821,-0.07153,-0.1304,0.01255,0.3542,0.1233,0.0856,0.10724,-0.11053,0.1462,-0.0581,0.00146,0.1301,-0.0959,0.0591,0.015465,-0.10516,0.03134,-0.3308,0.009926,-0.1198,-0.01744,0.3384,0.2502,0.1375,0.1381,-0.01805,0.4155,-0.081,-0.112,-0.2668,0.1315,-0.2135,0.10583,-0.012474,0.05182,0.2072,-0.3499,0.153,0.02748,-0.06946,0.0945,-0.0521,-0.006348,0.0847,0.0994,-0.6914,-0.064,-0.0361,-0.0542,0.08453,-0.2651,0.3647,1.1,-0.1343,0.248,-0.1357,0.326,0.1583,0.1261,0.07587,0.1475,1.17,-0.11597,0.08417,-0.2869,0.1917,0.1859,-0.1242,0.1245,0.693,-0.2075,-0.04126,0.2131,-0.2705,0.1063,0.0413,0.1898,0.01881,0.03192,0.10803,-0.1142,-0.06107,0.1444,0.07184,-0.2363,-0.0623,-0.02344,-0.00853,0.164,-0.1056,0.5693,-0.00888,-0.09564,0.02994,0.0677,-0.6997,-0.1506,0.61,0.1426,-0.11237,-0.7466,0.1084,0.4978,-0.007385,-0.1914,0.0504,-0.0988,-0.6655,-0.003386,0.1534,-0.07764,-0.03024,0.05917,0.09375,0.1593,0.0772,0.755,0.0436,-0.5825,0.2683,0.02203,-0.01782,-0.335,-0.3564,0.08154,-0.1573,0.08777,0.2761,-0.2358,-1.376,-0.1941,0.1071,0.00716,-0.149,-0.1266,-0.1245,-0.04105,-0.11224,-0.4224,0.234,0.05182,0.10675,0.8447,0.08344,-0.2289,0.1647,0.1857,0.01086,0.0922,-0.07916,-0.0761,-0.010086,-0.107,0.2399,-0.1649,-0.0286,-0.1869,0.00494,-0.04105,-0.12195,-0.3306,-0.0654,-0.01319,0.0408,-0.174,0.03046,-0.2468,-0.2043,-0.2433,0.1874,-0.0929,-0.007015,0.02782,-0.1599,-0.08527,0.01194,-0.00875,0.1244,0.011566,0.05533,-0.1729,0.1769,0.131,0.05643,0.1002,0.0748,0.01133,0.05783,-0.0628,0.07043,0.3328,-0.2556,-0.0509,-0.4243,-0.04453,0.083,0.2018,-0.07764,-0.09796,-0.09906,0.2308,-0.0446,-0.0558,-0.09326,0.4485,0.1236,0.05286,-0.1471,-0.1965,-0.2029,-0.06903,0.0506,0.0879,-0.117,-0.1097,-0.1416,-0.2247,-0.01581,-0.0816,-0.11536,-0.2013,0.1274,-0.02402,0.2372,-0.1296,0.07776,-0.03354,0.1843,-0.04907,0.05072,0.0716,0.0283,0.252,0.0766,-0.05154,-0.1176,-0.1178,-0.144,-0.2285,0.04742,0.155,0.2166,-0.05615,0.1365,0.2837,-0.207,0.01901,-0.1055,-0.258,0.784,0.0835,-0.01904
beads,-0.0809,0.04953,-0.2089,-0.09216,-0.03506,-0.02304,0.2156,0.6294,0.1648,0.1631,0.228,0.148,-0.00957,0.02681,-0.2112,0.2345,-0.1827,0.1326,0.05548,-0.1522,-0.5464,-0.0427,-0.1036,0.0386,-0.10846,-0.00713,-0.06396,-0.1395,0.02318,0.1267,0.04797,-0.1615,0.00859,-0.1934,-0.261,0.0888,-0.2861,0.1519,-0.225,-0.03683,-0.10156,-0.1998,-0.093,-0.01553,-0.02455,0.597,0.185,0.0843,0.0246,0.007034,0.12354,0.103,0.1035,-0.1302,0.0808,-0.06665,-0.2273,0.1296,-0.09326,-0.010605,0.413,-0.1416,-0.1045,-0.2048,0.01845,-0.004837,-0.2107,0.3108,-0.1581,-0.255,-0.1128,-0.02658,0.11316,-0.02919,-0.2595,-0.05716,-0.13,-0.1996,-0.1465,-0.3774,-0.014824,-0.04205,-0.0918,-0.838,0.263,0.2289,0.5537,-0.02397,0.0806,-0.296,0.1989,-0.0748,-8.44,0.2903,-0.00926,0.1013,0.0758,-0.1588,-0.2683,0.3516,0.118,-0.1815,0.2593,-0.0535,-0.08813,0.0007873,-1.012,0.1456,-0.2382,-0.211,0.03183,0.09906,0.2108,-0.05563,-0.12494,0.1134,-0.0283,-0.143,0.0612,-0.0224,-0.2258,-0.592,0.156,0.175,0.1447,0.02785,-0.0169,-0.1545,0.1656,-0.1353,0.11523,-0.2163,-0.03357,1.082,0.2029,0.189,0.0992,-0.518,-0.284,0.0823,0.119,0.1105,-0.0829,0.08813,-0.1755,0.1145,-0.1687,0.2515,-0.135,-0.01971,-0.0897,-0.1886,-0.04,-0.00856,-0.2394,-0.266,0.2314,-0.0787,-0.1653,-0.1469,0.00839,-0.01825,0.06287,-0.0866,0.05582,0.1052,-0.03333,0.03732,0.04166,0.004208,0.0746,-0.0779,-0.02972,-0.05417,-0.1542,0.02443,0.1981,0.3833,-0.00487,0.002758,-0.258,-0.1613,-0.1278,0.06793,-0.3582,-0.1553,-0.10675,-0.01756,0.2291,0.003645,0.0534,0.05493,0.0765,-0.2017,0.3953,-0.00842,-0.01368,-0.1396,-0.2428,0.0415,-0.02866,0.12305,-0.01851,0.1782,-0.0836,0.0491,-0.3418,-0.03787,-0.006092,-0.2698,-0.2786,0.2098,0.01692,-0.0942,0.02971,0.1687,-0.00992,0.05347,0.4285,-0.3416,0.6147,0.07263,0.01388,-0.1962,0.07385,-0.00689,0.193,-0.0853,-0.01188,0.0659,-0.0274,0.0921,0.1306,-0.10596,0.0116,0.787,-0.009186,-0.0941,-0.2118,-0.1632,-0.1848,0.1671,0.1465,0.09955,-0.1292,-0.383,-0.06635,0.4648,0.1081,0.1971,-0.234,0.07153,0.308,0.09576,0.03116,-0.1084,0.0763,-0.122,-0.6704,-0.1392,0.05612,-0.03204,0.0636,0.0006137,0.09186,0.1925,0.2152,-0.1887,0.01423,-0.1797,0.2191,0.1034,-0.2396,-0.0759,-0.1493,-0.001589,0.1486,-0.1304,0.014946,-0.005035,0.04355,0.3582,0.3486,0.02863,0.1698,-0.1588,0.4683,-0.03864,-0.1622,-0.198,0.1405,-0.1324,-0.01895,0.1268,0.05875,0.2343,-0.357,-0.06433,-0.03958,-0.0887,0.1368,-0.0186,-0.05518,-0.0314,-0.0665,-0.4653,-0.07434,-0.0977,0.04138,0.0935,-0.268,0.1448,1.081,-0.05453,0.1294,-0.1606,0.277,0.2014,0.087,0.00588,0.1553,1.295,-0.08203,-0.0482,-0.2024,0.11646,0.1473,0.084,-0.0657,0.682,-0.08,-0.0582,0.3643,-0.1545,0.02625,-0.1411,0.0322,-0.00904,0.1924,-0.1042,0.208,0.1215,0.08966,0.0565,-0.2466,0.03098,0.1117,0.1073,0.0931,-0.02934,0.399,0.069,0.2164,-0.0666,0.1919,-0.4243,-0.0687,0.528,-0.0029,-0.12,-0.5464,0.10376,0.321,-0.1345,-0.684,-0.05402,-0.0907,-0.4102,0.0339,0.0554,-0.1715,-0.06018,0.129,0.04037,0.1141,0.1609,0.674,0.0432,-0.261,0.3335,-0.0645,-0.03345,-0.2073,-0.2593,-0.05124,0.04657,-0.0319,0.3333,-0.2382,-0.6978,-0.2306,-0.1438,-0.002655,-0.1393,-0.2754,-0.004585,0.1556,0.01767,-0.2345,-0.0336,0.2047,0.1473,0.4297,-0.012825,-0.1199,-0.06256,0.1382,-0.0952,0.139,-0.21,0.0926,-0.01633,-0.1219,0.1919,-0.1438,0.1893,-0.2335,-0.0267,-0.1226,-0.07404,-0.3708,-0.11176,-0.2286,-0.0541,-0.1974,-0.00974,0.0341,-0.1578,-0.356,-0.05893,-0.1338,-0.05798,0.3064,-0.0996,0.02501,-0.03503,0.1056,0.241,0.0633,0.05963,-0.2766,0.0712,0.02316,0.1597,0.0983,0.143,0.06555,0.1951,0.02415,0.1024,0.1737,-0.3098,-0.05692,-0.559,0.06775,0.11755,-0.0534,-0.0993,-0.2178,-0.10974,0.2329,0.04257,0.0856,-0.1979,0.478,-0.09564,0.02655,0.0112,-0.2913,-0.1997,-0.0635,0.03442,0.01533,-0.1368,0.08093,-0.2524,-0.0923,-0.097,0.05603,0.10516,-0.1046,0.0933,-0.122,0.1343,-0.1422,0.0833,0.0251,0.2378,-0.01128,0.006077,0.1609,-0.1262,0.08417,-0.0676,-0.08405,-0.1755,-0.1895,-0.347,-0.1235,-0.09296,0.336,0.1434,-0.0873,0.04404,-0.000828,-0.315,0.03513,0.1033,-0.2563,0.6772,-0.02985,0.08405
beans,-0.09607,0.0928,-0.2025,-0.05017,-0.03418,0.1616,0.12103,0.4746,0.134,0.1495,0.1772,0.2042,0.0709,0.1147,-0.0881,0.2439,0.376,0.2534,0.2255,-0.0814,-0.9287,-0.1366,-0.131,-0.2256,-0.0895,0.1265,0.01408,-0.0325,-0.0708,0.1957,0.1787,-0.2336,-0.01788,-0.1448,-0.0994,0.07184,-0.2365,0.0119,-0.28,0.3394,-0.147,-0.0518,-0.03195,0.03522,-0.04736,0.3975,0.2747,0.11755,0.1696,0.1699,0.02217,0.02515,0.06616,-0.0659,0.1947,-0.03796,-0.1163,0.3013,-0.2184,-0.006367,0.06396,0.10693,-0.1625,-0.2585,-0.1425,-0.03537,-0.4268,0.4531,-0.1454,-0.3208,-0.1225,-0.1586,-0.00963,0.0395,-0.482,-0.0542,-0.1566,-0.1471,-0.2489,-0.4026,0.05103,-0.1886,0.09503,-0.9062,0.2722,0.2485,0.668,0.06665,0.2086,-0.2773,0.1895,0.01281,-8.06,0.5273,0.2206,-0.01055,0.0757,-0.221,-0.4932,0.4302,0.077,0.00582,0.10913,-0.1316,-0.4329,0.1127,-1.099,0.342,-0.2554,-0.2426,0.03168,-0.03555,0.1747,0.04575,-0.122,0.01285,0.04688,-0.1476,-0.0508,-0.364,-0.113,-0.585,0.08887,0.0807,0.2217,0.02225,-0.01275,-0.2349,0.1074,-0.189,0.1443,-0.4958,0.0977,1.049,0.3027,0.2747,0.2021,-0.5146,-0.281,0.1013,0.1503,0.2108,-0.2345,0.1061,-0.2693,0.2211,-0.2893,0.3608,-0.1445,-0.0459,-0.1434,-0.1782,0.05447,0.026,-0.3145,-0.1957,0.2627,0.0854,-0.161,-0.25,-0.1616,0.009636,0.0286,0.004772,0.23,0.134,-0.3013,0.0658,0.0957,0.04636,0.1625,-0.1453,-0.0797,0.0419,-0.04984,0.2686,0.1003,0.306,0.3103,-0.1447,-0.2722,-0.3772,-0.1327,-0.07574,-0.3792,-0.3354,-0.03656,-0.0635,0.294,-0.010574,0.01351,0.0008717,0.0895,-0.266,0.5337,-0.1262,-0.2247,-0.2373,-0.1865,0.1687,-0.02136,0.1443,0.01221,0.0646,-0.05792,-0.1315,-0.4265,0.01974,-0.02733,-0.1946,-0.11224,0.3342,0.03995,-0.05707,0.1059,0.1359,-0.03943,0.1407,0.572,-0.2524,0.6396,0.392,0.2742,-0.291,0.2646,0.00683,0.3152,-0.1494,0.00641,0.1113,0.010796,0.1091,0.1542,-0.1838,0.003126,0.8867,0.006702,-0.0719,-0.195,-0.216,-0.185,0.2076,0.1959,-0.0017,-0.2139,-0.525,-0.0437,0.4688,0.1096,-0.1792,-0.2002,-0.0513,0.2495,0.06274,0.0748,-0.05542,0.171,-0.1301,-0.4062,-0.1145,0.0408,0.00472,0.1842,0.299,-0.04922,0.1501,0.1749,-0.2588,0.1299,-0.1054,0.3525,0.10645,-0.2822,-0.07025,-0.02736,0.1256,0.0452,-0.183,0.06256,0.09607,0.10895,0.3833,0.4387,0.1473,0.09094,0.05008,0.281,-0.005184,-0.0972,-0.2222,0.0656,-0.192,-0.0968,0.1841,0.08527,0.313,0.01744,-0.0352,0.11066,-0.3123,0.01414,-0.02284,-0.0433,0.1065,-0.1216,-0.348,-0.0527,0.04398,0.03217,0.1033,-0.1526,-0.1016,1.048,-0.1775,0.2101,-0.0925,0.1484,0.2886,0.2314,0.04208,0.2318,1.53,-0.07623,-0.1262,-0.133,0.2627,0.07245,0.1945,-0.05255,0.583,-0.2184,-0.1545,0.2678,-0.2356,0.03482,0.00836,-0.09143,0.01106,0.2167,0.08405,0.2258,0.1492,0.1527,0.1116,-0.2163,-0.001101,0.07086,0.04517,0.04956,0.0663,0.496,0.1036,0.1881,-0.02682,0.1447,-0.2776,-0.04977,-0.11743,-0.04242,-0.0896,-0.6587,0.1229,0.383,0.1191,-0.506,-0.02893,-0.04572,-0.2773,0.11523,-0.1289,-0.2365,0.04382,0.1544,0.004078,0.2463,0.2358,0.367,-0.0809,-0.6655,0.0654,-0.09827,-0.2861,-0.2598,-0.153,-0.1509,-0.05353,-0.007328,0.386,-0.2472,-0.757,-0.1611,-0.1749,0.1759,0.06055,-0.151,0.069,0.1527,-0.2057,-0.1675,0.0811,0.28,0.03467,0.379,0.04977,-0.1674,-0.2346,0.006718,-0.1709,0.11993,-0.331,-0.2256,0.072,-0.2462,0.1466,-0.2432,0.2622,-0.2153,-0.2788,-0.2812,-0.0843,-0.11884,-0.1671,-0.2024,0.2096,-0.1351,-0.02823,0.005417,-0.3445,-0.417,-0.08417,-0.2035,-0.0261,0.364,-0.27,0.132,0.1147,-0.01498,0.3447,0.1068,0.2136,-0.2769,0.1615,0.09937,0.1667,0.1427,0.2163,-0.0384,0.1616,-0.02844,0.119,-0.0753,-0.261,-0.3005,-0.7603,0.0809,0.03705,-0.0347,-0.1732,-0.4033,-0.0961,0.2339,0.03041,-0.013435,-0.2291,0.437,0.01709,-0.11707,0.0441,-0.291,-0.2117,-0.1666,0.1079,-0.04486,-0.1407,-0.08154,-0.31,-0.1133,0.04196,0.1821,0.1364,-0.1626,0.1663,-0.03433,0.05753,-0.1503,0.219,0.1621,0.2986,-0.1501,0.02953,0.1786,-0.2313,0.1189,-0.1177,0.0828,-0.1958,-0.3337,-0.3242,-0.1454,-0.2969,0.3152,0.11115,-0.1481,0.0898,-0.02199,-0.2505,-0.02214,0.0794,-0.2686,0.852,-0.0933,0.2832
bear,-0.0702,0.02443,-0.0894,0.1454,0.1785,-0.06128,0.1431,0.6807,0.2499,0.2068,0.076,-0.02112,0.1229,-0.005993,-0.0793,0.0509,-0.179,0.08203,0.1735,0.0089,-0.1902,0.03354,-0.04822,-0.04037,0.01272,0.0316,0.0632,-0.1672,0.05127,0.0674,0.1266,0.0009375,-0.07007,-0.193,-0.2185,0.1304,-0.1816,0.0958,-0.1678,0.194,-0.239,-0.05133,-0.1615,0.0685,0.0403,1.019,0.162,-0.05008,-0.0654,0.00823,0.2566,0.05368,0.1697,-0.1214,0.053,0.02477,0.0744,0.21,-0.1995,-0.1027,0.449,-0.1649,-0.05084,-0.0901,-0.2031,0.02179,-0.014175,0.1271,-0.1353,-0.1569,0.014946,0.01066,-0.02257,0.0731,-0.04703,-0.1313,-0.1116,-0.1697,-0.1333,-0.2261,-0.0541,-0.1109,-0.267,-0.682,0.1185,0.28,0.79,-0.09717,-0.01674,-0.2378,0.3591,-0.03278,-9.22,0.5264,0.04187,0.1927,0.00305,-0.10443,-0.2625,0.2109,0.05075,-0.0684,0.2942,-0.0998,0.1642,-0.05753,-0.5225,0.1017,-0.2515,-0.0874,-0.1251,-0.12024,-0.0686,-0.11536,-0.1168,0.03528,-0.2124,-0.2864,0.2128,0.1475,-0.0794,-0.612,-0.04858,-0.05652,0.1449,-0.2654,-0.2372,-0.02417,0.125,0.0611,0.1685,-0.4146,-0.1416,1.142,-0.0245,0.2146,-0.066,-0.4392,-0.3967,-0.0644,-0.11383,-0.01569,-0.1505,0.08484,-0.2131,0.011314,-0.1473,0.341,-0.1908,-0.04288,-0.1667,-0.10614,-0.1445,-0.1193,-0.0871,-0.4314,0.2893,-0.1486,0.02777,-0.189,-0.0779,-0.0452,0.1158,-0.0494,0.1396,-0.0318,-0.015366,0.291,0.1443,-0.1302,0.03108,-0.11005,-0.11847,-0.1021,-0.2368,-0.10114,0.3264,0.1908,-0.335,-0.002214,-0.02698,-0.1635,-0.06335,0.0531,-0.1196,0.0425,0.1092,0.1249,0.1425,-0.1515,0.10266,-0.05807,0.155,-0.12085,-0.03592,-0.0947,-0.0414,0.0254,-0.779,-0.0772,-0.0143,0.1896,0.03397,0.2744,0.0543,0.0907,-0.2438,-0.2168,0.08295,-0.223,-0.3977,0.3416,0.1144,0.0698,0.02347,0.1478,-0.006817,0.03186,0.813,-0.1891,0.5312,0.06223,-0.1375,-0.2905,0.0649,-0.1826,-0.001395,-0.01575,0.0609,0.05664,-0.1871,-0.0994,0.07886,0.2264,0.075,0.5864,0.1125,0.04498,-0.1197,-0.2252,-0.169,0.2634,0.2019,0.2009,-0.0795,-0.3804,0.04602,0.02736,0.0543,0.2043,-0.0471,0.1548,0.1978,0.1859,0.01298,0.0624,-0.08014,0.2554,-0.548,-0.01802,0.04507,0.0944,0.01083,-0.1349,0.1754,0.01262,0.1564,-0.2893,0.0863,-0.2722,0.04648,0.2379,-0.03552,0.1174,-0.06903,-0.01167,0.03607,-0.07935,-0.1475,-0.00655,0.02878,0.281,0.0406,0.10236,0.2089,0.1042,0.2942,-0.1299,-0.11786,-0.1807,0.1648,-0.1316,0.11035,0.1761,0.01956,0.1499,-0.1567,-0.01019,0.1405,0.02628,0.2257,-0.1123,0.07227,0.08813,0.1046,-0.763,-0.1777,0.04764,-0.011246,0.1628,-0.2479,0.109,1.142,0.1616,0.2415,0.06494,0.2603,0.1947,-0.1543,-0.11584,0.05682,0.9536,-0.189,-0.04855,-0.2229,0.0827,0.05908,-0.115,0.1465,0.884,-0.2102,0.007442,0.2676,-0.1951,-0.04178,-0.0761,0.2017,0.1006,0.04538,-0.01727,0.0687,0.01976,0.0814,0.03156,-0.2357,0.03217,0.02077,0.0792,0.1741,-0.2935,0.239,0.05542,0.1906,-0.1102,0.07,-0.2822,-0.03748,0.2544,0.02603,0.028,-0.02411,0.12256,0.2112,0.1462,-0.1377,0.03091,-0.10095,-0.6367,0.1011,0.04193,-0.038,-0.06775,0.0576,0.07776,0.1987,0.08936,0.915,0.0437,-0.646,0.292,-0.00476,-0.2008,-0.1731,-0.11505,0.0136,-0.0774,0.0238,0.2507,-0.1792,-0.859,-0.4846,-0.2856,-0.01377,-0.08325,-0.0883,-0.2112,0.2114,0.1024,-0.625,0.0983,0.0865,0.1211,0.5386,0.1167,-0.04007,0.04532,0.0577,-0.05573,0.3257,-0.1674,0.1779,-0.0561,-0.09546,0.1644,-0.1405,-0.003689,0.1455,0.0328,-0.08234,-0.2468,-0.3103,-0.1079,-0.08215,0.02814,-0.03653,-0.003756,-0.287,-0.0769,0.384,0.0092,-0.2108,0.10675,-0.1987,-0.11847,-0.04834,-0.0492,0.07117,0.2866,0.013885,0.01055,-0.1472,0.2515,0.10333,-0.1268,0.148,0.03906,0.01688,0.2637,-0.011795,-0.12286,0.0631,-0.2603,0.01355,-0.4644,-0.02254,-0.05157,0.1381,-0.04852,-0.2443,0.0799,0.2798,0.07184,-0.151,-0.2559,0.431,0.09467,-0.1514,-0.137,-0.1519,-0.0262,0.001142,-0.03604,0.0848,-0.1903,-0.1251,-0.1675,0.00856,-0.0925,-0.0739,-0.01019,-0.1394,0.1399,-0.0095,0.362,-0.2805,-0.0251,-0.09283,0.0666,-0.0971,-0.013626,0.04022,-0.0884,0.279,-0.0895,-0.005116,-0.213,-0.1498,-0.0791,-0.1987,0.002556,0.0998,0.2136,-0.1393,0.05933,0.3618,-0.2355,-0.07196,-0.0435,-0.22,0.881,-0.0936,0.08026
bed,-0.0593,0.00651,-0.09247,0.1382,0.09625,-0.05676,0.10364,0.607,0.06793,0.0699,0.2078,-0.00836,0.2449,-0.04166,-0.03595,-0.0805,-0.815,0.1553,0.0888,0.03041,-0.1967,0.02914,-0.0872,0.2048,-0.04544,0.0505,-0.02655,-0.1445,0.05914,0.0436,-0.01016,0.06354,-0.01162,-0.2676,-0.3213,0.1293,-0.3142,-0.02269,-0.1385,-0.0198,-0.3525,-0.1356,-0.2025,-0.05142,-0.06854,1.343,0.21,-0.01724,0.0711,0.08496,0.3315,0.1239,0.1575,-0.04715,0.02008,0.03763,-0.08453,0.0269,-0.1998,-0.05994,0.0985,-0.2228,-0.09,-0.1153,-0.11176,0.002113,0.02618,0.6655,-0.18,-0.203,-0.0177,0.0838,0.0731,-0.0457,-0.08026,-0.08246,-0.01926,-0.1975,-0.0418,-0.2988,-0.1862,-0.1162,-0.1951,-0.3232,0.2637,0.2996,0.8896,-0.0923,-0.03104,-0.1876,0.318,-0.0377,-8.57,0.322,-0.04736,0.2542,0.1019,0.08624,0.0661,0.3804,0.09064,-0.09314,0.2754,-0.001134,-0.10846,0.1229,-0.4026,0.11127,-0.1251,-0.09406,-0.05518,0.1821,0.1108,-0.166,-0.013565,-0.007767,-0.2063,-0.06067,0.04813,0.0514,0.06964,-0.7617,0.1577,0.0923,0.11584,-0.2461,-0.09485,-0.2028,0.1268,0.0967,0.0796,-0.1456,-0.1265,1.071,0.03041,0.0772,0.0629,-0.2395,-0.3403,-0.001681,-0.1109,-0.05783,0.2612,0.0975,-0.195,0.03296,-0.312,0.2035,-0.04324,0.04166,-0.1254,-0.2015,-0.284,-0.0361,0.0456,-0.551,0.2103,-0.2222,-0.0945,-0.0977,0.02348,-0.00856,0.2322,-0.1059,0.12396,-0.0157,0.4492,0.04633,0.04636,-0.1646,0.1488,-0.02733,0.03802,0.0795,-0.3157,-0.00733,0.671,0.1722,-0.3809,0.07855,-0.0628,-0.1484,0.004326,-0.09125,-0.1598,0.05756,-0.003681,-0.0784,0.1841,-0.1647,0.0714,0.04178,0.1636,-0.1208,-0.05838,-0.08606,-0.05148,-0.02895,-0.645,-0.06525,-0.07245,0.1581,-0.1138,0.128,-0.01793,0.1416,-0.3225,-0.00935,-0.03024,-0.1776,-0.2903,0.3496,0.0723,-0.05154,-0.02983,0.0129,0.05417,0.1564,0.878,-0.2908,0.4321,-0.0531,-0.1613,-0.2925,0.0714,-0.02963,0.1968,-0.03986,0.1016,0.029,-0.12335,-0.04828,0.1616,0.1418,-0.0598,0.5317,0.02641,0.01109,0.02242,-0.1825,0.01604,0.2026,0.1091,0.04712,0.02936,-0.0631,0.03864,0.1154,0.02399,0.2083,-0.2074,-0.014694,0.3667,0.03653,-0.147,-0.0117,0.02588,0.1635,-0.7124,-0.08264,-0.0416,-0.0653,0.1898,0.071,0.1265,-0.0468,0.07794,-0.0777,0.07416,-0.1625,-0.02858,0.1536,-0.1244,-0.0494,-0.04474,-0.02989,-0.02101,-0.2732,-0.0646,-0.03049,0.1295,0.3813,0.2747,0.1571,0.176,-0.04745,0.295,-0.05234,-0.03137,-0.1957,0.1893,-0.2411,0.2212,0.03268,-0.01874,0.1787,-0.2488,0.08673,-0.0881,-0.0327,0.08685,0.04703,-0.0712,0.05902,0.1296,-0.7153,-0.11865,-0.03464,0.0001397,0.0417,-0.2576,0.2727,1.07,0.05304,0.1841,-0.1243,0.3137,0.2817,0.1898,0.2686,-0.01549,0.806,-0.1091,-0.00888,-0.2384,0.0534,0.1295,-0.06396,0.0442,0.603,-0.1735,0.1481,0.2883,-0.3645,-0.071,-0.06104,0.1652,0.01854,0.0694,0.05286,-0.02756,-0.0751,0.2325,0.07495,-0.3389,-0.01061,0.04385,0.1398,0.05612,-0.2335,0.4702,-0.00988,-0.1074,0.04037,-0.02306,-0.3381,-0.1537,0.648,0.05017,-0.06247,-0.635,0.1376,0.3625,0.027,-0.1603,0.0344,-0.086,-0.783,0.00654,0.1417,0.00647,-0.1141,0.01857,0.1549,0.1813,0.1093,1.247,0.06854,-0.2795,0.253,0.0825,-0.03683,-0.2944,-0.301,0.0766,-0.2203,0.1302,0.2112,-0.198,-1.269,-0.285,0.1179,-0.1637,-0.05185,-0.2405,-0.1633,-0.0143,0.00417,-0.5806,0.2407,0.2532,0.1635,0.859,0.02025,-0.09375,0.1702,0.248,0.1145,-0.01619,-0.116,0.1189,0.0905,-0.1146,0.1284,-0.10297,-0.0331,-0.1058,-0.04266,0.005836,-0.2095,-0.3635,-0.11285,-0.05914,0.2974,-0.1738,-0.05255,-0.2964,-0.2292,-0.0271,0.1638,-0.2101,-0.04626,-0.136,0.0266,-0.09344,-0.004417,0.11414,0.1823,-0.1143,0.01585,-0.1501,0.2052,0.1432,0.06415,0.2842,0.0156,-0.04044,0.06226,-0.091,0.04434,0.12024,-0.2137,0.0971,-0.1677,0.05466,0.0772,0.256,-0.010315,-0.04175,0.2344,0.1967,-0.0802,-0.03583,-0.252,0.4236,0.01581,-0.0262,-0.0641,-0.147,-0.1785,0.05756,-0.01797,0.06366,-0.1736,-0.132,-0.2544,-0.05527,-0.006855,-0.1375,-0.06396,-0.1913,-0.02628,-0.0184,0.1965,0.01397,0.1246,-0.1439,0.1385,-0.0849,-0.0782,0.1647,-0.10004,0.2537,-0.03183,-0.04422,-0.1747,-0.1172,-0.1381,-0.1832,0.0929,0.10333,0.2861,0.0003786,-0.0006604,0.09045,-0.1433,0.00926,0.1109,-0.2144,0.6978,-0.05493,0.03778
bedroom,-0.08575,0.0235,-0.0379,0.2688,0.1472,0.0362,0.1964,0.65,0.05685,-0.02274,0.1366,-0.07355,0.1658,-0.1898,0.1504,-0.1799,-1.093,0.0769,0.0894,-0.05557,0.1829,-0.02347,-0.1266,0.2085,-0.04694,0.08905,0.0569,-0.2089,0.0613,0.06555,0.04733,0.2433,-0.1556,-0.251,-0.3018,0.2042,-0.2566,-0.1882,-0.10657,0.07007,-0.3987,-0.1199,-0.1903,-0.1417,-0.1299,0.6973,0.02997,0.00554,0.04074,0.003313,0.352,0.128,0.182,0.03174,0.1266,0.0729,-0.1653,-0.1056,-0.1947,0.0762,-0.5063,-0.3464,-0.1278,-0.2048,-0.12036,0.007935,0.2715,0.622,-0.1587,-0.1271,-0.0926,0.0905,0.09204,-0.03482,-0.1676,-0.02934,-0.004112,-0.0723,0.02312,-0.492,-0.06122,-0.1964,-0.256,0.2333,0.3467,0.328,1.0625,-0.2605,-0.2683,-0.1617,0.4087,0.04175,-8.42,0.1888,-0.0741,0.389,0.252,0.09235,0.0441,-0.0911,0.0357,-0.05115,0.1566,0.0657,0.0482,0.07947,-0.482,0.1159,-0.09314,-0.05457,-0.0416,0.033,0.1246,-0.1631,-0.0802,-0.07104,-0.2842,-0.1176,0.1709,0.14,0.1969,-0.5967,0.2336,0.0327,0.1312,-0.1995,-0.1637,-0.2118,0.0938,0.1433,0.1505,-0.265,-0.1433,1.05,0.02808,0.08594,-0.00941,-0.09937,-0.2998,-0.014656,-0.0633,-0.1305,0.435,0.1943,-0.2239,0.00398,-0.3237,0.1129,-0.03513,0.09717,-0.2161,-0.2683,-0.1097,-0.1691,0.2036,-0.5356,0.2206,-0.2264,0.0839,-0.137,-0.0898,-0.0888,0.2827,-0.1132,0.0684,-0.0316,0.751,0.08295,0.07776,-0.2598,0.178,-0.02629,0.00251,0.1575,-0.3884,0.1006,0.826,0.1324,-0.514,0.0904,0.0686,-0.1365,-0.02478,-0.1105,-0.01883,0.1085,0.138,0.07556,0.02055,-0.1293,0.01619,-0.03354,0.1677,-0.1832,-0.1581,0.01633,0.01378,0.01035,-0.7705,0.08765,-0.1602,0.09375,-0.1755,0.1403,0.2244,0.05597,-0.2347,-0.06665,0.06003,-0.08105,-0.364,0.3855,0.1116,-0.02496,0.06104,-0.1384,0.1769,0.1603,1.07,-0.08057,0.2468,0.2551,-0.2307,-0.346,-0.10614,-0.0941,0.03009,0.0626,0.0745,0.001339,-0.09576,-0.03555,0.1125,0.1997,-0.001895,0.544,0.0976,0.02937,-0.006973,-0.2625,0.01376,0.2325,-0.12274,-0.013336,-0.01388,0.4084,0.0372,0.04645,-0.02663,0.2252,0.0357,0.000147,0.3396,0.08215,-0.0964,0.02214,0.0316,0.08887,-0.3616,0.0006533,0.002537,-0.02884,0.2461,0.418,0.155,-0.2242,-0.06213,0.06223,0.07324,-0.04562,-0.0858,0.1954,-0.1761,0.1248,-0.03,-0.1002,0.08826,-0.3442,-0.1641,-0.01785,0.2917,0.4048,0.2588,0.3235,0.151,0.0979,0.17,-0.00958,0.02058,-0.2517,0.298,-0.2874,0.274,0.003605,-0.25,0.1975,-0.2148,0.3242,-0.0528,-0.02844,0.03995,0.0544,-0.002497,0.0369,0.142,-0.81,-0.096,-0.02078,0.1389,-0.1083,-0.2686,0.4607,1.05,0.0615,0.0579,0.0491,0.3303,0.3257,0.3206,0.1954,0.07465,0.8237,-0.08575,0.01799,-0.1682,0.1017,0.1959,-0.2213,0.05426,0.513,-0.2023,0.07837,0.121,-0.4993,-0.08044,-0.004326,0.0994,0.05917,-0.05493,0.1012,-0.003069,-0.1608,0.0979,0.12164,-0.1837,-0.1489,0.0844,0.1865,0.010796,-0.4912,0.736,-0.01021,-0.1643,0.0793,-0.10785,-0.2512,-0.06287,0.796,0.04126,0.08636,-0.874,0.093,0.381,0.2512,0.1354,0.002518,-0.1486,-1.014,-0.03476,0.1229,0.04147,-0.1062,-0.01884,0.136,0.3083,0.1396,1.26,0.1313,-0.4485,0.1672,0.07764,-0.0868,-0.2234,-0.04495,0.221,-0.3225,0.256,0.0886,-0.274,-1.331,-0.3662,0.2191,-0.1694,0.12476,-0.2744,-0.1334,0.07324,0.006416,-0.5747,0.1902,0.1411,0.1566,1.035,-0.1945,0.07367,0.1633,0.194,0.1583,-0.1743,-0.0461,0.10693,0.2915,-0.009346,0.1366,0.02815,0.03104,-0.2496,-0.0188,-0.2241,-0.1788,-0.1715,-0.0733,0.02875,0.2654,-0.2527,0.08295,-0.3691,-0.0913,-0.1925,0.1686,-0.3948,-0.00977,-0.4116,0.02715,-0.00946,-0.02655,0.1957,0.1097,-0.1458,-0.05298,-0.2102,0.08624,0.1948,0.07886,0.1392,0.03622,-0.11487,0.04648,-0.0916,-0.0771,0.3247,-0.276,0.015045,0.2815,0.1067,0.0436,0.1921,-0.02776,0.1887,0.334,0.1261,-0.0781,-0.03186,-0.2932,0.2537,-0.03342,-0.095,-0.10333,-0.1986,-0.1941,0.10596,0.06995,0.1653,-0.3887,-0.2317,-0.2588,-0.1086,0.0813,-0.218,-0.1934,-0.1393,-0.1829,-0.0817,0.1642,0.1033,0.2141,-0.1598,0.2698,-0.09436,-0.06665,0.0068,0.02487,0.3757,-0.1741,0.1355,-0.04547,-0.0255,0.09265,-0.05246,0.1383,-0.11237,0.2112,0.04868,0.03494,0.211,0.01897,-0.03238,-0.003382,-0.2742,0.522,-0.04996,-0.0867
bee,0.1133,0.07587,-0.2214,-0.1271,0.04828,-0.135,0.1543,0.7344,0.11774,0.11053,0.2401,0.0885,0.1454,0.1265,-0.1764,0.1364,0.008934,0.1389,0.141,-0.002785,-0.274,-0.05588,-0.2329,0.2118,-0.03183,-0.01215,-0.06073,-0.0633,0.00595,0.03592,0.197,-0.11725,0.0737,-0.1193,-0.4006,-0.02583,-0.2715,0.02773,-0.2844,-0.261,-0.0378,-0.2712,-0.0972,-0.00858,0.086,1.231,0.2303,0.2172,0.04303,-0.1923,0.0883,0.01118,0.07587,-0.2405,0.1637,-0.127,-0.0191,0.1309,-0.05643,-0.07336,0.7188,-0.06064,-0.1724,-0.3823,-0.0629,-0.05753,-0.2206,0.134,-0.1835,-0.1592,-0.1425,0.01651,-0.03296,0.05997,-0.2546,-0.02277,-0.1442,-0.05865,-0.1477,-0.3547,-0.03342,-0.123,-0.07294,-0.757,0.2617,0.3105,0.3823,-0.0779,-0.1798,-0.2089,0.1013,-0.1854,-9.07,0.4033,0.152,0.05923,-0.03992,-0.2012,-0.04727,0.06445,0.1322,-0.0841,0.3445,-0.05695,0.1674,0.0722,-1.006,0.23,-0.2058,-0.0864,0.05167,-0.03888,0.12494,-0.0557,-0.08923,0.02135,-0.06805,-0.1624,0.1677,0.05453,-0.196,-0.607,0.1888,0.1714,0.2112,-0.00659,-0.07043,-0.1456,0.1255,-0.05154,0.05222,-0.2247,-0.11957,1.147,0.12115,0.3079,-0.02084,-0.6577,-0.2292,-0.02536,0.1693,0.1476,-0.3076,-0.04257,-0.2167,0.1235,-0.165,0.3298,-0.1573,-0.03845,-0.1855,-0.1953,0.0792,-0.0953,-0.1925,-0.3696,0.2766,-0.01178,-0.2292,-0.0918,0.094,0.00936,0.1658,-0.06976,0.0298,0.1355,-0.3167,0.0676,0.06525,-0.05582,0.1375,-0.2576,-0.0555,-0.1511,-0.0998,0.0519,0.3225,0.2174,0.04135,0.05548,-0.2363,-0.1788,0.05893,0.002821,-0.51,-0.1487,0.02988,0.0672,0.2068,-0.005997,-0.04575,0.02675,0.2004,-0.3489,0.4197,0.01409,0.04257,-0.0596,-0.447,0.1467,-0.048,0.02058,0.03455,0.317,0.04523,0.05316,-0.1632,-0.0708,0.1142,-0.2998,-0.4346,0.3376,-0.0839,-0.1226,0.01487,0.042,-0.03687,-0.02057,0.6016,-0.2306,0.6445,0.0659,-0.0599,-0.03726,0.2036,-0.0211,0.1359,-0.0426,-0.05414,0.2217,0.08105,0.1351,0.1555,-0.09033,0.1004,0.552,0.01955,-0.1355,-0.2776,-0.2751,-0.05746,0.2974,0.1169,0.1299,0.03607,-0.577,-0.03568,0.3193,0.1453,0.0967,-0.1212,0.01955,0.2798,0.04214,0.09094,0.0119,-0.11096,-0.108,-0.7197,-0.0985,-0.04102,-0.0784,0.007187,-0.1527,0.06088,0.0625,0.10846,-0.3193,0.11304,-0.2673,0.2261,0.09174,-0.256,-0.09283,-0.09406,-0.0128,0.278,-0.045,-0.1262,0.0347,-0.07275,0.1604,0.196,0.0691,0.0472,-0.29,0.5073,0.07184,-0.2397,-0.1252,0.1979,-0.12103,0.093,0.1783,0.1923,0.242,-0.061,-0.05457,0.03387,-0.0009565,0.2605,-0.1137,-0.0966,0.00826,-0.2076,-0.661,-0.04916,-0.212,-0.0236,0.2131,-0.3206,-0.10925,1.146,-0.1047,0.06464,0.01011,0.1962,0.2456,0.04245,-0.1611,0.2269,1.474,-0.1605,-0.02747,-0.1327,0.0831,0.05273,0.0634,0.1754,0.842,-0.1752,-0.10626,0.1682,-0.12335,0.1027,-0.2168,-0.03056,0.1586,0.1927,-0.1432,0.1656,0.2651,0.092,0.08374,-0.2498,0.02907,0.1169,0.09064,-0.02856,-0.1006,0.262,0.1134,0.2451,-0.106,0.2478,-0.349,-0.001356,0.2085,-0.1244,0.02605,-0.3013,0.1744,0.2598,-0.06604,-0.73,0.08344,-0.074,-0.6055,0.0758,-0.04965,-0.287,-0.006184,0.095,0.0637,0.0678,0.3262,0.2186,-0.04642,-0.612,0.2068,-0.07385,-0.0541,-0.03006,-0.1636,0.004814,-0.0245,-0.2018,0.2399,-0.2421,-0.724,-0.601,-0.1599,0.04617,-0.2551,-0.00309,-0.08484,-0.02328,-0.0669,-0.2253,-0.1604,0.11206,0.1002,0.56,0.01518,-0.07074,0.0329,0.1395,-0.04312,0.2683,-0.2341,0.03787,-0.088,-0.1531,0.1962,-0.2185,0.1708,-0.2472,-0.011116,-0.155,-0.2336,-0.1335,-0.3352,-0.2137,-0.2798,-0.08594,0.1348,0.005894,-0.1909,0.05078,-0.0769,-0.2124,-0.1136,0.0387,-0.2905,-0.1043,-0.0844,0.129,0.2744,0.1458,0.0358,-0.3486,0.2407,0.08484,0.0552,0.02307,0.2438,0.04257,0.1328,-0.02505,-0.04974,0.3613,-0.1641,-0.0871,-0.498,-0.07043,0.2898,-0.018,-0.1203,-0.254,-0.2194,0.1587,0.1066,0.1897,-0.166,0.449,-0.0724,0.1084,-0.09235,-0.1746,-0.1035,0.0586,-0.02348,0.00846,-0.1578,0.01444,-0.1376,-0.02357,-0.1731,-0.1255,0.0784,-0.1855,0.0218,-0.1089,0.147,-0.2605,0.1671,0.01804,0.1543,-0.06158,-0.1001,-0.02199,-0.02594,0.2218,-0.0414,-0.0569,-0.1804,-0.312,-0.2693,-0.01158,-0.03995,0.352,0.0675,-0.1021,-0.0161,0.1948,-0.1475,0.132,-0.03503,-0.141,0.7476,0.0945,0.03802
belt,0.0436,-0.05365,-0.3438,-0.1422,0.06476,-0.1646,0.0376,1.035,0.1798,0.1661,0.308,0.11694,0.2317,-0.06058,-0.1647,0.03983,-0.1278,0.1881,0.2096,0.0825,0.2109,0.04965,-0.1447,-0.2135,0.011665,-0.0335,-0.05386,-0.2954,0.0626,0.1236,0.1659,-0.08716,0.0832,-0.1365,-0.4731,-0.08386,-0.1997,-0.01547,-0.258,-0.3455,-0.1666,-0.2295,-0.01377,-0.1354,-0.149,1.346,0.1471,0.1588,0.00894,-0.2491,0.0873,0.11115,0.225,-0.1732,0.12335,0.0368,-0.01265,0.1078,-0.05505,-0.149,0.2094,-0.2382,-0.0634,-0.1794,-0.005543,0.01776,-0.2074,-0.493,-0.2081,-0.1116,-0.11285,-0.0953,0.1537,0.1045,-0.4565,-0.0788,0.01553,-0.1185,-0.07574,-0.3606,-0.07074,-0.01631,0.0896,-0.702,0.3662,0.2898,0.1434,0.0349,-0.2722,-0.2322,0.10443,-0.003325,-9.51,0.5156,0.11365,0.08154,0.005768,-0.1489,0.0794,-0.1967,-0.03928,-0.138,0.219,-0.0975,0.10126,0.0428,-1.174,0.4304,-0.147,-0.01558,-0.014725,-0.0533,-0.0906,-0.1725,0.06018,0.1437,-0.2383,-0.152,0.1401,0.2228,-0.2439,-0.386,-0.04724,0.2083,0.2273,0.01264,0.0009537,-0.0471,0.04053,0.02866,-0.04767,-0.1987,-0.0857,1.222,0.11426,0.47,0.138,-0.4143,-0.1117,0.1065,0.03665,-0.006573,-0.1362,-0.04996,-0.09283,0.0636,-0.3335,0.4358,-0.03543,-0.1382,-0.12024,-0.06555,0.07996,0.0444,-0.246,-0.391,0.1168,-0.0736,-0.1787,0.08234,0.0988,-0.1423,0.1847,-0.1226,0.03497,0.2327,-0.2412,0.09033,0.06082,-0.01715,0.2842,-0.3538,-0.01761,-0.1615,0.2754,-0.0674,0.611,0.1217,-0.1344,-0.004345,-0.01564,-0.08936,-0.05658,0.08295,-0.4297,-0.377,0.05603,0.2113,0.01383,-0.0596,-0.0777,0.02608,-0.04074,-0.1559,0.2355,-0.1327,0.05316,-0.1049,-0.5293,-0.06885,-0.0008006,0.1324,0.1276,0.258,0.05798,0.07074,-0.0553,-0.11365,0.2035,-0.3687,-0.2162,0.2407,-0.0708,-0.0626,-0.11304,0.08374,-0.0638,-0.11804,0.596,-0.2164,0.4587,-0.1327,0.05942,0.02672,-0.0432,0.293,0.1934,0.001968,-0.0635,0.2986,-0.03552,0.11066,0.2184,-0.0715,-0.001216,0.3733,-0.1375,-0.1383,-0.2211,-0.1247,-0.2051,0.4023,0.2443,0.0688,-0.05878,-0.6875,-0.07043,0.1707,0.2659,0.1959,-0.1981,0.05038,0.3362,-0.1649,0.2385,-0.0677,0.06082,-0.1108,-0.8125,-0.2986,0.147,0.05307,0.03287,0.115,0.03494,0.1206,0.2062,-0.1323,0.2837,-0.1517,0.3005,0.1389,-0.1917,-0.11804,-0.2229,-0.04224,0.3933,-0.1855,-0.2079,0.001779,-0.3184,0.2267,0.14,0.02867,0.11127,-0.2654,0.9966,0.1566,-0.0585,-0.0764,0.2268,0.1849,0.1598,0.25,0.001439,0.4531,-0.05685,-0.1804,0.0927,-0.10187,0.363,-0.391,-0.011765,0.2443,-0.0777,-0.927,-0.0856,-0.2181,-0.1637,0.1736,-0.3196,0.08594,1.221,-0.02257,0.1727,0.05627,0.407,0.2524,0.08813,0.2407,0.02911,0.749,-0.1489,-0.0724,-0.07495,0.2844,0.05112,0.1154,0.3635,1.161,-0.0906,-0.07874,0.2384,-0.2164,0.2515,-0.2036,-0.1472,0.2178,0.4624,-0.05994,0.1133,0.212,0.1405,0.1469,-0.3413,0.05038,0.0795,0.01715,0.04675,0.0353,0.3687,-0.04358,0.3145,-0.1406,0.319,-0.63,0.00695,0.2766,0.06076,-0.2052,-0.2869,0.1575,0.2693,0.3262,-0.7007,-0.0247,-0.01694,-0.3757,0.1871,-0.08386,-0.1814,0.1471,-0.07983,0.011536,0.0668,0.2751,-0.10974,-0.044,-0.7397,0.1855,-0.02661,-0.01554,-0.05637,-0.289,0.0279,-0.11554,-0.03818,0.1919,-0.3398,-0.504,-0.295,-0.05856,0.2356,-0.2091,-0.1101,0.02101,-0.01499,-0.054,-0.357,0.1763,-0.02907,0.09686,0.4822,-0.04834,-0.0961,0.1909,0.06174,-0.005596,0.4504,-0.2898,-0.1692,-0.2727,-0.001519,0.1841,-0.1471,0.2673,-0.4866,-0.11224,-0.1796,-0.2693,-0.1002,-0.2212,-0.1774,-0.38,0.02896,0.02916,0.004776,-0.2783,-0.315,-0.10565,-0.097,-0.1769,-0.3704,-0.2546,-0.1995,0.02274,0.215,0.2678,0.0884,-0.0732,-0.406,0.0975,0.155,-0.10046,-0.2084,0.2014,0.05273,0.2391,-0.10254,-0.1371,-0.2197,-0.0656,-0.234,-0.4387,-0.1699,0.1963,-0.1768,-0.472,-0.3252,-0.1476,0.377,0.1115,-0.002502,-0.2214,0.411,-0.1037,0.4849,-0.09174,-0.003744,-0.1252,0.1277,-0.0738,0.1175,-0.2869,0.1471,-0.3486,-0.1097,-0.1351,-0.1027,-0.1048,-0.02954,0.0764,-0.1967,0.3357,-0.10986,0.2612,-0.04703,0.02939,-0.0694,-0.1865,0.1879,-0.05487,0.00988,0.2081,0.00965,-0.3909,-0.1207,-0.3662,0.02116,-0.2866,0.1471,-0.066,-0.1068,-0.03265,0.506,-0.1074,0.06647,-0.009125,-0.1967,0.9165,-0.1715,0.0899
bench,0.01247,-0.01563,-0.196,-0.0993,0.10913,-0.05585,0.1559,0.782,-0.0729,0.12415,0.3071,0.1598,0.3103,-0.02126,-0.12244,0.05164,-0.31,0.1968,0.11346,-0.02628,0.1659,0.03268,-0.02849,-0.02946,-0.06934,0.01092,-0.07886,-0.1659,0.003994,0.1833,0.1295,-0.06018,0.010124,-0.2413,-0.413,-0.1133,-0.32,-0.0164,-0.2203,0.0859,-0.2722,-0.1604,-0.10864,-0.0738,-0.0517,0.8857,0.2365,0.03726,-0.04733,-0.0523,0.0981,0.1656,0.257,-0.1611,0.0842,-0.00592,-0.1296,0.1356,-0.1945,-0.0677,0.1194,-0.1037,-0.05597,-0.2181,-0.01267,0.0404,-0.05515,0.1936,-0.3176,-0.1898,-0.0536,-0.002419,0.1549,-0.02647,-0.2383,-0.08154,-0.06445,-0.23,-0.1581,-0.3135,-0.2365,-0.0213,0.013504,-0.642,0.3142,0.295,0.5347,0.003752,-0.2632,-0.1587,0.1621,-0.08606,-9.125,0.564,-0.01539,0.1462,0.06168,-0.013084,-0.05054,0.1672,-0.002544,-0.12274,0.2462,-0.0645,0.06537,0.1396,-1.081,0.3105,-0.1946,-0.0501,-0.01426,0.2157,0.10144,-0.0957,-0.004887,-0.024,-0.2217,-0.1306,0.04263,0.1119,-0.04355,-0.643,0.06097,0.2396,0.1973,-0.1599,-0.02867,-0.1426,0.02957,0.05176,0.05594,-0.2361,-0.0338,1.154,-0.003725,0.2301,0.1761,-0.4758,-0.1394,0.0629,0.1157,-0.00861,-0.05966,-0.01555,-0.1015,0.0567,-0.3298,0.302,-0.02843,-0.02277,-0.1187,-0.2231,0.09033,0.0756,-0.1547,-0.4182,0.11646,-0.173,-0.1423,-0.0835,-0.02817,-0.07495,0.2155,-0.1537,0.175,0.0812,0.04456,0.0752,0.06238,-0.1575,0.2593,-0.2247,0.08514,-0.0446,-0.07935,-0.00732,0.8633,0.2043,-0.2089,-0.03195,-0.04626,-0.2244,-0.1054,0.0474,-0.3652,-0.208,-0.04166,0.0992,0.1564,-0.1455,-0.04715,0.1371,0.1232,-0.1523,-0.005764,-0.1175,-0.1094,0.00674,-0.456,-0.1086,0.01143,0.176,0.05542,0.2063,-0.02013,0.11774,-0.247,-0.02136,0.1196,-0.3274,-0.1909,0.1687,0.03403,-0.04877,-0.01819,0.06647,-0.04977,0.01155,0.7944,-0.27,0.5186,-0.06683,-0.02924,-0.1023,0.06238,0.1665,0.1733,0.04053,0.01172,0.2524,-0.06177,0.03093,0.1796,0.1279,-0.1082,0.4841,-0.03029,-0.05096,-0.1973,-0.1632,-0.1181,0.274,0.1826,0.1282,0.02292,-0.07715,-0.1288,0.2479,0.07556,0.3027,-0.2407,0.014175,0.307,-0.1404,0.03198,-0.00874,0.0557,0.1043,-0.3389,-0.2473,-0.005882,0.02197,0.02078,0.137,0.06915,0.1187,0.1727,-0.0873,0.2295,-0.1669,0.0477,0.0431,-0.1914,-0.0601,-0.11005,-0.10614,0.1525,-0.2219,-0.04987,0.006237,-0.03125,0.2993,0.1974,0.09326,0.0964,-0.174,0.7817,0.06097,-0.1378,-0.1888,0.1663,-0.0394,0.013695,0.12335,0.0661,0.3977,-0.0657,-0.10785,0.00996,-0.11237,0.2483,-0.1021,-0.0639,0.1377,0.001199,-0.805,-0.0602,-0.1589,-0.0638,0.1407,-0.2756,0.1405,1.154,-0.1433,0.2201,-0.03577,0.3657,0.2515,0.162,0.05072,0.0978,0.8896,-0.0962,0.05133,-0.2094,0.08844,0.10504,0.0537,0.185,0.931,-0.1039,-0.05402,0.3315,-0.3552,0.18,-0.1381,-0.01717,0.0411,0.3276,-0.03256,0.01816,0.1017,0.11835,-0.03427,-0.2693,0.08295,0.0871,0.0704,0.0287,-0.0488,0.4185,-0.0961,0.0744,-0.10736,0.08075,-0.605,-0.107,0.443,-0.003656,-0.1255,-0.655,0.1766,0.4126,0.11273,-0.4546,0.03067,0.05533,-0.4316,0.05756,-0.03574,-0.0667,0.04788,0.05103,0.0415,0.0135,0.222,0.455,-0.03137,-0.4155,0.1686,0.0802,0.2062,-0.1844,-0.2546,-0.03214,-0.10675,0.014854,0.2988,-0.1874,-1.002,-0.4353,0.0936,0.01787,-0.2214,-0.1558,0.00829,0.02888,-0.03004,-0.305,0.1167,0.1451,0.1057,0.793,0.07263,-0.1271,0.2004,0.2004,0.02266,0.2285,-0.1814,-0.0254,-0.05966,0.05182,0.1606,-0.1396,0.155,-0.316,-0.171,-0.03854,-0.195,-0.1536,-0.0753,-0.1589,-0.06415,-0.12317,0.0545,0.01872,-0.3179,-0.1122,-0.0405,-0.0323,-0.1802,0.0722,-0.1678,-0.1343,-0.02322,0.102,0.295,-0.03265,-0.04977,-0.292,0.1987,0.0925,0.05618,0.0915,0.1083,-0.01111,0.1675,-0.05902,0.05508,-0.002548,-0.0684,-0.1072,-0.304,-0.04056,0.1024,0.09985,-0.2844,-0.09845,-0.00554,0.3208,0.004345,0.0631,-0.1971,0.501,0.05847,0.1935,-0.09674,-0.09283,-0.2222,0.1931,-0.03384,-0.012405,-0.1459,-0.00599,-0.207,-0.08563,-0.0637,-0.0723,-0.0885,-0.1217,0.1312,-0.03378,0.2301,-0.02492,0.1389,-0.05136,0.0883,0.02698,-0.1236,0.11926,-0.04385,0.2313,0.0923,-0.02296,-0.3423,-0.0884,-0.3267,-0.05856,-0.0989,0.1337,0.06323,-0.01339,-0.02007,0.341,-0.168,0.0927,0.03021,-0.2026,0.848,-0.01182,0.0436
