,dim_0,dim_1,dim_2,dim_3,dim_4,dim_5,dim_6,dim_7,dim_8,dim_9,dim_10,dim_11,dim_12,dim_13,dim_14,dim_15,dim_16,dim_17,dim_18,dim_19,dim_20,dim_21,dim_22,dim_23,dim_24,dim_25,dim_26,dim_27,dim_28,dim_29,dim_30,dim_31,dim_32,dim_33,dim_34,dim_35,dim_36,dim_37,dim_38,dim_39,dim_40,dim_41,dim_42,dim_43,dim_44,dim_45,dim_46,dim_47,dim_48,dim_49,dim_50,dim_51,dim_52,dim_53,dim_54,dim_55,dim_56,dim_57,dim_58,dim_59,dim_60,dim_61,dim_62,dim_63,dim_64,dim_65,dim_66,dim_67,dim_68,dim_69,dim_70,dim_71,dim_72,dim_73,dim_74,dim_75,dim_76,dim_77,dim_78,dim_79,dim_80,dim_81,dim_82,dim_83,dim_84,dim_85,dim_86,dim_87,dim_88,dim_89,dim_90,dim_91,dim_92,dim_93,dim_94,dim_95,dim_96,dim_97,dim_98,dim_99,dim_100,dim_101,dim_102,dim_103,dim_104,dim_105,dim_106,dim_107,dim_108,dim_109,dim_110,dim_111,dim_112,dim_113,dim_114,dim_115,dim_116,dim_117,dim_118,dim_119,dim_120,dim_121,dim_122,dim_123,dim_124,dim_125,dim_126,dim_127,dim_128,dim_129,dim_130,dim_131,dim_132,dim_133,dim_134,dim_135,dim_136,dim_137,dim_138,dim_139,dim_140,dim_141,dim_142,dim_143,dim_144,dim_145,dim_146,dim_147,dim_148,dim_149,dim_150,dim_151,dim_152,dim_153,dim_154,dim_155,dim_156,dim_157,dim_158,dim_159,dim_160,dim_161,dim_162,dim_163,dim_164,dim_165,dim_166,dim_167,dim_168,dim_169,dim_170,dim_171,dim_172,dim_173,dim_174,dim_175,dim_176,dim_177,dim_178,dim_179,dim_180,dim_181,dim_182,dim_183,dim_184,dim_185,dim_186,dim_187,dim_188,dim_189,dim_190,dim_191,dim_192,dim_193,dim_194,dim_195,dim_196,dim_197,dim_198,dim_199,dim_200,dim_201,dim_202,dim_203,dim_204,dim_205,dim_206,dim_207,dim_208,dim_209,dim_210,dim_211,dim_212,dim_213,dim_214,dim_215,dim_216,dim_217,dim_218,dim_219,dim_220,dim_221,dim_222,dim_223,dim_224,dim_225,dim_226,dim_227,dim_228,dim_229,dim_230,dim_231,dim_232,dim_233,dim_234,dim_235,dim_236,dim_237,dim_238,dim_239,dim_240,dim_241,dim_242,dim_243,dim_244,dim_245,dim_246,dim_247,dim_248,dim_249,dim_250,dim_251,dim_252,dim_253,dim_254,dim_255,dim_256,dim_257,dim_258,dim_259,dim_260,dim_261,dim_262,dim_263,dim_264,dim_265,dim_266,dim_267,dim_268,dim_269,dim_270,dim_271,dim_272,dim_273,dim_274,dim_275,dim_276,dim_277,dim_278,dim_279,dim_280,dim_281,dim_282,dim_283,dim_284,dim_285,dim_286,dim_287,dim_288,dim_289,dim_290,dim_291,dim_292,dim_293,dim_294,dim_295,dim_296,dim_297,dim_298,dim_299,dim_300,dim_301,dim_302,dim_303,dim_304,dim_305,dim_306,dim_307,dim_308,dim_309,dim_310,dim_311,dim_312,dim_313,dim_314,dim_315,dim_316,dim_317,dim_318,dim_319,dim_320,dim_321,dim_322,dim_323,dim_324,dim_325,dim_326,dim_327,dim_328,dim_329,dim_330,dim_331,dim_332,dim_333,dim_334,dim_335,dim_336,dim_337,dim_338,dim_339,dim_340,dim_341,dim_342,dim_343,dim_344,dim_345,dim_346,dim_347,dim_348,dim_349,dim_350,dim_351,dim_352,dim_353,dim_354,dim_355,dim_356,dim_357,dim_358,dim_359,dim_360,dim_361,dim_362,dim_363,dim_364,dim_365,dim_366,dim_367,dim_368,dim_369,dim_370,dim_371,dim_372,dim_373,dim_374,dim_375,dim_376,dim_377,dim_378,dim_379,dim_380,dim_381,dim_382,dim_383,dim_384,dim_385,dim_386,dim_387,dim_388,dim_389,dim_390,dim_391,dim_392,dim_393,dim_394,dim_395,dim_396,dim_397,dim_398,dim_399,dim_400,dim_401,dim_402,dim_403,dim_404,dim_405,dim_406,dim_407,dim_408,dim_409,dim_410,dim_411,dim_412,dim_413,dim_414,dim_415,dim_416,dim_417,dim_418,dim_419,dim_420,dim_421,dim_422,dim_423,dim_424,dim_425,dim_426,dim_427,dim_428,dim_429,dim_430,dim_431,dim_432,dim_433,dim_434,dim_435,dim_436,dim_437,dim_438,dim_439,dim_440,dim_441,dim_442,dim_443,dim_444,dim_445,dim_446,dim_447,dim_448,dim_449,dim_450,dim_451,dim_452,dim_453,dim_454,dim_455,dim_456,dim_457,dim_458,dim_459,dim_460,dim_461,dim_462,dim_463,dim_464,dim_465,dim_466,dim_467,dim_468,dim_469,dim_470,dim_471,dim_472,dim_473,dim_474,dim_475,dim_476,dim_477,dim_478,dim_479,dim_480,dim_481,dim_482,dim_483,dim_484,dim_485,dim_486,dim_487,dim_488,dim_489,dim_490,dim_491,dim_492,dim_493,dim_494,dim_495,dim_496,dim_497,dim_498,dim_499,dim_500,dim_501,dim_502,dim_503,dim_504,dim_505,dim_506,dim_507,dim_508,dim_509,dim_510,dim_511,dim_512,dim_513,dim_514,dim_515,dim_516,dim_517,dim_518,dim_519,dim_520,dim_521,dim_522,dim_523,dim_524,dim_525,dim_526,dim_527,dim_528,dim_529,dim_530,dim_531,dim_532,dim_533,dim_534,dim_535,dim_536,dim_537,dim_538,dim_539,dim_540,dim_541,dim_542,dim_543,dim_544,dim_545,dim_546,dim_547,dim_548,dim_549,dim_550,dim_551,dim_552,dim_553,dim_554,dim_555,dim_556,dim_557,dim_558,dim_559,dim_560,dim_561,dim_562,dim_563,dim_564,dim_565,dim_566,dim_567,dim_568,dim_569,dim_570,dim_571,dim_572,dim_573,dim_574,dim_575,dim_576,dim_577,dim_578,dim_579,dim_580,dim_581,dim_582,dim_583,dim_584,dim_585,dim_586,dim_587,dim_588,dim_589,dim_590,dim_591,dim_592,dim_593,dim_594,dim_595,dim_596,dim_597,dim_598,dim_599,dim_600,dim_601,dim_602,dim_603,dim_604,dim_605,dim_606,dim_607,dim_608,dim_609,dim_610,dim_611,dim_612,dim_613,dim_614,dim_615,dim_616,dim_617,dim_618,dim_619,dim_620,dim_621,dim_622,dim_623,dim_624,dim_625,dim_626,dim_627,dim_628,dim_629,dim_630,dim_631,dim_632,dim_633,dim_634,dim_635,dim_636,dim_637,dim_638,dim_639,dim_640,dim_641,dim_642,dim_643,dim_644,dim_645,dim_646,dim_647,dim_648,dim_649,dim_650,dim_651,dim_652,dim_653,dim_654,dim_655,dim_656,dim_657,dim_658,dim_659,dim_660,dim_661,dim_662,dim_663,dim_664,dim_665,dim_666,dim_667,dim_668,dim_669,dim_670,dim_671,dim_672,dim_673,dim_674,dim_675,dim_676,dim_677,dim_678,dim_679,dim_680,dim_681,dim_682,dim_683,dim_684,dim_685,dim_686,dim_687,dim_688,dim_689,dim_690,dim_691,dim_692,dim_693,dim_694,dim_695,dim_696,dim_697,dim_698,dim_699,dim_700,dim_701,dim_702,dim_703,dim_704,dim_705,dim_706,dim_707,dim_708,dim_709,dim_710,dim_711,dim_712,dim_713,dim_714,dim_715,dim_716,dim_717,dim_718,dim_719,dim_720,dim_721,dim_722,dim_723,dim_724,dim_725,dim_726,dim_727,dim_728,dim_729,dim_730,dim_731,dim_732,dim_733,dim_734,dim_735,dim_736,dim_737,dim_738,dim_739,dim_740,dim_741,dim_742,dim_743,dim_744,dim_745,dim_746,dim_747,dim_748,dim_749,dim_750,dim_751,dim_752,dim_753,dim_754,dim_755,dim_756,dim_757,dim_758,dim_759,dim_760,dim_761,dim_762,dim_763,dim_764,dim_765,dim_766,dim_767
alligator,0.448,1.429,-0.3652,0.2983,-0.538,-0.3154,-0.29,-0.785,0.9956,-0.0977,-0.1792,-0.574,-0.9585,-0.901,-0.2438,-1.459,-0.1943,-0.605,0.10455,-1.426,0.10846,-1.725,-0.837,0.5015,-0.7656,0.1471,-1.07,0.4062,-0.2915,0.539,0.882,1.1875,0.421,0.3633,2.033,1.225,1.138,0.554,0.4473,0.8804,-1.276,1.222,0.9233,0.0641,0.9165,-1.455,1.538,0.5024,0.0924,-1.9795,-0.1688,-0.8037,0.6113,0.562,-0.2439,0.3467,0.4587,-0.1398,0.4631,0.2479,0.608,-0.353,-0.527,0.4111,-0.1263,-0.01593,-0.2395,0.595,1.027,0.1398,0.04315,1.884,0.433,-1.123,0.9487,-0.2747,-0.3938,0.4048,-0.2676,-0.644,1.105,-0.5356,0.7495,-0.10223,-0.02946,0.5107,-0.59,-0.948,-0.3242,-0.2035,1.341,-2.193,-1.773,0.2515,1.473,0.3003,-0.6245,-1.745,0.4546,-0.4475,1.314,0.1854,0.1903,-0.7236,-0.6333,1.633,-0.53,-1.686,-0.046,-1.464,-0.5635,0.3696,-0.3376,-0.3147,-1.072,0.878,0.09186,-0.2812,1.787,1.178,0.4153,-0.4167,1.9795,-0.822,0.0755,-0.673,-0.229,0.05182,0.2905,-0.511,0.855,-0.982,0.103,0.418,-0.7734,-0.5415,1.564,-1.852,0.02809,1.177,-1.583,-0.8774,-0.6777,1.856,-1.152,0.713,-0.09717,0.73,-0.7666,0.1423,-1.539,0.0288,0.276,-0.515,1.521,0.03485,-0.3577,-0.2434,0.4792,-0.1656,0.7393,1.304,0.0795,0.9307,-0.578,-0.9976,0.1193,0.09937,0.07,-0.003294,-0.2847,-0.1516,-0.6865,0.798,0.0575,0.586,-0.928,-1.33,-1.069,1.301,-0.279,1.131,0.1703,0.1211,1.964,0.3413,1.035,0.2264,1.003,1.671,-0.1387,-0.4006,1.521,0.3926,0.004894,1.311,0.746,0.998,-0.4238,1.107,1.2705,-0.0832,0.4458,0.181,0.6733,0.1206,-0.2605,-0.8516,0.939,-1.383,0.08014,0.48,-0.1024,1.392,-0.3542,2.057,1.663,0.5986,-0.8076,0.8584,-1.072,-0.3965,0.3357,0.5264,-0.04074,-0.8184,0.3,-1.182,-0.7104,0.1932,-0.8125,0.8267,0.0601,-1.088,-1.44,-0.10596,1.38,-0.329,0.575,0.688,0.7793,-0.2273,3.092,0.06757,-1.341,-0.3416,0.1876,-1.334,0.4192,-1.307,-0.2993,0.2347,-0.3708,0.1156,-0.2184,-0.869,0.2036,0.8706,0.01515,-0.3608,0.1602,1.967,-0.839,-0.1389,-1.027,-0.2566,0.04623,0.553,0.4468,0.04474,-1.39,-1.005,0.2175,-0.337,0.044,-0.2307,-0.2898,-0.1964,-1.139,-1.338,-0.6475,-0.5215,1.948,0.307,-0.2708,0.0657,1.034,2.639,0.433,0.3103,0.1642,-0.5107,0.2888,0.24,-1.668,0.2996,0.602,0.3074,-0.232,0.2152,0.1692,0.783,1.044,-0.5146,-0.0827,-1.221,0.2032,-0.4846,-0.1088,-1.166,1.208,-1.127,1.371,0.4385,1.359,0.529,0.957,-0.1078,-0.2151,0.3557,1.229,-0.1349,-0.9653,-0.89,0.812,1.603,-0.2329,1.331,-1.464,0.4368,-1.574,-0.548,0.8936,0.953,1.409,0.939,-0.0866,-1.037,0.2194,-0.6094,0.9727,1.104,0.5835,-0.2069,-1.725,0.07214,0.2952,-0.9106,1.158,-1.928,-0.2615,0.3262,-0.53,-0.2131,0.4336,0.877,-0.3113,0.149,-1.306,-1.515,-2.195,0.4568,1.487,-1.491,-0.7153,0.633,0.766,-0.81,-0.336,0.1104,1.371,0.0627,0.1497,0.3074,-0.8696,-1.589,0.3337,-0.314,0.405,0.346,-0.576,0.741,-0.7734,-0.5205,-0.1276,0.4065,-0.4365,-0.03738,0.138,-0.1069,0.1746,-0.1641,-0.5884,-0.2651,0.2603,1.503,-0.7246,-0.192,-1.222,0.8237,0.731,0.2798,-1.005,0.4878,0.677,-0.3135,-1.131,-2.475,-0.759,-0.7783,-1.167,0.3464,0.3137,0.6904,0.788,-0.636,0.4817,-0.7163,1.151,0.5405,-0.536,-0.9155,0.396,1.941,0.399,0.4944,-1.365,-0.2659,0.09576,-0.0807,0.635,0.04175,-1.45,0.545,0.566,-0.4392,0.645,-0.01316,-0.1809,0.5195,-0.163,1.089,1.046,1.022,-0.189,-1.218,-0.193,0.1198,1.388,-0.2338,0.003426,0.1757,0.10565,-0.001137,0.4214,-0.554,0.918,1.36,-1.132,0.904,-0.04642,1.411,0.8203,0.1648,-0.1368,-1.013,-0.377,0.719,-0.805,-0.3586,1.092,-0.2196,-0.3125,-0.2979,-0.8696,-0.3628,-0.911,-0.54,-0.543,-0.2947,0.711,-0.8516,0.3813,1.519,-0.11066,-0.701,1.486,2.082,1.664,-0.344,-0.1084,1.525,-0.1722,0.699,-1.703,-0.4207,0.239,-1.5,0.5503,-1.757,-0.523,-1.884,-0.3782,0.377,0.1287,0.2314,-1.0205,-0.717,0.9565,-1.838,0.73,-1.167,0.817,-0.04633,-0.3975,-0.104,0.2163,0.6504,-2.49,0.0796,-0.2568,-0.2286,0.2272,-0.1814,-0.095,0.3953,0.8228,1.286,-0.856,-0.5273,-1.458,0.8037,0.3228,-0.4036,0.2515,-1.051,0.6187,1.828,-0.797,0.7783,-0.402,0.4487,-1.199,-1.491,0.5254,-0.5635,-0.38,0.02272,-0.2947,-0.9956,0.5234,-0.09796,-0.3733,0.1947,-0.3335,0.6987,-0.1959,-0.9526,-0.2114,0.53,0.689,-0.8594,-0.954,-0.8213,-1.324,-0.403,0.3435,-0.07104,-0.3335,1.157,1.239,-2.068,1.202,0.84,-0.5356,-0.911,-0.1702,0.07623,0.11664,0.916,0.1126,-0.3945,1.03,1.329,-0.1263,1.037,-0.67,0.8364,-0.2277,1.654,-0.2947,0.5054,1.481,-0.7744,-0.0963,-0.903,0.035,-0.752,-1.036,0.341,0.4385,0.764,0.435,-0.8174,-0.5312,-0.363,-0.4734,-0.847,0.4888,-0.06696,0.719,0.3628,0.6104,-0.796,0.1927,0.6675,0.04654,0.9736,-0.1812,0.517,0.4692,1.163,-0.1578,2.732,-0.02464,-0.2163,-0.2732,-0.3252,-0.03004,0.433,0.2018,-1.038,1.291,0.1981,-0.1772,0.5186,1.449,-0.4172,0.3677,0.6,-0.008965,-0.6113,-0.9277,-0.3171,-0.8423,0.898,-1.416,-0.7207,-1.292,-1.366,-1.782,-1.001,-0.05518,0.174,-0.726,1.516,0.06165,0.3262,0.365,-1.601,-0.4978,-0.7954,-0.2405,0.7905,0.1469,-0.7344,-0.848,-0.3228,-0.4746,1.089,-0.2747,0.0619,0.2095,1.007,1.588,0.3674,-0.5894,0.7607,0.0966,-0.613,1.311,0.9375,-1.619,-0.49,0.3264,0.404,0.01432,-0.00758,0.6123,0.2617,-0.369,-0.9805,-0.64,-0.1026,0.4392,-1.444,0.7876,0.5786,-0.812,-0.4006,0.897,-0.9336,-0.5635,0.961,-0.8657,-0.3186,0.02667,0.2964,-1.159,-1.288,-1.381,0.3132,-0.4724,-1.048,-0.6016,0.09515,-0.6685,-0.604,-0.79,1.393,-0.05093,2.543,-0.472,0.0335,-0.655,-0.5557,0.0971,-1.587,-0.5894,1.645,-1.0205,-0.01333,1.966,0.03085,-0.1482,-0.2542,0.1711,0.5215,0.0876,1.268,-0.3835,0.1693,-0.03036,0.1174,1.271,0.2225,0.2112,1.532,0.525,-1.52,0.9307,0.7646,0.715,0.4873,-1.157,0.4038,-0.4722,-1.648,1.76,-1.246,-0.664,1.247,-0.4546,0.721,-0.4949,-1.005,-0.06647,0.2688
ankle,1.46,0.993,-0.572,0.263,0.4446,-1.047,0.5537,-0.993,-0.7124,2.133,-0.1449,-1.729,2.203,-1.229,0.4678,1.848,0.197,0.2203,1.902,-1.009,0.3955,0.5386,-0.3015,-0.343,1.044,0.672,-2.928,-2.154,-1.365,2.064,-0.7656,-0.81,0.592,0.589,-2.578,-0.2417,1.826,1.449,0.3293,0.1238,-0.506,0.686,-1.434,-0.7007,-0.7197,1.444,-0.6914,-1.924,1.214,0.4678,-0.04816,-1.607,-1.786,-0.03357,-0.01419,0.921,-0.3806,0.4214,1.46,1.678,-0.7246,0.3071,0.7456,0.1526,-2.367,1.213,0.6616,0.9385,-1.847,-0.8823,0.1299,-0.982,-1.763,1.167,-0.00265,0.1431,-0.4258,-1.0,1.493,0.2242,0.04755,1.644,0.6587,-1.521,0.718,-0.1885,-0.363,-0.1151,1.362,-0.869,1.877,0.0687,-0.313,-1.9375,-0.1509,-1.297,0.631,-0.911,-0.3894,0.3994,-0.928,0.664,-0.314,1.024,2.273,-0.7344,-1.113,0.4314,-2.117,0.3513,1.27,0.07715,0.222,0.9575,0.349,-0.876,-1.171,-2.078,0.4124,-0.2686,0.3125,-0.1765,-0.865,-1.562,0.1472,0.7783,0.541,1.98,0.597,-0.7207,-0.0147,0.4727,-0.959,0.643,-0.34,-0.0736,1.36,-1.056,-0.674,1.641,0.7275,-0.1251,2.64,-0.589,0.4822,1.066,0.1875,2.012,0.423,-1.177,-0.1968,-1.885,-1.093,0.1721,-1.068,-0.4607,-2.672,0.4785,-0.06003,-1.926,-1.166,1.403,1.907,0.8613,-0.6494,0.6934,-0.211,-1.217,-0.5244,-0.2401,0.553,0.0853,0.974,1.255,-0.572,-0.06012,-0.465,1.006,0.669,0.1974,-0.955,-0.02327,0.9683,-0.7944,-1.959,-0.935,-0.592,0.7256,2.006,0.942,0.62,1.147,-0.4067,1.405,-0.9277,-0.2074,-1.229,0.5493,-0.3452,-1.37,0.741,0.3171,-1.219,1.053,-1.495,0.2073,0.7207,0.231,1.437,0.8154,0.791,-0.2284,-1.332,0.1814,-2.959,-0.5513,-0.8696,-0.3115,-1.128,0.9443,0.0157,-0.313,-0.4595,-1.809,-1.519,1.46,-0.6743,1.764,1.332,0.398,0.3218,0.321,0.439,2.88,-1.559,-0.6553,0.007725,0.63,1.591,-0.9106,-1.16,1.028,-0.3308,0.06232,0.01653,-0.3003,0.357,-0.8823,1.569,0.6733,1.769,0.1875,2.45,0.111,-0.4932,-0.877,-1.313,-0.7017,-0.617,-0.5654,0.1857,1.0,1.41,-0.7544,0.52,0.78,-0.5806,2.64,-2.482,-0.5293,1.351,0.898,2.904,-0.4495,-1.136,-1.307,0.9956,-0.3137,0.1316,-0.6895,0.3315,0.04605,-1.371,-1.984,1.139,-1.013,-1.426,-1.66,-0.293,1.666,0.02563,-0.4,0.9985,0.9863,0.582,1.419,0.761,1.451,-1.575,-2.94,-0.6987,2.197,1.057,-0.4932,0.682,0.5176,-1.08,0.4055,1.017,1.543,0.0712,0.4458,0.76,0.623,0.537,2.32,0.1176,0.00713,1.012,1.154,1.137,-1.38,1.296,0.4304,-0.8555,0.3943,1.263,0.734,0.02657,0.8516,-0.2285,-1.691,-2.611,1.047,-0.3423,-1.256,0.749,0.669,-0.3455,-0.2145,-0.02298,-0.6445,-1.781,1.926,1.227,-1.403,1.781,-0.5073,1.278,-0.6304,1.034,-1.092,-0.8765,-0.3723,-0.7705,-0.03918,-0.7563,-1.444,0.04422,-1.135,-0.0363,-0.5356,-0.2898,0.638,0.722,0.491,-0.2188,0.699,0.9355,1.859,-1.045,0.58,0.2344,-1.923,1.933,-0.0833,-1.011,1.5205,-1.312,-1.655,-1.693,-1.048,0.6895,-1.827,0.981,0.544,1.509,-0.58,-0.6187,1.011,-0.04712,0.0386,0.1885,-0.358,-0.8013,0.3098,0.2137,0.1218,0.08453,1.119,0.0885,-1.54,0.3804,0.3118,-2.229,-1.689,0.798,1.757,1.087,-0.844,0.5547,-0.659,0.2646,-1.941,1.09,0.319,0.974,-1.845,0.1733,-0.757,1.646,-0.3606,0.4644,-0.4568,0.01967,0.149,0.681,0.285,-1.25,-0.805,0.04807,-2.035,-1.38,0.237,-0.9136,-1.623,-1.917,-0.7407,2.252,0.4521,1.458,1.022,-1.121,-0.762,1.425,1.331,-0.0999,0.857,-1.687,0.5327,-1.413,-0.5747,-1.011,-0.9307,0.02692,-0.927,-1.807,-0.656,0.9805,-0.5645,0.51,-1.293,-1.066,-2.076,-1.69,1.207,2.672,-0.8203,-1.371,-1.994,0.7705,0.1776,0.9663,-1.206,-0.577,-1.09,1.593,2.18,-1.19,-0.7935,1.84,-0.4954,0.774,-2.5,2.209,-0.329,-1.323,0.4348,1.081,1.767,-0.566,0.918,1.76,-0.2211,1.91,0.4575,-0.3442,1.323,0.9136,0.7617,-0.863,-1.08,1.137,-0.4492,0.6147,-0.679,-0.1418,-1.219,-0.824,1.327,0.972,-1.344,1.37,-0.0379,-1.014,1.179,-0.3867,-0.0569,-1.532,0.88,0.754,-2.434,1.74,0.003817,-0.1943,-0.06433,0.987,-0.886,-0.9814,-0.2732,0.982,1.22,1.508,2.158,-0.8623,-0.506,0.2888,0.7783,1.427,1.557,1.569,2.004,-0.1677,-0.396,-1.327,2.453,1.45,1.933,-1.254,1.573,-2.76,0.8423,0.1624,-1.558,0.2083,0.778,-0.9717,0.515,-0.546,-0.4668,0.3574,-0.2377,0.04434,0.356,-0.978,-1.629,-0.764,1.232,1.629,-2.453,-1.972,0.659,-1.565,-1.232,-0.0741,0.5483,1.917,0.5093,0.1372,-0.3284,-1.412,0.987,-2.293,0.407,-1.184,-0.62,1.678,0.8657,-0.2441,-0.5493,-0.667,0.486,0.307,-0.1074,-0.813,-0.1174,0.881,1.248,-0.3225,0.5615,1.159,0.444,-0.1884,-1.501,0.562,0.9683,-0.79,-1.546,0.6733,1.158,-0.832,-0.435,0.07153,0.0529,-0.1305,1.119,0.2874,-0.7886,-0.1444,-0.005466,2.03,-0.934,-0.03244,0.0923,-0.2588,0.0891,1.223,1.039,0.5347,1.76,-0.3796,0.09314,0.3604,-0.5005,0.7065,1.358,0.5264,0.2104,0.4697,-1.533,1.358,1.321,1.003,0.6636,-0.03522,-0.57,-0.4814,0.5996,-0.7954,-0.8716,1.036,-1.331,-0.734,-0.6724,-1.236,0.7,0.2441,0.8813,0.6836,-0.7183,0.915,2.457,-0.1041,-1.098,1.682,1.934,0.1083,0.6514,-0.0227,-2.357,-2.441,-2.107,-0.4412,0.286,0.3208,0.807,0.4978,-1.09,-0.71,1.563,0.6045,-1.251,0.3396,-0.4731,-2.305,-0.11053,1.1875,0.3992,-2.094,0.533,0.3594,-0.5435,1.98,-0.1261,-0.9746,-1.629,-0.8286,-0.153,0.0141,0.424,-0.3743,0.1472,0.3018,-0.4802,1.678,-0.2183,0.3955,1.214,1.369,0.5977,-0.3445,1.7705,-0.6655,-0.2456,-0.0924,-1.009,0.3892,2.375,-1.023,1.592,1.5625,0.27,-1.171,0.666,0.284,0.617,0.982,-0.9937,0.692,-1.494,0.935,-1.417,-0.3015,-0.51,0.1299,-3.385,1.358,-0.67,0.9346,-1.156,0.3335,1.245,-1.353,-1.098,-2.234,1.627,0.281,-1.378,0.7334,-0.506,0.08057,-1.195,-2.346,-0.3606,0.854,-0.597,-0.262,0.2422,0.602,-1.018,0.2042,-0.8223,-1.181,-1.663,0.132,-0.7505,0.476,-0.53
apple,-0.804,-1.774,1.454,-0.1266,0.01451,1.962,2.646,0.3435,1.308,1.995,0.4478,-1.283,1.311,1.74,-1.147,-0.3523,1.819,-0.304,-0.0641,0.635,1.951,1.175,2.318,0.002949,-0.351,-0.532,-0.2395,0.537,-0.824,-0.4949,0.701,-1.437,0.971,0.603,0.02397,-0.0666,0.4636,0.3792,-1.402,-0.1516,-0.2306,-0.09094,-0.10126,1.066,0.4587,-0.4438,0.3508,1.514,0.4744,1.005,0.313,-0.0941,-0.4658,-0.8525,0.657,-0.2747,0.727,-1.286,-0.8887,2.424,-0.8486,-1.007,0.3057,-0.6353,-0.7583,0.1815,0.1447,-1.037,0.2449,-1.782,-2.092,-0.4758,-1.063,-1.653,-1.816,-0.5654,-0.749,0.6064,0.788,1.941,0.5225,1.912,-0.782,1.712,1.955,-0.3813,-0.4353,-0.4836,0.10034,0.797,1.861,1.6875,-0.2725,1.762,-0.811,0.4495,1.269,0.1456,1.051,-0.2408,0.3643,1.477,-1.377,-0.4436,-0.2119,0.324,1.897,-1.509,1.462,0.3647,-1.046,-1.215,-0.2686,-1.006,0.5176,0.4426,-0.7876,0.0675,-2.113,0.2793,1.331,-0.7036,1.6,-1.788,-0.848,1.427,0.04868,-0.2236,2.11,-0.4316,1.024,0.957,0.8105,1.784,-0.2198,0.403,-0.8135,-0.2484,-0.7407,0.176,-0.1868,-0.05627,-0.66,-1.197,0.8066,1.768,-0.3735,-1.228,0.808,2.299,0.8047,-0.8936,-0.4934,-0.904,0.694,-1.717,0.0636,0.453,1.515,1.029,0.2429,0.1721,-0.3574,-0.452,0.4429,1.403,-1.725,1.992,1.236,0.1467,-0.8325,-0.515,2.238,-0.7573,0.519,0.803,-1.833,2.098,2.135,0.987,-0.8965,-0.2225,-0.4636,-0.785,1.418,-1.542,0.2812,0.01707,-1.923,-0.736,-0.9634,-0.973,-1.154,1.055,-2.143,-1.628,-3.404,1.303,1.678,0.7344,-1.714,1.52,0.4985,0.6772,-2.057,0.1907,-1.155,0.858,0.914,-0.485,-0.695,-0.836,-0.8145,-1.422,-1.066,-0.559,0.0887,0.356,-0.4426,-0.11945,2.002,-0.085,-0.5806,-2.463,0.1542,0.0754,0.6226,0.563,0.08014,0.6006,0.652,-1.393,-1.417,0.646,1.854,1.581,-0.4307,-0.9365,-0.2632,0.2134,-1.718,-0.9634,1.07,-1.203,-0.3594,0.0655,-1.493,1.021,0.9756,0.06683,1.432,-1.74,1.068,1.617,-1.177,-0.9756,-1.47,-0.8584,0.2332,0.653,2.465,0.126,1.226,0.4597,1.835,-0.1663,-1.253,0.0958,-0.279,0.6953,-1.622,-0.2517,-0.251,0.05106,2.125,-0.2903,0.12256,-0.7715,-0.07623,1.589,-0.4556,0.1475,1.52,-0.465,-2.803,0.4304,-1.146,-0.3633,-1.82,-0.3752,0.1328,-0.395,0.1389,0.527,-0.4702,-1.463,-1.121,0.1089,-0.1272,-0.61,0.4507,0.6646,3.182,-0.9355,0.06793,-1.261,-0.291,-2.482,0.902,0.07904,-0.6733,1.717,-1.8545,0.9814,0.424,0.705,0.21,0.08276,0.1785,0.6743,-1.235,0.6025,0.4756,-1.429,0.724,-0.2366,0.1272,-0.2266,-0.3196,0.706,0.76,-0.5195,1.415,-0.8257,0.676,-0.2542,-1.953,-0.9126,0.2817,-0.03818,-1.46,0.1377,0.983,0.9297,-2.521,0.928,-0.3525,-1.577,0.4856,0.43,-0.7344,1.462,0.47,-1.028,0.3857,-0.8813,0.02086,3.06,0.9375,-1.487,1.944,-1.144,-0.012245,0.885,0.1075,-0.904,-0.565,0.9536,1.031,-0.33,0.96,-0.3167,-1.397,-0.1825,-2.785,0.2969,1.317,1.261,-0.2372,-1.692,-0.7437,1.335,0.1576,-1.405,-1.632,1.953,1.018,-1.627,1.617,1.713,0.9263,-0.0677,-1.667,1.238,0.1927,-0.1418,1.789,1.165,-0.3276,-2.26,0.6646,-0.2834,-0.2659,0.5557,1.055,0.2969,1.298,0.873,-0.02525,0.803,1.953,-1.307,0.7334,-1.918,-0.8633,-2.053,0.3499,-0.559,-0.3823,-1.007,1.288,0.1029,0.1908,0.1558,0.2583,-0.6836,-0.453,-0.6484,-1.1045,0.8833,-0.89,0.3477,-0.1265,1.449,-1.463,0.4995,0.313,-0.5083,1.362,-0.285,-0.593,-0.4543,0.0888,0.3074,0.558,-0.2439,-0.516,0.374,0.02957,1.372,-2.941,-0.944,1.592,0.1278,0.7974,1.515,-0.289,0.71,-1.905,-0.7754,1.912,-0.715,-0.8857,0.4287,-0.1704,-1.134,0.5654,-1.482,2.115,1.882,-0.0663,0.9683,-0.265,1.684,0.4148,-0.2179,1.002,1.51,-1.287,-0.956,-1.634,-1.367,0.855,-1.855,1.455,-1.531,-2.107,-1.76,-0.2163,-0.2177,-0.3154,-0.773,0.1415,-1.856,-0.4612,0.726,-0.4563,-0.03223,-0.1567,0.698,-1.927,0.539,0.585,2.834,1.288,-0.442,-0.1742,1.8955,-1.7295,0.1495,-0.117,-0.08844,-1.085,-1.872,2.045,1.521,1.137,-0.2815,1.018,-2.477,0.5127,1.028,-0.909,-0.6914,-2.105,-1.579,-0.1577,0.735,-0.775,0.769,0.723,0.2615,-0.02318,0.1287,0.1766,-0.1245,-0.1716,-0.7305,0.6533,-2.133,2.066,-1.068,0.968,0.8584,-0.662,2.09,-0.913,0.2864,-0.1089,0.331,0.4426,0.228,0.8115,-0.1925,-1.409,-2.16,2.395,1.4375,-0.3599,0.8564,-0.1229,1.155,-1.687,-0.8687,0.01903,-0.6284,0.07214,-0.6167,-1.921,-0.227,-2.34,-2.023,-0.201,0.6694,0.6177,0.5566,0.256,2.316,-1.815,-0.5054,1.234,0.2288,-0.3274,-1.31,-0.7017,0.1635,-0.6562,0.733,-0.784,0.9062,-0.997,0.00878,-2.334,-1.022,-1.393,0.1598,-0.3262,0.387,1.04,-3.38,0.6777,0.6143,0.514,-0.10223,1.08,0.594,-0.703,1.915,1.692,-0.4153,0.0555,1.187,-0.04462,0.715,0.0339,-0.1897,-0.5723,-0.4602,-2.316,0.6147,-1.696,1.021,-0.2166,-2.51,-1.061,1.096,0.01253,1.064,0.995,-0.992,0.762,-0.1892,-1.878,2.29,0.8135,-0.516,-1.443,-1.115,0.6143,-0.122,0.395,0.7466,-0.9272,-0.3286,1.52,-1.994,-0.7563,0.5615,-1.443,3.336,-0.634,-0.933,0.717,-0.7544,-0.07764,1.058,-0.538,-0.4966,-2.19,0.7744,0.4573,1.321,-0.753,1.062,-0.918,-0.569,-1.702,0.564,1.235,0.3862,-0.3208,0.7764,-0.479,-1.263,1.732,-0.465,1.213,0.654,0.6416,0.2306,0.03052,0.3633,1.499,0.762,-0.8726,1.394,0.2754,-0.5205,1.266,-1.338,2.29,0.4512,0.763,-1.28,-1.191,0.1321,-1.284,-0.4158,0.2527,1.175,1.003,1.671,0.4368,0.4712,0.9766,-1.148,-0.2622,-2.379,-0.8003,-0.4175,1.193,-0.9873,0.5913,-0.539,-0.89,0.6646,1.496,0.5024,0.748,-0.478,1.344,-2.574,0.341,0.9253,-1.183,1.072,-0.7886,0.852,0.2715,0.3577,1.287,-0.319,-1.903,-1.363,-0.5454,-0.1096,-0.866,1.852,-1.428,0.796,1.113,-0.7515,-0.407,-0.1913,-0.5464,-0.0755,-0.0654,0.919,-0.3357,0.9824,-2.35,1.518,1.5,-0.5576,0.4429,-0.4065,-1.776,0.6714,-1.659,0.8223,-1.497,-1.468,0.6777,1.466,-1.275,1.504,2.049,-0.3018
applesauce,-0.0714,-0.4626,0.10425,1.121,0.326,0.5884,0.01163,0.603,0.1665,-0.472,-0.2659,-1.719,0.3872,1.273,-1.057,0.0213,1.209,-1.753,-0.1598,1.123,-0.6006,-0.803,-0.2805,0.695,0.08044,-0.1477,-0.403,1.056,0.739,0.07874,0.3093,-0.3755,-0.05984,1.116,0.071,0.6016,-0.2935,1.373,0.1392,-1.058,-0.1028,0.7275,-1.01,1.204,-1.096,-0.02737,1.045,-0.527,0.3555,-0.1621,0.2426,0.9946,-0.1162,1.487,-0.04697,-1.436,-0.004673,-0.2512,-0.4165,-0.3835,-1.047,0.1826,1.664,-0.04666,-0.7188,-0.4111,1.606,-1.847,-0.3132,-0.4124,0.11884,-1.26,-0.04852,0.1727,-0.1195,-0.677,-1.081,-1.023,0.63,1.571,-0.438,-0.427,-0.7803,0.8433,0.642,1.171,0.569,1.395,-1.356,0.723,-1.92,0.9424,1.091,-0.917,-2.541,-0.4285,-0.4482,0.2074,-0.388,0.558,0.2544,0.965,-0.773,0.0657,1.418,-0.628,-1.496,-1.543,0.4075,-0.882,-1.172,-1.147,0.7393,-0.5063,1.207,0.2615,-0.11005,0.1802,0.05975,-0.18,1.145,-0.2017,-0.658,0.2415,0.4768,1.454,0.0544,-0.8027,0.55,-0.2053,-0.533,0.3164,-0.632,0.0937,-0.2378,0.4512,0.0883,0.3613,0.747,-0.1777,-0.806,-1.449,-0.2896,-1.128,1.134,-0.1744,-0.3394,1.089,1.515,-1.195,0.361,0.1837,0.9287,0.4219,-2.344,-0.6167,0.336,1.921,0.7065,-0.1448,-1.534,0.1326,0.5703,-0.0422,1.849,-0.0543,-1.427,1.594,-0.1884,0.665,0.963,-0.3252,0.4163,-0.606,0.002075,1.017,0.765,-0.1622,-0.3208,1.717,0.2817,-0.00855,-0.3623,-0.8506,0.4448,-0.002735,-0.648,0.2028,0.1774,-1.54,-0.6226,0.3535,0.0603,0.8594,-0.6855,-1.395,-0.7993,-0.9224,-0.202,0.8984,0.4407,2.44,0.1039,0.889,0.1829,1.033,0.3972,0.785,-0.234,-0.1181,1.384,-0.2041,1.119,-0.3984,0.0783,-1.12,1.053,1.504,1.015,-0.629,-0.3254,-1.801,-1.093,-0.2642,0.1906,-0.268,-0.03348,0.7783,-0.2433,-1.698,-0.2308,0.2135,-1.041,-0.2012,-0.2048,-0.393,-0.244,1.319,-0.4563,-1.815,-0.817,-1.378,0.266,-1.315,-0.2812,-0.4656,-0.372,-1.239,-0.1466,1.241,0.2688,-1.281,1.267,0.12134,0.6553,0.6265,-0.08997,-0.944,-1.41,2.123,0.1467,0.508,-0.2493,1.822,1.378,0.2432,-0.745,-0.10986,-0.663,-0.7036,-0.4238,-0.4946,0.04077,1.69,1.06,0.952,0.336,-0.817,0.06604,0.001448,-0.4675,-0.605,0.619,-0.0923,0.7925,0.3264,0.0964,-1.487,1.042,-1.478,-1.156,0.4153,0.996,0.87,-0.641,-0.342,-0.86,0.312,0.2115,-0.6284,1.598,0.6646,0.12177,-1.004,-0.4895,0.9688,1.457,-0.3076,-0.10004,-1.279,-0.9863,0.625,0.1837,0.1112,-0.64,-0.2556,-0.3962,1.048,0.6094,1.481,0.6855,-1.04,-0.11914,0.139,0.3591,-0.646,-0.05264,0.4111,1.654,-0.393,-0.0979,0.3997,0.1697,1.631,0.1643,1.248,-1.485,0.149,-0.1724,0.2092,-0.1699,0.4688,-1.05,-2.172,-2.44,1.893,0.988,-1.345,-0.051,0.941,0.3276,-1.227,-1.348,0.8594,1.013,1.343,0.6987,1.138,-0.8833,-0.7856,0.499,0.4917,-0.05655,1.261,-0.3862,-0.6543,0.6406,0.6846,0.1663,0.502,0.41,-0.2517,0.1027,-1.319,0.2864,-0.02048,-0.543,-0.989,-0.2524,-0.613,-0.3665,0.1647,1.473,0.2668,-0.2134,0.2258,0.6045,0.7393,0.608,-0.54,0.324,0.1405,0.4368,0.5967,-0.6377,-0.658,1.025,0.564,0.1554,0.004223,0.04675,-0.082,1.176,1.045,0.4548,0.286,0.0679,0.1038,0.5615,-0.8423,0.562,0.04657,0.0823,0.00577,1.375,-0.909,-0.3167,0.5815,-0.408,-0.984,-0.6743,-0.8804,0.5117,0.03018,-1.174,0.0734,-0.02748,0.1371,-1.362,-0.3408,-0.5522,-0.757,0.1584,0.1175,0.02475,-0.593,-0.1504,0.788,0.3735,-0.799,1.308,-1.15,-0.929,0.03214,0.9097,-0.9517,1.606,0.651,0.7485,-0.421,0.8774,-1.288,0.825,-0.739,0.2642,-2.205,-0.8467,-0.87,0.48,-0.578,-0.946,0.03333,-0.5757,0.3223,0.789,-0.171,0.996,-1.301,0.6895,0.559,-0.8394,0.4436,1.258,1.538,0.844,-0.2966,-1.448,0.1332,0.117,0.2644,-0.907,-0.846,1.124,0.632,0.3347,-1.147,0.525,0.476,0.4656,0.708,1.73,-0.2776,0.354,-0.1698,0.6787,0.1122,0.2622,0.856,0.06113,0.2098,1.022,-1.334,-0.1316,0.3013,-0.01758,0.10675,0.0463,0.541,-1.009,1.73,1.255,-1.591,-1.443,-0.07135,1.322,-0.2605,1.047,1.223,0.873,1.218,0.7866,0.59,-0.646,-0.5913,0.1881,-0.3203,-0.01971,1.58,0.02985,-1.152,0.3396,-1.274,0.923,0.7534,-0.768,0.728,0.1688,-0.9146,-0.8105,-1.013,0.3123,0.6616,-1.1045,0.2512,0.2927,1.848,-0.4338,0.2742,-0.7183,0.5747,-0.6436,0.569,0.01506,-1.316,-1.306,-0.2378,2.285,-0.442,-1.422,0.1166,0.4014,0.4797,-0.542,-0.904,0.8354,1.164,0.771,-0.5425,-0.01091,0.97,-0.4548,-0.588,-0.242,-0.1687,1.032,0.226,1.489,-1.077,0.73,-1.359,-0.10516,0.1919,-1.153,-1.449,1.004,0.1483,0.69,-0.99,-1.403,0.7188,-0.7314,-0.3152,0.2617,0.6265,-0.5073,-1.026,0.65,-1.478,1.559,-2.209,1.036,-0.3228,-0.335,-0.2812,0.543,0.0789,-0.2847,0.949,0.1772,0.519,-0.3313,-0.772,-0.8936,-2.072,0.909,-1.229,-0.9956,-0.4573,1.32,0.4602,-1.107,1.138,-0.8574,-0.5146,-0.772,-0.09784,1.075,-0.468,0.08795,-0.9663,-0.9,-1.471,0.03903,0.3005,-0.2668,1.03,-0.676,-0.857,-0.3147,-0.206,0.4805,0.2693,-0.1606,-0.888,0.6636,-1.413,0.0761,-0.2593,-0.1388,0.9146,0.1008,-0.1774,-0.3584,0.0771,0.7754,1.315,0.1057,-0.4587,-0.736,-0.517,-1.167,0.10547,-0.01172,1.873,1.077,-0.9434,0.452,0.8135,0.095,0.8296,-1.441,-0.641,-0.08685,-0.2324,-0.6562,-0.259,-0.5156,-0.128,0.1328,0.554,-1.329,-0.1547,0.04016,-0.255,0.2644,-0.4634,-0.743,0.3691,-0.53,1.119,1.175,0.1752,-0.4548,0.1381,-0.693,-0.6567,0.01142,-0.806,0.3394,-0.519,-0.133,-0.597,-0.8047,0.7466,-0.3276,0.1411,0.493,-0.5537,-0.7783,-0.4832,-0.755,-0.004215,-0.04898,-0.548,0.01556,0.1901,0.738,-1.31,0.03075,0.2698,1.604,0.1171,-0.0341,-0.4924,-0.1918,1.002,-1.028,0.884,-0.846,-0.6074,0.11707,1.3125,-0.368,-0.521,-0.4753,-0.1168,-0.989,0.395,0.4866,-0.1023,-1.008,0.7524,0.3108,0.552,-0.674,-1.025,-0.699,-0.2281,0.068,1.774,-0.2339,0.876,0.4092,0.3806,0.6816,-0.178,-1.553,1.827,0.958,0.3108,-0.0716,-0.2472,0.1711,0.4238,-0.6777,0.2556,-0.3838,-0.599
arm,0.02142,-0.0983,-1.067,0.3337,1.294,-0.2876,-0.1635,-1.06,-1.662,0.08167,-0.7637,-0.628,0.7183,-0.7993,-0.1672,0.459,-1.31,-1.515,0.561,-0.2057,0.0906,0.4397,-0.3481,0.04593,0.592,0.08356,0.02173,0.6455,-0.1924,1.0625,-0.643,-1.25,0.2296,0.06058,0.729,-0.863,-0.4775,0.352,1.77,-0.4495,-1.177,0.9053,-0.4265,-0.622,-0.253,-0.2012,1.105,-0.2615,0.1628,-1.358,0.8687,-0.761,1.02,0.3418,-1.29,0.571,0.07825,0.972,0.412,-0.614,-0.0419,0.734,-1.228,0.4802,0.4678,1.95,0.4421,0.1514,-1.734,0.772,0.931,-0.4148,1.077,0.5986,1.265,-0.1018,0.735,-0.8145,-1.707,0.5664,-0.617,-0.1648,-0.1069,-0.03735,0.05298,-1.233,0.3145,1.096,-0.6343,-0.1024,-0.8115,-0.02666,0.07947,-0.318,-0.4087,-0.1036,-0.1803,-0.1698,-0.825,0.2517,0.673,-0.4119,0.6396,0.1293,0.7847,-0.1266,0.1312,-0.5146,0.2015,-0.6714,-0.8774,0.2988,0.4368,-0.1335,0.465,-0.1917,0.02576,-0.01862,0.5454,-0.713,0.621,-0.506,0.01852,0.338,0.4966,0.745,1.205,0.4294,-0.5293,1.327,-0.44,0.0016575,0.1076,-0.0975,-0.0984,-0.188,-0.1453,0.657,-0.7744,-0.2603,0.91,-2.084,0.262,-0.1998,0.2637,0.6157,-1.084,1.198,0.698,-0.597,-1.031,0.1215,0.2693,1.012,-1.035,0.9976,-0.6196,-0.238,-1.276,0.1738,0.3684,-0.233,0.9346,1.129,-0.3223,-0.5835,0.8755,0.98,-0.464,0.06696,0.7505,0.897,0.5234,0.2913,0.10846,0.1859,0.511,-0.508,-0.4429,-0.3806,-0.01229,-0.04947,1.111,-0.3953,0.686,0.3213,-0.002346,1.054,1.52,0.2241,-0.3958,1.32,1.093,0.07446,0.3096,-0.1598,-0.3894,0.034,-0.10455,-0.2913,0.814,0.844,0.332,0.33,-0.447,-0.2886,-0.0696,0.1279,0.6143,1.35,0.3572,0.02345,0.6934,1.137,0.3523,-0.2944,0.7363,-0.276,0.2703,-0.02325,-1.033,0.28,0.3462,0.6685,-0.831,-0.474,0.469,0.06506,0.6826,0.4153,0.365,0.01671,0.6543,-0.3928,-0.4434,-0.1733,0.825,-0.783,0.8555,0.1395,-0.2336,0.852,-0.4167,-0.646,0.05658,0.6855,0.2559,-0.10614,0.3767,-0.581,0.08105,0.11914,-1.152,-1.473,1.136,-0.354,-0.1354,1.254,0.0903,-0.5537,-0.68,-0.2668,0.4807,0.284,0.0796,-0.3945,0.572,1.41,-0.2625,-1.804,-0.2637,0.3423,0.3015,0.4802,0.5176,-1.001,0.896,0.2979,-0.1135,-0.7847,-0.3542,0.559,0.1125,0.1835,0.3594,-0.01828,0.8506,-0.3252,0.163,0.04434,-0.963,-1.456,0.4077,0.4248,-0.8164,0.001604,-0.5674,-0.6294,-1.086,0.1533,-0.1093,0.813,-0.6636,-0.6367,0.542,0.2092,0.3452,0.8105,-1.014,0.5337,1.137,0.523,-0.1852,-0.868,0.2651,0.3044,-0.0817,0.03056,1.066,0.989,0.677,0.1833,0.035,0.4807,-0.0969,-1.11,-0.07086,-0.05997,0.4915,-0.1304,-1.525,0.2408,-0.332,-0.171,0.2273,-0.3718,0.09357,0.48,-0.0669,0.3135,-0.1251,-1.195,-0.31,0.009,0.194,0.3086,0.446,-0.801,0.4475,-0.997,0.3088,0.002012,-0.943,1.357,0.5654,0.747,-0.08673,0.527,0.878,0.6064,0.5527,0.3196,-0.2367,1.085,-0.1537,-0.5005,-1.272,-0.502,-1.777,0.453,-0.2725,0.4075,0.3833,0.1727,0.0009065,-0.1812,-1.059,0.402,0.07965,-0.07697,0.608,-0.6064,0.2397,-0.8604,-0.6597,-0.919,-0.3743,0.3086,-0.3647,0.3313,-1.286,0.3645,0.1511,-0.4622,0.997,-0.5156,-0.5674,0.00789,1.181,-0.3982,-0.02177,0.1548,1.472,-0.07825,0.2515,-0.1206,-0.1896,0.2578,0.1041,-0.5684,-0.775,0.2534,-0.3828,0.0249,-0.2332,-0.718,0.3225,0.5034,-0.2354,1.073,0.238,-0.3923,-1.025,-0.4502,-0.1432,-0.2888,-0.2864,1.246,-1.18,0.1858,0.1041,-0.3306,0.321,-0.555,0.5156,0.7827,-0.533,1.021,0.3745,0.555,-0.03275,0.05548,-1.359,0.09845,-0.6494,0.2098,0.0391,0.2401,0.4878,-0.5337,0.02696,-0.07495,-0.1014,-0.8257,0.652,-0.955,0.1234,-0.524,0.754,0.6094,-0.1957,-0.5703,0.6235,0.6284,-0.9546,0.176,0.1766,-0.887,-0.344,-0.639,0.888,-1.794,0.01831,0.557,-0.02296,0.4382,-0.2358,-1.069,0.714,0.2927,0.1914,0.2297,0.303,-1.128,-0.3113,0.705,1.12,-0.02322,0.765,-0.01643,0.05383,0.3125,0.5283,1.227,0.4487,0.504,0.652,1.554,0.4934,0.3174,-0.7285,-0.7256,0.509,-0.4946,0.0425,-0.1735,-0.577,0.494,0.5356,1.009,0.871,-1.254,0.5566,0.9873,0.654,-0.2253,-0.067,0.2795,0.8286,0.802,0.4822,0.7114,-0.7817,-0.1221,0.6626,1.288,0.2734,1.02,-0.688,-0.1672,-0.532,0.3782,0.09357,0.4395,-0.2019,0.4807,0.02136,-0.271,-0.708,0.7275,0.532,-0.1884,-0.81,0.7173,-0.1604,0.507,0.1829,0.02805,-0.0878,-0.9946,-0.6714,-0.09766,0.6533,0.4087,-0.357,1.325,0.639,-0.7617,0.4382,0.1823,-0.1361,-0.1832,-0.3655,-0.2256,-0.1984,0.1433,-0.01511,-0.7188,-0.761,0.4207,-0.5225,0.2852,-0.594,0.507,-0.9824,-0.408,-0.538,-1.334,-0.3828,-0.3303,-0.2822,0.01535,-0.11993,0.2001,-0.5127,0.851,1.082,-0.848,0.1809,-0.27,0.078,-1.313,1.158,-0.218,0.7793,-0.134,0.6274,-0.2076,-1.001,-0.2091,-0.131,0.02785,-1.487,-0.3433,0.219,0.2303,-0.2396,-0.765,-0.1362,-0.3962,-0.0748,-1.814,-0.7974,-0.4524,1.431,-0.4102,0.4128,1.237,0.857,-0.4016,-0.2686,0.2369,0.545,-0.4612,0.0955,-0.209,-0.4512,1.048,0.8,0.522,-1.349,-0.726,0.6973,-0.5244,-0.2462,-0.1407,1.607,0.3433,-1.581,0.4402,0.4165,0.02591,-0.0466,0.4229,-0.2102,0.4749,-0.1222,-0.2368,-0.01116,-0.593,0.482,0.597,-0.6475,1.194,-2.043,-0.3835,-0.618,0.1938,-0.5723,-0.02682,0.3577,-0.6978,1.212,-0.04996,0.5425,0.781,0.56,1.34,-2.084,-0.3315,0.594,0.119,0.211,0.131,0.846,0.7554,-0.1509,-0.1137,-0.24,0.001199,0.3467,-0.6445,-0.561,-0.3845,-0.456,-0.733,0.8843,1.226,-0.1206,-0.8135,0.563,0.4375,-0.75,-0.004253,-0.0774,0.4438,0.658,0.2245,0.226,1.188,-0.002977,-2.113,-0.1015,0.688,0.6104,0.513,-0.4539,0.4106,-0.1511,-1.151,-0.317,-0.6807,-0.1554,0.2852,-0.857,0.4363,-0.827,0.428,-0.3643,-0.836,1.404,1.279,-0.78,-0.2139,0.5483,-0.1637,-0.838,0.5225,-0.287,-0.1045,-0.745,-0.758,-0.6562,1.48,1.157,0.5728,0.275,-0.619,0.11676,-0.3638,-0.1638,1.213,-0.2922,-0.2837,0.455,-0.1478,-1.012,-0.4314,0.2996,0.3953,0.9795,-0.12054,-0.7573,1.144,0.3684,0.4614,0.3066,1.011,0.6343,0.2129,0.2498,0.7827,0.9326,-0.11646,-0.268,-0.1611,0.1344,-0.257
ball,0.894,-1.296,0.9365,-0.627,-0.05542,1.264,2.098,0.7627,0.654,0.998,-0.4626,0.2067,1.436,-0.26,-0.4749,1.265,1.017,-0.767,-0.234,-0.5874,1.229,0.9116,0.6294,0.1963,1.272,1.083,-1.503,-0.5303,0.2021,0.2986,0.09705,-2.273,-0.2383,-0.4136,-0.2246,0.351,-0.1044,0.5713,-0.8735,-0.4702,0.414,0.707,-0.4531,0.1705,0.451,-0.8545,-0.294,0.1342,-0.728,0.661,0.1918,1.096,-0.03906,-0.3164,0.5146,-0.784,-0.3936,-2.117,-0.5107,0.8115,-0.00698,-0.4026,-0.115,0.8975,-1.393,0.7095,-0.4797,-0.961,-0.5547,-1.085,-0.2595,-0.063,-1.081,-1.861,-0.888,-0.1289,-1.506,0.4106,0.6895,1.692,-0.7925,1.524,0.10406,-1.217,0.1062,-0.322,1.274,-0.252,1.227,-0.1115,2.525,0.823,0.4502,1.956,-0.1261,-0.02863,0.1951,-0.1843,0.5615,0.2979,0.3772,1.367,-0.3564,0.993,-0.07263,-1.068,0.431,-0.7534,0.5127,-0.381,0.1595,0.505,-1.114,-0.4326,0.656,0.371,-1.969,-0.4636,-0.4722,1.743,0.8145,0.001117,1.487,-0.4026,-1.417,1.031,0.312,-0.7534,1.614,0.1688,0.06696,-0.01845,-0.2751,1.669,-0.2595,-1.296,0.803,-0.752,-1.617,-0.04175,-0.426,0.5156,0.011696,-0.804,-0.4714,0.4624,-1.465,0.242,1.074,1.49,0.8564,-0.01041,-1.511,-1.452,0.617,-1.243,0.4983,-1.343,0.853,1.118,0.7246,-0.826,0.139,0.0641,0.1451,0.792,-1.44,0.4875,0.4766,-0.6245,-1.531,-0.9546,1.193,1.413,-0.665,-0.004864,-1.434,0.934,0.4783,-0.1471,-2.129,0.8467,1.208,-0.791,1.155,-1.633,0.7207,-0.2698,-1.555,0.612,-1.64,-1.289,-0.7134,2.246,-1.079,-0.936,-0.2798,0.844,0.02551,0.825,0.2405,0.1636,-0.1312,1.319,0.04825,-0.06003,0.02617,0.9985,0.1895,-0.33,-1.3,-1.431,-0.3442,-1.15,-0.955,0.1621,-0.9307,0.511,0.5615,0.4592,1.192,0.249,-0.907,0.01109,0.5674,-0.8086,0.3179,-0.664,-0.9185,0.3584,1.445,-0.859,-0.2993,-1.204,-0.0819,-0.705,-0.2405,0.707,-0.953,-0.1914,-1.156,0.0657,-0.2542,-0.791,-0.05276,-0.121,-1.664,-0.4307,0.447,-0.6772,0.11743,-0.786,-0.0692,1.391,-1.809,-1.075,0.4321,-0.6255,1.062,0.4526,0.924,0.21,0.1804,0.08386,-0.02155,1.0,-1.116,0.443,-0.2284,1.17,-0.5303,-0.3916,-0.954,-0.4604,0.9346,-1.153,1.027,0.3723,0.9565,0.403,-0.3093,-0.1416,-0.2094,-1.009,0.4868,0.903,-0.881,0.3025,-1.204,0.4907,0.455,0.4707,0.04538,-0.2388,-0.877,-0.408,-0.8193,0.04337,-0.839,1.129,-0.0293,0.3523,2.066,-0.1963,0.6436,0.5186,-0.137,-0.08453,0.787,0.006336,-1.147,1.3,-0.806,1.009,0.9927,0.04422,-0.681,-0.01423,0.157,1.018,-1.487,0.339,0.0953,-0.917,0.2478,-0.5566,0.89,1.743,0.5615,1.193,0.4478,-0.8286,-0.3433,-1.289,-0.4248,0.0856,-0.4827,0.4033,0.4417,0.1967,-0.405,0.2756,0.511,0.897,-1.2295,-0.0662,0.484,-1.628,-0.04675,0.1349,-0.5806,0.1293,0.21,-1.278,-0.8223,-0.8813,-0.1942,0.778,0.336,-1.469,1.947,-0.981,-0.3132,0.6396,-0.1089,-2.102,0.11005,0.9165,0.351,0.2062,1.44,0.717,-0.997,-0.281,-0.7925,0.2408,-0.688,-0.6895,-0.0173,-0.6455,-0.9033,-0.7485,-1.932,-1.045,1.343,1.164,0.56,-0.4321,0.79,-0.488,0.6016,-0.994,0.1043,1.222,0.1246,-0.638,1.622,-0.2098,-2.809,-0.04797,-1.57,-0.5234,-0.3474,-1.184,0.7915,0.3293,0.6,1.597,-1.045,-0.781,1.663,-1.068,0.8696,-0.4512,0.525,-0.3967,-0.001658,-0.3127,-0.1943,-0.5166,0.95,1.053,-0.8486,-0.2952,0.58,-1.235,0.0764,2.043,-0.0953,-0.758,0.5854,-0.002277,-0.936,1.173,-1.4795,0.3518,-0.501,-0.9277,0.4192,-0.6177,0.131,1.147,0.7334,-0.349,-0.3545,0.2803,0.0149,-0.2062,-0.1026,0.5933,-0.6675,-0.0562,0.9595,-0.5327,1.152,0.6333,0.02715,-0.4592,0.5654,-0.8584,0.7314,-0.7915,0.279,0.418,1.055,-1.28,-0.555,1.393,1.444,1.098,-0.1703,0.643,-1.653,1.219,-1.509,-0.626,-0.1923,-0.49,-0.697,-1.175,-1.198,-1.459,0.4397,-1.39,-0.1913,0.7314,-1.431,-0.06885,0.689,-1.966,-0.2795,-0.8716,1.665,-1.69,-0.0986,0.7017,-0.12134,-0.1803,-0.26,0.9575,0.2952,1.323,0.8574,2.543,0.416,-1.201,0.2864,0.5933,-0.6436,0.2114,-0.4229,0.469,-0.1575,0.2427,1.399,1.344,2.43,-0.3574,0.1692,-1.208,-0.1737,0.3538,1.0205,0.4858,-1.719,-1.188,0.8457,0.459,-0.9043,0.4429,-0.0283,-0.671,1.41,-0.83,0.513,-0.3806,-0.657,-0.3757,0.7373,-0.5015,0.079,1.128,0.02669,0.9434,-0.08936,1.229,0.5586,1.889,-0.844,0.1282,-0.0646,-0.103,0.05112,0.5347,0.3406,-0.4832,0.8374,2.105,-0.2379,0.5615,0.608,-0.10394,0.05814,0.636,-1.06,-0.813,-0.2534,0.0887,0.4329,0.03265,-1.6,-0.3308,1.53,-0.1216,0.408,0.71,-0.4287,1.216,0.581,-1.307,0.456,-0.07367,0.2272,-0.611,0.5576,0.7964,0.10315,0.2715,-1.426,0.1826,-0.448,0.1041,0.03824,-1.261,-1.102,0.843,0.2773,0.5757,0.9204,-0.9277,-0.0723,-1.346,0.795,0.7104,1.918,0.8115,0.549,0.77,0.7227,0.1494,-0.56,-0.1488,0.1837,-0.3762,-0.1449,0.10925,-0.66,-0.1199,-1.251,0.4033,0.9487,1.309,-0.4822,-0.6826,-0.1866,0.3535,0.1506,0.9272,0.724,-0.2188,-0.1719,0.1307,-0.1829,1.037,0.6587,-1.464,-0.11646,-1.027,0.3462,-0.002882,-0.1635,0.653,-0.936,-0.6177,0.1643,-0.8525,-0.4836,0.493,-0.0894,0.795,-1.297,-0.789,0.4429,1.323,0.07544,-0.3362,0.658,0.645,-1.074,1.937,-0.349,0.311,0.0298,-0.1914,0.1088,0.1233,-0.9165,-0.2097,1.124,-0.1667,-1.816,-0.241,0.6235,-0.886,-0.4216,-0.4392,0.748,-1.083,0.2247,-0.03668,0.376,-0.2734,1.005,0.8706,-0.4702,1.178,0.3933,-0.6226,0.924,-1.342,0.75,-0.1046,-0.2007,-0.0091,-1.883,0.324,-0.4756,-0.5034,0.59,-0.785,0.3123,1.437,0.8433,-0.993,0.689,-0.731,-0.67,-1.337,0.235,1.15,1.452,-0.776,0.3896,-1.005,0.4019,0.661,0.8667,-0.936,0.682,-0.03586,-0.5483,-1.597,-0.6216,0.3662,0.1133,1.126,1.71,0.538,-0.5146,0.717,-0.197,-1.218,-0.0921,-0.7676,-0.679,-1.506,-0.3523,1.119,-0.4966,-0.468,0.2908,-0.523,-0.8047,0.05652,-1.2,1.531,0.1266,0.4026,-0.579,0.1539,-0.7715,0.2202,0.718,0.05765,-0.4788,-0.9575,0.3599,0.4473,-0.86,0.3743,0.7256,-0.9873,0.1677,0.2937,-0.2042,0.4172,0.2245,-0.9097
balloon,0.9185,-1.258,0.392,-0.2216,0.0422,0.8594,0.8115,0.4019,0.58,0.485,-0.9546,0.8184,0.7236,-0.5737,-0.4246,2.242,0.8276,-0.91,-1.06,-1.227,1.383,0.5483,1.037,0.0594,1.511,0.3738,-0.796,-1.0625,0.465,0.6274,0.07404,-2.086,-0.05124,0.424,0.3303,0.572,-0.6426,0.4507,-0.252,-0.1555,-0.893,0.5522,0.006397,0.4175,0.2751,-0.6357,1.003,0.7217,-0.0895,0.3806,0.01473,0.8916,0.10144,0.256,0.2578,-0.2468,-1.386,-2.117,-0.4294,0.628,-0.5117,-0.0995,0.405,0.9097,-0.202,0.755,-0.2776,-1.176,-0.586,-0.7407,-0.631,0.598,-0.758,-1.639,-1.799,0.1133,-0.5444,1.021,0.7837,1.806,-0.579,0.4854,0.54,-1.291,0.006756,0.1232,1.285,-0.1073,0.7705,-0.4426,2.13,1.445,0.285,2.418,-0.5566,0.04788,-0.2695,-0.762,0.2373,0.7363,0.7583,0.2095,0.1774,1.102,-0.5703,-0.531,-0.0864,-1.285,0.549,-0.2585,0.2377,0.2634,-0.12024,0.2573,0.903,0.4932,-1.228,-0.4739,-0.0219,2.121,0.4348,-0.2063,1.328,-0.5156,-1.236,0.01746,0.2834,-0.9644,1.035,0.2593,0.2346,0.09265,0.3916,1.546,0.574,-0.585,0.5913,-0.5654,-0.937,-0.2037,-0.7476,0.4304,-0.2412,-0.3635,-0.1526,0.5474,-1.137,0.6772,0.1677,1.232,0.8438,0.2588,-1.82,-1.095,-0.07935,-0.9277,0.03918,-1.511,0.8237,1.171,0.4124,0.959,-0.4714,-0.223,0.451,0.5864,-1.051,0.0822,0.3574,-0.04666,-1.688,-0.10834,0.8003,2.281,-0.9805,0.12445,-1.605,0.4478,1.21,-0.506,-1.603,1.285,0.5747,-0.3352,1.201,-1.064,0.881,-0.2115,-1.542,0.814,-1.346,-1.359,-0.846,1.818,-0.9854,-0.7344,-0.4595,1.008,-0.8945,-0.0003753,0.2622,-0.3665,-0.1014,1.002,0.1382,-0.11145,-0.02957,0.08105,0.3728,-0.2693,-0.9243,-1.347,-1.279,-0.8066,-0.587,0.4817,-1.247,0.4849,0.594,0.1399,0.92,-1.207,-0.5376,0.3389,1.1,-1.431,0.6914,-1.088,0.4973,0.05878,1.277,-0.6875,-0.3118,-1.086,0.1687,-0.78,0.01269,0.9385,-0.4558,-0.1765,-0.7637,0.5356,-0.3933,-1.013,0.3354,-0.373,-2.426,-0.2554,0.855,-1.409,0.1008,-1.052,-0.2135,0.9062,-1.108,-1.081,0.382,-0.2217,0.8506,0.325,1.044,-0.09674,0.5664,0.195,-0.3196,-0.4875,-0.7275,0.7227,-0.10925,0.5093,0.166,-0.3713,-1.423,-0.0923,0.6533,-1.453,1.094,-0.0338,0.5947,0.712,-0.3674,0.11804,0.444,-1.042,0.7617,0.6978,-0.503,0.02673,-1.211,0.3228,1.051,0.4573,-0.4294,-0.84,-1.433,-0.608,-1.334,-0.1448,-0.4734,1.597,0.2314,0.735,1.8,0.443,-0.07275,0.296,-0.384,0.471,0.3235,0.4656,-0.962,0.793,-0.5215,0.44,1.286,-0.881,-0.747,-0.7075,0.2693,0.9365,-1.467,0.671,0.2008,-1.295,0.0778,0.02814,0.9756,2.092,0.7754,1.199,-0.1025,-0.6216,-0.3274,-0.745,-0.4294,0.0179,0.086,-0.3213,1.336,0.532,-0.6025,-0.231,0.51,1.134,-1.102,0.672,0.3074,-1.145,-0.1578,0.3193,-0.333,-0.1516,0.8467,-1.6875,-0.3464,-0.82,-0.6445,-0.01183,0.1976,-0.6885,1.991,-1.338,-0.389,0.915,-0.361,-2.447,0.275,0.6436,0.1998,1.199,0.959,1.053,-0.2854,-0.652,-0.4539,-0.0861,-0.3555,-0.9404,0.03964,-0.7,-0.5264,-0.02972,-1.596,-0.528,0.253,0.511,0.835,-0.5312,0.2827,-0.6006,0.9204,-1.071,0.2035,1.318,-0.3833,-0.3113,1.693,-0.7827,-2.21,-0.4158,-1.778,-0.495,-0.6606,-1.175,0.5884,0.2019,0.5747,0.6353,-0.009796,-0.8037,1.376,-0.00382,0.2433,0.648,-0.571,-0.488,-0.12103,-0.2021,-0.7153,-0.2935,1.484,0.8193,-0.571,0.5366,-0.4211,-0.8516,-0.3564,2.412,-0.2073,-0.5713,-0.4517,0.08923,-1.329,1.188,-1.037,0.6353,-0.2224,-0.1539,-0.0303,-0.8364,-0.0675,0.87,-0.03079,-0.578,-0.53,0.1996,-0.3489,-0.2668,-0.4841,-0.0614,-0.9946,0.2844,1.134,-0.3079,0.597,0.4502,0.7637,-0.0768,0.669,-0.3027,0.639,-0.655,-0.1229,0.6704,1.142,-0.595,-0.5786,1.611,1.795,0.8286,-0.235,0.7627,-1.946,1.273,-1.417,-0.1434,0.1747,-0.638,-0.1996,-1.043,-2.133,-0.7056,0.2737,-1.416,0.1315,0.589,-1.426,-0.917,1.074,-1.778,-0.661,-0.3462,2.248,-1.404,-0.645,0.0578,0.611,-0.0671,-1.197,0.5044,0.2974,1.008,1.221,2.553,0.883,-1.282,-0.05,-0.1199,-0.5825,0.1272,-0.671,0.6484,0.3062,0.002424,0.8647,1.925,2.275,-0.5933,0.2827,-1.273,-0.3728,-0.2399,0.4602,0.2394,-2.012,-0.676,0.3354,0.1171,-0.0886,0.1854,-0.1985,-1.042,1.173,-0.9473,0.6914,-1.086,-0.374,0.2253,0.2471,-0.4453,-0.1512,-0.06866,-0.8765,0.818,0.3423,0.9336,1.224,1.3545,-1.0625,0.677,-0.2817,-0.0986,-0.2112,0.5786,-0.5635,-0.6436,0.3367,2.195,-0.0293,0.6255,0.4587,0.7607,0.1968,0.1816,-1.235,-0.5713,-0.03607,-0.1257,0.3953,0.469,-1.762,-0.6636,1.109,-0.2338,1.092,1.096,-0.5156,0.4436,0.4106,-0.8325,0.3655,0.3315,0.856,-0.9653,0.0308,0.4944,0.00829,-0.177,-1.189,-0.11664,0.1593,-0.1101,-0.1492,-1.176,-0.664,0.755,0.2421,0.641,0.5894,-0.1638,-0.256,-0.9966,0.3887,1.178,2.027,0.0644,0.715,1.158,0.4724,0.2036,-0.5327,-0.691,-0.1813,-0.545,-0.444,0.65,-0.4985,0.7886,-1.519,0.1315,1.063,1.247,-1.049,-0.6772,-0.07837,0.0684,0.44,0.437,0.6577,0.1394,-0.813,-0.759,-0.2157,0.7666,0.2157,-1.911,-0.55,-0.9673,0.2852,-0.06244,0.28,0.393,-0.567,-0.8037,-0.1333,-0.3098,-0.2612,0.1942,0.2026,0.5713,-1.034,-0.0955,-0.258,1.505,0.00787,-1.395,1.145,0.788,-0.8384,1.7,-0.0844,0.7046,0.553,-0.06335,-0.7754,0.612,-0.517,1.078,0.622,0.05493,-0.916,-0.6772,0.3376,-0.4648,0.1649,-0.4456,0.2754,-1.6875,0.8486,-0.09875,-0.012596,-1.0625,1.134,1.6455,-1.228,1.501,0.981,-0.7075,1.045,-1.761,1.342,0.5713,-1.084,0.617,-1.715,-0.314,-0.7876,0.2128,1.686,-0.685,0.02135,0.1465,0.4905,-1.236,0.7695,-1.056,-0.8213,-0.8457,-0.3228,1.314,1.467,-1.286,0.4475,-1.465,0.881,0.512,0.3489,-0.6597,0.04056,-0.6606,-0.5728,-1.519,-0.9844,0.3943,0.04382,0.6025,1.163,1.872,-0.5107,1.408,-0.3103,-0.849,-0.399,-0.944,-0.7954,-0.893,-0.6797,0.808,-0.26,0.1313,0.1521,-0.1205,-0.5757,0.4028,-0.802,1.63,-0.4329,0.12213,-0.7705,0.03848,-0.751,-0.4316,0.782,0.00547,-1.13,-1.495,0.1035,-0.125,-0.4214,0.1155,0.977,-0.556,0.1815,0.3918,-0.7456,1.281,0.0797,-0.9062
banana,-1.905,0.592,-0.569,1.518,0.1504,0.739,0.2203,0.557,0.704,0.809,-0.00912,-0.871,1.25,0.7563,-1.594,-0.727,1.477,0.5386,-0.00325,1.295,0.393,-1.21,1.294,1.536,-1.063,-0.02977,-0.721,-0.2065,-0.9097,-0.414,-0.9185,0.9087,0.37,-0.02577,0.2715,0.514,1.699,1.696,-1.28,-0.4846,-0.5205,-0.372,-0.2654,1.543,1.883,0.05127,0.11005,0.49,-0.1462,-0.275,0.1366,-0.4846,0.02191,2.305,0.015434,-0.3403,0.9536,-0.02863,-0.3333,0.8013,-0.3997,-1.213,0.469,1.261,-1.025,-0.2942,1.385,-0.2898,0.663,-0.4346,0.514,-1.573,-0.4727,-0.2778,-0.4639,-0.5107,-0.772,0.09705,1.407,0.2583,-0.3506,0.537,-1.201,2.016,0.4922,0.7905,0.658,-0.4414,-0.722,-0.2192,-0.4521,0.542,0.4197,-0.3887,-0.0678,0.3494,0.0401,1.48,0.2494,-0.61,0.6895,-0.5986,0.5903,-0.62,0.9272,0.2659,-0.552,0.05438,1.106,-0.602,-0.5503,-1.897,-0.8696,-1.444,-0.3071,0.1703,-0.796,0.509,-1.413,-1.154,0.07776,0.2351,0.1746,-0.5894,-1.242,0.3157,-0.756,-0.673,1.099,-0.5244,0.1987,0.2136,0.286,0.6494,-0.752,0.5913,-1.199,1.258,-1.212,-0.4724,-0.859,-0.3176,0.6294,-0.9014,0.8096,-0.1311,0.2141,0.3613,0.1877,0.2627,0.4968,-0.3071,0.829,-0.2546,-0.923,-1.182,1.041,1.129,1.845,0.1635,-1.325,0.6133,-0.3015,-0.689,-0.2037,0.4634,-0.759,2.473,0.4553,0.02232,-0.399,-0.5464,1.245,-1.844,-0.05615,1.73,-0.05518,2.467,0.439,1.062,-0.695,1.112,1.384,0.84,0.3967,-1.209,-0.4817,-0.249,-0.867,0.2134,-0.1332,-0.4102,-1.003,-0.4,-0.7173,-0.4294,0.4272,-1.085,0.633,0.672,-0.0816,1.212,0.596,-0.5044,-0.4204,0.533,-1.111,-0.002956,0.1777,-0.3804,0.2186,-0.4695,0.3591,-1.223,-0.636,-0.01456,-0.6924,0.1315,-0.01987,-0.6377,1.121,-1.691,-1.409,-0.6006,0.755,-0.295,-0.6772,0.675,0.775,-0.627,0.4456,-0.1893,-1.067,0.811,1.594,1.303,1.268,0.133,-0.287,-0.3,-0.659,-1.39,1.554,-1.286,-0.6196,-0.527,0.391,0.3884,-0.003588,-0.3865,0.8027,-1.392,0.5103,0.3547,-0.03983,0.004723,0.245,-1.18,0.2612,0.318,1.24,-0.465,0.156,-0.536,0.4092,0.181,-0.9473,-1.935,-0.011345,0.1179,0.04614,-0.5864,0.7876,1.126,0.469,0.3557,-0.5986,-0.2832,0.553,1.05,-1.142,-0.0797,1.07,-0.7197,-0.784,-0.672,-0.2001,-1.0625,0.2737,-1.678,0.1274,1.062,0.9956,0.1401,-0.4202,-1.319,-0.11414,0.505,0.519,-1.552,0.297,-0.12134,0.514,-0.3884,-1.531,-0.4856,-1.324,-0.068,1.149,-1.829,-0.1179,0.2546,-1.339,1.844,-2.143,1.382,1.571,-1.425,1.275,-0.5454,-0.1533,-1.697,0.9004,-1.399,2.271,-0.0849,-0.6533,-1.977,-0.9,0.8496,0.9375,-0.1212,0.8735,0.1927,-2.38,0.4385,-0.1102,-0.4355,-0.2123,-0.7847,0.4753,-0.905,0.458,-0.2693,0.2954,0.149,0.189,-0.4475,0.3433,0.0658,0.556,1.417,-1.972,0.1553,-0.157,-0.8726,1.684,1.457,-0.1165,0.414,0.616,1.262,0.94,-0.478,0.7197,-0.0994,-0.4333,0.709,0.9204,-0.408,-0.7095,-0.1885,-0.07697,-1.379,-0.8115,1.079,0.0684,0.4153,-0.3184,-0.801,-0.4158,0.7974,0.2866,-0.311,-0.773,1.205,-1.481,0.4138,2.008,0.2957,1.092,0.989,-0.7505,0.2925,0.709,-0.2798,0.286,-0.10724,1.338,-0.5654,-0.1365,-0.8213,1.161,1.606,0.3801,0.675,1.898,-0.2438,0.09174,-0.598,0.6157,-0.886,-0.561,-0.15,1.043,-2.121,0.6367,0.892,0.815,-0.723,0.5215,0.03284,1.094,1.146,-0.8677,0.4045,-0.2905,-0.4246,-0.492,0.4976,-1.55,-1.56,1.867,0.8906,-0.7373,0.3674,0.269,0.2866,1.51,-0.312,1.325,0.4602,-1.962,0.4922,0.8896,1.519,-0.441,0.934,0.8237,0.00845,-0.4158,-0.2002,-0.09296,-0.4587,-0.339,-0.277,-0.7153,0.2983,-0.4817,0.5005,-0.841,0.5186,-1.066,0.728,-1.151,-0.3704,0.6255,-1.225,1.244,0.2651,-1.241,1.638,0.4658,0.0942,1.975,-0.9385,-0.05087,-0.9233,0.1564,0.53,0.4048,-1.68,0.06506,0.599,-0.2129,-2.236,0.1262,0.04477,-0.911,0.9087,0.886,-0.03827,-0.653,-1.087,0.2412,0.3706,-0.5303,-0.3628,-0.5454,-0.33,0.227,0.1356,-0.964,-1.264,0.7314,0.5024,-2.88,0.687,-1.215,-0.3296,-0.3257,-0.1877,-1.339,-1.017,0.628,-0.7905,-0.2188,0.655,-0.5366,0.2852,0.05722,0.1998,0.0366,-0.1364,-0.4285,-0.5156,1.155,0.003195,0.3462,2.193,-0.08746,0.703,-1.683,-0.0273,-0.8296,-0.538,-2.074,-0.6943,-0.1973,-0.6123,1.234,-0.4072,-1.109,-0.391,-0.885,1.988,-0.715,-0.194,0.679,-0.5806,-0.4246,1.433,0.3064,-1.908,-0.635,0.323,1.1875,0.2084,-0.4348,1.612,-1.383,0.9487,-2.143,-2.502,0.4587,0.977,0.4001,-0.5234,1.307,0.5957,-1.63,-1.895,0.1554,-0.3518,0.6626,0.887,-0.2041,0.408,-0.6846,-0.7676,-0.05002,0.6694,0.1442,-0.782,0.6274,-0.84,-0.261,1.239,-0.35,0.4895,0.10095,-0.11255,-0.05417,-0.014084,-2.207,-0.7495,0.887,1.259,-0.397,-2.387,2.02,-0.8154,-0.05316,0.1487,1.386,-0.9775,-0.2196,1.278,0.3474,0.0792,0.4028,1.248,1.521,0.832,-0.2642,-0.955,-2.102,-0.03854,0.668,0.7407,-2.41,0.1287,0.0583,-0.3962,-0.932,-0.299,1.63,-1.3,0.6797,-0.582,0.257,-0.0861,-0.4158,0.888,1.429,0.1527,-0.1335,-0.505,1.037,-0.417,0.1272,0.02411,-0.4658,-0.7285,0.4238,-0.897,0.444,0.5635,-0.5825,2.248,-0.9644,-0.0838,-0.7417,-0.685,2.363,1.31,1.927,1.105,-0.83,0.3855,-1.115,1.319,-0.862,1.218,-0.5293,-0.6978,-0.1536,0.2363,0.6665,-0.0535,0.519,0.984,-0.557,-0.826,-0.4355,0.5728,1.143,0.196,0.3306,0.04794,1.162,0.7417,0.6816,-1.059,0.437,0.3315,-2.344,-0.583,0.829,1.408,0.2195,0.4465,-0.2246,-0.652,-0.9873,0.4849,-1.029,-0.708,0.5557,0.3535,0.535,-0.4011,-1.0,0.3435,0.2347,-0.2566,0.5547,0.00773,-1.57,-0.7607,-0.261,0.1649,0.1401,1.004,0.4648,-0.05362,1.316,-0.61,0.926,-0.2114,0.6284,0.184,0.252,0.59,-1.641,0.831,0.12463,0.966,0.07886,0.5454,0.8843,1.68,-1.087,-0.98,-0.612,1.48,-0.1841,1.402,0.6963,0.6,1.903,-2.326,-0.508,-0.9883,-1.029,-1.1875,0.24,0.4993,-1.275,-0.2551,-1.384,0.671,-0.6855,-1.577,1.401,0.3997,-0.0674,1.313,-1.09,0.0934,0.2383,-0.6157,0.577,0.007515,0.04077,-0.0835,0.01391,-1.003
basket,-0.06046,1.25,-0.2715,0.5405,-1.147,1.322,0.04828,-1.012,-1.536,-0.02943,1.108,0.2231,0.05338,-1.322,-0.6143,0.1205,0.574,2.113,-1.31,-0.5215,0.6626,1.068,-0.2109,0.7007,0.404,0.6914,-0.3145,1.623,0.421,-0.3616,0.5522,0.4192,0.7617,1.239,1.062,-0.006992,0.794,-0.3416,-0.514,-0.6094,-0.8813,0.663,-1.502,0.2218,2.672,-0.01064,0.457,0.601,-0.0479,-0.12445,-0.2334,2.033,0.496,0.0909,1.324,0.4873,-0.4062,1.667,0.3962,1.003,-0.4338,-1.682,-0.001033,-0.636,1.095,-0.943,-0.559,1.259,-0.1444,0.1523,-0.2917,-0.446,-0.2954,0.6064,0.563,0.4258,-0.588,0.05637,0.4282,-1.582,-1.119,0.149,0.911,-0.4255,2.188,0.1573,1.794,1.221,0.1675,0.478,0.0966,0.9766,-1.008,-0.5127,-0.2617,0.3442,-0.12494,0.1948,-0.2708,0.3381,0.5425,-0.664,-0.75,-0.4,-0.916,-1.358,0.1494,-0.06934,-0.01072,-0.129,-1.095,-0.687,-0.4153,-0.223,0.01701,-0.2754,0.2898,0.4663,-0.2705,-0.889,-1.046,0.895,0.075,0.654,0.2585,0.1768,-0.3665,-0.01587,0.1719,-0.8135,-0.8315,-0.1567,-1.566,-0.5117,0.1764,-0.652,-0.3584,0.06726,-0.3845,0.706,0.4324,0.4058,0.3748,-0.04944,1.05,0.4739,0.4827,-0.7144,0.2964,1.098,0.652,0.7705,-0.358,0.6465,1.302,0.3545,0.2878,-0.583,-0.08636,0.1227,-2.717,-0.1683,-0.8975,0.6494,-0.528,-0.5347,0.723,-0.6396,-0.261,2.05,-0.09357,-0.8896,-0.5522,-0.2202,1.037,-0.8643,-0.7944,0.55,-0.2327,1.297,-0.3535,-0.1348,-0.3909,-1.684,-0.6494,0.731,0.332,0.516,-0.1172,0.5347,-0.589,-1.326,0.291,0.2568,1.97,-1.001,-0.2883,0.817,-0.3296,-0.168,0.3918,-0.5684,0.534,0.0402,-0.07104,-0.2185,-0.346,-1.005,-0.671,0.10266,1.001,0.8926,0.00683,-0.678,-0.2094,-0.2482,-1.838,0.6875,0.28,-0.4316,1.259,-0.567,-0.256,-0.8687,1.488,-0.2512,0.0507,0.998,-0.1444,-2.164,0.4478,-1.451,-0.000473,-0.581,0.7515,1.236,-0.6216,-0.647,-0.02177,-0.05707,1.135,-0.732,-2.1,-0.679,1.688,-0.669,-0.8345,-0.2227,-1.139,0.2966,0.01933,1.728,-0.303,-0.4243,-0.4712,1.066,-0.8726,0.4497,-1.499,1.831,0.232,-0.833,0.304,0.2576,0.377,-0.8076,-0.1175,0.05154,-0.02232,-0.9688,1.107,1.518,-1.766,-0.7227,0.8145,0.09064,-0.1299,0.4854,0.4373,-0.0572,-0.02652,1.291,-0.0373,1.1045,-0.7173,-0.5635,-0.1488,-0.902,0.0826,-0.02617,0.10114,0.2096,-1.069,-0.759,-0.9697,-0.4604,-0.2245,0.3926,-0.9336,-0.56,-2.012,-1.15,-0.04846,0.3682,-0.1061,-0.0417,1.056,1.134,-0.356,-0.7383,0.01965,-1.257,0.1112,0.002928,-0.1603,0.4958,0.1239,-0.29,-0.1005,-0.3887,-0.8457,-0.1188,1.315,0.7905,0.007595,0.601,0.06256,-1.447,-0.6377,1.195,-0.4133,-0.5996,0.1973,-0.242,-0.8066,0.4626,0.3794,0.947,-0.688,1.617,-0.0636,-0.1261,0.2495,0.933,0.3438,-0.4075,-0.3416,-0.9297,-0.6514,1.192,-0.9014,-0.05817,1.8125,-1.905,-0.786,-0.333,1.511,-1.252,1.052,-0.4387,1.178,-0.09546,-0.826,-0.00989,1.114,1.019,-0.4785,-0.731,0.306,-0.2319,-0.3804,-0.2435,-0.2069,2.342,-0.5605,0.642,0.2124,-0.02818,0.02852,-0.4104,0.9395,-0.3225,-1.05,0.1808,0.6875,-0.3696,0.26,0.1493,0.0699,-0.6177,-0.1525,0.1506,0.2227,-0.986,0.154,-0.00617,1.686,-0.3997,-0.1146,-0.652,0.985,0.12415,-1.243,-1.186,0.05417,0.2094,-1.856,0.301,-0.6567,-1.642,-0.1367,0.682,0.817,-0.1655,-0.9907,-0.3303,-0.7183,-0.4075,-0.623,-0.623,-0.3838,0.0005474,-0.1616,-0.106,0.252,-0.3503,-0.187,-1.788,0.4656,-1.306,-0.597,1.123,-0.815,0.0673,0.3901,-1.49,0.3,-0.2935,-0.7866,-0.05573,0.658,-0.1681,0.8184,-0.0944,-1.502,-1.835,0.535,-1.186,-0.2101,1.745,-0.4863,-0.267,1.1,0.728,-1.215,0.1898,1.067,1.89,0.236,0.332,-0.0962,-0.1726,-0.5425,0.817,2.023,1.139,-0.6875,-0.2157,-1.551,-0.08527,0.759,-0.349,-0.1148,1.148,0.3447,0.1368,-0.7603,1.556,-0.1494,0.877,0.4075,-0.3022,-0.785,-0.10364,0.733,0.6763,-1.14,-1.305,0.1292,-1.005,0.274,0.02327,-0.4924,0.09937,0.02187,-0.3074,-0.2847,0.0646,-0.4111,-1.834,0.2264,0.6875,0.5767,-0.325,0.3198,0.936,0.2256,-0.7266,0.2,0.5527,-0.945,0.2142,0.2175,0.79,0.6353,-1.1455,0.0906,-0.519,0.957,0.2085,-0.264,-0.8086,-0.418,1.116,0.10364,0.3374,0.438,-0.1896,0.5464,0.4595,-0.1669,0.876,0.89,-0.02573,-0.4443,0.807,-0.3416,-0.2842,0.07086,0.4292,-0.2318,-0.5005,0.7075,0.0674,0.807,-0.1704,0.1615,-0.0567,-0.2021,-0.4714,-0.0746,0.265,0.531,0.4458,-0.2208,1.102,-0.719,-0.999,1.537,0.624,-0.563,1.546,0.7183,-0.6724,1.14,-0.0523,-0.5156,-0.3672,-0.9517,-0.3232,-0.1112,-0.943,1.666,0.2766,-1.069,0.3713,-0.575,-0.1122,-0.1028,-0.6475,0.5757,-0.02455,0.2382,-0.1919,0.2788,-0.923,-0.99,-0.03342,-0.6636,-0.55,-0.997,0.4756,1.296,-0.665,-0.5664,-0.0855,0.2598,0.4316,-0.3816,-1.358,-0.602,0.6045,-0.795,1.642,-0.4382,-0.967,-0.788,1.02,0.62,-0.1572,0.4954,-0.416,1.838,0.431,-0.3987,0.4639,-0.7944,0.03046,0.2073,0.8657,-0.594,-1.093,-0.08026,-0.8687,-0.3538,-0.4954,-0.585,0.736,-0.4807,-0.1622,-0.2317,-0.3818,-0.569,0.5464,-0.296,0.6533,-1.14,0.5635,-0.2937,0.7866,-0.532,0.4036,0.3035,-0.738,0.12286,0.5835,1.2295,-0.2153,0.6265,0.1284,0.645,1.151,0.2203,1.357,0.747,-0.576,-0.4448,2.17,0.581,1.323,0.833,0.591,-0.03082,0.0495,-0.5,-0.313,-0.006397,-0.995,0.2043,0.2151,-0.2566,0.6055,0.1002,-1.025,-0.3408,-0.8223,-1.421,-0.1934,-1.844,-0.659,-0.3618,-1.087,0.3384,-0.934,-0.276,0.7856,-0.3884,0.1879,0.967,-0.343,-0.6973,1.271,-0.04745,-0.05957,-0.9463,-1.505,-0.601,-1.6,0.9727,1.031,0.4119,0.1781,0.4397,-0.661,-0.547,0.7197,1.914,2.512,-0.7114,-0.1864,0.574,-0.8174,0.6216,0.1683,-0.545,0.6245,-0.5215,0.98,0.8516,0.3296,0.1013,1.442,-0.1289,-0.61,0.1631,-0.6377,1.092,0.15,0.656,0.5693,-0.0988,-0.338,0.2622,-0.3794,-0.03146,0.345,-1.227,0.8374,-0.0512,0.545,-0.5195,-0.286,0.4558,0.6533,-0.6006,-1.271,0.2103,0.534,-0.5864,0.7656,0.557,-0.518,0.4575,0.2222,-0.1522,-0.5527,-0.4175,0.2837,-1.162,0.2917,-1.062,-0.7593,0.2507,-0.2876,-0.2976,-1.632,-0.4575,0.326
bathtub,0.659,1.211,0.2573,-1.301,-0.6826,0.265,0.5107,-0.519,-0.1464,-0.2942,-0.0616,-0.431,1.028,-0.844,0.879,-0.1455,-1.437,-0.196,-0.4873,0.8765,0.6553,0.09656,0.6245,0.375,-0.2856,-0.3308,1.255,1.966,1.143,0.597,-1.056,2.285,-0.515,1.489,0.759,-1.26,-0.7925,-1.613,0.663,0.495,-0.703,1.004,0.5874,-1.336,-0.393,0.7183,1.897,-0.2737,0.1164,-1.003,0.081,-0.939,-0.2505,0.515,-0.8325,-0.8574,0.0981,0.7007,-1.026,1.31,0.4277,-0.01859,-1.456,-1.631,0.998,0.544,-0.3362,0.671,-0.076,1.528,0.8413,-0.2252,1.216,0.8604,0.6367,-0.278,1.033,-0.3232,-2.232,0.3481,0.53,-1.044,0.3718,0.05438,-1.153,-0.1355,0.6045,0.8804,-1.399,-0.3586,-1.203,-0.2496,1.236,1.013,0.1182,0.1934,0.2896,1.634,0.548,0.628,0.9434,-1.306,0.3687,0.06775,-0.922,0.2676,1.355,-0.3818,0.835,0.1676,-0.2012,-0.5737,1.827,-0.3386,-1.017,0.9897,0.8716,0.2141,-0.755,-1.513,0.0795,0.2307,-1.5625,-0.2869,-0.2279,0.3445,1.672,-1.162,-1.27,-0.5596,0.6665,0.4607,-0.1089,-0.6704,0.328,-0.1481,0.001963,0.6763,-2.332,-0.2551,0.789,-0.0216,-1.177,2.271,0.4346,0.504,-0.0829,1.347,-1.048,-1.078,0.1595,1.112,1.931,-0.1219,-1.136,1.4,0.2505,-1.452,-1.002,0.2803,-0.576,1.215,-0.5386,0.149,0.5557,-1.075,-0.759,-0.289,-1.244,1.07,-0.745,1.624,-1.205,-0.7476,-0.3853,0.1501,-0.7466,-0.9004,-1.204,-0.8193,-0.4912,0.9316,-1.429,-0.475,0.5327,0.895,-1.058,0.1285,0.8203,1.887,1.021,-1.055,0.6685,-0.4202,0.7056,-0.07587,-0.889,1.236,-0.2222,0.4,0.1343,0.01616,0.6924,-1.355,0.571,-2.098,0.821,1.125,-0.3357,0.4163,0.04465,0.0563,1.238,0.756,0.6045,0.7817,1.614,1.352,1.643,0.4324,0.379,-0.5522,-0.5796,0.593,-0.3433,0.01426,1.275,-0.1572,-0.894,0.6597,0.7793,-0.132,0.006622,-0.5635,-1.039,-0.5117,0.3782,-0.818,-0.334,-1.321,-1.09,0.2255,0.3943,0.813,-0.283,0.771,0.2505,0.3545,-2.18,0.803,-0.945,0.3486,-0.7227,-1.235,1.614,0.4856,1.437,1.575,0.5107,-1.201,-0.5264,-0.848,1.006,-0.597,-0.8896,-0.42,-0.02623,0.7515,1.417,-0.954,0.4285,0.5825,-2.115,0.1244,1.236,1.55,-0.4075,-0.9,-1.186,-0.1805,0.3923,1.39,-1.389,0.454,1.074,0.786,-0.6387,1.177,0.2969,1.261,-0.666,-0.7407,0.1982,-0.969,0.89,0.4497,-0.1732,0.1649,0.0704,0.04678,0.7656,-0.4534,-0.005344,0.661,-0.1101,-0.662,1.21,-0.1764,-0.753,-0.3296,0.06696,-0.373,0.3704,-0.5903,0.681,1.35,-0.10754,-0.633,-1.314,-1.512,1.542,-0.1451,0.982,0.675,0.65,0.4182,-1.929,-0.3977,0.297,-1.92,-1.46,1.208,-0.191,1.47,-0.418,1.117,-0.6797,0.5,0.2421,1.485,0.1125,-0.8936,1.432,-1.094,-0.1617,1.046,0.435,1.186,-0.5786,-0.7593,0.3801,0.6777,0.4844,-0.04102,0.7617,-0.4424,-0.1454,0.3013,0.7173,-0.1307,-0.5605,-0.1197,1.849,0.5723,0.921,0.3406,-1.061,-2.479,-0.7886,-0.4153,-1.3,-0.2279,-0.789,0.1635,-0.982,-1.883,0.1921,-1.2705,-0.3853,0.07153,0.415,1.146,-0.825,-0.2136,-0.08887,-1.253,-1.502,0.8745,-0.773,0.563,-0.5347,0.74,1.166,-0.631,0.1953,-1.888,-0.7803,-0.04892,1.036,-1.478,-1.19,0.271,-0.377,-1.238,-0.03033,-0.2233,-0.4795,-0.4727,-0.001031,-0.346,-1.165,-0.3594,0.1049,-1.198,0.03635,1.806,-1.8125,-1.024,-0.4712,1.642,-1.194,0.05255,-1.138,-0.177,-0.009346,-0.9043,-2.004,-0.851,0.557,-1.06,-0.7065,1.416,1.403,-1.623,0.937,2.14,-0.837,-0.1748,-0.8726,-0.4016,-1.231,-1.941,1.485,-1.462,-1.314,-0.419,-0.05524,-0.7363,-0.5996,-0.4365,0.967,0.4556,0.795,1.3,-1.162,0.695,0.263,0.01515,-2.018,0.83,-0.9287,0.897,-0.0859,-0.844,-0.0915,1.349,-0.9478,0.3115,0.4812,-1.596,0.4475,-1.223,1.913,-0.1897,-0.363,-0.3394,-1.122,1.511,0.62,0.5625,-0.1022,0.973,-0.682,-1.231,-1.318,0.0839,0.6646,0.6,1.253,0.6504,0.487,-0.8267,-0.0759,1.449,0.6606,-0.625,0.077,1.057,0.4426,-0.8804,-0.4463,-0.4636,-0.194,0.1334,0.8105,0.04007,1.411,-0.8677,0.1897,1.154,1.294,-1.216,0.566,0.1877,-0.715,0.347,0.9463,-1.817,0.8086,0.7734,0.641,0.5977,-0.534,1.375,0.2742,-0.093,0.2751,1.482,0.714,-1.234,1.159,0.4026,0.4966,0.4258,-0.515,1.701,-0.1542,-1.567,-2.031,-0.2742,0.396,-1.378,-0.3848,0.01196,-1.605,-0.7153,-1.786,-1.09,-0.032,-1.105,0.611,0.3538,-0.7456,0.57,0.1101,0.6025,0.7495,-2.164,-0.5503,-0.5835,-0.199,-0.04456,0.3638,-0.8657,0.3755,-1.086,-1.663,-0.2208,0.516,0.196,0.5703,-0.4116,-0.05438,1.111,-0.729,-0.00805,1.058,-1.947,-0.2028,0.1351,-0.778,-0.5796,0.02328,-1.204,0.02673,0.2299,-0.4946,0.5146,0.2045,0.2837,-0.958,-0.8604,0.677,1.501,1.417,-0.3535,-0.3618,-1.191,0.003242,1.431,1.676,0.7617,-0.04562,0.12476,-1.1,-0.2683,-0.6826,-0.4746,-1.513,0.863,0.737,-0.638,-0.715,0.6143,2.31,0.2214,0.661,0.2876,0.9795,-0.9946,0.1843,-0.1648,1.043,0.4856,1.72,1.242,-0.7583,-0.7188,0.2654,-0.1481,-1.175,-1.46,-0.1561,-0.4102,-0.05063,-0.9653,-0.363,1.595,-1.855,-0.2825,1.251,2.14,1.441,0.0787,1.029,0.264,0.9683,1.169,-0.584,0.4592,2.092,1.539,-0.8247,-0.4624,-0.1235,-1.775,-0.8325,-0.982,0.10547,0.02911,-1.745,-1.021,1.258,-0.6553,0.011635,-0.5474,1.564,1.064,-0.1879,-0.5737,-0.893,1.042,3.156,-1.151,0.692,0.8784,0.2131,0.332,-0.3862,-0.633,-1.655,0.04233,-0.858,0.05707,-0.91,0.125,0.7773,0.825,-0.05386,-1.015,0.977,0.9795,-0.3604,-0.1427,0.304,-0.2334,0.6763,-1.257,-1.543,0.903,0.0402,-0.4863,-1.998,0.781,-0.2742,0.507,0.519,1.09,-0.04916,-1.552,-0.624,0.0238,1.642,-0.5215,0.3813,0.1105,-0.3257,0.8994,-0.7515,-1.539,-1.213,1.64,0.1338,0.3542,0.6025,-0.956,-1.003,1.395,-0.1082,-0.2,-1.463,1.12,0.3853,0.904,1.261,-0.7607,-0.822,0.686,-0.02106,-0.3188,0.5815,0.9136,2.34,-0.8096,-0.565,0.4734,-0.958,0.997,-1.781,0.3271,1.225,-0.5835,-1.049,0.877,-1.025,0.587,0.6387,0.525,0.765,0.01726,0.235,-0.9995,1.289,-0.1086,-0.731,0.783,-1.572,0.82
bear,1.764,-0.3645,0.33,0.317,-0.4438,-1.807,-0.4492,-0.6064,1.775,-0.3481,-0.5796,-0.6733,0.6035,0.00792,-0.2058,-3.404,-1.162,-1.1045,1.623,1.35,-0.5986,0.878,-0.02603,-0.594,-0.2203,-0.11505,1.414,1.016,0.9834,0.477,0.903,0.6294,2.133,-1.666,0.291,0.342,1.728,-0.04935,0.6396,-0.1101,0.758,-2.445,3.54,-0.4622,-0.4592,0.7134,0.011,-1.993,-0.3987,1.346,-2.46,-0.00953,1.738,-0.818,0.579,0.3657,-0.9204,-0.987,0.9004,-0.6763,1.906,0.4517,-0.01686,-1.189,0.915,1.144,0.811,0.4429,1.154,-1.306,0.8564,-0.06082,0.8936,0.1431,-1.245,0.1096,-2.656,0.393,-0.7974,-0.4255,2.928,-0.8076,1.643,0.2499,0.4612,-0.1114,-0.9927,-1.029,-1.701,-0.7954,0.6704,-0.0677,0.8022,1.788,-0.03342,0.754,0.7607,0.952,1.234,0.698,-0.3296,2.076,-0.767,-1.148,0.7554,2.215,1.038,-1.414,0.846,-0.6724,0.06256,1.047,0.524,-1.379,-1.412,0.856,0.2605,-0.657,1.37,1.243,-0.1548,-0.05515,0.3843,-1.825,-0.4246,0.7163,-0.358,-1.966,-1.592,0.007725,-0.0265,0.5664,-1.554,-0.2925,-1.386,0.799,0.7886,1.041,-0.9634,0.5005,0.0877,-0.1085,0.593,0.05768,-0.351,-1.599,0.0916,0.5664,-0.4163,-0.1755,-1.323,-0.2084,-0.2488,-0.3638,0.977,0.19,-0.1763,-0.6636,0.1837,0.1143,-0.5474,-0.2966,-0.4124,-0.6895,-1.326,-0.1367,-0.4907,0.1769,-1.363,1.053,1.817,-1.339,0.08685,0.914,-0.3022,-1.647,-0.894,-1.095,0.5825,-0.8296,-0.4968,1.733,0.494,0.2756,-1.338,-2.307,-1.574,0.823,0.3765,-0.729,0.7354,1.691,0.763,-1.375,-1.635,-0.1104,2.13,-0.2964,0.2313,-1.016,0.1742,0.3223,0.163,0.5435,-1.434,-0.992,1.831,-0.1896,1.126,0.4006,-0.2886,1.881,-1.626,1.678,-2.02,-0.489,0.393,0.8066,-1.772,-0.2651,-1.59,0.3193,-1.178,0.2712,-1.789,0.2155,-1.89,-0.03253,-2.28,1.278,-2.043,0.775,1.698,0.765,-0.1581,-0.948,0.587,-0.6855,0.4514,0.86,0.767,-1.079,0.502,1.006,-0.7,0.255,-2.232,-0.1328,1.429,0.12463,0.5396,-0.5103,0.00421,-0.627,0.04807,2.63,0.74,-0.671,0.3926,-1.012,1.846,1.172,-0.7314,-0.6934,1.001,-0.548,-0.10974,1.98,1.426,-1.37,1.361,-0.852,0.1699,-1.253,0.7393,-0.7466,-2.107,-1.753,0.5103,-1.035,1.474,-0.544,-1.925,0.04474,1.565,1.198,-0.4348,0.7847,-0.4832,1.442,0.738,0.2045,-0.6772,-0.959,-1.082,-0.7695,1.3125,-0.4668,-0.1106,2.004,0.05902,-0.1681,-0.1694,-1.398,0.3584,-1.754,-2.18,-2.709,-0.2299,-0.1837,-1.287,0.1353,0.725,-1.003,-1.098,-2.375,0.8325,1.006,1.595,-0.4797,-0.8003,-0.1814,-0.0639,-0.4111,1.265,0.9272,0.982,0.2844,-1.091,-1.028,0.02992,-0.4932,1.334,0.766,0.4312,0.2869,-0.2532,-0.4077,0.465,0.2922,0.4158,-0.6465,-0.4417,-0.902,0.6274,-1.095,-1.004,-1.412,0.3242,-1.348,-0.01471,-0.11566,0.1426,0.4324,-0.04007,1.196,-1.102,-0.5703,-0.1025,-1.444,-0.4211,-1.344,1.235,-0.1705,0.1422,-0.2263,0.6064,0.1598,0.588,0.02821,0.9375,1.0205,0.4524,-1.123,-1.879,-0.7725,0.014694,0.2295,0.4558,-0.4207,0.1681,-1.085,-1.032,0.7305,-0.014175,0.4436,-1.265,1.306,-0.3225,0.7046,-0.3918,0.625,-0.3872,0.6157,0.9453,3.502,-0.2385,-0.791,-0.0863,0.9556,2.377,-1.214,0.142,-1.05,-0.2598,-1.374,0.861,-0.2102,0.7944,0.575,-1.799,1.338,1.716,0.08136,0.382,1.25,-0.1053,1.075,0.732,0.1451,-1.658,0.4385,0.8584,-0.2162,-1.629,0.9043,0.747,-0.03522,-0.275,-1.011,0.7344,-0.624,-1.21,1.948,0.2103,-1.051,-0.0332,-0.707,0.1062,0.5737,0.475,0.2773,0.918,0.4414,0.1765,0.8086,-0.5576,0.5317,-0.1077,-0.1059,-1.178,2.44,-0.4858,0.9595,-0.8774,0.0494,-0.3347,1.072,-1.3545,-2.12,-0.3728,0.4607,2.623,2.357,-0.9297,-0.7783,-1.999,1.091,0.4492,-0.539,0.572,0.321,0.9253,-0.7646,-0.823,-1.651,1.191,-0.0956,0.5957,-1.645,-0.607,0.1576,1.831,0.1713,0.392,-2.545,0.1409,0.2197,0.3884,-0.03287,-0.05493,-0.3403,-2.363,-0.696,-0.32,1.061,-0.2458,0.04623,0.1433,-0.688,-1.486,-0.8745,0.4902,0.0989,-0.654,-0.3013,-3.82,1.674,1.187,-0.8223,-1.51,2.373,2.717,-0.08527,-1.624,2.123,-0.7075,-0.1769,-0.8843,-1.13,-1.503,-0.732,0.8174,1.688,1.27,-0.544,-1.601,-0.9243,-0.7773,0.588,0.1466,-1.24,0.9595,0.2,0.7373,0.4897,2.438,0.1974,0.2625,1.134,-1.226,-1.243,-0.3782,-0.5283,1.433,0.2471,1.567,-1.46,0.889,-2.8,0.1033,0.453,-0.5376,-0.4258,-0.9585,1.1875,-0.995,0.000937,0.1283,-1.534,1.266,2.668,1.145,0.358,1.449,0.602,1.53,0.1997,-1.089,0.3794,0.9844,-1.33,-1.208,0.583,-1.104,-1.577,0.9946,-0.826,-1.272,0.4844,-0.253,-0.691,0.6914,0.9614,1.553,0.5034,0.6123,-0.0548,0.4893,1.122,0.9497,0.834,1.162,0.1152,-0.423,-0.0765,-0.377,1.603,1.73,-0.1812,-0.744,-2.086,1.309,-0.5054,-0.4968,1.31,0.719,-0.9624,-0.6504,-0.02565,0.11774,-0.3164,-1.694,0.481,-1.037,-0.4624,-0.2281,-0.4868,1.375,0.969,0.6616,0.88,1.553,1.583,-1.299,-0.4182,0.7397,0.204,-1.713,1.337,0.523,0.993,0.2715,0.3848,-0.8223,0.5083,-0.677,-1.006,1.214,-0.673,0.269,-2.053,-0.7134,-0.2761,-0.2727,0.56,0.033,0.05972,0.3882,-0.1682,-1.021,-0.6875,0.717,0.51,0.03302,1.202,-1.141,-1.495,0.7593,0.04846,-2.375,-0.4436,-1.195,0.5415,-0.953,-2.46,-0.2236,-0.892,1.066,-0.2045,1.331,-1.538,-0.791,-0.0619,0.913,0.8105,-1.706,-0.5547,-0.2418,-2.066,-0.3647,1.639,-0.2478,-1.38,-0.7314,-0.2527,-0.1254,0.2175,3.338,0.0606,-1.617,-0.4426,0.01295,-1.009,0.2428,0.0586,0.1516,-0.1947,0.4434,-0.483,-1.482,0.255,2.088,-1.962,-0.324,0.5117,0.2993,0.09,1.796,-0.002083,-0.2,0.48,-1.608,-0.3215,1.738,-1.611,0.3206,-1.712,0.8584,0.6987,-0.0671,-1.597,-1.2295,0.08496,0.1144,0.4998,2.041,-2.408,1.845,0.4175,-0.0647,0.5674,0.668,0.3594,-0.944,-0.8955,1.628,-1.894,-1.22,2.531,-1.12,1.824,-1.505,0.792,0.3193,1.27,0.2208,-0.0726,-0.473,-0.1298,0.446,-0.5312,0.612,0.9688,-0.804,0.1514,2.53,-0.5435,0.7275,0.7427,-0.0403,0.646,0.2074,-1.112,0.376,0.886,0.27,-0.3162
bed,0.08777,0.1558,-1.775,-1.444,0.3616,0.8853,0.2605,0.0968,-0.737,-1.551,-0.915,0.004124,-0.714,-1.5625,1.814,-0.3994,-1.355,0.1244,1.527,0.7417,1.184,0.7085,-0.2847,-2.166,1.3125,-0.8394,0.1719,-0.1046,0.238,-0.8257,-1.397,-0.0748,0.02621,-0.1031,1.223,-0.5127,-0.03476,-1.111,1.32,-0.28,-0.0639,-1.107,-1.165,-0.579,1.061,-0.7183,0.2446,-1.061,0.639,0.4045,0.04645,-1.36,0.2076,-0.08246,-0.646,1.486,-1.624,0.062,-0.04285,-1.056,1.121,0.2559,-1.519,0.7163,-0.797,-0.08124,-1.985,0.8706,-0.542,0.497,-1.032,0.8306,1.425,0.5566,-0.19,0.847,0.401,0.4565,-1.634,-0.1544,-0.845,0.827,1.338,-0.365,-0.627,-0.863,0.9565,-0.01862,-0.574,0.077,-0.1604,0.8174,-0.263,0.003983,0.592,-0.1567,-0.7803,-0.861,0.304,-0.6987,1.963,-0.603,1.023,-0.698,-0.427,-0.5366,0.909,-0.741,0.844,-0.2861,0.5757,0.399,-0.3264,1.235,-0.1517,0.07526,0.03632,0.2123,0.4768,-0.447,-0.10565,-0.0723,-0.835,2.012,1.0205,-0.6265,1.065,0.3289,-1.854,0.6245,0.67,-0.1499,-1.479,-0.3552,1.371,-0.1646,-0.2036,0.3835,0.02765,-0.83,1.035,0.02261,0.8364,-0.05872,0.4683,-0.443,-0.601,0.307,0.1313,0.861,-0.162,1.157,-0.997,0.2437,0.1494,1.549,0.2466,-0.919,-1.295,0.03186,0.2224,0.1796,0.4656,-0.42,-1.528,-1.166,0.799,0.3608,-1.524,1.493,0.2961,0.3547,-0.8096,-0.08905,-0.002075,-0.6387,0.6895,0.895,0.9478,0.02155,-0.391,1.117,-0.0193,1.112,0.4343,-0.8936,0.1672,1.388,1.117,-1.501,-0.5537,-0.2001,-2.418,-0.1802,0.3486,1.018,0.919,-0.08795,-0.6567,-0.6846,0.385,-2.805,0.921,-0.3403,1.531,0.07574,-0.608,-0.6045,-1.084,-0.1604,-0.6963,0.7764,1.059,0.1302,1.117,0.2573,0.8164,-0.5225,-0.5645,1.116,-0.777,-0.629,0.1588,0.4968,-0.554,0.4426,0.606,0.3506,-0.058,-0.0739,-0.5186,-0.0895,-0.0894,0.4023,0.313,-0.2998,1.358,-0.751,-0.73,0.6597,-1.293,1.24,-0.386,0.11255,-1.464,0.1566,1.136,0.3584,0.4233,-1.557,-0.6133,2.002,-0.7085,-2.094,0.916,-0.2257,0.5513,1.943,-0.5303,-0.8604,-0.5264,1.005,0.0945,-0.435,0.5674,-1.51,0.8315,0.2415,-0.327,-0.4133,0.9536,0.7812,1.143,0.12354,-1.109,-1.091,-0.693,1.3125,-0.7617,0.2196,-0.614,0.03018,-0.4177,1.051,-0.0628,0.774,0.8804,0.55,-0.4753,-0.4136,-0.6416,-1.276,-1.496,1.723,1.195,-0.827,0.19,-1.87,-0.2688,1.312,-0.911,0.679,-0.1561,0.36,-1.604,-0.8354,-0.6655,-0.3208,-0.969,0.7544,0.641,0.2974,0.6387,-1.222,1.4795,0.205,0.4148,0.719,0.3315,0.369,0.807,-0.274,0.4553,0.4658,-0.4492,-0.875,-0.735,-0.353,-0.2216,0.1927,-0.1442,1.416,-0.7695,-0.533,-0.611,0.559,0.421,0.4685,0.5703,-0.858,-0.1283,-0.2396,0.3462,-0.537,0.246,-1.33,0.1465,0.6294,-0.7583,-0.34,0.532,-0.6353,0.9575,-0.3086,-0.6465,-1.471,-1.116,0.2966,1.975,1.799,0.4211,0.524,0.4514,-0.09845,-0.4666,0.6016,-1.24,-0.02022,-1.11,-1.895,0.705,0.604,-0.976,-0.5747,-1.432,0.635,-0.83,-0.1566,0.0479,0.1891,1.13,0.9814,-0.1368,-0.621,-1.034,-1.465,-1.322,0.818,-1.173,0.6553,-0.8613,0.1682,-0.439,-1.246,0.769,0.6387,-0.2795,-1.546,1.202,-0.954,0.1288,0.6143,-0.956,0.3655,0.7295,-0.2551,-0.343,0.7295,-0.3193,-0.4438,-1.783,-0.955,-0.334,1.774,-0.5723,-1.288,-1.021,-1.001,-1.547,2.023,-2.377,-2.35,-0.914,0.314,0.8003,1.055,0.2023,-1.363,0.4504,-0.797,0.3262,0.8345,0.685,-1.65,1.023,0.703,-0.771,0.817,-0.6973,-0.5195,-0.1329,-0.688,0.8486,-0.0405,0.1345,0.2019,0.5996,-0.5596,-1.025,0.6475,-0.3308,-0.8623,0.8203,-0.676,0.2294,0.8315,0.729,-0.3684,-0.03818,-0.31,0.1903,-0.03333,0.2361,-1.511,0.2311,0.5454,1.195,0.535,-1.756,-0.3174,0.8438,-0.9746,-0.0362,-0.2498,-2.082,1.351,0.5845,-0.0577,0.0547,0.5356,-0.2634,0.2412,-0.4768,-0.05515,0.1262,-0.5195,-0.2927,0.1285,1.001,0.12476,-0.509,0.4023,-0.5454,1.283,-0.3083,-0.3723,1.089,0.3103,1.568,0.4788,1.41,-0.8066,0.07574,-0.468,0.002834,-0.003532,1.657,0.596,0.537,0.03375,1.106,0.125,-0.1943,1.723,0.00613,1.3545,1.624,0.3628,-1.572,0.4436,-0.8213,-0.6377,-0.625,1.557,1.229,1.582,0.2944,-0.3003,-0.847,-1.127,-1.248,0.797,0.3477,-1.998,1.155,1.981,-1.538,0.0772,-0.8096,0.636,0.6973,-1.011,-0.2595,-2.113,-0.1902,-0.05798,0.2805,-1.154,0.01646,0.2092,0.7656,0.1084,0.2837,-0.6445,0.3232,0.1333,0.532,-1.446,0.452,-0.3008,1.347,0.92,0.3774,0.48,-0.9224,0.3875,-0.2456,-1.392,-0.6006,-0.5967,1.6455,0.355,-1.116,0.534,0.592,0.02902,0.7373,-0.506,-0.2637,0.6167,0.4565,-0.0629,1.228,-0.571,-0.156,0.1333,-0.4653,-0.2705,1.609,-0.2074,-0.4502,0.0758,-0.0855,-0.4263,1.425,1.299,-1.31,-0.713,-0.4812,0.626,-0.6875,0.77,-1.798,-0.1232,-0.435,-0.4368,0.5645,-0.394,-1.284,-0.472,-0.604,-0.6626,0.8003,0.64,1.027,0.8833,0.1072,1.064,0.404,-1.011,0.4265,-0.1848,0.188,0.9565,0.9243,-0.7954,-0.671,0.971,0.556,0.3716,-0.807,-1.175,0.5244,0.2878,0.808,0.6294,0.5557,1.618,-1.798,-0.09656,0.3833,0.887,1.266,-0.379,0.3545,0.521,0.6157,0.3,-0.2783,-1.437,1.846,0.8286,-1.049,-0.3616,-0.8057,-1.501,-1.034,0.757,-1.028,0.552,0.3547,-1.029,1.884,-1.242,0.8403,-0.2634,0.6416,1.18,-1.354,0.04663,0.2329,0.8394,1.735,1.61,-0.2471,-1.006,-1.293,0.2507,1.028,-0.4202,-0.03342,0.0899,-1.113,-1.005,-0.2048,0.3848,0.68,-0.509,-0.6284,0.1343,-0.06696,0.7705,-1.688,-0.131,0.334,-0.07855,1.051,0.603,-0.3467,0.9,-0.5815,-0.7344,-0.6343,-0.4185,0.5273,1.143,-0.1794,0.7915,-0.7544,0.4675,-0.1088,0.3555,-0.178,0.821,0.356,0.2866,-1.104,0.1655,-0.02434,-1.152,0.4817,1.276,1.754,-0.2183,-0.942,-0.818,-0.916,-1.709,2.355,0.84,-1.376,-0.3984,-1.754,0.9146,2.096,-0.408,0.838,-0.4028,0.515,-0.901,0.01967,0.7837,1.523,-0.6396,-0.2764,-1.021,-1.077,-1.398,-0.812,-1.039,0.552,0.3281,-0.939,-0.0795,-1.081,0.3066,-0.1316,-0.10986,-0.1697,2.307,-0.03128,0.626,1.346,-0.1095,0.4358,-0.284,-0.5054,0.8706
belt,-0.36,-2.152,-0.5137,0.03152,0.03035,-1.31,-1.084,0.4192,-1.082,1.098,0.1251,0.05362,-0.5615,-0.8,0.7866,-1.346,-1.007,0.522,-0.8223,-0.11755,-0.003933,0.4265,-1.194,0.0421,-0.06824,0.5986,0.1348,-0.7617,-0.6978,0.2041,-0.8784,-0.01057,-0.595,0.9106,-0.366,-0.378,0.1759,1.298,0.3835,-0.215,-0.7104,0.2668,-0.2783,0.2157,-0.3542,-0.0637,-0.8413,-0.7544,-0.1492,-1.12,1.44,0.642,0.4028,-1.009,1.463,-0.4158,0.3784,0.2524,0.4185,-1.691,0.3938,1.038,-0.918,0.686,0.1316,-0.4058,-0.4333,-0.6772,-1.009,1.092,-1.464,-1.794,-0.5703,-0.11316,0.773,1.505,0.392,0.7676,-0.618,0.0893,-1.691,0.2081,-0.2491,-0.2603,0.05164,-1.084,-0.5537,1.115,0.2052,0.2357,1.363,-0.9775,-0.309,-1.137,0.01146,-0.4033,-0.198,0.07935,-1.812,-0.1587,-0.746,-0.4138,0.496,0.1398,1.066,-0.279,-0.02788,-0.2245,-0.0965,0.3157,-0.577,-0.07135,-0.2455,0.6797,0.483,-1.087,-0.565,-0.2076,0.4497,-0.1997,0.3174,-0.01508,0.5576,1.307,-0.3218,-0.498,0.51,1.271,-0.523,-1.032,0.0656,1.055,0.7246,0.3984,-0.573,0.34,-0.2754,1.001,-0.4998,-1.02,0.33,0.4202,-0.3142,-1.078,-1.563,1.012,1.004,0.3572,-0.6885,-1.172,-1.047,0.9834,1.145,0.11224,0.1196,-0.05917,-0.09174,0.4697,0.07526,-1.015,0.7744,1.119,0.821,1.155,0.2064,0.409,1.129,-0.722,0.4531,-1.7295,-0.3525,0.9585,1.73,0.4377,-0.834,0.1503,0.6616,-0.3938,-0.3926,-0.7,1.3,0.1186,-0.805,0.136,-0.1268,-0.4124,1.51,-0.422,-0.6846,0.7593,-0.3386,-0.09644,-0.3923,0.536,0.852,-0.11334,-0.0956,0.945,0.694,-0.649,-1.722,0.7583,-0.12115,1.688,-1.202,-0.798,0.9316,-0.4023,1.601,-0.879,-0.5815,1.113,-2.2,1.673,0.3542,0.631,-0.32,0.3394,-0.267,0.7485,0.0795,1.139,0.5317,-0.3958,-0.1927,0.446,0.965,1.519,-0.4795,0.8687,0.328,-0.1548,-0.2432,0.858,0.1294,-0.6777,0.1832,1.3,2.322,-0.2037,-0.802,0.2472,-1.301,1.847,-1.171,0.6763,-0.1405,1.3125,-0.06415,0.4397,1.114,-0.0666,-0.3108,-1.174,-1.188,-0.2588,-1.15,-0.657,0.2167,0.4072,-1.392,-1.671,1.703,0.02766,0.08545,0.03064,0.2922,0.5063,-1.779,0.1298,0.4104,0.518,0.35,0.747,-0.8564,-1.313,0.04062,1.074,0.2947,-0.717,0.5415,-0.04257,0.702,-1.27,-0.1571,0.2966,0.1581,-0.3962,-0.918,1.67,-0.4148,-0.1609,0.08826,0.815,0.299,-0.05344,0.2173,-0.23,-0.05377,0.0326,0.4526,-0.1506,-0.1942,-0.969,-0.6895,1.22,-1.182,0.1578,0.4148,1.485,0.4927,1.791,1.04,0.3337,-0.3196,0.943,-0.2712,0.1421,0.546,-0.8076,0.893,0.1418,1.45,-0.1882,0.03436,-0.10046,1.761,0.5024,1.054,-0.0992,0.4614,-1.594,-1.146,-0.7075,0.321,-2.74,0.9014,0.2917,0.556,0.4614,0.2766,-1.147,-0.4067,0.3833,-0.595,-0.1093,-0.913,0.1497,-0.5645,0.544,0.084,-0.6953,0.2426,1.04,0.6406,-0.8564,-0.2744,-0.2224,-1.032,1.167,0.934,0.666,0.904,0.68,0.12396,0.663,-0.4485,0.6426,-0.939,0.914,0.1698,1.247,1.121,1.348,0.9673,-0.194,0.527,0.431,0.05643,-0.78,0.833,-0.998,0.3032,-0.2505,0.5576,0.2218,0.8306,1.293,-0.788,0.3674,-0.0604,-0.02635,-1.104,-0.49,-1.538,-0.3748,-1.315,0.0924,0.02937,-1.015,0.2227,0.3545,0.412,-0.2434,-1.13,-0.708,0.927,0.4822,-1.58,-0.505,0.3767,0.5923,0.7324,-1.499,0.581,0.002583,0.86,1.3955,-0.02986,0.07434,0.4119,-1.164,-0.004215,0.4082,0.7617,-0.1908,0.767,0.735,-0.828,0.01024,-0.05826,0.467,-1.301,-0.06305,-0.609,-0.2542,-1.338,0.4668,0.4893,1.04,0.05762,-0.1914,-0.7827,-0.5244,0.8267,-0.9375,0.1346,-0.2024,1.697,-0.4568,0.4177,-0.7437,-0.4004,-0.00625,-0.1727,-0.6797,0.4958,-0.566,0.1699,-0.0713,1.052,-1.006,-0.163,0.457,-0.5283,0.3416,-0.381,-0.964,-1.539,0.961,1.283,-1.3125,1.547,-0.1544,0.1901,0.2637,-0.4626,-1.472,-0.16,-1.091,-0.6396,-0.5225,-1.1,-0.31,0.5576,0.4944,1.454,0.2031,0.621,1.169,-0.3176,-0.4287,0.98,0.5396,0.54,0.844,0.629,0.4683,-0.0853,0.8145,0.495,0.1311,1.44,-0.3665,0.6133,0.0324,-0.341,-0.908,-0.04828,0.393,-0.893,-0.5854,0.5435,-0.1205,-0.7524,-0.4968,-0.8364,-0.4285,-0.1493,0.913,0.907,-0.4214,0.9907,-1.363,-0.1641,0.723,0.4094,-0.23,1.615,1.096,0.723,0.7114,-0.4011,-1.029,0.717,0.6284,0.02281,-0.252,0.4502,0.01547,-0.2019,0.502,-0.7393,-0.541,1.25,-0.1694,0.4543,0.974,-0.2241,0.04794,-0.7197,-0.901,0.717,-0.001844,-0.522,0.3398,0.4114,-0.472,-0.316,-0.3665,0.29,-0.6826,-0.9814,0.0814,-0.0462,0.07324,0.3386,-0.1742,-0.01868,-0.6733,-1.622,0.8774,-1.346,1.48,0.134,0.4868,0.1536,0.1628,1.104,-0.6006,-1.757,0.7275,-0.5776,0.329,0.1306,0.8804,0.24,-0.3572,-0.831,-0.007717,0.0676,-0.1205,1.102,0.3176,-0.08887,0.7183,-0.768,-0.1116,-0.4414,0.5806,-0.962,0.2458,-0.689,-0.743,1.417,0.05466,0.2808,-0.914,-1.51,-0.6025,-0.4722,-0.1437,-1.132,-0.9106,-1.212,0.2103,-1.031,-0.02853,0.3042,0.829,-0.6147,0.6914,-1.319,-0.4697,0.801,0.5566,1.215,0.908,1.087,0.6943,-1.053,0.277,0.594,-0.4495,-0.3835,-1.464,-0.7925,-1.125,0.592,-0.719,-0.287,0.265,-0.06464,0.27,-1.609,1.21,-0.2883,-0.0912,-0.449,-0.7017,0.04105,-0.7314,0.665,0.671,-0.561,-1.166,-0.641,0.5894,0.4026,0.1948,0.881,0.43,-0.9204,-0.0988,1.099,1.276,-0.1934,0.4924,-0.522,-1.645,1.214,-0.4934,-0.919,0.979,0.2349,0.1157,0.2102,1.722,0.3,0.1481,-0.1614,-0.7246,1.467,-1.132,-0.845,-1.666,0.5737,1.913,0.4216,-0.528,0.256,-0.8105,0.8813,-0.738,0.0736,0.4092,1.307,0.6143,1.67,0.1346,0.566,-0.04465,0.8975,0.908,0.8765,0.10706,0.541,0.9062,0.6587,0.2625,0.01837,-0.677,0.2612,0.614,0.6465,0.2708,-0.3704,0.3645,-0.9976,-0.489,-0.079,1.608,0.8027,-0.2023,1.021,-0.2075,-1.2705,0.2407,0.274,-0.1964,0.9956,-0.7896,0.983,0.8857,-0.411,-1.166,0.6494,-0.921,0.2301,0.1043,-0.725,-0.1357,-1.074,-0.577,0.6934,-1.933,-0.5225,-1.158,0.6396,-0.4382,0.5913,-0.2109,-1.278,-0.492,0.8574,-0.0687,1.594,0.7925,0.376,-0.2345,1.0625,-0.684,-0.4045,-0.6694,0.618,0.1617,0.958,0.7583
bench,-0.2109,0.614,0.0639,-0.858,-0.987,0.4983,-0.07733,-0.00221,-1.92,-1.248,1.121,0.5005,-1.05,-0.837,0.8843,1.356,-0.1643,0.817,-0.552,-1.05,-0.1963,0.05118,0.1427,0.01432,0.418,1.005,0.08246,1.385,0.0368,-1.15,0.2338,-0.00396,0.3223,-0.705,-0.8555,-0.4814,0.1624,-0.7773,-0.456,-0.3599,-0.7705,-0.2151,0.476,-1.21,0.1351,-1.05,-1.183,0.0872,-1.173,-0.4207,0.7607,0.4407,-0.2815,-1.345,-0.2262,0.06854,-1.404,1.078,0.134,-0.903,0.2866,-0.3433,-0.6978,-0.69,0.8003,-1.054,-0.542,0.988,0.8364,-0.203,-0.3862,1.308,-0.12317,0.4185,-0.7173,-0.301,-0.749,1.292,0.1265,-1.035,-1.67,-0.7153,0.569,0.786,-0.0627,-0.8037,0.962,1.24,0.0303,0.501,-0.901,1.295,-0.8423,-0.005123,-0.3767,0.2283,0.357,-0.02963,1.4375,-0.0587,-0.3657,-0.3713,-1.216,0.7856,-1.125,-0.3928,1.927,0.873,0.3208,0.0956,-0.01839,1.73,-0.783,-1.18,1.675,0.02803,-0.8564,0.5254,-0.03433,-0.5547,-1.003,-0.2817,-0.8267,-0.09015,0.681,-1.794,-0.0544,0.2927,-0.671,0.507,0.5254,0.6074,-0.3303,-0.07227,0.5815,0.05136,-0.5557,0.647,0.424,-0.1355,0.9287,0.5337,0.503,0.7134,-0.1465,-0.2125,1.011,0.12463,-1.38,1.36,-0.26,-0.2404,-0.385,-0.3132,0.1937,1.232,0.3406,-0.0916,-0.86,-0.2585,-0.1683,0.04733,-1.3545,0.0988,0.838,-0.958,0.1576,-0.1892,-0.343,-0.205,0.323,-1.127,-1.175,-0.5327,-0.7695,-0.7974,1.021,0.4937,0.0387,0.010895,-0.0765,-0.4973,-0.3901,-0.5845,1.446,-0.3423,-0.8237,0.987,-0.6875,0.06635,-0.4744,-0.9272,-1.106,0.4915,-0.4226,0.3145,0.665,2.096,0.921,0.664,0.2598,-1.701,-0.1204,0.7295,1.758,-1.556,0.4736,0.4473,-0.688,-0.533,0.7407,-0.3623,1.332,0.4993,0.684,-0.5513,0.261,-1.0,0.3726,0.4597,-0.03035,0.1161,0.4377,0.2264,-0.01309,1.534,-0.2837,1.035,-0.005566,0.2192,-0.6587,-0.4692,-0.8022,-0.3418,-0.429,-0.09625,0.8887,0.04037,-0.4028,-1.836,0.2247,0.5444,-0.793,1.328,-1.405,0.662,-0.1311,0.3,-0.7563,-0.4978,-2.303,-0.3154,-0.534,0.6978,-0.4436,0.1631,0.1655,1.233,0.4346,-0.949,-1.035,-0.1333,-0.1814,-1.416,0.02885,-0.5615,1.507,-0.2482,-0.4893,0.588,1.01,1.13,0.2563,-1.453,0.548,1.115,0.3813,0.1975,0.882,-0.502,-0.5107,-0.4531,0.01973,0.521,-0.007076,-0.8623,0.6685,0.514,0.556,0.2352,0.1492,-0.2937,-0.0646,1.432,0.9536,0.04675,0.9546,-0.3486,0.3513,0.6143,-0.5557,-0.691,-0.3572,0.45,-0.2693,0.4636,-0.0205,-0.1084,0.3235,-0.604,-0.554,0.2068,0.2996,-0.3503,-0.308,-0.713,1.026,0.6025,-0.8438,-1.569,-0.6597,0.737,-1.501,-0.1202,0.149,-0.005455,-0.5615,0.7485,-1.089,0.46,0.67,1.015,0.02365,1.781,0.6865,-0.712,-0.518,1.149,-0.4353,0.3447,-1.794,0.9946,0.46,0.01017,1.044,-0.003344,0.89,0.817,-0.9946,-0.4443,0.1774,1.17,-0.3647,-0.057,-0.009,-0.444,-1.316,-0.1632,-0.7188,0.803,-0.4844,-0.4788,0.4385,-0.2319,1.673,0.0392,0.4417,-0.4045,-0.7373,-1.506,-0.0269,-0.77,-0.69,0.4429,0.4736,0.8315,1.094,-0.585,0.2927,-0.6235,-0.10156,0.4731,-1.058,0.7075,-1.367,-0.6807,0.6934,0.3054,-0.6963,1.884,1.214,0.55,1.128,-0.1414,0.7354,-0.258,-0.769,0.2046,-0.5186,-1.127,-0.2627,1.902,-0.3494,0.1698,0.5073,0.2546,-0.842,0.802,-0.1149,-0.8853,-0.1667,-1.364,-0.3035,-0.8794,0.05453,1.341,0.131,0.3853,-0.7,0.2559,-0.10315,-0.8916,0.188,0.3682,-1.448,0.5522,0.888,0.3962,1.545,-0.2292,0.669,1.001,-0.8384,-0.965,0.8706,-0.173,0.3665,1.284,-0.1965,-0.8496,-1.143,-0.6235,-0.4475,-0.5996,-1.201,-0.5312,1.387,-0.563,0.422,-0.8477,-0.2312,-2.09,-0.2324,1.065,-0.859,1.236,0.683,0.2566,0.4019,0.383,-1.3,0.12244,-1.331,0.599,1.163,0.2305,0.1263,-0.3782,-1.075,-0.285,-0.235,-0.10846,0.219,-0.2174,-0.902,1.23,0.4536,-0.3071,-0.4392,0.05838,-1.535,0.8003,-1.231,1.299,-0.745,0.4863,-0.0961,0.1161,1.297,1.459,0.6035,1.244,-0.4412,0.2598,0.3657,0.1611,0.3594,-0.0867,-0.8047,0.3372,-0.1737,0.1483,0.3645,-0.8564,0.545,1.061,0.927,-0.2585,1.859,0.2734,0.591,1.825,-0.2837,0.1694,0.815,-2.105,-0.0368,0.7476,-0.0393,1.398,-0.2893,0.2932,-0.1547,-0.2354,0.2242,0.7007,-1.126,-1.012,-1.05,-0.2025,-0.2101,0.12146,0.3213,-0.2766,-0.871,2.287,0.3826,0.49,0.3103,0.4539,-0.1085,-0.62,-0.935,-0.473,-1.076,0.011024,-0.10004,0.9224,-0.4868,-0.444,0.53,0.618,0.757,0.3728,1.762,0.3743,0.8,0.538,1.309,-0.8066,0.8257,-0.8633,0.0002122,0.8115,-0.1622,-0.5537,-1.08,0.655,0.9707,-1.089,1.754,0.2333,-0.3442,-1.08,-0.8916,-0.777,0.6333,0.4868,-0.214,-0.997,1.617,-0.815,0.8467,0.565,-0.2947,0.07996,-0.54,-0.6855,0.5957,0.05032,0.1588,0.6846,-0.6543,-0.574,0.482,0.2073,-2.11,0.543,1.692,0.5913,1.684,0.04642,-0.2007,-0.1859,0.3455,1.183,0.03522,-1.238,-0.846,-1.295,1.0205,0.3088,0.783,0.1375,-0.71,0.4036,-0.4421,-1.313,-1.036,-0.3394,-0.4275,-0.435,0.0731,1.231,0.8496,-0.1372,0.1421,-0.247,0.301,-0.749,-0.04034,0.1571,-2.117,-0.8184,-1.493,-2.625,-0.407,1.979,-0.7524,-0.11194,0.3193,-0.465,-0.4912,-0.5747,-0.8926,0.7114,1.402,1.39,-0.126,-1.038,0.8013,1.624,0.4429,-0.5015,0.5947,-1.184,0.02066,0.4692,-0.2761,-0.895,-0.8794,0.9,0.372,-0.822,0.836,0.365,-0.403,1.011,-0.4148,0.05862,-0.4458,0.96,-0.4277,-0.138,-2.03,-1.071,0.03093,-0.1266,0.06537,-1.041,-0.998,0.852,-0.6724,0.517,-0.368,0.638,0.1818,0.6807,-0.521,-0.6094,0.923,-0.9326,-0.2373,0.968,1.495,0.04214,0.7036,1.048,1.063,0.7925,0.616,1.3125,-0.5747,-0.7085,-0.561,0.4204,-0.5312,-0.4504,0.3982,0.2103,1.739,0.095,-0.1326,-1.281,0.4832,-0.3054,-0.4712,-0.5107,-0.596,0.4043,-1.232,-0.516,0.9775,-0.6772,-0.3022,-0.9336,0.2102,-0.4749,0.5312,0.2244,-0.553,-1.993,0.3752,0.664,1.376,0.7886,2.344,-0.1995,0.6455,0.8423,-0.7393,0.526,-0.502,-0.762,0.591,-0.2905,-0.01396,-1.338,0.1466,-1.9795,0.138,-0.6094,0.374,-0.5713,-1.054,-0.2769,-0.637,-0.4038,-0.88,0.7173,0.9473,2.084,-0.1141,-0.4673,-0.3938,-0.278,-0.2905,0.538
bib,0.5376,0.179,-0.325,0.4077,0.6704,0.4268,-0.681,-0.556,-1.118,0.04782,-0.3794,-0.4795,0.4055,-1.163,0.398,0.3198,-1.273,-1.159,-0.532,0.346,-1.141,-0.3513,-1.071,-0.4106,-0.516,0.000572,-0.1709,0.05057,-0.7764,0.9824,0.0346,-0.1611,-0.4453,1.06,0.3257,-1.155,0.0695,0.3398,1.171,0.1477,-0.748,0.758,-0.12366,0.1973,0.2585,-0.1356,1.67,-0.531,0.5967,-0.8096,1.266,-0.1025,1.08,0.2301,-0.757,-0.1465,-0.2578,-0.224,0.4617,0.1647,0.881,0.2847,-0.1921,-0.145,0.3079,1.134,0.625,0.6763,-1.269,0.652,0.6987,0.4648,1.157,1.126,0.6494,0.07385,0.892,-1.052,-1.099,0.804,-0.631,-0.683,0.3977,-0.1388,-0.1503,-0.428,0.1044,-0.1083,-1.317,0.149,-0.291,-0.4636,0.0583,-0.817,0.2313,-1.339,-0.6895,-0.62,-1.095,-0.628,0.587,-1.748,0.933,-1.139,0.5933,0.05847,-0.2089,-0.855,0.923,-1.066,0.66,0.2566,0.4092,-0.5293,0.47,0.03056,-0.6953,-0.1471,0.1396,-1.077,0.918,-0.10504,-0.149,0.587,1.25,0.7163,0.968,0.3042,-0.02773,0.2318,-0.5537,-0.1159,0.01746,0.2822,0.621,-0.54,0.2075,-0.2634,-0.5034,-0.609,-0.1058,-1.108,-0.6157,0.188,-0.5596,0.627,0.05948,0.847,1.016,-0.9106,-1.486,-0.2744,0.61,0.1638,-0.1056,0.9077,-0.4258,0.8594,-1.506,-0.06384,0.7036,0.5483,0.6245,0.446,-0.6387,0.1697,0.9927,-0.4778,-0.6196,0.005672,0.3872,0.04724,0.00801,0.4543,-0.817,0.411,0.908,-0.3787,0.0714,-0.5586,0.712,0.6045,0.1534,0.00544,-0.1628,1.172,-0.1863,1.241,0.4485,0.4717,0.8286,0.066,0.1677,-0.1918,0.5986,0.0783,-0.1835,-0.06976,-0.09546,-0.2085,-0.4758,0.1742,-0.10004,0.2754,-0.3286,-0.213,0.788,-0.0342,-0.702,0.703,0.014885,-0.2073,0.4126,1.213,1.214,-0.0556,-0.0348,-0.3608,-0.04266,-0.5327,-0.999,0.2102,-0.10004,0.2524,-0.6416,-0.4263,0.4053,0.4434,-0.1417,-0.18,0.1505,-0.1798,-0.2374,-0.2551,-0.267,-0.1859,0.093,0.01015,1.258,0.0831,-0.5283,-0.5923,-1.035,-0.517,0.1371,0.5884,0.1777,-0.962,0.5938,0.2302,-0.2522,-0.05368,-0.537,-1.264,0.6743,-0.2452,0.2491,0.959,-0.11725,0.9644,-0.8413,-0.574,0.1779,-0.3875,-0.5317,-0.4172,-0.0318,0.5894,-1.493,-1.502,-0.3982,1.11,-0.3157,0.495,-0.3838,-0.4333,0.731,-0.0787,0.3542,-0.6523,-0.2047,-0.2249,-0.0447,0.0912,0.01826,0.01324,0.561,-0.3867,-0.1748,-0.4644,-0.6416,-0.715,0.00218,-0.1821,-0.747,0.3564,0.6895,-0.7197,-0.706,0.2625,-0.573,1.205,-0.4526,-0.8496,0.8066,0.4856,-0.5522,1.094,-0.165,0.9297,0.8276,0.01398,0.1974,-0.642,0.2864,-0.5034,-0.4832,0.05444,0.7583,0.5884,-0.02151,-0.1344,0.07935,0.0835,-0.6724,-0.7876,-0.517,-0.8105,0.7925,-0.182,-1.648,0.4385,0.6133,-0.2408,-0.7295,0.05984,-0.3308,1.151,-0.9434,0.4675,0.1456,-1.213,0.2402,-0.2788,-0.3572,0.0657,-0.5156,-0.779,0.1206,-0.1189,0.4265,-0.844,-0.4211,0.8247,0.4253,0.807,0.002607,0.6514,1.172,0.6235,0.667,-0.5547,0.2285,1.006,-0.04346,-0.3247,0.2026,0.4438,-1.452,-0.014725,-0.781,0.6143,0.851,0.403,0.4492,-0.4294,0.2015,-0.4011,-0.2141,0.4473,0.3955,0.4072,1.152,-0.8213,0.002682,-0.5913,0.11664,0.4502,-0.4602,0.3264,-0.5757,-0.463,-0.4417,-0.9233,-0.5264,0.3452,-0.1937,0.08984,-0.3374,0.04135,0.446,0.2483,0.7314,0.914,0.04086,-0.2367,0.54,0.08606,-1.031,-0.00292,-0.867,0.1796,0.173,-0.019,0.673,0.1124,0.238,0.8945,0.273,1.328,-0.6343,-0.0788,0.3433,-0.279,-0.009834,-0.4045,-0.2178,1.087,-0.3193,-0.6045,0.4087,-0.08923,-0.2542,0.323,0.7085,-0.425,0.839,1.109,-0.4685,0.4104,0.9463,-0.7993,-0.2944,0.2119,0.1627,-0.4463,-0.1136,-0.1324,0.8506,0.509,-0.6143,0.219,0.631,-0.4292,-0.3145,-0.5674,-0.555,-0.728,-0.06046,1.24,0.1738,0.4902,0.4722,-0.5293,0.2317,-0.0397,-0.693,-0.2869,-0.682,-0.7544,0.1263,-1.643,1.073,-0.006924,-0.2014,0.3025,0.1957,-0.3489,-0.10443,-0.3103,-0.0421,0.2527,0.442,0.4014,-0.4944,0.516,0.96,0.03235,0.1305,-0.463,0.3955,-0.1913,1.168,0.702,1.018,0.03287,1.073,0.5728,0.2717,0.5977,0.093,-0.253,0.977,0.487,1.037,0.2378,-0.0843,-1.009,0.0635,0.6826,0.2347,0.288,0.609,0.915,-0.1465,0.3357,-0.1948,-0.2441,0.653,0.564,0.3474,0.535,-0.1592,0.0855,-0.231,1.513,1.054,1.423,-0.05627,-0.11096,-0.205,-0.785,-0.3489,0.09607,1.119,-0.3604,0.3398,-0.03806,-0.737,0.064,-0.3018,-0.0977,-0.239,-0.1832,0.877,0.8887,0.11584,0.587,-0.4885,0.2047,0.0505,-0.2242,0.07184,0.838,-0.9976,0.816,0.6924,-0.712,-0.4343,-0.2446,0.845,0.015305,-0.04776,-0.544,0.02892,-0.01825,-0.06824,-0.9316,0.2505,0.00862,0.1511,0.465,-0.4873,1.081,-0.7725,0.328,0.0919,-2.176,-0.541,0.1002,0.1278,0.7505,0.732,-0.4458,-0.6445,1.315,0.5947,-0.8906,0.012634,-0.7334,-0.9263,-0.653,0.5845,-0.627,0.6865,-0.155,-0.2108,0.3997,-0.1825,-0.4226,-0.4653,-1.598,-2.115,0.02267,-1.817,-0.217,0.07043,0.2164,-0.721,0.3027,0.3533,-0.5864,-0.1266,-0.7144,0.7617,-0.823,0.1067,0.1611,0.7256,-0.3127,-0.4148,0.6777,-0.1324,0.3767,0.1175,-0.7,-0.268,0.4595,-0.0295,0.776,-1.253,-1.866,0.2458,-0.0843,0.5015,-0.877,0.507,-0.1323,-0.7515,-0.1725,0.665,-0.1407,-0.03745,1.084,0.2062,0.625,0.4512,-0.731,-0.232,-0.3784,0.3225,0.631,-0.573,1.072,-0.706,-0.4067,-1.265,0.03653,-0.577,-0.3972,-1.532,0.05734,0.6562,0.6323,1.691,0.414,0.729,1.247,-1.698,-0.4683,-0.6455,-0.4944,0.3008,0.4338,0.1442,0.7695,0.4792,0.456,0.1886,-0.2786,-0.2698,-0.3608,-0.3052,-0.8228,-0.3713,-0.667,1.514,0.7417,0.0787,-0.0733,0.2852,0.2043,-0.5566,-0.481,-0.09906,-0.2457,0.899,0.4243,0.4924,0.7207,-0.2998,-0.9326,0.0932,1.315,0.1936,1.209,0.10175,0.0632,-0.1208,-0.0729,-0.3062,-0.0429,0.1355,-0.5654,-0.1876,-0.616,-0.773,0.3132,0.615,0.2365,0.3572,1.723,-0.8604,-0.158,0.344,0.972,-1.022,0.03537,-0.0738,0.0946,0.1721,-0.05933,-0.1759,0.929,1.161,-0.1058,0.0872,-0.3645,1.025,-0.441,0.2566,0.1433,-0.3557,-0.1431,0.3613,-0.1715,-1.102,-0.8755,0.4314,0.3215,0.2944,-0.6685,-0.01532,0.718,-0.235,0.3232,0.5767,1.138,0.61,0.3318,0.04333,0.1781,0.7847,-0.05692,-0.02731,-0.3152,0.44,0.4954
bird,-0.006634,-0.645,0.1552,-0.843,-0.00923,-0.764,1.055,-0.2272,1.088,0.562,0.208,-0.5205,-1.261,-0.05698,0.04898,-0.992,0.2554,1.062,1.521,1.604,0.3186,-1.03,-0.54,-0.1971,-0.8135,-1.191,0.843,0.1295,0.2634,-0.342,0.3423,0.604,-0.4788,1.002,-0.03766,-0.6655,0.6875,0.1073,-0.6147,-1.322,0.939,-1.786,2.75,0.4822,-0.915,-0.723,0.1599,-0.6416,-0.682,0.7666,-1.301,0.1816,-0.399,0.1946,0.597,0.3586,0.7324,-0.3582,-0.474,-1.018,2.115,-1.616,0.432,0.908,0.4128,-0.7812,0.1824,-0.4556,1.578,-0.7534,-1.773,0.3372,-0.1572,-0.1089,0.5405,1.022,-0.9062,-0.2612,0.2979,-0.5444,0.2158,1.171,1.789,0.436,-0.1033,1.24,-2.45,-0.6943,1.312,-0.11774,0.818,0.3518,-0.646,0.5757,-0.5103,0.7114,-0.1484,0.3696,0.2467,-1.316,-0.2896,1.618,0.51,-0.1726,-1.279,0.003544,-0.4265,0.6426,-0.835,1.571,-0.02534,0.7256,0.63,-0.586,-0.922,0.1858,0.396,-0.584,1.085,0.4304,0.1895,0.284,-0.6436,-1.064,-0.2454,-0.1908,-0.759,-0.6157,-0.4392,-0.564,0.133,-0.3591,-0.1263,1.532,0.5938,-1.098,0.4255,0.614,-0.11957,1.084,-0.8984,-0.6855,-0.6475,0.4985,0.761,0.0341,1.431,-0.2477,-0.5635,0.5303,0.9307,-1.022,0.607,-1.422,0.5894,-0.5977,-0.5366,0.6436,0.9453,-0.1719,0.7295,0.5913,-0.3064,0.235,-0.4114,-0.09094,-0.2983,-1.926,1.875,1.271,-0.901,0.683,0.3164,0.8394,-0.09705,0.972,-0.9917,-0.7993,-1.25,0.443,0.6987,-0.007034,1.235,-0.0753,-0.1798,0.2101,-0.00204,0.583,0.04193,-0.2169,0.0277,-0.1492,0.41,-0.4956,-1.088,1.076,-0.0713,-0.2876,-1.231,0.3481,1.036,-0.5874,0.0958,-0.2905,0.088,-0.004253,0.2566,0.7764,0.372,-1.305,-0.2712,0.667,0.0666,0.4482,-1.425,-0.444,0.8027,0.3079,-0.3342,-1.567,-0.1508,1.145,1.65,0.1759,-0.4807,0.3132,-0.481,0.4705,-0.6724,-0.3828,0.104,-0.2666,0.9688,-0.3855,0.7915,-0.2676,0.2467,-0.6704,-1.272,1.697,1.718,0.912,0.621,0.7935,-0.688,-1.437,0.1687,-0.6904,-0.2852,-1.067,0.3857,-0.07367,0.5723,0.497,0.331,-0.08704,0.0947,0.3389,0.09155,-1.069,1.211,0.2847,-0.5044,-0.2463,-1.499,-0.01135,-0.07837,-0.7007,0.7637,1.112,-1.291,-1.471,-0.516,-0.439,-0.3027,-0.10583,0.601,-0.1451,0.8003,-1.24,1.275,-1.177,1.943,-0.7334,-0.2927,0.744,-0.5786,-0.02896,-0.3801,-1.16,0.6626,0.7476,-0.425,-1.45,-0.3965,0.372,-0.281,-0.01496,-0.1945,-0.671,-1.132,0.2072,0.0989,-0.51,1.026,-1.219,0.565,0.1963,-0.3242,-0.864,-1.725,-0.87,0.672,0.0937,-0.1647,-1.362,0.02533,0.2954,-0.9185,0.451,0.0855,-0.9673,0.2507,-0.1484,1.15,2.021,-1.631,0.7256,-0.7856,-0.9795,0.805,-0.04956,1.723,0.688,-0.1812,0.486,-0.59,-0.002209,0.872,0.3906,-0.903,0.478,-0.776,-0.1162,0.3313,0.05478,0.1646,-0.03226,-0.884,-0.822,-0.01707,0.3484,0.01945,0.4353,3.057,-0.2498,0.2119,0.2067,-0.007366,-1.349,-1.209,-0.1381,1.046,-1.773,-1.384,0.05698,1.773,0.6733,0.6445,-0.727,-0.1484,0.567,0.364,0.2305,-0.8994,-0.629,0.1495,2.611,1.171,-0.325,-0.664,-0.5386,-0.8447,1.303,-0.654,0.3572,-0.9775,-0.758,0.6973,-0.0359,0.7104,0.2566,0.479,0.696,0.6924,-0.02704,-0.1907,-1.044,-1.905,0.512,-0.6255,-0.148,-1.073,0.2893,1.035,-0.1604,0.098,-0.9336,0.9756,0.938,1.234,1.4795,-0.5576,-0.1316,-1.092,0.09924,-1.365,0.6694,-1.007,-0.2554,0.3635,0.836,1.288,0.4302,0.683,0.9634,1.208,0.4773,-0.5127,1.061,1.113,-0.01747,0.06134,0.9106,0.2137,0.0592,0.134,-0.647,-0.1401,0.6367,-0.913,-0.7666,-0.1708,-0.391,0.01241,1.694,-1.802,0.404,0.7217,0.3772,-0.2996,1.374,0.8,0.9053,-1.253,-0.5996,0.4644,0.2487,-0.0974,0.4094,-1.538,0.501,1.236,1.794,-0.08435,0.4731,0.4004,0.843,0.2198,0.057,-0.581,1.353,-0.634,0.3713,-0.3562,-1.044,0.734,-1.361,-0.3362,-1.841,1.093,0.3943,0.3994,-0.494,-1.108,-0.9253,-0.6953,0.5586,-0.824,0.8774,-0.12195,0.541,-1.622,-1.07,-1.654,-0.3884,-0.588,-0.4272,-0.1384,-0.933,-0.3098,1.32,-0.8306,0.2104,0.3203,-0.2915,-0.6597,-0.2233,-0.0724,0.06885,-0.616,0.1497,0.779,-0.684,-1.365,0.4993,-0.5083,-1.15,-0.4504,-0.1617,-0.9,-0.3245,0.3235,0.4287,-0.2396,-0.676,-0.01894,-0.08203,0.676,-1.304,-1.253,-0.638,-1.781,0.1737,-0.2874,-1.147,1.087,0.1565,-0.1686,0.2766,-0.7705,-0.6323,0.1895,0.989,0.718,-1.234,0.233,-0.788,1.338,1.004,-0.2263,-0.597,0.5303,-0.148,-0.3044,-0.1533,0.06415,0.98,-0.6387,-0.4019,1.992,0.00495,-0.5312,0.403,1.195,-1.511,0.05118,0.529,0.741,0.814,-0.4062,-0.6016,0.876,0.2474,-0.2351,-1.408,-0.11505,-0.931,0.2852,0.891,0.956,-2.043,1.004,0.6123,-1.211,-0.3162,0.1866,-1.626,0.5396,-0.142,0.1015,-0.03592,1.495,-0.7373,0.6816,0.03406,0.5435,-0.0724,-0.6177,-0.0948,-0.2517,-0.6885,0.2173,0.784,-0.2805,0.5605,-0.3726,-1.176,0.5864,0.429,0.2961,-0.0649,-0.645,-0.1041,-0.964,0.5464,-0.02847,-0.608,0.6353,0.9355,0.8657,1.142,0.1605,-0.1575,-0.2473,0.439,0.3843,1.632,-1.926,-0.11346,1.947,0.2476,-1.469,0.3567,0.3694,0.355,-0.9,-0.687,0.913,0.02113,-0.3232,1.066,0.0896,-1.073,-0.3833,1.014,-1.255,0.11304,-0.068,1.688,-1.074,-1.139,0.117,0.4648,0.7583,-0.7964,-0.1973,1.006,-1.192,0.09674,-0.1196,0.00826,-0.7275,-0.69,0.226,-1.253,-0.3145,0.349,0.4758,1.723,-0.355,-1.205,-0.9976,-0.4504,-0.0765,0.0462,0.01084,0.5815,-0.6323,-0.4226,0.455,1.241,0.2284,-0.4963,1.732,-0.9116,0.4243,-1.499,-0.4917,0.2089,0.4277,-0.6523,0.1462,1.579,0.2024,-1.256,-1.095,-0.542,0.899,-1.568,-0.0541,0.717,0.2332,1.129,-1.677,-0.0856,0.2266,0.00973,-0.4272,0.010414,-1.012,0.4834,0.009285,-1.244,-0.73,-0.0112,-0.5503,-0.795,-0.586,0.2537,-0.4587,-0.938,0.7637,0.4697,-0.7285,-0.04898,0.1111,0.1732,0.503,1.273,1.336,-0.3809,-0.684,-0.606,-0.06903,0.2507,0.05396,-0.445,-0.656,1.009,0.08795,0.9263,-0.1783,-0.8823,0.1292,-0.0735,0.768,0.684,-0.954,-0.094,0.538,0.8364,0.6646,0.651,0.867,1.323,-0.482,-1.118,-0.6255,-1.349,0.04965,-0.04105,-0.01729,-0.414,0.2644,1.211,-0.0982,-0.1882
blanket,0.1204,-0.0941,-1.596,-1.364,0.6304,0.784,-0.2754,0.3982,-1.2705,-0.311,-0.0867,-0.335,-0.02446,-1.688,1.489,-0.694,-1.517,0.1997,1.24,0.955,0.319,0.818,-0.239,-1.448,1.3,-0.8013,-0.1782,-0.0679,-0.2483,0.446,-1.277,-0.4036,-0.3323,0.478,0.522,-0.6304,0.3198,-0.929,1.529,-0.583,-0.5186,-0.551,-1.0205,-0.672,0.8213,-0.4766,0.3184,-0.77,0.1859,0.4414,0.2454,-1.245,-0.1686,-0.5107,-0.5317,1.377,-0.526,-0.1829,1.04,-0.4968,0.5063,0.0811,-1.126,0.4797,-1.178,0.0573,-1.11,0.6694,-1.139,0.719,0.2944,0.3225,0.9497,1.309,0.367,0.4844,-0.006794,0.1123,-1.921,0.005806,-0.589,0.1084,1.224,-0.4185,-0.3367,-0.8394,0.4783,-0.2175,-0.0766,0.2686,-0.02802,0.5303,-0.1393,-0.00854,0.4275,-1.068,-0.335,-0.2313,0.048,-1.154,1.896,-0.2659,0.8257,-1.074,-0.4958,-1.215,0.826,-0.964,0.05106,-0.1936,0.9873,0.739,-0.5786,1.005,-0.5557,-0.04764,-0.2374,-0.09174,0.3296,-0.801,0.11285,0.6504,-0.6465,2.438,1.769,-0.2998,1.094,0.7817,-1.543,0.2715,1.148,-0.5073,-0.635,-0.4138,0.872,-0.137,-0.671,0.327,-0.4465,-1.284,0.3503,1.328,0.2128,0.9287,0.274,0.4746,-0.3086,0.3425,0.3281,-0.01017,-0.149,1.087,-0.2407,0.4055,0.519,1.146,-0.07117,-0.2021,-1.183,0.1267,0.2123,-0.1393,0.223,0.4443,-1.893,-0.5884,1.267,0.5776,-1.368,1.399,0.4119,-0.6587,0.00362,-0.3496,-0.4873,-0.5894,0.27,0.4282,0.2937,-0.1938,0.1901,0.6167,-0.10223,1.574,0.1697,-0.315,0.683,1.496,0.84,-1.318,-0.4678,0.09357,-1.697,0.4976,0.2832,0.596,0.4922,-0.0874,-0.3628,-1.066,0.9165,-2.121,0.538,-0.052,1.455,-0.62,-0.0544,-0.4915,-1.35,-0.26,0.6616,0.8887,1.053,0.8657,0.9307,0.26,0.3982,-0.3433,-0.2456,0.9077,-0.7344,-0.933,0.1029,-0.0817,-0.1469,0.2632,0.7324,0.3862,-0.581,-0.628,-0.3894,0.0859,0.2878,0.1094,0.1987,0.6787,0.8813,-0.544,0.0758,0.1814,-1.042,1.255,-0.9287,-0.7153,-1.76,-0.1708,0.6655,-0.0445,0.1318,-0.987,-0.6523,1.536,-0.4893,-1.889,0.541,-0.1812,0.157,1.927,-0.6226,-0.0633,0.2085,0.6655,-0.4111,-0.2878,0.4836,-0.3218,0.2169,0.5073,-0.7183,-0.8174,1.084,1.245,1.069,0.4407,-0.5273,-1.858,-0.4214,0.531,-0.4524,-0.05527,-1.028,0.584,-0.6323,0.3987,-0.5,0.77,0.8047,-0.4385,0.1771,0.1293,-0.4346,-1.248,-0.8115,1.366,0.566,-0.757,0.8096,-1.864,-0.2286,1.09,-0.5444,0.634,-0.336,-0.367,-0.9634,-0.661,-1.594,0.4373,-1.007,1.243,0.859,0.09296,-0.3896,-1.415,0.5923,0.3342,-0.1547,0.688,0.227,0.1664,1.279,0.4075,0.661,-0.194,-0.05762,-0.3972,-0.4768,-0.2837,-0.1412,-0.1897,-0.6255,0.859,-0.609,-0.9976,-1.6045,0.2296,0.3877,0.721,0.269,0.00985,-0.687,-0.4695,0.674,-0.7124,0.1885,-1.37,-0.664,0.218,-0.533,-0.4282,0.6626,-1.125,-0.3147,0.0903,-0.649,-1.049,-0.731,0.013405,1.41,1.777,0.9766,-0.3923,0.4863,0.362,0.4158,0.5327,-0.2015,0.007965,-1.605,-0.991,-0.174,0.85,-0.664,0.2864,-0.5864,0.8364,0.1252,-0.2245,0.1672,0.1642,0.5815,0.975,0.4558,-0.604,-0.487,-1.209,-0.648,1.144,-1.642,0.4712,-1.379,-0.7007,-1.308,-0.9766,1.326,0.3013,-0.0258,-1.149,1.321,-0.428,1.367,0.2498,-0.468,0.4468,0.3433,-0.099,-0.1104,0.7495,-1.403,-0.4517,-1.113,-1.066,-0.3452,1.126,-0.2844,-1.114,-0.236,0.2786,-1.368,1.473,-2.016,-1.972,-0.1633,0.2847,1.111,0.3906,-0.3118,-0.5073,0.0892,-0.3374,-0.1857,0.1252,0.02896,-1.473,0.784,-0.3008,-0.4863,1.049,-0.829,-0.6704,0.6694,-0.614,0.593,-0.09375,0.3865,0.3022,-0.3806,0.1981,-0.6973,0.935,-0.3757,-0.2366,0.589,-0.7812,-0.2003,0.6953,0.864,-0.02351,-0.8125,-0.8325,0.064,-0.553,0.731,-1.715,0.4697,0.1913,1.192,0.2988,-2.072,-0.6357,1.132,-1.702,-0.4656,-0.862,-1.146,0.8066,1.011,-0.5747,-0.0926,-0.1691,-0.474,0.1611,-0.7896,0.0757,-0.5537,-0.1631,-0.3867,-0.1476,0.8726,-0.524,0.0842,0.5596,-0.2107,1.053,0.05945,-0.2603,0.4639,0.6353,1.216,0.689,0.567,-0.848,-0.2393,-0.3926,0.3606,0.5933,1.46,0.2847,0.3877,0.8013,0.078,0.3125,-0.2249,1.757,-0.05923,0.6177,1.476,0.4685,-0.8936,0.7114,-0.7065,-0.7363,-0.2737,1.095,0.9863,1.803,0.9116,-0.02556,-0.268,-1.128,-1.377,0.565,0.3716,-1.599,1.575,1.533,-1.216,0.3384,-0.5566,-0.005238,1.357,-0.824,0.04202,-1.892,-0.355,0.2922,0.701,-0.873,-0.173,-0.2678,-0.1765,-0.4033,-0.3906,-0.566,0.006477,-0.2952,0.539,-0.9287,0.1528,-0.5073,0.7515,0.09,0.478,0.9507,-0.2795,0.2445,-0.426,-1.227,-0.6934,-0.404,1.882,0.2522,-0.926,1.343,0.976,-0.2467,0.949,-0.905,-0.0745,1.064,0.0443,0.1735,1.101,-0.4827,-0.1965,0.7344,-0.5312,-0.0371,1.11,-0.2905,-0.1222,0.1205,-0.127,-0.3528,0.981,1.088,-0.7695,0.0528,-0.82,0.4033,-0.508,0.6216,-2.074,-0.0534,-0.635,-0.6377,0.069,-0.2786,-1.007,-0.551,-0.5938,-0.798,0.7236,0.3406,1.073,0.4414,0.5156,0.94,0.601,-1.133,1.008,-0.10394,0.2898,-0.09576,0.7744,-0.829,-0.286,1.379,0.717,1.098,-0.9956,-0.8135,0.5254,0.3179,0.3088,-0.3804,0.716,1.298,-1.454,-0.1215,-0.1317,1.089,0.741,-0.1788,0.01532,0.824,0.4185,-0.4067,-0.0877,-1.25,1.362,0.759,-0.912,-0.1433,-0.5854,-1.109,-0.852,0.1306,-1.512,0.7236,0.505,-0.959,1.821,-0.7246,1.031,0.7563,0.6455,1.523,-1.568,-0.2544,0.11707,0.802,1.147,1.066,-0.1026,-0.7407,-0.7915,0.01775,1.285,-0.2007,-0.1836,-0.636,-0.688,-1.604,0.2742,0.53,0.6616,0.387,-0.706,0.1306,-0.2493,0.2147,-1.19,-0.2495,0.2493,-0.3726,1.24,-0.0694,-1.045,0.95,-0.6226,-0.4429,-0.7124,-0.0951,0.841,1.22,0.2145,0.549,-0.309,0.2998,0.2211,0.1225,0.3755,0.5396,0.3242,0.131,-1.026,0.1052,-0.2036,-0.3416,0.4229,1.712,1.458,-0.00473,-1.247,-0.691,-0.7993,-1.955,1.239,0.9937,-0.823,-0.444,-1.436,1.645,1.901,-0.19,1.036,-0.6294,0.613,-0.85,0.8027,1.008,0.9326,-0.6704,-0.4116,-1.47,-0.8696,-1.433,-0.2668,-0.907,1.057,-0.169,-0.9614,-0.01683,-1.071,0.3674,-0.3564,0.3823,-0.1416,1.329,-0.7676,0.479,0.6973,0.1239,0.2686,-0.3938,-0.2874,0.7153
