,0,1,2,3,4,5,6,7,8,9,10,11,12,13,14,15,16,17,18,19,20,21,22,23,24,25,26,27,28,29,30,31,32,33,34,35,36,37,38,39,40,41,42,43,44,45,46,47,48,49,50,51,52,53,54,55,56,57,58,59,60,61,62,63,64,65,66,67,68,69,70,71,72,73,74,75,76,77,78,79,80,81,82,83,84,85,86,87,88,89,90,91,92,93,94,95,96,97,98,99,100,101,102,103,104,105,106,107,108,109,110,111,112,113,114,115,116,117,118,119,120,121,122,123,124,125,126,127,128,129,130,131,132,133,134,135,136,137,138,139,140,141,142,143,144,145,146,147,148,149,150,151,152,153,154,155,156,157,158,159,160,161,162,163,164,165,166,167,168,169,170,171,172,173,174,175,176,177,178,179,180,181,182,183,184,185,186,187,188,189,190,191,192,193,194,195,196,197,198,199,200,201,202,203,204,205,206,207,208,209,210,211,212,213,214,215,216,217,218,219,220,221,222,223,224,225,226,227,228,229,230,231,232,233,234,235,236,237,238,239,240,241,242,243,244,245,246,247,248,249,250,251,252,253,254,255,256,257,258,259,260,261,262,263,264,265,266,267,268,269,270,271,272,273,274,275,276,277,278,279,280,281,282,283,284,285,286,287,288,289,290,291,292,293,294,295,296,297,298,299,300,301,302,303,304,305,306,307,308,309,310,311,312,313,314,315,316,317,318,319,320,321,322,323,324,325,326,327,328,329,330,331,332,333,334,335,336,337,338,339,340,341,342,343,344,345,346,347,348,349,350,351,352,353,354,355,356,357,358,359,360,361,362,363,364,365,366,367,368,369,370,371,372,373,374,375,376,377,378,379,380,381,382,383,384,385,386,387,388,389,390,391,392,393,394,395,396,397,398,399,400,401,402,403,404,405,406,407,408,409,410,411,412,413,414,415,416,417,418,419,420,421,422,423,424,425,426,427,428,429,430,431,432,433,434,435,436,437,438,439,440,441,442,443,444,445,446,447,448,449,450,451,452,453,454,455,456,457,458,459,460,461,462,463,464,465,466,467,468,469,470,471,472,473,474,475,476,477,478,479,480,481,482,483,484,485,486,487,488,489,490,491,492,493,494,495,496,497,498,499,500,501,502,503,504,505,506,507,508,509,510,511,512,513,514,515,516,517,518,519,520,521,522,523,524,525,526,527,528,529,530,531,532,533,534,535,536,537,538,539,540,541,542,543,544,545,546,547,548,549,550,551,552,553,554,555,556,557,558,559,560,561,562,563,564,565,566,567,568,569,570,571,572,573,574,575,576,577,578,579,580,581,582,583,584,585,586,587,588,589,590,591,592,593,594,595,596,597,598,599,600,601,602,603,604,605,606,607,608,609,610,611,612,613,614,615,616,617,618,619,620,621,622,623,624,625,626,627,628,629,630,631,632,633,634,635,636,637,638,639,640,641,642,643,644,645,646,647,648,649,650,651,652,653,654,655,656,657,658,659,660,661,662,663,664,665,666,667,668,669,670,671,672,673,674,675,676,677,678,679,680,681,682,683,684,685,686,687,688,689,690,691,692,693,694,695,696,697,698,699,700,701,702,703,704,705,706,707,708,709,710,711,712,713,714,715,716,717,718,719,720,721,722,723,724,725,726,727,728,729,730,731,732,733,734,735,736,737,738,739,740,741,742,743,744,745,746,747,748,749,750,751,752,753,754,755,756,757,758,759,760,761,762,763,764,765,766,767
airplane,-0.1328,-0.559,-0.09937,-0.384,0.07886,-0.7124,-0.1937,-0.1963,0.4976,-0.2246,-0.601,-0.3516,-0.2083,0.08594,-0.03433,0.588,0.0837,0.2305,0.07294,0.009766,-0.169,-0.8486,0.2136,-0.8726,-0.1104,-0.4521,-0.1231,0.1652,-0.2008,-0.1571,0.1398,-0.0387,-0.1875,-0.822,0.0912,0.1981,-0.368,0.1711,0.4128,0.2708,0.7495,0.23,0.2717,0.0844,-0.11096,-0.311,0.2351,-0.06198,-0.2351,-0.4404,-0.2944,0.6475,0.4727,0.488,-0.3196,-0.2947,0.0865,0.7793,-0.1104,-0.3318,0.5312,0.495,-0.3564,0.07007,0.648,-0.05554,-0.2089,-0.336,-0.0341,-0.04837,-0.3074,-0.9653,0.0962,-0.5947,0.0219,-0.2341,0.6826,-0.0996,-0.926,-0.78,0.0817,-0.2744,0.248,0.0575,0.1298,-0.301,0.2612,-0.794,-0.2192,-0.1495,0.2632,-0.5483,0.1641,-0.59,-0.9756,0.314,-0.353,0.09845,-0.1497,0.4265,0.2666,-0.01464,-0.1936,0.2957,-0.548,0.152,0.2598,-0.257,0.4426,-0.01153,0.2247,0.01543,-0.3105,0.3137,-0.1533,0.1823,0.504,-0.4006,0.257,-0.2812,-0.15,-0.11194,0.331,0.1997,0.735,-0.3738,0.8364,0.8145,-0.4197,-0.167,-0.3726,-0.31,0.0459,-0.4365,0.02383,-0.4583,0.4084,0.09326,0.2357,-0.2712,-0.0978,0.009094,0.06235,0.01321,-0.0325,-0.596,-0.10376,0.617,0.1312,0.4229,-0.2081,0.2517,0.1564,-0.1583,-0.22,0.0395,-0.332,-0.627,0.1332,0.451,0.1439,-0.501,-0.2751,0.095,-0.3796,-0.2433,0.4102,-0.01224,0.2108,0.397,0.6416,0.2001,0.3303,0.06238,-0.0301,0.15,-0.02419,-0.3904,-0.1467,0.0265,-0.06024,-0.2107,-0.638,0.828,-0.284,-0.4246,-0.8174,-0.1128,0.4763,-0.2207,0.0894,0.09235,0.2432,0.2439,-0.0559,0.3982,0.05258,0.3264,0.1943,0.5347,0.858,0.1014,-0.503,-0.5205,0.0948,0.0642,-0.1946,0.06573,0.3384,-0.333,0.564,-0.2996,-0.4336,0.7495,-0.3083,0.09454,-0.3062,0.4268,-0.2625,0.79,0.04663,0.03433,-0.273,0.1854,0.5303,0.553,0.319,-0.534,0.1721,-0.05753,-0.06714,0.5337,0.08856,-0.6704,-0.549,0.11084,0.2301,0.2766,-0.0937,0.3086,0.356,0.6265,0.1952,0.02478,0.02132,-0.579,0.5757,-0.1713,-0.0787,-0.8936,0.5244,0.2546,0.1556,0.2874,-0.4854,0.3855,-0.02892,-0.1162,0.0643,-0.2323,-0.3342,-0.588,0.1284,0.11395,0.2817,-0.1417,-0.0835,-0.07556,0.3728,-0.4336,-0.202,0.03348,0.09644,0.2197,-0.1506,-0.7383,-0.12427,0.4487,-0.1361,0.1427,-0.2576,0.04,-0.1469,-0.0596,0.3752,0.04626,0.251,-0.201,-0.5625,0.1459,0.04797,-0.0854,-0.061,0.265,-0.6694,0.4287,-0.1337,0.10223,-0.4932,-0.2109,-0.1364,0.2908,-0.1724,0.1473,-0.87,-0.397,0.05377,-0.654,-0.3289,0.09686,-0.1273,-0.2169,0.146,-0.284,0.6445,0.1223,0.7393,0.1875,-0.6025,-0.2976,0.2686,-0.01019,-0.001545,0.3547,-0.4233,-0.4348,0.0903,0.10236,-0.04095,-0.4807,-0.362,-0.246,0.784,-0.4846,0.05777,-0.5977,-0.1562,0.095,1.146,-0.3132,-0.1523,-0.5503,-0.2185,-0.2878,0.8857,-0.2283,-0.0743,0.1843,-0.1926,-0.1475,-0.4426,0.375,0.6064,0.2983,0.03256,0.06082,-0.02516,0.2275,-0.7305,0.454,0.2612,0.1134,0.5635,-0.0387,-0.2073,0.05786,0.2917,-0.5527,-0.742,0.418,0.2886,0.2117,-0.03775,-0.6177,-0.1921,0.2637,-0.2375,-0.2542,0.1119,-0.1907,0.631,-0.1948,-0.1284,0.1117,0.379,0.4243,0.0594,-0.1393,-0.3853,0.3008,-0.2197,-0.715,-0.03506,0.0658,-0.4214,-0.884,0.2302,-0.08984,0.10925,-0.1886,0.3623,-0.09875,-0.01791,0.3545,-0.0348,0.5273,0.006752,-0.6484,0.06073,-0.4941,-0.1707,-0.6953,0.1117,0.1488,-0.5586,-0.3643,0.0005007,-0.2876,0.529,-0.006237,-0.0528,0.0818,-0.2998,-0.53,-0.4258,1.044,-0.2856,-0.438,0.526,0.6885,0.0668,0.4548,0.38,0.2167,-0.1039,0.05597,0.2269,0.007153,-0.5293,0.3013,-0.0439,-0.3572,0.2457,-0.07416,-0.5146,0.1102,0.00527,0.02722,-0.0537,0.1937,-0.1437,0.4377,-0.4038,-0.0569,0.148,0.11096,-0.1976,-0.1782,0.721,0.1519,-0.3252,0.742,0.5713,-0.1538,0.5645,0.012505,-0.03958,0.4336,0.7637,0.01433,0.518,-0.5312,-0.2212,-0.778,-0.1884,0.1587,-0.3115,-0.5034,0.0844,-0.316,0.355,-0.564,0.44,0.4148,0.2229,-0.01172,0.7563,-0.288,0.2211,0.0236,0.2434,-0.4998,-0.2052,0.12213,-0.2417,-0.012505,-0.06433,-0.4663,-0.1131,0.10187,0.1594,-0.2463,0.05652,-0.544,-0.254,-0.1666,0.03772,0.6533,0.01125,-0.01217,0.3223,-0.531,0.4001,0.2401,-0.02136,0.6885,-0.3765,0.3743,-0.2384,-0.2825,-0.1252,-0.5366,0.04956,-0.2815,-0.0725,-0.3108,-0.6045,-0.5244,0.0603,-0.1366,0.5786,0.519,0.2073,0.268,0.4346,-0.0702,-0.465,0.3257,0.4111,-0.2489,0.189,-0.00781,0.212,-0.1821,-0.665,0.04938,0.6523,-0.2046,-0.1978,0.0749,0.2988,-0.2416,-0.04056,-0.2449,-0.1996,-0.385,-0.3853,0.4556,0.1065,0.1844,0.3127,-0.1265,-0.7812,0.04794,-0.363,0.0631,-0.3252,0.7344,-0.10815,-0.1194,-0.0976,0.1351,0.3042,-0.2917,0.1154,-0.2179,-0.6895,0.00797,0.7036,-0.5195,-0.2258,-0.02538,-0.5283,-0.4814,-0.3594,0.6445,0.1764,-0.2073,0.811,0.07947,-0.1095,-0.581,-0.11707,0.3218,0.1732,-0.438,-0.2515,-0.2158,-0.9414,0.01435,-0.1846,0.3716,0.4207,0.0867,-0.12244,-0.06204,-0.4407,0.3572,0.327,0.00412,-0.01155,0.0949,0.06976,0.556,-0.0999,0.04752,0.5474,0.1708,-0.1892,0.09625,-0.1265,0.1786,0.335,0.03375,-0.4036,0.3433,0.286,0.2734,-0.6484,0.4907,-0.1815,0.1919,-0.112,0.1704,0.8496,0.2377,0.648,-0.0461,0.1783,0.0864,-0.0494,-0.007557,0.2822,-0.00863,0.8623,0.7354,0.1536,0.2103,0.02754,-0.3728,-0.2268,-0.4077,0.05997,-0.4497,0.0895,0.3076,-0.3381,0.7,0.075,0.355,0.46,0.0709,0.2301,-0.03207,0.147,-0.1449,0.1458,-0.1371,-0.7827,0.3447,0.1604,-0.5234,0.1615,0.8716,-0.3967,0.06305,0.2261,-0.3228,0.3145,-0.323,0.3708,0.01223,0.2693,-0.1409,0.3062,0.7373,0.2325,0.0443,-0.1555,0.2466,0.0551,0.5938,0.592,0.7896,0.02979,0.3364,0.1859,0.1404,-0.288,0.2964,-0.674,-0.071,-0.1719,0.2625,0.2532,-0.0827,-0.11615,0.0931,-0.02882,0.3267,0.001167,0.3252,-0.3303,-0.5464,0.4514,-0.6953,-0.2272,-0.08575,-0.567,-0.8027,-0.2152,0.16,-0.3555,-0.3835,0.2522,0.248,-0.0039,0.9165,0.568,-0.3948,-0.02676,0.0662,0.03845,1.263,0.2281,-0.03384,-0.0636,-0.2517,-0.02223,-0.3494,-0.1298,0.1201,-0.2861,0.2394,-0.0982,0.6133,0.03317,0.4434,0.56,0.103,-0.2354,0.1649,0.1477,0.008224,-0.12146,0.0167,0.09186,0.9014,0.1329,-0.1635,-0.576,0.2505,-0.3132,-0.2366,0.2864,-0.1749,0.2983,-0.639
alligator,0.1442,0.4185,-0.1422,-0.003153,0.1849,-0.0757,-0.125,-0.5063,0.65,0.002588,0.002836,-0.3674,-0.1276,-0.6113,-0.002583,-0.2883,0.2522,-0.0982,0.02164,-0.5884,0.1002,-0.5815,-0.1163,0.2246,-0.1309,-0.2179,-0.4692,-0.0416,-0.2776,0.2094,0.1036,0.2158,0.179,-0.2147,0.5806,0.342,0.3713,0.437,0.5293,0.125,-0.139,0.1218,-0.02554,0.1231,0.391,-0.4197,1.043,0.12244,0.0632,-0.6016,-0.1621,-0.2355,0.4436,0.2108,0.01929,0.1461,0.1869,0.07086,0.07007,0.2866,0.2546,-0.2434,-0.1141,-0.276,0.1827,-0.09717,0.03568,0.1646,0.1711,0.128,-0.02104,0.3767,-0.001922,-0.3528,0.343,-0.2295,-0.1359,0.00842,-0.3584,-0.1694,0.2094,-0.185,0.1915,-0.1597,-0.00897,0.0471,-0.208,-0.4116,-0.1376,0.09814,0.2537,-0.683,-0.3972,-0.1554,0.4094,-0.1458,-0.0708,-0.383,-0.293,-0.03143,0.5767,-0.006092,0.04657,0.0002265,-0.245,0.311,-0.1158,-0.6714,-0.02487,-0.3274,-0.2317,-0.01715,-0.10455,-0.1655,-0.4316,0.2446,0.05008,-0.1793,0.5205,0.11426,-0.065,-0.203,0.7847,-0.3582,0.0762,0.01834,0.5566,0.0806,-0.11346,-0.2401,0.0879,-0.2145,-0.0457,0.2096,-0.11694,-0.01744,0.715,-0.4329,-0.02992,0.1538,-0.566,-0.3577,-0.1812,0.2101,-0.2347,0.0992,-0.3787,0.4285,-0.294,-0.02536,-0.472,0.07776,-0.12354,-0.08466,0.3105,-0.2421,-0.1685,-0.1252,0.5356,-0.06647,0.1455,0.4473,0.03815,0.1866,-0.2128,-0.261,0.1847,-0.03616,-0.02306,-0.1312,-0.10016,-0.0682,-0.2164,0.2379,0.08215,0.11707,-0.3982,-0.2761,-0.2043,0.4807,-0.03204,0.325,-0.0313,0.10223,0.6597,0.2499,0.3884,-0.01651,0.5737,0.519,0.0208,0.04303,0.3557,0.2266,-0.08167,0.5513,0.0745,0.2211,0.0411,0.3098,0.3682,-0.014305,0.1135,-0.0553,0.3242,-0.05557,-0.1381,-0.0406,0.2834,-0.2842,0.2174,0.0936,-0.2893,0.587,-0.3315,0.2115,-0.0698,0.2213,-0.02455,0.542,0.014435,-0.07367,-0.09015,0.222,0.3955,-0.3142,-0.06024,-0.4607,-0.1812,0.001695,-0.333,0.2155,-0.1855,-0.29,-0.353,0.02052,0.3218,-0.0684,0.11694,0.01057,0.1361,0.07947,1.03,-0.0092,-0.1992,-0.4229,0.17,-0.4417,-0.04245,-0.3813,0.0986,0.0998,0.10516,0.0602,-0.4055,-0.3438,0.0881,-0.001533,-0.4048,0.0982,-0.0682,0.5894,-0.2322,0.2401,-0.0403,-0.1295,-0.011444,0.3638,-0.04175,-0.01451,-0.2886,-0.0873,0.1367,0.11456,-0.0953,-0.3247,-0.1272,0.1339,-0.4734,-0.1772,-0.3489,-0.004818,0.418,0.312,-0.2098,0.0729,0.3135,0.758,0.07697,0.2118,0.2103,-0.1648,0.0197,0.2314,-1.088,0.1411,0.142,0.1498,-0.2942,0.0712,0.0693,0.3684,0.544,0.01322,-0.1843,-0.656,0.08435,-0.2349,-0.10504,-0.51,0.1022,-0.579,0.45,-0.08124,0.4023,0.443,0.54,-0.1318,-0.167,-0.1019,0.4429,-0.09955,-0.1395,-0.1554,0.169,0.3716,0.1609,0.569,-0.4934,0.2107,-0.873,-0.1504,0.1548,0.2396,0.3386,0.1335,-0.1641,-0.3394,0.1974,-0.03555,0.1902,0.37,0.1296,0.1088,-0.4438,0.142,0.1439,-0.473,0.5776,-0.495,-0.2297,0.04718,-0.1885,0.002136,0.1444,0.436,0.0513,0.2186,-0.477,-0.4177,-0.7,0.0799,0.556,-0.2708,0.02466,0.2217,0.01967,-0.2637,-0.5283,0.288,0.3887,0.2778,0.00868,-0.1504,-0.327,-0.3845,0.0896,-0.0876,0.08344,-0.03787,-0.2764,0.2888,-0.3176,-0.0675,0.05084,0.4897,0.0739,0.012764,-0.097,-0.2122,-0.2737,-0.03482,-0.04156,0.006783,0.07806,0.2952,-0.03256,-0.0781,-0.192,0.11646,0.4114,-0.145,-0.261,0.4907,0.0804,-0.0792,-0.2162,-1.016,-0.1786,-0.272,-0.429,0.102,0.331,0.1572,0.441,-0.2189,0.1686,-0.3022,0.4382,-0.0425,-0.1794,0.0351,-0.0567,0.446,0.275,0.1631,-0.5845,-0.03854,0.2078,0.1183,-0.1516,0.2322,-0.2144,0.2925,0.01102,-0.1877,0.4067,0.05307,0.05804,0.1451,0.1267,0.2688,0.2245,0.3035,-0.3745,-0.2341,0.0474,-0.11035,0.3552,-0.2078,0.097,0.3171,0.11053,0.1674,0.1761,-0.146,0.4514,0.1912,-0.3416,0.10944,-0.0667,0.3623,0.5264,-0.1631,-0.08856,-0.393,0.00833,-0.03108,-0.1423,0.12366,0.2673,-0.3665,-0.05804,-0.202,-0.1769,-0.02335,-0.2489,-0.05728,-0.1786,-0.00809,0.1805,-0.564,0.5195,0.4832,0.047,-0.438,0.3484,0.1766,0.712,-0.08746,-0.0654,0.2942,0.1921,0.0378,-0.6006,-0.05325,-0.0777,-0.4983,0.2405,-0.515,-0.2605,-0.521,0.05902,-0.0144,-0.128,0.1434,-0.0957,-0.1255,-0.01686,-0.6387,0.335,-0.387,0.1815,-0.01441,-0.00674,-0.01767,0.2607,0.2515,-0.771,0.03946,-0.0642,-0.01153,0.1434,-0.08435,-0.1348,0.338,0.63,-0.05865,-0.555,-0.3696,-0.3032,0.331,0.3987,0.1361,0.097,-0.2554,0.1522,0.5825,0.3174,0.1732,0.0787,0.05252,-0.4763,-0.2346,0.0722,-0.148,0.02084,0.02567,-0.33,-0.04434,0.2573,-0.0691,-0.0319,-0.0954,-0.264,0.1226,-0.03778,-0.35,-0.1727,0.3008,0.1396,-0.1353,-0.2942,-0.1018,-0.6035,-0.02795,-0.2035,-0.04242,-0.1486,0.3677,0.3545,-0.4194,0.1957,-0.04678,0.02348,-0.1915,-0.03058,0.05054,0.1252,0.12396,0.10315,0.196,0.3079,0.2927,0.01046,0.292,-0.1109,0.3142,0.00892,0.2258,0.02296,-0.1351,0.2935,-0.2063,-0.0466,-0.474,0.10547,-0.3452,-0.4321,0.03113,0.1437,0.2878,0.1294,-0.3245,-0.01884,0.04788,-0.3552,-0.1113,0.1737,0.02855,0.3936,0.0853,0.1624,-0.2747,-0.06125,0.1947,0.1989,0.607,-0.03238,0.0631,-0.08264,0.254,0.1494,0.7153,-0.2715,-0.0631,-0.0726,-0.0648,-0.04636,0.0742,-0.3188,-0.08057,0.391,0.244,0.07837,0.1277,0.2452,0.1714,0.1407,0.06445,-0.1046,-0.1879,-0.0867,-0.006824,-0.0916,0.7676,-0.3806,0.01308,-0.5356,-0.3489,-1.404,-0.3408,-0.0889,-0.005016,-0.08295,0.2032,0.1686,0.1671,0.1555,-0.554,-0.254,-0.1515,-0.06866,0.1578,0.2559,-0.07935,-0.2001,-0.04184,-1.247,0.1667,-0.11176,-0.3408,-0.04517,0.259,0.3442,0.00519,-0.1852,0.2054,-0.06714,-0.0323,0.1615,0.3562,-0.0748,-0.1191,0.002638,0.527,-0.04837,0.0166,0.1394,0.2925,-0.0605,-0.2925,-0.0531,-0.1913,-0.0901,-0.5117,0.349,0.1311,-0.325,0.002516,0.1085,-0.321,-0.11273,0.294,-0.2363,-0.1648,-0.03012,0.1465,-0.178,-0.04745,-0.1235,0.17,-0.1595,-0.2502,-0.4048,-0.06836,-0.0491,-0.08966,-0.3223,0.4531,0.01383,1.156,-0.04825,-0.0542,-0.296,-0.4167,0.08124,-0.449,-0.0003455,0.1248,-0.2769,-0.11725,0.3264,0.9053,0.2878,0.0792,0.2092,-0.0329,0.08575,0.4146,-0.1328,0.05215,-0.07806,-0.1617,0.252,-0.03714,0.3386,0.3796,0.6987,-0.259,0.338,0.2869,0.0797,-0.02985,-0.1487,0.2019,-0.2158,-0.47,0.454,-0.306,-0.311,0.1377,-0.3975,0.3708,0.05603,-0.6226,-0.0439,-0.06027
animal,0.3086,-0.8013,-0.3772,-0.9004,0.3818,-0.61,-0.17,-0.02718,0.9517,0.2153,0.4226,0.00863,-0.2764,-0.1511,0.1422,-0.2213,-0.0587,-0.3252,0.00879,-0.0999,-0.0957,-0.04233,-0.06168,0.08136,-0.3218,0.09863,0.3213,-0.3503,-0.2006,0.918,0.2192,0.0485,0.5767,-0.438,-0.1164,0.09796,-0.2207,0.0962,0.3586,0.1459,-0.0877,-0.1416,-0.0952,-0.0998,-0.3997,-0.0485,0.0306,-0.3704,-0.3845,0.8374,-0.06586,0.305,-0.02393,-0.1715,0.2158,0.01074,0.0695,0.2598,0.2688,0.521,-0.11115,-0.3047,-0.1659,-1.062,-0.1456,-0.0519,0.3733,-0.07745,0.6255,0.02441,0.1912,-0.274,0.4856,-0.1465,0.3828,-0.035,-0.7905,0.1943,-0.949,0.9243,0.3057,0.1322,0.4622,-0.8423,0.3364,0.477,0.2683,-0.42,0.0999,0.508,-0.4504,0.1759,-0.6084,0.666,-0.4128,-0.10565,0.614,0.0866,-0.1959,0.139,0.5337,0.576,-0.84,0.0972,-0.4204,0.884,-0.621,0.04712,-0.1832,0.010254,0.3633,-0.5903,0.0397,0.0497,-0.1918,-0.0817,0.5474,-0.6094,0.523,-0.2372,0.2778,0.3545,0.498,-0.01868,-0.01074,0.01367,0.775,-0.2338,-0.4404,-0.2299,0.04025,-0.6953,-0.261,0.4238,-0.08594,0.519,0.409,0.2996,0.0586,-0.374,-0.05835,-0.566,-0.514,0.259,0.0555,0.03915,0.1989,0.5083,-0.2148,-0.5054,0.10675,-0.551,-0.506,-0.1451,-0.8325,-0.3562,-0.3416,-0.313,0.1998,-0.00814,0.03613,-0.414,-0.11194,0.658,-0.5513,0.1256,0.1211,0.07697,0.619,-0.1686,-0.409,-0.7827,0.408,-0.3606,0.1003,-0.3184,-0.419,-0.3677,-0.9126,0.3281,-0.236,-0.3513,0.2795,0.05112,-0.694,0.0654,-0.0865,0.0752,-0.1278,-0.01953,0.52,0.11066,0.01172,0.327,0.667,0.892,0.1274,-0.3008,0.498,0.0742,-0.1997,0.1509,-0.01233,0.151,-0.153,0.03842,0.3796,0.543,-0.07715,-0.6367,-0.124,0.74,-0.353,0.4004,-0.1254,-0.0745,-0.188,0.1523,0.2383,-0.0737,0.009605,0.5366,-0.4153,-0.1326,0.0686,-0.3098,-0.4036,-0.3008,-0.778,-0.489,0.1169,0.05313,0.14,-0.1426,0.001302,0.06464,-0.01212,0.04037,0.131,0.6304,0.0638,-0.222,0.6587,0.444,-0.112,-0.3857,0.0507,-0.1367,-0.0993,-0.1483,0.551,-0.0827,0.2842,0.3777,-0.3162,0.0994,0.325,-0.03027,-0.713,0.1917,0.1823,0.0166,-0.1416,-0.4055,-0.3472,0.173,-0.05356,0.02473,0.4,0.265,0.498,-0.0965,0.1814,0.2683,0.096,-0.6357,0.2388,-0.557,-0.2445,0.06854,-0.5425,0.1432,-0.4106,0.5923,0.4082,0.1744,0.0003254,0.341,-0.533,0.05893,0.2573,-0.6284,-0.04883,-0.2903,-0.8887,0.1406,0.2866,-0.277,0.0755,0.4844,0.601,0.1914,-0.0003254,-0.0876,-0.2289,-1.353,0.1752,-0.5825,0.1339,-0.12305,0.08203,-0.4075,0.2465,-0.0762,0.00746,-0.2294,0.03287,0.4812,-0.4338,-0.005573,0.056,-0.5415,0.2878,-0.6016,0.5337,-0.4294,0.261,0.2664,-0.3438,0.00797,-0.548,0.0358,0.2605,-0.1295,0.2786,0.1647,-0.1289,-0.727,0.1213,0.3635,0.4338,0.8022,0.4348,-0.4749,0.1699,0.002481,-0.01444,-0.1263,-0.2269,-0.382,-0.5757,-0.2119,-0.605,0.3848,0.1725,-0.139,0.03108,0.1582,-0.1398,-0.7266,0.1393,0.2295,0.7437,-0.1752,0.875,0.6216,0.814,-0.1042,-0.7075,0.187,0.04782,0.647,0.04654,0.3164,-0.4077,-0.4563,0.608,-0.319,-0.598,0.1484,-0.1823,-0.2338,0.6094,0.00578,-0.142,0.3494,0.03433,0.2305,0.2389,0.2257,-0.8984,-0.5938,0.000651,0.47,0.1549,0.4158,0.361,0.2383,0.142,0.181,1.216,-0.8228,0.05566,-0.2585,0.04752,-0.324,-0.5396,0.4617,-0.2058,-0.52,0.3616,0.5327,0.344,0.00228,0.1505,-0.0153,0.4875,-0.574,0.551,-0.04282,-0.096,0.09174,-0.2411,-0.056,0.824,-0.1926,0.265,-0.2281,-0.1471,0.1348,-0.652,0.383,-0.002686,0.857,-0.0999,0.02925,0.4407,0.2708,0.4539,0.2812,0.1318,-0.0693,-0.4124,0.04678,0.00944,0.3916,0.10614,0.322,-0.2338,-0.4382,-0.0223,0.549,-0.5464,0.1543,-0.1425,0.2472,-0.3533,-0.3152,0.3857,-0.4678,0.2285,0.4104,0.717,0.06415,0.01758,-0.2554,0.1738,-0.1917,0.947,0.09375,0.2612,-0.56,0.207,0.5806,-0.2433,-1.071,0.05762,0.59,-0.4568,-1.25,-0.0739,0.116,0.629,0.1087,-0.5005,-0.08856,0.1748,0.1986,0.2109,0.5454,-0.412,0.2773,-0.009926,-0.3345,-0.1877,0.0299,0.174,-0.5293,-0.3762,-0.3218,0.02449,-0.02075,-0.2369,0.3806,-0.4539,-0.02849,-0.3086,0.3008,-0.297,-0.755,0.151,0.3298,-0.0664,0.1009,-0.3135,0.7764,-0.6445,-0.1705,-0.1157,0.4062,0.1674,0.11395,0.3337,0.09265,0.2522,0.3284,0.1086,-0.06415,-0.5547,0.08466,-0.637,-0.561,0.3513,0.378,0.1918,-0.6187,0.04688,0.0847,0.549,-0.001953,-0.9336,0.7266,-0.7935,0.1766,0.5703,-0.04346,0.801,0.1564,0.5356,-0.2203,0.003906,0.02278,0.05307,-0.2357,-0.01595,-0.5522,-0.767,0.5225,-0.4778,0.5864,0.3582,0.47,0.08673,-0.3887,0.197,0.0433,-0.42,-0.1869,-0.09155,0.639,0.2155,-0.586,0.09955,-0.1742,0.0633,-0.2109,0.00814,0.1324,0.11475,0.2448,-0.228,0.5938,0.539,-0.3572,0.3848,0.5776,0.3281,-0.49,0.7427,-0.01188,-0.1688,-0.5034,0.0547,0.0656,0.04785,0.4797,0.112,-0.3508,0.0893,0.0628,-0.732,0.4163,-0.2217,0.3318,0.5347,-0.10675,-0.412,-0.3225,-0.01516,0.168,0.619,-0.03824,-0.4612,-0.1084,-0.2076,0.3528,0.1877,0.2393,-0.0547,-0.595,-0.365,0.9634,0.441,0.5005,0.293,0.3113,0.1373,0.2318,-0.2773,0.544,-0.3525,0.002441,-0.1361,0.1752,0.267,0.005005,-0.02505,-0.1448,0.517,-0.1973,0.4495,-0.5464,0.2255,-0.0727,0.532,0.3699,0.599,0.162,-0.3203,-0.128,-1.199,-0.646,0.2883,0.1781,0.3044,0.5366,0.2034,-0.372,-0.05405,-0.4922,-0.194,-0.3,0.183,0.1986,0.347,-0.11554,-0.628,0.511,-0.875,1.034,0.2076,-0.3574,-0.389,0.5347,-0.715,-0.10223,0.1547,-0.03906,-0.1422,0.009766,-0.02376,0.5894,0.1793,-0.07294,0.569,0.494,0.0651,-0.2247,-0.3308,1.082,-0.4968,-0.4773,0.0801,0.283,-0.455,0.05014,0.1776,-0.8696,0.2123,-0.1123,0.1508,-0.0671,-0.08136,0.3372,-0.47,0.1901,-0.1578,-0.448,0.1996,0.4597,0.1855,-0.03775,-0.6074,-0.5454,-0.3308,-0.1372,-0.0872,-0.1625,-0.2408,0.2329,-0.1797,0.4443,-0.1952,-0.3672,-0.2698,-0.02736,0.18,-0.405,-0.06186,-0.547,-0.2487,-0.551,0.2832,1.29,0.3967,0.1793,-0.281,-0.2766,-0.3958,-0.0651,0.5054,-0.2207,-0.6733,-0.3667,-0.2211,0.6587,0.0794,-0.0745,0.9478,0.0757,1.099,-0.2296,-0.3333,-0.1959,0.09375,-0.3516,-0.5903,-0.553,0.01985,-0.2861,-0.576,-0.04068,-0.345,0.662,0.0634,0.2996,0.007324,-0.0744
ankle,0.5283,0.1953,-0.2026,0.0606,0.3984,-0.2479,0.1732,-0.543,-0.2443,0.5664,-0.04172,-0.762,0.6147,-0.6777,0.1862,0.534,0.3716,0.0524,0.4126,-0.446,0.0892,0.0741,0.0809,0.02039,0.349,-0.1527,-0.9346,-0.607,-0.587,0.736,-0.4006,-0.3396,0.218,-0.3381,-0.682,-0.00357,0.6177,0.692,0.571,0.0894,0.06,0.03983,-0.631,-0.0395,-0.2213,0.5596,0.1741,-0.4756,0.2769,0.2842,-0.1863,-0.573,-0.2747,0.0692,-0.00847,0.1434,-0.0976,0.1359,0.3918,0.6704,-0.09625,0.05707,0.2292,-0.08075,-0.4946,0.136,0.2233,0.2917,-0.7847,-0.3315,0.03378,-0.516,-0.432,0.4985,0.04428,-0.1431,-0.00474,-0.266,0.1263,0.1779,0.02296,0.2659,0.1981,-0.551,0.0885,-0.1263,-0.05084,-0.2317,0.3398,-0.1624,0.468,-0.007652,-0.1076,-0.504,-0.2115,-0.564,0.1794,-0.1715,-0.3867,0.2018,0.043,0.10944,-0.1663,0.3635,0.359,-0.3398,-0.1893,-0.01991,-0.462,0.056,0.51,-0.01536,-0.07465,0.2742,-0.11206,-0.3862,-0.3992,-0.7734,0.2179,-0.2158,0.004448,-0.0757,-0.0442,-0.66,0.1288,0.4944,0.7856,0.696,-0.04874,-0.2656,-0.142,0.1738,-0.1547,0.2084,-0.10864,0.0837,0.5063,-0.1969,-0.1384,0.2408,0.1974,-0.1648,0.3508,-0.4468,0.1746,0.2435,-0.224,0.7383,0.1675,-0.3684,0.1085,-0.523,-0.401,-0.01878,-0.9233,-0.464,-0.933,0.1433,0.1376,-0.5376,-0.3545,0.481,0.538,0.1632,-0.2976,0.1443,0.1423,-0.277,-0.1769,-0.07056,0.11224,-0.05206,0.3103,0.3467,-0.01999,-0.0832,-0.401,0.2036,0.251,0.202,-0.128,-0.0406,0.11206,-0.1681,-0.558,-0.0785,-0.2854,0.0822,0.8726,0.1273,0.2384,0.4294,0.01049,0.4907,-0.2466,0.02547,-0.5933,0.02444,0.07904,-0.415,0.1637,0.1566,-0.271,0.2986,-0.4539,0.0138,0.05103,0.2568,0.4294,0.3765,0.4607,-0.1431,-0.4382,0.4543,-0.687,-0.3113,-0.457,-0.104,-0.2085,0.5874,0.2247,-0.01665,-0.3499,-0.4983,-0.1475,0.4219,-0.3796,0.2151,0.3296,-0.04214,0.0325,0.05475,-0.0166,0.885,-0.4094,-0.10986,-0.0644,0.2448,0.385,-0.5845,-0.289,0.394,-0.04535,-0.01363,0.1826,-0.3499,0.1282,-0.2198,0.1552,-0.02487,0.6846,0.10016,0.8525,0.06415,-0.4941,-0.2258,-0.2356,-0.2903,-0.6333,-0.03513,0.013885,0.3271,0.4136,-0.1652,0.1691,0.03305,-0.1805,0.934,-0.622,-0.1183,0.5513,0.452,0.9224,0.10126,-0.243,-0.676,0.1886,0.0764,-0.1733,-0.0636,-0.1025,0.2351,-0.356,-0.2487,0.273,-0.09045,-0.1692,-0.478,-0.209,0.4475,0.1226,-0.11957,0.2136,0.4277,-0.4695,0.5273,0.10583,0.4343,-0.7197,-0.703,-0.2161,0.856,0.5713,0.04324,0.1123,-0.0714,-0.262,0.04074,0.1249,0.8926,-0.2086,-0.1042,0.2646,-0.1084,0.1948,0.87,0.2004,0.01061,0.208,0.1893,0.4077,-0.5635,0.3018,0.2566,-0.3354,0.08203,0.5293,0.1516,-0.07056,0.323,-0.4307,-0.4863,-0.902,0.3494,-0.08936,-0.717,0.02425,0.158,0.09827,0.0646,-0.11664,-0.07263,-0.5557,0.5474,0.4429,-0.3708,0.512,-0.3281,0.5874,-0.1273,0.0842,-0.3767,-0.2236,-0.1757,-0.1771,0.03818,-0.0239,-0.032,-0.1666,-0.335,0.1631,-0.08905,0.1805,0.05798,0.3635,0.1138,0.02336,0.1647,-0.277,0.6895,-0.3538,0.4258,-0.1594,-0.5938,0.439,-0.0419,-0.2864,0.2817,-0.3088,-0.9307,-0.5244,-0.1759,0.4438,-0.26,0.4695,0.5796,0.2798,-0.07355,-0.2795,0.26,-0.386,0.02332,0.1677,0.05884,-0.2444,-0.0324,0.2466,0.0799,0.32,0.2123,0.2727,-0.8413,0.10455,0.413,-0.5527,-0.421,0.3027,0.816,0.4368,-0.2325,0.1183,-0.135,0.3115,-0.4663,0.5176,-0.074,0.2788,-0.485,0.3027,-0.401,0.6514,0.0965,-0.003162,-0.3982,0.1471,0.0446,0.09863,0.1168,-0.1951,-0.2131,-0.289,-0.545,-0.10516,0.2113,-0.574,-0.3176,-0.32,-0.2024,0.7534,0.1396,0.672,0.1772,-0.2656,-0.1915,0.2544,0.4243,0.153,0.2426,-0.4424,0.0212,-0.3745,0.09406,-0.292,-0.02853,0.1472,-0.1754,-0.4153,-0.316,0.1877,-0.3037,0.0748,-0.2205,0.07025,-0.768,-0.3308,0.2668,0.7935,-0.2426,-0.3745,-0.4194,0.2073,-0.2888,0.204,-0.5034,-0.1282,-0.39,0.4285,0.637,-0.2986,-0.289,0.4521,-0.3582,0.728,-0.553,0.5063,-0.1703,-0.2695,-0.1085,0.4712,0.4746,-0.3848,0.1896,0.673,-0.2203,0.718,0.12494,-0.2129,0.428,0.206,0.1119,-0.2944,-0.276,0.4143,-0.3804,-0.08954,-0.145,0.09564,-0.2207,-0.677,0.351,0.3862,-0.5454,0.3657,0.04468,-0.131,0.3557,0.02698,-0.0754,-0.4077,0.28,0.1547,-0.626,0.4307,0.0362,-0.2235,0.1415,0.4338,-0.6665,-0.6543,-0.3223,0.467,0.3938,0.849,0.8174,-0.1925,-0.1575,-0.0238,0.1049,0.958,0.3452,0.5527,0.399,-0.1265,-0.0886,-0.4998,0.5435,0.6143,0.3723,-0.7085,0.3474,-0.6265,0.2786,-0.04956,-0.562,-0.1161,0.1737,-0.357,0.141,-0.2646,0.0441,0.1649,0.1478,-0.06433,0.06775,-0.433,-0.3538,-0.4546,0.3445,0.3816,-0.8286,-0.6157,0.451,-0.533,-0.4055,0.12415,0.05002,0.7295,0.177,0.1556,-0.1114,-0.5303,0.4573,-0.6816,-0.044,-0.2406,-0.0822,0.5835,0.312,0.0791,-0.1796,-0.05292,-0.128,-0.0523,-0.1046,-0.2048,-0.225,0.2886,0.2727,-0.1514,0.10034,0.3647,0.1945,-0.03653,-0.4104,0.1924,0.4207,-0.4944,-0.3232,0.2158,0.4863,-0.08954,-0.1575,0.06235,0.03473,-0.1186,0.2844,0.1962,-0.09576,-0.01351,-0.1472,0.2927,-0.1743,0.2196,-0.06226,-0.3936,0.005276,0.2605,0.3142,0.0623,0.449,-0.4458,0.2114,-0.02109,0.05075,0.4448,0.361,0.1653,0.558,0.1672,-0.5845,0.4124,0.389,0.3484,0.1434,0.1559,0.04514,-0.0466,0.195,-0.3652,-0.243,0.0817,-0.4116,-0.271,-0.2896,-0.3545,0.2106,0.3127,0.2377,0.24,-0.364,0.3076,0.7905,0.02055,-0.09985,0.4927,0.552,0.0764,0.2181,-1.134,-1.191,-0.54,-0.94,-0.191,0.1924,-0.11957,0.205,0.144,-0.2537,-0.3096,0.4817,-0.02623,-0.295,0.4219,0.01955,-0.607,0.2861,0.2488,0.05075,-0.41,0.2886,0.178,-0.0909,0.722,0.01823,-0.595,-0.542,0.05255,-0.0541,-0.1328,0.1547,-0.2913,0.03802,0.10364,-0.04227,0.3555,-0.05502,0.01817,0.3523,0.3533,0.2343,0.255,0.5254,-0.1893,-0.06287,-0.324,-0.3171,0.1566,0.543,-0.4263,0.6826,0.443,0.2751,-0.3354,0.05972,0.05704,0.2512,0.2251,-0.4143,0.364,-0.7734,0.3674,-0.537,-0.003847,0.845,0.4036,-0.9424,0.6,-0.3242,0.4043,-0.2189,0.05948,0.4788,-0.6235,-0.584,-0.687,0.9478,0.4407,-0.3215,0.6914,0.04184,0.1362,-0.1364,-0.674,-0.1545,0.196,-0.3408,-0.2179,0.529,0.138,-0.2302,-0.06335,-0.2908,-0.516,-0.6147,0.09595,-0.4683,0.11615,-0.3218
apple,-0.0979,-0.8423,0.2932,-0.03012,0.3142,0.759,0.7485,-0.1321,0.856,0.555,0.1161,-0.685,0.399,0.6606,-0.2861,0.011215,0.8213,-0.02077,-0.003506,0.0899,0.454,0.3442,0.893,0.1292,0.00723,-0.3684,-0.1921,0.1426,-0.4392,0.01531,0.06696,-0.534,0.337,-0.2482,0.03207,0.0474,0.1114,0.3445,-0.1581,0.03485,0.1311,-0.0761,-0.2979,0.397,0.1573,-0.0625,0.5503,0.367,0.11816,0.3433,-0.1289,0.01401,0.0523,-0.239,0.212,-0.1708,0.1989,-0.4321,-0.2124,0.895,-0.1194,-0.3713,0.1002,-0.3838,0.1094,-0.075,0.11835,-0.4204,-0.0902,-0.6855,-0.4377,-0.4106,-0.261,-0.4983,-0.3643,-0.2925,-0.057,0.01976,-0.07513,0.737,0.11584,0.3586,-0.3042,0.3657,0.418,-0.2532,-0.09235,-0.249,0.05103,0.302,0.4644,0.5674,-0.1431,0.2952,-0.3562,-0.07684,0.392,0.109,-0.1472,0.01741,0.331,0.2291,-0.3994,-0.0349,-0.2234,-0.03955,0.555,-0.7637,0.3591,0.0681,-0.458,-0.4458,-0.1346,-0.403,-0.0382,0.04355,-0.1621,-0.1644,-0.34,-0.0939,0.2515,-0.2128,0.65,-0.6323,-0.1267,0.72,0.6743,0.04974,0.226,-0.2345,0.1511,0.309,0.1405,0.4893,-0.0676,0.2034,-0.07916,-0.02663,-0.1514,-0.07666,-0.07806,-0.2135,-0.2544,-0.582,0.2625,0.3704,-0.2988,-0.0778,0.2262,0.5005,0.369,-0.2228,-0.2969,-0.298,-0.08356,-1.024,-0.04196,0.1437,1.047,0.294,-0.012,0.1378,-0.00636,-0.00768,0.2178,0.3096,-0.2235,0.543,0.3433,-0.00786,-0.2676,-0.125,0.647,-0.201,0.2153,0.1882,-0.7207,0.4902,0.725,0.3457,-0.1001,-0.2117,-0.2389,-0.1687,0.4202,-0.2896,0.03564,0.002254,-0.0677,-0.2449,-0.1718,-0.0744,-0.2343,0.3462,-0.5356,-0.3474,-1.367,0.2448,0.3433,0.08405,-0.4778,0.595,0.1504,0.1583,-0.7524,0.03604,-0.3713,0.4604,0.2803,-0.00851,0.1501,-0.252,-0.3704,0.1147,-0.4495,-0.2974,-0.3203,0.0584,0.0706,0.1382,0.7207,0.06757,-0.3186,-0.833,0.4924,0.03061,-0.01067,-0.0895,-0.0668,-0.05847,0.1033,-0.3762,-0.6143,0.3076,0.3757,0.5234,-0.2355,-0.2786,-0.0753,-0.155,-0.3977,-0.1461,0.3452,-0.2009,-0.00692,-0.316,-0.2502,0.3286,0.04883,-0.11646,0.591,-0.498,0.4973,0.2605,-0.639,-0.2954,-0.3035,-0.326,-0.2576,0.264,0.6357,0.02115,0.3564,0.2505,0.4531,-0.2338,-0.2761,0.1991,-0.10767,0.242,-0.351,0.1073,0.1087,0.2705,0.4565,-0.3079,-0.008865,-0.1064,-0.1716,0.5547,-0.2365,0.3206,0.2418,0.1478,-0.966,0.2942,-0.1067,-0.1067,-0.66,-0.003471,0.1243,-0.1143,0.006363,0.3474,-0.797,-0.4849,-0.2301,0.08,-0.2468,-0.1617,0.076,0.4338,1.295,-0.02013,-0.0723,-0.8066,0.026,-0.7437,0.1392,0.2319,-0.3591,0.3743,-0.2986,-0.0698,0.2083,0.4258,0.1825,0.07434,-0.02118,0.02051,-0.1738,0.08356,0.1305,-0.2615,0.1288,-0.02579,0.2339,-0.1465,-0.1616,0.2448,-0.1642,-0.1859,0.4192,-0.3171,0.1107,-0.3262,-0.5586,-0.374,0.3135,0.1068,-0.485,0.11835,0.2405,0.3245,-0.4797,0.297,-0.03137,-0.624,0.367,0.1594,-0.3467,0.4243,0.1329,-0.3323,0.1863,-0.1523,0.1967,0.7236,-0.01051,-0.386,0.88,-0.1859,0.2341,0.1126,0.2328,-0.2983,-0.0764,0.2761,-0.2327,0.2417,0.1827,0.1758,-0.4888,-0.2311,-0.892,0.1418,0.405,0.2328,-0.1462,-1.057,-0.1974,0.3875,0.22,-0.2087,-0.3887,0.941,0.2578,-0.3154,0.3337,0.5264,-0.0753,-0.1311,-0.4065,0.4626,-0.0407,-0.1472,0.7515,0.3955,0.1809,-0.6074,0.507,-0.423,-0.02368,0.4492,0.1831,0.0667,0.433,0.3723,0.141,0.205,0.6294,-0.332,0.392,-0.4712,-0.2115,-0.4968,0.1853,-0.173,0.1434,-0.4353,0.4858,0.10864,-0.01836,-0.1885,0.1748,-0.2489,-0.2052,-0.2039,-0.1461,0.2346,-0.6777,0.2988,0.2021,0.4236,-0.748,0.0082,0.3171,-0.08264,0.5356,-0.07605,-0.02588,-0.2146,-0.08936,0.08215,-0.1349,-0.06055,0.04074,0.01403,-0.0193,0.1685,-0.8022,0.04636,0.4504,0.1958,0.3064,0.3433,0.09467,0.010506,-0.5093,-0.3774,0.4456,-0.1302,0.064,-0.1788,0.02922,-0.342,0.2445,-0.5015,1.012,0.7266,-0.03168,-0.03415,-0.02101,0.4731,0.11847,-0.10565,0.3235,0.486,-0.296,-0.3083,-0.301,-0.721,0.729,-0.3765,0.4104,-0.554,-0.4365,-0.4778,0.1034,0.0292,-0.2183,-0.2438,0.1918,-0.5796,-0.1853,0.10614,-0.257,0.01683,0.02742,0.0908,-0.5405,0.0492,0.2438,1.144,0.0826,-0.04837,0.1293,0.533,-0.959,-0.01822,0.04657,-0.12103,-0.2625,-0.503,0.42,0.3643,0.5586,-0.05994,0.297,-0.583,0.0819,0.2942,-0.2651,-0.2144,-0.6484,-0.6343,-0.0282,-0.2435,-0.551,-0.0363,0.384,0.1532,0.258,0.2878,0.06274,-0.0474,-0.1357,-0.5474,0.7256,-0.7075,0.5547,-0.2812,0.2585,0.014595,-0.3105,0.4539,-0.274,0.09125,-0.3328,0.1981,0.335,-0.0655,0.2155,-0.1135,-0.4622,-0.8843,0.512,0.3955,-0.222,0.3748,-0.05585,0.5884,-0.673,-0.1984,-0.06573,-0.0731,-0.2382,-0.2844,-0.5635,-0.1605,-0.736,-0.422,-0.2732,-0.1067,0.2976,0.0756,0.1221,0.695,-0.3699,-0.2103,0.624,0.3503,-0.1102,-0.6025,-0.1576,0.1368,-0.0348,0.2585,-0.0762,0.0954,-0.1527,-0.1761,-0.656,-0.3008,-0.3577,-0.1147,-0.01088,-0.0494,0.1879,-0.968,0.1896,0.3154,0.2059,-0.0982,0.3525,0.2998,-0.4236,0.771,0.5864,0.06525,0.2129,0.2172,0.01237,0.2866,-0.1067,-0.01249,0.02744,0.0745,-0.5366,0.0457,-0.7524,0.297,0.2101,-0.877,-0.575,0.267,0.02567,0.2563,0.11005,-0.3833,-0.2284,0.06903,-0.7197,0.8667,0.3772,-0.0726,-0.3713,-0.2585,0.2454,-0.1371,0.09204,0.1974,-0.1241,0.00513,0.531,-0.501,-0.2435,0.2344,-0.5923,0.5986,-0.6157,-0.3118,0.0693,-0.3066,0.0323,0.299,-0.0645,-0.0664,-0.4866,0.1211,0.1788,0.4182,-0.1649,0.2156,-0.149,0.00544,-0.4775,0.1783,-0.4958,0.007156,-0.05453,-0.0914,-0.1852,-0.2139,0.4045,-0.2493,0.2683,0.2954,0.08563,0.1338,-0.1716,0.1685,0.669,0.3303,-0.2832,0.8467,0.0947,-0.003063,0.4219,-0.2754,0.6973,0.1805,0.38,-0.3774,-0.6846,0.0429,-0.02078,-0.1189,0.04092,0.3665,-0.004864,0.4573,0.211,0.2048,0.2605,-0.312,-0.1208,-0.718,-0.1643,0.0992,0.7646,-0.1376,0.1329,-0.10547,-0.596,0.092,0.39,0.2045,0.06824,-0.3481,0.3843,-0.777,0.1283,0.1923,-0.3083,0.2717,-0.01235,0.09564,0.1965,-0.244,0.4712,-0.2181,-0.2365,0.5767,0.2117,0.1432,-0.2056,0.1555,-0.2505,0.2295,0.2323,-0.1923,-0.3442,-0.3171,-0.1909,0.0756,0.284,0.263,0.4136,0.3882,-0.66,0.3757,0.223,-0.1539,0.1271,-0.2219,-0.7183,0.7114,-0.5107,0.02655,-0.52,-0.4604,-0.2313,0.4824,-0.1377,0.3875,0.513,-0.2554
applesauce,0.051,-0.2173,-0.077,0.2673,0.3333,0.2065,0.0956,-0.01857,0.4817,0.01848,-0.1705,-0.753,0.2357,0.4954,-0.282,0.06082,0.6597,-0.392,0.0892,0.3237,-0.01816,-0.3342,0.1554,0.3296,0.0824,-0.3152,-0.06256,0.1791,-0.0332,-0.01056,-0.0762,-0.3384,-0.00832,-0.2307,-0.05618,0.1244,0.006382,0.599,0.32,-0.06696,0.2507,0.1748,-0.4849,0.4434,-0.2424,-0.0848,0.623,-0.2091,-0.1888,0.0618,-0.1985,0.5093,0.07117,0.4312,0.0814,-0.2261,0.012344,0.06107,-0.2443,0.2678,-0.2191,-0.0606,0.474,-0.2144,-0.08813,-0.182,0.3528,-0.815,-0.1771,-0.1676,0.05658,-0.8774,-0.138,0.1296,-0.0255,-0.401,-0.2932,-0.3035,-0.06384,0.658,-0.0943,-0.1312,-0.4993,0.2666,0.0485,0.345,0.11694,0.2566,-0.3357,0.2056,-0.541,0.2917,0.2024,-0.3901,-0.6396,-0.206,-0.07196,0.1602,-0.3574,0.1967,0.1678,0.2008,-0.3816,-0.0703,0.1896,-0.4072,-0.3281,-0.7896,0.09625,-0.1398,-0.3853,-0.6367,-0.02856,-0.2239,0.2795,-0.10815,0.0813,-0.2324,0.1798,-0.1444,0.2362,-0.3018,0.04526,-0.0075,0.01773,0.678,0.6577,-0.05685,-0.02225,-0.2218,-0.06976,0.3298,-0.02985,0.0936,-0.03186,0.2006,-0.00412,0.2416,0.047,-0.365,-0.2107,-0.603,-0.1855,-0.6196,0.2898,-0.1189,-0.4485,0.4329,0.6235,-0.253,0.495,0.2118,-0.04428,0.067,-1.466,-0.641,0.03226,0.5293,0.772,-0.081,-0.2979,0.244,0.2715,-0.01822,0.681,-0.04544,-0.2656,0.3506,-0.1582,-0.01654,0.252,-0.08203,0.0714,-0.2186,0.1525,0.1542,-0.02911,0.1515,0.2178,0.6177,0.02866,0.1013,-0.0753,-0.323,0.01807,0.0425,-0.1805,-0.000681,0.3828,-0.4314,-0.0611,0.1393,0.1808,0.3647,-0.4001,-0.442,-0.2345,-0.3306,0.02647,0.2318,-0.02174,1.002,0.02502,0.1225,0.1259,0.1727,-0.01407,0.4263,-0.1525,0.10876,0.5034,-0.07837,-0.013054,0.2527,-0.317,-0.4465,-0.1676,0.4312,0.4336,-0.01566,0.235,-0.4514,-0.4082,-0.193,0.4465,-0.04025,-0.3994,0.1276,-0.1973,-0.3218,-0.1406,0.0873,-0.5425,-0.07886,0.01283,0.1175,-0.1611,0.496,-0.2018,-0.886,-0.293,-0.2725,0.005226,-0.19,-0.0602,-0.413,-0.0882,-0.2922,-0.07306,0.153,0.4727,-0.535,0.56,0.05365,-0.3564,0.04117,0.0728,-0.3784,-0.97,0.68,0.02187,0.01487,-0.0797,0.508,0.4075,-0.11786,-0.231,0.0505,-0.2313,-0.1633,0.02231,-0.003847,0.2676,0.7827,0.1787,-0.02557,-0.0864,-0.0925,-0.11975,0.234,-0.4058,-0.04898,0.03265,0.2198,0.12085,0.267,0.0728,-0.419,0.25,-0.2861,-0.3726,0.1089,0.283,0.409,-0.876,-0.2688,-0.04526,0.1267,-0.028,-0.2034,0.4033,0.4062,0.4653,-0.01173,-0.3767,0.2201,0.5005,-0.2095,0.10486,-0.658,-0.4375,0.1934,0.1433,-0.1276,-0.0512,0.2659,0.2104,0.346,0.0402,0.1536,0.2404,-0.4326,0.03102,0.1359,0.1166,-0.1609,0.2335,0.0491,0.2678,-0.005966,-0.3257,0.1393,-0.0992,0.6543,-0.1619,0.0785,-0.3027,0.0909,0.1174,-0.01688,-0.0871,0.2515,-0.3132,-0.2566,-0.3535,0.4146,0.2474,-0.4602,0.3572,0.344,-0.0886,-0.3013,-0.2289,0.139,0.2375,0.3306,0.3484,0.4226,-0.2788,-0.2164,0.2717,0.1248,0.1998,0.1123,0.222,-0.4343,0.13,0.2952,-0.4011,0.4312,-0.05777,0.182,-0.1685,-0.561,-0.10895,0.0626,-0.0704,-0.263,0.07745,-0.5386,-0.3206,0.1951,0.806,-0.01214,-0.02489,0.613,0.2313,0.0951,0.1409,-0.0547,-0.184,0.03757,0.2225,0.3215,-0.1991,-0.2976,0.6978,0.0862,0.4004,-0.0566,0.2905,-0.3875,0.324,0.593,0.03586,0.08716,0.007675,0.4897,0.3496,-0.2798,0.3071,-0.05444,0.2279,-0.1294,0.698,-0.3892,0.0774,0.1106,0.11804,-0.501,0.04492,0.02295,0.00997,-0.1973,-0.3137,-0.06964,0.102,-0.05194,-0.2296,-0.03873,-0.5,-0.0475,0.4775,0.2313,-0.2988,-0.10815,0.0431,0.2808,0.1729,-0.2408,0.682,-0.128,-0.484,0.04855,0.2141,-0.01154,0.3933,-0.01813,0.1178,-0.2487,0.309,-0.1335,0.3115,-0.01967,0.2612,-0.3167,-0.05203,-0.3271,0.2225,-0.2617,-0.3447,-0.02818,0.109,-0.2341,0.09265,-0.1708,0.393,-0.3982,0.478,0.3894,-0.1646,-0.09375,0.2595,0.4304,0.3435,-0.1646,-0.2365,-0.0252,0.0002477,-0.0974,-0.1565,-0.583,0.758,0.1674,0.1653,-0.72,0.1177,-0.0665,0.2888,0.2172,0.323,-0.203,0.2422,-0.2355,0.1523,0.1357,0.037,0.273,-0.01668,0.01967,0.06726,-0.313,0.0616,-0.1167,-0.2323,0.0486,0.1065,0.2183,-0.8228,0.5156,0.4531,-0.5566,-0.3826,-0.1317,0.3875,-0.119,0.504,0.2883,0.1826,0.1768,0.061,0.0962,-0.2803,-0.27,-0.2313,-0.1362,0.2063,-0.0552,-0.2815,-0.2264,0.2355,-0.1322,0.705,0.4753,-0.1001,0.1483,-0.0511,-0.739,0.359,-0.5015,0.2484,0.09515,-0.4617,-0.03796,0.05817,0.4773,-0.00818,0.0712,-0.2196,0.1134,0.04416,0.281,0.01065,-0.4084,-0.3423,-0.2957,0.511,-0.2751,-0.411,0.1387,0.29,0.3516,-0.2812,-0.2255,0.2242,0.3896,-0.08014,-0.3237,-0.1348,0.10516,-0.1876,0.0659,-0.1699,-0.2856,0.3984,0.03384,0.5435,-0.2356,0.343,-0.4575,0.0621,0.3735,-0.4558,-0.6484,0.2317,0.11957,0.3127,-0.1511,-0.2734,-0.005623,0.0879,-0.372,-0.1453,0.1526,-0.1542,-0.664,0.2135,-0.7466,0.3547,-0.7363,0.4692,-0.02074,-0.02931,-0.1959,0.3767,-0.0238,-0.2441,0.5303,0.2284,0.1992,0.0746,-0.0773,-0.2084,-0.764,-0.011055,-0.1611,-0.245,0.02405,0.3513,0.1768,-0.5967,0.3896,0.1707,-0.4475,-0.4749,-0.1102,0.402,-0.00818,0.004288,-0.2588,-0.479,-0.1301,-0.1158,0.3289,0.2441,0.4902,-0.1372,-0.309,-0.0876,-0.1017,0.08453,0.1349,0.01301,-0.0706,0.2053,-0.3274,0.1373,0.1123,-0.07666,0.1761,-0.5635,-0.212,-0.1576,-0.279,0.505,0.2986,0.2471,0.1016,-0.0946,-0.175,-0.3464,0.1617,0.00988,0.3608,0.3213,-0.0433,-0.10785,0.2072,-0.8486,0.0813,-0.342,-0.5225,-0.03357,0.04123,-0.4126,-0.2556,0.01083,0.0533,0.0733,0.3782,-0.4453,-0.010574,0.3857,0.00755,0.0555,0.1572,-0.3215,0.04813,0.01323,0.558,0.4458,0.11395,0.08594,0.09357,-0.8413,-0.1771,0.1091,-0.04343,0.04056,-0.0357,-0.2083,-0.1573,-0.11316,0.1904,-0.1407,-0.01634,0.0673,-0.1625,-0.1387,0.06415,0.02185,0.384,-0.0902,-0.1884,0.02995,-0.02864,0.3105,-0.1377,-0.08014,0.0805,0.6084,-0.0796,0.131,-0.2225,-0.1676,0.3643,0.008514,0.2157,-0.08734,-0.4763,-0.0245,0.2593,-0.04572,0.8086,0.2155,0.066,-0.1218,-0.02449,0.2091,-0.002016,-0.1486,0.1464,-0.2466,-0.07983,-0.4128,-0.1866,0.1533,0.01453,0.4404,0.606,0.00123,0.2786,0.04614,-0.07605,0.1179,-0.1744,-0.6567,1.022,0.2393,-0.02829,-0.2166,-0.166,-0.2003,0.11096,-0.0865,-0.03906,-0.155,-0.3003
arm,0.1359,-0.2026,-0.3367,0.09644,0.542,-0.0829,-0.081,-0.5244,-0.7773,0.0791,-0.1831,-0.4377,0.2544,-0.4495,-0.02342,0.1995,-0.0409,-0.3105,0.11743,-0.2356,0.04196,-0.00849,0.0873,0.1793,0.22,-0.1912,-0.1497,0.1016,-0.2496,0.4094,-0.3052,-0.509,0.1071,-0.401,0.1965,-0.07654,-0.1355,0.3657,1.061,-0.0532,-0.0953,0.0731,-0.376,-0.0009546,-0.09894,0.0332,0.8037,-0.08496,-0.1056,-0.2358,0.0404,-0.1951,0.467,0.1593,-0.3672,0.06122,0.06525,0.3933,0.08887,-0.008026,0.08435,0.2074,-0.358,-0.04114,0.354,0.2223,0.1542,-0.03192,-0.722,0.383,0.168,-0.4714,0.1436,0.2255,0.4397,-0.1918,0.3296,-0.21,-0.7983,0.2874,-0.1305,-0.1647,-0.0628,-0.09753,-0.0671,-0.5527,0.0459,0.1809,-0.145,0.02808,-0.2974,-0.0672,0.003063,-0.212,-0.25,-0.1818,-0.005344,0.0428,-0.499,0.1705,0.3882,-0.1203,0.04416,0.178,0.04962,-0.1731,0.08923,-0.2998,0.0629,-0.1228,-0.3843,0.06,0.007034,-0.04987,-0.01337,-0.1365,0.1278,-0.1831,0.2491,-0.399,0.08386,-0.1548,0.2045,0.005783,0.1625,0.4453,0.8647,0.2012,-0.2788,-0.04333,-0.2238,0.0225,0.01733,-0.02187,-0.0675,0.05832,0.1289,0.2037,-0.1715,-0.2279,0.2808,-0.6675,-0.0903,-0.326,0.11005,0.0921,-0.5444,0.569,0.2834,-0.2239,-0.2084,0.12103,-0.11237,0.11847,-0.911,0.1522,-0.2698,-0.06354,-0.3765,0.05038,0.02228,0.04376,0.3003,0.2086,-0.1061,-0.1659,0.4646,0.233,-0.1423,-0.0835,0.1818,0.2057,0.2485,0.09705,0.1028,0.01869,-0.0536,-0.1066,-0.0373,0.01263,-0.014114,-0.0765,0.1166,-0.0691,0.2029,0.2073,-0.02301,0.10834,0.7285,-0.02078,-0.01498,0.4658,0.3032,0.1287,-0.0004253,0.0425,-0.3218,-0.06757,0.1159,-0.1367,0.1759,0.3591,0.11365,0.08453,-0.1575,-0.0517,-0.1339,0.2524,0.1919,0.5264,0.3608,-0.05182,-0.0879,0.6074,-0.27,-0.269,-0.2225,-0.0925,0.3523,0.196,0.02922,0.1467,-0.09674,0.2983,0.1573,-0.1794,-0.0685,-0.1891,0.101,-0.0211,0.0328,-0.03214,0.02519,-0.04575,-0.144,-0.03044,0.189,-0.1808,0.214,-0.169,-0.0827,0.4358,-0.1276,-0.096,0.10767,-0.1818,0.12384,0.03137,-0.0444,-0.2281,0.1855,-0.01733,-0.1414,-0.1051,-0.2408,-0.1506,0.007126,0.00833,-0.3113,-0.03705,-0.2559,-0.05954,0.1753,0.2302,0.1353,-0.2439,0.04483,0.57,-0.11334,-0.3955,0.06216,0.2554,0.2314,0.4326,0.10284,-0.6025,0.1667,0.2068,-0.1653,-0.0548,-0.273,0.3735,-0.0764,0.2634,-0.002775,0.1159,0.2683,-0.09845,-0.0841,0.1296,-0.2104,-0.3853,0.0823,0.262,-0.975,-0.01335,-0.0961,-0.09735,-0.541,0.004665,-0.01284,0.4226,0.02708,0.0325,0.05762,-0.0968,0.1552,0.1302,-0.327,0.4402,0.014656,-0.04428,0.08203,-0.2803,0.1284,0.286,0.0765,-0.00976,0.26,0.0852,0.2983,-0.014366,0.04828,0.2502,-0.04898,-0.2827,0.2031,-0.04584,0.1287,0.06244,-0.761,0.0381,-0.2056,0.01426,-0.015,-0.413,-0.12115,0.1088,0.2546,0.1868,-0.1614,-0.2534,-0.1722,0.12335,0.1603,0.09784,0.1649,-0.4268,0.3218,-0.2345,-0.08,-0.011284,-0.2194,0.4175,0.2008,0.3164,0.1373,0.3064,0.005836,0.1008,0.3955,0.0801,0.1746,0.1324,0.1827,-0.1677,-0.165,-0.1547,-1.042,0.4358,-0.1525,0.4053,-0.05072,-0.1626,-0.0872,0.01582,-0.2407,0.06824,0.0158,-0.3203,0.2252,-0.0711,0.2408,-0.1263,-0.0617,0.2365,0.06223,0.1477,-0.1997,0.03134,-0.7964,0.085,0.139,0.013214,0.1425,-0.2854,-0.039,0.028,0.6797,-0.155,0.1448,-0.264,0.4185,0.2455,-0.03217,-0.05685,0.04172,0.189,0.2137,-0.1516,-0.2825,0.1023,0.1375,-0.00685,0.0749,-0.2328,0.1968,0.0168,0.2015,0.1165,0.166,0.06415,-0.319,-0.3962,0.09546,-0.1311,-0.11743,0.3909,-0.179,0.01941,-0.3281,0.0516,0.342,0.0803,-0.0949,0.05484,0.04367,0.3115,0.2319,0.1791,0.1881,-0.05508,-0.4478,0.05182,-0.5825,0.0413,0.2057,-0.007553,0.1008,-0.2717,0.1278,0.2544,-0.04123,-0.00426,0.2742,-0.1982,0.1978,-0.2852,0.1599,-0.02826,-0.1289,-0.0901,0.4788,-0.08386,-0.1494,-0.02507,0.1322,-0.333,0.04712,0.0474,0.1617,-0.8237,0.01225,0.1217,0.01346,0.0474,-0.04593,-0.205,0.1587,0.0906,0.05542,-0.1254,0.5815,-0.1722,-0.0298,0.1287,0.3118,-0.1615,0.343,0.05692,-0.161,0.00834,0.3574,0.138,0.165,0.106,0.004745,0.4495,0.12445,0.02519,-0.248,-0.1992,0.2566,-0.474,-0.2211,-0.002619,-0.0548,0.2019,-0.1647,0.2668,0.291,-0.5273,0.1292,0.2489,0.1614,-0.077,0.1896,0.118,0.221,0.2463,0.0938,0.221,-0.2023,-0.04456,-0.003368,0.782,0.1625,-0.2418,-0.4688,-0.2546,0.04547,0.2019,0.3538,0.3318,-0.002363,0.0614,-0.0879,-0.337,0.409,0.12415,0.23,-0.0365,-0.379,0.00368,-0.1223,0.07666,0.1567,0.05884,-0.3262,-0.03677,-0.03099,-0.1438,0.1493,0.06586,-0.2216,0.2273,0.0499,-0.2996,0.03485,0.1969,-0.0603,0.1276,-0.1691,-0.001751,-0.1918,0.1416,-0.2424,-0.3325,-0.2944,0.04803,-0.1942,0.3433,-0.2698,-0.1512,-0.12006,-0.05386,-0.2172,-0.319,0.0755,-0.1709,-0.0736,0.302,-0.03195,-0.0871,-0.0881,0.2441,0.4482,-0.1414,0.1693,-0.1476,0.1559,-0.6675,0.1796,-0.1261,0.1627,-0.26,0.2384,-0.196,-0.3816,-0.1418,-0.05972,0.1311,-0.3833,-0.0889,0.1815,0.1747,-0.2656,-0.0955,0.0482,0.10724,0.1633,-0.4434,-0.2277,-0.1403,0.0625,-0.04736,0.2338,0.6143,0.2256,-0.193,-0.338,0.1143,0.327,-0.2725,-0.2418,-0.0887,-0.08923,0.322,0.0958,0.1145,-0.6104,-0.00763,0.1244,0.0777,0.1047,0.004105,0.3682,0.57,-0.4888,-0.02066,0.0654,0.03186,0.0927,0.0952,0.05872,0.5737,0.02599,0.0943,-0.049,-0.1869,-0.1906,-0.05353,-0.2311,0.174,-0.512,-0.0641,0.002419,0.1055,-0.01996,-0.09814,0.12445,-0.04477,0.3596,0.0636,0.193,0.31,0.199,0.3083,-2.135,-0.407,0.1181,-0.3247,-0.0481,0.1203,0.06012,0.1406,-0.00715,0.03998,-0.1765,0.104,-0.1045,-0.0863,0.2646,0.013016,-0.1486,-0.02817,0.1863,0.2605,0.0843,-0.1102,0.1952,0.1556,-0.01278,-0.02966,-0.2306,0.1339,0.282,0.0392,0.03592,0.3083,-0.2141,-0.639,0.05994,0.2021,0.1346,0.0489,-0.2104,0.112,-0.03604,0.0215,0.234,-0.07666,-0.012375,0.04065,-0.5303,-0.007328,-0.057,0.1449,-0.247,-0.502,0.3623,0.582,-0.1545,-0.1013,0.1575,-0.09296,0.003714,0.0584,0.10046,-0.3914,-0.1664,-0.3467,-0.05496,1.392,0.624,0.3704,0.2053,-0.3098,0.208,-0.03134,-0.0791,0.3928,-0.3416,-0.358,0.01476,0.06946,0.04803,-0.1033,0.561,0.2477,0.436,0.07904,-0.3257,0.0857,0.1187,0.02638,-0.0376,0.8267,0.1798,-0.05948,-0.0789,0.05972,-0.2047,-0.0958,0.0519,-0.2659,0.0403,-0.2369
ball,0.3743,-0.658,0.1556,-0.2286,0.283,0.5293,0.5483,-0.01512,0.4639,0.2888,-0.1165,-0.2322,0.4106,-0.2913,-0.07904,0.387,0.568,-0.1553,-0.07166,-0.3342,0.2747,0.1519,0.3806,0.2058,0.4277,0.02242,-0.538,-0.1969,-0.1521,0.2336,-0.107,-0.7837,-0.03143,-0.501,-0.03427,0.1605,-0.04196,0.4592,0.06186,-0.071,0.2695,0.04352,-0.3716,0.1769,0.1142,-0.1555,0.2651,0.014595,-0.3188,0.2683,-0.1559,0.4392,0.1898,-0.0514,0.1344,-0.3013,-0.07587,-0.7964,-0.1298,0.3894,0.10535,-0.1641,-0.0157,0.08594,-0.1796,0.03964,0.001098,-0.407,-0.3728,-0.3677,-0.03079,-0.2974,-0.2678,-0.5913,-0.11163,-0.1879,-0.3652,0.05347,-0.1207,0.684,-0.1726,0.2343,-0.02379,-0.4473,-0.07794,-0.263,0.2812,-0.1815,0.3906,0.03894,0.6025,0.2306,0.06573,0.3376,-0.1635,-0.194,0.0782,0.0354,-0.255,0.2378,0.3447,0.2151,-0.1775,0.3748,-0.1656,-0.4333,0.1556,-0.3909,0.1333,-0.08307,0.04294,0.1111,-0.3477,-0.1576,0.0183,0.02582,-0.701,-0.3145,0.0627,0.3835,0.1135,0.01507,0.642,-0.237,-0.3013,0.536,0.7173,-0.1138,0.11926,-0.1726,-0.1042,0.01107,-0.03607,0.4602,-0.0788,-0.254,0.4077,-0.115,-0.3193,-0.1597,-0.1156,-0.06076,-0.1125,-0.4678,-0.08374,0.013435,-0.6914,0.3394,0.3694,0.2717,0.4043,0.0681,-0.585,-0.3862,-0.192,-0.8022,0.1137,-0.4275,0.682,0.3262,0.1119,-0.1194,0.08026,0.08185,0.0744,0.152,-0.1571,0.12445,0.1142,-0.2866,-0.4854,-0.252,0.38,0.4175,-0.0895,-0.01666,-0.62,0.1919,0.2327,0.04443,-0.2235,0.1965,0.1447,-0.1729,0.349,-0.2847,0.1681,-0.02655,0.02234,0.1123,-0.375,-0.151,-0.07007,0.6953,-0.2673,-0.1426,-0.2668,0.0956,0.1132,0.1521,0.0362,0.07086,-0.01625,0.4614,0.003891,-0.02232,-0.1,0.4895,0.06122,0.03543,-0.004726,-0.402,-0.2842,0.1887,-0.4397,-0.1838,-0.4814,0.1039,0.4668,0.3745,0.5083,0.1451,-0.3948,0.1255,0.6387,-0.2651,-0.1133,-0.4084,-0.29,-0.0855,0.3,-0.2174,-0.2185,-0.2703,-0.0768,-0.1802,-0.1323,0.296,-0.2289,-0.2988,-0.2808,0.189,-0.09375,-0.1144,0.0932,-0.342,-0.2896,-0.0942,-0.03143,-0.2717,0.195,-0.2274,0.153,0.2126,-0.755,-0.2827,0.1292,-0.289,0.1016,0.1923,0.1434,0.0966,0.0697,0.1416,0.1068,0.0776,-0.2654,0.2937,-0.0796,0.425,0.00973,0.06046,-0.08374,0.1317,0.1699,-0.6636,0.2211,0.2146,0.09076,0.2369,-0.2615,0.1968,-0.1472,0.001791,0.0549,0.4048,-0.03235,0.1432,-0.4404,0.202,0.2952,0.1628,-0.0293,-0.001684,-0.958,-0.1456,-0.1635,0.0539,-0.4932,0.2494,-0.015434,0.3489,0.91,0.142,0.0916,0.02174,0.04318,-0.1085,0.07227,0.2247,-0.4573,0.1813,-0.04166,-0.06476,0.3206,0.1776,-0.1445,0.002888,0.01656,0.1261,-0.2272,0.01614,0.068,-0.1334,0.00445,-0.1573,0.4348,0.571,0.1707,0.4277,-0.2434,-0.2717,-0.2122,-0.372,-0.2139,-0.1969,-0.2166,0.1244,0.4539,0.1886,-0.2056,0.1106,0.05353,0.3125,-0.1659,-0.006207,0.1749,-0.634,0.2029,0.03445,-0.3047,0.002441,0.05936,-0.4248,-0.1849,-0.1688,0.1232,0.3264,-0.136,-0.4165,0.906,-0.1578,0.1696,0.07245,0.19,-0.691,0.03397,0.2306,-0.4563,0.3877,0.3477,0.5024,-0.3792,-0.2363,-0.2976,0.09674,-0.1445,-0.2145,-0.03668,-0.5527,-0.2457,-0.1198,-0.658,-0.1414,0.6113,0.718,0.1815,-0.05856,0.07654,-0.2128,-0.187,-0.392,0.1488,0.465,-0.0534,-0.2998,0.6235,-0.00875,-0.7397,-0.0819,-0.374,-0.4778,-0.0704,-0.04016,0.08453,0.0651,0.2467,0.746,-0.0844,-0.2385,0.5044,-0.2335,0.4136,-0.08215,0.3115,-0.1572,0.1329,-0.1511,0.2068,-0.2961,0.3696,0.228,-0.3032,-0.366,0.2744,-0.4521,-0.02495,0.587,0.135,-0.1975,-0.1555,0.1644,-0.04437,0.3706,-0.763,-0.005753,0.07684,-0.1881,0.234,-0.201,0.2463,0.2408,0.0878,-0.08997,-0.486,0.0983,0.1967,-0.1501,-0.04306,-0.0297,-0.06256,0.2698,0.2439,0.05222,0.3818,0.1445,0.1672,-0.301,0.1362,-0.3782,0.1003,-0.1514,0.3867,-0.177,0.2825,-0.4087,-0.03102,0.1846,0.744,0.4976,-0.06683,-0.1444,-0.3633,0.3315,-0.3748,-0.2274,-0.00972,-0.02664,-0.1522,-0.3281,-0.2311,-0.7305,0.6436,-0.2428,-0.010345,0.1699,-0.2576,-0.1821,0.3674,-0.4597,-0.2267,-0.267,0.6587,-0.5386,-0.02022,0.1058,-0.1548,-0.04922,-0.03326,0.1621,-0.01475,0.254,0.3354,0.9355,-0.1324,-0.2805,0.21,0.2297,-0.5435,0.001371,-0.0786,0.04956,-0.04373,0.09344,0.286,0.3325,0.9604,-0.0635,0.04028,-0.223,-0.00998,0.11847,0.244,0.1227,-0.5444,-0.4287,0.4436,-0.3545,-0.586,-0.1268,0.1748,-0.0674,0.7383,0.04306,0.1646,-0.1262,-0.2886,-0.38,0.739,-0.1995,0.1346,0.2637,-0.1309,0.01044,-0.11346,0.2465,0.2925,0.4463,-0.5693,0.1396,0.1405,-0.202,-0.02437,0.0925,-0.0688,-0.3057,0.08356,0.6675,-0.1608,0.2651,0.148,0.1589,-0.02243,0.1641,-0.5186,-0.0977,-0.329,-0.0655,0.1132,-0.06076,-0.466,0.1267,0.2754,-0.2421,0.2512,0.09515,-0.2092,0.354,0.3184,-0.3787,0.2603,0.2969,0.0908,-0.3677,0.1514,0.2617,0.1815,0.1186,-0.2761,-0.06396,0.002468,-0.1798,-0.0784,-0.3896,-0.2935,0.0943,0.1632,0.02994,0.1993,-0.2766,-0.0485,-0.1304,0.2676,0.1615,0.539,0.3982,-0.0654,0.3547,0.2947,0.2139,0.01785,-0.103,0.06885,-0.1606,-0.1339,0.05695,-0.05765,0.1995,-0.2659,-0.0501,-0.0432,0.3657,0.1042,-0.3125,-0.3054,0.07654,0.0485,0.2477,0.06635,-0.1024,-0.4243,0.1836,-0.1339,0.5044,0.3894,-0.31,-0.0372,-0.2158,0.1472,-0.1212,-0.1112,0.2217,-0.1075,-0.03268,0.1602,0.02063,-0.0872,0.2125,-0.0703,0.05368,-0.9487,-0.2886,0.002075,0.2512,0.0869,-0.08936,0.4448,0.2517,-0.1752,0.5005,-0.0809,0.1787,0.088,0.03778,0.1183,0.1693,-0.2224,0.00642,-0.588,-0.332,-0.4172,-0.4482,0.0668,-0.11084,-0.366,-0.2355,0.1556,-0.2073,-0.05984,0.07117,-0.11163,-0.001271,0.5605,0.3723,-0.1649,0.753,0.103,-0.0352,0.32,-0.2837,0.2152,0.04254,0.10986,-0.02342,-1.032,0.11176,0.1246,-0.0942,0.1586,-0.1346,-0.1704,0.352,0.2554,-0.1653,0.1505,-0.2242,-0.2585,-0.3337,0.07715,0.3015,0.8955,-0.09924,0.097,-0.2194,-0.0345,0.0714,0.2455,-0.1832,0.04172,-0.131,-0.182,-0.379,-0.1376,0.04056,0.0587,0.3608,0.3408,0.0628,0.0233,-0.1521,-0.01497,-0.4915,0.04596,0.7886,0.1609,-0.2666,-0.0003161,-0.01106,0.0363,-0.0609,0.01802,-0.09705,-0.4624,-0.259,-0.411,0.8125,0.3564,0.10565,0.34,0.1769,-0.1186,0.1223,0.04608,-0.0633,-0.0676,-0.4172,-0.02342,0.5728,-0.2505,-0.03665,0.01625,-0.346,-0.291,0.04623,0.0619,-0.0715,0.0341,-0.416
balloon,0.3735,-0.626,0.03415,-0.08624,0.3113,0.377,0.1793,-0.131,0.3806,0.1501,-0.2544,-0.11554,0.2576,-0.4487,-0.0758,0.629,0.528,-0.1823,-0.2766,-0.5356,0.3225,0.01726,0.501,0.181,0.4802,-0.1439,-0.3682,-0.3235,-0.0937,0.2974,-0.12213,-0.735,0.01843,-0.3174,0.1218,0.2151,-0.2418,0.397,0.3079,0.003397,-0.05557,0.03394,-0.2598,0.2417,0.0826,-0.11707,0.8354,0.1558,-0.1346,0.2094,-0.1696,0.3918,0.2468,0.12115,0.05457,-0.146,-0.3118,-0.7935,-0.1311,0.3577,-0.04977,-0.0444,0.1353,0.114,0.1996,0.05518,0.01993,-0.4846,-0.3694,-0.2488,-0.1085,-0.02632,-0.1954,-0.505,-0.4119,-0.11536,-0.05493,0.173,-0.0758,0.733,-0.1178,-0.007996,0.1287,-0.446,-0.087,-0.1242,0.2898,-0.1323,0.2375,-0.05438,0.5137,0.4417,0.03015,0.4392,-0.2593,-0.1925,-0.00545,-0.1321,-0.3171,0.361,0.4814,-0.0494,-0.04343,0.3901,-0.277,-0.2803,0.04114,-0.627,0.1681,-0.06213,0.07745,0.0558,-0.1036,0.0684,0.09375,0.07007,-0.402,-0.298,0.1451,0.48,0.01356,-0.03342,0.5894,-0.2634,-0.2627,0.1935,0.71,-0.1733,0.02135,-0.17,-0.0563,0.06635,0.07355,0.4375,0.05557,-0.04507,0.3323,-0.05377,-0.1963,-0.1896,-0.2072,-0.07355,-0.1575,-0.3684,0.0174,0.051,-0.5767,0.4592,0.11035,0.2015,0.4126,0.1486,-0.667,-0.3162,-0.4697,-0.6533,-0.04202,-0.4683,0.657,0.3318,0.02779,0.3608,-0.03683,0.04257,0.1865,0.1036,-0.03946,0.01643,0.0712,-0.09,-0.5205,-0.02751,0.2908,0.6396,-0.1667,0.00782,-0.6704,0.08734,0.4514,-0.04996,-0.1631,0.3306,0.02217,-0.04187,0.3606,-0.1476,0.2107,-0.02917,0.01553,0.1743,-0.271,-0.1937,-0.1072,0.5947,-0.2502,-0.0888,-0.2996,0.1371,-0.01182,-0.0978,0.03638,-0.1431,0.0007815,0.3264,0.05627,-0.03445,-0.1073,0.2168,0.10175,0.06137,0.0805,-0.378,-0.495,0.2578,-0.3833,-0.1326,-0.539,0.12177,0.4988,0.2357,0.4602,-0.3826,-0.318,0.2219,0.836,-0.4316,0.003572,-0.519,0.0874,-0.1533,0.2646,-0.1935,-0.2262,-0.2322,-0.00853,-0.203,-0.06946,0.3667,-0.0834,-0.301,-0.1844,0.3445,-0.11475,-0.154,0.2245,-0.3948,-0.4758,-0.02719,0.02664,-0.4177,0.1864,-0.2954,0.0812,0.1719,-0.6187,-0.288,0.1117,-0.2157,-0.01293,0.1652,0.2112,0.01877,0.1954,0.2051,0.06995,-0.2932,-0.199,0.3782,-0.07153,0.2198,0.2296,0.0751,-0.2196,0.255,0.12213,-0.7896,0.2363,0.135,0.00375,0.3262,-0.2673,0.2866,0.005608,-0.0112,0.1346,0.3447,0.0413,0.05984,-0.4526,0.1821,0.4807,0.176,-0.1622,-0.2474,-1.165,-0.2035,-0.3027,0.0127,-0.3928,0.3577,0.01923,0.4358,0.8257,0.2463,-0.0868,-0.0842,-0.01999,0.03976,-0.03842,0.4253,-0.4348,0.02626,0.012215,-0.1377,0.3716,-0.10315,-0.12134,-0.1829,0.0747,0.09546,-0.2296,0.1364,0.1032,-0.2332,-0.03069,-0.01808,0.45,0.686,0.229,0.4282,-0.4214,-0.2007,-0.1927,-0.2402,-0.2124,-0.2258,-0.0858,-0.1377,0.7466,0.2742,-0.2568,-0.01936,0.05728,0.3672,-0.148,0.1991,0.1511,-0.517,0.1677,0.11383,-0.239,-0.0604,0.2336,-0.583,-0.0589,-0.1553,0.0474,0.2136,-0.157,-0.2042,0.8994,-0.2268,0.12085,0.1089,0.1003,-0.819,0.0781,0.1759,-0.518,0.5874,0.1868,0.5967,-0.2008,-0.3093,-0.2174,0.0126,-0.0689,-0.2637,-0.01004,-0.5977,-0.1027,0.04605,-0.522,-0.07996,0.2576,0.5596,0.2097,-0.0851,-0.04214,-0.2418,-0.0453,-0.4082,0.1503,0.495,-0.1439,-0.2144,0.6987,-0.1855,-0.506,-0.1785,-0.4578,-0.4663,-0.1473,-0.0276,0.03635,0.02863,0.2502,0.314,0.1921,-0.2544,0.4011,0.0391,0.303,0.1967,-0.07416,-0.1792,0.1242,-0.1311,0.1002,-0.2297,0.5435,0.2013,-0.2484,-0.0751,0.03802,-0.318,-0.1755,0.714,0.11096,-0.1842,-0.5083,0.1913,-0.1497,0.3828,-0.598,0.0389,0.1401,0.02298,0.0912,-0.288,0.1936,0.155,-0.09607,-0.1372,-0.562,0.09186,0.1198,-0.1758,-0.1251,-0.1854,-0.1685,0.348,0.326,0.1065,0.2705,0.1005,0.3997,-0.2075,0.1597,-0.2446,0.07,-0.145,0.261,-0.1334,0.3245,-0.2273,-0.0359,0.205,0.918,0.4182,-0.09424,-0.1196,-0.4172,0.3594,-0.3435,-0.0749,0.06775,-0.08295,-0.03128,-0.3123,-0.4604,-0.402,0.5923,-0.2937,0.05795,0.1367,-0.2583,-0.331,0.4607,-0.4194,-0.3818,-0.1194,0.8394,-0.4668,-0.1943,0.0215,0.01736,-0.01303,-0.2585,0.05795,-0.02861,0.1936,0.4248,0.9844,-0.0169,-0.2717,0.0864,0.03943,-0.5312,-0.02367,-0.1895,0.1335,0.0869,0.03665,0.197,0.487,0.9204,-0.1455,0.07446,-0.2122,-0.04523,-0.07043,0.079,0.05154,-0.6147,-0.10706,0.1912,-0.4458,-0.2484,-0.1918,0.1191,-0.1443,0.672,0.01646,0.2109,-0.266,-0.2175,-0.105,0.6196,-0.1831,0.0822,-0.03305,-0.4485,0.01656,0.008026,0.1907,0.5493,0.3218,-0.6206,0.2306,0.08307,-0.2004,-0.0684,0.1039,-0.2764,-0.356,-0.03018,0.724,-0.0827,0.2922,0.107,0.4297,-0.0378,0.03796,-0.572,-0.01412,-0.2615,-0.1318,0.05923,0.08154,-0.5625,0.01347,0.1597,-0.2563,0.445,0.1642,-0.263,0.1181,0.2712,-0.2712,0.2351,0.3547,0.2815,-0.507,0.0153,0.1772,0.1542,0.00871,-0.2045,-0.1328,0.1606,-0.2388,-0.10394,-0.3892,-0.1631,0.0918,0.1439,0.06885,0.10455,-0.08606,-0.094,-0.065,0.1315,0.312,0.543,0.1577,-0.01712,0.518,0.207,0.2483,0.0236,-0.2477,-0.02592,-0.2148,-0.1722,0.1575,0.00275,0.5083,-0.3347,-0.105,-0.02007,0.3523,-0.0433,-0.3096,-0.256,-0.00561,0.1294,0.1552,0.0615,-0.0179,-0.5283,-0.045,-0.1427,0.4246,0.2544,-0.4092,-0.1183,-0.1846,0.09625,-0.1592,0.0767,0.1534,-0.037,-0.0555,0.0618,0.2805,-0.0157,0.1505,0.01533,0.01794,-0.831,-0.1512,-0.1681,0.2803,0.06537,-0.389,0.6313,0.28,-0.1254,0.4727,-0.01351,0.3132,0.2433,0.06168,-0.123,0.2798,-0.08844,0.3103,-0.868,-0.2286,-0.2412,-0.5454,-0.00528,-0.00622,-0.1578,-0.2712,0.04922,-0.3887,0.12354,0.05304,-0.2158,-0.2373,0.5903,0.5337,-0.351,0.8896,0.246,-0.06445,0.3518,-0.4048,0.4082,0.2603,-0.18,0.1436,-0.9556,-0.0956,0.0628,0.03848,0.442,-0.1063,-0.2406,-0.02478,0.1672,-0.2247,0.1781,-0.2761,-0.2969,-0.1947,-0.0754,0.3325,0.9023,-0.2482,0.10315,-0.3235,0.1335,0.01556,0.1449,-0.1173,-0.16,-0.429,-0.1486,-0.362,-0.2378,0.004036,0.04288,0.1678,0.2695,0.436,0.0347,0.06824,-0.04138,-0.3691,0.0002393,0.7246,0.1549,-0.093,-0.1087,-0.05624,0.0932,0.08734,-0.01241,0.01646,-0.4084,-0.1401,-0.3088,0.8335,0.169,0.0202,0.3047,0.1572,-0.1202,0.004982,0.08875,-0.0693,-0.2112,-0.6084,-0.10004,0.3225,-0.153,-0.0678,0.0832,-0.2483,-0.2847,0.0938,-0.01389,0.2966,-0.00967,-0.391
banana,-0.394,0.1018,-0.2029,0.461,0.345,0.303,0.06274,-0.1019,0.505,0.2076,-0.006237,-0.5107,0.4128,0.165,-0.4094,-0.1119,0.7295,0.1649,-0.006664,0.2219,0.10046,-0.6665,0.563,0.6533,-0.1547,-0.2532,-0.3499,-0.0981,-0.4753,0.02309,-0.43,0.169,0.12225,-0.399,0.0939,0.207,0.5737,0.8994,-0.1089,-0.07153,0.05408,-0.1307,-0.3289,0.4763,0.577,0.11993,0.4358,0.0793,-0.1153,0.01883,-0.1215,-0.11005,0.2345,0.802,0.006832,-0.1902,0.2883,0.0808,-0.0835,0.4053,0.02492,-0.4172,0.1672,0.2588,-0.07526,-0.1547,0.356,-0.1416,0.00616,-0.1222,0.1366,-0.8184,-0.149,-0.02496,-0.04614,-0.3071,-0.09784,-0.02504,0.1121,0.1874,-0.07806,0.02757,-0.3264,0.4312,0.0304,0.0665,0.1892,-0.2664,-0.1921,-0.00839,-0.1646,0.12006,0.04327,-0.2383,-0.1746,-0.08923,0.05884,0.5093,-0.312,-0.1209,0.4517,-0.2131,0.0917,-0.0361,0.0513,-0.0614,-0.05725,-0.10596,0.2615,-0.12085,-0.2927,-0.694,-0.302,-0.5454,-0.1826,-0.006485,-0.2266,-0.004017,-0.1719,-0.554,-0.07666,0.0405,0.2296,-0.2815,-0.2998,0.3074,0.509,-0.06396,0.03348,-0.269,-0.0828,0.04565,0.03122,0.1909,-0.1556,0.2488,-0.1793,0.3423,-0.2583,-0.2482,-0.2471,-0.2627,-0.000728,-0.4995,0.2734,-0.0832,-0.1415,0.3674,0.0851,-0.04514,0.2568,-0.0305,0.03928,-0.152,-0.799,-0.788,0.309,0.3435,1.277,0.0711,-0.3672,0.2362,-0.02284,-0.02878,-0.055,0.0754,0.04196,0.587,0.0897,-0.063,-0.1741,-0.1786,0.3904,-0.4521,0.05273,0.35,-0.1819,0.6187,0.2158,0.3843,-0.0803,0.3098,0.2086,0.2876,0.1384,-0.2397,-0.202,-0.03473,0.1602,0.03397,0.03812,0.05283,-0.1963,-0.00657,-0.2201,-0.006763,0.0043,-0.378,0.1896,0.1403,-0.02364,0.4658,0.2184,-0.2937,-0.1493,0.07,-0.3713,0.1481,0.03537,0.01519,0.3447,-0.197,-0.1295,0.1576,-0.3953,-0.2206,-0.4573,-0.01776,0.2551,0.00627,0.511,-0.497,-0.5054,-0.109,0.701,-0.0863,-0.4321,-0.04794,0.1301,-0.2947,0.0574,-0.0809,-0.4392,0.2998,0.317,0.412,0.3774,0.08923,-0.06555,-0.337,-0.1711,-0.3179,0.4866,-0.2098,-0.1016,-0.4163,0.1912,0.1128,-0.0824,-0.2124,0.4048,-0.4333,0.2805,0.0903,-0.4297,-0.0857,0.0881,-0.3694,-0.2312,0.1584,0.276,-0.1442,0.06433,-0.0795,0.1825,-0.09143,-0.2467,-0.4395,-0.0784,0.10724,0.1548,-0.005062,0.3623,0.627,0.07007,-0.1528,-0.1576,0.07983,-0.02856,0.4277,-0.4775,0.2299,0.1239,0.02245,-0.3267,-0.08154,0.08234,-0.3127,-0.07605,-0.2505,0.12384,0.2937,0.1786,0.11285,-0.7812,-0.408,-0.01035,0.2145,-0.0775,-0.4084,0.08167,0.2042,0.3792,0.0662,-0.484,-0.4043,-0.303,-0.05356,0.212,-0.6616,-0.2301,-0.1501,-0.1652,0.05695,-0.4314,0.6304,0.6367,-0.418,0.3127,-0.3389,0.0992,-0.7417,0.2393,-0.2615,0.5815,-0.0664,0.001289,-0.7383,-0.3118,0.2935,-0.1038,-0.04132,0.2085,0.116,-0.7275,-0.05148,-0.0867,-0.1592,0.1818,-0.1333,0.0764,-0.2559,0.035,0.0412,0.2512,0.05707,0.119,-0.301,0.294,0.04865,-0.002878,0.4556,-0.4905,0.0531,0.0001198,-0.1912,0.52,0.4438,-0.2015,0.06335,0.3748,0.2135,0.452,-0.0893,0.4197,-0.0413,-0.04922,0.2015,-0.293,0.2299,-0.3284,0.2656,-0.1272,-0.4563,-0.34,0.3267,0.0549,0.0422,-0.0856,-0.612,-0.08307,0.2188,0.2578,-0.05533,-0.05447,0.7314,-0.0711,0.1461,0.4263,0.04834,0.003109,0.2676,-0.1279,0.2018,0.0646,-0.2301,0.2278,-0.0421,0.779,-0.2094,0.1279,-0.6045,0.376,0.6846,0.0231,0.1698,0.6187,-0.0951,0.2174,-0.1976,0.1329,-0.233,0.11786,0.001972,0.4644,-0.585,0.2355,0.1378,0.4453,-0.3394,0.1956,0.118,0.1527,0.07355,-0.1018,0.1326,-0.1566,-0.06094,0.04037,0.1267,-0.9365,-0.4053,0.814,0.31,-0.505,-0.0019455,0.309,0.13,0.569,-0.08777,0.655,0.0646,-0.589,0.148,-0.0746,0.3948,0.06186,0.1667,0.213,-0.2018,-0.005047,0.2524,-0.01234,0.06094,0.0604,-0.03787,-0.0097,-0.11646,-0.1115,-0.0658,-0.2988,0.2083,0.00538,-0.0697,-0.1774,-0.163,0.2303,-0.4097,0.651,0.2491,-0.3313,0.1501,0.108,-0.0473,0.4895,-0.3037,0.01962,-0.2113,0.0494,0.1362,0.138,-0.8687,0.518,0.2499,-0.04425,-0.812,0.1329,-0.138,-0.1173,0.2688,0.11566,-0.04318,-0.003448,-0.3904,0.12384,0.0759,-0.2386,-0.11444,-0.0844,-0.1584,-0.07983,-0.03296,-0.1276,-0.8486,-0.09644,0.196,-0.6704,0.2289,-0.752,-0.1304,-0.08344,-0.1488,-0.3728,-0.2289,0.1554,-0.2551,0.11285,0.2231,-0.1532,0.101,0.0089,0.0514,0.000751,-0.01639,-0.2356,-0.0585,0.6113,-0.4495,-0.0703,0.3777,0.1204,0.3513,-0.2585,0.245,-0.1597,-0.1708,-0.648,-0.6016,0.514,-0.2292,0.3787,-0.087,-0.5264,-0.1165,-0.3245,0.418,-0.1555,0.0186,-0.1768,0.03177,0.05664,0.4253,0.08673,-0.667,-0.2754,-0.02681,0.1793,0.00957,-0.2189,0.541,-0.3662,0.4602,-0.8003,-0.588,0.01949,0.4133,-0.1467,-0.2189,0.361,0.12244,-0.5156,-0.3682,-0.09033,-0.2896,0.3257,0.12384,-0.1259,0.1498,-0.05038,-0.2512,0.02838,0.4185,0.0679,-0.441,0.1655,-0.1459,0.1028,0.365,0.0569,-0.004696,0.1735,-0.2646,-0.05728,-0.05722,-0.603,-0.43,0.3123,0.2925,-0.2537,-0.6816,0.639,-0.05438,0.01073,0.0304,0.383,-0.1688,-0.2705,0.5776,0.1941,0.199,0.3472,0.217,0.4407,0.3691,-0.1556,-0.1653,-0.493,0.2019,0.226,0.06995,-1.0,0.07416,0.2203,-0.2424,-0.5444,-0.1313,0.441,-0.3486,0.0723,-0.225,-0.3271,0.1197,-0.1858,0.4863,0.603,0.0666,-0.00685,0.1095,0.3923,-0.284,-0.00426,0.04236,-0.00565,-0.0374,0.2059,0.01584,0.2217,0.2212,-0.2407,0.355,-0.8193,-0.1737,-0.2878,-0.255,0.7905,0.3757,0.9883,0.4033,-0.1322,0.0395,-0.372,0.4514,-0.2095,0.2335,-0.01184,-0.05463,0.0001416,0.06354,-0.79,-0.2317,0.106,-0.07904,-0.2119,-0.1351,-0.3523,0.141,0.2747,0.1631,-0.008865,0.0732,0.1636,0.258,0.5156,-0.168,0.0701,0.411,-0.665,-0.0688,0.3193,0.591,0.0457,0.1909,0.12396,-0.213,-0.6416,0.1542,0.00961,-0.1835,0.1368,0.1271,-0.0961,-0.164,-0.132,0.1415,0.05078,-0.1338,0.11816,0.0254,-0.328,0.06055,0.2047,0.1354,0.01295,0.2206,-0.003344,-0.07544,0.3433,-0.09265,0.1522,-0.2487,0.1393,0.214,0.0696,0.1152,-0.4075,0.2426,0.1273,0.2059,0.1965,-0.1962,0.3179,0.361,-0.11554,0.709,0.1853,0.6245,0.081,0.0703,0.4094,0.2085,0.4167,-0.704,-0.4048,-0.573,-0.3489,-0.3474,0.3801,0.1272,0.1458,0.0965,-0.3374,0.2043,-0.3738,-0.318,0.2952,0.0668,-0.1224,0.9653,-0.3557,-0.06866,-0.0519,-0.3025,-0.2483,-0.05753,0.10864,-0.3,-0.03244,-0.4485
basement,0.3882,-0.2197,-0.7334,-0.245,0.267,-0.3035,0.03087,-0.6416,0.05063,-0.2247,-0.23,-0.3684,0.03503,-0.1803,0.74,0.1619,-0.1343,0.1128,0.5327,-0.3235,0.4856,-0.1294,0.0899,-0.4653,0.3875,-0.2329,-0.2515,0.1279,-0.3376,-0.2617,-0.1162,-0.29,0.07764,-0.7715,0.2563,0.139,-0.505,-0.649,0.7715,0.3533,0.2261,0.0928,-0.725,0.12164,0.4585,-0.05075,0.2124,-0.4204,0.0932,0.475,-0.2942,-0.001232,0.425,-0.3645,-0.2588,-0.3047,-0.4338,0.1891,-0.00386,0.1799,0.009224,0.3582,-0.4792,0.1398,0.529,-0.1703,-0.1378,0.2866,-0.5405,0.0961,0.0389,0.3477,0.5366,-0.0219,0.073,0.3804,0.3682,-0.03534,-0.794,-0.362,0.2053,-0.0257,0.1289,-0.2245,-0.181,-0.326,0.123,-0.2737,0.1213,-0.1433,-0.3242,0.3625,-0.3455,-0.1835,0.346,0.1617,0.04892,-0.03012,-0.2424,0.0962,0.6343,-0.1256,0.07275,0.1598,0.07916,-0.2125,0.3145,-0.1936,0.4019,-0.1622,0.0801,-0.001119,-0.18,0.524,0.06046,0.1948,0.399,0.0902,0.4375,0.1816,-0.179,-0.4692,0.11206,0.219,0.2131,-0.089,0.8184,0.1763,-0.4233,-0.1228,-0.073,0.396,-0.295,0.1184,0.01677,-0.05585,0.3467,0.386,-0.1287,-0.3289,0.00361,-0.0729,0.2837,-0.3108,0.3079,-0.4348,-0.642,0.335,-0.156,0.2028,0.5513,0.254,-0.1938,-0.1123,-0.1527,0.5635,-0.324,-0.353,-0.147,0.2834,-0.05353,-0.009865,0.1599,0.00977,-0.1757,-0.5786,0.1827,-0.04956,-0.4036,0.3804,0.03076,0.3086,-0.03308,0.305,0.0372,-0.04034,0.03287,0.1106,0.4995,-0.03427,-0.08887,0.3826,-0.1167,-0.1399,-0.3052,-0.4546,0.2032,0.02672,0.6523,-0.2474,0.08527,0.4312,-0.1632,-0.22,-0.02725,0.2659,-0.02199,-0.2925,0.1567,-0.05658,-0.1837,-0.2598,0.1238,0.4016,0.2542,0.1482,-0.09717,0.1847,-0.3267,0.4631,0.1637,0.5625,0.22,0.3047,-0.2646,-0.2389,-0.1769,-0.02383,0.208,0.3936,-0.01675,-0.325,-0.4758,0.1869,0.2448,0.2216,-0.218,-0.1521,0.02202,-0.2656,-0.1365,-0.03442,0.07556,-0.4612,0.1588,0.0817,0.421,-0.345,-0.22,0.311,0.04276,0.2913,0.3325,-0.252,-0.3562,-0.06854,0.206,0.1984,-0.1664,-0.3516,-0.04044,0.518,-0.01027,0.01999,-0.2479,-0.3271,0.1313,0.04764,-0.1233,-0.1818,-0.6777,0.4282,0.11346,0.02695,0.038,-0.426,0.466,0.06775,0.1224,0.1978,0.2705,0.163,0.0735,0.1239,-0.3196,-0.549,-0.2369,0.3054,-0.1516,0.3198,-0.1504,0.086,-0.1823,0.547,0.2161,0.1638,0.339,0.3809,-0.3088,0.0678,-0.012405,-0.4216,-0.4475,0.343,-0.4414,-0.3096,-0.0932,-0.2683,-0.5483,0.2457,-0.2491,0.03754,-0.1327,0.1945,0.02663,-0.3076,0.01152,-0.3127,-0.659,0.3447,-0.3164,-0.01959,0.578,-0.3533,0.2842,0.05038,0.2869,0.10034,-0.465,-0.1798,-0.1581,0.0112,-0.096,0.617,0.2142,0.03632,-0.11786,-0.2874,-0.501,-0.04276,-0.2126,0.1396,0.0811,0.02626,0.2632,0.532,-0.204,-0.02803,0.296,0.04443,0.09894,0.05344,0.1109,-0.01587,0.01988,-0.6353,0.3872,-0.294,0.3176,-0.1549,0.05786,0.0939,0.5054,-0.261,0.03796,-0.5186,0.004715,0.3386,0.1409,0.1761,-0.02567,0.1885,0.0766,0.03976,-0.006184,0.012764,-0.2196,-0.429,-0.7075,0.2477,0.1119,0.4092,-0.1672,-0.496,-0.142,0.02657,-0.5825,-0.1065,-0.1481,-0.2363,0.3489,0.1654,0.1516,-0.397,0.03876,0.1956,-0.11035,0.403,-0.514,0.0718,-0.5156,0.4712,0.4614,-0.22,-0.1357,0.043,0.12384,-0.627,0.6465,0.0191,0.2198,0.11914,-0.251,0.3335,0.000508,-0.1549,-0.34,0.0416,0.0892,-0.3086,-0.5776,0.0974,0.3364,0.349,-0.2395,-0.3206,0.0952,-0.1764,-0.196,0.3298,-0.2822,-0.01653,-0.1882,-0.2482,0.0702,0.4387,0.2805,-0.2737,0.3335,-0.10175,0.0885,0.4458,0.723,-0.09174,0.01108,0.2473,0.0461,0.4434,-0.1097,0.2498,0.1277,-0.1126,0.05905,0.1065,-0.7754,0.005306,0.32,0.163,0.005165,-0.2393,0.226,-0.2426,0.419,0.1912,0.4375,0.1335,0.536,-0.1805,0.2773,-0.3555,-0.2191,0.028,0.314,-0.1792,0.0856,-0.1971,0.1903,-0.1536,-0.07355,0.08124,0.1711,-0.3503,-0.03775,-0.12354,-0.3425,0.2688,-0.1444,-0.01842,-0.393,0.08057,0.004612,-0.2137,0.6177,0.10535,0.0558,-0.331,0.03017,-0.1896,0.2423,-0.1434,-0.6357,-0.278,-0.4084,0.09204,-0.12415,0.1473,0.1672,0.2448,0.1048,-0.1371,0.4802,-0.419,-0.04184,-0.3948,-0.904,-0.2272,0.2869,0.302,0.3457,-0.415,0.2854,-0.352,-0.06186,0.1641,0.099,0.4602,0.5405,-0.3257,0.04095,0.2303,0.2009,0.1628,-0.2615,0.232,0.1774,0.676,0.02205,-0.5903,-0.438,-0.519,0.04678,0.418,0.0394,-0.297,0.2028,0.3186,-0.655,-0.1575,0.5454,0.2189,-0.02232,0.1996,-0.4524,-0.4312,-0.4297,-0.07513,0.3245,-0.2954,-0.1587,0.2834,0.1514,-0.0639,-0.3535,-0.3733,-0.03265,-0.04028,-0.2595,-0.501,0.07135,0.01944,0.1403,0.34,0.0697,0.1312,0.01884,0.085,-0.441,-0.4622,0.0793,-0.2157,0.1394,0.00843,0.08746,-0.4937,0.004555,-0.0849,0.06683,0.3848,0.3093,-0.11273,0.3445,0.09814,0.1802,-0.3325,-0.0867,-0.0829,0.143,0.1343,0.5786,-0.0287,0.1722,-0.405,-0.1439,-0.2124,0.308,0.06995,-0.1069,-0.3625,-0.2458,0.11115,-0.4226,0.255,0.05197,-0.2067,0.07385,-0.09576,0.2546,0.1814,-0.02153,-0.06094,0.4153,-0.254,0.0397,0.005226,-0.05563,-0.05328,0.1727,0.561,-0.163,-0.5044,-0.2263,0.1552,0.456,-0.00989,-0.0309,-0.289,-0.3586,-0.0864,-0.1859,-0.0816,-0.501,0.1848,0.0879,-0.10864,0.6157,0.4995,0.010704,1.249,-0.59,0.1423,0.555,0.1775,0.5957,-0.316,0.1722,0.5586,0.3728,0.3162,0.1311,-0.433,0.1843,-0.1372,0.03812,-0.1611,-0.38,0.3547,0.1387,0.3838,0.1203,0.004032,0.01877,-0.1812,0.4727,-0.1313,0.2517,0.07263,0.1265,0.1565,-1.994,-0.2228,-0.1697,-0.1237,0.4927,0.497,-0.2262,-0.5073,-0.1598,-0.159,0.3542,-0.063,-0.1339,0.00986,0.06683,0.4368,-0.2249,0.6436,0.004284,-0.00844,-0.07385,0.1797,-0.3848,0.3884,-0.1637,-0.123,0.1521,0.117,0.265,-0.1594,-0.2052,0.03384,-0.3098,-0.2886,-0.06793,-0.2764,0.03096,-0.03357,-0.432,0.0831,-0.2207,-0.06396,0.2341,0.3533,0.10345,0.1366,0.02048,-0.04834,-0.0817,0.084,-0.05713,-0.8877,0.06082,0.2454,0.1726,-0.2156,0.03955,-0.182,0.1294,-0.424,0.541,-0.3735,-0.441,-0.268,-0.1931,1.056,0.9546,0.3079,0.2327,-0.3618,0.571,-0.1329,0.02386,0.2045,0.12085,-0.288,-0.1678,-0.1792,0.0829,-0.4255,0.03308,0.1254,0.11365,0.1415,-0.3438,0.1445,0.06934,-0.0469,-0.003883,0.3582,0.1065,0.263,-0.0404,-0.2612,0.1235,0.11615,0.1112,-0.4004,-0.2722,-0.09106
basket,0.1056,0.3179,-0.1305,0.1853,0.062,0.4858,-0.01038,-0.503,-0.733,0.0288,0.3003,-0.2043,0.05295,-0.6826,-0.1646,0.1392,0.4907,0.545,-0.3225,-0.3228,0.1694,0.2656,0.1298,0.3901,0.1525,-0.0874,-0.2341,0.3276,-0.10187,-0.01212,0.082,-0.01341,0.2312,-0.1643,0.3008,0.08795,0.266,0.11194,0.1166,-0.1273,-0.02731,0.05026,-0.648,0.2006,0.7935,0.05353,0.5327,0.1243,-0.1836,0.0624,-0.2256,0.7583,0.3513,0.09534,0.3882,0.0441,-0.04648,0.7427,0.08795,0.4436,-0.00737,-0.563,0.01648,-0.408,0.5664,-0.2402,-0.04437,0.3677,-0.2491,0.1307,-0.05707,-0.49,-0.1383,0.2471,0.238,-0.07623,-0.1048,-0.03363,-0.1694,-0.515,-0.2401,-0.07996,0.2407,-0.1779,0.497,-0.08673,0.3723,0.1989,0.0978,0.1826,-0.03119,0.2947,-0.3223,-0.1976,-0.1981,-0.0449,-0.001845,0.11176,-0.391,0.2128,0.3777,-0.2253,-0.254,0.01965,-0.3535,-0.5024,0.09064,-0.1509,0.0286,-0.02917,-0.4224,-0.287,-0.2103,-0.1334,-0.1532,-0.1559,0.1967,-0.1108,0.08344,-0.4688,-0.3523,0.255,0.1792,0.0601,0.11237,0.238,0.587,0.07495,-0.1445,-0.282,-0.3372,-0.03986,-0.2507,-0.1268,-0.02167,-0.0702,0.04956,0.04956,-0.1005,-0.0305,0.1559,-0.05316,-0.0755,-0.309,0.3032,0.0594,-0.06476,0.0825,0.22,0.2174,0.3345,0.2825,-0.324,0.05795,0.097,-0.12225,0.0666,-0.1469,0.2397,0.03967,-0.652,0.0676,-0.1332,0.1534,-0.1915,-0.1593,0.4438,-0.142,-0.08246,0.631,-0.0282,-0.2905,0.0271,-0.06635,0.2722,-0.2378,-0.4326,0.1196,0.02408,0.4587,-0.05664,-0.11945,-0.192,-0.4597,-0.2198,0.344,0.08765,0.05093,0.3306,0.0322,-0.10876,-0.1846,0.1233,0.1885,0.3674,-0.1897,-0.251,0.1095,0.0867,-0.133,0.0788,-0.1724,0.1726,-0.1012,-0.002857,-0.04922,-0.198,-0.0875,-0.2238,0.1562,0.4775,0.1635,-0.2585,0.249,-0.3403,-0.2817,-0.606,0.1255,0.3513,0.03848,0.563,-0.1492,-0.2449,-0.2294,0.937,-0.10583,-0.1826,0.05032,-0.08673,-0.616,0.06555,-0.4038,-0.1647,-0.08905,0.1028,0.383,-0.2402,-0.1619,-0.01483,-0.2273,0.2072,-0.06866,-0.6143,-0.1056,0.622,-0.432,-0.126,-0.03123,-0.2479,-0.07196,0.1727,0.5244,0.0686,0.0007267,-0.5264,0.1033,-0.1493,-0.11096,-0.913,0.5317,0.01808,-0.2206,0.1266,0.2286,0.1771,-0.339,-0.0716,0.1774,-0.067,-0.1863,0.4875,0.599,-0.297,0.0721,0.1842,-0.2678,-0.01521,0.2751,-0.01269,0.1262,-0.2146,0.6416,-0.11597,0.434,-0.307,-0.08765,0.0365,-0.2478,-0.10205,0.1227,0.198,0.0625,-0.2983,-0.2184,-1.012,-0.1211,-0.004482,0.1677,-0.494,-0.1708,-0.548,-0.014244,0.2246,0.2338,-0.0797,-0.2274,0.3657,0.2036,-0.1543,-0.1576,-0.2131,-0.635,0.1299,-0.1605,0.0391,0.3062,0.1536,-0.1026,-0.07684,-0.2712,-0.07324,-0.0798,0.2937,0.3867,-0.0385,0.0966,0.2355,-0.5107,-0.2034,0.4795,-0.4485,-0.2303,-0.05063,-0.02238,-0.3096,-0.10785,-0.04315,0.2944,0.0269,0.5522,-0.1736,0.02957,-0.01196,0.3137,0.2146,-0.10046,-0.01221,-0.4905,0.06635,0.41,-0.442,-0.04245,0.4822,-0.6704,-0.2037,0.01343,0.4834,0.00964,0.05844,-0.2003,0.683,-0.004677,0.03854,-0.00908,0.584,0.3474,-0.0481,-0.2544,-0.4736,0.2717,-0.1542,0.227,-0.2047,0.286,-0.2491,0.2107,0.0711,-0.04083,0.02277,-0.446,0.3284,-0.05173,-0.2275,0.001792,0.4233,0.3574,0.1356,0.0994,-0.08887,-0.2522,-0.4004,0.04047,0.1707,-0.155,-0.02487,-0.11774,0.6763,-0.0833,0.2231,-0.2078,0.5234,-0.2551,-0.2893,-0.03656,-0.06256,0.006176,-0.4055,0.1912,0.061,-0.4495,-0.11334,0.2595,0.4333,-0.0105,-0.2197,-0.1284,0.03473,-0.1676,0.1014,-0.3499,-0.0544,0.11554,-0.138,-0.2725,0.1561,-0.1409,-0.1009,-0.4995,0.2825,-0.3167,-0.633,0.5674,-0.001628,0.1858,-0.1382,-0.2761,0.298,-0.02193,-0.1155,-0.001668,0.4324,-0.16,0.08295,0.01631,-0.917,-0.4985,0.3296,-0.434,-0.03214,0.2698,-0.03546,0.2024,0.2776,0.3372,-0.0946,0.0654,0.466,0.3376,0.03075,-0.09534,-0.06256,0.003925,0.1705,-0.0716,0.5176,0.2302,-0.0708,-0.1588,-0.4702,0.2222,0.1907,-0.4297,-0.05634,0.33,0.09424,-0.01239,-0.1652,0.48,-0.0334,0.2744,0.11395,-0.3706,0.3398,0.071,0.1965,0.1394,-0.2112,-0.3784,0.204,-0.2343,-0.03424,-0.002174,0.0635,-0.1527,0.01186,-0.009,-0.2174,-0.00506,-0.0995,-0.5376,-0.0598,0.132,0.2715,-0.3853,-0.1387,0.2866,0.168,-0.0759,-0.2812,0.158,-0.2698,-0.01631,0.0519,0.2289,0.1622,-0.3467,0.2319,-0.1262,0.3118,0.10974,-0.02798,-0.1833,-0.1185,0.2898,-0.1631,0.349,0.26,-0.5396,0.04178,-0.0732,0.1236,0.351,0.63,0.2656,-0.03412,0.0994,-0.1942,-0.4055,0.622,0.05038,0.05392,-0.1224,0.175,-0.06052,0.11414,-0.04953,0.1602,0.04193,-0.3774,0.03693,0.11304,-0.02242,0.1357,0.1152,-0.1752,0.1782,-0.267,-0.382,0.4146,0.2998,-0.1648,0.613,0.1294,-0.1324,0.2505,0.09674,-0.3506,-0.2325,-0.3252,-0.1512,-0.04047,-0.0791,0.366,-0.1826,-0.1987,0.04367,-0.2413,0.05307,0.12317,-0.2302,0.3325,0.2903,0.0729,-0.2273,0.08997,-0.1719,-0.0651,0.07764,-0.04327,-0.2329,-0.0714,-0.08563,0.2129,-0.2722,-0.1777,-0.257,0.1525,0.00938,-0.167,-0.404,-0.2007,0.2742,-0.2238,0.4504,0.001685,-0.1902,-0.4194,0.4578,0.2448,0.1538,0.331,-0.1442,0.4868,0.1562,-0.1614,0.1322,-0.06573,0.2161,0.10675,0.11096,-0.4456,-0.1849,0.2118,-0.3977,-0.3677,-0.1655,-0.1377,0.251,-0.2004,-0.0864,-0.4192,0.10455,-0.3208,0.3765,0.10956,0.215,-0.2861,0.7104,-0.04282,0.0465,-0.2778,0.1807,0.1782,-0.03976,0.1355,0.6343,0.4631,0.1053,0.1713,-0.0575,-0.1326,0.0858,-0.01736,0.2054,0.2954,-0.1255,0.02003,0.68,0.2712,0.2805,0.2988,0.3445,0.02646,0.0715,-0.0657,0.0931,-0.007744,-0.1736,-1.066,-0.0988,-0.0719,-0.2317,-0.0711,-0.1373,-0.3318,-0.4158,-0.266,0.0291,-0.607,-0.08453,-0.31,-0.2145,0.4475,-0.1382,-0.0849,0.5605,-0.1428,0.1026,0.3645,0.01204,-0.1797,0.447,0.1759,-0.03583,-0.6104,-0.4045,0.07025,-0.3713,0.2194,0.2634,-0.1401,-0.006893,0.151,-0.1014,-0.1409,0.0885,0.3953,0.7383,-0.1488,0.1295,0.563,-0.1035,0.1624,0.0027,-0.3933,0.05832,0.006107,0.273,0.1486,0.0374,-4.786e-05,0.6396,-0.0281,-0.181,0.03635,-0.292,0.2642,-0.04144,0.3447,-0.181,0.0709,-0.2347,0.0631,0.883,0.344,0.3198,-0.2812,-0.03912,0.154,0.2079,-0.1417,-0.05792,-0.1244,-0.0428,-0.274,-0.409,0.4214,0.1261,0.3489,0.3596,0.265,0.00843,0.03284,-0.0631,0.02528,-0.3208,-0.3027,0.4724,-0.378,-0.0588,-0.3545,-0.2886,-0.307,-0.2118,0.06396,-0.8296,-0.1174,-0.09735
bat,0.4922,0.625,-0.0654,-0.4727,0.66,-0.3906,-0.586,-0.6562,0.582,-0.4023,-0.336,0.08203,-0.1641,-0.2354,-0.293,0.2969,0.1855,-0.5547,0.7617,-1.289,-0.0762,0.007324,-0.6133,0.8086,0.12256,0.621,-1.055,-0.463,-0.5547,0.965,-0.461,0.0947,0.02856,-1.211,0.169,0.08105,0.668,1.125,0.4492,0.1631,0.498,-0.084,0.01483,0.332,-0.127,0.914,-1.25,-1.203,-1.016,0.1504,-0.883,0.758,-0.0825,1.0,1.125,-0.02148,0.5938,0.2402,0.375,0.715,0.1299,0.543,0.668,-0.6367,1.336,-0.3691,0.4277,0.33,-0.2197,0.1621,0.2812,0.6094,0.2197,-0.1299,-0.0869,-0.5234,-0.574,0.3594,-1.273,0.5977,0.04077,-0.1377,-0.2295,-0.547,-0.5117,0.1855,0.1914,-0.8945,0.165,-0.2754,-0.2441,-0.7266,-1.8125,-0.2393,-0.789,0.617,0.3516,0.3555,-0.2129,0.3574,0.207,0.1904,0.04834,-0.3223,-0.9766,0.3477,0.1279,1.172,0.2812,0.00787,2.14,-0.1943,0.2969,-0.3477,-0.5195,-0.3906,-0.1279,-1.367,0.926,-0.5195,0.1123,0.508,0.01648,-0.4219,0.4766,-0.0791,0.711,0.3262,-0.1738,0.0996,-0.2852,-0.3691,0.125,0.11035,-0.4902,-0.4766,-0.0708,-0.42,-0.4902,-0.3867,-0.3008,-0.461,-1.109,-0.3438,-0.2383,-0.4844,0.3047,0.6094,1.133,-0.3281,0.21,-0.3535,0.2139,-0.4297,0.3867,-0.1138,-0.535,0.1943,0.7227,0.02112,0.2012,-0.8438,0.2227,-0.09375,0.9375,-0.1338,0.1992,-0.289,0.3066,0.2832,0.2969,-0.621,0.2197,-0.461,0.7266,-0.007996,0.42,-0.4238,1.219,0.2676,0.2383,-0.04712,0.496,-0.07715,-1.016,-0.625,-0.965,-0.11035,0.09033,-0.463,-0.12256,0.9414,0.02795,-0.1865,-0.2715,0.5,0.08105,0.01227,0.664,-0.2461,-0.4043,0.742,0.0559,0.1367,-0.3008,0.7305,0.1211,0.1562,0.9688,0.291,0.1602,1.0,0.0835,1.227,-0.5195,0.03955,-0.543,-0.3418,-0.1309,-0.7227,-0.3457,0.1807,-0.336,-0.287,-0.5977,0.0952,-0.3477,0.1582,-0.797,-0.498,0.2402,-0.1895,-0.371,0.1562,-0.996,-0.3184,0.1826,-0.371,0.4336,-0.7305,0.0515,0.793,1.141,0.0381,0.07666,-0.336,-0.4043,-0.1514,0.0991,-0.5,-0.0713,-1.094,-0.1045,0.463,-1.109,0.33,-0.0742,-0.961,0.02966,-0.3535,0.711,-0.04175,-0.2393,-0.4043,0.6875,-0.08887,-0.09326,0.7734,1.07,0.9023,0.4863,-0.338,0.6406,0.1572,0.2246,-0.551,0.2363,0.412,-0.165,0.6016,-0.707,0.926,-0.0742,-0.2832,0.883,0.1826,0.03833,0.5273,0.1079,0.66,0.9805,0.578,0.1196,0.0864,-0.2178,0.2148,-0.1631,-1.242,-0.042,0.289,-0.5625,1.328,0.3555,0.0874,0.209,-1.273,-0.8906,-0.1777,-0.3438,1.227,-0.508,-1.125,0.1631,-0.535,-0.463,0.3457,0.3398,0.5273,-0.6016,-0.5234,0.3086,0.2139,0.083,0.01013,0.287,-0.0845,-0.09326,-0.1514,-0.1484,0.377,-0.8203,-0.1768,-0.2715,-0.252,-0.03076,-0.1592,-0.2207,-0.0762,1.328,-0.1738,0.7695,0.3184,-0.2148,0.914,0.05908,-0.9453,0.1572,-0.629,0.09375,0.373,0.2129,-0.551,-0.2432,-1.641,-0.2178,-0.02954,0.4922,0.1748,-0.586,0.00409,0.07715,-0.04443,0.0713,-0.33,0.6797,-0.4746,0.8164,-0.1582,-0.33,0.539,0.05054,0.4375,0.2227,0.2285,0.07666,0.5195,-0.2295,0.2412,0.7656,-1.047,-0.249,-1.523,-0.6797,-0.3125,0.5312,0.8867,-0.1406,-0.1611,0.9414,-0.504,-0.793,0.2559,-0.03442,0.05518,-0.3164,-0.5547,-0.2637,-0.8516,0.4844,-0.11035,-0.1982,0.758,1.039,0.7344,-0.6523,0.21,0.2832,0.621,0.06836,0.4902,-0.371,0.4434,-0.3535,-0.7266,-0.06152,-0.11084,0.75,0.8477,1.43,0.4746,0.2178,-0.01965,0.0879,-0.621,0.6094,-0.6055,-0.03125,0.6406,-0.4512,0.543,-0.7656,0.06055,0.2168,0.249,-0.578,0.1309,-0.2832,0.05347,0.06836,0.9805,0.6484,0.1855,-0.3223,-0.379,0.04712,-0.2402,-0.508,0.3008,-1.039,-0.334,0.582,0.7617,-0.621,-0.3242,0.6445,-0.2012,-0.2559,-0.4863,0.508,-0.2256,0.2129,0.42,0.1865,-0.586,-0.535,0.07275,-0.0752,-0.551,-0.1924,-0.1475,0.02112,-0.496,-0.1089,0.02295,0.703,-1.281,-0.8203,0.1709,0.0791,-0.574,-0.004272,-0.914,0.668,-0.1074,-0.10254,-0.09033,0.867,0.125,-0.1221,0.3828,-1.07,0.2695,-0.918,-0.03418,0.4434,0.1167,-0.3281,-0.625,-0.0786,-0.3984,-0.2754,0.4355,0.2197,-1.633,-0.167,-0.1128,0.165,0.105,0.1543,-0.2363,0.6523,0.2754,0.3281,-0.1582,-0.6133,0.785,0.04663,0.2363,-0.4336,0.2432,0.4355,0.875,0.09424,-0.373,0.07227,0.0476,0.4062,-0.699,1.0625,0.2402,-0.1855,0.0713,0.1895,1.43,-0.295,-0.703,-0.4043,0.7656,1.039,-0.0004597,-0.2227,-0.05518,-0.2314,-0.1973,-0.03882,-0.3223,-0.6523,-0.104,-0.334,0.2832,0.05737,-0.5703,-0.2041,-0.715,-0.09766,-1.172,-0.2158,0.4746,0.1729,1.031,0.334,0.824,-0.4219,-0.1787,-2.188,0.3516,-0.8047,-0.06836,0.418,-0.5156,0.535,0.2305,0.4746,-0.254,1.469,-0.2451,0.2451,0.2451,1.555,-0.4492,-0.3457,-0.08545,-0.08496,-0.0957,-0.10645,0.1426,0.2637,0.8203,0.459,0.295,0.1582,0.3965,0.1787,0.1582,-0.4531,0.3418,0.03015,0.01434,0.5,-0.953,-1.0,0.3164,0.05078,-0.711,0.629,0.875,0.208,0.05127,0.1562,0.6445,0.699,0.2197,0.3848,0.0913,-0.412,-0.4688,0.09814,-1.445,-0.00482,-0.699,-0.1484,0.3164,1.031,-0.3809,-0.6875,1.328,-0.543,-0.496,-0.2852,0.1826,-0.3496,0.5547,0.4004,0.1475,0.6562,0.2559,-0.0669,0.508,0.3164,0.6484,0.4355,0.1885,0.3105,-0.2246,-0.2031,0.715,-0.3066,-0.1455,-0.5625,-0.6055,0.3945,-0.746,0.2852,-0.0664,-0.01636,-0.2578,0.6406,0.4492,0.252,-0.4238,-0.1396,-0.9062,-0.412,-0.0669,0.33,-0.4473,-0.0598,-0.5664,-0.6953,-0.05713,0.664,-0.1943,0.21,-0.2188,-0.2676,-0.06006,0.582,0.2246,0.459,-0.6016,0.1167,0.06396,0.824,0.793,0.8594,1.211,-0.1318,-0.00989,0.3887,1.461,-0.703,0.07324,0.6016,-0.5117,-0.8438,0.8086,-0.0679,-0.249,0.0177,-0.5977,-0.1855,0.1992,-0.457,-0.3984,0.0874,0.3887,-0.3984,0.1602,-0.1426,0.1865,0.4004,1.18,-0.0796,0.3945,-0.3516,-0.625,0.0537,0.1592,-0.289,0.699,-0.8086,-0.2559,-0.04443,-0.2432,-0.3047,-0.586,0.5625,-0.4023,-0.4258,-0.7656,0.2256,-0.2051,0.59,1.383,0.0664,0.0796,-0.7188,-0.287,-0.6406,-0.1455,-0.4355,0.4277,-1.531,-1.273,-0.5234,1.664,0.7188,-0.664,-0.2012,-0.003937,-0.1758,0.6797,-0.3262,0.1982,0.10547,-0.582,-0.4766,-0.2051,0.586,-0.25,-0.4492,-0.4453,-0.953,-0.254,0.166,-0.4805,0.2129,-0.5703
bathroom,0.2942,0.3523,-0.609,-0.1317,0.4573,-0.4868,-0.2437,-0.1359,0.0999,0.00833,-0.4163,-0.1365,0.3445,0.0323,0.4849,0.158,-0.208,0.3374,0.11664,-0.07886,0.2566,-0.2556,0.4097,-0.3687,0.3772,-0.6777,0.01843,0.11005,-0.1594,-0.1884,-0.4614,-0.2036,-0.2651,-0.3145,0.2102,0.2415,-0.2272,-0.562,0.5957,0.0754,0.2556,0.1628,-0.369,0.2458,-0.06866,0.292,0.4565,-0.4531,0.3027,0.378,-0.1247,-0.11926,0.2235,-0.3176,-0.2878,-0.655,0.47,0.2146,-0.4695,-0.01642,-0.03568,0.1608,-0.3438,0.08295,0.1686,-0.1406,-0.1033,0.2573,-0.4895,0.3171,-0.02502,-0.241,0.3154,-0.1785,0.2255,-0.01918,0.6978,-0.1973,-0.783,0.005512,0.1709,-0.3157,0.426,-0.2922,-0.447,0.05377,-0.02817,-0.04605,0.017,-0.391,-0.3286,-0.1942,0.3062,0.02388,0.3457,0.627,0.2051,0.4753,-0.1884,0.5127,0.4824,-0.4412,0.09204,-0.03525,0.0673,-0.06143,0.533,0.1376,0.6147,0.0101,-0.3655,-0.381,-0.1976,0.3523,-0.328,-0.0579,0.4514,-0.01074,-0.2274,-0.2656,-0.291,0.05072,-0.04492,0.03528,-0.2656,-0.0951,0.8096,0.06525,-0.5713,-0.1957,-0.1644,0.288,-0.3499,-0.2051,-0.1749,0.324,0.02248,0.09717,-0.6694,-0.0703,0.1683,-0.01183,-0.02246,0.1688,0.3418,0.1073,-0.3967,0.416,-0.6006,-0.3616,0.000824,0.1272,-0.01383,-0.1462,-0.574,0.4011,-0.1549,-0.5347,-0.2017,0.3772,-0.07263,0.007095,0.08044,-0.02354,-0.10645,-0.4263,0.0988,-0.03284,-0.4395,0.337,0.0698,0.715,-0.3289,-0.05386,0.0691,-0.03183,-0.2717,-0.01438,-0.4084,-0.444,-0.012085,0.663,-0.305,-0.2069,0.379,-0.315,-0.04047,-0.0621,1.011,0.2241,0.1423,0.2329,0.2751,-0.3477,-0.1181,-0.03119,-0.10236,0.3818,-0.1897,0.3672,0.076,-0.1431,0.522,0.02583,0.2217,-0.111,0.07837,0.1636,-0.2424,0.5967,-0.1483,0.612,-0.2725,0.3652,-0.11206,-0.05136,-0.00743,0.19,0.576,0.3606,0.059,0.0892,-0.3098,-0.269,0.2422,0.1613,0.1279,-0.2428,-0.1552,-0.2192,0.2473,-0.11975,0.3293,-0.1385,-0.3704,-0.05237,-0.04593,-0.835,-0.3943,-0.1611,-0.3115,0.555,0.3125,0.152,-0.0813,-0.1929,-0.16,0.04144,-0.1454,-0.0418,-0.2426,0.01859,-0.2585,-0.0851,-0.0999,-0.1587,0.187,-0.01813,-0.1973,-0.1018,-0.06726,-0.05133,-0.3684,0.10583,-0.04126,-0.231,0.3333,0.638,0.4277,0.0931,0.01695,-0.263,-0.4502,-0.003687,-0.05276,-0.06995,-0.554,-0.07556,-0.2737,0.1544,-0.04056,0.3467,-0.4395,0.71,0.003536,0.1642,-3.7e-06,0.4792,-0.1818,-0.02728,-0.2822,0.1854,-0.3772,-0.479,-0.0835,0.02177,0.169,0.1581,0.1026,0.0533,0.1125,0.00559,0.2727,0.3618,-0.2117,-0.367,0.1741,-0.084,-0.3896,0.0956,-0.2231,-0.0844,0.3757,-0.007626,0.065,0.3953,0.6216,0.00066,-0.703,-0.652,0.115,0.068,-0.0203,0.5933,0.3772,0.3208,-0.2017,-0.0638,-0.127,-0.2112,-0.4458,0.2249,-0.1166,0.1599,-0.3022,0.1416,-0.406,-0.0702,0.1321,0.4338,0.4326,-0.506,-0.12384,-0.1482,-0.1035,0.1295,0.0571,-0.04852,0.2554,0.2045,0.03262,-0.0877,0.4407,-0.2029,-0.2126,-0.05942,0.0437,0.4277,0.1232,0.2607,0.2856,0.1963,0.4119,0.0214,0.584,-0.0331,-0.2177,-0.6343,-0.4285,0.2834,0.2163,0.2239,0.04727,-0.1876,-0.687,0.02771,-0.3325,-0.3723,0.1678,0.11554,0.352,0.3481,0.03793,-0.1569,0.1312,0.07404,-0.2458,0.3801,-0.524,0.04086,-0.7393,0.1864,0.4487,0.01231,0.0119,-0.3623,0.1038,-0.739,0.4336,0.001679,0.377,-0.3733,-0.103,0.05762,-0.2615,-0.2051,-0.1644,-0.5166,0.4177,-0.0832,-0.2961,0.1969,0.2866,-0.1855,0.10626,0.314,-0.1071,-0.5073,0.00919,0.503,-0.04022,0.2426,-0.1312,-0.5625,0.03616,0.1199,-0.1652,-0.3591,0.3628,-0.1208,-0.2279,0.741,0.7676,-0.1913,-0.02284,0.4475,0.002169,0.2493,0.132,0.3896,-0.577,-0.266,0.09985,-0.3657,-0.7554,0.4016,0.2213,0.02882,-0.0707,0.07513,0.256,0.289,0.3481,0.3567,0.4585,0.332,0.292,-0.4463,-0.05124,-0.06964,-0.4753,0.09814,0.5166,-0.1819,-0.3176,0.547,-0.4238,-0.0567,0.4116,-0.03723,0.131,-0.3286,0.2605,-0.1676,-0.006073,0.1649,-0.4006,0.3962,0.1497,0.1284,-0.1995,-0.0953,0.588,0.0994,-0.404,-0.00155,0.1943,-0.1674,0.1592,-0.03745,-0.2474,-0.3943,-0.1892,0.0842,-0.4194,0.0743,-0.1449,0.3657,0.328,-0.596,0.1442,-0.3093,-0.2316,-0.5273,-0.296,-0.122,0.556,0.2717,-0.2079,-0.1254,0.4817,-0.3184,0.09814,0.2075,-0.2734,0.3154,0.439,-0.593,0.3909,-0.1863,0.1824,0.0841,-0.3154,0.0382,0.06964,0.3662,0.09265,-0.3506,-0.197,-0.1768,0.7573,0.1703,0.11847,-0.1685,-0.165,0.2206,-0.4624,-0.668,0.2363,0.01645,0.1588,-0.298,-0.0418,-0.245,-0.2249,-0.288,0.0926,-0.655,-0.3794,0.02698,0.1752,0.0336,-0.3186,0.1829,0.0568,0.1918,-0.4001,-0.7456,0.002157,0.0699,-0.1416,0.1096,-0.04572,0.1002,0.1996,-0.2056,-0.4124,-0.12427,0.2693,-0.1987,-0.0664,-0.0637,-0.3223,-0.317,0.05215,-0.1613,-0.1128,0.5146,0.1469,-0.0766,-0.297,0.002253,0.1741,-0.3125,0.08966,-0.03088,-0.2147,0.3152,0.4817,-0.1055,0.5522,-0.26,0.3008,0.3674,0.352,0.001183,0.1099,-0.3635,-0.0983,0.3267,0.879,0.322,-0.2009,-0.138,0.01521,0.1603,0.102,0.5786,0.03207,0.013374,0.4363,-0.2043,-0.2734,0.01971,-0.03342,0.3108,0.2964,0.4407,0.07025,-0.256,0.01308,0.4185,0.649,0.1722,0.281,0.05368,-0.6196,0.0329,-0.1482,0.2125,-0.392,0.3606,-0.2578,0.4016,0.1963,0.3281,0.1437,0.858,-0.4539,-0.11005,0.305,0.3042,0.7305,-0.1769,0.449,0.513,0.03134,0.423,-0.3157,-0.236,1.207,-0.06665,0.009796,-0.2119,-0.1705,-0.3372,0.2766,-0.2227,0.3652,0.002243,-0.1749,-0.333,0.2527,-0.1516,-0.04535,-0.00908,0.455,0.0832,-1.408,0.1393,-0.2712,0.1587,0.7646,-0.10693,0.01455,-0.0408,0.1251,0.0488,-0.2109,-0.04526,-0.5317,0.1664,0.002434,0.59,-0.1731,0.05463,0.03613,-0.1292,-0.08276,-0.0591,-0.04712,0.4739,-0.11084,0.1459,-0.2443,0.08167,0.2339,-0.05927,-0.596,-0.0866,-0.1584,-0.2756,-0.692,0.4028,0.11707,0.0341,-0.3145,0.1169,0.3066,-0.1735,-0.04874,0.1317,0.1046,-0.05753,-0.04276,-0.237,-0.1085,0.2079,0.008255,-0.967,0.334,-0.0948,-0.2092,-0.1536,-0.1019,-0.3533,-0.2373,0.003695,0.5054,-0.608,-0.708,0.10443,-0.003607,0.896,0.794,-0.3555,-0.2262,-0.0577,0.01826,-0.04474,0.1643,0.1664,0.133,-0.4102,-0.3015,0.3684,-0.03644,0.1222,-0.1962,0.1809,-0.289,-0.1034,-0.4143,0.002808,0.03387,0.5586,0.1885,0.643,-0.1544,0.1268,-0.0901,-0.03583,-0.008415,-0.1744,0.001351,-0.1974,-0.2407,-0.06757
bathtub,0.2986,0.3267,-0.02606,-0.4507,0.1565,0.1545,0.129,-0.3455,0.0981,0.002981,-0.04108,-0.3977,0.3535,-0.4573,0.3047,0.04337,-0.0914,-0.0278,-0.1301,0.12256,0.1781,-0.11615,0.4314,0.2354,0.03111,-0.3018,0.1642,0.396,0.0712,0.271,-0.4512,0.532,-0.1259,-0.1038,0.2037,-0.1566,-0.2334,-0.326,0.618,0.1198,0.02802,0.06836,-0.1378,-0.1829,-0.1626,0.314,1.1045,-0.10175,-0.1255,-0.157,-0.1562,-0.2642,0.1095,0.1931,-0.2269,-0.3037,0.08093,0.2888,-0.291,0.5005,0.2411,-0.02182,-0.4277,-0.7734,0.4985,-0.02295,-0.003412,0.1823,-0.254,0.6914,0.1477,-0.4407,0.1906,0.3125,0.2422,-0.2466,0.395,-0.1409,-0.96,0.2185,0.0918,-0.3782,0.10016,-0.06006,-0.3735,-0.167,0.1057,0.10645,-0.3845,-0.08777,-0.3586,-0.1279,0.282,0.1357,-0.10455,-0.0766,0.0916,0.4956,-0.2317,0.313,0.5063,-0.3547,0.04297,0.1449,-0.3638,-0.02994,0.443,-0.2705,0.2727,0.05167,-0.138,-0.2808,0.3667,-0.1747,-0.4011,0.2238,0.4624,-0.1725,-0.04556,-0.6714,-0.06305,0.0746,-0.2361,-0.1869,-0.01336,0.2825,0.9473,-0.2362,-0.4607,-0.2783,0.05545,0.1348,-0.0361,-0.1461,-0.001748,0.0731,0.1685,0.185,-0.4978,-0.2394,0.2898,-0.1383,-0.3652,0.2698,0.1393,0.0971,-0.1918,0.621,-0.2316,-0.3438,0.1791,0.3767,0.2783,-0.1278,-0.944,0.3516,0.02544,-0.429,-0.2194,0.1116,-0.1719,0.4536,-0.0333,0.0734,0.2118,-0.2822,-0.00824,-0.06573,-0.3516,0.301,-0.2703,0.3918,-0.2045,-0.1691,-0.03873,0.00853,-0.4336,-0.233,-0.253,-0.1389,-0.0672,0.2773,-0.4065,-0.09814,0.1494,0.342,-0.3318,0.002464,0.5737,0.4297,0.3608,-0.1294,0.1781,0.011345,0.06665,0.0628,-0.4941,0.2974,0.0725,0.0541,0.03946,0.03406,0.2435,-0.6177,0.2153,-0.3037,0.075,0.5605,-0.1076,0.218,0.277,-0.02312,0.04807,0.5737,-0.2333,-0.05054,-0.0948,0.3215,0.9023,0.3455,0.344,-0.1401,-0.307,0.206,0.3135,-0.01729,0.1904,-0.2197,-0.3062,0.046,0.1868,-0.05545,-0.1392,-0.08105,-0.3389,-0.1239,0.0392,-0.2023,-0.1206,-0.7764,-0.3103,0.2438,0.1268,0.1641,-0.001202,-0.1747,0.1028,0.1323,-0.4023,0.0407,-0.1284,0.03024,-0.03152,-0.08325,-0.1414,-0.006264,0.3096,0.05576,-0.1469,-0.1742,-0.1793,-0.2262,0.3086,-0.0769,-0.03497,-0.2178,-0.07684,0.3948,0.346,-0.144,0.3052,0.2905,-0.415,0.302,0.2634,0.295,-0.128,-0.0628,-0.4153,0.09906,-0.065,0.616,-0.4016,0.3113,0.2007,0.3293,-0.0945,0.3665,-0.05423,0.3555,-0.1456,-0.1864,0.00497,-0.2937,-0.33,0.126,-0.013885,0.1305,-0.2037,-0.02922,0.251,0.1339,0.2769,0.315,-0.1132,-0.477,0.3782,-0.1335,-0.2505,0.03247,-0.2228,-0.3208,0.1974,-0.2233,0.2251,0.6035,0.0921,-0.1635,-0.4282,-0.5938,0.487,-0.1329,0.2225,0.2686,0.1771,0.1041,-0.295,-0.1656,0.08124,-0.4421,-0.7725,0.31,-0.1527,0.559,-0.2228,0.2019,-0.2534,0.1721,0.3894,0.4973,-0.0667,-0.2156,0.32,-0.1589,0.05753,0.27,0.1608,0.1151,0.0796,-0.1368,-0.09204,0.2007,0.164,-0.06354,0.2698,-0.05966,0.10815,0.2915,-0.05164,-0.0887,-0.03833,-0.014725,0.659,0.05936,0.517,0.1339,-0.1235,-0.749,-0.733,0.2617,-0.4548,0.2439,-0.3284,-0.1486,-0.3923,-0.3418,0.0516,-0.336,-0.0896,-0.2625,0.1392,0.3267,-0.1776,-0.03586,0.11816,0.1416,-0.08856,0.2964,-0.2942,0.1115,-0.5483,0.1921,0.397,-0.07306,-0.02579,-0.6553,-0.0743,-0.02133,0.5913,-0.383,-0.2303,-0.2233,-0.0737,-0.05624,-0.08215,-0.0631,-0.0376,-0.1259,0.1616,-0.0885,-0.4502,-0.0592,0.2793,-0.3398,0.1608,0.375,-0.1503,-0.3801,0.1113,0.3186,-0.3184,0.1212,-0.353,-0.2915,0.1274,-0.2627,-0.6694,-0.2338,0.3113,-0.2888,-0.632,0.642,0.677,-0.1185,0.048,0.28,-0.08636,-0.02763,-0.1678,-0.1082,-0.158,-0.604,0.2893,-0.3943,-0.804,-0.064,0.2046,-0.299,-0.2031,-0.2352,0.4353,0.3826,0.1984,0.4805,-0.07764,0.2052,0.262,-0.1624,-0.5825,-0.006794,-0.3015,0.2844,0.2617,-0.4263,0.03613,0.298,-0.158,-0.034,0.4023,-0.2078,0.10333,-0.6543,0.3882,-0.111,-0.08093,-0.1499,-0.29,0.477,0.1692,0.1523,-0.01587,0.1881,0.3723,-0.2389,-0.297,-0.02663,0.2267,-0.05087,0.482,0.2383,-0.03084,-0.2742,0.179,0.1777,0.1738,-0.0697,-0.1488,0.3162,0.1384,-0.341,-0.1669,-0.1595,0.0347,-0.1553,-0.0556,0.03397,0.5483,-0.11273,-0.2913,0.3015,0.4407,-0.5146,0.1542,0.06506,-0.10156,0.1052,0.5166,-0.533,0.2269,0.1992,0.1191,0.1461,-0.1516,0.3162,-0.0751,0.08496,0.1292,-0.1171,0.0694,-0.501,0.592,0.2522,0.5454,0.3235,-0.05478,0.3088,-0.1255,-0.896,0.05905,-0.1394,0.2161,-0.3396,-0.209,-0.08575,-0.5327,-0.1965,-0.5083,-0.2072,-0.369,-0.03983,0.319,0.0781,-0.1819,0.133,-0.07806,0.0478,0.0548,-0.787,-0.2231,0.04214,-0.0944,0.1685,0.0166,-0.1532,-0.02827,-0.1267,-0.654,-0.1749,0.05722,-0.02911,0.1963,0.08,-0.10474,-0.05838,-0.0758,0.001849,0.3936,-0.4866,0.1028,-0.03062,-0.2942,0.2113,0.01799,-0.5874,0.03775,0.1184,0.0325,0.2302,0.2037,-0.004646,-0.06088,-0.556,0.0735,0.3364,0.3606,-0.3022,-0.007675,-0.552,-0.045,0.3264,0.544,0.292,0.00981,0.03952,-0.1321,0.02547,-0.3833,-0.00897,-0.3691,0.4243,0.4612,-0.1897,-0.2563,0.2554,0.1871,0.07153,0.3137,0.2715,0.268,-0.38,-0.2131,0.033,0.4624,-0.002283,0.273,0.2837,-0.1775,-0.1317,-0.04776,-0.0672,-0.5747,-0.1755,-0.1599,0.12415,0.1532,-0.1907,-0.11884,1.383,-0.5796,-0.1992,0.3884,0.749,0.4395,0.06824,0.3652,0.475,0.3333,0.329,-0.3208,0.00981,0.58,0.1121,-0.2898,-0.2578,0.0626,-0.46,-0.082,-0.2037,0.1719,-0.0638,-0.576,-0.1348,0.3953,-0.03049,0.0748,0.048,0.5464,0.27,-1.165,-0.4885,-0.2515,-0.04407,0.682,-0.1735,0.0003474,0.2003,0.1028,0.125,-0.2028,-0.05548,-0.6514,0.10394,0.1786,0.1531,-0.2273,0.2332,0.1648,0.1986,0.09033,-0.1493,0.297,0.3433,0.0921,-0.07434,-0.0655,-0.03558,0.3025,-0.2812,-0.4443,0.2283,-0.1938,-0.1614,-0.4229,0.2318,-0.0618,0.04218,0.02325,0.3005,0.015236,-0.04803,0.0987,0.1043,0.4153,-0.1501,-0.02986,-0.0881,0.02655,0.2499,-0.319,-0.8096,-0.3997,0.7144,0.039,0.0832,0.1935,-0.4417,-0.05792,0.3264,0.1589,-0.4229,-0.3987,0.216,0.0975,1.215,0.649,-0.07446,-0.2108,-0.06396,0.1244,-0.03146,0.07043,0.2766,0.3743,-0.508,-0.2795,0.3591,0.0912,0.2798,0.02351,0.2062,0.5522,-0.009476,-0.3723,0.0461,-0.1322,0.04733,0.0432,0.585,0.189,-0.1003,-0.0719,-0.3567,-0.1587,-0.1262,-0.0011,0.07776,-0.4775,0.01029
beads,0.1428,-0.2793,0.04486,-0.2568,0.2805,0.385,0.2482,-0.1898,-0.226,-0.124,0.0576,-0.707,0.1549,-0.2083,0.08484,0.1542,0.1635,-0.1924,0.01813,-0.174,0.02402,0.4575,0.0643,0.2006,0.3406,-0.1144,-0.1667,0.1571,-0.03595,0.3416,-0.26,0.03326,0.0723,-0.05023,0.08167,0.2057,0.02731,-0.01494,0.5464,0.1761,0.1438,0.07416,-0.281,0.1372,0.0881,-0.0787,0.669,0.1635,-0.0959,0.0779,-0.452,-0.0497,-0.06155,0.04837,-0.02022,-0.4514,0.02171,-0.02135,-0.006763,-0.02419,0.03204,0.1211,0.1685,0.05594,0.1375,0.159,-0.2074,-0.0787,-0.3508,-0.06464,0.013054,-0.12354,0.01315,-0.2075,0.02774,-0.198,0.111,0.1628,-0.3704,0.1793,0.01857,-0.2319,0.3333,0.09357,-0.328,-0.1681,-0.04425,-0.0904,0.02274,0.523,0.2407,-0.354,0.1234,0.02579,-0.01467,-0.3545,-0.01027,0.1874,-0.2255,0.3572,0.334,0.1392,-0.10846,0.08514,-0.435,0.00086,-0.1936,-0.1995,0.1509,-0.1362,-0.1114,-0.357,0.08307,-0.073,0.2042,-0.3538,-0.1892,-0.1282,0.2705,0.04965,0.0947,0.2166,0.5522,-0.161,-0.543,-0.0725,0.621,0.2428,-0.0348,-0.2054,-0.1222,-0.02325,0.05487,0.1919,-0.04684,0.086,0.3086,-0.1186,-0.03076,-0.1333,0.135,0.09625,-0.1869,-0.2495,0.501,0.02512,-0.566,-0.2407,0.4265,0.07477,0.04956,0.167,0.06726,-0.275,-0.318,-0.3628,0.0157,0.1768,-0.0262,-0.1472,-0.11206,0.2961,-0.1794,0.1431,0.05414,-0.0936,0.01738,0.1711,-0.1298,-0.3677,-0.205,0.0428,-0.1304,0.3208,-0.122,0.11053,-0.1761,-0.1492,0.1295,0.2727,0.0455,0.1295,-0.1433,-0.1555,-0.1736,0.2035,-0.09576,0.01478,0.2162,-0.1337,0.2479,0.0953,0.2129,0.3337,-0.007572,0.04916,-0.293,0.12,0.1796,0.04623,0.017,0.4805,0.1449,-0.1805,0.2325,-0.03116,-0.10944,0.2703,0.2333,0.2588,0.4705,-0.1539,-0.2102,0.5166,-0.221,-0.0733,-0.3254,0.1624,0.284,0.6987,0.0313,0.0915,0.08386,0.2006,0.2415,-0.3086,-0.1236,-0.171,-0.2101,-0.3574,0.0527,0.02667,0.00483,-0.06696,0.2522,0.1278,-0.1694,0.3333,0.01704,-0.00668,-0.06836,-0.1566,-0.07886,0.01155,0.2186,-0.5264,-0.0636,0.09595,-0.0906,-0.0803,0.1516,-0.1748,0.3154,0.1783,-0.5283,0.02454,0.1691,-0.0816,-0.2081,-0.004433,-0.1897,0.04544,-0.08154,0.2788,0.0841,0.1691,-0.1375,0.32,0.02997,0.1715,0.03952,0.612,-0.035,0.5615,-0.0491,-0.5,0.286,0.10767,-0.2942,-0.2435,-0.036,0.381,-0.0147,0.2463,0.04904,0.1126,0.1337,0.1401,-0.3804,0.09,0.3071,-0.10126,-0.228,-0.05865,-0.9565,-0.0858,-0.2407,0.1458,-0.618,0.5938,0.03964,0.3298,0.4297,0.1611,-0.0795,-0.0723,0.3577,0.2827,-0.03732,-0.4785,-0.013756,-0.2976,-0.166,-0.271,-0.0334,0.02896,-0.1339,0.258,-0.2228,-0.00963,-0.03247,-0.1517,0.01104,-0.10406,-0.08484,0.03084,-0.0541,0.1769,-0.03177,-0.2264,-0.7085,-0.2878,-0.3438,-0.3496,-0.435,0.455,-0.1032,0.2478,0.602,0.12445,0.1555,0.1411,0.2257,0.253,0.1766,-0.08246,0.03925,-0.1616,-0.359,-0.02388,-0.1251,0.4797,-0.179,-0.4238,0.0443,0.3923,0.1984,0.071,-0.3433,-0.2798,0.1748,0.1249,0.42,0.00477,0.2583,-0.4656,0.1333,-0.06165,-0.6924,0.4133,-0.1886,0.2815,0.06226,-0.02304,-0.2457,-0.1743,0.1465,-0.22,-0.1188,-0.693,0.05,-0.05576,-0.1589,0.1385,0.5225,0.3618,0.172,0.11816,0.0527,-0.6,-0.2898,0.0001854,-0.1824,0.0624,-0.25,-0.2524,0.529,0.2964,0.3267,-0.1486,0.1658,0.1334,-0.2211,0.357,0.1971,-0.1049,0.2129,0.03317,-0.02339,-0.363,0.4004,-0.05402,0.2998,0.1514,0.2366,-0.2494,0.0779,0.03503,0.2109,-0.1648,-0.1373,0.1554,-0.12195,-0.193,0.2788,-0.545,0.1311,0.083,-0.0817,-0.002321,-0.5522,0.4558,0.06757,0.32,0.01877,-0.1052,0.4897,0.2141,-0.04486,-0.1965,0.0998,0.0972,-0.0556,-0.06183,-0.2389,-0.1111,0.1231,-0.1726,-0.0725,-0.075,0.2493,0.4558,-0.336,0.2325,0.231,-0.03177,0.3242,-0.2004,-0.08246,-0.0293,-0.1765,0.2352,0.3096,-0.01974,0.2534,-0.2615,-0.2258,-0.2472,0.2263,0.00846,-0.01723,-0.4446,0.1603,-0.2104,-0.11694,-0.4038,0.01593,-0.0142,0.0936,-0.1744,-0.01706,-0.509,0.5283,0.05814,0.1549,0.3872,0.1971,-0.1227,0.2966,-0.52,-0.3494,-0.218,0.334,-0.1027,-0.01377,0.0719,0.1329,0.1659,-0.08984,0.1087,-0.1376,-0.351,0.03069,0.7236,-0.1191,0.1372,-0.197,-0.09515,-0.3198,-0.11847,-0.02211,0.0615,0.08777,-0.0807,0.0738,-0.2076,0.2878,-0.03001,-0.1895,-0.01791,0.01523,-0.00062,-0.05618,-0.165,-0.1238,-0.1979,0.214,-0.4902,0.2119,-0.2556,0.2864,0.06097,0.352,-0.02957,0.1318,0.2795,-0.2227,0.136,0.3555,-0.2983,0.2047,-0.10254,-0.10956,0.01811,0.03093,-0.1582,0.2314,-0.02316,-0.223,0.1572,0.3032,0.4233,0.02963,-0.01525,0.03717,-0.4097,0.1406,0.2263,0.02054,0.2478,0.00414,0.09143,0.3022,0.02832,-0.4446,0.0322,-0.2595,-0.3677,-0.0752,0.00887,0.2229,-0.00798,-0.1692,-0.1154,0.10516,-0.1667,-0.0694,-0.22,0.272,0.0512,0.0915,0.3625,0.05365,-0.867,0.2035,0.11066,0.08997,-0.05682,0.125,0.1606,0.03226,0.03064,0.1186,0.1685,-0.1692,-0.523,-0.10126,-0.5474,-0.2041,-0.05078,-0.1343,-0.05682,0.006565,-0.01312,0.01955,0.0807,-0.626,0.2446,0.395,-0.01836,-0.06995,-0.06903,0.3098,-0.1755,-0.1401,-0.11316,0.0588,0.269,-0.0792,-0.2285,0.2015,0.0961,0.1967,-0.08167,0.008575,0.0784,0.0388,0.3552,-0.1763,-0.05942,-0.4028,0.1848,0.069,0.02524,0.2964,-0.04016,0.1422,-0.0992,-0.202,-0.1578,-0.03348,-0.1004,0.006683,-0.05176,-0.2369,-0.08606,0.005608,0.05063,0.4924,-0.1967,-0.593,-0.08276,-0.03973,0.01063,-0.2856,-0.12366,0.5747,0.01648,-0.00902,0.3157,0.1506,-0.09393,0.1415,0.1482,-0.1963,0.0333,-0.04163,-0.08704,-0.7,-0.1917,0.003023,-0.4753,0.05908,-0.1736,-0.229,-0.2014,-0.1735,-0.2554,-0.1272,0.02924,-0.1455,-0.004753,0.2408,-0.003405,0.2439,0.2798,0.1199,0.1051,0.1086,0.3208,0.255,0.1631,-0.08826,-0.3198,-1.077,-0.0984,0.2017,-0.01453,0.0767,0.03412,-0.1113,-0.3726,0.05023,0.005466,-0.0511,-0.268,0.1735,-0.117,0.05188,0.1681,0.292,0.2296,0.2341,-0.03235,-0.3271,0.1865,0.10016,-0.11755,-0.1613,0.3042,-0.0972,0.73,-0.1394,-0.4841,0.02353,-0.5312,0.0794,-0.2465,-0.1333,-0.003883,-0.1865,-0.4175,0.1108,0.8335,0.1488,0.009155,0.1173,-0.01528,0.2559,-0.03207,-0.2625,0.1775,-0.0558,-0.363,-0.04718,0.88,0.2952,0.2844,0.368,-0.09106,0.361,0.1216,-0.1547,0.12427,-0.1265,-0.2322,-0.0188,0.2437,-0.03156,-0.1087,-0.2382,0.04977,-0.1803,0.3374,0.1049,-0.3137,-0.05438,-0.271
