,0,1,2,3,4,5,6,7,8,9,10,11,12,13,14,15,16,17,18,19,20,21,22,23,24,25,26,27,28,29,30,31,32,33,34,35,36,37,38,39,40,41,42,43,44,45,46,47,48,49,50,51,52,53,54,55,56,57,58,59,60,61,62,63,64,65,66,67,68,69,70,71,72,73,74,75,76,77,78,79,80,81,82,83,84,85,86,87,88,89,90,91,92,93,94,95,96,97,98,99,100,101,102,103,104,105,106,107,108,109,110,111,112,113,114,115,116,117,118,119,120,121,122,123,124,125,126,127,128,129,130,131,132,133,134,135,136,137,138,139,140,141,142,143,144,145,146,147,148,149,150,151,152,153,154,155,156,157,158,159,160,161,162,163,164,165,166,167,168,169,170,171,172,173,174,175,176,177,178,179,180,181,182,183,184,185,186,187,188,189,190,191,192,193,194,195,196,197,198,199,200,201,202,203,204,205,206,207,208,209,210,211,212,213,214,215,216,217,218,219,220,221,222,223,224,225,226,227,228,229,230,231,232,233,234,235,236,237,238,239,240,241,242,243,244,245,246,247,248,249,250,251,252,253,254,255,256,257,258,259,260,261,262,263,264,265,266,267,268,269,270,271,272,273,274,275,276,277,278,279,280,281,282,283,284,285,286,287,288,289,290,291,292,293,294,295,296,297,298,299,300,301,302,303,304,305,306,307,308,309,310,311,312,313,314,315,316,317,318,319,320,321,322,323,324,325,326,327,328,329,330,331,332,333,334,335,336,337,338,339,340,341,342,343,344,345,346,347,348,349,350,351,352,353,354,355,356,357,358,359,360,361,362,363,364,365,366,367,368,369,370,371,372,373,374,375,376,377,378,379,380,381,382,383,384,385,386,387,388,389,390,391,392,393,394,395,396,397,398,399,400,401,402,403,404,405,406,407,408,409,410,411,412,413,414,415,416,417,418,419,420,421,422,423,424,425,426,427,428,429,430,431,432,433,434,435,436,437,438,439,440,441,442,443,444,445,446,447,448,449,450,451,452,453,454,455,456,457,458,459,460,461,462,463,464,465,466,467,468,469,470,471,472,473,474,475,476,477,478,479,480,481,482,483,484,485,486,487,488,489,490,491,492,493,494,495,496,497,498,499,500,501,502,503,504,505,506,507,508,509,510,511
airplane,0.2583,0.2306,-0.00953,-0.3306,0.0396,-0.0867,0.2515,0.512,0.0417,0.1508,0.3894,0.104,0.615,0.3267,0.03918,-0.1334,-0.0429,-0.1965,-0.181,-0.1997,0.2837,-0.1204,-0.2152,0.03976,-0.2229,0.1274,-0.03696,-0.01239,0.1646,0.1558,0.3596,-0.0191,-0.08124,-0.09186,-0.537,-0.05658,-0.4504,-0.3298,-0.395,0.2074,-0.05563,-0.1404,0.2783,0.04593,0.1265,0.623,0.3599,-0.0519,-0.125,0.1155,0.1549,0.0299,0.2012,-0.1241,0.1022,-0.1482,-0.4148,0.1814,0.1104,-0.07794,0.5347,-0.01443,0.0944,-0.298,0.00278,-0.15,-0.0564,-0.01988,-0.433,-0.3027,-0.2856,0.05466,0.03986,0.2803,-0.3372,-0.1603,0.04083,-0.2145,-0.0357,-0.2281,-0.05466,-0.1787,-0.0687,-0.621,0.2053,0.2408,0.8257,-0.2455,-0.2214,0.02444,0.3188,0.02118,-8.55,0.253,0.257,0.1914,-0.4192,-0.00971,0.08966,-0.1119,0.2258,-0.05472,0.4763,0.03183,0.01534,-0.013435,-2.188,0.0631,-0.0804,-0.1025,0.1536,-0.07996,0.0796,-0.02174,0.0759,0.02647,-0.2585,-0.2832,0.283,-0.1611,0.07526,-0.347,0.3982,0.144,0.19,-0.1505,-0.0986,-0.00575,-0.0656,-0.1776,0.1499,-0.55,0.0228,1.075,0.0642,0.1495,0.457,-0.4697,-0.04245,0.03253,-0.09894,0.2195,-0.1521,0.1384,-0.2196,0.03635,-0.26,0.2134,-0.1876,-0.2267,0.03537,-0.0395,0.1437,-0.2852,0.06805,-0.4146,-0.2339,0.0867,-0.1278,0.02603,-0.06256,-0.2188,0.1476,-0.08276,0.1608,0.2583,0.1665,0.2769,0.1141,-0.1469,0.2211,-0.05756,-0.01878,-0.2463,-0.1613,-0.4185,0.3137,0.3237,-0.2444,-0.0849,0.1694,-0.0749,-0.1125,0.1184,-0.2336,-0.11676,-0.03485,-0.0828,0.275,-0.001361,0.004086,-0.1265,-0.03745,-0.1788,0.1505,-0.215,-0.265,0.1803,-0.4128,0.2301,0.08276,0.0996,0.2588,0.1774,0.0169,-0.0973,-0.3313,-0.00467,-0.1924,0.0346,-0.3035,0.5005,0.02017,0.0036,-0.1394,-0.1412,0.06396,0.2744,0.3032,-0.3083,0.2676,-0.6216,-0.0526,0.0465,0.32,-0.0753,0.271,-0.046,0.00351,-0.08405,-0.08905,0.3198,0.2544,0.02113,0.00441,0.3977,0.0108,-0.03397,-0.02638,-0.269,0.0567,0.3147,-0.1354,-0.03757,-0.00844,0.002655,0.04446,0.1786,-0.0676,0.2244,-0.3184,0.307,0.2085,0.1261,-0.1416,-0.1428,0.10675,0.1964,-0.1081,-0.0703,-0.241,0.0428,-0.06555,0.522,0.1362,0.1091,0.1575,-0.3022,0.294,-0.00779,-0.0314,0.2291,-0.06494,-0.209,0.09045,-0.334,0.2407,-0.3489,-0.08466,-0.0973,-0.07684,0.2927,-0.03354,0.042,0.04102,0.09393,0.65,0.1121,-0.3787,-0.1626,-0.07495,-0.2764,-0.02203,0.2969,0.235,0.1891,-0.1621,0.01432,0.03644,-0.10516,0.3762,0.05106,-0.1715,0.2006,-0.2893,-0.7417,-0.2234,-0.01532,-0.01476,0.12354,-0.2014,0.1765,1.075,-0.2617,-0.01021,0.0731,0.4207,0.1857,0.07697,-0.2268,0.1971,1.479,0.00492,0.2386,-0.1035,0.2104,0.2401,-0.01431,0.0438,0.5493,-0.2727,0.2314,0.1339,-0.1799,-0.101,0.0734,-0.05862,0.0931,-0.02386,-0.0686,-0.1683,0.1268,0.07074,0.009445,-0.0727,0.145,-0.232,-0.001209,0.2483,0.0883,0.4368,-0.08405,-0.04434,-0.10376,0.1092,-0.4724,0.05826,0.4338,-0.0004494,-0.1693,-0.5537,0.2837,-0.03293,-0.0347,-0.5825,0.0463,-0.07056,-0.904,-0.1383,0.05417,-0.2308,-0.2057,0.09814,0.08795,0.08606,0.03265,0.2537,-0.1114,-0.511,0.1763,-0.10803,0.2484,-0.1534,-0.4465,0.138,0.02048,-0.02765,0.618,-0.0382,-1.216,-0.4705,0.1937,-0.2142,-0.4045,-0.0636,0.1346,0.1498,-0.04874,-0.596,-0.08234,0.2603,0.094,0.77,-0.0516,-0.07983,-0.01671,0.23,-0.263,0.02275,-0.2118,0.2262,0.04193,-0.1794,0.00791,-0.3604,0.1075,-0.1469,-0.01222,-0.11975,-0.3223,-0.01768,-0.2834,-0.01109,-0.0372,-0.1819,0.1677,-0.0903,0.0985,-0.2717,0.05527,-0.2242,-0.03073,-0.544,-0.4138,-0.03973,-0.1062,0.2435,0.1604,0.06464,0.007065,-0.1954,0.3384,0.238,0.02197,0.02924,0.467,-0.00395,0.04102,-0.0622,-0.05502,0.3433,-0.1238,-0.2411,-0.4946,-0.2488,0.10516,0.0958,-0.3628,0.02731,-0.009514,0.0788,0.05582,0.1622,0.0014,0.255,-0.013016,0.4316,-0.1318,0.0493,-0.3596,0.1675,0.2059,0.004436,-0.11475,-0.3564,-0.2086,-0.10144,0.2542,-0.2244,-0.1936,-0.26,-0.0812,-0.1145,0.03247,0.1914,0.2471,-0.2063,0.44,-0.05652,0.0279,-0.2474,0.04797,0.2583,-0.2017,-0.09265,-0.493,-0.06445,-0.1589,-0.2399,0.07416,-0.01299,0.0453,-0.142,0.1042,0.3606,-0.3308,-0.1304,-0.0789,-0.262,0.654,0.1824,-0.1262
alligator,0.3262,-0.1598,-0.238,-0.2253,0.2069,-0.1665,0.1697,0.662,0.1809,0.1705,0.2483,-0.065,0.2732,-0.0637,-0.0724,-0.0814,-0.09625,0.167,0.3193,-0.00875,-0.2905,0.204,-0.0886,-0.01429,-0.2324,0.1447,-0.1519,-0.2059,0.05765,-0.1503,0.2637,-0.0273,0.1278,-0.04617,-0.3252,-0.10126,-0.313,0.2532,-0.1076,-0.1039,-0.1741,-0.1924,0.01453,0.01718,-0.01918,1.64,0.2386,0.04337,-0.0594,-0.22,-0.00895,-0.02925,0.11804,-0.12225,0.3835,-0.02832,-0.1559,0.05798,-0.02618,-0.2954,0.746,-0.345,-0.376,-0.2498,0.04422,0.1041,-0.0838,0.347,-0.1141,0.01614,-0.2708,-0.02081,0.1868,-0.02094,-0.1849,-0.2822,0.08716,-0.3633,0.01648,-0.352,0.1947,0.08453,-0.224,-0.81,0.3555,0.4001,0.09015,-0.06256,0.1716,-0.07666,0.1735,-0.2047,-8.92,0.5645,0.05597,0.00601,0.1786,0.010765,-0.2284,0.1699,0.17,-0.03082,0.12036,-0.0371,-0.1439,0.11346,-1.1455,0.0628,-0.2007,-0.1451,0.04892,0.0563,0.286,-0.1697,-0.0413,-0.04767,0.2268,-0.05966,0.11884,-0.008026,0.07434,-0.5386,0.1147,0.0865,0.11755,-0.1757,-0.02745,-0.1293,0.3398,-0.03415,0.1483,-0.4177,-0.2452,1.118,0.0811,0.0817,0.149,-0.9185,-0.4575,0.005592,0.1193,0.135,0.0325,-0.246,-0.1376,-0.04163,-0.3137,0.02107,-0.11804,0.1942,-0.2349,-0.1678,-0.0507,-0.1143,-0.1256,-0.3826,0.3496,-0.1166,-0.3638,-0.02649,-0.1263,-0.07135,0.11163,-0.197,-0.002878,-0.111,0.1001,0.05386,-0.09296,-0.002981,-0.01814,-0.11505,0.15,-0.3704,-0.3276,-0.0613,-0.12115,0.316,-0.2625,-0.1162,0.10205,-0.01727,0.0368,0.12256,-0.3877,-0.0634,0.0847,-0.0843,-0.0486,0.0262,-0.008194,-0.128,0.1394,-0.1868,-0.0729,0.09705,0.02133,0.1849,-0.498,0.2498,-0.1477,0.05292,-0.02234,0.2964,0.09265,0.1148,-0.3208,-0.1494,0.05002,-0.1225,-0.4023,0.2783,-0.036,-0.10266,-0.094,-0.07745,-0.2031,0.1323,0.759,-0.1676,0.7236,0.2161,-0.11426,-0.00859,0.06198,0.0181,0.2612,-0.1783,0.1332,0.03137,-0.2017,0.002785,0.0428,-0.2717,-0.03687,0.4617,0.03168,-0.00456,-0.0782,-0.1561,-0.02252,0.2434,0.2269,0.04373,0.108,-0.274,0.04718,-0.0759,0.1742,0.134,-0.3237,0.19,0.4924,0.0187,-0.191,-0.171,-0.03964,0.0551,-1.106,-0.05136,0.11554,-0.10297,0.06915,-0.2407,0.004154,0.2451,0.1309,-0.311,0.04437,-0.02963,-0.001297,0.05685,-0.002893,-0.1313,-0.0414,-0.1871,0.3171,-0.3718,-0.0804,-0.1508,-0.1287,-0.0923,0.2864,-0.07367,-0.03604,-0.3489,0.7036,0.0775,-0.3782,-0.00621,0.0721,0.004356,0.10034,0.05652,0.01863,0.3135,0.3687,0.00804,0.049,0.2644,0.1332,-0.1783,-0.1475,-0.001406,0.0143,-0.732,-0.1251,-0.0987,0.02061,0.2832,-0.519,-0.1934,1.118,0.3396,-0.0685,-0.2026,0.3545,0.3225,0.1259,-0.05972,0.2898,1.35,0.006462,-0.1014,-0.2583,-0.04623,0.00972,-0.014534,0.1417,0.6387,-0.2537,0.00857,0.3108,-0.2537,-0.0981,-0.2834,-0.1055,0.092,0.07513,-0.1028,0.006725,0.1515,0.02844,0.01723,-0.2208,0.0718,0.2717,-0.1002,0.0973,0.01503,0.569,-0.03537,0.03111,0.07367,0.4026,-0.288,0.1009,0.2834,-0.09686,0.03976,-0.2373,-0.11115,0.1765,-0.03784,-0.611,0.2766,-0.04016,-0.6475,-0.0635,0.16,-0.03214,-0.11334,0.1451,0.04193,-0.01724,0.1287,0.238,0.1223,-0.6753,0.09875,-0.1543,0.03075,-0.05002,-0.3567,-0.11975,0.05875,-0.1973,0.2325,-0.09424,-1.495,-0.824,-0.01717,-0.0374,-0.2744,-0.1454,-0.06757,-0.07697,0.12335,-0.531,-0.268,-0.07513,0.10065,0.2067,-0.10376,-0.237,0.00933,0.012405,-0.04944,0.2467,-0.2673,0.3047,-0.2151,0.01226,0.5566,-0.1467,0.2302,-0.000935,-0.1058,-0.0869,-0.08105,-0.2393,-0.165,0.1477,-0.35,-0.1759,-0.216,0.1459,-0.2454,0.587,0.02242,-0.4094,0.1043,-0.05518,-0.3005,-0.0734,-0.1567,0.12305,0.3203,0.0143,0.0501,-0.3206,0.504,0.003063,0.02087,0.0961,0.187,0.0128,0.01909,0.04373,0.06757,0.0655,-0.1405,0.11566,-0.1344,-0.05966,0.1256,0.2825,0.01822,-0.2235,0.1724,0.1624,0.3357,-0.03687,-0.106,0.5845,-0.10406,0.1017,-0.09326,-0.1262,-0.0765,0.02109,-0.1683,-0.1815,-0.1194,-0.0456,-0.1477,-0.081,-0.1396,-0.1432,-0.1732,-0.03842,-0.1721,0.1024,0.09705,-0.0341,-0.0331,-0.1152,0.1317,-0.1038,-0.02356,0.158,-0.0571,0.04898,-0.09595,0.001005,-0.1534,-0.43,-0.3333,0.03226,-0.01624,0.1796,0.2786,-0.1317,-0.0653,0.1642,-0.2499,-0.01521,-0.0389,-0.0809,0.6904,0.02028,0.04562
animal,0.258,-0.044,-0.1056,-0.11847,0.05377,-0.147,0.287,0.461,0.2368,0.3726,0.0534,-0.2142,0.1136,-0.01447,0.12494,0.1136,-0.0566,0.167,0.318,0.05222,-0.2145,0.1914,-0.01653,-0.0815,-0.3071,0.06018,-0.01817,-0.1868,0.02971,-0.3145,0.3142,-0.0758,0.01352,-0.0925,-0.2407,0.1395,-0.1694,0.1106,0.179,0.1759,-0.4272,-0.11896,0.00477,0.05325,0.1753,1.692,0.3982,0.06244,0.12024,-0.1279,0.3298,0.0741,0.1558,-0.12213,0.1783,0.02051,0.0495,0.2203,-0.1516,-0.2018,0.88,-0.1039,-0.3042,-0.2566,-0.096,0.00809,-0.1725,0.2803,-0.1602,-0.1301,-0.1101,-0.1311,-0.0366,0.09216,-0.27,-0.3184,-0.06604,-0.1875,-0.1109,-0.2488,0.0057,-0.07825,-0.3464,-0.7695,0.1327,0.2676,0.5645,-0.1537,0.443,-0.0479,0.2136,-0.1125,-8.19,0.653,-0.0911,0.2072,-0.03366,-0.1953,-0.1841,0.4124,0.1912,-0.1119,0.3765,0.0529,-0.2312,0.004177,-0.7007,0.2396,-0.1783,-0.04672,0.11365,-0.0005865,0.3877,-0.2048,-0.1423,-0.0514,-0.1132,-0.2428,0.3723,0.04553,0.057,-0.5,0.1381,-0.0528,0.3057,-0.279,-0.1887,-0.02762,0.02089,-0.1859,0.1289,-0.591,-0.221,1.036,-0.04596,0.02432,0.1531,-0.6943,-0.4697,-0.02122,-0.0236,-0.0819,-0.1575,0.0856,-0.2795,0.01528,-0.2095,0.3801,-0.202,0.1506,-0.08,-0.2081,0.03186,-0.06903,-0.1267,-0.4124,0.3062,-0.259,-0.337,-0.0881,-0.12366,0.1862,0.1453,-0.2179,0.3013,-0.00331,0.2104,0.01582,0.1357,0.06274,-0.06854,-0.1159,-0.1178,-0.1254,-0.3442,-0.03784,-0.165,0.182,0.05786,-0.004105,-0.0983,-0.3025,0.04623,0.1108,-0.11487,-0.01624,-0.007557,-0.12244,-0.05127,0.0289,0.03653,-0.1643,0.3118,-0.2224,-0.1573,0.11316,-0.0747,-0.04462,-0.7954,0.2351,-0.0416,-0.01884,0.04312,0.3154,0.1975,0.1433,-0.4146,-0.3174,0.1353,-0.1562,-0.4023,0.5127,0.00422,0.002064,0.01883,-0.01164,-0.0916,0.1667,0.7397,-0.1912,0.687,0.3474,-0.06665,-0.1857,0.0012245,-0.1868,0.0498,0.1865,0.0623,0.0384,0.0425,0.003836,0.2576,-0.0697,0.1378,0.4624,0.1222,0.1421,-0.1141,-0.3616,-0.1332,0.382,0.2374,0.04507,0.2169,-0.03192,-0.03287,-0.08673,-0.03693,0.2021,-0.11304,0.3228,0.3494,0.2241,-0.0745,-0.05652,-0.159,0.266,-1.165,-0.02585,-0.1175,0.10284,-0.1241,-0.2268,0.05475,0.2269,0.2798,-0.2465,0.00817,-0.1522,0.03827,0.011116,-0.006348,-0.03079,0.1428,-0.0001113,0.05554,-0.06464,-0.1859,0.06207,-0.0925,0.2365,0.122,-0.06125,0.1631,0.11523,0.389,-0.0698,-0.407,-0.06934,0.04468,-0.2394,0.2688,0.1508,0.2362,-0.01918,0.2947,0.0718,0.1016,0.0556,0.3328,0.0284,0.02248,-0.03793,0.01557,-0.695,-0.07306,0.06995,0.2267,0.2542,-0.3484,-0.09033,1.036,-0.10944,0.2168,-0.1018,0.2147,0.2998,0.0905,-0.034,0.3647,1.479,-0.3027,0.05908,-0.2073,-0.1005,0.1625,-0.1693,0.1819,0.3608,-0.0146,-0.04617,0.0896,-0.2046,-0.05246,0.00899,0.2208,0.0764,0.036,-0.1475,0.007534,0.00943,0.1117,0.1401,-0.064,0.0437,0.1168,-0.04865,0.2207,-0.1686,0.1698,0.1188,0.1849,-0.1378,0.159,0.079,0.2976,0.1349,-0.04214,0.3345,0.1432,0.071,0.1494,0.2264,-0.1674,-0.010185,-0.0371,-0.78,-0.1324,0.1084,-0.0215,-0.11975,0.2144,0.1732,0.07996,0.03775,0.681,-0.02515,-0.7725,0.105,0.2019,-0.1566,-0.21,-0.3232,-0.0495,-0.0938,-0.066,0.1941,-0.01582,-1.701,-0.7725,-0.0434,0.01575,0.011,0.0644,-0.126,-0.154,-0.013596,-0.8057,-0.3462,0.09924,0.148,0.4626,0.1443,-0.1315,0.1437,0.0627,-0.2117,0.2168,-0.327,0.4531,-0.0579,-0.08704,0.2673,-0.2457,-0.0684,0.0354,-0.1403,0.04092,-0.4202,-0.2495,-0.2089,-0.05276,-0.1121,-0.189,-0.0819,-0.09076,-0.1656,0.804,-0.02719,-0.3733,0.08655,-0.04962,-0.1501,-0.2189,-0.2482,0.2198,0.2996,-0.05368,0.1951,-0.241,0.57,-0.1411,0.02597,0.3884,0.0286,0.0957,0.04565,-0.00816,-0.0766,0.2449,-0.3313,-0.01863,-0.10333,0.02638,-0.005203,0.474,0.03607,-0.3071,-0.001878,0.259,0.11096,-0.05157,-0.0531,0.614,0.10065,-0.2642,-0.07275,-0.2002,0.01201,0.2294,-0.2375,-0.03046,-0.2096,-0.1483,-0.116,0.0627,-0.1259,-0.091,-0.03668,-0.2327,-0.3137,0.04562,0.08936,-0.1321,0.2162,-0.1423,-0.01421,-0.02934,-0.0003514,-0.0451,-0.1493,0.4045,-0.2433,0.0788,-0.2559,-0.1964,-0.08826,-0.1931,0.02353,0.009605,0.2825,-0.03113,-0.04974,-0.00626,-0.1965,-0.08594,-0.007416,-0.05545,0.4968,0.0421,-0.04138
ankle,0.09546,-0.0999,-0.0378,-0.1699,-0.1687,0.09393,0.2134,0.6177,0.4182,0.2148,0.3245,-0.1315,0.159,-0.10504,-0.4768,0.1038,0.3196,0.1261,0.362,-0.1302,-0.1305,0.07526,-0.2283,0.10455,-0.311,-0.1653,0.0474,-0.1174,0.06995,0.1322,0.1837,-0.2236,-0.101,-0.301,-0.18,0.1147,-0.1852,-0.09454,-0.3694,-0.0159,-0.503,-0.4385,-0.01476,-0.1819,0.06097,1.502,0.2656,0.132,-0.1646,-0.2318,0.3315,0.1131,0.1528,-0.3157,0.1926,0.00466,0.2307,0.01306,-0.3743,0.0177,0.9033,-0.08264,-0.2461,-0.3428,-0.02968,-0.1525,-0.4126,0.2551,-0.07153,-0.434,-0.01642,-0.2019,0.02902,0.0664,-0.3098,0.1324,-0.09357,-0.2542,-0.1434,-0.4011,-0.0745,-0.06256,0.1058,-0.578,0.1183,0.198,0.678,-0.0729,-0.2324,-0.1105,0.04443,-0.2659,-9.1,0.643,0.08496,0.2147,0.05786,0.148,-0.1565,0.4521,-0.1566,0.0473,0.4934,-0.1605,0.1868,0.09375,0.0358,0.3489,-0.2458,0.1115,-0.02596,0.29,-0.098,-0.2451,-0.07214,-0.02861,0.006516,-0.2087,0.1958,0.151,-0.3916,-0.707,0.00644,0.335,0.3196,0.11804,0.11017,-0.2229,0.1544,-0.03076,0.03006,-0.1119,-0.1357,1.123,-0.01709,0.4062,0.229,-0.3923,-0.2922,-0.0866,0.1979,0.1477,-0.4521,-0.0804,-0.218,0.3992,-0.2708,0.295,0.11816,-0.003479,0.001218,-0.179,0.2318,0.1459,-0.10394,-0.455,-0.01037,0.01866,-0.10626,-0.1044,-0.05173,-0.1895,0.012955,-0.09985,0.307,-0.00636,-0.2673,0.153,0.1283,-0.2072,0.2035,-0.452,-0.2498,-0.07806,-0.05273,-0.1075,0.9487,0.2754,-0.1897,0.03015,-0.0349,-0.3354,0.3474,0.1616,-0.7583,-0.0938,0.05392,0.0565,0.2285,-0.2423,0.1643,-0.1702,0.1488,-0.1218,0.4526,-0.1053,0.04224,-0.274,-0.2053,-0.2428,-0.07056,0.2212,0.08246,0.2847,0.3044,0.1538,-0.2944,-0.1268,-0.01814,-0.4382,-0.05984,0.2295,-0.007713,0.3118,0.07874,0.12274,-0.05685,-0.318,0.769,-0.1174,0.3252,0.2783,0.2913,-0.1787,0.341,-0.05878,0.2352,0.2698,0.1561,0.5454,0.04126,0.2112,0.1876,-0.1705,0.0167,0.0382,-0.1975,-0.1732,0.05774,-0.355,-0.00209,0.3005,0.4329,0.2605,0.1841,-0.737,-0.06476,0.36,0.10095,0.04376,-0.1896,-0.05124,0.344,-0.1727,0.1338,-0.05878,0.2418,0.1282,-0.4614,-0.107,0.0453,-0.2383,-0.0794,0.0631,0.259,0.2056,0.12213,-0.06,0.2229,-0.3064,0.03607,0.10187,-0.3157,-0.2186,0.02922,0.1432,0.0301,-0.3394,-0.02443,-0.0622,-0.06555,0.10645,0.179,-0.0775,0.1929,-0.2283,0.933,0.09906,-0.1327,-0.2825,0.337,-0.02061,0.02805,0.4326,0.04947,0.3528,-0.1666,-0.07227,-0.0292,0.00545,0.3137,-0.006977,-0.01627,0.3706,-0.2131,-0.5547,-0.296,-0.4036,-0.00984,0.1567,-0.2192,-0.2998,1.122,0.1044,0.2847,-0.1263,0.2947,0.4043,0.2202,-0.03394,-0.3342,1.231,-0.2825,-0.2208,-0.2732,0.2068,-0.03079,0.2197,0.193,0.8535,0.05362,-0.11835,0.3816,-0.03802,0.02365,-0.1528,-0.04135,0.03598,0.4167,0.0986,0.014175,0.2766,0.1965,0.04102,-0.02927,-0.1351,0.0666,0.06213,0.01518,-0.04666,0.8657,-0.1017,-0.2505,-0.1742,0.3857,-0.1561,-0.0729,0.2612,0.01411,-0.2703,0.1009,0.05032,0.2793,-0.1567,-0.5337,0.0921,-0.1055,-0.885,0.2198,-0.05518,-0.3235,0.2272,-0.04224,0.1804,0.04007,0.5137,0.565,0.0864,-0.6504,0.3813,0.0579,0.1493,0.08124,-0.215,0.011055,0.004417,-0.1022,0.4167,-0.3564,-1.51,-0.429,0.02817,0.0417,-0.1937,-0.1753,-0.05243,0.0737,-0.0641,-0.01134,0.309,0.1484,0.4692,1.176,-0.0702,0.0644,0.2625,0.1081,0.03326,0.0875,0.0581,-0.001303,-0.2482,0.179,-0.05737,-0.1047,-0.00947,-0.3276,0.012985,-0.2443,-0.1306,-0.2834,-0.0714,-0.4253,0.188,0.0667,0.03162,-0.1414,-0.4016,-0.0732,0.284,-0.1009,-0.3616,0.1799,-0.06287,-0.2744,-0.1316,0.17,0.2163,0.0615,0.06665,-0.4116,0.2178,0.2374,0.0613,0.0853,0.1772,0.0816,0.0925,0.10175,0.0313,-0.1573,0.0913,0.009895,-0.5884,-0.211,0.1984,0.0887,-0.2114,-0.3425,-0.1085,0.3604,0.2146,0.2067,-0.0979,0.4568,-0.129,0.0871,-0.11993,-0.4014,-0.2335,-0.04092,-0.204,0.1881,-0.2303,0.3425,-0.2512,0.1075,-0.04706,-0.2391,-0.02893,-0.1355,0.1885,-0.0721,0.2001,-0.2095,0.09436,0.09564,-0.032,-0.1317,-0.08386,0.2008,-0.1536,-0.03992,0.0755,-0.1547,-0.2607,-0.2512,-0.5156,-0.3044,0.0879,0.1384,0.0783,-0.1948,-0.08026,-0.0638,-0.11237,0.09766,-0.001157,-0.4102,0.7017,0.3225,0.2216
apple,0.1741,0.3342,-0.3564,-0.1012,-0.0897,-0.03958,-0.01816,0.7046,0.1925,0.2134,0.1995,0.4153,-0.2102,-0.04877,-0.3289,0.02252,0.577,0.222,0.084,-0.1403,-0.502,-0.1106,-0.01092,-0.0631,-0.1047,-0.02745,0.1306,-0.09344,-0.10657,0.07544,0.3713,-0.2861,-0.05112,-0.02351,-0.0942,-0.02452,-0.1121,-0.3552,-0.393,0.309,-0.04544,-0.2484,0.05704,-0.285,0.0386,0.7856,0.2505,0.355,0.0854,-0.1523,0.2032,-0.01289,0.2883,-0.1267,0.317,-0.1478,-0.0679,0.10504,-0.1582,0.0901,0.6753,-0.03836,-0.1504,-0.2979,-0.0943,0.0113,-0.3337,0.3523,-0.2458,-0.2664,-0.11743,-0.2578,0.0737,0.1686,-0.4849,0.00808,-0.3098,-0.02354,-0.10364,-0.4692,-0.0338,0.01323,0.1775,-0.745,0.4873,0.0537,0.4685,-0.1693,-0.064,-0.3096,0.1472,-0.00855,-8.87,0.254,0.154,-0.0648,-0.03625,-0.2527,-0.1942,0.2362,0.168,-0.1227,0.4507,-0.2306,0.01189,0.08905,-0.9824,0.5034,-0.3577,-0.08905,0.08344,-0.01523,-0.1025,-0.10144,-0.1239,0.03256,0.3372,-0.06683,0.2385,-0.02312,-0.5684,-0.4568,0.1573,0.039,0.2585,-0.07825,0.1394,-0.1013,0.2125,0.004906,0.2247,-0.2546,0.10443,1.126,0.0791,0.4343,0.1302,-0.5625,-0.10583,0.1208,0.306,0.2036,-0.128,-0.2009,-0.1309,0.3423,-0.2454,0.4219,0.11743,-0.1305,-0.198,-0.11,0.3013,0.05975,-0.3933,-0.3877,0.2576,-0.05154,-0.333,-0.0963,-0.08374,-0.2382,-0.04776,-0.1282,-0.1613,0.2595,-0.2957,0.1335,0.182,-0.1031,0.1537,-0.2698,0.061,-0.3503,0.1587,0.0684,0.1754,0.3323,0.2659,-0.05853,-0.264,-0.2451,0.10376,0.1196,-0.5166,-0.3862,-0.103,0.2118,0.0471,0.1259,-0.03644,0.1682,0.1494,-0.2487,0.7476,0.007797,0.04193,-0.2098,-0.2003,0.4443,-0.075,-0.123,0.113,0.1426,0.2937,0.311,-0.3132,-0.1588,0.1692,-0.4722,-0.0712,0.4175,-0.2805,-0.01006,-0.02464,0.1292,-0.1805,-0.1978,1.055,0.0175,0.824,0.313,0.168,-0.06824,0.10864,0.1927,0.074,0.0615,-0.012085,0.3499,-0.0857,0.1412,0.10297,-0.3057,0.2145,0.608,-0.1863,-0.2515,-0.319,-0.1935,-0.1544,0.559,0.351,0.0507,-0.1127,-0.604,-0.0757,0.4133,0.2747,0.1793,-0.1974,0.1923,0.3398,-0.12006,0.2993,0.2095,0.0538,-0.1498,-0.85,-0.3047,-0.05875,0.0709,0.0774,0.02927,-0.002014,-0.0708,0.2152,-0.02568,0.313,-0.3525,0.2307,0.1849,-0.653,-0.034,-0.04898,-0.003315,0.3396,0.004383,-0.067,0.0457,0.1006,0.2986,0.3845,0.1919,0.1432,-0.2957,0.4915,0.3118,-0.115,0.02989,0.2988,0.2098,0.11896,0.1514,-0.02023,0.245,0.1521,-0.001957,-0.0461,-0.1821,0.1259,-0.0856,-0.06244,-0.10004,-0.1958,-0.5693,0.102,-0.283,-0.04956,0.0671,-0.3445,-0.325,1.126,-0.3188,-0.00913,0.03958,0.2593,0.2742,0.321,0.0965,0.06116,1.581,-0.3086,-0.2573,-0.1832,0.1415,0.168,0.0497,0.0941,0.84,0.06476,-0.4287,0.12317,-0.0619,0.319,-0.05652,0.04025,-0.003807,0.535,-0.1964,0.3235,0.339,0.0822,0.2546,-0.04178,0.1726,0.166,0.12177,-0.003881,0.11884,0.3115,-0.02084,0.127,-0.1943,0.3335,-0.0829,0.0008492,-0.02542,-0.02269,-0.08435,-0.4946,0.2161,0.3167,-0.0719,-1.0,0.03107,-0.2598,-0.0979,0.1148,-0.08575,-0.1641,0.04678,0.1368,0.02353,0.0623,0.4185,0.0743,-0.02435,-0.7256,0.2659,0.0414,-0.2264,0.2451,0.121,-0.1729,0.00526,-0.1411,0.5024,-0.4685,-0.925,-0.345,-0.1805,0.242,-0.2343,-0.09894,0.1642,-0.054,-0.1758,-0.1481,-0.1693,0.0413,0.11145,0.4548,-0.03302,-0.217,0.0689,-0.01958,0.04028,0.4956,-0.613,-0.29,0.00253,0.03802,0.1858,-0.3032,0.1265,-0.3994,0.00573,-0.1373,-0.1622,-0.099,-0.457,-0.2482,-0.1932,-0.07837,0.1266,0.004475,-0.3098,-0.3904,-0.1844,-0.2532,0.04248,0.3853,-0.3237,-0.3079,-0.02834,0.1697,0.3286,0.1208,0.1254,-0.54,0.2534,0.01576,0.02827,-0.1892,0.05334,0.03336,0.352,-0.12286,0.1193,0.26,-0.2893,-0.223,-0.5176,0.04282,0.416,0.03503,-0.446,-0.2047,-0.5083,0.3088,-0.00268,0.0997,-0.0908,0.4346,0.08453,0.3982,-0.00344,-0.1207,-0.10223,0.1121,-0.03754,0.00892,-0.2896,0.1976,-0.3342,0.005596,-0.4067,0.0347,0.1448,0.04095,0.0976,-0.2664,0.05875,-0.443,0.010994,-0.1298,0.1924,0.05276,-0.1024,0.01379,-0.3147,0.1868,-0.0162,-0.0221,-0.1956,0.04654,-0.2961,-0.07025,-0.002226,0.1852,-0.11597,-0.02951,-0.0605,0.3057,-0.416,0.05087,0.04272,-0.0729,0.7314,0.2065,0.2257
applesauce,-0.02982,0.2485,-0.1857,0.008835,0.1776,0.0645,0.1497,0.644,0.0133,0.1387,0.2421,0.04993,0.1957,0.12476,-0.1503,0.00496,0.1054,0.2803,0.1758,-0.3057,-0.8584,-0.01595,-0.2734,0.04575,-0.05887,0.11456,0.02513,-0.10315,-0.11346,0.05008,0.2285,-0.02939,-0.047,-0.09894,0.05765,-0.02945,-0.144,-0.0998,-0.3113,0.326,-0.0715,-0.2175,0.02672,-0.0778,0.0308,1.207,0.4827,0.2446,0.1935,-0.04044,0.2168,-0.05676,0.08655,-0.3054,0.2722,-0.064,-0.0868,0.0632,-0.176,0.01534,0.4727,-0.1237,-0.2249,-0.3826,-0.1152,0.07983,-0.325,0.9746,-0.2778,-0.2717,-0.248,-0.156,0.01145,0.04535,-0.3396,0.1254,-0.1658,-0.2402,-0.12195,-0.226,0.11597,-0.03506,0.1833,-0.9805,0.4275,0.1586,0.5664,0.0998,0.161,-0.1677,0.1365,-0.1526,-8.445,0.4253,0.1809,-0.1544,-0.0709,-0.04242,-0.02626,0.5303,0.2289,-0.02097,0.3123,-0.1285,-0.5234,-0.0159,-0.7905,0.277,-0.2128,-0.00538,0.0655,0.2179,0.2173,-0.0344,0.00229,0.0989,0.1177,-0.03183,-0.004986,-0.2522,-0.2073,-0.6206,0.2573,0.1118,0.2612,-0.1284,0.03119,-0.2283,0.0945,-0.1798,0.1242,-0.2942,0.0769,1.075,0.2844,0.2067,-0.1037,-0.625,-0.36,0.00742,0.3384,0.2957,-0.3582,-0.10144,-0.1953,0.2754,-0.3198,0.4563,-0.2454,0.03256,-0.1984,-0.1113,-0.02211,-0.002247,-0.3237,-0.5605,0.3035,-0.04956,-0.2903,-0.2142,0.0689,0.0924,0.12024,-0.1805,0.04047,0.12146,-0.2524,0.06696,0.0811,-0.11926,0.2205,-0.2542,0.0371,-0.1293,-0.224,0.3657,0.3628,0.2617,0.24,-0.0401,-0.2451,-0.253,0.00878,-0.02527,-0.4739,-0.1497,-0.2186,0.049,0.5176,-0.0497,-0.0628,0.0882,0.4238,-0.4514,0.605,-0.07556,-0.02684,-0.171,-0.2563,0.1262,-0.1143,0.1769,-0.0538,0.2861,-0.002699,0.1974,-0.4028,0.1113,-0.00633,-0.1897,-0.1716,0.309,-0.0397,0.038,0.0772,0.2004,0.02942,-0.0691,0.6787,-0.2404,0.715,0.315,0.1458,-0.2428,0.4626,0.01674,0.1464,-0.001976,-0.05005,0.1713,0.0766,0.0741,0.2084,-0.2157,-0.03534,0.9043,0.03598,-0.1509,-0.1885,-0.3801,-0.04712,0.533,0.2454,-0.0895,-0.04883,-0.719,-0.03772,0.5425,0.10205,-0.0749,-0.1407,0.1098,0.33,0.007034,0.00964,0.0761,0.04214,0.03053,-0.647,-0.03973,-0.0478,-0.1959,-0.00902,0.3071,-0.013885,0.002531,0.1818,-0.3354,0.03247,-0.212,0.161,0.0834,-0.4602,0.04056,-0.007744,0.05984,0.1699,-0.1232,0.01704,-0.05667,0.06714,0.3218,0.3247,0.01309,0.006927,-0.1798,0.3748,0.0669,-0.02594,-0.1874,0.1697,-0.0895,-0.07806,0.1296,0.1654,0.1803,0.2339,0.1355,-0.0822,-0.0745,0.03406,0.00289,-0.2358,-0.05298,-0.1636,-0.3752,0.09503,-0.29,0.011314,0.1674,-0.3333,-0.1531,1.075,-0.1843,0.1793,-0.2363,0.1816,0.3428,0.301,0.2737,0.10156,1.445,-0.1783,-0.03955,-0.3955,0.1622,0.1809,0.1318,0.2106,0.6343,-0.02977,-0.1901,0.3481,-0.07166,0.07574,-0.2095,0.04886,0.0361,0.2429,-0.1565,0.1315,0.2224,0.2256,0.0855,-0.1112,-0.05304,0.02992,0.001562,0.03146,0.001017,0.4368,0.08905,0.02727,-0.11743,0.3884,-0.3096,0.08307,0.299,-0.0654,-0.10626,-0.6245,0.1884,0.3105,-0.04456,-0.43,0.0187,-0.1566,-0.5493,0.01359,-0.03897,-0.263,-0.1525,0.0528,0.1705,0.0698,0.3901,0.4941,0.07874,-0.895,0.2394,-0.05753,-0.2087,-0.05524,-0.349,-0.155,-0.2306,-0.05957,0.4172,-0.3906,-0.996,-0.2313,-0.04782,0.03754,-0.11523,0.0878,0.0338,-0.1545,-0.2224,-0.1849,0.3396,0.1998,0.1819,0.4316,0.11145,-0.3757,0.06052,0.2346,-0.1367,0.3828,-0.3552,-0.3687,-0.0545,-0.0942,0.2002,-0.3772,0.001766,-0.3328,0.1113,-0.1671,-0.08295,-0.1478,-0.2148,-0.10205,0.02512,-0.1776,0.0933,-0.1132,-0.401,-0.2532,0.0489,-0.249,-0.04245,0.36,-0.2385,-0.1321,0.02066,0.1263,0.3179,-0.06445,0.0957,-0.456,0.2334,0.1669,0.03122,0.213,0.1646,-0.05527,0.295,-0.00836,0.1376,0.4631,-0.2467,-0.2035,-0.7944,-0.00582,0.3262,0.07513,-0.1523,-0.1423,-0.2583,0.3257,0.05487,-0.1418,-0.225,0.343,-0.07855,0.0706,0.12,-0.3079,-0.1552,-0.0192,0.02354,-0.1095,-0.1383,0.02232,-0.3071,-0.0651,-0.129,0.1472,-0.007145,-0.2284,0.08777,-0.1815,0.000844,-0.32,0.08575,-0.002466,0.2208,-0.1864,0.00947,0.01906,-0.1357,0.1313,-0.01973,-0.1448,-0.01001,-0.189,-0.3745,-0.1561,0.07654,0.4055,-0.00467,0.05054,-0.05035,-0.095,-0.3218,0.07837,0.06775,-0.11,0.882,0.2032,0.0804
arm,0.0814,-0.02086,0.006004,-0.0001704,-0.03638,0.1736,0.2126,0.5767,0.2537,0.242,0.284,-0.10376,0.1647,-0.04654,-0.1403,0.02122,-0.3428,0.1707,0.283,-0.1351,-0.01461,-0.04352,-0.3425,0.12067,-0.0724,-0.1558,-0.0528,-0.202,0.2637,0.0734,0.00832,0.09406,-0.03842,-0.2703,-0.1164,0.3286,-0.458,0.0628,-0.2043,-0.1122,-0.5913,-0.2319,-0.227,-0.04138,0.0389,1.865,0.4224,0.04327,-0.1682,0.08594,0.321,0.10114,0.1371,-0.322,0.10065,0.1624,0.1256,0.05182,-0.2708,0.07227,0.5176,-0.2018,-0.1897,-0.203,-0.1312,-0.0445,-0.2524,0.6978,-0.06335,-0.326,-0.03632,0.1014,0.1647,-0.07733,-0.3796,-0.01007,-0.1703,-0.221,0.04947,-0.2208,-0.11487,-0.0772,-0.0534,-0.4736,0.1696,0.1443,0.9775,-0.04132,0.1271,-0.02242,0.3552,-0.10034,-9.086,0.7305,-0.01109,0.3337,0.01214,0.0755,0.03476,0.3665,-0.0405,0.05096,0.5156,-0.08466,-0.1053,0.0668,-0.332,0.04984,0.0723,0.02463,-0.03403,0.2329,0.01672,-0.1098,-0.0816,-0.0559,-0.1664,-0.05646,0.002857,-0.05295,0.0477,-0.4863,0.10657,0.1255,0.2418,-0.0363,0.203,-0.1951,0.07874,-0.01784,0.2137,-0.2208,-0.1154,1.103,0.2463,0.1876,0.2073,-0.3765,-0.4395,-0.1775,-0.1334,0.0651,-0.1038,-0.02576,-0.2449,0.1006,-0.3208,0.306,0.01063,-0.02412,-0.1289,-0.2225,0.1082,-0.001002,0.27,-0.6143,0.2114,-0.1982,-0.1698,-0.11255,0.04123,0.01793,0.1026,-0.285,0.239,-0.03796,0.2379,0.2245,0.04852,-0.0815,0.1726,-0.11957,-0.3167,0.1825,-0.3672,-0.0185,0.696,0.1697,-0.1809,-0.0667,0.0834,-0.3955,0.0935,-0.08966,-0.3416,-0.003567,-0.04178,0.09784,0.3127,-0.1566,0.1069,-0.1312,0.2861,-0.3413,0.077,-0.1272,-0.06775,-0.0764,-0.1685,-0.2048,-0.1619,0.2473,-0.1582,0.0325,0.202,0.1073,-0.406,-0.0337,-0.07855,-0.243,-0.08624,0.4631,0.10736,0.1064,0.1322,-0.0164,-0.2125,-0.01541,0.644,-0.2273,0.3145,-0.011955,0.037,-0.2411,0.402,-0.1384,0.1531,0.1094,0.1812,0.0719,-0.06232,0.03812,0.2433,-0.1698,-0.1356,0.3918,-0.04544,0.04492,-0.008224,-0.204,-0.02254,0.3442,0.287,0.04712,-0.1128,-0.6343,0.04324,0.2505,0.02489,0.0739,-0.216,0.1763,0.524,-0.00608,-0.1819,-0.1868,0.2008,0.3533,-0.8145,0.0829,-0.10754,-0.1296,0.1538,-0.2418,0.1898,0.09735,0.288,-0.1238,0.1503,-0.08527,0.01599,0.2502,-0.2515,-0.1974,0.078,-0.10986,-0.03105,-0.2659,-0.03714,-0.1202,-0.02625,0.2534,0.1685,0.09607,0.2345,0.01087,0.6006,0.144,-0.1104,-0.1595,0.2622,-0.0869,0.1099,0.2141,0.0414,0.2238,-0.3037,0.1768,-0.1169,-0.0719,0.2188,0.05182,-0.04517,0.1438,-0.05344,-0.6323,-0.1674,-0.0866,0.0656,0.2573,-0.3762,0.04858,1.102,0.0247,0.275,-0.1492,0.312,0.1644,0.315,0.1892,-0.1981,0.959,-0.1395,0.08777,-0.4285,0.05408,0.2428,0.001127,0.2235,0.6987,-0.1166,0.03574,0.345,0.02048,0.02393,-0.0234,-0.01059,-0.105,0.1923,0.004086,0.01168,-0.05713,0.1332,0.1106,-0.2151,-0.091,0.0937,-0.1266,0.2625,-0.2441,0.8926,0.02693,-0.1455,0.0598,0.004833,-0.5234,-0.1632,0.565,0.06494,-0.1406,-0.4382,0.04184,0.4395,-0.08453,-0.01032,0.07904,-0.2258,-1.1045,0.1993,0.06586,-0.1084,-0.1421,-0.05,0.09894,0.09644,0.3142,1.004,0.1735,-0.4827,0.3154,0.0763,-0.1565,-0.08984,-0.4922,0.02998,-0.1852,0.1675,0.2898,-0.11395,-1.351,-0.15,0.1225,-0.1664,-0.0734,-0.0838,0.004158,0.1793,0.04456,-0.54,0.3167,0.2454,0.2659,1.013,0.1636,-0.1215,0.2964,0.1932,-0.1088,0.1141,-0.1873,-0.1161,-0.01086,0.0656,-0.02412,-0.1196,-0.167,-0.1316,0.1311,0.1093,-0.1927,-0.3267,-0.1985,-0.2445,0.3867,-0.06107,-0.1276,-0.371,-0.1411,-0.1836,0.2281,-0.2434,-0.1869,-0.256,0.0927,-0.147,-0.03552,0.0832,0.212,-0.07086,0.0551,-0.1085,0.2195,0.011475,0.06824,0.2632,0.01703,-0.0977,-0.04333,-0.064,-0.02066,0.1776,-0.1573,0.2803,-0.4248,0.0405,0.09344,0.156,-0.03934,-0.2336,-0.02676,0.1743,-0.0809,-0.003134,-0.1024,0.4526,-0.0674,0.253,-0.004215,-0.244,-0.05728,-0.1162,-0.2102,0.1696,-0.1312,-0.1381,-0.3052,-0.07697,0.08044,-0.1339,-0.1714,-0.2019,0.1273,0.05206,0.11115,-0.11804,0.0471,-0.02605,-0.08704,-0.222,-0.1214,0.2654,-0.1825,0.05502,0.1864,-0.1133,-0.2654,-0.0945,-0.407,-0.3586,0.28,0.3171,0.2844,-0.1544,-0.1385,0.05118,-0.176,0.1626,-0.068,-0.3274,0.91,0.07477,0.03027
ball,0.07745,0.1152,-0.3755,-0.08014,0.0162,-0.0968,0.0942,0.6455,0.1814,0.0905,0.2727,0.306,-0.0661,-0.02873,-0.396,0.2715,0.4094,0.1171,-0.006634,-0.1501,-0.3787,0.0599,-0.0665,-0.141,-0.1476,-0.1566,0.02856,-0.2102,-0.01498,-0.02106,0.2225,-0.2091,-0.081,-0.1797,-0.1465,0.10284,-0.2532,-0.2563,-0.3577,0.2062,-0.06995,-0.265,-0.0762,-0.178,0.009125,0.7017,-0.01875,0.341,-0.0186,-0.2261,0.2715,0.2433,0.2474,-0.1394,0.02798,-0.1344,-0.2651,0.05225,-0.2367,0.01323,0.748,-0.2651,0.006203,-0.2437,0.002401,-0.1978,-0.2129,0.2656,-0.1355,-0.3538,-0.1744,-0.1838,0.02527,0.0887,-0.4373,0.02557,-0.11176,-0.0466,-0.01172,-0.4365,-0.0365,0.0283,-0.07544,-0.693,0.4473,0.1586,0.4214,-0.1658,-0.29,-0.3164,0.05862,-0.137,-8.625,0.3132,-0.006737,0.1814,-0.03183,-0.2878,-0.302,-0.09564,0.0924,-0.2664,0.5884,-0.1338,0.12006,-0.12463,-1.244,0.2122,-0.2471,-0.00955,0.05228,0.001452,0.1405,-0.0908,-0.1921,0.1298,0.1917,-0.1659,0.303,0.013725,-0.5273,-0.4746,0.14,0.0328,0.1987,-0.0191,0.1315,-0.0737,0.2208,-0.1733,0.06223,-0.2803,0.0801,1.102,0.0739,0.3184,0.1191,-0.548,-0.1401,0.1836,0.2725,0.04922,-0.05826,-0.1707,-0.1143,0.2024,-0.2668,0.4177,-0.0489,0.02344,0.0278,-0.2019,0.01717,0.03973,-0.276,-0.2502,0.2374,-0.0423,-0.3953,-0.0901,-0.06586,-0.216,0.07947,-0.1177,0.05658,0.2212,-0.1714,0.05893,0.1276,-0.0655,0.0468,-0.2576,-0.0912,-0.293,0.01398,0.01041,0.11206,0.279,-0.02277,-0.10095,-0.2023,-0.05804,0.08264,0.1449,-0.4604,-0.2773,-0.02322,0.1334,0.11725,-0.01462,0.04477,0.189,-0.0713,-0.332,0.722,-0.07166,0.04016,-0.375,-0.1963,0.2146,0.00144,0.01081,-0.1255,0.2556,0.05167,0.1587,-0.2498,-0.1821,0.11926,-0.3923,-0.1968,0.2925,-0.1653,-0.1815,0.02783,0.1447,0.10175,-0.007725,0.67,-0.2131,0.735,-0.04825,-0.05093,0.001513,0.0989,0.06885,0.104,0.01006,-0.02124,0.1704,-0.08246,0.2299,0.162,-0.06177,0.1526,0.5576,-0.0507,-0.313,-0.2883,-0.2349,-0.0696,0.514,0.2472,0.0202,-0.1676,-0.336,-0.0871,0.343,0.248,0.2754,-0.1537,0.0962,0.1967,0.01459,0.1754,0.0849,0.09357,-0.2817,-0.737,-0.301,0.0712,0.08636,-0.055,0.006363,0.1539,-0.02226,0.2092,0.00486,0.182,-0.352,0.1855,0.1794,-0.309,-0.06177,-0.1464,-0.01152,0.275,0.05795,-0.00896,0.0332,-0.08,0.4316,0.254,-0.008644,0.1783,-0.2766,0.9185,0.133,-0.0469,-0.02208,0.2588,0.0711,-0.07935,0.1761,0.05786,0.1492,-0.133,-0.0888,0.03198,0.006397,0.2654,-0.11,-0.03406,-0.04248,-0.1627,-0.612,0.2163,-0.1364,-0.1437,0.0677,-0.2502,-0.1914,1.102,-0.2996,0.01927,0.06555,0.2715,0.1567,0.2119,-0.1272,0.1877,1.249,-0.2969,-0.1631,-0.01886,0.04346,0.1517,0.02347,-0.0187,0.771,-0.01999,-0.258,0.263,-0.07983,0.201,-0.04742,-0.012024,0.06052,0.4143,-0.1848,0.284,0.2156,0.0916,0.33,-0.1442,0.2201,0.1448,0.2236,0.02422,-0.04297,0.3967,0.0981,0.2211,-0.12067,0.3508,-0.2258,0.04352,0.1552,-0.05447,-0.0828,-0.3848,0.10126,0.2947,-0.1625,-0.956,-0.0511,-0.2507,-0.3079,0.1041,0.0553,-0.2039,0.09436,0.1696,-0.04,0.0885,0.2308,0.2783,0.1147,-0.576,0.2336,-0.005375,-0.05426,0.02556,-0.04044,-0.01017,-0.0897,-0.1744,0.4238,-0.3687,-0.7935,-0.4556,-0.2129,0.1447,-0.3098,-0.2534,-0.1078,0.0661,-0.0757,-0.1738,-0.1718,0.001503,-0.01877,0.5244,0.05484,-0.04547,0.1865,0.1536,-0.0578,0.2698,-0.4165,0.03854,-0.0943,0.1398,0.0855,-0.1765,0.02599,-0.4404,0.0544,-0.1901,-0.0864,-0.1091,-0.3555,-0.2964,-0.2269,-0.1381,-0.1151,0.11053,-0.1376,-0.4175,-0.1934,-0.0512,-0.0838,0.0647,-0.1166,-0.2208,-0.0755,0.1664,0.3503,0.1907,0.0781,-0.5317,0.07916,0.0659,0.06036,-0.0912,-0.00979,0.02724,0.291,-0.06232,0.1512,0.3857,-0.302,-0.1647,-0.4949,-0.0472,0.1486,-0.02876,-0.2617,-0.1359,-0.4084,0.1393,0.001111,0.221,-0.1259,0.2998,-0.0306,0.3884,0.03885,-0.1948,-0.1217,0.0739,-0.1699,0.1113,-0.261,0.2266,-0.3867,0.0318,-0.2798,-0.03093,0.2034,-0.0414,0.0634,-0.3933,0.1007,-0.2654,0.093,-0.02968,0.2262,0.0875,-0.02904,-0.04196,-0.1473,0.2262,-0.0504,-0.10815,-0.1702,-0.008026,-0.3726,-0.1035,-0.01156,0.11975,-0.0683,0.02837,-0.04428,0.1953,-0.4167,0.06274,0.1667,-0.2267,0.678,0.05014,0.0849
balloon,0.04816,0.1998,-0.4167,-0.0798,-0.07733,-0.1289,0.06714,0.6616,0.2177,0.1539,0.3066,0.2761,-0.04645,-0.01427,-0.388,0.2595,0.2935,0.0821,0.04095,-0.1483,-0.461,0.0903,-0.0777,-0.1126,-0.1932,-0.129,0.0263,-0.2206,-0.03564,0.01492,0.2117,-0.0974,-0.1279,-0.2742,-0.1332,0.11035,-0.222,-0.283,-0.4224,0.10297,0.04196,-0.2195,-0.134,-0.1191,0.02187,0.7095,0.1092,0.346,0.01654,-0.2578,0.2786,0.2532,0.2141,-0.135,0.02231,-0.10175,-0.46,0.1266,-0.1571,0.02342,0.8438,-0.2888,0.0309,-0.2325,-0.02657,-0.1703,-0.303,0.397,-0.1777,-0.404,-0.1466,-0.1469,0.02118,0.1089,-0.426,-0.004574,-0.11755,-0.1523,-0.0304,-0.4363,-0.0993,-0.02118,-0.1418,-0.7666,0.4749,0.1893,0.4905,-0.2023,-0.2637,-0.287,0.06116,-0.1328,-8.8,0.106,-0.01188,0.179,-0.01982,-0.2227,-0.10675,0.04663,0.0694,-0.349,0.611,-0.06146,0.1455,-0.12384,-1.172,0.1963,-0.2354,0.00271,0.0957,0.06,0.2334,-0.08435,-0.2358,0.1035,0.1678,-0.1503,0.3196,0.0251,-0.547,-0.519,0.1862,0.09314,0.2615,-0.01819,0.1736,-0.1677,0.2229,-0.222,0.0812,-0.3835,0.05902,1.11,-0.0266,0.2637,0.1323,-0.5996,-0.09436,0.1555,0.323,0.01805,-0.07324,-0.1218,-0.078,0.2375,-0.3538,0.4595,-0.0974,0.1051,-0.001401,-0.2347,0.07104,-0.00935,-0.211,-0.2869,0.2522,-0.02017,-0.4148,-0.1255,-0.043,-0.2328,0.06226,-0.1498,0.1132,0.227,-0.092,-0.006786,0.1372,-0.02197,0.001189,-0.1505,-0.0743,-0.2373,-0.0802,0.02097,0.07855,0.2524,-0.00588,-0.102,-0.1282,-0.09845,0.03873,0.1901,-0.4368,-0.2461,-0.0287,0.09015,0.11646,-0.04068,0.02815,0.2222,-0.1414,-0.405,0.607,-0.03036,0.03915,-0.3787,-0.1709,0.2957,-0.00267,0.07025,-0.1816,0.2025,0.02597,0.03897,-0.1711,-0.1139,0.1906,-0.4924,-0.1543,0.3005,-0.1533,-0.1743,0.0219,0.1945,0.0692,-0.012856,0.6416,-0.3733,0.741,-0.02768,-0.07477,-0.0413,0.04932,0.059,0.1416,-0.01357,-0.0322,0.07825,-0.08606,0.2374,0.1301,-0.0244,0.1853,0.6626,-0.03558,-0.2048,-0.2089,-0.2756,0.01646,0.504,0.2207,0.0626,-0.1559,-0.251,-0.12463,0.32,0.124,0.2974,-0.198,0.1471,0.2073,0.03455,0.0954,0.0723,0.11487,-0.2446,-0.7715,-0.3062,0.01042,0.04898,-0.06464,0.07043,0.1825,0.07306,0.29,0.001249,0.1011,-0.338,0.1342,0.1044,-0.2805,-0.1029,-0.07025,-0.0961,0.1973,-0.00529,-0.009094,-0.05655,-0.08936,0.4543,0.27,0.01345,0.1184,-0.27,0.7583,0.1753,-0.0675,-0.011986,0.1802,0.01223,-0.09106,0.1283,0.0876,0.1407,-0.27,-0.0585,-0.005486,0.0681,0.2803,-0.0866,0.06604,-0.0943,-0.1406,-0.6646,0.2384,-0.09705,-0.1511,0.02237,-0.2074,-0.0454,1.11,-0.3652,0.06396,-0.081,0.2847,0.0874,0.2212,0.03714,0.06775,1.457,-0.247,-0.1587,-0.10596,0.10986,0.1713,0.00876,-0.03506,0.8105,-0.0835,-0.2301,0.2554,-0.08716,0.1484,0.03143,-0.02113,0.01836,0.3157,-0.12494,0.2834,0.2068,0.12384,0.2651,-0.1008,0.1694,0.1852,0.1647,-0.008415,-0.0317,0.453,0.0666,0.1821,-0.1298,0.3875,-0.2373,-0.00525,0.4514,-0.00979,-0.09247,-0.391,0.1672,0.2898,-0.208,-0.934,-0.0713,-0.2391,-0.4434,-0.02974,0.10297,-0.11194,0.0683,0.2168,0.0794,0.00524,0.1965,0.3928,0.0342,-0.5156,0.2532,0.03128,0.02075,-0.004936,-0.0344,-0.03177,-0.03885,-0.2563,0.4666,-0.2294,-0.838,-0.4626,-0.1566,0.1315,-0.336,-0.2842,-0.08484,0.11523,-0.04324,-0.173,-0.228,0.1007,0.01111,0.4583,0.02219,-0.0761,0.2222,0.2025,-0.09906,0.2666,-0.3887,0.0854,-0.02797,0.0638,0.1888,-0.1653,-0.01953,-0.468,0.04166,-0.1871,-0.0827,-0.1483,-0.377,-0.3198,-0.2286,-0.1539,-0.1406,0.0487,-0.1356,-0.3286,-0.1602,-0.00882,-0.1003,0.0524,-0.0948,-0.1763,-0.02989,0.2905,0.2903,0.141,0.0414,-0.4631,0.1324,0.06143,0.11957,-0.04886,-0.0477,0.06824,0.3247,-0.1046,0.2356,0.486,-0.3286,-0.1294,-0.4683,-0.05524,0.1547,-0.063,-0.1593,-0.02896,-0.3853,0.1984,-0.04282,0.1727,-0.1054,0.2397,0.0178,0.443,0.04996,-0.2134,-0.12415,0.0972,-0.1523,0.10614,-0.2534,0.2908,-0.3474,-0.02994,-0.3057,-0.0432,0.267,-0.0407,0.03873,-0.3271,0.04535,-0.2559,0.1008,-0.07275,0.2756,0.0377,-0.001548,-0.1098,-0.09875,0.3594,-0.05417,-0.1342,-0.1971,-0.03372,-0.361,-0.1296,0.0506,0.01704,-0.0554,0.014015,-0.01367,0.06354,-0.517,0.004642,0.1267,-0.3035,0.6353,0.05258,0.0898
banana,0.12,0.2422,-0.364,-0.02902,-0.1796,-0.01775,0.1091,0.779,0.103,0.2622,0.1211,0.1908,0.1788,-0.0316,-0.1661,-0.1425,0.1877,0.1625,0.2019,-0.009346,-0.7266,0.02625,-0.2952,0.0819,0.03004,0.147,0.05054,-0.1672,-0.09467,0.183,0.291,-0.27,0.05167,0.1301,-0.2299,-0.2255,-0.1788,-0.1617,-0.327,0.12384,0.02162,-0.2059,0.0003233,-0.1724,-0.03516,1.054,0.4158,0.3545,0.1099,-0.283,0.0638,-0.1392,0.1642,-0.1604,0.3647,0.06146,0.0934,0.1923,-0.1396,0.002579,0.7188,-0.07947,-0.3074,-0.466,-0.1404,0.1671,-0.3242,0.5,-0.2744,-0.1838,-0.0617,-0.1554,-0.04327,0.1572,-0.1989,-0.03558,-0.0659,-0.1879,-0.2588,-0.4521,0.05087,-0.1859,0.12,-0.775,0.4644,0.1908,0.2178,0.11206,0.09467,-0.3982,0.1136,-0.1571,-9.0,0.5337,0.2395,-0.121,-0.1644,-0.045,-0.1142,0.4421,0.2227,-0.099,0.06186,-0.2432,0.0472,0.1642,-1.132,0.2367,-0.2744,-0.1837,-0.07135,0.10754,0.0714,0.0879,0.04337,0.05853,0.2101,-0.1782,0.1863,-0.0416,-0.173,-0.559,0.1068,0.215,0.2437,-0.0775,0.1225,-0.0334,0.2666,-0.09094,0.1377,-0.2279,0.08575,1.146,0.2308,0.412,-0.0715,-0.7085,-0.2502,-0.0558,0.3586,0.258,-0.2192,-0.03638,-0.1615,0.204,-0.3518,0.257,-0.1151,-0.001708,-0.3223,-0.1945,0.0377,0.02025,-0.4055,-0.341,0.3518,-0.08594,-0.3938,-0.10077,0.0768,-0.1033,0.0949,-0.2107,0.02228,0.06714,-0.24,0.0637,0.1187,0.01243,0.314,-0.2112,0.2161,-0.0845,0.0875,0.2957,0.453,0.2778,0.2302,-0.0828,-0.162,-0.2113,-0.01825,-0.007484,-0.5034,-0.2944,-0.2411,0.2238,0.3054,0.1094,-0.05707,0.11755,0.3066,-0.2482,0.4812,-0.02,0.00802,-0.02248,-0.3237,0.1176,-0.1969,0.01805,0.07556,0.3035,0.1315,-0.01516,-0.2556,-0.0779,0.1339,-0.3162,-0.3325,0.339,0.01044,0.008255,-0.01645,0.04004,-0.27,-0.1495,0.7583,-0.05258,0.624,0.136,0.1571,0.01251,0.2233,0.1216,0.07416,0.03036,-0.07513,0.2146,0.1505,0.1792,0.2847,-0.2605,0.1356,0.478,0.0637,-0.04877,-0.1335,-0.2485,-0.09644,0.5107,0.2455,0.04944,0.0887,-0.5347,-0.03705,0.333,0.2385,0.12177,-0.1271,0.1203,0.3467,-0.1904,0.1344,0.02306,-0.0668,-0.0531,-0.789,-0.1644,-0.11005,0.03458,0.07526,0.1501,-0.01003,-0.0671,0.1272,-0.1339,0.118,-0.2252,0.205,0.0895,-0.4775,-0.04727,-0.02876,0.07733,0.4119,-0.2456,0.009895,-0.0393,0.0939,0.01315,0.3318,0.0872,0.0103,-0.4268,0.4678,0.1969,-0.1257,-0.07117,0.12054,0.1309,0.1055,0.2256,0.10767,0.4238,0.1884,-0.1299,-0.10284,-0.07526,0.0791,-0.142,-0.1909,-0.10284,-0.2524,-0.522,0.0258,-0.2695,-0.07983,0.11664,-0.3105,-0.07434,1.1455,-0.1476,0.06335,-0.0183,0.3474,0.2595,0.292,0.0695,0.0684,1.553,-0.1763,-0.001065,-0.2477,0.2313,-0.1333,0.12384,0.1161,0.865,-0.01367,-0.1978,0.3145,-0.14,0.2408,-0.2556,-0.1393,0.1674,0.3728,0.06573,0.1304,0.2905,0.06616,0.04657,-0.2047,0.1126,0.04938,-0.07385,0.12164,-0.039,0.4714,0.10144,0.07794,-0.3271,0.331,-0.3242,0.00977,0.2323,-0.04184,-0.0453,-0.4885,0.249,0.3074,-0.0885,-0.6523,0.2124,-0.0693,-0.378,-0.014534,-0.1421,-0.1511,-0.0253,0.0864,0.0923,0.2852,0.431,0.315,-0.05923,-0.8145,0.239,-0.01131,-0.1779,0.0366,-0.1469,-0.1952,-0.01068,-0.1705,0.372,-0.533,-0.7715,-0.4592,0.00839,0.0823,-0.2415,-0.002142,0.0954,-0.1666,-0.1969,-0.1897,-0.0155,0.1543,0.1003,0.4766,0.0587,-0.2294,-0.12024,0.1416,0.00909,0.4275,-0.4768,-0.2788,-0.04044,-0.02962,0.3357,-0.3213,0.2883,-0.409,0.06824,-0.2654,-0.1632,-0.08936,-0.347,-0.2024,-0.18,-0.081,0.0958,-0.01068,-0.3342,-0.3257,-0.1173,-0.2786,-0.1495,0.5054,-0.2471,-0.2129,-0.0858,0.1442,0.3762,0.03275,0.1071,-0.4424,0.4346,0.05798,-0.02596,-0.1686,0.3071,0.1002,0.301,0.1272,-0.02403,0.2009,-0.1475,-0.1754,-0.465,-0.0739,0.423,0.03632,-0.3052,-0.2146,-0.3623,0.4077,0.0499,-0.005966,-0.1844,0.5938,-0.05777,0.1456,0.04022,-0.1969,-0.1287,0.3013,-0.11835,-0.1332,-0.2515,0.10156,-0.1967,-0.1757,-0.1676,-0.01561,0.0699,-0.1317,0.07477,-0.2137,0.1589,-0.4363,0.004482,-0.03708,0.2103,-0.05258,-0.0916,0.142,0.03653,0.04163,-0.00199,-0.1259,-0.2395,-0.2189,-0.322,-0.015,-0.03232,0.3433,-0.03943,-0.0648,0.1501,0.1371,-0.3442,0.0525,0.0471,0.01008,0.7935,0.09314,0.269
basement,-0.1083,-0.1277,-0.006653,0.1642,0.14,-0.0743,0.2983,0.676,0.1343,0.03525,0.1484,-0.098,0.1255,-0.0461,0.28,-0.1432,-0.8755,0.09985,0.2217,0.00316,0.2544,0.002707,-0.06854,0.162,-0.03084,0.11163,0.1219,-0.07007,0.02075,0.04843,0.2551,0.2344,-0.2369,-0.3328,-0.4263,0.0875,-0.3293,-0.1982,-0.026,-0.3071,-0.4443,-0.0761,-0.02602,-0.07385,-0.206,0.9233,-0.08954,-0.09717,-0.02771,0.05093,0.2595,0.1271,0.2676,-0.02692,0.1522,-0.0064,-0.1783,-0.0522,-0.05923,0.06012,-0.6143,-0.1504,-0.2465,-0.06726,-0.2087,-0.07764,0.2301,0.538,-0.32,-0.06506,-0.08325,0.0001327,0.0675,-0.1161,-0.1555,-0.1592,-0.04053,-0.0998,-0.0966,-0.577,0.1455,-0.1385,-0.2542,0.303,0.2566,0.444,1.138,-0.3042,-0.3083,-0.1512,0.3967,0.01785,-8.5,0.1804,-0.2037,0.3926,0.2129,0.0583,0.0785,0.0662,0.03784,-0.016,0.2983,0.1182,0.01175,0.07635,-0.7217,0.278,-0.05502,0.0557,-0.06586,0.001121,0.1539,-0.0748,-0.004482,-0.06604,-0.2683,-0.2247,0.2573,0.0838,0.1978,-0.6997,0.1013,-0.16,0.2386,-0.3347,-0.344,-0.164,-0.01613,0.07294,0.09845,-0.4158,-0.1792,1.054,-0.0692,0.2214,-0.06232,-0.2386,-0.2593,0.0313,-0.05563,-0.1998,0.1532,0.2208,-0.10535,-0.03546,-0.352,0.1433,-0.1665,0.1453,-0.0904,-0.252,-0.3748,0.00978,0.03818,-0.4424,0.1148,-0.2119,-0.1902,-0.0891,-0.2913,0.01259,0.3445,-0.1771,-0.02267,-0.1779,0.8296,0.122,0.0437,-0.1448,0.1526,-0.03647,-0.1271,0.2311,-0.3074,0.2832,0.708,0.1547,-0.4338,0.1327,0.01709,-0.4048,-0.1584,0.06042,-0.079,-0.0385,0.0884,0.08167,-0.10614,-0.1167,-0.015465,-0.2227,0.1738,-0.00969,-0.321,0.2272,-0.1206,-0.04233,-0.585,0.1426,-0.0856,0.1517,-0.0622,0.02847,0.2433,0.02151,-0.2051,-0.188,0.1312,-0.2064,-0.2239,0.385,0.1971,-0.06177,0.09705,-0.0388,0.1254,0.2333,1.296,-0.02724,0.2546,0.05634,-0.2705,-0.2766,-0.09644,-0.07306,0.0703,0.1393,-0.01115,-0.007042,-0.0645,0.02144,-0.001875,-0.02704,0.1061,0.827,0.02933,0.0323,0.01768,-0.326,-0.0677,0.2245,-0.10095,0.1133,-0.1658,0.833,-0.02103,0.05338,0.1647,0.363,0.01674,-0.00889,0.3079,0.09015,0.00888,0.06964,-0.03192,0.146,-0.506,-0.02533,0.02544,-0.00665,0.0492,0.26,0.14,-0.1981,-0.03918,0.03256,0.03235,0.0383,-0.1476,0.262,0.0358,0.1367,-0.03326,-0.1432,0.0836,-0.3274,-0.11273,-0.07025,0.1713,0.4773,0.2451,0.2157,-0.04523,0.1577,0.825,-0.03894,-0.0827,-0.4153,0.3926,-0.2239,0.3464,-0.0771,-0.247,0.1902,-0.3445,0.2666,0.1174,0.0796,0.03943,0.01668,-0.05182,-0.06726,0.11053,-0.8687,0.08215,-0.00804,0.067,-0.04016,-0.4392,0.4773,1.053,-0.10034,0.0006523,0.0934,0.3357,0.129,0.2703,0.376,0.1389,0.9214,-0.05832,0.05374,-0.2079,0.01375,0.00237,-0.229,-0.03226,0.4453,-0.1783,-0.007126,0.2161,-0.4907,0.02252,-0.0991,0.1664,0.2559,-0.0466,0.07074,-0.0818,-0.2037,0.08704,0.05136,-0.1462,-0.00484,0.1055,0.12354,-0.00646,-0.521,0.904,-0.08014,-0.1183,0.1356,-0.0888,-0.2458,0.1256,0.96,0.01443,0.0422,-0.869,0.1953,0.523,0.3665,0.247,0.1622,-0.0634,-0.6787,0.1573,0.1056,0.03442,-0.00911,0.00957,0.1791,0.06903,0.0874,0.9175,0.02847,-0.3828,0.2297,0.1614,0.0603,-0.3994,-0.1691,0.1587,-0.4646,0.257,0.0646,-0.1475,-2.246,-0.5195,0.496,-0.01137,-0.01272,-0.266,-0.2032,0.1547,0.1516,-0.3245,0.01884,0.061,0.10944,1.189,-0.0238,0.1411,0.2421,0.03069,0.1537,-0.2042,-0.003365,0.03787,0.3203,0.1385,0.174,0.0314,-0.001993,-0.214,-0.2345,-0.02869,-0.0683,-0.2177,-0.0737,0.06232,0.219,-0.3826,0.2551,-0.3135,-0.0949,0.3418,0.1876,-0.3862,-0.312,-0.509,-0.08154,0.0518,-0.05527,0.0774,0.2274,-0.09906,-0.0124,-0.1747,-0.001413,0.2004,0.03903,0.07806,0.01275,-0.2256,0.06915,-0.225,-0.1126,0.2693,-0.2725,-0.1079,0.4421,0.1282,-0.00861,0.298,-0.10706,0.1599,0.2969,0.01381,-0.02109,-0.1222,-0.3235,0.476,0.05478,-0.1292,-0.0956,-0.2568,-0.1442,0.02744,0.02895,0.1284,-0.4841,-0.1611,-0.1154,-0.0567,-0.006805,-0.2292,-0.093,-0.1299,-0.3228,-0.15,0.02989,-0.0884,0.345,-0.2384,-0.0255,-0.02286,-0.1511,-0.1359,0.1368,0.4402,-0.03787,0.10126,-0.0149,0.01039,0.0151,-0.1375,0.1338,0.00325,0.1831,-0.02655,0.0737,0.0905,-0.01642,0.04388,0.01732,-0.182,0.3826,0.1344,-0.1052
basket,-0.1888,-0.04202,-0.2551,-0.1406,0.05618,0.02757,0.2935,0.5547,0.0004501,0.1846,0.2406,0.1858,0.3267,-0.1013,-0.0779,0.341,-0.1283,0.1766,0.04898,-0.01822,-0.3142,-0.0641,0.1847,-0.023,0.1409,0.0661,0.0626,-0.159,-0.11707,0.368,-0.1473,-0.1047,0.2227,-0.2593,-0.265,-0.2046,-0.368,-0.08673,-0.3057,0.317,-0.1771,-0.256,-0.03592,-0.2583,-0.165,0.1344,0.0821,-0.0004141,-0.001464,0.0867,0.1181,-0.1023,0.1174,-0.09235,0.04953,-0.1979,-0.1042,0.02182,-0.1836,-0.0329,0.1318,-0.1277,0.04208,-0.5117,0.00838,0.0257,0.012405,0.4272,-0.2827,-0.1986,-0.04947,-0.02133,0.1664,-0.05255,-0.165,-0.1356,-0.1344,-0.0678,-0.1108,-0.298,-0.2206,-0.013466,0.05743,-0.884,0.3406,0.2808,0.4421,-0.03314,-0.2644,-0.3003,0.2068,-0.0632,-8.484,0.3376,-0.0426,0.03183,-0.1505,0.08185,-0.1743,0.5986,0.1433,-0.3552,0.3035,-0.0375,-0.02571,0.09045,-0.8403,0.1882,-0.3086,-0.11664,-0.04446,0.2205,0.2441,-0.0754,-0.05157,0.0887,-0.3381,-0.2457,-0.00969,-0.0648,-0.11664,-0.7227,0.278,0.3088,0.2009,0.00399,-0.1034,-0.166,0.2069,0.1278,0.0991,-0.3489,0.2603,1.088,0.0571,0.10614,0.1521,-0.4553,-0.1705,0.06604,0.1276,-0.0468,-0.10077,-0.03998,-0.1511,0.1721,-0.2407,0.2489,-0.1974,0.04044,0.04608,-0.02773,-0.1328,0.1671,-0.3123,-0.2764,0.1034,0.01956,-0.1753,-0.1906,-0.003422,-0.08887,0.1705,-0.0674,0.08826,0.11066,0.12354,-0.08307,0.0641,-0.0588,0.275,-0.2228,0.00929,0.0588,-0.1512,0.05377,0.7944,0.3354,-0.07166,-0.036,-0.1523,-0.3486,-0.05496,0.0686,-0.4456,-0.1354,-0.08057,0.01718,0.11084,-0.05444,0.02452,0.1393,0.0688,-0.1383,0.256,-0.04034,-0.11865,-0.05194,-0.425,-0.1842,-0.1426,0.0939,-0.0812,0.185,-0.1797,0.1092,-0.292,-0.1913,0.0756,-0.3892,-0.2742,0.02641,-0.075,-0.0804,-0.08795,0.0954,-0.0898,-0.003944,0.7207,-0.3464,0.5747,-0.00908,0.2461,-0.2163,0.2117,0.239,0.1326,0.02753,-0.05035,0.396,0.2012,-0.03366,0.1111,-0.06903,-0.1814,0.564,0.01625,-0.0379,-0.2146,-0.1632,-0.1531,0.0555,-0.0964,0.258,0.06537,-0.07794,-0.05112,0.2769,0.1835,0.22,-0.3286,0.0327,0.3442,0.02602,-0.005074,0.05862,0.11597,-0.0237,-0.496,-0.2595,0.082,-0.03818,-0.0234,0.286,-0.0604,0.0858,0.1091,-0.005886,0.1935,-0.3435,0.1464,-0.104,-0.2505,-0.0632,-0.2961,0.1217,0.3162,-0.1938,0.07025,0.0729,0.04407,0.4248,0.3015,-0.09906,0.0659,-0.1556,0.5103,-0.002693,-0.375,-0.2588,0.2407,-0.0277,-0.114,0.1621,0.212,0.1532,-0.00694,0.002193,0.0003715,-0.0423,0.1041,-0.1443,-0.118,0.0314,-0.2037,-0.4226,-0.11426,0.04883,-0.1254,-0.06012,-0.4473,0.3098,1.087,-0.2362,0.34,-0.1296,0.395,0.3367,0.0846,-0.10394,0.1228,1.116,-0.2465,0.015236,-0.258,-0.11176,0.1099,0.1065,0.03995,0.728,0.07275,-0.01171,0.1842,-0.4546,0.0933,-0.0001985,-0.02206,-0.1354,0.201,0.0296,0.319,-0.0876,0.08344,0.0023,-0.3477,-0.004284,-0.05258,0.07874,0.00382,0.1936,0.3284,-0.2573,0.225,0.0833,0.0778,-0.5527,-0.4062,0.5225,0.04068,0.00805,-0.695,0.2783,0.352,-0.0712,-0.691,-0.03156,0.171,-0.2213,0.0833,0.01863,-0.3362,-0.182,-0.03128,0.001889,-0.01543,0.03036,0.752,-0.0644,-0.1687,0.1818,-0.2096,0.126,-0.2507,-0.1914,0.01712,0.1163,0.07855,0.1904,-0.2961,-0.927,-0.409,-0.01831,-0.2177,-0.3152,-0.262,-0.1615,0.0322,0.0128,-0.2147,0.05148,0.2336,0.06976,0.652,-0.01346,-0.2783,0.1263,0.239,0.1646,0.05307,-0.1218,0.02922,0.00824,-0.1346,0.10187,-0.1654,0.215,-0.3442,-0.1708,-0.01363,-0.2827,-0.322,0.0792,-0.03314,0.11475,-0.2551,0.08154,0.2029,-0.5615,-0.411,-0.04868,-0.1252,-0.0879,0.7837,-0.1948,0.1432,-0.0007377,-0.000715,0.3528,-0.04105,-0.0319,-0.2175,0.0812,0.12305,0.06696,0.068,-0.001595,-0.1186,0.1705,0.04706,0.1724,-0.2103,-0.2485,-0.1072,-0.653,-0.0223,0.2593,0.0166,-0.1343,0.04688,-0.0948,0.1478,0.0229,0.1251,-0.2527,0.5923,-0.02731,0.0582,-0.11816,-0.2095,-0.2527,0.1576,-0.0503,-0.0567,-0.0909,0.074,-0.1356,-0.1665,-0.03354,0.1134,0.1014,0.02031,0.2013,-0.1146,0.1272,-0.10394,0.0779,0.04953,0.4766,0.1857,0.0732,-0.09235,-0.1202,0.2683,-0.07336,-0.08307,-0.2893,-0.0917,-0.2058,-0.1586,-0.2898,0.1982,0.0549,0.0251,0.05267,0.168,-0.1423,0.05862,0.06216,-0.1115,0.7686,-0.03375,0.08307
bat,0.202,0.1389,-0.1316,-0.11035,0.1251,-0.0741,0.06494,0.7476,0.1678,0.1058,0.1192,-0.11993,0.487,-0.0813,0.03668,0.1964,-0.1636,0.1926,0.1809,-0.0784,0.0979,0.1572,-0.2046,-0.1453,-0.1445,0.02469,-0.02892,-0.059,-0.2186,0.1311,0.3208,0.04987,0.1153,-0.2832,-0.2117,-0.014,-0.4495,0.06464,-0.03333,0.1315,-0.2703,-0.166,0.06726,0.010254,0.066,1.636,0.4016,-0.158,-0.1738,-0.11005,0.0876,0.2416,0.2185,-0.313,-0.04144,-0.04385,-0.09283,0.2842,0.008286,-0.1953,0.677,-0.01167,-0.3662,-0.2052,-0.05255,-0.08594,-0.346,0.07635,-0.3025,-0.2335,-0.2207,0.00984,0.2083,0.2354,-0.2527,-0.1758,-0.02338,-0.2054,-0.29,-0.4958,-0.1148,-0.1267,-0.2488,-0.789,0.1711,0.4736,0.59,-0.2861,-0.3235,-0.1033,0.0706,-0.0401,-9.07,0.9263,-0.00943,0.2295,-0.0689,-0.05252,-0.3125,0.372,0.1577,0.0863,0.2318,0.134,-0.0606,0.0262,-1.154,0.3062,-0.05264,0.02467,0.1567,0.2255,0.05844,-0.266,-0.07007,-0.1241,-0.3171,-0.1315,0.3284,0.04752,0.05554,-0.9844,0.08075,0.03757,0.2986,-0.262,-0.1492,-0.1158,-0.03207,-0.085,0.06433,-0.5327,-0.2354,1.132,-0.1439,0.00841,0.06573,-0.729,-0.302,-0.0521,-0.04517,0.0714,-0.557,0.0527,-0.3596,0.0731,-0.2163,0.1736,-0.1609,0.1067,0.01947,-0.2098,-0.1796,0.01855,-0.0517,-0.58,0.08026,-0.1967,-0.1453,-0.1508,-0.0684,-0.01112,0.2006,-0.1448,0.2223,-0.06058,0.02582,0.1105,0.1007,-0.1967,0.1499,-0.10315,0.2708,0.0198,-0.456,0.0434,0.653,0.2234,-0.1043,0.1847,-0.10333,-0.3,0.0374,0.186,-0.3909,-0.007057,-0.1407,-0.07306,0.4126,-0.1649,-0.1089,-0.1052,0.3992,-0.2104,-0.2233,-0.1852,-0.06494,-0.03293,-0.394,0.10724,0.03098,0.02795,0.0859,0.2856,0.0971,0.009155,-0.4797,-0.1588,-0.01097,-0.2004,-0.3335,0.3215,0.1163,0.1636,0.02448,-0.02994,-0.01859,-0.1405,0.858,-0.2986,0.4858,-0.02325,-0.09607,-0.1805,-0.04245,-0.1149,0.2532,0.2039,0.0999,0.0676,0.04715,0.1214,0.1647,-0.107,0.0896,0.625,0.05743,0.1307,-0.1081,-0.2375,-0.0899,0.5376,0.1859,0.337,0.1328,-0.1517,-0.08167,0.2737,0.03754,0.2135,-0.1372,0.1766,0.2766,0.144,-0.1049,0.1248,0.00144,0.362,-0.2477,0.2236,-0.2148,-0.04675,0.07837,-0.2148,0.148,0.1301,0.2842,-0.246,0.2874,-0.236,-0.0757,0.05716,-0.1298,-0.214,-0.1313,-0.087,0.2368,-0.1991,-0.01566,-0.1221,-0.0606,0.332,0.03073,0.1327,-0.013535,-0.2556,1.009,0.109,-0.591,-0.293,0.2047,-0.2512,-0.02919,0.1923,0.0982,0.3477,0.011566,0.02571,0.2109,-0.1763,0.3792,0.004356,-0.00538,-0.09,-0.0877,-0.937,-0.10754,-0.2072,0.02849,0.311,-0.1705,-0.10254,1.131,-0.1384,0.2227,-0.03787,0.4175,0.19,0.06714,-0.2042,0.2095,1.235,-0.2367,0.2435,-0.469,0.02818,0.2123,-0.04947,0.1879,0.815,-0.1758,-0.2238,0.06354,-0.2399,0.0387,-0.1013,0.1476,0.203,0.0833,0.1539,-0.04105,0.05948,0.3489,-0.09094,-0.1299,-0.05267,-0.01653,0.0888,-0.015015,-0.1752,0.502,0.07806,0.2323,-0.0421,0.2083,-0.511,0.2646,-0.02098,-0.01195,0.2117,-0.233,0.2329,0.5977,0.1779,-0.06805,0.0865,-0.03955,-0.8057,0.2507,-0.02452,-0.1559,-0.01266,0.09534,0.2433,0.01101,0.1664,0.3416,-0.1989,-0.756,0.3542,0.1593,0.3425,-0.1439,-0.808,0.0585,-0.1083,-0.01833,0.2184,0.0838,-2.012,-0.793,0.09875,-0.03787,-0.1848,-0.0288,-0.0979,0.01718,0.01605,-0.337,0.0977,0.209,0.1459,0.7754,0.1671,0.1552,0.2844,0.1406,0.1421,0.438,-0.0883,0.1843,-0.2279,-0.01714,0.29,-0.2559,0.1763,-0.1176,-0.241,0.1259,-0.2935,-0.1146,-0.254,-0.236,0.1571,-0.1713,-0.10815,0.002392,-0.2384,1.101,-0.007027,-0.2625,-0.2512,-0.3723,-0.4116,-0.1829,-0.1621,-0.11615,0.366,-0.03305,0.02544,-0.5923,0.556,0.31,0.2466,0.265,0.2654,-0.02934,0.08734,-0.1043,-0.1265,-0.0498,-0.0753,-0.2139,-0.541,-0.0361,-0.00922,0.2178,-0.325,-0.4028,0.0869,0.2517,0.2289,0.0671,-0.268,0.568,-0.06122,0.1884,-0.1295,-0.02225,-0.3823,-0.11816,-0.1032,0.17,-0.12024,-0.02295,0.05203,-0.0926,-0.04825,0.0605,-0.178,-0.2162,0.01785,-0.1415,0.001429,-0.00946,0.3887,-0.1442,-0.1293,-0.0868,-0.2014,0.2339,-0.002546,0.224,0.05368,0.04126,-0.271,-0.2786,-0.4172,-0.292,-0.03867,0.1442,0.1632,-0.0675,0.01639,-0.09174,-0.2778,-0.06415,0.06464,-0.165,0.7725,0.0708,0.0786
bathroom,-0.1587,0.19,0.113,0.49,0.0834,0.0689,0.1077,0.659,0.0232,-0.1384,0.0815,-0.1663,0.25,-0.0263,0.2903,-0.264,-0.6255,0.1526,0.2225,-0.1432,-0.010086,-0.002184,0.0716,0.06223,-0.2094,0.08563,-0.0252,-0.326,0.1112,-0.03885,0.1282,0.2612,0.01947,-0.1876,-0.2278,0.2394,-0.335,-0.2233,-0.02664,-0.0799,-0.326,0.002663,-0.05832,-0.1048,-0.0962,0.6997,0.0862,-0.0737,-0.0749,0.11285,0.18,0.08344,0.1666,-0.165,0.1754,0.01566,-0.3208,-0.1577,-0.0004926,0.2084,-0.5625,-0.2404,-0.0962,-0.1128,-0.1063,0.2142,0.4248,0.724,-0.1407,-0.1361,-0.2515,0.03378,0.0643,-0.1382,-0.2617,-0.1388,-0.01688,-0.1827,0.04044,-0.4011,0.1251,-0.0774,-0.09344,0.1326,0.2788,0.2002,1.114,-0.2405,-0.4524,-0.04807,0.3381,0.2646,-8.53,0.2112,-0.0672,0.2947,0.1807,0.2373,0.2893,0.1638,0.02806,-0.12006,0.01386,0.1807,0.1515,0.0221,-0.645,0.12036,-0.09265,-0.1671,-0.2686,0.01698,0.143,-0.282,0.0387,0.0746,-0.0466,-0.06714,0.0829,0.0801,0.204,-0.555,0.03726,0.06152,0.2583,0.06238,-0.01139,-0.12195,0.05237,0.1431,0.1145,-0.438,-0.1421,1.057,0.013504,0.1307,0.0912,-0.219,-0.4382,0.1902,0.01985,0.006428,0.1617,0.11755,-0.1737,0.1431,-0.1864,0.3296,-0.127,-0.02444,-0.1964,-0.3127,0.1351,-0.0928,-0.01764,-0.321,0.2102,-0.162,0.0791,-0.08936,-0.253,-0.2264,0.1863,-0.05682,0.175,0.02734,0.625,0.1504,0.2854,-0.3977,0.1161,-0.2126,-0.174,0.07086,-0.3914,0.11163,0.745,0.2344,-0.261,-0.05914,0.299,-0.309,-0.10614,0.1492,-0.199,0.0352,0.07446,0.01459,0.0382,-0.182,0.09814,-0.1678,0.1447,-0.0917,-0.0502,0.03117,0.02039,-0.08606,-0.6904,0.03534,0.03062,0.08704,-0.0828,0.1644,0.1375,-0.04962,-0.129,-0.04797,0.09454,0.0271,-0.1643,0.4446,0.01512,-0.004,0.215,-0.1694,0.15,-0.0234,0.7065,0.08453,0.1237,0.2163,-0.05536,-0.414,-0.1707,0.0603,-0.0641,0.0718,0.1222,-0.0946,0.0921,0.00619,-0.0069,0.2032,0.002686,0.617,0.151,0.10126,-0.00313,-0.3062,0.04315,0.2944,-0.196,-0.02994,-0.2307,0.3887,0.0404,0.1655,0.2998,0.0655,0.1155,0.02281,0.2446,0.01517,-0.056,0.1051,0.03687,0.1261,-0.3738,0.02173,0.01432,-0.0994,0.08887,0.524,0.162,-0.04175,-0.106,-0.01274,0.09186,0.1561,-0.2239,0.2123,0.0729,0.3086,0.01932,-0.07446,0.1677,-0.4375,-0.171,-0.0437,0.1278,0.3086,0.004677,0.3132,0.127,0.05807,0.2074,-0.0443,-0.1761,-0.303,0.264,-0.2416,0.2793,-0.08234,-0.1486,0.1752,-0.3022,0.276,0.0849,-0.079,-0.0683,-0.06445,0.02844,0.05072,0.06744,-0.6807,-0.1547,0.01491,0.04446,-0.1307,-0.37,0.6323,1.057,-0.09076,0.1666,-0.04782,0.2693,0.2097,0.1752,0.2483,0.2312,1.01,-0.04114,0.02031,-0.3442,0.1415,0.1368,-0.3352,-0.0574,0.514,-0.0569,-0.07336,0.1321,-0.3655,0.09424,0.1123,0.2203,0.169,-0.07434,0.08295,-0.1566,-0.1726,0.02118,0.1788,-0.0661,-0.1877,-0.1848,0.03925,0.2203,-0.3616,0.9697,-0.08026,-0.1893,0.1892,-0.0978,-0.353,-0.144,0.9517,0.0686,-0.02402,-0.7393,0.11414,0.6006,0.05594,0.1334,0.1064,-0.3032,-0.9097,-0.005627,0.2279,-0.05048,-0.001341,-0.0887,0.1487,0.3389,0.2551,0.9033,0.1526,-0.7397,0.12225,0.1239,0.08215,-0.4082,-0.07117,0.224,-0.2224,0.3123,0.1059,-0.3228,-1.935,-0.2502,0.281,0.1927,0.06476,-0.232,-0.2468,-0.0703,-0.00628,-0.3354,0.2455,-0.1186,0.219,1.045,-0.107,0.009285,0.2683,0.202,0.1337,-0.1163,0.002544,-0.1703,0.1768,-0.1025,0.1973,-0.04733,-0.0606,-0.2137,-0.013885,-0.2593,-0.242,-0.3474,0.0663,0.1493,0.1997,-0.1532,0.081,-0.2546,0.0171,-0.2947,0.1621,-0.303,0.04785,-0.2144,0.0344,0.01868,-0.06696,0.09,-0.04718,-0.04422,-0.004494,-0.1184,-0.02194,0.2388,0.1311,-0.00514,0.12384,-0.04803,-0.04605,-0.02107,-0.10254,0.542,-0.2852,-0.0667,0.0908,0.0517,0.0552,0.127,-0.0698,0.1663,0.02144,-0.02391,-0.06152,-0.1165,-0.141,0.4033,0.0999,-0.1915,-0.1843,-0.2625,-0.1703,-0.007214,0.1816,0.2246,-0.2896,-0.1522,-0.1638,-0.2573,0.00223,-0.2328,-0.06186,-0.1378,-0.1364,-0.1166,0.3152,0.1458,0.1713,-0.04675,0.3647,-0.08215,0.0507,-0.0331,0.1624,0.3826,-0.0296,-0.0253,-0.04782,0.02461,0.06494,-0.09357,-0.002153,-0.08014,0.0527,0.02113,0.3093,0.5127,-0.02725,-0.042,-0.2937,-0.2744,0.4568,0.1914,-0.1868
bathtub,-0.16,0.2183,0.1003,0.2332,0.0615,0.011246,0.003677,0.65,0.002176,-0.113,0.1282,-0.01273,0.1229,0.1079,0.2356,-0.1661,-0.4355,0.1332,0.2225,-0.0705,-0.4546,0.013306,-0.01949,0.0714,-0.2484,0.0772,-0.2432,-0.3103,0.01631,-0.132,0.1272,0.1131,-0.02042,-0.1552,-0.2551,0.3462,-0.3152,-0.06915,-0.0673,0.1519,-0.2966,0.1074,-0.1008,0.03123,-0.0786,0.8423,0.4314,-0.1321,0.0148,0.2598,-0.0471,0.1704,0.1718,-0.1326,0.06067,-0.06274,-0.3691,0.12195,-0.03708,0.122,-0.1237,-0.2186,-0.10767,-0.03024,-0.04477,0.3096,0.2954,0.8257,-0.2386,-0.1835,-0.2213,-0.01122,0.0611,-0.1664,-0.241,-0.09033,-0.0651,-0.2683,0.00799,-0.2134,-0.05023,0.01863,-0.0839,-0.575,0.3127,0.1469,0.927,-0.0664,-0.2668,-0.12177,0.2678,0.1368,-8.62,0.444,-0.07904,0.12115,0.04135,0.1984,0.09503,0.3762,0.1267,-0.2634,0.02736,0.2151,-0.2305,0.05627,-0.8813,-0.01959,-0.12085,-0.1543,-0.186,0.286,0.2144,-0.271,0.03162,0.05756,0.0794,0.02945,-0.1224,-0.1216,0.1371,-0.7285,0.03406,0.06836,0.2463,-0.04855,-0.006706,-0.2822,0.1686,0.02652,0.1443,-0.546,0.01375,1.058,-0.1004,0.0397,0.12494,-0.3804,-0.589,0.153,-0.04477,-0.01172,0.06555,0.0506,-0.2502,0.05692,-0.3315,0.485,-0.0646,-0.1144,-0.0982,-0.2966,0.02419,-0.02135,-0.0976,-0.3352,0.342,-0.1404,-0.1392,-0.1443,-0.10803,-0.1904,0.0655,-0.0802,0.3018,0.08044,0.3826,-0.001864,0.2976,-0.4102,-0.01227,-0.1469,-0.002237,0.1843,-0.4058,0.1608,0.5767,0.292,-0.2323,-0.05316,0.144,-0.3528,-0.1511,0.01923,-0.313,0.01698,0.0549,-0.05905,0.2783,-0.1978,0.099,-0.0598,0.1947,-0.0945,0.02707,-0.1282,-0.0785,-0.1517,-0.613,-0.0844,0.1578,0.1444,-0.101,0.1735,-0.101,0.03818,-0.2808,0.10645,0.03014,-0.0609,0.0729,0.4705,0.095,-0.01717,0.2347,-0.0882,0.063,-0.01982,0.4875,-0.1682,0.3838,0.0649,0.1443,-0.3357,0.1311,-0.02602,0.1096,0.04184,0.2312,-0.04874,-0.002508,0.02959,0.000677,0.1459,-0.2263,0.7188,0.1415,0.04312,0.05768,-0.205,0.006966,0.3677,0.03024,-0.04037,-0.2961,0.02557,0.0303,0.3894,0.2917,0.10706,-0.10834,0.0753,0.3347,-0.05276,-0.2383,0.02545,0.1066,0.2556,-0.682,-0.08276,-0.07196,-0.2345,0.00747,0.4302,0.1261,0.101,0.05295,-0.098,0.1776,0.06903,-0.06805,0.134,-0.01561,0.1625,0.0512,-0.1406,0.04297,-0.3862,-0.004772,-0.1425,-0.0771,0.334,0.3088,0.166,0.1978,0.02054,0.3503,-0.1209,-0.1307,-0.2976,0.08905,-0.2717,0.1771,-0.0764,0.02258,0.1605,-0.4116,0.1571,0.006824,-0.08624,-0.0205,-0.0338,0.0003572,0.06555,0.1317,-0.5825,-0.10284,-0.0684,-0.1533,-0.03604,-0.2316,0.5244,1.058,-0.277,0.2266,-0.2289,0.3918,0.1571,0.1387,0.115,0.2522,1.477,-0.1791,0.1334,-0.3352,0.1392,0.2295,-0.2125,0.05478,0.5493,-0.11615,-0.0412,0.1854,-0.3364,0.1571,0.199,0.3093,-0.02875,-0.10034,0.1875,-0.2181,-0.1051,0.1666,0.1719,-0.1714,-0.156,-0.1958,0.03348,0.2411,-0.1476,0.731,-0.03687,-0.1938,0.216,0.05972,-0.6777,-0.1375,0.536,0.2147,-0.106,-0.827,0.0827,0.6562,-0.03345,-0.0835,0.0917,-0.1562,-0.816,-0.02357,0.2524,-0.06934,0.03665,0.05322,0.1306,0.2646,0.1685,0.811,0.11224,-0.639,0.2603,0.0453,-0.05075,-0.4436,-0.449,0.1641,-0.2142,0.1747,0.1893,-0.268,-1.743,-0.1228,0.0868,0.1139,-0.165,-0.1018,-0.1854,-0.2174,-0.2095,-0.3572,0.3555,-0.01935,0.1318,0.9307,0.1149,-0.2615,0.2861,0.2568,0.0895,0.03516,-0.0503,-0.0969,0.0327,-0.1829,0.273,-0.1853,-0.1626,-0.1848,-0.04672,-0.1671,-0.106,-0.4229,0.02695,0.10895,-0.0009704,-0.1367,-0.02597,-0.2935,-0.0807,-0.3435,0.2476,-0.07135,0.03732,0.003748,-0.03546,-0.07336,-0.03632,-0.0723,-0.00451,0.05463,0.1697,-0.1849,0.2556,0.1549,0.096,0.1114,0.1014,0.0746,-0.0612,0.0048,0.1349,0.5024,-0.3323,-0.0311,-0.4502,-0.1097,0.076,0.2037,0.03275,0.01926,-0.175,0.1205,-0.004185,-0.01126,-0.0699,0.4966,0.1271,-0.03162,-0.2427,-0.2285,-0.2478,-0.1765,-0.002953,0.1776,-0.0834,-0.1439,-0.11163,-0.2734,-0.04486,-0.0964,-0.0661,-0.1978,0.06537,-0.02443,0.3103,-0.0968,0.01161,-0.04373,0.2954,0.0145,0.1809,0.0594,0.07416,0.3572,0.0697,-0.1569,-0.0351,-0.05914,-0.1488,-0.2744,0.0722,0.1394,0.2524,-0.05005,0.1826,0.2163,-0.196,-0.05917,-0.2136,-0.2969,0.69,0.1798,-0.0999
beads,-0.1058,0.0784,-0.2406,-0.04187,-0.08203,-0.04364,0.2471,0.576,0.2236,0.1841,0.2377,0.2084,-0.07513,0.05423,-0.3403,0.32,0.01764,0.1385,-0.07983,-0.2505,-0.6055,-0.05896,-0.1552,-0.0672,-0.176,-0.0001622,-0.2051,-0.1064,-0.02888,0.1365,0.01988,-0.1732,-0.04974,-0.2383,-0.29,0.2072,-0.3188,0.2491,-0.151,-0.1456,-0.05432,-0.2361,-0.08746,-0.0447,-0.000395,0.3003,0.1217,0.0674,-0.1139,0.03168,0.1434,0.1613,0.1412,-0.1067,0.0729,-0.09344,-0.302,0.3064,-0.0828,0.01671,0.427,-0.1548,-0.1451,-0.15,0.06573,-0.1012,-0.2583,0.2153,-0.1313,-0.2415,-0.2229,-0.03445,0.1735,-0.01733,-0.3215,-0.0393,-0.0498,-0.163,-0.1599,-0.454,0.02483,-0.05374,-0.1351,-0.958,0.3135,0.297,0.559,-0.066,0.2058,-0.351,0.2288,-0.06604,-8.37,0.2673,-0.08777,0.1153,0.2238,-0.2458,-0.4285,0.4045,0.12006,-0.1236,0.2177,-0.0895,-0.0686,-0.0491,-1.03,0.1456,-0.1969,-0.307,0.0654,0.0314,0.2786,-0.0706,-0.2361,0.1484,0.0094,-0.2334,0.04333,0.002035,-0.2598,-0.5474,0.1605,0.2493,0.12134,0.0911,0.0006623,-0.1716,0.2756,-0.2498,0.08545,-0.2098,-0.01163,1.082,0.349,0.1534,0.0732,-0.564,-0.3242,0.102,0.08057,0.1617,-0.1907,0.2008,-0.1996,0.134,-0.1035,0.1233,-0.1475,0.013794,-0.073,-0.1318,0.0641,-0.01197,-0.2524,-0.2042,0.2783,-0.11273,-0.1211,-0.1185,-0.02272,-0.0004818,0.0519,-0.1465,0.1124,0.0474,-0.04755,-0.000145,0.06335,0.1527,-0.005768,-0.0004067,-0.03802,0.0354,-0.1915,-0.06186,0.07153,0.461,0.03117,-0.02519,-0.242,-0.1865,-0.2,0.06052,-0.388,-0.1763,-0.0686,-0.02687,0.3018,0.02861,0.06506,0.07434,-0.00545,-0.2563,0.5283,-0.06323,-0.005165,-0.2291,-0.1927,0.0843,-0.05902,0.2,-0.03613,0.1995,-0.1638,0.01319,-0.4575,-0.01999,-0.03113,-0.2429,-0.3923,0.1631,0.07465,-0.0952,0.0777,0.3113,0.000579,0.0713,0.2625,-0.4888,0.652,-0.02045,-0.01599,-0.2081,0.1234,-0.03784,0.2238,-0.103,-0.05634,0.004436,-0.1493,0.197,0.1198,-0.1888,-0.00718,0.8525,-0.01152,-0.117,-0.257,-0.1538,-0.2202,0.1945,0.1969,0.0884,-0.2483,-0.367,-0.10394,0.641,0.03284,0.2025,-0.249,0.03992,0.2827,0.1587,0.1042,-0.1641,0.1016,-0.2269,-0.653,-0.0829,0.0911,-0.07666,0.0895,-0.03467,0.119,0.2455,0.232,-0.2313,-0.01978,-0.1346,0.3486,0.1765,-0.2502,-0.2095,-0.2046,0.01968,0.10504,-0.04245,0.0838,-0.06635,0.1567,0.3823,0.311,0.0365,0.2585,-0.1181,0.5425,-0.1003,-0.1312,-0.1265,0.1417,-0.2079,-0.0234,0.1814,-0.04642,0.2512,-0.5435,-0.10144,-0.0912,-0.175,0.1638,-0.04626,-0.05933,-0.1407,-0.0771,-0.3809,-0.0561,-0.09174,0.03004,0.04614,-0.2311,0.1792,1.082,-0.0876,0.11566,-0.2235,0.2576,0.1562,0.07336,-0.0432,0.2028,1.615,-0.06122,-0.03656,-0.1794,0.1573,0.18,0.0683,-0.1654,0.6626,-0.043,-0.1389,0.4563,-0.1069,0.04425,-0.12286,-0.03925,-0.013176,0.1587,-0.0856,0.2008,0.0739,0.06024,0.0948,-0.1926,0.0497,0.1528,0.2023,0.0717,-0.088,0.474,0.1711,0.316,-0.0959,0.1711,-0.4714,-0.06433,0.495,-0.002605,-0.11774,-0.5776,0.02863,0.3452,-0.2583,-0.7827,-0.083,-0.1234,-0.4084,0.0524,0.02017,-0.1737,-0.01732,0.262,-0.037,0.1294,0.1255,0.6094,0.0741,-0.1965,0.4429,-0.04736,-0.0757,-0.2861,-0.3945,-0.0665,0.1266,-0.0752,0.3367,-0.1505,-0.6597,-0.1087,-0.3281,0.02574,-0.1171,-0.291,-0.001832,0.1691,-0.001748,-0.192,-0.0701,0.2388,0.11255,0.4397,-0.01127,-0.05463,-0.2314,0.08344,-0.2355,0.0297,-0.2705,0.07043,0.01164,-0.11096,0.2418,-0.1489,0.2322,-0.342,-0.04068,-0.1615,0.00822,-0.4075,-0.1633,-0.286,-0.0678,-0.17,-0.02827,0.0367,-0.1197,-0.555,-0.0901,-0.103,-0.04953,0.4512,-0.1649,0.0637,-0.0723,0.1059,0.2825,0.213,0.1052,-0.274,0.03065,-0.1128,0.345,0.06836,0.1776,0.10803,0.2578,0.05304,0.03867,0.1697,-0.3208,-0.1231,-0.624,0.03357,0.11444,-0.1573,-0.0924,-0.2411,-0.1571,0.2869,0.0312,0.0794,-0.133,0.4749,-0.1002,0.0645,0.04083,-0.3928,-0.311,-0.1622,0.04825,0.1217,-0.1387,0.1611,-0.3152,-0.1183,-0.0987,0.1687,0.2101,-0.0459,0.1323,-0.1558,0.1893,-0.11285,0.05063,0.02266,0.3083,-0.0418,0.05307,0.2296,-0.1957,0.06036,-0.0827,-0.04013,-0.1605,-0.2866,-0.4685,-0.1765,-0.1707,0.338,0.1664,-0.09033,0.05685,0.005188,-0.3962,-0.06976,0.1348,-0.354,0.688,-0.08856,0.1054
beans,-0.2754,0.10876,-0.1957,0.09296,0.104,0.292,0.1669,0.2903,0.1345,0.1593,0.0613,0.2147,0.0474,0.03806,0.1487,0.2722,0.2522,0.0867,0.1782,-0.1298,-1.098,-0.2556,-0.269,-0.1042,-0.10455,0.274,0.065,0.0881,0.065,0.02463,0.3,-0.2869,-0.0739,-0.1495,0.1892,0.2556,-0.2257,-0.1434,-0.2014,0.2817,-0.2795,-0.0698,-0.1107,0.097,-0.1648,1.013,0.2394,-0.02615,0.3047,0.3237,0.0778,-0.0693,0.2489,-0.2223,0.2546,-0.1548,-0.2532,0.3599,-0.1036,0.10364,0.07886,0.1608,-0.398,-0.4573,-0.1534,-0.2196,-0.4448,0.64,-0.1271,-0.479,-0.09766,-0.2888,-0.1709,-0.1482,-0.4868,-0.0714,0.001991,-0.0711,-0.3455,-0.4543,0.0923,-0.1644,-0.0997,-0.9883,0.0871,0.154,0.794,0.1396,0.3774,-0.1692,0.2783,-0.0477,-7.59,0.4543,-0.005188,-0.04572,0.007935,-0.2058,-0.5654,0.523,0.12054,-0.02141,0.09607,-0.1648,-0.8096,0.1747,-0.8594,0.1993,-0.1068,-0.345,0.11975,-0.08765,0.288,0.00242,-0.1766,-0.1412,0.1375,-0.3096,-0.2313,-0.539,-0.03793,-0.4475,0.0223,0.0251,0.297,0.02798,0.00683,-0.1318,0.1405,-0.3232,0.03806,-0.6333,0.1906,1.005,0.497,0.292,0.2922,-0.537,-0.55,0.1887,0.02008,0.2303,-0.08984,0.1836,-0.4106,0.0763,-0.2668,0.2251,-0.2275,-0.1039,-0.0408,-0.104,0.1501,-0.02585,-0.3008,-0.2073,0.3506,0.05994,-0.2235,-0.443,-0.3508,0.010574,0.01433,0.00874,0.5166,0.1364,-0.00921,0.0724,0.1362,-0.002829,0.2076,-0.1285,-0.2354,0.2156,-0.10126,0.353,-0.2979,0.381,0.2986,-0.2095,-0.1991,-0.4668,-0.1547,-0.2612,-0.37,-0.362,0.066,-0.2654,0.2957,0.03406,0.1892,-0.11884,0.115,-0.2468,0.3918,-0.1242,-0.316,-0.2627,-0.445,0.3054,-0.1508,0.2375,-0.2029,-0.00405,-0.1881,-0.1393,-0.7563,0.08777,-0.1417,-0.1055,-0.1079,0.295,0.2087,-0.01898,0.318,0.0999,-0.1946,0.2793,0.3755,-0.3403,0.695,0.3062,0.3782,-0.3464,0.257,-0.166,0.438,-0.111,0.182,-0.0323,0.1595,0.0669,0.1897,-0.3413,0.02426,0.88,0.2399,-0.092,-0.10596,-0.3413,-0.0551,0.09393,0.2805,-0.0725,-0.437,-0.3406,0.03818,0.5083,0.01052,-0.225,-0.2434,-0.2089,0.2216,0.2393,-0.1327,-0.1663,0.2012,-0.0394,-1.092,-0.0637,0.1644,0.1504,0.2134,0.4207,-0.0822,0.144,0.0709,-0.1932,0.2349,-0.03017,0.3872,0.0284,-0.249,-0.2502,0.0443,0.0863,-0.1562,-0.1259,0.1387,0.002832,0.2175,0.4912,0.4604,0.2076,0.1276,0.2554,0.2717,0.2374,-0.04587,-0.2607,0.06696,-0.2974,0.1279,0.3213,-0.09546,0.12286,-0.02126,0.05417,0.1846,-0.352,-0.06256,0.1644,-0.07587,0.2097,-0.0686,-0.2842,0.02274,0.222,-0.04678,0.01811,-0.1451,-0.08234,1.005,-0.45,0.3103,0.05783,0.1704,0.2593,0.3997,0.10803,0.199,1.621,-0.1738,0.06366,-0.09094,0.1714,0.03075,0.18,-0.2325,0.2852,-0.078,-0.0995,0.2396,-0.462,-0.0961,0.1072,-0.1436,-0.0656,0.1608,0.098,0.0231,0.00793,0.1532,0.0681,-0.0962,-0.291,0.1356,0.0376,0.129,0.01531,0.4958,0.12494,0.12463,0.05756,0.03293,-0.1099,-0.05405,-0.007023,0.02705,-0.099,-0.8926,0.1077,0.3457,-0.02757,-0.1571,0.0357,0.05246,-0.2727,0.2101,-0.202,-0.213,0.006275,0.1924,-0.07025,0.3633,0.10785,0.583,-0.0636,-0.6187,-0.08545,-0.05612,-0.5493,-0.2961,-0.4014,-0.1688,-0.1464,-0.00543,0.2983,-0.3489,-1.414,-0.1455,-0.2998,0.2017,0.2108,-0.1682,0.01146,0.0896,-0.3386,-0.2556,0.0427,0.377,-0.03613,0.1945,0.01944,-0.1577,-0.3767,-0.0638,-0.4548,-0.004734,-0.3313,-0.4094,0.1699,-0.4036,0.231,-0.37,0.2002,-0.006435,-0.2257,-0.4019,-0.04636,-0.1862,-0.02866,-0.06934,0.269,-0.0641,-0.08386,-0.2303,-0.4094,-0.411,0.1455,-0.1516,0.14,0.3848,-0.1892,0.3452,0.02586,-0.1316,0.267,0.286,0.4226,-0.259,0.3362,0.12067,0.2365,0.3096,0.2893,0.013016,0.1367,-0.06604,0.04163,0.09644,-0.2969,-0.226,-0.8237,0.03696,-0.06793,0.0608,-0.07666,-0.4297,-0.2377,0.2245,-0.11053,0.0177,-0.2905,0.424,0.02765,-0.2275,0.1433,-0.408,-0.2435,-0.4229,0.3552,-0.01172,0.0815,-0.1946,-0.3132,0.05548,-0.0786,0.2236,0.3037,-0.2142,0.09937,0.04413,0.1827,0.05304,0.1785,0.2137,0.3667,-0.1512,0.0397,0.353,-0.3923,0.0752,-0.2046,0.1107,-0.1244,-0.3547,-0.4194,-0.12244,-0.2637,0.3389,0.331,-0.1201,0.3062,-0.2377,-0.2515,-0.1776,0.1514,-0.3137,0.658,-0.1415,0.467
bear,0.0678,-0.02238,-0.1875,0.07367,0.1727,-0.044,0.3179,0.519,0.283,0.4836,0.10693,-0.02667,0.1798,0.09424,0.013916,0.2559,0.227,0.02898,0.3171,0.007168,-0.2169,0.1257,0.02867,-0.1335,-0.2181,-0.1244,-0.216,-0.4658,-0.01131,0.01424,0.1475,-0.04877,-0.1755,-0.267,-0.0668,0.1081,-0.03137,-0.1039,-0.297,0.2715,-0.4607,-0.09705,0.04977,0.06934,0.1738,1.634,0.0899,0.1274,0.207,-0.1816,0.4412,0.02148,0.11945,-0.2094,0.0882,-0.08673,0.0664,0.2185,-0.0961,-0.1488,0.75,0.01791,-0.00442,-0.4224,-0.12213,-0.1403,-0.3833,0.1644,-0.2382,-0.2123,-0.12006,-0.00228,0.05978,-0.05768,-0.2498,0.08093,-0.1318,-0.0523,-0.0281,-0.1128,-0.07166,0.05582,-0.1608,-0.516,0.3013,0.1787,0.4915,-0.1963,-0.05746,-0.03986,0.2307,-0.0983,-9.08,0.58,-0.02519,0.0811,0.09143,-0.1238,-0.1858,0.272,0.02777,-0.1056,0.498,-0.2166,0.1082,0.1395,-0.5835,0.342,-0.2357,0.1047,0.0229,-0.01627,0.0002267,-0.005527,-0.04517,0.1313,-0.07996,-0.3926,0.206,0.2064,-0.004787,-0.4924,0.0584,0.08466,0.2385,-0.1965,-0.05902,-0.168,0.02278,-0.0754,0.0555,-0.5415,-0.2004,1.118,0.0769,0.1137,0.2925,-0.534,-0.356,-0.1534,0.010704,-0.09845,-0.2311,0.05228,-0.2078,-0.06055,-0.1775,0.6035,-0.0521,-0.2935,-0.2725,-0.2478,-0.02924,-0.2036,-0.2288,-0.37,0.05124,0.08154,0.0371,-0.2922,-0.1593,-0.01604,0.1124,-0.1075,0.341,0.0466,-0.2113,-0.0548,0.1431,0.05005,0.2108,-0.07874,-0.013565,-0.2917,-0.09625,0.01317,0.3032,0.233,0.0375,0.012344,0.02724,-0.2291,0.323,0.1267,-0.2494,-0.1484,0.1827,-0.04486,0.0632,-0.003786,-0.0576,0.05978,0.1219,-0.3809,0.07526,-0.1116,0.11707,0.1836,-0.819,0.1248,-0.06177,0.002262,-0.12427,0.5674,0.09814,0.02867,-0.3328,-0.2479,0.1797,-0.3796,-0.3477,0.1602,0.1085,0.1595,-0.2003,0.1925,-0.1031,0.0362,0.9336,-0.3474,0.7017,0.3599,-0.1082,-0.2069,0.05084,-0.2725,-0.01219,0.2446,-0.03156,0.005394,0.181,0.253,0.004528,0.1039,0.0554,0.5513,0.3323,-0.0684,-0.354,-0.3271,-0.0421,0.3918,0.2074,0.1353,-0.07416,-0.0755,-0.03998,-0.05054,0.0905,0.1648,-0.178,0.225,0.3262,0.0636,0.0947,0.02684,-0.09827,0.187,-0.6396,-0.0731,0.1787,-0.0344,-0.000918,-0.2267,0.042,0.2703,0.3533,-0.1076,0.3008,-0.439,0.2942,0.1577,-0.01753,0.1041,0.00932,-0.0532,0.2646,0.0627,0.01119,0.0718,-0.05136,0.2424,0.1443,-0.07697,0.1152,-0.0814,0.4634,0.05844,-0.383,-0.1482,0.2417,-0.0814,-0.0377,0.277,0.0686,0.2778,0.1354,0.0822,0.10095,0.02487,0.4126,-0.0739,0.326,-0.10156,-0.06143,-0.911,-0.209,-0.1165,-0.0684,0.02905,-0.2322,-0.1571,1.117,-0.0255,0.3823,0.0598,0.3147,0.412,0.2876,-0.1874,0.1482,1.346,-0.2081,-0.0563,-0.1439,0.1917,0.2993,-0.182,0.01099,0.747,-0.06274,-0.2284,0.1942,-0.1512,0.069,-0.06683,0.0824,-0.01238,-0.05292,-0.0384,0.2164,0.2595,-0.05664,0.0542,-0.1307,0.1945,-0.0079,-0.0909,-0.1134,-0.3018,0.3127,0.1617,0.00704,-0.1372,0.2603,0.0864,0.0289,0.08563,-0.1532,-0.2825,0.2754,0.218,0.04865,0.286,-0.638,0.08215,-0.2172,-0.586,-0.11523,0.07697,-0.1613,0.03207,0.2133,0.1989,0.0726,0.0711,0.5234,-0.00214,-1.027,0.1649,0.1418,0.0207,0.05774,-0.0876,-0.215,0.0541,-0.01842,0.0545,-0.0964,-1.233,-0.6475,-0.3198,0.03052,-0.0943,0.02249,-0.10626,0.0304,-0.0574,-0.7866,-0.2544,0.2201,0.2798,0.2551,0.02568,0.07135,0.1913,0.1383,-0.1652,0.4373,-0.565,0.3281,-0.06885,-0.2263,0.1494,-0.3037,0.01504,-0.04596,-0.1534,-0.3032,-0.4019,-0.2122,-0.3464,-0.2258,-0.04626,-0.1512,0.05032,-0.181,-0.01965,0.7153,-0.0767,-0.2595,0.06168,-0.2131,-0.2285,-0.2344,-0.07764,0.3303,0.1242,0.04138,-0.06964,-0.4736,0.4678,0.0715,0.02457,0.08545,0.1564,0.1494,0.147,0.0982,0.1565,0.08734,-0.2157,-0.2898,-0.3728,-0.12286,0.10187,0.02771,-0.2416,-0.2651,-0.3054,0.2192,0.218,0.1893,-0.1416,0.51,0.02272,-0.2451,-0.12445,-0.181,-0.05536,0.1567,-0.01356,0.2156,-0.2314,0.03387,-0.322,0.2477,-0.1113,-0.05627,-0.0634,-0.1356,-0.0596,0.006966,0.2474,-0.0641,0.2133,-0.1532,0.1632,-0.1377,-0.1475,0.01558,-0.1891,0.2236,0.004505,0.1229,-0.4702,-0.2905,-0.06433,-0.00813,0.0694,0.1619,0.01081,-0.1804,-0.0914,0.2096,-0.3206,-0.01886,-0.309,-0.1624,0.7437,-0.1537,0.1732
bed,-0.0433,0.0573,-0.09393,0.1769,0.0329,-0.0629,0.01395,0.6396,0.07935,0.01685,0.2078,-0.0247,0.2338,-0.0839,-0.003504,-0.082,-0.944,0.2283,0.0852,0.10077,-0.1863,0.06073,-0.1262,0.1318,-0.06696,0.09863,-0.099,-0.1501,0.0704,0.02911,-0.0387,0.0681,-0.01144,-0.2297,-0.3584,0.1984,-0.322,-0.1339,-0.1974,0.1034,-0.4583,-0.11066,-0.2722,-0.08575,-0.1148,1.439,0.1544,-0.0133,0.08484,0.0743,0.377,0.1456,0.184,0.0882,0.04114,0.03525,-0.1494,-0.0331,-0.2471,-0.0992,-0.01588,-0.3018,-0.1691,-0.11487,-0.1067,0.01625,0.1205,0.7,-0.1764,-0.1206,-0.03867,0.14,0.1309,-0.01869,-0.0557,0.00155,0.03406,-0.2393,-0.01129,-0.3748,-0.2573,-0.1895,-0.2776,-0.255,0.3928,0.385,0.955,-0.1498,-0.1311,-0.2205,0.3171,0.06537,-8.695,0.3547,-0.053,0.3103,0.2174,0.1661,0.10834,0.2715,0.11017,-0.05298,0.2218,0.06177,-0.10614,0.1655,-0.239,0.1292,-0.07,-0.11066,-0.0508,0.2593,0.1318,-0.2637,-0.03134,-0.0692,-0.2362,0.0424,0.07153,0.1107,0.1335,-0.8237,0.2075,0.04797,0.11804,-0.3013,-0.03093,-0.2947,0.2228,0.1284,0.10004,-0.1373,-0.12384,1.073,-0.04214,0.0793,0.04602,-0.2676,-0.3557,-0.03342,-0.193,-0.0864,0.3572,0.1409,-0.2512,0.04178,-0.3596,0.065,-0.0197,0.0962,-0.1516,-0.2252,-0.197,-0.06287,0.1425,-0.602,0.2634,-0.2307,-0.111,-0.106,-0.0332,-0.0626,0.326,-0.1344,0.2053,0.00525,0.584,-0.02518,-0.0006905,-0.2467,0.11334,0.0327,0.116,0.1577,-0.376,0.00324,0.7646,0.179,-0.4475,0.1313,-0.01497,-0.05118,0.0721,-0.1959,-0.1792,0.1272,0.03268,-0.10693,0.2035,-0.2079,0.03323,0.07477,0.1545,-0.1923,-0.0647,-0.1466,0.007275,-0.09753,-0.781,-0.1047,-0.1361,0.1711,-0.1989,0.1963,0.01248,0.1752,-0.3792,0.03076,-0.0003796,-0.1376,-0.2773,0.5005,0.02615,-0.10474,-0.09265,-0.03052,0.06476,0.1725,1.017,-0.3257,0.35,0.002972,-0.2446,-0.34,0.04324,-0.05182,0.2166,-0.02563,0.15,-0.01328,-0.1465,-0.04486,0.1539,0.1892,-0.10925,0.581,0.08514,-0.04105,0.0768,-0.2102,0.0633,0.261,0.05072,0.04202,0.1322,0.0501,0.02104,0.004745,-0.03305,0.1921,-0.1705,-0.0798,0.4778,0.03035,-0.188,-0.0444,0.02835,0.1763,-0.7275,-0.0968,-0.0866,-0.1082,0.3372,0.2269,0.11597,-0.1537,0.03955,-0.01917,0.1107,-0.1167,-0.05197,0.1417,-0.1897,-0.1002,-0.07,-0.01225,-0.0237,-0.3044,-0.05658,0.01018,0.182,0.396,0.2937,0.2925,0.2234,-0.07104,0.3425,-0.0474,0.0341,-0.1638,0.1625,-0.261,0.284,0.0239,-0.05347,0.148,-0.344,0.154,-0.1395,-0.0642,0.07764,0.1444,-0.1073,0.068,0.187,-0.7603,-0.1324,-0.05545,-0.0547,-0.0951,-0.1985,0.2651,1.073,0.01884,0.1788,-0.1663,0.4,0.331,0.2856,0.272,0.02536,1.159,-0.1517,0.003174,-0.1774,0.04523,0.1553,-0.0996,0.00858,0.5977,-0.1818,0.1415,0.2937,-0.522,-0.0753,-0.03156,0.1829,0.00135,0.0412,0.1143,0.004498,-0.1092,0.2815,0.124,-0.3796,-0.002815,0.0417,0.2163,0.03043,-0.3347,0.626,-0.04514,-0.1989,0.1049,-0.0836,-0.3496,-0.2188,0.546,0.0787,-0.03616,-0.7197,0.1279,0.3684,0.0759,-0.01772,0.02776,-0.0823,-0.8857,0.02318,0.1189,0.0312,-0.1459,-0.03665,0.1768,0.2874,0.10657,1.3125,0.0962,-0.3403,0.218,0.134,-0.003902,-0.2915,-0.28,0.1787,-0.293,0.1733,0.1484,-0.1509,-1.5625,-0.3142,0.176,-0.2827,0.005043,-0.2292,-0.205,-0.0913,-0.0009017,-0.6978,0.3408,0.3264,0.1323,1.121,0.03525,-0.07886,0.1611,0.3306,0.236,-0.1882,-0.1317,0.1843,0.1517,-0.11163,0.1119,-0.0932,-0.0813,-0.179,-0.09125,-0.0478,-0.2502,-0.3516,-0.1185,-0.06647,0.4106,-0.1346,-0.0831,-0.317,-0.2034,-0.07855,0.1831,-0.2898,-0.0403,-0.336,0.1628,-0.1646,0.07306,0.1688,0.1687,-0.1202,0.0636,-0.1747,0.3088,0.12494,0.125,0.2964,0.002403,-0.04742,-0.03568,-0.07446,-0.01912,0.0709,-0.206,0.10254,-0.05658,0.0433,0.0744,0.3235,0.01744,0.03165,0.3357,0.2102,-0.1136,-0.0556,-0.3064,0.4675,0.01898,-0.0503,-0.1031,-0.11975,-0.1943,0.1019,-0.0894,0.1019,-0.1862,-0.2188,-0.3066,-0.05188,0.04773,-0.1882,-0.03032,-0.1499,-0.08453,-0.0875,0.2229,0.0915,0.1603,-0.1775,0.2455,-0.04633,-0.010506,0.1062,-0.0955,0.285,-0.02463,0.00563,-0.1486,-0.07806,-0.1119,-0.1727,0.1292,-0.006763,0.3394,0.05832,-0.04944,0.0667,-0.0517,-0.04697,0.189,-0.1937,0.664,-0.10004,-0.005875
bedroom,-0.09485,0.0719,-0.02094,0.316,0.1472,0.01718,0.1764,0.5894,0.1448,-0.0376,0.1078,-0.12177,0.1274,-0.2212,0.1404,-0.1925,-1.06,0.1089,0.1361,-0.06964,0.2354,0.01016,-0.1534,0.1499,-0.0985,0.12286,0.02223,-0.2449,0.0649,0.03683,0.02008,0.2825,-0.1493,-0.1951,-0.3235,0.2234,-0.2227,-0.2404,-0.1512,0.0621,-0.4167,-0.144,-0.1682,-0.177,-0.1605,0.814,-0.0261,0.03146,0.0564,-0.02115,0.413,0.1437,0.2036,0.05835,0.1499,0.03123,-0.1881,-0.2097,-0.2097,0.06525,-0.6216,-0.3965,-0.1772,-0.2615,-0.0814,0.000884,0.3184,0.62,-0.131,-0.0738,-0.1576,0.144,0.1605,-0.0136,-0.1655,0.04236,0.01685,-0.109,0.03543,-0.566,-0.012474,-0.2622,-0.2773,0.4126,0.4587,0.3896,1.046,-0.3406,-0.3435,-0.1763,0.398,0.1203,-8.44,0.1432,-0.0078,0.4392,0.3347,0.133,0.07263,-0.332,0.02621,0.01596,0.10156,0.09863,0.0392,0.08514,-0.281,0.1263,-0.0455,-0.0845,-0.03168,-0.0583,0.1351,-0.2595,-0.1465,-0.05676,-0.2717,-0.04395,0.1647,0.2007,0.2247,-0.6143,0.2874,0.012405,0.115,-0.2185,-0.1326,-0.2827,0.10156,0.1824,0.1691,-0.2883,-0.1885,1.045,0.003437,0.0995,-0.01348,-0.0192,-0.2969,-0.00714,-0.0866,-0.1521,0.474,0.2487,-0.3079,0.05505,-0.3074,0.00969,-0.0352,0.1179,-0.2297,-0.2468,-0.05115,-0.1888,0.2761,-0.566,0.2196,-0.2101,0.1151,-0.0853,-0.1368,-0.1564,0.3264,-0.126,0.1453,-0.01665,0.8774,0.06506,0.095,-0.2854,0.1853,0.010544,0.03012,0.2139,-0.4019,0.12494,0.9717,0.1477,-0.4817,0.0918,0.07935,-0.04675,0.03656,-0.1708,-0.0821,0.1257,0.1521,0.04874,-0.0004375,-0.11523,-0.01496,-0.01656,0.218,-0.2798,-0.0873,0.02232,0.10333,-0.00778,-0.78,0.0797,-0.234,0.07996,-0.1847,0.1887,0.3284,0.10016,-0.2495,-0.0732,0.11316,-0.0502,-0.3835,0.4553,0.07715,-0.053,-0.007366,-0.1748,0.2094,0.1531,1.18,-0.07544,0.1451,0.346,-0.264,-0.3623,-0.1669,-0.095,0.02177,0.09326,0.0791,-0.0344,-0.06525,-0.03117,0.1207,0.1755,0.03021,0.5625,0.1467,0.0272,-0.01507,-0.272,0.04538,0.2732,-0.1854,-0.02043,0.06192,0.4065,-0.010956,0.05527,-0.05948,0.2133,0.0933,-0.01416,0.413,0.1381,-0.0757,0.001625,0.0188,0.0617,-0.181,0.0043,0.02771,-0.0505,0.3542,0.5444,0.1653,-0.3184,-0.1385,0.10565,0.1062,-0.02502,-0.0953,0.2229,-0.2047,0.1293,-0.06073,-0.05365,0.1761,-0.3875,-0.1866,-0.02843,0.3403,0.3767,0.277,0.437,0.1672,0.06537,0.2412,0.01169,0.04755,-0.2651,0.3206,-0.244,0.3076,0.00676,-0.3362,0.193,-0.2123,0.3757,-0.04926,-0.0707,0.01013,0.09485,0.006485,0.06824,0.1469,-0.787,-0.06042,-0.0368,0.1536,-0.1661,-0.2646,0.418,1.044,0.0723,0.01762,0.0114,0.3872,0.415,0.4111,0.2322,0.0788,0.982,-0.1173,-0.03574,-0.11584,0.126,0.2136,-0.246,0.023,0.486,-0.2278,0.0567,0.1561,-0.5815,-0.10266,0.02048,0.0784,0.08655,-0.0852,0.0852,0.0499,-0.1453,0.1356,0.2098,-0.1531,-0.1842,0.11615,0.228,0.02554,-0.616,0.875,-0.02625,-0.1887,0.11707,-0.1511,-0.1444,-0.0729,0.8755,4.53e-06,0.1214,-0.8887,0.05707,0.369,0.289,0.1595,-0.006203,-0.2261,-1.066,-0.0311,0.0802,0.02692,-0.1208,-0.0357,0.1683,0.4126,0.1531,1.218,0.129,-0.589,0.10803,0.1456,-0.05426,-0.12036,0.0409,0.2883,-0.3362,0.2688,-0.03955,-0.2925,-1.476,-0.364,0.2444,-0.2281,0.1787,-0.2898,-0.11835,0.07684,-0.03195,-0.6377,0.2113,0.153,0.1554,1.129,-0.2654,0.1405,0.173,0.2312,0.2104,-0.266,-0.02516,0.1089,0.3538,-0.00666,0.1396,0.10425,0.01619,-0.285,-0.0934,-0.322,-0.2559,-0.1641,-0.1073,0.04666,0.345,-0.2693,0.08624,-0.328,-0.03522,-0.1182,0.192,-0.5,-0.01938,-0.548,0.11536,-0.0557,-0.006565,0.285,0.09106,-0.1334,-0.0498,-0.2913,0.07153,0.2064,0.086,0.0763,0.06104,-0.1021,-0.04047,-0.03897,-0.1002,0.2893,-0.2583,-0.00735,0.4617,0.0983,0.0752,0.2308,-0.04245,0.229,0.382,0.0712,-0.07074,-0.0223,-0.3877,0.2384,-0.01816,-0.1661,-0.1405,-0.1998,-0.1765,0.1383,0.0689,0.2338,-0.4414,-0.2803,-0.319,-0.0908,0.10895,-0.2224,-0.165,-0.1534,-0.251,-0.1564,0.10974,0.1721,0.3088,-0.144,0.338,-0.0774,-0.0699,-0.0609,0.03992,0.3887,-0.1803,0.1969,-0.01593,-0.04688,0.1207,-0.012665,0.1078,-0.1854,0.2054,0.049,-0.02492,0.1765,0.08673,-0.03705,0.0656,-0.2642,0.477,-0.0603,-0.1052
bee,0.2096,-0.01091,-0.3772,-0.06046,-0.03308,-0.0813,0.295,0.848,0.03165,0.03812,0.1968,0.05606,-0.01799,0.1954,0.03574,0.01041,-0.183,-0.001005,0.07947,-0.04114,-0.2241,0.1287,-0.4382,0.249,-0.1332,0.1052,-0.1687,-0.06036,0.01071,-0.0276,0.2812,-0.1693,0.0303,0.08936,-0.41,-0.04205,-0.3552,-0.1152,-0.3306,-0.3494,0.1844,-0.2559,-0.1312,-0.1492,0.1997,1.496,0.46,0.02402,0.04483,-0.2114,0.05148,-0.136,0.04922,-0.246,0.2408,-0.216,0.0786,0.2107,0.0651,-0.1714,0.825,-0.0508,-0.3364,-0.4238,0.02283,-0.1152,-0.2117,0.0709,-0.3416,-0.1406,-0.1268,-0.05978,0.03033,-0.05795,-0.2399,-0.1239,0.03558,0.07983,-0.2156,-0.4106,0.1375,-0.1256,-0.1175,-0.756,0.3535,0.3228,0.2421,-0.1085,0.0264,-0.39,0.2947,-0.1826,-9.234,0.3525,0.1682,0.0836,0.03052,-0.3472,-0.1353,0.014305,0.2383,-0.08185,0.292,0.03192,0.04706,0.0869,-1.214,0.2234,-0.1256,-0.01487,0.1292,-0.0414,0.3208,-0.0405,-0.1157,0.1344,-0.0768,-0.0237,0.0885,-0.0369,0.010895,-0.5967,0.06445,0.03397,0.3167,-0.158,-0.1131,-0.0827,0.0373,-0.1305,0.10364,-0.2289,-0.2102,1.15,0.239,0.4324,-0.1381,-0.9243,-0.4353,-0.0634,0.11346,0.2017,-0.3452,0.06204,-0.2455,0.1567,-0.2832,0.3118,-0.1942,0.02039,-0.1863,-0.275,0.03008,-0.1501,-0.03096,-0.5107,0.266,-0.07404,-0.4177,-0.0782,0.002329,-0.0658,0.1681,-0.1276,0.06537,0.2372,-0.0714,0.05978,0.0815,-0.01785,0.1781,-0.1571,0.12494,-0.0655,-0.08386,0.141,0.1984,0.2128,0.05444,0.0945,-0.363,0.02383,-0.07306,-0.02776,-0.4792,-0.1647,-0.06964,0.10455,0.1885,0.05356,-0.0685,-0.0543,0.2493,-0.311,0.2234,-0.09656,0.1139,0.08594,-0.4912,0.292,-0.1592,0.0905,0.03062,0.4336,0.2043,0.0381,-0.2993,-0.2203,0.0686,-0.155,-0.504,0.395,0.02399,-0.0621,0.0459,-0.03253,-0.015015,0.08044,0.7617,-0.374,0.7725,0.1415,-0.1153,0.01301,0.178,-0.1803,0.1123,-0.04166,-0.08295,0.1157,0.00763,0.0887,0.2803,-0.3596,0.2028,0.5854,0.0756,-0.0325,-0.1921,-0.273,-0.1343,0.4263,0.02844,-0.031,0.09393,-0.4504,-0.0837,0.2064,0.08356,-0.00726,-0.1731,-0.02911,0.404,0.1,-0.05838,-0.1075,-0.2522,-0.1088,-0.94,0.04587,-0.3562,-0.02036,0.03047,-0.2634,0.02373,-0.003798,0.2245,-0.3599,-0.0473,-0.1847,0.1395,0.0495,-0.2289,-0.193,0.05707,-0.012,0.478,-0.1301,-0.006596,0.0381,-0.0991,0.1194,0.214,0.2338,0.01724,-0.3599,0.638,0.06757,-0.3325,0.02559,-0.04544,-0.219,0.1351,0.2084,0.2129,0.3433,-0.06445,-0.1731,0.2515,0.1242,0.179,0.0831,-0.1677,-0.11224,-0.1898,-0.6597,0.03256,-0.2922,0.1005,0.3433,-0.3682,-0.065,1.149,-0.2129,-0.11237,-0.1323,0.0964,0.2343,0.1781,0.01429,0.3867,1.535,-0.0982,0.0318,-0.252,-0.0915,0.097,0.1224,0.1171,0.7524,-0.278,0.0698,0.2351,-0.0932,0.05423,-0.2054,0.1672,0.087,0.3362,0.01132,0.1361,0.2756,0.1025,-0.1202,-0.03735,-0.0286,0.3,-0.0406,-0.10724,-0.227,0.1844,0.2025,0.312,-0.1615,0.1294,-0.2908,0.05585,0.01502,0.01276,-0.01505,-0.304,0.0456,0.3499,0.125,-0.5596,0.003918,-0.05505,-0.524,0.274,-0.09924,-0.3171,0.06122,0.2279,0.04572,0.0781,0.4763,0.2106,-0.2578,-0.7446,0.283,-0.0356,-0.1254,0.02094,-0.4429,-0.1536,-0.1364,-0.1423,0.2522,-0.2306,-1.211,-0.924,-0.0915,0.00668,-0.2395,0.05087,0.01243,0.00175,0.1242,-0.2766,-0.2333,0.195,0.0774,0.3347,0.00123,-0.1703,0.2052,0.1759,-0.08344,0.3113,-0.3545,0.04974,0.09485,-0.14,0.1733,-0.289,0.275,-0.1681,-0.0338,-0.2491,-0.337,-0.1365,-0.404,-0.2356,-0.489,-0.133,0.1666,0.05585,0.01199,0.4197,-0.1282,-0.344,-0.0812,-0.1421,-0.381,-0.17,-0.1714,0.1718,0.2112,0.2012,0.02866,-0.3352,0.4194,0.0817,0.06198,0.2074,0.2396,0.04114,0.1307,0.00839,-0.2695,0.4277,-0.1472,-0.06793,-0.5234,-0.01486,0.2605,-0.1786,-0.2242,-0.3184,-0.2573,0.07916,0.3313,0.2482,-0.1783,0.5913,-0.1045,0.01189,0.01741,-0.0683,-0.04764,0.01516,-0.0655,-0.00855,-0.1119,0.0567,-0.125,-0.04605,-0.1597,-0.1653,-0.0899,-0.05725,-0.07916,-0.0874,-0.0106,-0.2913,0.3918,0.05026,0.10236,-0.0159,-0.05768,0.005848,0.0143,0.389,-0.05804,-0.01313,-0.0779,-0.364,-0.24,-0.01456,-0.02054,0.4307,0.04788,-0.07965,0.1372,0.2303,-0.2297,-0.0323,-0.0741,-0.2139,0.626,0.2922,0.01608
belt,0.00949,0.129,-0.3083,-0.06976,-0.06134,0.01582,0.02394,0.8457,0.3428,0.2922,0.349,0.0794,0.4988,0.01033,-0.3325,-0.09375,0.0885,0.1259,0.2177,-0.0227,0.08875,0.0818,-0.1498,-0.09686,0.0806,0.02005,-0.1362,-0.2006,-0.11975,0.2311,0.011,-0.046,0.09534,-0.2832,-0.3633,0.0777,-0.253,0.05212,-0.1411,0.0779,-0.2678,-0.3062,-0.02254,-0.2483,-0.03662,1.456,0.4014,0.09814,-0.1775,-0.1411,0.2236,0.00901,0.2715,-0.324,0.1836,0.0546,-0.06573,0.2024,-0.1718,-0.1006,0.5537,-0.1868,-0.1633,-0.2505,-0.0854,-0.06604,-0.0546,-0.166,-0.2462,-0.259,-0.2004,-0.04556,0.0839,0.0192,-0.3035,-0.03287,0.04517,-0.2249,-0.00985,-0.2303,-0.233,-0.1503,-0.03268,-0.785,0.3662,0.2445,0.49,-0.06232,-0.09125,-0.0672,0.2388,-0.1406,-9.234,0.693,-0.005623,0.0936,0.1405,-0.03558,0.2844,0.3972,-0.01993,-0.0973,0.34,-0.1764,0.12305,0.1554,-1.003,0.336,-0.1332,-0.1342,0.01171,0.2042,0.0658,-0.2238,-0.02187,-0.004665,-0.02122,-0.1323,0.02325,0.1658,-0.1655,-0.381,0.0525,0.3726,0.1696,-0.0431,0.009926,-0.12274,0.1732,0.1304,0.0798,-0.2146,-0.07465,1.164,0.1383,0.146,0.1191,-0.57,-0.323,-0.0855,0.009285,0.08813,-0.2485,0.02354,-0.0984,0.05563,-0.2212,0.05325,-0.1134,-0.1213,-0.163,-0.0794,0.41,-0.003122,-0.0953,-0.5713,0.205,-0.063,-0.02928,0.02338,-0.1503,-0.1265,0.1979,-0.1862,0.0925,0.1759,-0.0507,0.02133,0.1641,-0.01648,0.2256,-0.2603,0.07294,-0.2053,0.001767,-0.1941,0.859,0.2268,-0.1227,-0.01459,-0.04184,-0.3145,0.09015,-0.08325,-0.446,-0.16,-0.0267,-0.04773,0.2908,-0.07477,-0.0541,0.0434,0.1453,-0.3093,0.2015,-0.2473,-0.0222,-0.045,-0.6113,-0.1449,-0.0366,0.2346,0.02321,0.3677,0.07184,0.06586,-0.3486,-0.04282,-0.0501,-0.2732,-0.3787,0.074,0.0748,0.06384,-0.00861,0.0557,-0.173,-0.1663,0.43,-0.332,0.4058,-0.3438,-0.0941,-0.03058,0.1371,0.2205,0.1997,0.01298,0.1104,0.2585,-0.03424,0.0474,0.2424,-0.01582,-0.006504,0.3618,-0.03021,0.01959,-0.2457,-0.2252,-0.1741,0.3298,0.3281,0.2391,0.06793,-0.624,0.11743,0.2764,0.012566,0.1979,-0.2578,0.0923,0.3816,-0.10895,0.06012,-0.1844,0.231,0.0533,-0.9106,-0.1278,0.092,-0.0446,0.000549,-0.00603,0.1216,0.1628,0.2554,-0.11237,0.2285,-0.1353,0.1619,0.05615,-0.335,-0.338,-0.1098,-0.0486,0.2275,-0.10754,-0.1427,-0.1082,-0.0841,0.2266,0.00649,0.0986,0.1075,-0.3198,1.101,0.1895,-0.2034,-0.1777,0.2152,-0.01581,0.1865,0.3,0.0853,0.3474,-0.2109,-0.1677,0.0964,-0.1448,0.483,-0.296,-0.0528,0.2063,-0.04944,-0.9023,-0.2361,-0.304,-0.3904,0.2448,-0.298,0.1191,1.163,0.07904,0.3418,-0.1392,0.391,0.2388,0.08575,0.1343,-0.04913,1.091,-0.1189,0.0267,-0.2764,0.04773,0.2081,0.168,0.2028,0.9087,-0.0745,-0.01354,0.39,-0.1337,0.09247,0.002592,0.0064,0.001833,0.2411,0.01665,-0.00894,0.2554,0.2693,0.02252,-0.3403,0.0971,0.04257,0.11725,0.1735,-0.137,0.628,0.02856,0.05103,-0.02657,0.2025,-0.6157,-0.12115,0.3306,-0.01729,-0.2037,-0.2788,0.205,0.2278,-0.012665,-0.3093,0.0514,-0.0166,-0.6743,0.01276,0.05347,-0.1897,-0.03168,-0.001784,0.02606,0.1134,0.1913,0.2219,-0.03723,-0.502,0.3513,0.0883,-0.02611,-0.159,-0.5503,-0.04324,0.01103,-0.0389,0.2106,-0.2036,-0.8994,-0.4497,0.03293,0.2039,-0.3022,-0.1521,-0.1063,-0.0057,-0.0785,-0.3496,0.283,0.1904,0.156,0.8057,0.1,-0.14,0.2449,0.194,-0.05075,0.08905,-0.1365,-0.1888,-0.099,-0.03436,0.1804,-0.1953,0.01056,-0.352,-0.06726,-0.1964,-0.2917,-0.2815,-0.3867,-0.1564,0.03256,0.006725,-0.0941,-0.10126,-0.4329,-0.343,0.1421,-0.07983,-0.1255,-0.1387,-0.1212,-0.1263,0.03204,0.2048,0.2135,0.02882,0.01288,-0.4473,0.2021,0.07886,-0.0996,0.095,0.10114,0.11426,0.1417,-0.05878,-0.0429,-0.2303,0.0379,-0.1202,-0.7314,-0.2124,0.2404,-0.0466,-0.2576,-0.2957,-0.1417,0.367,0.02388,0.08954,-0.1144,0.56,0.05817,0.362,-0.06696,-0.10187,-0.278,0.0764,-0.02551,0.2598,-0.163,0.1006,-0.3726,-0.0784,-0.01209,-0.03026,-0.06854,-0.158,0.1217,-0.09784,0.2079,-0.11865,0.1815,-0.09937,0.1023,-0.03156,-0.1418,0.11096,-0.1084,-0.007145,0.107,-0.04034,-0.4658,-0.1725,-0.3071,-0.12256,-0.03433,0.2546,0.07245,-0.1526,-0.1098,0.3965,-0.1478,0.02339,-0.09485,-0.3655,0.974,-0.09,0.1886
bench,-0.02591,0.05212,-0.08276,-0.1252,0.11084,-0.05655,0.2012,0.665,-0.2275,-0.00243,0.3193,0.11597,0.0972,-0.001197,-0.06866,0.0676,-0.4866,0.1536,0.05692,-0.1866,0.3794,0.09454,-0.04346,-0.0743,-0.06573,0.1179,-0.1293,-0.0693,-0.1377,0.2335,0.06396,0.0329,-0.09045,-0.3013,-0.2566,-0.159,-0.3953,0.04044,-0.1442,0.3486,-0.3716,-0.0234,-0.1072,0.05417,0.0858,0.2457,0.3376,-0.086,-0.1445,0.05353,0.0474,0.181,0.3252,-0.2275,0.00938,-0.05017,-0.2542,0.2325,-0.2524,0.03323,0.0783,-0.04288,-0.0939,-0.1685,-0.03342,0.03683,0.01298,0.5166,-0.3296,-0.195,-0.06213,0.03412,0.11755,-0.1348,-0.19,-0.0822,-0.1532,-0.2301,-0.0846,-0.2869,-0.4004,0.06573,-0.003538,-0.6597,0.1848,0.27,0.5156,0.0107,-0.1925,-0.1367,0.2388,-0.1515,-8.75,0.7217,-0.0442,0.1621,0.07227,0.0901,-0.3442,0.2485,0.03064,-0.10364,0.2244,-0.03683,0.06052,0.2233,-1.261,0.354,-0.1897,-0.02306,-0.04248,0.396,0.1738,-0.0802,-0.0664,-0.1888,-0.3608,-0.009674,-0.04596,0.1179,0.0732,-0.743,-0.0626,0.269,0.2429,-0.1774,-0.00793,-0.2842,0.02426,0.1627,0.01049,-0.2355,0.04706,1.102,-0.1404,0.1433,0.2046,-0.519,-0.0707,-0.0338,0.0971,0.002987,-0.001623,0.00392,-0.1346,0.0375,-0.3474,0.2379,0.03665,-0.03029,-0.06183,-0.2612,0.2932,0.00583,-0.10046,-0.4026,0.013535,-0.1484,-0.0676,-0.1653,-0.1533,-0.08636,0.2544,-0.2068,0.256,-0.02727,0.2502,0.04684,0.02023,-0.2275,0.2083,-0.138,0.2402,0.0343,-0.182,0.01359,1.034,0.261,-0.495,-0.02173,-0.010704,-0.2524,-0.0876,-0.02103,-0.293,-0.05453,-0.0425,0.1015,0.186,-0.2388,0.01167,0.1858,0.267,-0.0467,-0.1964,-0.1552,-0.1528,0.0325,-0.3428,-0.1495,-0.007565,0.32,0.00953,0.3,-0.1085,0.1519,-0.3005,-0.02864,-0.06036,-0.2566,-0.1807,0.1042,0.1111,-0.0645,0.05847,0.0415,-0.0259,0.1416,0.8403,-0.24,0.4463,-0.0018835,-0.1053,-0.1884,-0.0386,0.1327,0.082,0.1056,0.01352,0.1349,-0.0855,0.01412,0.1506,0.2722,-0.2668,0.394,0.02258,-0.01804,-0.263,-0.1836,-0.1151,0.2642,0.126,0.1564,0.0558,0.2805,-0.1279,0.3413,-0.1565,0.458,-0.1466,-0.03027,0.1974,-0.2583,-0.1315,0.01241,0.006584,0.2284,-0.01017,-0.1512,-0.07166,0.03952,-0.04007,0.08765,0.0477,0.092,0.1884,-0.05856,0.318,-0.1456,-0.0688,-0.071,-0.1038,0.0212,0.00516,-0.1328,0.01616,-0.181,0.03687,0.00653,0.09686,0.3638,0.1536,0.2045,0.122,-0.1556,0.667,0.02748,-0.1725,-0.1881,0.1786,-0.2357,-0.02658,0.06247,0.03123,0.3098,-0.1843,-0.09576,-0.03296,-0.1239,0.3247,0.04767,-0.167,0.01187,-0.02132,-0.746,-0.08075,-0.1609,-0.113,0.139,-0.2206,0.2524,1.102,-0.303,0.1703,-0.1357,0.3647,0.2452,0.03284,-0.2181,0.2035,1.323,-0.0254,0.1818,-0.3083,-0.01185,0.2399,0.0482,0.1188,0.7017,-0.0813,0.03925,0.3538,-0.4443,0.1533,-0.006824,0.0984,-0.06128,0.2351,0.00968,-0.1428,0.02959,0.11505,-0.1197,-0.2196,0.1235,0.05084,0.104,0.0982,-0.0787,0.2866,-0.1996,-0.06125,-0.11975,0.03964,-0.586,-0.0873,0.2822,-0.03528,-0.08716,-0.7954,0.1552,0.4026,0.205,-0.2776,0.00375,0.1443,-0.4197,0.0745,0.03702,0.01808,-0.0059,0.05988,-0.014854,-0.1041,0.1169,0.6543,-0.0744,-0.2676,0.004463,0.10596,0.3918,-0.289,-0.3826,-0.0956,-0.04416,0.07135,0.2494,-0.00946,-1.354,-0.5386,0.2196,-0.0912,-0.2477,-0.1498,-0.014626,0.0862,-0.0901,-0.098,0.0885,0.273,0.07965,0.8833,0.1936,-0.09485,0.1819,0.2993,0.05118,0.04395,-0.1709,-0.00389,-0.006824,0.1628,0.1107,-0.1681,0.1335,-0.3293,-0.2974,0.00423,-0.1609,-0.0841,-0.03198,-0.1259,-0.02283,-0.1841,0.004322,0.06125,-0.1865,-0.01726,-0.02853,0.0331,-0.1246,0.2169,-0.1697,-0.11127,-0.08496,0.06854,0.1653,-0.02124,-0.0717,-0.1768,0.43,0.03995,0.143,0.2379,0.0352,-0.002935,0.0764,-0.02104,0.174,0.08,0.00414,-0.03998,-0.326,0.02892,0.07294,0.2688,-0.1656,0.0179,0.01156,0.264,0.04263,0.0573,-0.0997,0.5474,0.1346,0.2487,-0.0301,-0.0601,-0.3083,0.2659,-0.03107,-0.1489,-0.04843,-0.04984,-0.1438,-0.04913,-0.02701,-0.144,-0.06058,-0.1233,0.1238,0.09436,0.1986,0.03522,-0.05344,-0.1559,0.1099,0.2367,-0.0268,0.1049,-0.08685,0.4045,-0.0643,-0.02702,-0.374,-0.01659,-0.2898,-0.06076,-0.02681,0.0808,0.0995,0.1582,0.04922,0.2059,-0.2076,0.0482,0.1344,-0.3533,0.7476,-0.07446,0.08765
bib,-0.04422,0.0525,-0.11896,0.1366,0.01368,0.03604,0.0848,0.5615,0.3186,0.2122,0.1405,0.00452,0.2844,0.03415,-0.1902,-0.0766,-0.3147,0.1459,0.194,-0.04175,-0.2532,-0.06046,-0.0591,0.1628,-0.04477,0.01671,-0.11163,-0.1821,0.1032,-0.1362,-0.1497,-0.00805,0.1422,-0.251,-0.127,0.1501,-0.303,0.0776,-0.10425,0.0701,-0.3503,-0.2194,-0.2869,-0.03674,-0.0336,1.755,0.3381,0.0957,0.1869,0.0001236,0.4048,-0.0495,0.1348,-0.3044,0.04996,0.0484,-0.05667,0.0975,-0.1549,0.008675,0.8276,-0.08734,-0.01138,-0.3464,-0.2303,-0.11676,-0.1225,0.5166,-0.2515,-0.2688,-0.0676,0.06903,0.013214,-0.2389,-0.187,-0.006657,-0.02405,-0.10895,0.007374,-0.05878,-0.1786,-0.11456,-0.0415,-0.634,0.2285,0.2051,0.6533,-0.05765,0.1567,-0.1492,0.3362,-0.1063,-8.53,0.434,-0.01712,0.1844,-0.1545,-0.07263,0.2218,0.7686,-0.0533,-0.09973,0.4158,-0.10974,-0.2798,0.001662,0.01585,0.1771,-0.1998,-0.0373,-0.04517,0.2007,0.1292,-0.1935,0.0705,0.0598,-0.2083,0.07153,-0.1057,0.0527,-0.00625,-0.6465,0.1486,0.06635,0.1288,-0.0812,-0.002686,-0.213,0.0603,0.1543,0.134,-0.1544,-0.1904,1.075,0.11475,0.10284,0.01694,-0.443,-0.4854,0.0537,-0.0814,0.0295,-0.0521,0.0713,-0.1262,-0.0044,-0.265,0.3872,-0.2089,-0.05237,-0.1492,-0.1212,-0.0511,-0.02046,0.054,-0.5366,0.266,0.03032,-0.1477,-0.02162,-0.03102,0.02498,0.1367,-0.10767,0.1298,0.07056,0.3574,0.186,0.0947,0.00825,0.2185,-0.04218,-0.0844,-0.1001,-0.2424,-0.0665,0.557,0.1611,-0.06635,0.03445,-0.06805,-0.2576,0.03757,-0.1315,-0.3203,-0.00783,-0.1251,-0.1864,0.2482,-0.1404,0.0625,-0.02048,0.1724,-0.101,0.2241,-0.143,0.05524,-0.02849,-0.4963,-0.0765,-0.1168,0.2578,-0.1478,0.2255,0.03958,0.204,-0.368,0.004917,-0.0939,-0.143,-0.2756,0.3584,0.0664,-0.01016,0.02759,0.08936,-0.03253,0.1528,0.558,-0.3782,0.4873,-0.09326,-0.1097,-0.226,0.2847,0.0561,0.2927,-0.0312,0.07904,0.02766,0.00602,0.002865,0.2218,-0.03772,-0.07104,0.507,-0.009964,-0.02744,0.00604,-0.19,0.004147,0.1123,0.2124,-0.00979,0.008286,-0.614,0.05096,0.2578,-0.0124,0.05847,-0.1812,0.114,0.3984,-0.0634,-0.2279,0.007248,-0.002245,0.10223,-0.869,0.02628,0.01237,-0.0878,-0.002373,-0.2278,0.1686,0.11993,0.0319,-0.1484,0.0686,-0.294,0.0685,0.1752,-0.176,-0.01836,-0.0607,-0.05948,0.011604,-0.2612,-0.1313,-0.09875,-0.12115,0.2607,0.1274,0.0218,0.02141,-0.04858,0.5107,-0.01706,-0.0472,-0.2476,0.1661,-0.2515,0.2468,0.065,0.1117,0.1247,-0.3345,0.0358,-0.0413,0.00921,0.2234,-0.0252,-0.0589,0.07794,-0.00499,-0.5664,-0.11237,-0.1096,-0.06793,0.262,-0.2568,0.1354,1.075,0.2019,0.293,-0.291,0.186,0.2285,0.12305,0.293,-0.09033,0.896,-0.0734,-0.0933,-0.3513,0.0741,0.1803,0.01188,0.01653,0.6377,-0.014175,0.1936,0.3352,-0.19,-0.07697,-0.075,0.1414,-0.06525,0.1259,-0.06836,-0.07184,-0.0309,0.3347,0.1578,-0.472,-0.02614,0.1235,0.024,0.121,-0.1316,0.5386,0.010666,-0.1656,-0.02988,0.1151,-0.1589,-0.1224,0.8076,0.001846,-0.2247,-0.306,0.1821,0.3298,-0.0652,-0.3328,0.04547,-0.2178,-0.741,-0.00837,0.1355,-0.09674,-0.236,0.08704,0.1455,0.1686,0.0647,1.029,0.05618,-0.4753,0.3494,0.074,-0.1631,-0.2588,-0.43,-0.0516,-0.02429,0.03775,0.3335,-0.3923,-1.067,-0.3809,-0.0407,-0.0727,-0.079,-0.253,-0.1475,-0.06042,-0.01524,-0.4414,0.2783,0.3154,0.2832,0.872,0.11505,-0.1337,0.2178,0.2568,-0.02304,0.01772,-0.173,-0.1478,-0.04788,-0.1436,0.195,-0.2379,-0.03256,-0.03754,0.10223,-0.069,-0.2429,-0.4253,-0.4238,-0.1317,0.1864,-0.17,-0.0713,-0.1719,-0.3516,0.0728,0.2428,-0.1376,-0.03665,0.4038,0.03488,-0.0931,-0.04306,0.10767,0.09937,-0.1177,0.08954,-0.1802,0.2063,0.1799,0.01313,0.2441,-0.02159,0.02847,0.042,-0.161,0.02167,0.1615,-0.2078,0.04965,-0.563,0.009384,0.1741,0.05106,0.1018,-0.165,0.05096,0.2458,-0.091,-0.1576,-0.1794,0.4417,0.05783,0.1831,0.03268,-0.1716,-0.157,0.01271,0.04254,0.1819,-0.05472,-0.0791,-0.2883,0.011406,-0.00944,-0.10205,0.06744,-0.2866,0.0951,0.004383,0.1758,0.04633,0.0459,-0.145,0.1201,-0.02505,-0.0859,0.1813,-0.1392,0.12115,-0.0614,-0.217,-0.1605,-0.2432,-0.2146,-0.3152,0.2001,0.3643,0.2014,-0.04434,0.0927,0.05936,-0.2476,0.1763,-0.014084,-0.3018,0.6895,-0.0772,0.0672
