,0,1,2,3,4,5,6,7,8,9,10,11,12,13,14,15,16,17,18,19,20,21,22,23,24,25,26,27,28,29,30,31,32,33,34,35,36,37,38,39,40,41,42,43,44,45,46,47,48,49,50,51,52,53,54,55,56,57,58,59,60,61,62,63,64,65,66,67,68,69,70,71,72,73,74,75,76,77,78,79,80,81,82,83,84,85,86,87,88,89,90,91,92,93,94,95,96,97,98,99,100,101,102,103,104,105,106,107,108,109,110,111,112,113,114,115,116,117,118,119,120,121,122,123,124,125,126,127,128,129,130,131,132,133,134,135,136,137,138,139,140,141,142,143,144,145,146,147,148,149,150,151,152,153,154,155,156,157,158,159,160,161,162,163,164,165,166,167,168,169,170,171,172,173,174,175,176,177,178,179,180,181,182,183,184,185,186,187,188,189,190,191,192,193,194,195,196,197,198,199,200,201,202,203,204,205,206,207,208,209,210,211,212,213,214,215,216,217,218,219,220,221,222,223,224,225,226,227,228,229,230,231,232,233,234,235,236,237,238,239,240,241,242,243,244,245,246,247,248,249,250,251,252,253,254,255,256,257,258,259,260,261,262,263,264,265,266,267,268,269,270,271,272,273,274,275,276,277,278,279,280,281,282,283,284,285,286,287,288,289,290,291,292,293,294,295,296,297,298,299,300,301,302,303,304,305,306,307,308,309,310,311,312,313,314,315,316,317,318,319,320,321,322,323,324,325,326,327,328,329,330,331,332,333,334,335,336,337,338,339,340,341,342,343,344,345,346,347,348,349,350,351,352,353,354,355,356,357,358,359,360,361,362,363,364,365,366,367,368,369,370,371,372,373,374,375,376,377,378,379,380,381,382,383,384,385,386,387,388,389,390,391,392,393,394,395,396,397,398,399,400,401,402,403,404,405,406,407,408,409,410,411,412,413,414,415,416,417,418,419,420,421,422,423,424,425,426,427,428,429,430,431,432,433,434,435,436,437,438,439,440,441,442,443,444,445,446,447,448,449,450,451,452,453,454,455,456,457,458,459,460,461,462,463,464,465,466,467,468,469,470,471,472,473,474,475,476,477,478,479,480,481,482,483,484,485,486,487,488,489,490,491,492,493,494,495,496,497,498,499,500,501,502,503,504,505,506,507,508,509,510,511,512,513,514,515,516,517,518,519,520,521,522,523,524,525,526,527,528,529,530,531,532,533,534,535,536,537,538,539,540,541,542,543,544,545,546,547,548,549,550,551,552,553,554,555,556,557,558,559,560,561,562,563,564,565,566,567,568,569,570,571,572,573,574,575,576,577,578,579,580,581,582,583,584,585,586,587,588,589,590,591,592,593,594,595,596,597,598,599,600,601,602,603,604,605,606,607,608,609,610,611,612,613,614,615,616,617,618,619,620,621,622,623,624,625,626,627,628,629,630,631,632,633,634,635,636,637,638,639,640,641,642,643,644,645,646,647,648,649,650,651,652,653,654,655,656,657,658,659,660,661,662,663,664,665,666,667,668,669,670,671,672,673,674,675,676,677,678,679,680,681,682,683,684,685,686,687,688,689,690,691,692,693,694,695,696,697,698,699,700,701,702,703,704,705,706,707,708,709,710,711,712,713,714,715,716,717,718,719,720,721,722,723,724,725,726,727,728,729,730,731,732,733,734,735,736,737,738,739,740,741,742,743,744,745,746,747,748,749,750,751,752,753,754,755,756,757,758,759,760,761,762,763,764,765,766,767
airplane,-0.185,-0.5703,-0.1277,-0.371,0.05798,-0.7026,-0.1362,-0.1948,0.537,-0.2134,-0.6245,-0.3967,-0.2123,0.2029,-0.05243,0.5903,0.0788,0.1833,0.006294,0.02025,-0.1268,-0.8657,0.2079,-0.828,-0.1409,-0.4397,-0.1493,0.1583,-0.1952,-0.08453,0.128,-0.054,-0.179,-0.7817,-0.011536,0.1466,-0.3472,0.1461,0.3223,0.2744,0.7944,0.1984,0.2507,0.12213,-0.005825,-0.3303,0.1909,-0.02489,-0.1968,-0.485,-0.3484,0.716,0.478,0.432,-0.312,-0.2172,0.1231,0.646,-0.1628,-0.2725,0.612,0.4202,-0.3513,-0.00802,0.6367,-0.01247,-0.2058,-0.3486,-0.00442,-0.2023,-0.276,-1.027,0.01043,-0.58,0.1731,-0.3032,0.72,-0.1394,-0.8647,-0.785,0.1246,-0.2303,0.3066,0.0788,0.0978,-0.3542,0.1654,-0.8076,-0.1422,-0.1031,0.1389,-0.4111,0.206,-0.501,-0.926,0.3477,-0.2593,0.0944,-0.1636,0.4292,0.1758,-0.0575,-0.1989,0.4062,-0.549,0.2024,0.1725,-0.2461,0.432,-0.03708,0.2225,0.04797,-0.3074,0.2069,-0.1188,0.1909,0.5483,-0.398,0.191,-0.3035,-0.1854,-0.0989,0.2725,0.2227,0.815,-0.4377,0.8027,0.792,-0.3862,-0.1578,-0.4119,-0.254,0.03564,-0.3848,0.06384,-0.5366,0.3066,0.0796,0.2678,-0.2434,-0.10535,0.0753,0.0849,-0.11414,-0.09424,-0.545,-0.0263,0.676,0.271,0.4224,-0.2487,0.2678,0.1763,-0.0875,-0.2275,-0.013435,-0.4458,-0.56,0.1989,0.4104,0.11584,-0.4265,-0.2316,0.1296,-0.2168,-0.268,0.375,0.004482,0.2268,0.2725,0.655,0.1838,0.3105,0.02469,0.0658,0.1654,-0.010025,-0.3655,-0.12274,0.0231,-0.0444,-0.1908,-0.6006,0.87,-0.3284,-0.4287,-0.7886,-0.103,0.4753,-0.1775,0.08545,0.09106,0.2607,0.2673,-0.02217,0.3171,0.0974,0.4097,0.1945,0.5327,0.7905,0.0645,-0.4502,-0.5557,0.167,0.03732,-0.2429,0.09393,0.3376,-0.3904,0.4827,-0.3274,-0.424,0.709,-0.3152,0.1197,-0.3455,0.4402,-0.2578,0.8174,0.06274,0.0755,-0.2761,0.1346,0.59,0.558,0.2932,-0.582,0.2122,-0.0397,-0.0937,0.4429,0.0764,-0.673,-0.541,0.09357,0.1746,0.276,-0.12384,0.3296,0.3784,0.6426,0.147,0.03433,0.00468,-0.537,0.6255,-0.1338,-0.05444,-0.8228,0.5825,0.1821,0.1559,0.3193,-0.4558,0.3525,-0.01237,-0.1527,0.218,-0.2137,-0.37,-0.5195,0.0419,-0.0199,0.2725,-0.1344,-0.02512,0.001832,0.3635,-0.455,-0.3755,0.010765,0.01611,0.1707,-0.1843,-0.7075,-0.1924,0.3503,-0.11694,0.1902,-0.2118,0.02126,-0.1451,-0.00578,0.3762,0.03952,0.2317,-0.2064,-0.4978,0.1288,0.1217,-0.1117,-0.04086,0.2664,-0.6367,0.3716,-0.128,0.1942,-0.539,-0.2489,-0.1923,0.254,-0.1597,0.2275,-0.7827,-0.4783,0.02036,-0.5835,-0.2856,0.05008,-0.10425,-0.1682,0.1259,-0.2349,0.6816,0.09875,0.7446,0.2063,-0.6406,-0.3035,0.19,-0.02054,-0.0547,0.3057,-0.4514,-0.319,0.1387,0.09503,-0.04126,-0.602,-0.369,-0.1937,0.7373,-0.5254,0.1214,-0.733,-0.1686,0.1035,1.174,-0.2898,-0.01417,-0.587,-0.1342,-0.295,0.9634,-0.2178,-0.01395,0.11,-0.1763,-0.1458,-0.4106,0.3743,0.6216,0.343,0.0676,0.0909,0.0005264,0.2583,-0.736,0.4404,0.2566,0.134,0.584,-0.0836,-0.2009,-0.02156,0.251,-0.6743,-0.7,0.4092,0.2883,0.253,-0.02864,-0.6064,-0.1721,0.1746,-0.187,-0.2505,0.1309,-0.0829,0.4866,-0.1125,-0.1322,0.11176,0.3293,0.3716,0.1178,-0.265,-0.353,0.3223,-0.145,-0.793,-0.0689,-0.0201,-0.4058,-0.835,0.1243,-0.04517,0.02682,-0.1841,0.3623,-0.013336,-0.02237,0.3494,-0.058,0.499,0.04587,-0.625,-0.0834,-0.4624,-0.0842,-0.736,0.1926,0.0728,-0.589,-0.364,-0.02255,-0.3035,0.563,-0.05585,0.04233,0.1075,-0.365,-0.5894,-0.4456,1.072,-0.2515,-0.3374,0.5024,0.6885,0.2201,0.4304,0.3704,0.198,-0.10016,0.0789,0.196,0.0081,-0.5166,0.3015,-0.1809,-0.3936,0.285,-0.0591,-0.6323,0.1473,-0.04697,-0.06177,0.05057,0.2688,-0.07227,0.353,-0.4128,-0.0822,0.2212,0.10657,-0.3093,-0.0774,0.6606,0.162,-0.367,0.7627,0.532,-0.1497,0.4517,0.02997,0.012024,0.352,0.7466,-0.03107,0.4683,-0.4304,-0.2323,-0.709,-0.1174,0.0002128,-0.3066,-0.403,0.0581,-0.301,0.3914,-0.4414,0.413,0.4434,0.1747,0.1261,0.7217,-0.293,0.077,-0.008606,0.2396,-0.593,-0.0915,0.11304,-0.1094,0.01988,-0.1248,-0.4368,-0.1558,0.09344,0.1643,-0.3381,0.095,-0.6904,-0.2328,-0.228,0.02892,0.729,-0.062,-0.05682,0.2732,-0.4846,0.4146,0.1709,0.001053,0.757,-0.3772,0.3633,-0.3105,-0.3662,-0.1422,-0.534,0.04068,-0.3884,-0.0303,-0.4138,-0.5566,-0.515,0.0108,-0.1037,0.65,0.5024,0.2141,0.3372,0.4348,-0.1034,-0.511,0.4993,0.405,-0.2289,0.2023,-0.09576,0.1364,-0.1558,-0.6323,-0.000989,0.602,-0.1592,-0.3052,0.0584,0.4336,-0.213,-0.07404,-0.1992,-0.2676,-0.3027,-0.329,0.392,0.1664,0.1676,0.2472,-0.1252,-0.7334,0.00386,-0.367,0.02197,-0.4114,0.5767,-0.11523,-0.126,-0.11597,0.1146,0.384,-0.3015,0.05798,-0.218,-0.7275,0.014366,0.678,-0.53,-0.1941,0.049,-0.4778,-0.4285,-0.308,0.5073,0.2245,-0.1577,0.781,0.09015,-0.09186,-0.5386,-0.1682,0.3264,0.2225,-0.4937,-0.2332,-0.2202,-0.8486,0.0663,-0.1433,0.35,0.4624,0.03433,-0.1068,-0.0625,-0.477,0.2717,0.3755,-0.0871,-0.1027,0.1282,0.0962,0.5566,-0.1089,0.03766,0.502,0.2206,-0.1414,0.0744,-0.04385,0.1726,0.216,-0.0004096,-0.4104,0.2333,0.317,0.3042,-0.6914,0.466,-0.1656,0.0695,-0.2517,0.2189,0.762,0.2424,0.5566,-0.05554,0.3042,-0.0002398,-0.066,-0.03445,0.2754,0.03784,0.905,0.6797,0.014305,0.2715,0.1056,-0.426,-0.2788,-0.417,0.1252,-0.3994,0.1089,0.2598,-0.333,0.776,0.0546,0.2603,0.559,0.1202,0.2239,-0.0603,0.08057,-0.10693,0.1544,-0.1289,-0.667,0.3894,0.1271,-0.5454,0.1414,0.8774,-0.4668,0.094,0.282,-0.3574,0.2502,-0.2854,0.557,0.1284,0.265,-0.07605,0.3271,0.7437,0.1991,0.0008464,-0.08185,0.184,0.1041,0.5093,0.596,0.8,0.05936,0.3184,0.1908,0.2137,-0.3477,0.3372,-0.673,-0.05563,-0.1813,0.1956,0.2844,-0.1242,-0.09827,0.0927,-0.07996,0.306,0.04166,0.2996,-0.304,-0.559,0.4788,-0.689,-0.232,-0.06824,-0.5635,-0.7324,-0.2096,0.2847,-0.3047,-0.289,0.1742,0.194,0.01688,0.9194,0.6064,-0.4133,-0.0406,0.0487,0.0397,1.113,0.2084,-0.191,-0.08875,-0.2817,-0.07324,-0.1957,-0.2073,0.1123,-0.3345,0.2742,-0.02565,0.7593,0.03918,0.4963,0.564,0.176,-0.1515,0.2106,0.2428,-0.00961,-0.0782,0.01435,0.1116,0.8804,0.1802,-0.1643,-0.552,0.2727,-0.3313,-0.1996,0.2115,-0.12274,0.319,-0.6177
alligator,0.2405,0.345,-0.155,0.06976,0.1887,-0.03778,-0.11053,-0.4292,0.659,0.02373,-0.02815,-0.4321,-0.1256,-0.502,-0.03928,-0.2189,0.2683,-0.1067,0.00465,-0.5835,0.0562,-0.8916,-0.0766,0.31,-0.0956,-0.1849,-0.4233,0.03745,-0.2827,0.2659,0.1263,0.18,0.1517,-0.3386,0.5273,0.3345,0.355,0.4285,0.545,0.2343,-0.099,0.11914,-0.0686,0.1611,0.2491,-0.3308,0.967,0.08215,-0.1451,-0.375,-0.2012,-0.1892,0.3596,0.2332,-0.08685,-0.002806,0.1388,-0.02917,0.08905,0.2262,0.2727,-0.12085,-0.1385,-0.07837,0.1875,-0.0976,0.02727,0.1305,0.08704,0.1054,0.008156,0.3447,0.02495,-0.302,0.3372,-0.2422,-0.0164,0.04437,-0.373,-0.1294,0.1805,-0.2397,0.1776,-0.11633,-0.0821,0.01185,-0.1252,-0.3643,-0.06696,0.00824,0.2715,-0.7354,-0.4236,-0.0836,0.2311,-0.08276,-0.09174,-0.3435,-0.2651,-0.04935,0.578,-0.01923,-0.0452,-0.02898,-0.269,0.2578,-0.05557,-0.739,0.01833,-0.2573,-0.242,0.0648,-0.163,-0.1299,-0.3608,0.1703,0.1538,-0.2598,0.507,0.177,0.03143,-0.11884,0.722,-0.3394,0.0813,-0.01903,0.6123,0.1035,-0.11273,-0.255,0.08044,-0.2585,0.012245,0.1181,-0.1602,-0.03748,0.566,-0.3489,-0.02016,0.09174,-0.3838,-0.3743,-0.2489,0.146,-0.2578,0.09973,-0.2382,0.4495,-0.1373,-0.04507,-0.3645,0.08606,-0.1168,-0.1829,0.1838,-0.2646,-0.1774,-0.05685,0.559,-0.03464,0.09906,0.4265,0.1056,0.1758,-0.199,-0.2659,0.2559,0.02591,0.002768,-0.1105,-0.1146,-0.0611,-0.04803,0.2295,0.0766,0.09045,-0.4648,-0.2964,-0.1847,0.4424,-0.03525,0.2686,-0.0693,0.08295,0.5513,0.2169,0.2803,0.02649,0.594,0.3376,0.05942,0.04965,0.376,0.2139,-0.05585,0.461,0.04773,0.1464,0.05045,0.211,0.276,0.003159,0.1443,0.01337,0.2032,-0.00803,-0.1777,-0.02798,0.2588,-0.2764,0.2908,0.0487,-0.247,0.6616,-0.3562,0.1577,-0.0979,0.11835,-0.0581,0.499,0.00496,-0.07404,-0.12244,0.2445,0.4463,-0.2455,-0.109,-0.5186,-0.229,-0.07654,-0.2554,0.145,-0.1295,-0.2202,-0.3557,-0.01335,0.3242,-0.03503,0.1287,0.0519,0.1261,0.092,0.8184,0.01233,-0.2842,-0.366,0.09863,-0.2886,-0.02687,-0.3562,0.0791,0.03497,0.06396,0.06824,-0.481,-0.2413,0.07825,-0.0515,-0.3408,0.02872,-0.03372,0.544,-0.1636,0.0938,-0.05542,-0.1993,-0.0472,0.3232,0.07166,0.111,-0.2185,-0.1076,0.2146,0.2017,0.00735,-0.3435,-0.0906,0.10767,-0.3916,-0.207,-0.356,0.0299,0.2925,0.281,-0.179,0.1407,0.2986,0.8027,-0.00218,0.175,0.1852,-0.138,0.02611,0.186,-1.255,0.06934,0.146,0.141,-0.3079,0.01843,0.04715,0.4114,0.571,0.0567,-0.08856,-0.675,0.1213,-0.1842,-0.1186,-0.3186,0.0061,-0.5483,0.4097,-0.11676,0.3923,0.3313,0.3901,-0.02446,-0.0901,-0.07227,0.408,-0.1313,-0.1415,-0.0974,0.1678,0.332,0.1434,0.4065,-0.4514,0.2045,-0.775,-0.1786,0.1576,0.3562,0.2427,0.1212,-0.1488,-0.3606,0.3418,-0.0456,0.1032,0.3323,0.07385,0.0711,-0.2986,0.0361,0.1398,-0.446,0.4807,-0.4612,-0.2496,0.0754,-0.11725,-0.102,0.162,0.343,0.107,0.2377,-0.404,-0.3965,-0.6445,0.09546,0.545,-0.2114,0.02965,0.1825,0.1399,-0.2472,-0.645,0.3503,0.321,0.3113,-0.0986,-0.1332,-0.3213,-0.2822,0.0883,-0.0957,0.0861,-0.147,-0.1306,0.1938,-0.1388,-0.085,0.1257,0.5547,0.05414,0.05862,-0.06012,-0.096,-0.2996,-0.08606,-0.05948,0.04404,-0.02036,0.251,-0.0827,-0.02219,-0.1534,0.093,0.4116,-0.2214,-0.2101,0.3884,0.0528,-0.09094,-0.1886,-0.9297,-0.003103,-0.2012,-0.4426,0.1304,0.3042,0.1737,0.3904,-0.2054,0.218,-0.2496,0.4895,-0.0176,-0.10956,0.00918,-0.01637,0.317,0.2266,0.1328,-0.445,-0.03204,0.1682,-0.0498,-0.1534,0.1831,-0.1593,0.2588,-0.06433,-0.10974,0.3853,0.03717,0.05887,0.1487,0.1564,0.1864,0.167,0.3137,-0.4136,-0.296,0.1613,-0.03613,0.293,-0.2009,0.135,0.2961,0.02962,0.1615,0.235,-0.11316,0.4185,0.1423,-0.298,0.02843,-0.0744,0.4038,0.501,-0.2107,0.02762,-0.3179,0.012825,0.015434,-0.145,0.1277,0.1997,-0.3826,-0.0591,-0.1523,-0.1896,-0.1621,-0.1918,-0.06415,-0.11725,-0.08514,0.1724,-0.511,0.6035,0.4746,-0.0018425,-0.2695,0.4084,0.1478,0.579,-0.03412,-0.2059,0.3186,0.1516,0.006462,-0.534,-0.02437,-0.09283,-0.441,0.1387,-0.4905,-0.198,-0.4663,0.03029,-0.04977,-0.1926,0.1052,-0.1388,-0.08545,-0.009796,-0.578,0.2607,-0.4792,0.1836,0.02838,-0.012535,-0.0438,0.2827,0.2202,-0.6255,0.081,-0.0177,-0.03123,0.04163,-0.05655,-0.1787,0.3545,0.417,-0.171,-0.5327,-0.3413,-0.2201,0.305,0.4226,0.1458,0.1116,-0.2507,0.0653,0.542,0.3765,0.1223,0.0439,0.0898,-0.5103,-0.2178,0.0543,-0.142,-0.0336,0.0668,-0.4016,-0.03152,0.2998,-0.1324,-0.0954,0.01214,-0.2118,0.02905,-0.1414,-0.3467,-0.1389,0.26,0.158,-0.052,-0.3562,-0.1521,-0.5454,0.01557,-0.1522,-0.1254,-0.1621,0.2656,0.3955,-0.3955,0.2109,-0.1033,0.0028,-0.1375,-0.08276,0.067,0.1863,0.1326,0.112,0.2395,0.295,0.261,0.0051,0.2903,0.01886,0.2788,0.06464,0.2434,0.0641,-0.1002,0.2454,-0.2625,-0.03714,-0.52,0.09406,-0.3826,-0.3606,0.00766,0.09467,0.2756,0.1461,-0.2084,-0.00331,0.01729,-0.311,-0.1017,0.2147,0.1796,0.394,0.04034,0.1633,-0.2551,-0.08417,0.1364,0.1329,0.516,-0.00702,0.0096,-0.161,0.3325,0.1721,0.57,-0.2732,-0.0964,-0.04147,-0.04706,-0.093,0.0731,-0.3557,-0.08075,0.276,0.2725,0.1354,0.1505,0.3115,0.0872,0.1613,0.01875,-0.0698,-0.1342,-0.1068,0.01227,-0.07477,0.758,-0.3657,0.01768,-0.4768,-0.343,-1.136,-0.354,-0.09705,-0.0633,-0.1367,0.3745,0.227,0.139,0.192,-0.5728,-0.1627,-0.07947,-0.02498,0.1799,0.1073,0.00198,-0.2261,-0.04395,-1.373,0.2252,-0.07574,-0.353,-0.03568,0.3655,0.2769,0.001456,-0.08966,0.2632,-0.075,-0.0583,0.11914,0.2896,0.02272,-0.012276,0.0481,0.4106,-0.02808,0.04922,0.2308,0.2301,-0.0645,-0.2178,0.00405,-0.04123,0.005947,-0.3865,0.311,0.1063,-0.2256,-0.02766,-0.01384,-0.3027,-0.04706,0.2573,-0.2142,-0.1261,-0.08887,0.0733,-0.2346,0.006863,-0.1576,0.1715,-0.101,-0.2178,-0.4092,-0.06274,-0.0205,-0.0935,-0.351,0.5015,-0.03976,1.023,-0.0877,-0.04037,-0.1436,-0.2454,0.11755,-0.5225,0.02644,0.0983,-0.2405,-0.1299,0.3047,0.989,0.3027,0.1289,0.1726,-0.096,0.2063,0.327,-0.1239,0.0843,-0.271,-0.2181,0.2101,0.225,0.3853,0.3665,0.606,-0.1854,0.4104,0.232,0.0736,-0.01677,-0.1625,-0.00091,-0.2644,-0.3389,0.4902,-0.2524,-0.2615,0.163,-0.4111,0.1617,0.02715,-0.5835,-0.0235,-0.1266
animal,0.3206,-0.4424,-0.12286,-0.4724,0.3906,-0.3245,-0.1421,-0.2744,0.587,-0.06305,-0.05048,-0.3442,-0.2239,-0.1411,0.1584,0.0622,-0.03278,-0.12115,0.2166,-0.02208,-0.12006,-0.2554,-0.219,0.077,-0.102,-0.1772,-0.1794,-0.1021,-0.2242,0.373,0.2324,-0.1229,0.2135,-0.4048,0.00672,-0.0561,-0.08704,0.0751,0.5513,-0.0619,0.1802,-0.06573,0.007156,0.02675,-0.254,-0.1354,0.488,-0.2413,-0.3962,0.182,-0.134,0.1632,0.3127,0.02046,-0.03928,-0.11206,0.1597,0.1647,0.2139,0.167,0.311,-0.306,-0.005047,-0.639,0.293,-0.03687,0.2269,-0.0009155,0.14,-0.0951,0.05817,-0.269,0.3137,0.05286,0.3416,-0.1865,-0.1825,-0.1436,-0.718,0.2673,0.2551,-0.0745,0.3171,-0.3796,0.0931,0.10767,0.011765,-0.362,-0.014175,0.3499,-0.0939,-0.0845,-0.2096,0.1793,-0.2852,-0.08655,0.3755,-0.1159,-0.3196,0.03018,0.383,0.1934,-0.2954,0.1484,-0.241,0.2817,-0.10455,-0.2405,-0.1548,-0.08276,0.05493,-0.1531,0.09827,-0.2542,-0.3206,0.00976,0.2076,-0.2056,0.4336,-0.1438,0.1432,0.2479,0.432,-0.02008,-0.03894,0.3042,0.6606,-0.0633,-0.3528,-0.1489,-0.07294,-0.452,-0.18,0.104,-0.02255,0.321,0.2424,0.1323,-0.0842,-0.3025,-0.1074,-0.3103,-0.455,0.0529,0.00782,-0.1545,-0.02322,0.68,-0.1058,-0.1646,-0.0733,-0.0826,-0.3022,-0.1688,-0.4502,-0.1373,-0.357,-0.1592,0.2646,0.2983,0.0357,-0.261,-0.02495,0.2439,-0.3367,-0.1059,0.2634,-0.1271,0.2786,0.1798,-0.1519,-0.3374,0.2842,-0.1202,0.1603,-0.2441,-0.4128,-0.3047,-0.1776,0.1263,-0.1134,-0.174,0.08545,0.3066,-0.07983,0.2876,0.00479,0.06247,0.232,0.02538,0.1853,0.2498,0.06384,0.167,0.03842,0.6787,0.1238,-0.309,0.2296,-0.03558,0.0759,-0.05975,-0.0694,0.1594,-0.01604,0.1401,0.1521,0.3682,-0.00851,-0.264,0.09546,0.4458,-0.2961,0.486,-0.2786,-0.2102,-0.2404,0.11865,0.10077,0.07825,0.1407,0.1803,-0.1749,0.1498,0.1818,-0.0467,-0.4717,-0.08496,-0.598,-0.2632,-0.1375,0.02966,0.03958,-0.04926,0.06555,0.01419,0.05206,0.03058,-0.1237,0.4417,0.1665,0.1335,0.4062,0.1991,-0.05685,-0.405,-0.02669,-0.05847,-0.1031,-0.2286,0.3088,0.1412,0.4536,0.1742,-0.2742,0.03044,0.2783,-0.09094,-0.6377,-0.02661,0.1521,0.3276,-0.1059,-0.00246,-0.1715,0.02179,-0.0851,0.2356,-0.02826,0.0716,0.569,-0.2166,0.1486,0.2042,-0.02908,-0.528,0.004707,0.151,-0.2385,0.02844,-0.316,-0.2566,-0.1731,0.2644,0.2361,0.3457,0.068,0.2235,-0.05008,0.01688,0.2291,-0.1521,-0.0846,-0.1176,-0.8813,0.00629,0.2081,-0.08636,-0.2365,0.1467,0.10223,0.06793,0.1434,-0.05823,-0.05743,-0.6714,0.002506,-0.4287,0.004246,-0.0451,-0.18,-0.4436,0.06464,-0.1533,-0.04498,-0.264,0.2401,0.1846,-0.03906,-0.153,0.1805,-0.3025,0.2017,-0.1991,0.3894,-0.11523,0.04977,0.281,-0.1245,-0.06757,-0.4324,0.0792,0.11206,-0.1433,0.01918,0.2074,0.10974,-0.2603,0.3103,0.02817,-0.011566,0.4507,0.1869,-0.09265,0.1327,-0.1531,0.02036,-0.258,0.1167,-0.4219,-0.4822,-0.09326,-0.2993,0.2637,0.335,-0.0494,0.1742,0.1998,-0.0658,-0.3318,-0.02618,0.2155,0.714,-0.1364,0.4036,0.2435,0.394,0.00392,-0.7896,0.2314,0.07025,0.3967,0.02438,-0.126,-0.2537,-0.2328,0.2073,-0.07294,-0.10297,-0.2451,-0.1593,-0.2439,0.12164,0.013016,0.01903,0.3518,-0.06165,0.2001,-0.044,-0.278,-0.486,0.0616,0.1544,0.2957,0.1527,0.1262,0.2058,0.1809,0.2355,0.005222,0.6323,-0.3442,0.07556,-0.0897,-0.01918,-0.1595,-0.056,-0.2434,-0.000971,-0.2404,-0.02138,0.2457,0.2146,-0.0664,-0.013176,-0.1531,0.1879,-0.0726,0.2268,0.02626,0.01712,0.08405,-0.1316,-0.03015,0.3591,0.2341,-0.0809,-0.01996,0.09717,0.0292,-0.6245,0.1915,0.1423,0.4277,-0.0502,0.0417,0.5166,0.2449,0.0939,0.2467,0.0912,0.0162,-0.0799,0.1203,-0.3853,0.1489,0.0929,-0.03033,0.175,-0.4634,0.0706,0.4387,0.0761,0.1511,0.07837,-0.11566,0.0628,-0.2065,0.2407,-0.2179,-0.1277,0.148,0.653,0.0816,0.02443,-0.2009,0.03177,-0.1964,0.3652,0.19,0.1234,-0.4893,0.02896,-0.2246,-0.1101,-0.409,0.1509,0.2695,-0.2129,-0.5776,0.01712,-0.1428,0.659,0.1492,-0.0864,-0.3118,0.10583,0.1406,0.4385,0.3682,-0.3672,0.1892,-0.0762,-0.1473,-0.2169,0.008804,0.10455,-0.2223,-0.0901,-0.2467,-0.1742,0.1912,-0.2385,-0.1343,-0.4048,0.07324,-0.2346,0.03848,-0.2123,-0.4473,0.0857,0.1459,0.00742,-0.04852,-0.1378,0.2666,-0.2822,0.135,-0.3489,0.1461,0.02208,0.095,-0.04376,0.142,-0.011345,0.2615,-0.06116,-0.12274,-0.5127,-0.05356,-0.2356,-0.2507,0.3704,0.2886,0.0929,-0.335,-0.04626,0.139,0.361,0.1354,-0.2703,0.1884,-0.4392,-0.0862,0.272,-0.2385,0.553,0.1178,0.2284,-0.0498,0.2478,0.1293,-0.1128,-0.1768,-0.1898,-0.2842,-0.5054,0.1342,-0.337,0.2415,0.332,0.3962,0.3113,-0.0997,0.1598,0.1304,-0.268,-0.10535,-0.0349,0.1774,0.0972,-0.3782,-0.08704,-0.0702,-0.08704,-0.2113,-0.183,-0.01338,0.1748,0.0941,0.2454,0.3494,0.1726,0.0314,0.265,0.3196,0.273,-0.23,0.4238,0.088,-0.06335,-0.2913,-0.0949,-0.02272,0.0399,0.1627,0.1034,-0.1854,0.00481,0.01573,-0.2324,0.318,0.072,0.305,0.2201,0.02701,-0.1882,-0.1261,-0.0715,0.1631,0.4482,-0.0697,-0.2788,-0.2203,-0.08405,0.1971,0.3257,0.1338,-0.067,-0.0689,-0.2542,0.509,0.3333,0.1409,-0.2145,0.0465,0.0755,0.09503,-0.2927,0.1855,-0.3167,0.1508,-0.05667,0.1,0.3616,0.136,0.01962,0.237,0.2255,-0.2996,-0.1506,-0.09937,0.2258,-0.1067,0.2976,0.779,0.0415,-0.0208,-0.4631,-0.00874,-0.952,-0.2896,0.05823,-0.01698,0.1654,0.2429,-0.07886,-0.0798,0.0477,-0.1892,-0.2646,-0.1142,-0.02798,0.1622,0.2012,0.01639,-0.1377,0.2114,-1.288,0.1415,-0.2612,-0.4102,-0.2532,0.2805,-0.3252,0.05197,0.1295,0.008514,-0.0981,0.2063,-0.107,0.4573,0.2017,0.003511,0.308,0.3496,-0.0566,0.08966,-0.0848,0.5386,-0.2379,-0.1622,0.0777,0.1659,-0.505,-0.03702,0.1613,-0.2327,0.0702,-0.0264,0.02647,-0.2295,0.1231,0.0896,-0.29,0.04056,-0.1506,-0.128,0.1166,0.2072,0.02852,0.2766,-0.3286,-0.02065,-0.1034,-0.01085,-0.04187,-0.04663,-0.1132,-0.05316,-0.09283,0.266,-0.2122,0.0539,-0.12415,0.136,0.012184,-0.3394,0.0873,-0.3352,-0.1501,-0.1881,0.0715,1.193,0.5195,0.2542,-0.0622,-0.335,-0.2092,0.2437,0.2103,-0.1355,-0.5376,-0.214,-0.03665,0.2218,0.3533,-0.003841,0.6494,0.1971,0.624,-0.0653,-0.1558,-0.0407,-0.00643,-0.00963,-0.08624,-0.308,0.1487,-0.1781,-0.2207,0.09656,-0.2074,0.2401,0.2339,-0.2231,0.06854,-0.1831
ankle,0.4827,0.1931,-0.2058,0.05856,0.3706,-0.2817,0.1085,-0.4866,-0.2598,0.5605,-0.01971,-0.7056,0.5684,-0.6436,0.1573,0.4915,0.3765,0.07153,0.4016,-0.4636,0.11633,0.01507,0.08905,0.06537,0.3203,-0.07294,-0.8823,-0.554,-0.55,0.6655,-0.3325,-0.374,0.1998,-0.296,-0.6367,0.04016,0.5684,0.734,0.4988,0.06696,0.063,0.0433,-0.6084,-0.006382,-0.2015,0.484,0.126,-0.4446,0.1804,0.236,-0.1752,-0.4565,-0.255,0.0632,-0.02211,0.1403,-0.05304,0.1857,0.313,0.5996,-0.08844,0.0788,0.2373,-0.1609,-0.4487,0.09076,0.1892,0.2484,-0.7437,-0.3328,0.02405,-0.6216,-0.4114,0.418,0.0742,-0.131,-0.02611,-0.254,0.1299,0.1809,-0.01111,0.251,0.1532,-0.4622,0.0867,-0.2074,-0.0793,-0.1567,0.3806,-0.1769,0.4116,-0.0281,-0.09485,-0.553,-0.1838,-0.4573,0.1584,-0.1409,-0.4197,0.2218,-0.01486,0.0741,-0.1509,0.3804,0.3708,-0.3127,-0.1835,0.01442,-0.4119,0.0577,0.418,-0.02885,-0.04135,0.2866,-0.04474,-0.3374,-0.3428,-0.731,0.2233,-0.2622,0.00665,-0.05118,-0.02791,-0.556,0.09875,0.448,0.7437,0.6304,-0.05197,-0.278,-0.1218,0.1566,-0.1498,0.175,-0.0983,0.0715,0.515,-0.1798,-0.1437,0.1919,0.2256,-0.1915,0.3052,-0.4338,0.1615,0.1864,-0.1505,0.7485,0.1926,-0.3538,0.06476,-0.3965,-0.4492,-0.04828,-0.9004,-0.4834,-0.8857,0.1492,0.274,-0.4966,-0.2815,0.451,0.507,0.1678,-0.2257,0.1228,0.1653,-0.2556,-0.1646,-0.1895,0.1166,-0.003296,0.344,0.34,-0.053,-0.0392,-0.3306,0.2136,0.2566,0.1704,-0.10114,-0.0569,0.0847,-0.1687,-0.577,-0.12494,-0.2064,0.07886,0.822,0.156,0.2617,0.4133,-0.006477,0.4688,-0.2418,0.04803,-0.5776,0.0391,0.06207,-0.3933,0.1527,0.1431,-0.277,0.362,-0.4617,0.002527,0.05112,0.285,0.4019,0.3745,0.4424,-0.119,-0.5107,0.4302,-0.681,-0.3232,-0.4534,-0.10175,-0.178,0.529,0.2588,-0.04886,-0.2942,-0.4878,-0.05,0.347,-0.3647,0.2222,0.2416,-0.03278,0.01958,0.0314,-0.03177,0.8105,-0.3806,-0.1567,-0.05527,0.2534,0.3806,-0.577,-0.2705,0.4795,-0.0984,0.011505,0.10675,-0.359,0.1343,-0.1733,0.1296,-0.007114,0.6274,0.021,0.8,0.06775,-0.53,-0.2428,-0.192,-0.3035,-0.575,-0.01585,-0.02666,0.288,0.4207,-0.0801,0.2032,0.0235,-0.1704,0.8867,-0.6533,-0.0417,0.5205,0.4106,0.8906,0.1683,-0.2393,-0.6885,0.1987,0.08307,-0.11694,-0.0432,-0.1171,0.209,-0.3647,-0.213,0.1979,-0.1327,-0.1859,-0.4585,-0.2115,0.4438,0.1377,-0.108,0.185,0.4648,-0.5093,0.3674,0.1787,0.4375,-0.683,-0.64,-0.1732,0.747,0.5747,0.06088,0.08527,0.0173,-0.1962,0.02277,0.1396,0.8813,-0.2197,-0.08136,0.2842,-0.0937,0.1996,0.845,0.1294,0.002289,0.23,0.1353,0.3872,-0.5293,0.2822,0.2366,-0.2544,0.05487,0.494,0.2048,-0.007545,0.3132,-0.4126,-0.4849,-0.838,0.3855,-0.1724,-0.702,0.01967,0.1815,0.147,0.0548,-0.12427,-0.1061,-0.564,0.519,0.4155,-0.3276,0.437,-0.3438,0.5083,-0.1174,0.08386,-0.333,-0.2023,-0.1528,-0.136,0.0775,0.02367,-0.008995,-0.1581,-0.3074,0.1692,-0.07007,0.173,0.0711,0.4133,0.1388,-0.003546,0.1721,-0.294,0.698,-0.3699,0.4443,-0.0779,-0.548,0.4336,0.03415,-0.2274,0.285,-0.3005,-0.953,-0.4739,-0.1477,0.4246,-0.253,0.4788,0.5874,0.282,-0.06494,-0.2432,0.2367,-0.373,-0.02457,0.1433,0.01807,-0.2114,-0.05588,0.1971,0.0646,0.292,0.1528,0.1919,-0.8013,0.1345,0.3467,-0.52,-0.3804,0.304,0.8135,0.434,-0.218,0.134,-0.1266,0.2942,-0.461,0.4856,0.00912,0.2905,-0.4973,0.2856,-0.3755,0.583,0.07104,-0.0015335,-0.4006,0.1324,0.0225,0.1549,0.1131,-0.18,-0.2181,-0.35,-0.4844,-0.1394,0.2063,-0.59,-0.2715,-0.3406,-0.1534,0.7495,0.1288,0.6577,0.1697,-0.3528,-0.1921,0.1577,0.312,0.1796,0.1775,-0.3784,-0.03476,-0.2688,0.1396,-0.2473,-0.0382,0.1562,-0.1917,-0.3657,-0.3289,0.2059,-0.286,0.05865,-0.2355,0.02873,-0.694,-0.285,0.2247,0.6816,-0.3123,-0.3738,-0.3032,0.1321,-0.2717,0.1974,-0.4365,-0.1233,-0.3557,0.3887,0.583,-0.2656,-0.2273,0.41,-0.3794,0.689,-0.4905,0.5034,-0.1635,-0.2284,-0.09467,0.428,0.4792,-0.3584,0.1665,0.6733,-0.2106,0.638,0.0939,-0.2231,0.3633,0.2172,0.12256,-0.2617,-0.2908,0.383,-0.4375,-0.0881,-0.123,0.0801,-0.2007,-0.64,0.3494,0.3354,-0.534,0.3174,0.03029,-0.1137,0.27,0.10474,0.02216,-0.3823,0.2515,0.1302,-0.617,0.3992,-0.01213,-0.2012,0.1313,0.4873,-0.669,-0.582,-0.2834,0.4744,0.4036,0.772,0.7417,-0.1276,-0.1385,-0.01765,0.09735,0.9434,0.3218,0.443,0.414,-0.1656,-0.1116,-0.4314,0.4888,0.5635,0.4387,-0.6577,0.3184,-0.581,0.2284,0.02269,-0.4807,-0.1097,0.05374,-0.3186,0.1313,-0.2316,0.05444,0.0757,0.1167,-0.06903,0.0985,-0.4368,-0.2878,-0.4297,0.308,0.3318,-0.7437,-0.6,0.4517,-0.507,-0.3987,0.126,0.0772,0.6772,0.1838,0.1912,-0.1561,-0.501,0.4592,-0.6284,-0.0377,-0.2242,-0.0816,0.572,0.2861,0.06018,-0.1924,-0.01929,-0.1062,-0.02469,-0.10046,-0.2081,-0.2554,0.2932,0.2279,-0.1523,0.0606,0.298,0.2103,-0.02829,-0.3833,0.2213,0.4187,-0.3901,-0.306,0.267,0.4478,-0.05612,-0.1295,0.0262,0.0438,-0.12256,0.2125,0.1964,-0.04193,0.001338,-0.11865,0.2275,-0.1609,0.2,-0.12006,-0.3381,-0.02054,0.29,0.3018,0.03087,0.41,-0.4507,0.1758,0.01273,0.0844,0.374,0.338,0.10394,0.482,0.1943,-0.5234,0.368,0.4258,0.318,0.1214,0.1085,0.1361,-0.0718,0.2201,-0.3125,-0.2471,0.03827,-0.416,-0.2607,-0.2568,-0.279,0.1813,0.2917,0.2805,0.2678,-0.314,0.289,0.738,0.01158,-0.0784,0.4695,0.5327,0.0705,0.1523,-1.159,-1.245,-0.5254,-0.909,-0.177,0.1821,-0.1257,0.1387,0.14,-0.201,-0.297,0.4958,-0.05865,-0.2188,0.4395,-0.008385,-0.5615,0.2197,0.2595,0.118,-0.3484,0.311,0.1277,-0.0922,0.6714,-0.04785,-0.6313,-0.437,0.05206,-0.04416,-0.0155,0.1464,-0.3264,0.00666,0.1315,-0.05518,0.3728,-0.1061,-0.001942,0.3237,0.2803,0.2279,0.2142,0.5303,-0.1467,-0.05267,-0.2134,-0.2915,0.1677,0.547,-0.418,0.5894,0.382,0.2463,-0.2468,0.1025,0.0808,0.199,0.2294,-0.3618,0.336,-0.752,0.3237,-0.5283,-0.00459,0.8433,0.3696,-0.771,0.578,-0.3235,0.4224,-0.2155,0.01848,0.4038,-0.6113,-0.5933,-0.6665,0.827,0.4048,-0.3171,0.654,0.03964,0.1372,-0.0896,-0.695,-0.1398,0.194,-0.3174,-0.2065,0.4844,0.1682,-0.221,-0.08527,-0.3018,-0.5137,-0.6133,0.1182,-0.4878,0.1209,-0.298
apple,-0.05914,-0.7725,0.2925,-0.0653,0.291,0.7217,0.6523,-0.11755,0.827,0.5273,0.1256,-0.6,0.3726,0.6377,-0.289,0.01877,0.825,-0.04163,-0.03256,0.007256,0.4424,0.27,0.9,0.1656,-0.0002704,-0.3298,-0.2179,0.0676,-0.4153,-0.005024,0.076,-0.548,0.307,-0.2932,0.01997,0.0753,0.1466,0.3687,-0.1792,0.006046,0.12085,-0.0667,-0.3032,0.3806,0.12305,-0.0466,0.519,0.3018,-0.03415,0.3699,-0.09735,0.0471,0.0835,-0.1705,0.1671,-0.1577,0.2002,-0.4683,-0.2147,0.7944,-0.1221,-0.3186,0.1075,-0.4124,0.008095,-0.0673,0.0963,-0.431,-0.1392,-0.7188,-0.3828,-0.451,-0.2725,-0.469,-0.4272,-0.3196,-0.1248,0.0872,-0.07153,0.7944,0.07495,0.3115,-0.2341,0.3257,0.366,-0.2678,-0.09393,-0.2485,0.04575,0.2864,0.4075,0.4778,-0.08575,0.2402,-0.3525,-0.0478,0.2856,0.11597,-0.156,0.01682,0.327,0.2323,-0.3735,0.03665,-0.1763,-0.0576,0.4758,-0.676,0.3315,0.06003,-0.4155,-0.4426,-0.148,-0.3562,-0.007294,0.04437,-0.1921,-0.1683,-0.2976,-0.0958,0.2522,-0.1997,0.622,-0.623,-0.1434,0.6567,0.6597,0.02827,0.2478,-0.2461,0.1198,0.295,0.1202,0.4636,-0.0812,0.1825,-0.02551,-0.00843,-0.1555,-0.1249,-0.0156,-0.1748,-0.246,-0.578,0.2449,0.3584,-0.3232,-0.006844,0.2993,0.4597,0.385,-0.1466,-0.3037,-0.259,-0.1628,-1.038,-0.0484,0.1418,1.106,0.2788,-3.17e-05,0.1508,0.0097,0.01784,0.1826,0.286,-0.2498,0.4307,0.331,-0.06046,-0.2659,-0.1499,0.642,-0.1466,0.1716,0.1342,-0.727,0.4521,0.629,0.365,-0.09546,-0.1131,-0.1915,-0.1661,0.3943,-0.2876,0.05475,0.004528,-0.06995,-0.2622,-0.1604,-0.08466,-0.1547,0.3804,-0.4841,-0.3384,-1.267,0.2191,0.362,0.12006,-0.4185,0.563,0.1576,0.212,-0.634,0.0005183,-0.3865,0.466,0.2517,-0.01067,0.1255,-0.263,-0.3997,0.12384,-0.445,-0.3247,-0.3188,0.0596,0.07874,0.1602,0.722,0.02,-0.3203,-0.693,0.5117,-0.01309,-0.02425,-0.0799,-0.04684,0.010605,0.0997,-0.3538,-0.5107,0.2301,0.338,0.427,-0.1765,-0.2179,-0.07935,-0.1349,-0.3845,-0.1351,0.2769,-0.1875,-0.001544,-0.2961,-0.2556,0.3123,0.04895,-0.1141,0.538,-0.5493,0.4395,0.2279,-0.6514,-0.2607,-0.2196,-0.3286,-0.26,0.2495,0.601,0.05646,0.3728,0.263,0.4229,-0.1799,-0.3027,0.1997,-0.1079,0.2842,-0.2812,0.0974,0.0968,0.3167,0.4424,-0.3625,0.002264,-0.01283,-0.1619,0.533,-0.309,0.241,0.2075,0.11456,-0.8555,0.2333,-0.1307,-0.0781,-0.652,0.03912,0.1744,-0.1067,-0.007454,0.2932,-0.858,-0.4001,-0.2079,0.0896,-0.2786,-0.1538,0.11865,0.3833,1.254,-0.02547,-0.05432,-0.691,-0.0009017,-0.6484,0.1133,0.233,-0.3677,0.296,-0.2527,-0.04886,0.1732,0.3818,0.1581,0.0199,0.01255,0.01055,-0.1375,0.10425,0.1285,-0.2336,0.1456,-0.08984,0.2278,-0.11975,-0.1106,0.2751,-0.1465,-0.1709,0.3057,-0.1993,0.069,-0.3264,-0.525,-0.321,0.3633,0.0996,-0.4524,0.0901,0.1815,0.3098,-0.4912,0.2471,0.01024,-0.615,0.3262,0.1635,-0.3713,0.4026,0.1278,-0.362,0.1501,-0.1666,0.1692,0.6885,0.004753,-0.3901,0.915,-0.1714,0.2311,0.1039,0.2493,-0.2898,-0.054,0.2427,-0.2676,0.2627,0.2035,0.2137,-0.4763,-0.2242,-0.837,0.1141,0.3193,0.231,-0.05853,-0.968,-0.1821,0.3074,0.2198,-0.1987,-0.3538,0.9224,0.2245,-0.3035,0.2979,0.4456,-0.05035,-0.05682,-0.3408,0.4653,-0.0325,-0.1721,0.6665,0.3533,0.1515,-0.531,0.389,-0.401,-0.0263,0.4045,0.1273,0.03754,0.4316,0.4492,0.1707,0.2007,0.6025,-0.2922,0.3901,-0.4553,-0.131,-0.5234,0.1986,-0.2152,0.1698,-0.4446,0.4692,0.12274,-0.0609,-0.2173,0.1917,-0.2437,-0.1776,-0.1327,-0.1425,0.1743,-0.6646,0.2815,0.2198,0.4128,-0.785,0.01848,0.2913,-0.0926,0.4968,-0.0888,0.02348,-0.2024,-0.06274,0.111,-0.1492,-0.0636,0.0977,0.0375,-0.003635,0.147,-0.7046,0.0628,0.3982,0.1892,0.31,0.322,0.0712,-0.0098,-0.4824,-0.331,0.3943,-0.0987,0.0739,-0.1538,0.02087,-0.3474,0.2196,-0.4531,1.036,0.718,-0.0442,-0.05093,-0.04956,0.4675,0.1014,-0.12354,0.2517,0.4236,-0.2878,-0.2737,-0.321,-0.702,0.7065,-0.3357,0.3394,-0.5063,-0.4058,-0.4177,0.0919,-0.003426,-0.275,-0.257,0.2363,-0.596,-0.1312,0.13,-0.2482,-0.02289,-0.01426,0.1071,-0.4614,0.0631,0.2546,1.104,0.05704,-0.0635,0.072,0.515,-0.961,0.00428,-0.0006337,-0.1426,-0.277,-0.3853,0.3887,0.354,0.554,-0.0408,0.2651,-0.4636,0.0949,0.3027,-0.2267,-0.179,-0.6333,-0.604,-0.003366,-0.2974,-0.501,-0.04605,0.4006,0.1763,0.3206,0.2695,0.0955,-0.0601,-0.1334,-0.5415,0.746,-0.624,0.544,-0.2266,0.2137,0.009995,-0.257,0.4126,-0.2075,0.11816,-0.352,0.1492,0.278,-0.00733,0.1658,-0.09674,-0.4146,-0.859,0.4504,0.4316,-0.18,0.3274,-0.04333,0.4944,-0.567,-0.1622,-0.12317,-0.04016,-0.2202,-0.307,-0.5615,-0.1214,-0.7144,-0.382,-0.153,-0.1276,0.3105,0.07837,0.0725,0.6714,-0.2725,-0.1973,0.563,0.3386,-0.08215,-0.5933,-0.1197,0.09424,0.02214,0.2532,-0.086,0.09546,-0.0931,-0.2522,-0.632,-0.3225,-0.3464,-0.162,0.009056,-0.03497,0.2452,-0.886,0.1621,0.245,0.1682,-0.02544,0.328,0.306,-0.3684,0.7056,0.555,0.10333,0.2014,0.2157,-0.003355,0.2769,-0.103,-0.00805,-0.03023,0.06195,-0.492,0.03366,-0.7,0.299,0.159,-0.8,-0.5605,0.2292,0.02184,0.308,0.1318,-0.2888,-0.2642,0.11176,-0.6206,0.8354,0.4028,-0.0802,-0.3396,-0.3516,0.2411,-0.1647,0.0595,0.2593,-0.10675,0.010994,0.4614,-0.4673,-0.1581,0.2142,-0.527,0.57,-0.657,-0.3413,0.08905,-0.2756,0.0443,0.2659,0.01454,-0.0707,-0.416,0.1241,0.1427,0.4524,-0.1625,0.217,-0.144,0.03494,-0.491,0.1346,-0.564,-0.0748,-0.0853,-0.1699,-0.1852,-0.212,0.3228,-0.258,0.291,0.2363,0.0752,0.1564,-0.2034,0.1562,0.686,0.2783,-0.2299,0.778,0.03595,-0.0375,0.3708,-0.2467,0.6367,0.1932,0.3613,-0.373,-0.729,0.04327,-0.02095,-0.0982,0.0452,0.3047,0.01223,0.443,0.1593,0.1511,0.211,-0.2922,-0.157,-0.6567,-0.1616,0.1089,0.766,-0.1484,0.1506,-0.11304,-0.52,0.0553,0.3647,0.1443,0.08856,-0.3264,0.325,-0.726,0.0975,0.161,-0.2698,0.3713,0.005684,0.1384,0.2344,-0.2502,0.4253,-0.2167,-0.223,0.614,0.2072,0.1704,-0.1819,0.158,-0.1804,0.2213,0.1735,-0.1893,-0.368,-0.3135,-0.2445,0.0973,0.3079,0.2224,0.4082,0.37,-0.6436,0.3555,0.2705,-0.1683,0.1211,-0.257,-0.6235,0.6714,-0.4614,0.0329,-0.4304,-0.4468,-0.2512,0.4036,-0.08624,0.3591,0.5396,-0.2491
applesauce,0.1162,-0.3147,-0.03955,0.3313,0.3486,0.2637,-0.03223,-0.04596,0.2131,-0.0663,-0.04935,-0.703,0.1698,0.4368,-0.264,0.09906,0.6562,-0.3545,-0.05368,0.1473,-0.0924,-0.5225,0.0955,0.3662,0.09894,-0.2478,-0.2583,0.1874,-0.0264,0.1453,-0.0331,-0.2534,0.01628,-0.1959,0.03183,0.2095,-0.08777,0.708,0.4243,-0.1945,0.1477,0.0492,-0.511,0.411,-0.3052,0.07043,0.781,-0.1414,-0.0687,0.07874,-0.11255,0.4097,0.1731,0.4973,-0.03134,-0.447,0.0329,-0.0719,-0.10864,0.0614,-0.1757,0.04117,0.509,-0.2245,0.01932,-0.1582,0.359,-0.7095,-0.3005,-0.1312,0.02202,-0.7153,-0.07074,0.1053,0.04193,-0.349,-0.2262,-0.2588,-0.11664,0.662,-0.0991,-0.2153,-0.2335,0.11395,0.0695,0.219,0.1095,0.2194,-0.3408,0.2659,-0.581,0.2449,0.2212,-0.3342,-0.795,-0.2537,-0.05655,0.131,-0.4194,0.2727,0.2979,0.1326,-0.2471,0.1559,0.1825,-0.287,-0.2673,-0.688,0.11255,-0.1564,-0.461,-0.421,0.07104,-0.1926,0.1461,-0.008095,0.0744,-0.1388,0.1505,-0.2354,0.2072,-0.05826,0.02655,-0.0276,0.179,0.6655,0.6606,-0.13,-0.06143,-0.2211,-0.2424,0.1121,-0.0999,0.0361,-0.08374,0.1937,0.1989,0.12103,0.1063,-0.2014,-0.1788,-0.513,-0.1841,-0.5615,0.3289,-0.11786,-0.3127,0.533,0.4954,-0.3582,0.2432,0.1251,0.04175,0.0006037,-1.434,-0.5522,0.03497,0.561,0.679,-0.02914,-0.3552,0.1411,0.2133,0.06464,0.708,-0.0491,-0.1678,0.3455,-0.06995,0.1124,0.2296,-0.10345,0.2123,-0.1099,0.0652,0.177,0.02605,-0.04138,0.005333,0.545,0.0194,-0.05273,-0.172,-0.1842,0.11444,0.12476,-0.2231,0.024,0.4067,-0.4624,-0.0697,0.2268,0.0862,0.3313,-0.1936,-0.275,-0.4417,-0.3123,0.0833,0.16,0.0827,0.885,0.05774,0.2966,0.0529,0.10333,-0.02426,0.445,-0.0782,0.0981,0.569,-0.1133,0.01506,0.3193,-0.3022,-0.4282,-0.1835,0.3374,0.625,-0.01639,0.1792,-0.4983,-0.431,-0.00352,0.524,-0.1024,-0.1965,-0.02571,-0.12134,-0.4812,-0.1144,0.007206,-0.4136,0.00997,-0.09564,-0.0883,-0.1249,0.461,-0.1272,-0.933,-0.2002,-0.2632,0.06152,-0.2051,0.02092,-0.3872,-0.01924,-0.2644,-0.1039,0.09296,0.2297,-0.4133,0.4915,0.06885,-0.3257,0.02916,0.02597,-0.3423,-0.869,0.57,-0.0374,0.1576,-0.01042,0.648,0.3467,-0.09186,-0.2028,0.1442,-0.203,-0.0882,0.04205,0.03122,0.1702,0.8022,0.2197,0.03568,0.0503,-0.02235,-0.1311,0.1316,-0.312,0.003702,0.02924,0.195,0.1053,0.2069,0.11395,-0.408,0.1735,-0.1794,-0.2676,0.1121,0.1846,0.4214,-0.9146,-0.10156,-0.154,0.1422,-0.184,-0.1577,0.41,0.3833,0.2756,-0.03894,-0.181,0.1969,0.4312,-0.1431,-0.1166,-0.369,-0.43,-0.02815,0.1659,-0.1577,-0.07605,0.1061,-0.03033,0.2445,0.12494,0.2202,0.2876,-0.421,0.01714,0.1628,0.0532,-0.1837,0.1857,0.09564,0.4773,-0.0131,-0.3774,0.07526,-0.04794,0.568,-0.0523,0.237,-0.4307,0.01633,0.2067,0.1625,-0.1578,0.1731,-0.367,-0.3418,-0.4717,0.4849,0.2783,-0.556,0.2029,0.2988,-0.0981,-0.3718,-0.3176,0.2402,0.3052,0.478,0.2961,0.3906,-0.3271,-0.2257,0.3708,0.10126,0.2218,0.1537,0.1175,-0.2131,0.1216,0.1681,-0.5063,0.4282,0.0461,0.2305,-0.11005,-0.4355,-0.01009,0.04736,-0.1175,-0.2357,-0.06198,-0.533,-0.06616,0.0838,0.726,0.01619,0.0984,0.5117,0.1761,0.2355,0.05356,-0.225,-0.25,0.006355,0.2081,0.2856,-0.182,-0.305,0.4392,0.1869,0.3162,-0.07275,0.1776,-0.3367,0.3323,0.5205,0.00905,0.03522,0.11755,0.1322,0.3096,-0.2175,0.1366,0.0537,0.2568,0.00862,0.5757,-0.2666,0.10046,0.03528,0.1644,-0.4382,-0.1534,0.01311,0.00878,-0.255,-0.1637,-0.001667,-0.05283,0.07416,-0.209,-0.1103,-0.5513,-0.07367,0.3015,0.1859,-0.2566,-0.1307,0.16,0.2471,0.2163,-0.2405,0.6113,-0.3777,-0.307,0.03305,-0.02475,-0.2325,0.515,0.11774,0.1533,-0.2415,0.3843,-0.00902,0.2081,0.003016,0.2036,-0.4604,-0.08936,-0.379,0.08655,-0.2888,-0.2896,0.07806,0.1516,-0.1768,0.2139,-0.11206,0.314,-0.4146,0.4592,0.3694,-0.2072,-0.1975,0.2559,0.4224,0.1987,-0.1445,-0.3162,0.09607,0.0341,0.07416,-0.1682,-0.5093,0.765,0.2617,0.0952,-0.3967,0.1907,-0.0886,0.2686,0.2217,0.407,-0.133,0.2937,-0.1985,0.2386,0.04736,-0.08765,0.2302,0.03284,-0.011795,0.092,-0.3462,0.0877,-0.08527,-0.2241,0.074,0.127,0.2037,-0.7056,0.467,0.4226,-0.6113,-0.364,0.02272,0.27,-0.0821,0.528,0.3804,0.2286,0.3235,0.135,0.1863,-0.1646,-0.1549,-0.1147,0.007065,0.05582,-0.1036,-0.185,-0.4836,0.2915,-0.1879,0.5996,0.4148,-0.1073,0.1154,-0.04782,-0.6196,0.373,-0.3367,0.1886,0.1342,-0.4785,-0.04883,-0.00678,0.362,-0.05124,0.1158,-0.5146,0.1824,-0.0133,0.1235,-0.00977,-0.4126,-0.395,-0.2617,0.4253,-0.1803,-0.4744,0.1748,0.0866,0.3113,-0.2377,-0.1697,0.1335,0.4033,-0.04517,-0.2822,-0.08093,0.2134,-0.1299,0.0641,-0.1636,-0.2471,0.4211,0.02977,0.5215,-0.2441,0.332,-0.3953,0.0244,0.3328,-0.3115,-0.6387,0.2502,0.0908,0.339,-0.1747,-0.2534,0.05826,-0.0337,-0.3513,-0.03503,0.0776,-0.1353,-0.5615,0.2389,-0.604,0.3962,-0.605,0.2634,0.05402,-0.0693,-0.0712,0.2174,0.1505,-0.264,0.4233,0.1267,0.3079,0.0891,-0.2013,-0.2194,-0.704,0.0009055,-0.183,-0.1418,0.0629,0.334,-0.004284,-0.5537,0.3264,0.01675,-0.2786,-0.4805,-0.06696,0.2573,-0.0835,-0.06714,-0.2822,-0.5356,-0.1788,-0.0782,0.3,0.1112,0.2646,-0.1666,-0.1892,-0.05963,-0.186,0.0869,0.1209,0.06204,-0.05133,0.267,-0.221,0.1036,0.08844,-0.0953,0.09973,-0.3513,-0.1993,-0.1702,-0.08545,0.2822,0.3271,0.2427,-0.061,-0.0699,-0.255,-0.377,0.1469,0.03638,0.3281,0.3271,-0.03964,0.177,0.1849,-1.104,0.11426,-0.318,-0.533,-0.10004,0.05026,-0.436,-0.1938,-0.074,0.0402,-0.06506,0.2388,-0.546,0.03598,0.3757,0.04227,0.0337,0.08875,-0.2137,0.1129,-0.01362,0.4856,0.3428,0.114,0.05118,0.02657,-0.5044,-0.1719,0.1866,-0.1785,0.0672,-0.05264,-0.267,-0.2065,-0.09686,0.2108,-0.09,-0.03418,0.02103,-0.1587,-0.1571,0.1012,0.0668,0.0934,-0.0008307,-0.1149,-0.1719,-0.0431,0.2297,-0.2451,-0.11646,0.004333,0.3928,0.1941,0.012024,-0.1592,-0.03287,0.3447,-0.02461,0.1469,-0.0355,-0.5117,0.08777,0.2467,-0.01365,0.8403,0.224,0.1683,-0.2235,-0.1201,0.308,0.02036,-0.2479,0.2576,-0.1832,-0.08405,-0.2764,-0.3096,0.1305,-0.04694,0.501,0.546,0.0362,0.2502,-0.003109,-0.03226,0.1635,-0.1848,-0.562,1.175,0.267,-0.03763,-0.1412,-0.1726,-0.3228,0.06506,0.0006323,-0.10974,-0.1079,-0.313
arm,0.1384,-0.1876,-0.3276,0.081,0.528,-0.02855,-0.0777,-0.505,-0.771,0.0669,-0.1714,-0.4448,0.2424,-0.458,-0.0181,0.1931,-0.0398,-0.303,0.10535,-0.2336,0.05246,-0.02467,0.0746,0.1781,0.2164,-0.1985,-0.1533,0.09265,-0.258,0.403,-0.2983,-0.496,0.09784,-0.396,0.198,-0.08453,-0.1448,0.3594,1.0625,-0.05984,-0.07794,0.07434,-0.3777,0.01088,-0.07294,0.0216,0.8037,-0.08374,-0.1247,-0.22,0.02232,-0.1749,0.4644,0.1703,-0.3816,0.05316,0.05185,0.3967,0.0776,0.001325,0.0966,0.208,-0.3455,-0.05637,0.3562,0.2039,0.1498,-0.0222,-0.7114,0.3765,0.1708,-0.4304,0.1531,0.2391,0.4246,-0.1962,0.3284,-0.2145,-0.784,0.3032,-0.1316,-0.1562,-0.05258,-0.1005,-0.0635,-0.535,0.05798,0.145,-0.1492,0.03635,-0.2913,-0.05792,-0.006557,-0.2058,-0.2498,-0.1775,-0.00319,0.0393,-0.4995,0.1746,0.4084,-0.1356,0.04892,0.1708,0.04306,-0.1663,0.0892,-0.322,0.06976,-0.1198,-0.355,0.0421,0.005318,-0.07056,-0.01892,-0.1393,0.1278,-0.1909,0.2507,-0.3972,0.08105,-0.144,0.2051,0.0006685,0.1837,0.4373,0.857,0.2067,-0.2751,-0.05167,-0.2207,0.02225,0.01296,-0.01226,-0.06384,0.04483,0.1407,0.1838,-0.1615,-0.2192,0.2737,-0.6675,-0.092,-0.3416,0.1054,0.0759,-0.542,0.5586,0.2688,-0.2181,-0.2021,0.10944,-0.1184,0.11615,-0.886,0.1603,-0.2576,-0.05536,-0.369,0.05447,0.025,0.05203,0.2932,0.1985,-0.1034,-0.1708,0.4631,0.2142,-0.1476,-0.08704,0.1709,0.1947,0.2375,0.107,0.0871,0.010185,-0.04755,-0.1168,-0.02565,0.02794,-0.00926,-0.0643,0.1122,-0.05902,0.1838,0.2115,-0.03006,0.11334,0.7114,-0.02286,-0.00915,0.4539,0.291,0.1338,0.00494,0.06097,-0.3118,-0.08386,0.0978,-0.1302,0.1696,0.3271,0.1155,0.073,-0.1403,-0.05795,-0.1332,0.2551,0.1655,0.5327,0.3499,-0.0594,-0.0763,0.613,-0.268,-0.276,-0.2279,-0.09314,0.346,0.1935,0.01399,0.1302,-0.1202,0.289,0.1809,-0.156,-0.06464,-0.2051,0.092,-0.02904,0.03012,-0.03702,0.02382,-0.0398,-0.1459,-0.03094,0.1709,-0.1716,0.1981,-0.164,-0.081,0.425,-0.1214,-0.09985,0.1183,-0.1898,0.11304,0.02467,-0.03265,-0.2283,0.1799,0.0007887,-0.14,-0.1007,-0.2404,-0.1482,0.01788,0.00998,-0.313,-0.01332,-0.2651,-0.0476,0.1792,0.2133,0.1296,-0.229,0.05612,0.5547,-0.1038,-0.3809,0.08527,0.2593,0.2357,0.4438,0.1064,-0.5903,0.1763,0.2112,-0.1699,-0.06726,-0.2844,0.3708,-0.07104,0.2544,-0.01051,0.11945,0.2625,-0.0669,-0.0801,0.1223,-0.2013,-0.393,0.05276,0.2551,-0.9727,-0.009995,-0.0941,-0.1016,-0.5464,0.00553,-0.02356,0.4185,0.0246,0.03284,0.05344,-0.1054,0.1564,0.117,-0.3262,0.4346,-0.00808,-0.05847,0.09015,-0.2803,0.136,0.2668,0.06744,0.007744,0.244,0.09204,0.2856,-0.02968,0.04602,0.2493,-0.06232,-0.2903,0.1814,-0.0635,0.1309,0.0558,-0.7617,0.0327,-0.1904,0.005116,-0.03738,-0.3706,-0.1125,0.12146,0.243,0.189,-0.1476,-0.2443,-0.1672,0.11646,0.1656,0.09436,0.1699,-0.4182,0.3174,-0.2146,-0.1029,-0.018,-0.2185,0.3992,0.1946,0.3054,0.149,0.2961,-0.00607,0.1005,0.391,0.0726,0.1841,0.1304,0.1796,-0.1659,-0.157,-0.1615,-1.043,0.4185,-0.1489,0.4,-0.0415,-0.1582,-0.0869,0.013596,-0.2386,0.05276,0.01281,-0.3174,0.2334,-0.0634,0.2515,-0.1287,-0.04385,0.2395,0.06143,0.1375,-0.1818,0.03436,-0.7837,0.0743,0.1335,-0.01119,0.11237,-0.2683,-0.0358,0.03308,0.6655,-0.1542,0.1542,-0.2612,0.406,0.2542,-0.03108,-0.05035,0.05182,0.1957,0.2013,-0.1478,-0.3113,0.10657,0.1616,0.01324,0.068,-0.2236,0.1946,0.01797,0.2004,0.1294,0.1361,0.0675,-0.325,-0.3987,0.09204,-0.11743,-0.1288,0.3665,-0.1616,0.01214,-0.3313,0.06335,0.3481,0.0713,-0.08215,0.05722,0.0516,0.308,0.2166,0.1592,0.1967,-0.0739,-0.4102,0.05185,-0.5767,0.04462,0.2069,-0.001257,0.09644,-0.2659,0.1417,0.2439,-0.02173,-0.01564,0.281,-0.1976,0.19,-0.298,0.1519,-0.03458,-0.1101,-0.0646,0.4517,-0.11066,-0.1368,-0.0272,0.1343,-0.3264,0.04135,0.05383,0.1569,-0.822,0.00723,0.1152,0.002214,0.0512,-0.0352,-0.1901,0.1709,0.0823,0.06305,-0.11084,0.5864,-0.161,-0.04553,0.1315,0.3254,-0.1621,0.3462,0.0455,-0.1519,0.014786,0.3408,0.1309,0.1641,0.10016,-0.0005693,0.429,0.1263,0.014435,-0.2366,-0.2133,0.2368,-0.4587,-0.2112,0.003778,-0.0284,0.1929,-0.1587,0.256,0.3042,-0.5063,0.1205,0.2625,0.1602,-0.0735,0.1991,0.1164,0.2174,0.2349,0.09045,0.2185,-0.1967,-0.04233,-0.007347,0.788,0.1815,-0.2322,-0.4668,-0.2593,0.04333,0.204,0.355,0.3418,0.01421,0.0645,-0.0849,-0.347,0.3992,0.1094,0.2332,-0.0431,-0.3801,-0.003689,-0.1256,0.0818,0.1499,0.0678,-0.3464,-0.03137,-0.02086,-0.1323,0.1309,0.0723,-0.2162,0.2238,0.0494,-0.2844,0.0411,0.1884,-0.0466,0.1315,-0.1869,-0.02534,-0.1915,0.1508,-0.2421,-0.3408,-0.2698,0.0597,-0.1509,0.3354,-0.255,-0.1508,-0.11633,-0.0635,-0.2167,-0.3135,0.0676,-0.1566,-0.04678,0.3047,-0.02457,-0.1047,-0.0787,0.2485,0.4314,-0.1394,0.1752,-0.1372,0.1475,-0.6567,0.1709,-0.1273,0.1719,-0.261,0.2335,-0.2164,-0.3503,-0.1245,-0.0661,0.1255,-0.3918,-0.0871,0.1509,0.1962,-0.2527,-0.0778,0.0381,0.1075,0.1636,-0.4233,-0.1948,-0.1342,0.06287,-0.04523,0.2295,0.5996,0.2286,-0.216,-0.3447,0.11456,0.3281,-0.2646,-0.2399,-0.09454,-0.081,0.304,0.089,0.09564,-0.609,-0.01004,0.10803,0.0779,0.11676,0.003447,0.3472,0.5654,-0.4695,-0.02179,0.06635,0.05045,0.08716,0.09467,0.0688,0.5786,0.04123,0.09186,-0.05304,-0.1929,-0.1926,-0.0538,-0.2399,0.1702,-0.504,-0.0755,-0.013885,0.10535,-0.03099,-0.111,0.11084,-0.05487,0.3647,0.06494,0.2007,0.3035,0.2106,0.2908,-2.135,-0.381,0.1047,-0.3384,-0.03534,0.1427,0.0412,0.1224,0.003014,0.0438,-0.1677,0.09796,-0.1237,-0.0777,0.2478,0.01219,-0.1333,-0.01113,0.1852,0.2578,0.074,-0.0904,0.1814,0.1893,-0.02408,-0.013535,-0.2269,0.1283,0.2903,0.03348,0.03842,0.3076,-0.2351,-0.6406,0.04828,0.1981,0.1265,0.04028,-0.2021,0.1045,-0.0294,0.02284,0.2241,-0.0731,-0.02602,0.05655,-0.5073,0.007935,-0.0488,0.1283,-0.2294,-0.4849,0.3408,0.5913,-0.1578,-0.09625,0.144,-0.09686,-0.0005503,0.04904,0.0995,-0.3755,-0.161,-0.3413,-0.05298,1.379,0.6167,0.3665,0.208,-0.3137,0.2137,-0.03818,-0.08026,0.3943,-0.3384,-0.342,0.005863,0.0663,0.04315,-0.09467,0.554,0.2397,0.426,0.0868,-0.296,0.0784,0.1079,0.01732,-0.0499,0.8193,0.1771,-0.05115,-0.07605,0.05853,-0.2152,-0.11053,0.06012,-0.2664,0.02997,-0.2395
ball,0.3472,-0.6055,0.1652,-0.2244,0.278,0.4888,0.51,-0.001777,0.4753,0.2874,-0.09766,-0.2472,0.4,-0.2253,-0.10315,0.3662,0.603,-0.1416,-0.07007,-0.343,0.291,0.1643,0.3772,0.2217,0.3728,0.014595,-0.5303,-0.179,-0.1599,0.2029,-0.0922,-0.78,-0.03397,-0.4858,-0.0428,0.1592,-0.02928,0.4343,0.02802,-0.0644,0.2563,0.0463,-0.3838,0.1844,0.1209,-0.162,0.276,0.002163,-0.3835,0.2842,-0.1235,0.443,0.1929,-0.01761,0.127,-0.2847,-0.056,-0.7866,-0.1298,0.3733,0.1061,-0.1359,-0.01685,0.0768,-0.1721,0.01364,-0.01584,-0.4048,-0.3704,-0.4197,-0.04727,-0.3118,-0.276,-0.5347,-0.1705,-0.2034,-0.3562,0.04553,-0.09973,0.7056,-0.1635,0.2242,0.004116,-0.388,-0.05145,-0.2493,0.2527,-0.1908,0.3445,0.0338,0.581,0.2076,0.07684,0.2817,-0.1775,-0.1599,0.07166,0.03577,-0.2456,0.1893,0.3303,0.2109,-0.1598,0.373,-0.1456,-0.3933,0.1548,-0.407,0.1344,-0.06946,0.01833,0.10815,-0.3318,-0.1685,0.02351,0.02368,-0.6567,-0.3076,0.0408,0.3489,0.1276,-0.001108,0.5923,-0.2164,-0.2817,0.5293,0.7046,-0.1164,0.1497,-0.1797,-0.10284,0.01651,-0.04547,0.4346,-0.08685,-0.213,0.3767,-0.1153,-0.3098,-0.172,-0.0787,-0.0359,-0.1338,-0.4849,-0.0832,0.0383,-0.659,0.3357,0.373,0.2703,0.4016,0.0762,-0.551,-0.3665,-0.195,-0.829,0.0848,-0.3708,0.757,0.3022,0.0961,-0.09247,0.11865,0.0768,0.07135,0.1454,-0.172,0.1089,0.11725,-0.3176,-0.4585,-0.257,0.3958,0.3784,-0.0722,-0.02812,-0.6113,0.198,0.2083,0.0855,-0.2156,0.1885,0.1307,-0.1677,0.3188,-0.3118,0.1863,-0.02557,0.0134,0.0737,-0.3406,-0.1588,-0.06726,0.6807,-0.2722,-0.1503,-0.277,0.10956,0.11707,0.1422,0.03613,0.08936,-0.001808,0.4688,0.01158,-0.03008,-0.11084,0.507,0.0435,0.0353,-0.00331,-0.4038,-0.2988,0.1755,-0.4312,-0.1917,-0.462,0.0972,0.455,0.3606,0.533,0.1209,-0.3909,0.0828,0.6504,-0.2429,-0.1043,-0.3884,-0.2769,-0.04123,0.292,-0.2338,-0.2223,-0.2505,-0.06976,-0.1697,-0.12396,0.2766,-0.2505,-0.2942,-0.2695,0.1824,-0.0778,-0.1227,0.0868,-0.3281,-0.2915,-0.05807,-0.02307,-0.2452,0.1896,-0.2668,0.1427,0.2039,-0.7637,-0.2788,0.11896,-0.2913,0.04697,0.2059,0.1766,0.0787,0.1012,0.1567,0.11273,0.071,-0.276,0.2935,-0.0954,0.4104,0.01336,0.05933,-0.07996,0.165,0.1936,-0.639,0.2059,0.2268,0.06146,0.2332,-0.2734,0.1498,-0.1348,-0.002579,0.02354,0.353,-0.0785,0.11725,-0.4744,0.2108,0.285,0.1271,-0.02841,0.00707,-0.9927,-0.1191,-0.1458,0.07263,-0.4773,0.2091,-0.003244,0.309,0.8975,0.1189,0.0765,0.01784,0.0372,-0.0912,0.0869,0.2008,-0.462,0.172,-0.0373,-0.04535,0.3064,0.1921,-0.1189,-0.002684,0.006916,0.0997,-0.1932,0.02011,0.0573,-0.1042,0.02498,-0.1632,0.4065,0.5454,0.1517,0.4028,-0.2305,-0.2537,-0.1936,-0.344,-0.1919,-0.199,-0.2286,0.09717,0.4185,0.1593,-0.2115,0.12463,0.0543,0.303,-0.1787,0.002003,0.1775,-0.628,0.2039,0.0853,-0.3318,0.01866,0.0641,-0.442,-0.1488,-0.1665,0.1289,0.335,-0.1049,-0.3857,0.9165,-0.1443,0.1681,0.07135,0.1915,-0.658,0.04434,0.2325,-0.4553,0.3694,0.3408,0.4795,-0.3787,-0.2426,-0.3005,0.1023,-0.1516,-0.1736,-0.009026,-0.5464,-0.2311,-0.0906,-0.5845,-0.1523,0.594,0.735,0.1709,-0.0313,0.09766,-0.2095,-0.158,-0.3381,0.12134,0.461,-0.04477,-0.2998,0.6167,-0.02713,-0.6943,-0.0833,-0.3752,-0.4773,-0.04657,-0.00804,0.0754,0.04434,0.2534,0.7476,-0.071,-0.2019,0.5054,-0.2313,0.418,-0.1016,0.3074,-0.1516,0.1469,-0.1611,0.209,-0.3093,0.362,0.2286,-0.2866,-0.3523,0.2715,-0.42,-0.02237,0.576,0.1188,-0.2072,-0.1699,0.169,-0.01226,0.3657,-0.791,-0.001691,0.06076,-0.2024,0.2292,-0.187,0.2473,0.201,0.09186,-0.075,-0.4722,0.0614,0.2021,-0.1306,-0.0325,-0.02177,-0.0563,0.2478,0.2415,0.04727,0.3809,0.1365,0.1622,-0.283,0.10693,-0.3489,0.1117,-0.11676,0.3655,-0.1561,0.2673,-0.3833,-0.02632,0.1588,0.7646,0.511,-0.0661,-0.1418,-0.328,0.3223,-0.3345,-0.2322,-0.02507,-0.0522,-0.1526,-0.336,-0.2294,-0.7363,0.616,-0.2238,-0.01941,0.139,-0.2524,-0.1688,0.3264,-0.4285,-0.263,-0.2817,0.648,-0.557,-0.013565,0.1267,-0.1733,-0.06506,-0.0366,0.1702,-0.0445,0.2345,0.318,0.967,-0.1307,-0.2534,0.1868,0.2157,-0.576,0.02242,-0.09503,0.03134,-0.05243,0.0939,0.2827,0.3103,0.936,-0.06198,0.04987,-0.1936,-0.0055,0.12354,0.229,0.10345,-0.546,-0.4146,0.4268,-0.3606,-0.552,-0.1203,0.1868,-0.04492,0.743,0.04663,0.1678,-0.1128,-0.2556,-0.3914,0.7676,-0.2057,0.1414,0.2313,-0.1007,0.01823,-0.107,0.2325,0.2725,0.4302,-0.5483,0.1215,0.142,-0.1344,-0.001835,0.1077,-0.0847,-0.338,0.09467,0.6494,-0.1462,0.2666,0.1378,0.153,-0.06506,0.1582,-0.4624,-0.0858,-0.3018,-0.07227,0.03078,-0.0488,-0.4849,0.144,0.296,-0.2404,0.2546,0.10095,-0.1769,0.3745,0.2966,-0.3833,0.25,0.2905,0.07184,-0.3672,0.1534,0.2362,0.2009,0.1385,-0.2595,-0.0477,0.02977,-0.223,-0.0864,-0.3804,-0.277,0.0682,0.1511,0.02257,0.2103,-0.297,-0.04956,-0.1547,0.2468,0.1825,0.5,0.3713,-0.0559,0.3708,0.281,0.2269,0.02272,-0.0686,0.05472,-0.10724,-0.12427,0.0423,-0.05338,0.1698,-0.2499,-0.01825,-0.04166,0.3667,0.1001,-0.3225,-0.318,0.04514,0.05246,0.2732,0.0724,-0.0924,-0.4167,0.1843,-0.141,0.4985,0.361,-0.2915,-0.0408,-0.2964,0.1543,-0.1344,-0.11926,0.2322,-0.1086,-0.0212,0.1538,0.01642,-0.07245,0.2037,-0.0789,0.07654,-0.933,-0.3142,0.02304,0.1997,0.08704,-0.0643,0.4385,0.2203,-0.1504,0.4653,-0.1152,0.1985,0.04752,0.0456,0.0983,0.1726,-0.2472,-0.02118,-0.6167,-0.3108,-0.396,-0.4307,0.0542,-0.1161,-0.3616,-0.25,0.1929,-0.1995,-0.03973,0.0883,-0.11633,0.00839,0.581,0.3035,-0.1366,0.6978,0.0649,-0.05475,0.2976,-0.2477,0.2308,0.0337,0.1159,-0.0149,-1.041,0.0956,0.1086,-0.1162,0.131,-0.10876,-0.1576,0.376,0.2432,-0.1664,0.1447,-0.2086,-0.2532,-0.3726,0.04922,0.2927,0.859,-0.09644,0.1029,-0.2091,-0.02338,0.0545,0.2527,-0.1648,0.0698,-0.1309,-0.1699,-0.3918,-0.1218,0.03476,0.04004,0.3916,0.3213,0.05328,0.0446,-0.153,-0.002857,-0.4717,0.02397,0.774,0.1749,-0.2308,-0.006256,0.01819,0.05728,-0.06146,0.01001,-0.1214,-0.4702,-0.2369,-0.408,0.7856,0.3616,0.1012,0.3523,0.1862,-0.1365,0.1427,0.0744,-0.0791,-0.0422,-0.4314,-0.0353,0.5737,-0.2386,-0.02885,0.02051,-0.3389,-0.3232,0.0228,0.0694,-0.04907,0.05392,-0.3796
balloon,0.353,-0.5923,0.03128,-0.0955,0.2961,0.354,0.1755,-0.10144,0.4358,0.164,-0.2183,-0.10223,0.2438,-0.3606,-0.08923,0.576,0.551,-0.1725,-0.2522,-0.5264,0.3232,0.01889,0.5034,0.182,0.4277,-0.1366,-0.3555,-0.302,-0.0945,0.289,-0.09863,-0.728,0.0187,-0.3271,0.0973,0.2035,-0.1959,0.393,0.2712,0.005177,-0.01845,0.02435,-0.2786,0.2385,0.07245,-0.1006,0.765,0.1298,-0.198,0.2142,-0.1616,0.3752,0.2289,0.1459,0.05453,-0.1508,-0.283,-0.7866,-0.1115,0.3254,-0.0307,-0.04416,0.1367,0.0806,0.166,0.02054,0.02042,-0.4785,-0.3794,-0.2722,-0.11523,-0.08887,-0.2118,-0.464,-0.422,-0.1389,-0.0624,0.1752,-0.0728,0.746,-0.1247,-0.00985,0.12134,-0.406,-0.0739,-0.1097,0.255,-0.1548,0.2236,-0.0583,0.478,0.402,0.0397,0.3809,-0.2876,-0.142,-0.02094,-0.1048,-0.305,0.3298,0.4312,-0.01456,-0.0479,0.3982,-0.2551,-0.2637,0.0415,-0.596,0.142,-0.04813,0.04642,0.03078,-0.1157,0.05737,0.0784,0.05896,-0.365,-0.3103,0.1337,0.4634,0.03613,-0.05954,0.5503,-0.2495,-0.2379,0.2031,0.6997,-0.1741,0.03473,-0.1697,-0.06384,0.04822,0.0563,0.4036,0.0321,-0.04764,0.324,-0.0757,-0.1901,-0.207,-0.1635,-0.05658,-0.176,-0.3804,-0.00137,0.05917,-0.558,0.4373,0.12177,0.21,0.3975,0.144,-0.626,-0.2964,-0.4863,-0.6895,-0.05588,-0.4185,0.741,0.3162,0.03378,0.3425,-0.01533,0.04398,0.1857,0.0982,-0.06494,0.02223,0.0836,-0.12494,-0.502,-0.05057,0.303,0.5884,-0.1372,-0.002146,-0.661,0.09186,0.3938,-0.002905,-0.1643,0.312,0.00873,-0.0425,0.332,-0.1595,0.234,-0.01947,0.0163,0.1241,-0.2622,-0.1757,-0.0936,0.5728,-0.2534,-0.09534,-0.334,0.1488,-0.01936,-0.05927,0.0412,-0.0958,0.005764,0.3418,0.03915,-0.03635,-0.12384,0.2416,0.0962,0.05334,0.07654,-0.3838,-0.4995,0.2413,-0.3853,-0.1327,-0.5063,0.0908,0.4673,0.25,0.4697,-0.3188,-0.311,0.1857,0.829,-0.4048,-0.0064,-0.495,0.04926,-0.1053,0.2512,-0.1953,-0.2255,-0.2198,-0.01698,-0.1892,-0.0539,0.3462,-0.1271,-0.2883,-0.1893,0.3274,-0.1151,-0.1575,0.1986,-0.3713,-0.4521,-0.013374,0.03247,-0.3743,0.1852,-0.3455,0.10504,0.1523,-0.639,-0.2798,0.11005,-0.2266,-0.03134,0.1781,0.2097,-0.002537,0.2014,0.1881,0.0629,-0.249,-0.1993,0.369,-0.0659,0.2346,0.2012,0.0648,-0.1979,0.2742,0.1348,-0.7354,0.2207,0.1417,-0.0168,0.3113,-0.2876,0.2317,-0.005375,-0.00978,0.0971,0.301,-0.004066,0.03635,-0.4763,0.1775,0.489,0.1235,-0.1348,-0.2177,-1.177,-0.1722,-0.2515,0.0239,-0.3752,0.307,0.063,0.4,0.8125,0.2438,-0.0863,-0.07086,-0.02388,0.038,-0.01944,0.4043,-0.425,0.02176,0.02112,-0.1166,0.375,-0.0735,-0.1394,-0.1641,0.0362,0.0786,-0.1887,0.1261,0.0771,-0.2,-0.01808,-0.02913,0.4265,0.664,0.2155,0.4043,-0.3787,-0.1982,-0.1891,-0.1742,-0.193,-0.2244,-0.114,-0.1332,0.727,0.2445,-0.2566,-0.002363,0.05392,0.3528,-0.148,0.184,0.1422,-0.5054,0.1783,0.1342,-0.268,-0.06226,0.2201,-0.5728,-0.03105,-0.1487,0.04456,0.2128,-0.1301,-0.2029,0.933,-0.2037,0.1522,0.10785,0.1242,-0.764,0.06836,0.1567,-0.497,0.567,0.2031,0.566,-0.2048,-0.3115,-0.2094,0.03357,-0.0735,-0.2257,0.0038,-0.5684,-0.1153,0.0467,-0.4553,-0.08594,0.247,0.5796,0.2031,-0.0538,-0.02509,-0.2429,-0.0523,-0.3616,0.1472,0.488,-0.1362,-0.2157,0.638,-0.1857,-0.4902,-0.1577,-0.447,-0.4683,-0.12445,-0.00592,0.03534,0.01752,0.247,0.351,0.1743,-0.2076,0.4092,0.04083,0.2898,0.1635,-0.03857,-0.1721,0.1293,-0.1368,0.1003,-0.2477,0.5317,0.2026,-0.2263,-0.10333,0.02307,-0.2974,-0.1493,0.6733,0.0898,-0.1638,-0.5176,0.1984,-0.1249,0.3684,-0.634,0.03702,0.1396,0.000312,0.1016,-0.2515,0.1859,0.1313,-0.09143,-0.1399,-0.534,0.04214,0.1306,-0.1482,-0.1158,-0.1636,-0.1497,0.3188,0.2847,0.0956,0.27,0.098,0.3743,-0.1936,0.1316,-0.2299,0.08966,-0.08466,0.265,-0.1017,0.285,-0.2158,-0.03143,0.2051,0.9062,0.4404,-0.0797,-0.10834,-0.3867,0.3396,-0.3137,-0.1037,0.05997,-0.0874,-0.0385,-0.2983,-0.4263,-0.4573,0.58,-0.2301,0.0509,0.09845,-0.2515,-0.2937,0.4263,-0.3828,-0.3901,-0.1503,0.805,-0.4897,-0.1909,0.04004,-0.00975,-0.0328,-0.2391,0.05988,-0.04407,0.1655,0.4028,0.9717,-0.0303,-0.274,0.10297,0.0518,-0.5547,-0.00228,-0.1716,0.08746,0.05984,0.03943,0.1948,0.4526,0.8906,-0.128,0.0787,-0.2075,-0.03464,-0.0342,0.0967,0.0444,-0.6123,-0.1655,0.208,-0.439,-0.2316,-0.179,0.1383,-0.1328,0.6733,0.0193,0.206,-0.258,-0.1843,-0.1367,0.6426,-0.1913,0.0947,-0.01813,-0.4023,0.006123,0.006145,0.1709,0.4895,0.3262,-0.6064,0.1963,0.08374,-0.1327,-0.05963,0.1201,-0.2551,-0.3877,-0.01973,0.6787,-0.08844,0.2798,0.10077,0.3875,-0.02519,0.06134,-0.5176,-0.02611,-0.2473,-0.1436,0.0213,0.07324,-0.535,0.04068,0.1868,-0.2563,0.437,0.1577,-0.2085,0.1661,0.256,-0.2732,0.2136,0.355,0.2466,-0.482,0.03918,0.1685,0.1786,0.02722,-0.1956,-0.1069,0.1656,-0.2886,-0.1295,-0.3599,-0.1726,0.03848,0.1428,0.04263,0.11365,-0.11365,-0.1014,-0.08325,0.1332,0.302,0.5225,0.1461,-0.014465,0.4841,0.2101,0.2388,0.03062,-0.1841,-0.03812,-0.1666,-0.1598,0.1334,-0.01085,0.4575,-0.3105,-0.085,-0.012825,0.3523,-0.02574,-0.321,-0.288,-0.02568,0.1166,0.1478,0.0579,-0.0014715,-0.5215,-0.01747,-0.1503,0.4255,0.2415,-0.3914,-0.1383,-0.259,0.1345,-0.1495,0.02263,0.1569,-0.0274,-0.04187,0.08624,0.2462,-0.002474,0.158,0.01767,0.03305,-0.824,-0.184,-0.146,0.2411,0.0682,-0.315,0.611,0.2568,-0.0943,0.3958,-0.03055,0.2974,0.188,0.0631,-0.1105,0.2698,-0.12354,0.2383,-0.854,-0.2162,-0.209,-0.5425,-0.007866,-0.00887,-0.1753,-0.252,0.093,-0.3513,0.1321,0.0725,-0.2142,-0.1748,0.6084,0.4832,-0.3123,0.818,0.2089,-0.06915,0.3235,-0.3728,0.3867,0.2278,-0.10913,0.1615,-0.9653,-0.07837,0.05865,0.03105,0.4097,-0.08765,-0.2291,0.006466,0.1704,-0.2192,0.1632,-0.2737,-0.2888,-0.2384,-0.06433,0.312,0.8643,-0.2219,0.11664,-0.3037,0.1608,0.02365,0.1605,-0.1055,-0.11365,-0.4072,-0.1763,-0.365,-0.2045,0.0411,0.02344,0.1936,0.2522,0.4148,0.04553,0.0345,-0.03555,-0.3672,-0.01784,0.7266,0.147,-0.0547,-0.118,-0.04126,0.1176,0.07263,-0.01753,-0.001821,-0.4114,-0.13,-0.3083,0.828,0.2051,0.03534,0.3083,0.1605,-0.1299,0.0358,0.0905,-0.0867,-0.1577,-0.601,-0.1059,0.3245,-0.11664,-0.0646,0.0715,-0.242,-0.3213,0.05463,-0.00924,0.2756,0.0154,-0.379
banana,-0.3225,0.0532,-0.2051,0.4573,0.3162,0.3137,0.02202,-0.05862,0.5024,0.242,0.01357,-0.5024,0.3591,0.2133,-0.4124,-0.0617,0.73,0.1403,-0.01913,0.1964,0.1159,-0.6855,0.583,0.61,-0.164,-0.2227,-0.337,-0.1042,-0.4365,0.01617,-0.375,0.10254,0.1375,-0.4124,0.08246,0.1919,0.529,0.8184,-0.131,-0.0676,0.05988,-0.1065,-0.3408,0.4849,0.515,0.0925,0.4282,0.0794,-0.2145,0.0506,-0.1354,-0.0829,0.2085,0.7305,-0.01376,-0.1741,0.252,0.013374,-0.0899,0.3706,-0.00035,-0.381,0.1556,0.1927,-0.0677,-0.1403,0.319,-0.174,-0.01825,-0.1407,0.0944,-0.821,-0.155,-0.03647,-0.05328,-0.305,-0.132,-0.021,0.1053,0.1931,-0.08325,0.001851,-0.3467,0.3992,0.0357,0.0994,0.1277,-0.238,-0.1725,0.003832,-0.1973,0.1197,0.07007,-0.221,-0.1626,-0.0713,0.04077,0.4404,-0.3027,-0.1014,0.4128,-0.172,0.03873,-0.00462,0.0745,-0.07166,-0.06036,-0.1197,0.2578,-0.1078,-0.2373,-0.6616,-0.2786,-0.4998,-0.1907,-0.0345,-0.1954,-0.05258,-0.1534,-0.5312,-0.04993,0.0648,0.2462,-0.2712,-0.2393,0.299,0.5225,-0.09454,0.04733,-0.2563,-0.0722,0.08276,0.04016,0.1768,-0.1571,0.2263,-0.12134,0.3113,-0.2384,-0.2651,-0.1927,-0.2383,-0.03062,-0.508,0.2456,-0.10724,-0.1423,0.3635,0.1273,-0.01692,0.2866,0.001341,0.01755,-0.1318,-0.8394,-0.8013,0.251,0.335,1.281,0.05176,-0.3135,0.2583,0.02194,-0.00928,-0.05908,0.0699,0.0151,0.5337,0.11127,-0.1019,-0.1461,-0.1575,0.408,-0.4092,0.0532,0.3203,-0.2118,0.5327,0.1982,0.3835,-0.0758,0.2634,0.1647,0.2805,0.10065,-0.1984,-0.1733,-0.02339,0.1696,-0.02554,0.06088,0.04752,-0.12476,0.01442,-0.1998,-0.01242,-0.05316,-0.351,0.2072,0.10474,-0.0388,0.4556,0.1824,-0.261,-0.1321,0.0423,-0.3762,0.2173,0.04013,0.02037,0.3203,-0.1761,-0.148,0.1617,-0.3914,-0.2242,-0.4285,0.00536,0.2372,-0.01941,0.5166,-0.465,-0.4993,-0.1091,0.7134,-0.1094,-0.3655,-0.0518,0.11316,-0.252,0.04962,-0.0833,-0.4204,0.273,0.2832,0.3545,0.2932,0.104,-0.08527,-0.337,-0.168,-0.2668,0.4062,-0.2004,-0.07654,-0.3977,0.1415,0.1509,-0.0844,-0.194,0.3713,-0.4458,0.294,0.0937,-0.4492,-0.0833,0.08563,-0.3801,-0.2496,0.1766,0.2637,-0.10016,0.09485,-0.01848,0.1847,-0.1052,-0.2426,-0.3484,-0.0417,0.1305,0.1688,0.00627,0.358,0.6353,0.09625,-0.1555,-0.1602,0.0895,-0.0258,0.397,-0.4763,0.1693,0.11865,0.0597,-0.3162,-0.0464,0.05557,-0.2832,-0.04816,-0.2191,0.1726,0.2866,0.1844,0.1487,-0.8413,-0.3618,-0.001031,0.1921,-0.09796,-0.3503,0.07965,0.1967,0.4011,0.08136,-0.418,-0.382,-0.2563,-0.08734,0.1702,-0.613,-0.2573,-0.1382,-0.1469,0.05914,-0.4277,0.576,0.581,-0.331,0.2986,-0.3064,0.1019,-0.631,0.2081,-0.2264,0.5376,-0.05505,0.04486,-0.711,-0.2834,0.3127,-0.0985,-0.0643,0.1519,0.1187,-0.6553,-0.0666,-0.1536,-0.1694,0.1929,-0.0901,-0.01043,-0.1713,0.03995,0.058,0.1902,0.05508,0.1185,-0.3286,0.2935,0.067,-0.03925,0.3896,-0.4707,0.01554,0.01581,-0.1642,0.4805,0.4402,-0.1874,0.05548,0.415,0.2297,0.4304,-0.07697,0.4126,-0.04263,-0.03482,0.1749,-0.298,0.2472,-0.274,0.2467,-0.1539,-0.4465,-0.3057,0.2786,0.026,0.05554,-0.07684,-0.609,-0.08124,0.2046,0.2695,-0.05807,-0.0799,0.7446,-0.0683,0.1614,0.3923,0.02382,0.00463,0.2637,-0.1018,0.2003,0.06046,-0.2076,0.2186,0.001242,0.719,-0.188,0.1149,-0.5723,0.3286,0.654,-0.005672,0.11694,0.585,-0.01106,0.1984,-0.1554,0.1547,-0.1848,0.1251,-0.02898,0.471,-0.5386,0.2408,0.10333,0.4194,-0.3662,0.2261,0.1149,0.1351,0.07916,-0.0877,0.1042,-0.13,-0.0738,0.01607,0.0846,-0.8857,-0.3318,0.791,0.3176,-0.5273,0.000443,0.2788,0.1157,0.539,-0.0968,0.6167,0.02809,-0.5547,0.1635,-0.03186,0.357,0.1125,0.2,0.1698,-0.1484,0.01545,0.2178,-0.01964,0.0632,0.0832,-0.0549,-0.0515,-0.10596,-0.1428,-0.05792,-0.2644,0.1927,0.02884,-0.08923,-0.1764,-0.1608,0.2327,-0.3982,0.683,0.292,-0.2917,0.1356,0.097,-0.02966,0.4546,-0.3154,0.00767,-0.1553,0.04312,0.1497,0.108,-0.818,0.5347,0.254,-0.02412,-0.7075,0.1003,-0.1521,-0.088,0.2705,0.1257,-0.0731,0.02182,-0.4148,0.0967,0.08215,-0.2646,-0.1171,-0.09827,-0.1432,-0.05725,-0.02502,-0.10614,-0.8193,-0.0628,0.1731,-0.6025,0.2373,-0.7783,-0.1361,-0.06506,-0.1736,-0.3386,-0.1914,0.1559,-0.2117,0.1543,0.2214,-0.1293,0.1248,0.02829,0.0826,-0.003374,-0.04578,-0.2542,-0.08795,0.5596,-0.465,-0.06088,0.2783,0.1699,0.281,-0.169,0.2333,-0.12054,-0.1453,-0.612,-0.5264,0.5293,-0.2341,0.3755,-0.0887,-0.48,-0.1111,-0.3154,0.3914,-0.143,0.02458,-0.1417,0.025,0.0454,0.4548,0.0544,-0.579,-0.2686,-0.0876,0.1747,0.03152,-0.2008,0.4834,-0.3557,0.4385,-0.698,-0.5103,0.015175,0.357,-0.1381,-0.276,0.2507,0.1086,-0.4941,-0.3418,-0.06055,-0.2732,0.3225,0.1271,-0.09515,0.1565,-0.004078,-0.258,0.0466,0.4087,0.04883,-0.4226,0.1686,-0.131,0.1152,0.3787,0.03152,0.01301,0.1526,-0.2893,-0.10767,-0.0778,-0.541,-0.4683,0.2947,0.2313,-0.1741,-0.6475,0.5405,-0.0464,0.009544,0.0388,0.3906,-0.168,-0.2477,0.5195,0.1748,0.2115,0.3022,0.2289,0.395,0.318,-0.1384,-0.137,-0.4336,0.1956,0.1857,0.0645,-0.878,0.0891,0.2201,-0.2477,-0.525,-0.11694,0.3804,-0.2961,0.0626,-0.1847,-0.3467,0.1351,-0.2069,0.4583,0.569,0.0689,-0.04465,0.0319,0.378,-0.2396,-0.02626,0.04993,-0.005123,-0.03354,0.2128,-0.002401,0.2192,0.2146,-0.2421,0.3584,-0.795,-0.1818,-0.2627,-0.2598,0.7256,0.3257,0.888,0.3376,-0.0923,0.009926,-0.3604,0.452,-0.1917,0.2384,-0.05237,0.00931,-0.01068,0.06866,-0.833,-0.2625,0.089,-0.11664,-0.2021,-0.1009,-0.366,0.0655,0.2761,0.1215,-0.010605,0.10986,0.08167,0.2441,0.512,-0.1443,0.0737,0.3838,-0.6064,-0.04807,0.2773,0.572,0.09076,0.1919,0.1098,-0.196,-0.637,0.1394,0.01988,-0.1583,0.12225,0.1315,-0.1028,-0.1504,-0.1371,0.1234,0.0398,-0.1138,0.03558,-0.00545,-0.3184,0.06866,0.2443,0.135,0.0439,0.2043,0.0008593,-0.09357,0.3328,-0.0948,0.1395,-0.2085,0.1378,0.2169,0.07715,0.0852,-0.3792,0.28,0.12103,0.1692,0.1879,-0.1993,0.309,0.3508,-0.11163,0.717,0.1912,0.6274,0.0513,0.0723,0.3616,0.1775,0.33,-0.657,-0.3938,-0.5596,-0.3652,-0.3794,0.3933,0.1239,0.1925,0.09534,-0.3333,0.2167,-0.2778,-0.3162,0.291,-0.002174,-0.153,0.951,-0.3027,-0.0676,-0.07837,-0.2554,-0.2654,-0.07025,0.105,-0.2372,-0.002108,-0.3997
basement,0.3794,-0.1746,-0.6865,-0.2368,0.2458,-0.2065,0.04575,-0.636,0.02884,-0.2377,-0.2306,-0.3604,0.03293,-0.2153,0.7075,0.1718,-0.124,0.1248,0.5425,-0.3357,0.513,-0.1422,0.082,-0.4495,0.3582,-0.222,-0.2378,0.1547,-0.3508,-0.2382,-0.09766,-0.2983,0.1234,-0.7505,0.2236,0.1392,-0.4702,-0.65,0.8022,0.356,0.2426,0.06946,-0.744,0.1201,0.4438,-0.0803,0.247,-0.4893,0.1004,0.4548,-0.343,-0.022,0.4282,-0.33,-0.256,-0.32,-0.444,0.1901,0.03894,0.1686,0.03964,0.3481,-0.4578,0.1382,0.5176,-0.1885,-0.1545,0.2837,-0.5195,0.12305,0.0643,0.3677,0.5283,-0.01261,0.08124,0.367,0.37,-0.0675,-0.734,-0.3694,0.2319,-0.05243,0.1389,-0.266,-0.1635,-0.291,0.1459,-0.2668,0.1277,-0.1289,-0.2957,0.3625,-0.3113,-0.1893,0.2664,0.108,0.06177,-0.04367,-0.2333,0.0963,0.664,-0.1301,0.0686,0.1317,0.09845,-0.2377,0.3186,-0.2151,0.3845,-0.137,0.0661,0.006165,-0.1743,0.5137,0.04752,0.1492,0.3547,0.0949,0.4214,0.0949,-0.1313,-0.4663,0.10144,0.218,0.2069,-0.0485,0.8247,0.2108,-0.4314,-0.1348,-0.06168,0.4126,-0.2866,0.1,0.03137,-0.07764,0.3342,0.3665,-0.1644,-0.351,-0.003414,-0.0871,0.2722,-0.3242,0.323,-0.4207,-0.6475,0.3518,-0.12366,0.214,0.5386,0.2391,-0.2264,-0.0782,-0.169,0.542,-0.3198,-0.3623,-0.184,0.239,-0.01805,0.004566,0.1688,-0.01685,-0.1339,-0.549,0.2072,-0.0675,-0.3845,0.3708,0.0409,0.3,-0.01235,0.3374,0.04224,0.004784,0.0268,0.1389,0.4663,0.005318,-0.10736,0.364,-0.1119,-0.1488,-0.2712,-0.389,0.1881,0.0516,0.6494,-0.233,0.02936,0.3708,-0.1919,-0.1826,0.02066,0.276,0.003248,-0.2722,0.1592,-0.0726,-0.1791,-0.262,0.1226,0.355,0.2588,0.1371,-0.1039,0.1604,-0.3606,0.43,0.1257,0.535,0.2058,0.2527,-0.2476,-0.2367,-0.1855,-0.02264,0.2485,0.389,0.005997,-0.3262,-0.4934,0.1908,0.2463,0.253,-0.2328,-0.1385,0.02495,-0.287,-0.11945,-0.04092,0.0642,-0.4448,0.139,0.08136,0.4229,-0.3398,-0.2188,0.3008,0.03537,0.3098,0.305,-0.2507,-0.3352,-0.09534,0.2261,0.1741,-0.1576,-0.354,-0.06476,0.5166,-0.01242,0.02426,-0.2269,-0.3257,0.1385,0.0777,-0.1296,-0.1543,-0.674,0.42,0.0982,0.0329,0.05386,-0.4265,0.4763,0.1399,0.1261,0.1615,0.2947,0.1841,0.10236,0.08795,-0.3225,-0.5293,-0.2203,0.2961,-0.1338,0.306,-0.1869,0.0914,-0.2129,0.5684,0.251,0.1356,0.3577,0.341,-0.2559,0.07214,-0.0007286,-0.4229,-0.4502,0.3984,-0.477,-0.307,-0.1009,-0.2688,-0.5386,0.2534,-0.2461,0.08276,-0.1312,0.203,0.0022,-0.2744,0.01897,-0.295,-0.6694,0.2888,-0.3064,0.004642,0.571,-0.3398,0.2932,0.0751,0.27,0.163,-0.4568,-0.1433,-0.164,0.00787,-0.0864,0.591,0.2186,0.01819,-0.1065,-0.2825,-0.5054,-0.02417,-0.2097,0.1621,0.06116,0.03296,0.2484,0.497,-0.186,-0.03217,0.3105,0.05048,0.1157,0.06305,0.1006,-0.00799,0.0418,-0.635,0.363,-0.2773,0.2961,-0.1692,0.0226,0.11176,0.49,-0.2477,0.0391,-0.511,-0.01924,0.2917,0.12036,0.1614,9.24e-05,0.1803,0.0744,0.03787,-0.04556,-0.001071,-0.2384,-0.4275,-0.725,0.2412,0.10205,0.3486,-0.1794,-0.4844,-0.2021,0.05154,-0.599,-0.12335,-0.1626,-0.243,0.3376,0.1831,0.1887,-0.3965,0.01701,0.1646,-0.1185,0.4136,-0.5176,0.07916,-0.512,0.4575,0.4568,-0.2429,-0.1218,0.03726,0.10986,-0.6094,0.6694,0.01979,0.2456,0.1053,-0.2593,0.3281,0.02904,-0.1431,-0.3462,0.0727,0.09625,-0.2854,-0.5947,0.0722,0.3438,0.3386,-0.2463,-0.3013,0.08856,-0.174,-0.1573,0.3096,-0.3015,-0.01131,-0.2079,-0.2983,0.06604,0.4111,0.2732,-0.2913,0.329,-0.11194,0.09875,0.4927,0.695,-0.0885,0.04297,0.2428,0.05853,0.3987,-0.11096,0.2546,0.1361,-0.08575,0.07745,0.0758,-0.751,0.03848,0.3093,0.1356,-0.0004954,-0.2166,0.2213,-0.2161,0.4333,0.1699,0.4155,0.1068,0.543,-0.1736,0.2524,-0.354,-0.2057,0.03668,0.3406,-0.201,0.12195,-0.2092,0.1995,-0.1501,-0.1232,0.05194,0.1534,-0.352,-0.0993,-0.1619,-0.3486,0.2229,-0.1686,-0.03622,-0.3462,0.1203,0.01059,-0.2394,0.5933,0.1126,0.0703,-0.3052,-0.0386,-0.1783,0.2479,-0.17,-0.592,-0.252,-0.3694,0.09515,-0.107,0.1313,0.1545,0.261,0.0841,-0.10657,0.4448,-0.4036,-0.0313,-0.3982,-0.8716,-0.2133,0.3003,0.3308,0.3176,-0.3843,0.2927,-0.3171,-0.056,0.1914,0.11554,0.4663,0.5835,-0.3035,-0.01883,0.1656,0.1927,0.1165,-0.2363,0.2295,0.1959,0.7017,0.03308,-0.5684,-0.4663,-0.53,0.00975,0.42,0.089,-0.2874,0.2087,0.358,-0.647,-0.1324,0.5347,0.1982,0.02705,0.1711,-0.455,-0.4011,-0.4424,-0.06836,0.3135,-0.3289,-0.1542,0.278,0.1448,-0.05814,-0.3352,-0.344,-0.0631,-0.04715,-0.2515,-0.5117,0.1111,0.02238,0.1592,0.337,-0.001635,0.1322,0.02203,0.09503,-0.4275,-0.4978,0.0422,-0.2141,0.1823,0.00939,0.061,-0.4917,-0.00566,-0.067,0.06415,0.3806,0.3113,-0.10187,0.3704,0.11346,0.2041,-0.3484,-0.1049,-0.06012,0.1566,0.11597,0.5586,-0.03955,0.179,-0.3716,-0.1273,-0.196,0.3188,0.0694,-0.1005,-0.3462,-0.2477,0.1326,-0.4092,0.2722,0.0483,-0.2058,0.03925,-0.07996,0.2268,0.1554,-0.05496,-0.03784,0.3625,-0.2803,0.0626,0.01228,-0.04388,-0.0696,0.1654,0.547,-0.1559,-0.4878,-0.2003,0.11847,0.469,0.00851,-0.04916,-0.3152,-0.3616,-0.10175,-0.1777,-0.0728,-0.5054,0.1453,0.10956,-0.0821,0.6206,0.5063,0.03366,1.192,-0.609,0.1255,0.5454,0.1824,0.5947,-0.3093,0.1633,0.524,0.3894,0.32,0.1201,-0.43,0.1604,-0.1307,0.007515,-0.1343,-0.3635,0.309,0.10596,0.417,0.10254,-0.02922,0.032,-0.1719,0.4758,-0.1337,0.2659,0.06616,0.1138,0.192,-2.016,-0.1644,-0.1732,-0.1466,0.4778,0.523,-0.2252,-0.503,-0.1898,-0.1637,0.3308,-0.0396,-0.1814,0.04245,0.0706,0.4583,-0.1849,0.6284,0.02171,-0.02545,-0.11255,0.1455,-0.3604,0.3584,-0.1631,-0.0805,0.1738,0.11835,0.2563,-0.1608,-0.2147,0.03928,-0.2993,-0.306,-0.04602,-0.2732,0.012856,0.002125,-0.3862,0.09265,-0.2449,-0.0454,0.2223,0.3606,0.07904,0.1315,0.004696,-0.03078,-0.0877,0.1102,-0.04053,-0.893,0.1178,0.2428,0.175,-0.2064,0.0249,-0.2299,0.1355,-0.4163,0.55,-0.3562,-0.469,-0.2764,-0.2256,1.036,0.9517,0.3064,0.2632,-0.355,0.5386,-0.1296,0.02258,0.2452,0.08685,-0.3267,-0.1456,-0.1539,0.05853,-0.452,0.06635,0.1377,0.1703,0.1426,-0.3286,0.1439,0.0347,-0.02113,0.002531,0.3496,0.0965,0.2524,-0.04315,-0.2307,0.1344,0.0903,0.12225,-0.4138,-0.2708,-0.10895
basket,0.11884,0.2827,-0.132,0.1469,0.0759,0.5083,-0.0227,-0.4917,-0.703,0.04016,0.2876,-0.2433,0.0965,-0.684,-0.1417,0.12036,0.4807,0.48,-0.3074,-0.3242,0.1724,0.2272,0.11707,0.368,0.1733,-0.0689,-0.2365,0.3186,-0.10547,0.02994,0.03452,-0.03302,0.2477,-0.1727,0.282,0.0873,0.2489,0.1227,0.1686,-0.09515,-0.01595,0.04004,-0.624,0.1957,0.7324,0.07513,0.559,0.1036,-0.1859,0.08813,-0.2151,0.7554,0.33,0.0987,0.355,0.03226,-0.05893,0.663,0.07404,0.423,-0.00961,-0.523,0.01682,-0.4126,0.534,-0.2396,-0.03014,0.3586,-0.2517,0.1108,-0.0532,-0.441,-0.1198,0.2416,0.2306,-0.05582,-0.0757,-0.02963,-0.1743,-0.4648,-0.2227,-0.0856,0.2211,-0.1951,0.4185,-0.099,0.358,0.1761,0.06354,0.1978,-0.05377,0.2556,-0.2512,-0.2476,-0.2122,-0.07245,0.00787,0.1279,-0.398,0.2023,0.374,-0.1847,-0.2423,0.04688,-0.3313,-0.4631,0.09314,-0.1637,0.02565,-0.02568,-0.4333,-0.2737,-0.1798,-0.0998,-0.1186,-0.1636,0.2317,-0.0638,0.0824,-0.4507,-0.3206,0.2507,0.22,0.0933,0.1259,0.2544,0.589,0.085,-0.1362,-0.2883,-0.3118,-0.02298,-0.2424,-0.11694,-0.02463,-0.0633,0.0877,0.0586,-0.0928,-0.01027,0.1477,-0.06256,-0.0732,-0.306,0.3071,0.04117,-0.05972,0.11273,0.1575,0.1783,0.3362,0.2732,-0.2708,0.04462,0.09174,-0.1235,0.0203,-0.1538,0.26,0.04105,-0.5913,0.0678,-0.1088,0.1437,-0.1802,-0.1595,0.4214,-0.1322,-0.0904,0.5747,-0.0619,-0.2412,-0.01639,-0.01672,0.2783,-0.2007,-0.426,0.11414,0.02773,0.4414,-0.0425,-0.0883,-0.1775,-0.4133,-0.2002,0.3213,0.06995,0.05692,0.3398,0.0545,-0.06058,-0.1676,0.132,0.1797,0.336,-0.1677,-0.2798,0.103,0.0644,-0.10016,0.0714,-0.1663,0.1666,-0.043,-0.025,-0.0494,-0.1976,-0.07245,-0.2037,0.1635,0.487,0.1465,-0.2235,0.2659,-0.3381,-0.2673,-0.5894,0.1398,0.3496,0.052,0.549,-0.1256,-0.2502,-0.1932,0.9595,-0.09796,-0.1744,0.02965,-0.0986,-0.5806,0.05008,-0.367,-0.1451,-0.0887,0.10565,0.3372,-0.2292,-0.1306,-0.01942,-0.2413,0.1987,-0.0637,-0.5723,-0.1051,0.5884,-0.422,-0.11664,-0.005028,-0.239,-0.07355,0.1636,0.4763,0.08167,0.010796,-0.526,0.1088,-0.1134,-0.11896,-0.9023,0.5063,-0.01391,-0.1976,0.1333,0.2058,0.1793,-0.3179,-0.0794,0.1877,-0.0444,-0.1588,0.4553,0.5796,-0.2842,0.0873,0.1685,-0.2405,-0.05457,0.2505,-0.05084,0.11676,-0.2045,0.6016,-0.1007,0.453,-0.2983,-0.01889,0.0657,-0.2361,-0.1033,0.10834,0.1636,0.05655,-0.278,-0.1873,-1.023,-0.133,-0.02367,0.1631,-0.504,-0.1434,-0.5063,-0.0477,0.2212,0.2291,-0.0939,-0.2053,0.332,0.1921,-0.1753,-0.1293,-0.23,-0.587,0.151,-0.1713,0.03638,0.3218,0.1313,-0.0669,-0.0602,-0.2656,-0.0513,-0.1262,0.286,0.3276,-0.03586,0.10223,0.2126,-0.532,-0.2054,0.4033,-0.4624,-0.1924,-0.04013,-0.01706,-0.2825,-0.0575,-0.05487,0.27,0.02885,0.5205,-0.1335,0.02396,-0.0163,0.3105,0.2019,-0.0821,0.01243,-0.451,0.0649,0.3655,-0.4143,-0.03534,0.457,-0.642,-0.1398,-0.007603,0.4482,0.02083,0.02567,-0.1444,0.6265,0.00339,0.06067,-0.01485,0.518,0.301,-0.0414,-0.2252,-0.4678,0.2822,-0.1798,0.2325,-0.1857,0.245,-0.2382,0.1866,0.05978,-0.03644,0.001295,-0.4517,0.3354,-0.0092,-0.245,0.00514,0.3855,0.37,0.1357,0.10114,-0.0766,-0.248,-0.408,0.00942,0.1522,-0.1581,-0.03946,-0.1372,0.6357,-0.07965,0.2241,-0.2054,0.4985,-0.271,-0.2695,-0.00851,-0.06995,0.01909,-0.3738,0.2135,0.02106,-0.4207,-0.0975,0.2162,0.4072,-0.03268,-0.1711,-0.1367,0.04138,-0.1819,0.11957,-0.3386,-0.06125,0.1113,-0.1375,-0.2957,0.1901,-0.1371,-0.0996,-0.4329,0.264,-0.3345,-0.5664,0.531,0.02261,0.1774,-0.1268,-0.2534,0.2876,-0.03625,-0.1131,-0.02113,0.4104,-0.1302,0.11224,-0.002821,-0.8784,-0.443,0.3044,-0.4143,-0.05597,0.2279,-0.004684,0.2039,0.2761,0.318,-0.0915,0.04327,0.4617,0.2656,0.02829,-0.09393,-0.0863,0.02939,0.1599,-0.07007,0.4624,0.2081,-0.0552,-0.1836,-0.4465,0.1997,0.1296,-0.4187,-0.01947,0.3003,0.0855,-0.02905,-0.1569,0.4346,-0.02702,0.2487,0.1085,-0.3079,0.3496,0.0851,0.1819,0.12335,-0.1866,-0.3508,0.1814,-0.195,-0.0785,-0.0577,0.0652,-0.135,0.02553,-0.00913,-0.2098,0.004704,-0.0692,-0.5093,-0.05737,0.09564,0.2527,-0.3792,-0.1515,0.2817,0.1716,-0.0876,-0.2776,0.1224,-0.256,-0.04816,0.03836,0.2178,0.1571,-0.2986,0.2456,-0.1073,0.25,0.10846,-0.0187,-0.1853,-0.1108,0.255,-0.1338,0.3264,0.252,-0.5093,0.0177,-0.1165,0.1473,0.322,0.59,0.2336,-0.0378,0.1318,-0.1761,-0.3525,0.5977,0.0329,0.0784,-0.10815,0.1267,-0.06665,0.1282,-0.05978,0.143,0.0513,-0.377,0.0399,0.1393,0.006824,0.1038,0.08276,-0.1906,0.1542,-0.261,-0.3618,0.3457,0.2795,-0.1523,0.6006,0.12476,-0.12054,0.2294,0.10236,-0.3674,-0.2239,-0.3176,-0.1483,-0.02333,-0.04605,0.331,-0.1836,-0.1396,0.05115,-0.2302,0.01619,0.1342,-0.2302,0.298,0.2983,0.07495,-0.2316,0.09296,-0.1495,-0.05646,0.06287,-0.05338,-0.1925,-0.0931,-0.1094,0.2026,-0.2358,-0.1493,-0.2446,0.147,-0.02132,-0.1696,-0.4006,-0.1991,0.243,-0.198,0.4207,0.01588,-0.1647,-0.3896,0.4438,0.252,0.1598,0.329,-0.1255,0.4756,0.1769,-0.1544,0.102,-0.0888,0.2174,0.0812,0.0953,-0.4258,-0.1982,0.1893,-0.371,-0.3645,-0.1656,-0.11053,0.2242,-0.1919,-0.07806,-0.4265,0.06805,-0.2502,0.3662,0.10333,0.1805,-0.2712,0.704,-0.05286,0.0662,-0.2373,0.1599,0.1642,-0.0346,0.1444,0.6245,0.4663,0.09515,0.158,-0.0529,-0.1248,0.05035,-0.03056,0.2075,0.2744,-0.1211,0.04742,0.6094,0.2433,0.2852,0.2627,0.2688,0.03125,0.07855,-0.04544,0.0858,0.03494,-0.1793,-1.052,-0.1478,-0.072,-0.2137,-0.05942,-0.1515,-0.336,-0.3694,-0.2651,0.02379,-0.6094,-0.0702,-0.3022,-0.1805,0.4392,-0.11536,-0.09155,0.5522,-0.1268,0.0823,0.307,0.04987,-0.1511,0.4287,0.1549,-0.02913,-0.6187,-0.403,0.0885,-0.3418,0.2284,0.2744,-0.133,0.01551,0.1599,-0.0944,-0.1406,0.0816,0.356,0.678,-0.1436,0.136,0.544,-0.1067,0.1578,0.0325,-0.3875,0.04688,0.00567,0.247,0.11816,0.03082,4.61e-05,0.647,-0.00956,-0.1857,0.05194,-0.2764,0.2433,-0.05194,0.3271,-0.1929,0.02547,-0.222,0.07227,0.8784,0.3308,0.301,-0.3047,-0.03568,0.1709,0.1652,-0.1509,-0.05096,-0.1459,-0.05258,-0.258,-0.415,0.385,0.1321,0.3506,0.322,0.2903,0.02153,0.00895,-0.05524,0.01566,-0.3032,-0.2494,0.5024,-0.323,-0.04025,-0.342,-0.2876,-0.3115,-0.1661,0.05582,-0.819,-0.1276,-0.1143
bat,0.4412,0.2272,-0.1082,-0.2242,0.429,-0.596,-0.4248,-0.857,-0.5547,-0.1863,-0.1222,-0.322,-0.3184,-0.3271,-0.00871,0.1431,0.06244,-0.146,0.5527,-0.9116,0.05,-0.582,-0.2036,0.3286,0.3586,0.0975,-0.743,-0.334,-0.733,0.4565,-0.3958,-0.3354,0.11176,-0.4585,0.0783,-0.0341,0.2727,0.2744,0.6035,-0.0384,0.1759,0.1721,-0.0289,0.4087,0.2258,0.232,-0.5146,-0.4275,-0.5093,0.345,-0.3804,0.56,0.2316,-0.04727,0.395,-0.3198,0.186,0.311,0.01875,0.2676,0.2878,0.3032,0.4038,-0.1428,0.4087,-0.0676,0.105,0.1227,-0.2107,-0.2583,0.02998,0.2131,0.2477,0.1365,0.2551,-0.625,0.8057,-0.1207,-1.206,-0.03574,0.05298,-0.1139,-0.3567,-0.193,-0.323,0.2194,0.2102,-0.1398,-0.01164,-0.07306,-0.3655,-0.2283,-0.9453,-0.2725,-0.609,0.042,0.0582,0.313,-0.2688,0.5347,-0.04034,0.0988,0.176,0.01538,-0.1631,0.1445,0.07733,0.386,0.2443,-0.1141,1.117,-0.2007,-0.01909,-0.1125,-0.07654,0.04257,0.2412,-0.693,0.6177,-0.0714,-0.006054,0.3528,0.08765,0.03156,0.8315,0.11896,0.842,-0.1232,-0.272,0.01475,-0.2993,0.292,0.05536,-0.3457,-0.5083,0.1342,-0.04776,0.1958,-0.1559,-0.199,0.2064,-0.4185,-0.5903,-0.1348,-0.0505,-0.07336,-0.3352,0.7227,0.4521,-0.05737,-0.11847,-0.003906,0.0729,-0.3872,-0.08606,0.04233,-0.2517,-0.2563,0.3308,-0.06757,-0.00586,0.1324,-0.1304,-0.02087,0.2203,-0.352,0.2886,-0.216,0.1481,0.0975,0.017,-0.377,-0.0428,-0.2292,0.249,0.001104,0.5127,-0.3975,0.6533,0.1519,0.06094,-0.5693,-0.1473,-0.0807,-0.4272,-0.3152,-0.872,-0.1399,0.2734,-0.22,-0.0753,0.6323,-0.1091,-0.2502,-0.3098,0.349,0.2042,-0.1879,0.3066,0.03302,-0.2009,0.1462,-0.314,-0.1508,-0.2905,0.1466,0.07385,0.1377,0.03802,0.3984,0.4067,0.2131,0.1987,1.234,-0.223,-0.1934,-0.1787,0.111,0.3276,-0.8726,-0.02148,0.003712,-0.3542,-0.232,0.07385,0.2283,-0.1813,-0.3118,-0.3406,-0.2418,-0.02266,0.1858,0.0924,0.0846,-0.1322,-0.2477,0.11615,-0.1978,0.4648,-0.3792,0.03452,0.706,0.1283,0.03653,0.3535,-0.2896,-0.103,-0.05005,-0.2861,-0.3403,-0.2556,-0.1364,0.1183,0.0824,-0.5977,0.09296,0.01816,-0.4111,-0.37,-0.1084,0.1436,0.1652,-0.1791,0.10144,0.2356,-0.2798,0.0666,0.2625,0.498,0.6777,0.3848,0.03613,0.282,0.3357,0.2129,-0.4321,0.1432,0.472,-0.1875,0.2426,-0.3489,0.1252,-0.265,-0.1633,0.369,0.0725,-0.02432,0.3665,-0.09106,0.1842,0.7725,0.3433,0.2297,0.05823,-0.6406,0.3445,0.1378,-0.475,-0.2222,0.1957,-0.3918,0.4229,0.5005,-0.03735,0.1345,-0.03394,-0.4473,-0.1711,-0.4426,0.754,-0.2256,-0.407,0.02031,-0.4,-0.1692,0.2207,0.3618,0.2605,-0.278,-0.2527,0.4832,0.2402,-0.1722,0.3052,0.09216,-0.4019,0.1628,-0.288,-0.0994,0.3867,-0.6196,-0.1854,0.0603,-0.3677,0.01172,0.2151,-0.05728,0.187,1.084,0.2866,0.0207,0.1383,0.3716,0.373,0.2764,-0.435,0.0865,-0.4954,0.03986,-0.002588,-0.2365,-0.4695,-0.08527,-1.002,0.4185,-0.03705,0.04315,-0.0641,-0.2622,-0.1581,0.058,0.004395,0.1345,-0.09045,0.2423,-0.3247,0.4756,-0.03204,-0.7783,0.4421,-0.3174,0.3987,0.4634,-0.0939,0.1677,0.1918,-0.3389,-0.3105,0.0706,-0.8213,0.0814,-0.7354,-0.274,0.0212,0.873,0.5254,0.03757,0.1188,0.3555,-0.1923,-0.488,0.4104,0.412,-0.04013,-0.04315,-0.28,-0.2145,-0.33,0.483,-0.1674,0.1384,0.0747,0.4075,0.6636,-0.1567,0.01043,-0.1144,-0.068,0.0885,0.2084,-0.36,0.1328,-0.109,-0.2428,-0.1715,0.3076,0.4553,0.2426,0.7085,-0.08466,0.6055,-0.03333,0.2201,-0.396,0.0951,-0.1572,-0.2922,0.3267,-0.1975,0.1082,-0.663,-0.3352,0.2305,-0.01143,-0.2905,0.02255,-0.1857,-0.09,0.2107,0.4114,0.53,0.05118,-0.372,0.3782,-0.2566,0.1533,0.2808,0.2703,-0.1117,-0.0622,0.1725,0.549,-0.468,-0.1719,0.311,-0.08514,0.3452,-0.2317,0.3706,-0.1741,0.1996,0.08856,0.2488,-0.3477,0.1039,0.02275,0.3167,-0.3228,0.382,-0.347,-0.05765,-0.7324,0.1037,-0.05255,0.6436,-0.33,-0.2273,-0.3193,-0.1877,-0.07666,0.2465,-0.3882,0.666,0.2235,-0.097,0.04065,0.623,-0.04587,0.2406,-0.03894,-0.4307,-0.1882,-0.5693,0.1659,0.1517,0.0434,-0.528,-0.2952,-0.1941,-0.1514,-0.2013,-0.0479,-0.085,-1.018,-0.3826,0.1257,0.3853,0.1567,0.2336,-0.2974,0.528,0.2181,0.1434,-0.3958,-0.06946,-0.1323,-0.1239,0.0934,0.293,-0.0538,0.266,0.2622,0.319,-0.00796,-0.1141,-0.001123,-0.0328,-0.618,0.4602,-0.1208,0.1979,0.3271,0.319,0.7275,-0.287,-0.1195,-0.2632,0.05585,0.753,0.00357,-0.005077,-0.084,-0.3691,-0.077,-0.2554,0.1458,-0.2646,-0.1388,-0.2703,0.1658,0.05835,-0.6675,0.0582,0.0917,0.0577,-0.781,-0.2673,0.09985,0.27,0.295,-0.0912,0.617,-0.296,0.03778,-0.74,0.11066,-0.4224,0.0856,0.3186,0.1051,0.3538,0.6484,0.2024,-0.2798,0.544,-0.0415,0.5625,-0.03363,0.5366,-0.0648,-0.0168,0.04913,0.08984,-0.0479,-0.278,-0.04507,0.476,0.3193,0.1776,0.127,0.1761,-0.155,-0.1908,0.12305,0.0757,0.0331,0.1581,0.007214,0.0375,-0.882,-0.3308,0.196,-0.08246,-0.5156,0.502,0.934,-0.1853,-0.3374,0.3184,0.242,0.2715,0.1328,0.04874,0.2145,-0.2942,-0.3818,0.1024,-0.2708,-0.3557,-0.4187,-0.04767,0.2373,0.275,-0.503,-0.3652,0.3374,-0.3384,-0.068,-0.1154,-0.1731,-0.53,0.3328,0.4395,-0.03558,0.4683,0.1294,0.2355,1.303,0.1383,0.2615,0.0213,0.001269,0.01099,0.03613,-0.1971,0.7437,-0.0406,-0.0808,0.3215,-0.3909,-0.00869,-0.1816,0.3882,-0.1844,-0.05777,0.2151,0.4814,-0.3037,0.10925,-0.3406,0.09406,-0.418,0.03055,0.09467,0.2964,-0.1814,0.03473,-0.09906,-1.557,-0.2751,0.155,-0.209,0.01602,-0.00935,-0.2908,0.2668,-0.06128,0.0,0.1125,-0.455,-0.5806,-0.4697,0.3228,0.1168,0.4353,1.029,-0.1124,0.11743,0.2935,0.5605,-0.3774,0.1559,0.655,-0.2385,0.2383,1.049,0.1353,-0.09845,-0.1963,-0.2034,-0.5264,-0.3494,-0.5034,0.05258,0.07263,0.2039,-0.1351,0.2039,0.05527,0.09503,0.00459,0.3926,-0.1415,0.301,-0.9395,-0.3018,0.1382,0.05624,-0.326,0.2954,-0.1428,0.379,0.0455,-0.254,0.03812,-0.301,0.2632,0.02335,-0.1699,-0.667,0.552,-0.479,0.2495,1.773,0.3818,0.3152,-0.1902,-0.255,-0.3906,0.02841,-0.02144,0.05832,-0.849,-0.6924,-0.33,0.851,0.4143,0.01372,0.455,-0.01163,-0.146,0.3801,-0.545,0.2251,-0.1895,0.1395,-0.5894,0.2131,0.2434,-0.1002,0.06223,-0.2678,-0.705,0.2224,0.1312,-0.657,0.1295,-0.622
bathroom,0.3523,0.2756,-0.605,-0.1805,0.4058,-0.468,-0.2476,-0.1664,-0.00789,-0.02109,-0.4229,-0.186,0.253,-0.01368,0.4836,0.1654,-0.222,0.2754,0.21,-0.128,0.2515,-0.2428,0.379,-0.302,0.3032,-0.6313,-0.02571,0.1405,-0.1295,-0.1228,-0.419,-0.1203,-0.1797,-0.3337,0.1953,0.2076,-0.2437,-0.538,0.6436,0.125,0.2155,0.1532,-0.3618,0.1545,-0.04965,0.2598,0.5337,-0.445,0.2018,0.3625,-0.1509,-0.0898,0.1885,-0.1974,-0.3342,-0.5654,0.3093,0.2366,-0.4006,0.0556,-0.04257,0.1909,-0.365,0.003696,0.267,-0.09064,-0.04132,0.2778,-0.4736,0.3076,0.0009313,-0.2078,0.343,-0.1615,0.2482,0.004864,0.6396,-0.2062,-0.8022,-0.01348,0.2502,-0.265,0.3442,-0.3105,-0.4058,-0.07465,-0.006844,-0.03998,0.02315,-0.3528,-0.3132,-0.1709,0.2225,0.02441,0.3323,0.5703,0.1622,0.3652,-0.187,0.485,0.5215,-0.3828,0.08057,-0.01869,0.06165,-0.0737,0.4949,0.03946,0.5225,-0.0108,-0.2993,-0.3088,-0.1515,0.35,-0.2534,-0.01776,0.457,-0.01697,-0.12305,-0.2172,-0.2343,-0.05347,-0.06152,0.00805,-0.2032,-0.0719,0.842,0.04874,-0.5225,-0.1643,-0.168,0.2258,-0.2888,-0.167,-0.1278,0.2361,0.0358,0.08746,-0.58,-0.08923,0.103,-0.03845,0.004173,0.10425,0.352,0.06012,-0.4983,0.4607,-0.5044,-0.2424,0.06113,0.1982,-0.0512,-0.167,-0.5225,0.4094,-0.2181,-0.5015,-0.262,0.2676,-0.04602,0.06287,0.1136,-0.02818,-0.1416,-0.4355,0.0819,-0.04712,-0.4111,0.2473,0.06726,0.6147,-0.2292,-0.03976,0.0418,-0.05176,-0.267,-0.0658,-0.2969,-0.3352,-0.04248,0.558,-0.2676,-0.1731,0.327,-0.345,-0.062,-0.04388,0.95,0.1934,0.1733,0.2017,0.2408,-0.357,-0.08154,0.01059,-0.0733,0.2292,-0.1292,0.2727,0.03107,-0.056,0.411,0.08185,0.2627,-0.0864,0.0389,0.2339,-0.213,0.531,-0.0417,0.507,-0.2507,0.3237,-0.1423,-0.08154,-0.0404,0.1848,0.4998,0.342,0.1092,0.0329,-0.3284,-0.1823,0.284,0.1388,0.02968,-0.2507,-0.10144,-0.1945,0.2017,-0.0846,0.2666,-0.1837,-0.2744,-0.04172,0.04663,-0.7524,-0.3481,-0.1349,-0.2893,0.521,0.332,0.089,-0.1154,-0.1755,-0.10077,0.02142,-0.1581,-0.07104,-0.1603,0.1032,-0.2384,-0.0533,-0.1276,-0.1697,0.2144,-0.00813,-0.06213,-0.1082,-0.1664,-0.04916,-0.2314,0.1134,-0.0979,-0.2673,0.3252,0.5835,0.3728,0.03525,0.0909,-0.1826,-0.4116,0.0631,-0.03888,-0.158,-0.4148,-0.06757,-0.2888,0.1862,-0.05426,0.2637,-0.4324,0.6597,0.01862,0.1504,0.00222,0.488,-0.1646,0.02698,-0.2217,0.0714,-0.4016,-0.4258,-0.2268,0.02997,0.0673,0.1787,-0.01012,0.0437,0.0849,0.02017,0.2366,0.3296,-0.1917,-0.363,0.1637,-0.1082,-0.4253,0.09564,-0.2269,-0.0758,0.3804,-0.0656,0.10675,0.3765,0.5176,0.01077,-0.652,-0.61,0.1102,0.1114,0.01434,0.602,0.3328,0.2542,-0.2162,-0.0632,-0.1835,-0.178,-0.4456,0.2029,-0.11145,0.151,-0.1987,0.0685,-0.3735,-0.05005,0.1934,0.3481,0.3843,-0.4478,-0.02367,-0.1422,-0.08746,0.05515,0.0742,-0.11426,0.2634,0.132,0.03119,-0.06433,0.4053,-0.2067,-0.12274,-0.1659,0.01967,0.4224,0.1112,0.2007,0.2861,0.1929,0.38,0.0229,0.458,-0.0766,-0.2129,-0.637,-0.4736,0.2815,0.1616,0.2101,0.006817,-0.2166,-0.605,0.01608,-0.3792,-0.3027,0.1357,0.02367,0.368,0.268,0.1232,-0.1581,0.1982,0.10657,-0.2123,0.3428,-0.508,0.02373,-0.668,0.2505,0.359,-0.06223,0.0748,-0.3125,0.06256,-0.6523,0.4202,0.002615,0.3591,-0.289,-0.0704,0.0735,-0.2128,-0.1858,-0.1548,-0.4924,0.3367,-0.1042,-0.2969,0.1436,0.285,-0.1132,0.01389,0.2098,-0.08307,-0.4688,0.03387,0.4373,-0.06635,0.2289,-0.1482,-0.4749,0.04453,0.1298,-0.09595,-0.3762,0.3186,-0.0893,-0.1919,0.721,0.746,-0.1583,-0.02943,0.4067,-0.01256,0.2363,0.1193,0.365,-0.4617,-0.18,0.10376,-0.3286,-0.681,0.2664,0.2284,0.0627,-0.0769,0.04544,0.287,0.2288,0.301,0.3206,0.451,0.2568,0.2988,-0.4038,-0.03928,-0.07227,-0.4055,0.1495,0.517,-0.2041,-0.2576,0.405,-0.3328,-0.0177,0.4456,-0.0901,0.1779,-0.3752,0.2208,-0.136,-0.03053,0.1482,-0.3254,0.2441,0.1045,0.09485,-0.135,-0.02312,0.591,0.0537,-0.3154,-0.02992,0.1678,-0.1381,0.1799,-0.0729,-0.316,-0.3794,-0.1854,0.1138,-0.299,0.0993,-0.1179,0.3591,0.28,-0.5083,0.1235,-0.315,-0.1674,-0.524,-0.3423,-0.1733,0.3984,0.2927,-0.177,-0.06207,0.449,-0.3809,0.02617,0.1887,-0.1698,0.3345,0.4204,-0.5312,0.382,-0.1238,0.1702,0.103,-0.3184,0.0742,0.0689,0.3518,0.1251,-0.3555,-0.1929,-0.1892,0.705,0.1661,0.1075,-0.09393,-0.06323,0.256,-0.4272,-0.668,0.268,0.03302,0.153,-0.2411,-0.1355,-0.215,-0.2861,-0.2323,0.09735,-0.529,-0.3928,0.00205,0.1857,0.05554,-0.2527,0.07214,0.01862,0.1509,-0.3064,-0.708,0.0208,0.0669,-0.1132,0.1562,-0.014534,0.08417,0.1322,-0.154,-0.4724,-0.2045,0.2197,-0.1835,-0.05142,-0.02988,-0.2712,-0.3076,0.04996,-0.1361,-0.0873,0.4407,0.1525,-0.0275,-0.3071,0.03195,0.1248,-0.3198,0.0689,0.01538,-0.1327,0.323,0.4797,-0.0858,0.4558,-0.2842,0.1914,0.3022,0.3396,-0.0552,0.11566,-0.3738,-0.1381,0.2913,0.6426,0.3076,-0.1194,-0.1426,-0.04095,0.1415,0.0696,0.4924,0.0571,0.0657,0.4648,-0.2076,-0.2717,0.04922,-0.0388,0.2262,0.282,0.5,0.07654,-0.2026,-0.0004997,0.3538,0.5767,0.1621,0.2517,-0.003567,-0.607,0.02982,-0.1531,0.1272,-0.4238,0.3005,-0.1987,0.324,0.2474,0.298,0.1475,0.8877,-0.42,-0.06903,0.3704,0.2988,0.6816,-0.1533,0.414,0.5615,0.0488,0.3901,-0.2651,-0.2502,0.993,-0.05856,-0.0004668,-0.1757,-0.179,-0.247,0.2573,-0.1322,0.281,0.01067,-0.1648,-0.3037,0.3616,-0.1644,-0.02249,-0.02063,0.4521,0.06635,-1.479,0.02931,-0.1947,0.03232,0.7114,-0.0007377,0.0365,-0.0789,0.06976,0.07086,-0.12305,-0.03348,-0.42,0.1514,-0.000995,0.5283,-0.245,0.1569,0.08984,-0.09106,-0.07983,-0.05624,-0.0701,0.422,-0.108,0.1133,-0.1919,0.06665,0.2222,-0.0982,-0.464,-0.02098,-0.2126,-0.3179,-0.568,0.3313,0.108,0.07806,-0.2996,0.12476,0.2451,-0.1624,0.02512,0.209,0.10565,-0.03726,-0.014725,-0.214,-0.06836,0.252,0.01866,-0.987,0.2837,-0.0987,-0.1324,-0.1278,-0.05392,-0.2727,-0.2069,-0.01923,0.451,-0.4878,-0.717,0.03113,-0.01432,0.94,0.804,-0.2043,-0.1526,-0.0853,0.08887,-0.05496,0.1196,0.1931,0.11304,-0.335,-0.281,0.3564,-0.0732,0.02664,-0.10944,0.1727,-0.185,-0.0628,-0.399,0.02292,0.02194,0.4226,0.14,0.5864,-0.0834,0.11835,-0.0359,-0.09,-0.0001139,-0.0728,-0.01974,-0.1992,-0.2498,-0.1033
bathtub,0.291,0.269,-0.001885,-0.4385,0.162,0.1558,0.0974,-0.3557,0.04483,-0.02357,0.000697,-0.3982,0.3105,-0.4775,0.271,0.06323,-0.0749,-0.01833,-0.126,0.07654,0.1708,-0.1621,0.3757,0.2734,0.01477,-0.2869,0.1516,0.398,0.0741,0.281,-0.413,0.4846,-0.112,-0.1251,0.2054,-0.1642,-0.2423,-0.3115,0.6294,0.149,0.0215,0.0882,-0.1455,-0.1455,-0.1116,0.28,1.103,-0.0864,-0.1382,-0.1311,-0.1473,-0.2343,0.1387,0.2197,-0.2527,-0.303,0.0564,0.2927,-0.2456,0.5034,0.2239,-0.0197,-0.413,-0.73,0.507,-0.011765,0.009895,0.1565,-0.2319,0.7007,0.1543,-0.3665,0.1807,0.3215,0.251,-0.243,0.4194,-0.1102,-0.934,0.2252,0.07635,-0.3542,0.0761,-0.0782,-0.336,-0.1908,0.11676,0.0913,-0.3523,-0.03494,-0.3938,-0.1276,0.254,0.07965,-0.11505,-0.10785,0.0905,0.4775,-0.248,0.2952,0.48,-0.3098,-0.007812,0.1564,-0.3325,-0.0712,0.3572,-0.275,0.2013,0.0258,-0.1116,-0.2373,0.3074,-0.1377,-0.3484,0.2028,0.4604,-0.1299,-0.01755,-0.64,-0.0495,0.0636,-0.212,-0.1825,0.00749,0.3083,0.9365,-0.2279,-0.4219,-0.2603,0.03662,0.1532,-0.02008,-0.1571,-0.003012,0.05414,0.1774,0.1879,-0.4355,-0.2181,0.2417,-0.1664,-0.3323,0.2443,0.1493,0.04846,-0.2338,0.5933,-0.2152,-0.3306,0.1787,0.3594,0.2852,-0.10583,-0.928,0.338,0.00886,-0.402,-0.2241,0.0824,-0.1637,0.4048,-0.03008,0.0865,0.2247,-0.2837,0.01512,-0.05716,-0.3672,0.2477,-0.2417,0.372,-0.1704,-0.1443,-0.01458,0.003,-0.412,-0.2026,-0.219,-0.0801,-0.05594,0.2123,-0.3777,-0.08093,0.1398,0.3652,-0.3457,0.01622,0.5527,0.3916,0.3687,-0.10406,0.2068,0.00928,0.0839,0.0838,-0.47,0.2032,0.0803,0.03842,0.01145,0.03787,0.2068,-0.6016,0.1719,-0.2786,0.0746,0.5435,-0.1074,0.2563,0.2832,-0.0516,0.0407,0.54,-0.2366,-0.0774,-0.1047,0.3005,0.8604,0.3513,0.3435,-0.12103,-0.32,0.2654,0.3447,-0.02898,0.147,-0.261,-0.2712,0.02332,0.1305,-0.07043,-0.1433,-0.08417,-0.2712,-0.11926,0.0472,-0.182,-0.09686,-0.739,-0.256,0.2317,0.0958,0.1295,0.02046,-0.1752,0.1119,0.1422,-0.3806,0.0157,-0.092,0.06866,-0.02779,-0.0755,-0.1553,0.00368,0.2979,0.06134,-0.1572,-0.1544,-0.2228,-0.2015,0.3157,-0.0356,-0.03238,-0.2345,-0.06146,0.3767,0.3118,-0.1548,0.272,0.3247,-0.3718,0.3384,0.2566,0.2273,-0.11707,-0.03964,-0.4016,0.0856,-0.1023,0.633,-0.3682,0.3127,0.1804,0.3235,-0.0308,0.3738,-0.0415,0.3635,-0.09937,-0.2001,0.005833,-0.2659,-0.4072,0.1093,-0.01315,0.1041,-0.2234,-0.01671,0.1986,0.1178,0.235,0.2864,-0.0948,-0.4524,0.37,-0.11255,-0.2664,0.05194,-0.2206,-0.3245,0.2042,-0.2455,0.2333,0.567,0.05942,-0.1467,-0.3767,-0.557,0.4773,-0.1346,0.2234,0.2983,0.1267,0.0604,-0.254,-0.1776,0.07306,-0.4136,-0.744,0.2917,-0.1504,0.5176,-0.1903,0.1881,-0.2683,0.1279,0.3496,0.4868,-0.0933,-0.1685,0.3027,-0.1151,0.0796,0.2761,0.1677,0.0858,0.08167,-0.1516,-0.08453,0.1768,0.1313,-0.0471,0.2432,-0.03937,0.1381,0.2612,-0.0354,-0.0722,-0.02829,-0.0006576,0.6206,0.06238,0.4663,0.0926,-0.1261,-0.7104,-0.77,0.2457,-0.4426,0.2366,-0.328,-0.1599,-0.3516,-0.344,0.05502,-0.294,-0.0919,-0.2576,0.1741,0.2712,-0.1584,-0.04556,0.1381,0.1602,-0.0707,0.2664,-0.2805,0.1032,-0.5347,0.1884,0.3984,-0.05856,-0.03204,-0.6216,-0.0991,0.01736,0.616,-0.3726,-0.2455,-0.2242,-0.05386,-0.02106,-0.0866,-0.07196,-0.02225,-0.10535,0.1764,-0.0914,-0.442,-0.05005,0.2615,-0.2817,0.1531,0.3428,-0.11975,-0.3174,0.1512,0.2861,-0.3186,0.1171,-0.3494,-0.317,0.1252,-0.3142,-0.6323,-0.1862,0.2876,-0.2773,-0.603,0.625,0.658,-0.11066,0.0674,0.2428,-0.0345,-0.00519,-0.1376,-0.1232,-0.1741,-0.577,0.2722,-0.3904,-0.812,-0.10535,0.1884,-0.2842,-0.1411,-0.2449,0.4097,0.3545,0.2006,0.441,-0.08105,0.1494,0.2301,-0.1721,-0.5093,0.012695,-0.2854,0.2822,0.2742,-0.4282,0.03674,0.2593,-0.11237,-0.0714,0.375,-0.1984,0.0641,-0.6626,0.3875,-0.1185,-0.0748,-0.1559,-0.2406,0.4238,0.1494,0.159,0.0012455,0.1646,0.372,-0.1859,-0.2651,-0.04565,0.2223,-0.0704,0.4724,0.2076,-0.007385,-0.2705,0.1776,0.1832,0.2328,-0.0519,-0.129,0.2874,0.11536,-0.277,-0.1836,-0.156,0.0732,-0.1641,-0.04578,0.05728,0.467,-0.1202,-0.2812,0.2986,0.4348,-0.4944,0.12274,0.0814,-0.06464,0.06647,0.4983,-0.4705,0.2123,0.2288,0.1137,0.1884,-0.1382,0.317,-0.0952,0.11743,0.1823,-0.1259,0.0835,-0.5024,0.525,0.2097,0.4739,0.3386,-0.053,0.316,-0.129,-0.896,0.06223,-0.1475,0.2056,-0.2913,-0.2382,-0.072,-0.5044,-0.1737,-0.4924,-0.1499,-0.3315,-0.0465,0.3232,0.04083,-0.1774,0.1177,-0.1282,-0.0007806,0.07446,-0.7407,-0.2328,0.03032,-0.0622,0.1691,0.02283,-0.1616,-0.011055,-0.1536,-0.655,-0.1752,0.0517,-0.003105,0.188,0.1189,-0.1149,-0.0646,-0.04877,-0.00466,0.3645,-0.4788,0.1104,-0.04858,-0.2461,0.2101,0.01523,-0.559,0.0383,0.10913,0.06015,0.199,0.1815,-0.02768,-0.0843,-0.518,0.06033,0.2898,0.324,-0.335,0.0006313,-0.5166,-0.0573,0.2695,0.4438,0.2751,0.01165,0.03265,-0.12,0.0458,-0.3633,0.007156,-0.351,0.383,0.3992,-0.1729,-0.1738,0.2413,0.1675,0.0612,0.295,0.2988,0.2566,-0.3616,-0.2319,0.02008,0.4387,-0.01738,0.2107,0.2656,-0.149,-0.1476,-0.0282,-0.07446,-0.5806,-0.1763,-0.1334,0.10864,0.1696,-0.1804,-0.0963,1.353,-0.5586,-0.2054,0.3335,0.663,0.4146,0.05634,0.35,0.4893,0.384,0.3074,-0.2426,0.01131,0.478,0.12305,-0.2827,-0.2089,0.03152,-0.4053,-0.08997,-0.1943,0.1302,-0.0946,-0.5615,-0.1362,0.377,-0.01788,0.0754,0.03912,0.522,0.2356,-1.237,-0.4844,-0.2042,-0.1017,0.6045,-0.1836,-0.00797,0.1609,0.0799,0.1556,-0.208,-0.0634,-0.628,0.0817,0.1847,0.1147,-0.2385,0.3071,0.1589,0.1901,0.08826,-0.1504,0.2908,0.345,0.07526,-0.05252,-0.0549,-0.05643,0.2932,-0.2712,-0.4116,0.2473,-0.2245,-0.1748,-0.3428,0.2183,-0.0777,0.03903,0.02718,0.2898,-0.00864,-0.024,0.11395,0.1003,0.3992,-0.10944,-0.03122,-0.05957,0.04047,0.2297,-0.34,-0.7954,-0.3435,0.715,0.05026,0.03207,0.157,-0.3972,-0.02147,0.2854,0.1427,-0.4014,-0.3682,0.192,0.08905,1.224,0.6416,-0.0167,-0.1667,-0.0646,0.1786,-0.0281,0.0678,0.3054,0.3389,-0.5044,-0.2491,0.3325,0.05804,0.2408,0.07605,0.2246,0.505,0.01082,-0.369,0.03973,-0.1392,0.05695,0.04147,0.6074,0.2135,-0.0781,-0.07904,-0.3416,-0.1649,-0.108,-0.00717,0.08844,-0.4243,-0.00826
beads,0.1632,-0.2051,0.02783,-0.2272,0.2917,0.4258,0.2466,-0.1154,-0.1274,-0.0877,0.1032,-0.663,0.1411,-0.2615,0.01761,0.1803,0.211,-0.2036,-0.04837,-0.182,0.06586,0.387,0.092,0.1819,0.3428,-0.04733,-0.1538,0.2273,-0.048,0.347,-0.2488,-0.04306,0.03763,-0.05835,0.06042,0.2153,-0.0251,0.05798,0.553,0.199,0.1619,0.04437,-0.3035,0.1321,0.11127,-0.0992,0.698,0.1351,-0.1065,0.1093,-0.4736,-0.04205,-0.07434,0.0711,-0.02835,-0.3933,-0.0171,-0.11237,-0.02003,0.01447,-0.003328,0.1273,0.2035,-0.06107,0.193,0.1477,-0.2123,-0.08777,-0.3433,-0.10205,0.007587,-0.1099,-0.005642,-0.2069,0.03864,-0.1824,0.08325,0.1482,-0.3105,0.219,0.00973,-0.232,0.265,0.0807,-0.3357,-0.1696,0.005234,-0.10693,0.0451,0.497,0.2017,-0.395,0.08417,-0.03207,-0.07385,-0.3257,0.002373,0.1499,-0.2507,0.2382,0.3884,0.0843,-0.1453,0.0917,-0.3652,-0.07294,-0.1743,-0.2124,0.1943,-0.1486,-0.0414,-0.3677,0.0971,-0.1163,0.1705,-0.3408,-0.1321,-0.1163,0.276,0.06033,0.11646,0.2354,0.5615,-0.197,-0.509,0.046,0.5986,0.2593,-0.01434,-0.2301,-0.1092,-0.0249,0.053,0.2101,-0.0514,0.134,0.3118,-0.0846,-0.03053,-0.1182,0.0661,0.05173,-0.1732,-0.2822,0.4956,0.02039,-0.535,-0.1512,0.3528,0.07776,0.05484,0.16,0.08606,-0.2783,-0.2898,-0.3806,0.01505,0.1757,0.0588,-0.07336,-0.10297,0.2534,-0.1661,0.111,0.0877,-0.08984,0.01522,0.141,-0.1013,-0.2917,-0.2277,-0.01098,-0.07477,0.3308,-0.05823,0.1404,-0.2472,-0.1566,0.1345,0.2566,0.05057,0.1261,-0.1101,-0.1598,-0.1437,0.2015,-0.1649,0.02087,0.2218,-0.06525,0.2236,0.06964,0.1967,0.34,-0.02267,0.03001,-0.2384,0.0988,0.1394,0.03552,0.03625,0.4397,0.10876,-0.103,0.1996,0.01306,-0.0864,0.2844,0.1694,0.2358,0.437,-0.113,-0.1835,0.4946,-0.237,-0.08954,-0.3606,0.1571,0.3367,0.7554,0.05914,0.04184,0.02077,0.1665,0.3342,-0.26,-0.1633,-0.2035,-0.219,-0.3306,0.1152,0.011986,-0.03094,-0.1144,0.2108,0.0944,-0.1777,0.28,-0.014626,-0.08185,-0.0786,-0.1359,-0.102,-0.0003583,0.2272,-0.523,-0.1212,0.11365,-0.1415,-0.0565,0.136,-0.1454,0.288,0.1688,-0.5293,-0.01677,0.1868,-0.12494,-0.272,0.00617,-0.154,0.1147,-0.08997,0.2866,0.09625,0.1235,-0.1443,0.3267,0.02084,0.1997,0.04727,0.5312,-0.04953,0.553,-0.01595,-0.4338,0.3062,0.06198,-0.2588,-0.2084,-0.05594,0.4148,-0.01694,0.2139,0.10095,0.1324,0.1161,0.1214,-0.3525,0.1432,0.2605,-0.09985,-0.2272,-0.02289,-0.9863,0.005447,-0.272,0.12354,-0.5586,0.539,0.0274,0.2834,0.461,0.1631,-0.0714,-0.1118,0.3713,0.2651,-0.03027,-0.4795,-0.0745,-0.3267,-0.1057,-0.2607,-0.0063,0.06152,-0.1692,0.2883,-0.1576,0.03995,-0.05298,-0.12,0.04767,-0.0546,-0.0704,-0.02185,-0.001746,0.2136,-0.02113,-0.1542,-0.696,-0.2515,-0.3523,-0.2603,-0.3586,0.4712,-0.10077,0.2339,0.639,0.1571,0.1498,0.1326,0.1909,0.2145,0.1581,-0.07043,0.05756,-0.1499,-0.343,0.01057,-0.1372,0.4358,-0.1218,-0.504,0.0614,0.3306,0.212,0.0958,-0.354,-0.2472,0.1925,0.0909,0.4187,-0.00629,0.2903,-0.4329,0.1277,-0.0634,-0.624,0.4236,-0.208,0.2225,0.06238,-0.04684,-0.2128,-0.1437,0.1497,-0.2114,-0.1043,-0.701,-0.004307,-0.0682,-0.1525,0.124,0.6714,0.3896,0.1611,0.10236,0.06537,-0.618,-0.2766,-0.02805,-0.1489,0.010796,-0.2666,-0.2262,0.5166,0.1774,0.3354,-0.1484,0.1134,0.02875,-0.2206,0.2944,0.1517,-0.12115,0.2086,0.1844,-0.06274,-0.351,0.3909,-0.05765,0.3225,0.1068,0.2878,-0.2532,0.07666,-0.001173,0.2404,-0.1848,-0.1603,0.1675,-0.1417,-0.2988,0.21,-0.5435,0.0693,0.11096,-0.00403,-0.055,-0.503,0.4133,0.0964,0.3213,-0.01263,-0.0982,0.412,0.1869,-0.04852,-0.2224,0.1049,0.1026,-0.0777,-0.0243,-0.2705,-0.08,0.1087,-0.1779,-0.0604,-0.09015,0.2263,0.409,-0.2966,0.2155,0.2825,-0.04965,0.2551,-0.1896,-0.0962,-0.0474,-0.1825,0.266,0.2634,-0.04462,0.244,-0.2262,-0.1901,-0.2262,0.2439,0.0351,-0.05917,-0.3823,0.1544,-0.1909,-0.1355,-0.3708,-0.06744,-0.03314,0.0931,-0.1915,-0.02184,-0.4714,0.552,0.05362,0.10986,0.3665,0.152,-0.1353,0.2496,-0.4082,-0.3186,-0.2494,0.3303,-0.1265,0.0075,0.06464,0.08057,0.135,-0.0901,0.11316,-0.1632,-0.2825,0.02551,0.6934,-0.12463,0.0933,-0.2194,-0.04822,-0.3555,-0.04926,-0.04532,0.1061,0.0758,-0.03882,0.0647,-0.1647,0.2957,0.014404,-0.1547,-0.004177,0.03705,0.013245,-0.08704,-0.1844,-0.09644,-0.1671,0.2462,-0.453,0.1366,-0.2864,0.2732,0.0723,0.459,0.04657,0.1176,0.2673,-0.2257,0.11835,0.3445,-0.284,0.1758,-0.07776,-0.1354,0.01833,0.04813,-0.12354,0.2133,0.02458,-0.2913,0.1489,0.342,0.4707,0.02748,0.007015,-0.01984,-0.4448,0.08984,0.1489,0.00877,0.2698,-0.000828,0.1007,0.301,0.03006,-0.449,0.0119,-0.2778,-0.388,-0.05798,0.0478,0.185,0.04892,-0.09247,-0.11017,0.095,-0.12177,-0.0427,-0.2482,0.259,0.03882,0.1567,0.3708,0.0672,-0.7915,0.1927,0.1428,0.1231,-0.06186,0.1014,0.1539,0.01672,0.03473,0.1328,0.166,-0.1912,-0.5386,-0.0668,-0.564,-0.2122,-0.06384,-0.1942,-0.0498,0.0527,0.01396,-0.03262,0.1526,-0.5923,0.2974,0.3582,-0.03452,-0.00509,-0.0256,0.334,-0.1753,-0.1312,-0.08636,0.04068,0.2407,-0.08435,-0.2446,0.2202,0.0802,0.199,-0.0701,-0.0891,0.0973,0.02469,0.2898,-0.1548,-0.0501,-0.4006,0.1853,0.09686,0.0478,0.2708,-0.04706,0.1095,-0.1117,-0.1462,-0.1326,0.009224,-0.08923,0.00248,-0.06335,-0.1868,-0.05585,0.002747,0.06018,0.481,-0.2094,-0.6377,-0.0982,-0.0764,0.0006638,-0.2537,-0.1714,0.5747,0.0868,-0.01306,0.3008,0.05984,-0.1525,0.1109,0.1545,-0.2158,0.0577,-0.0649,-0.0868,-0.6626,-0.2158,-0.04486,-0.5005,0.0384,-0.173,-0.2429,-0.2124,-0.2067,-0.2637,-0.1993,0.02452,-0.11395,0.01216,0.2568,-0.0363,0.2615,0.3184,0.0953,0.10156,0.109,0.331,0.2466,0.1672,-0.08716,-0.2654,-1.152,-0.1471,0.1766,-0.05832,0.03833,0.02528,-0.1129,-0.2603,0.07794,-0.00973,-0.07294,-0.2405,0.1779,-0.0834,-0.0001528,0.1803,0.4421,0.1665,0.2303,-0.0525,-0.2349,0.1332,0.1426,-0.12067,-0.1366,0.3132,-0.11847,0.7925,-0.147,-0.488,0.0148,-0.4197,0.0934,-0.3135,-0.1255,-0.01753,-0.1636,-0.41,0.1138,0.7944,0.1157,0.008804,0.1066,-0.00525,0.2754,-0.031,-0.2708,0.1735,-0.0683,-0.3657,-0.0818,0.72,0.2861,0.2578,0.3374,-0.0926,0.3745,0.1383,-0.2145,0.1083,-0.1233,-0.2383,-0.04865,0.2441,-0.05838,-0.0794,-0.2031,-0.03494,-0.1813,0.2927,0.05682,-0.3193,-0.0989,-0.3306
