,dim_0,dim_1,dim_2,dim_3,dim_4,dim_5,dim_6,dim_7,dim_8,dim_9,dim_10,dim_11,dim_12,dim_13,dim_14,dim_15,dim_16,dim_17,dim_18,dim_19,dim_20,dim_21,dim_22,dim_23,dim_24,dim_25,dim_26,dim_27,dim_28,dim_29,dim_30,dim_31,dim_32,dim_33,dim_34,dim_35,dim_36,dim_37,dim_38,dim_39,dim_40,dim_41,dim_42,dim_43,dim_44,dim_45,dim_46,dim_47,dim_48,dim_49,dim_50,dim_51,dim_52,dim_53,dim_54,dim_55,dim_56,dim_57,dim_58,dim_59,dim_60,dim_61,dim_62,dim_63,dim_64,dim_65,dim_66,dim_67,dim_68,dim_69,dim_70,dim_71,dim_72,dim_73,dim_74,dim_75,dim_76,dim_77,dim_78,dim_79,dim_80,dim_81,dim_82,dim_83,dim_84,dim_85,dim_86,dim_87,dim_88,dim_89,dim_90,dim_91,dim_92,dim_93,dim_94,dim_95,dim_96,dim_97,dim_98,dim_99,dim_100,dim_101,dim_102,dim_103,dim_104,dim_105,dim_106,dim_107,dim_108,dim_109,dim_110,dim_111,dim_112,dim_113,dim_114,dim_115,dim_116,dim_117,dim_118,dim_119,dim_120,dim_121,dim_122,dim_123,dim_124,dim_125,dim_126,dim_127,dim_128,dim_129,dim_130,dim_131,dim_132,dim_133,dim_134,dim_135,dim_136,dim_137,dim_138,dim_139,dim_140,dim_141,dim_142,dim_143,dim_144,dim_145,dim_146,dim_147,dim_148,dim_149,dim_150,dim_151,dim_152,dim_153,dim_154,dim_155,dim_156,dim_157,dim_158,dim_159,dim_160,dim_161,dim_162,dim_163,dim_164,dim_165,dim_166,dim_167,dim_168,dim_169,dim_170,dim_171,dim_172,dim_173,dim_174,dim_175,dim_176,dim_177,dim_178,dim_179,dim_180,dim_181,dim_182,dim_183,dim_184,dim_185,dim_186,dim_187,dim_188,dim_189,dim_190,dim_191,dim_192,dim_193,dim_194,dim_195,dim_196,dim_197,dim_198,dim_199,dim_200,dim_201,dim_202,dim_203,dim_204,dim_205,dim_206,dim_207,dim_208,dim_209,dim_210,dim_211,dim_212,dim_213,dim_214,dim_215,dim_216,dim_217,dim_218,dim_219,dim_220,dim_221,dim_222,dim_223,dim_224,dim_225,dim_226,dim_227,dim_228,dim_229,dim_230,dim_231,dim_232,dim_233,dim_234,dim_235,dim_236,dim_237,dim_238,dim_239,dim_240,dim_241,dim_242,dim_243,dim_244,dim_245,dim_246,dim_247,dim_248,dim_249,dim_250,dim_251,dim_252,dim_253,dim_254,dim_255,dim_256,dim_257,dim_258,dim_259,dim_260,dim_261,dim_262,dim_263,dim_264,dim_265,dim_266,dim_267,dim_268,dim_269,dim_270,dim_271,dim_272,dim_273,dim_274,dim_275,dim_276,dim_277,dim_278,dim_279,dim_280,dim_281,dim_282,dim_283,dim_284,dim_285,dim_286,dim_287,dim_288,dim_289,dim_290,dim_291,dim_292,dim_293,dim_294,dim_295,dim_296,dim_297,dim_298,dim_299,dim_300,dim_301,dim_302,dim_303,dim_304,dim_305,dim_306,dim_307,dim_308,dim_309,dim_310,dim_311,dim_312,dim_313,dim_314,dim_315,dim_316,dim_317,dim_318,dim_319,dim_320,dim_321,dim_322,dim_323,dim_324,dim_325,dim_326,dim_327,dim_328,dim_329,dim_330,dim_331,dim_332,dim_333,dim_334,dim_335,dim_336,dim_337,dim_338,dim_339,dim_340,dim_341,dim_342,dim_343,dim_344,dim_345,dim_346,dim_347,dim_348,dim_349,dim_350,dim_351,dim_352,dim_353,dim_354,dim_355,dim_356,dim_357,dim_358,dim_359,dim_360,dim_361,dim_362,dim_363,dim_364,dim_365,dim_366,dim_367,dim_368,dim_369,dim_370,dim_371,dim_372,dim_373,dim_374,dim_375,dim_376,dim_377,dim_378,dim_379,dim_380,dim_381,dim_382,dim_383,dim_384,dim_385,dim_386,dim_387,dim_388,dim_389,dim_390,dim_391,dim_392,dim_393,dim_394,dim_395,dim_396,dim_397,dim_398,dim_399,dim_400,dim_401,dim_402,dim_403,dim_404,dim_405,dim_406,dim_407,dim_408,dim_409,dim_410,dim_411,dim_412,dim_413,dim_414,dim_415,dim_416,dim_417,dim_418,dim_419,dim_420,dim_421,dim_422,dim_423,dim_424,dim_425,dim_426,dim_427,dim_428,dim_429,dim_430,dim_431,dim_432,dim_433,dim_434,dim_435,dim_436,dim_437,dim_438,dim_439,dim_440,dim_441,dim_442,dim_443,dim_444,dim_445,dim_446,dim_447,dim_448,dim_449,dim_450,dim_451,dim_452,dim_453,dim_454,dim_455,dim_456,dim_457,dim_458,dim_459,dim_460,dim_461,dim_462,dim_463,dim_464,dim_465,dim_466,dim_467,dim_468,dim_469,dim_470,dim_471,dim_472,dim_473,dim_474,dim_475,dim_476,dim_477,dim_478,dim_479,dim_480,dim_481,dim_482,dim_483,dim_484,dim_485,dim_486,dim_487,dim_488,dim_489,dim_490,dim_491,dim_492,dim_493,dim_494,dim_495,dim_496,dim_497,dim_498,dim_499,dim_500,dim_501,dim_502,dim_503,dim_504,dim_505,dim_506,dim_507,dim_508,dim_509,dim_510,dim_511,dim_512,dim_513,dim_514,dim_515,dim_516,dim_517,dim_518,dim_519,dim_520,dim_521,dim_522,dim_523,dim_524,dim_525,dim_526,dim_527,dim_528,dim_529,dim_530,dim_531,dim_532,dim_533,dim_534,dim_535,dim_536,dim_537,dim_538,dim_539,dim_540,dim_541,dim_542,dim_543,dim_544,dim_545,dim_546,dim_547,dim_548,dim_549,dim_550,dim_551,dim_552,dim_553,dim_554,dim_555,dim_556,dim_557,dim_558,dim_559,dim_560,dim_561,dim_562,dim_563,dim_564,dim_565,dim_566,dim_567,dim_568,dim_569,dim_570,dim_571,dim_572,dim_573,dim_574,dim_575,dim_576,dim_577,dim_578,dim_579,dim_580,dim_581,dim_582,dim_583,dim_584,dim_585,dim_586,dim_587,dim_588,dim_589,dim_590,dim_591,dim_592,dim_593,dim_594,dim_595,dim_596,dim_597,dim_598,dim_599,dim_600,dim_601,dim_602,dim_603,dim_604,dim_605,dim_606,dim_607,dim_608,dim_609,dim_610,dim_611,dim_612,dim_613,dim_614,dim_615,dim_616,dim_617,dim_618,dim_619,dim_620,dim_621,dim_622,dim_623,dim_624,dim_625,dim_626,dim_627,dim_628,dim_629,dim_630,dim_631,dim_632,dim_633,dim_634,dim_635,dim_636,dim_637,dim_638,dim_639,dim_640,dim_641,dim_642,dim_643,dim_644,dim_645,dim_646,dim_647,dim_648,dim_649,dim_650,dim_651,dim_652,dim_653,dim_654,dim_655,dim_656,dim_657,dim_658,dim_659,dim_660,dim_661,dim_662,dim_663,dim_664,dim_665,dim_666,dim_667,dim_668,dim_669,dim_670,dim_671,dim_672,dim_673,dim_674,dim_675,dim_676,dim_677,dim_678,dim_679,dim_680,dim_681,dim_682,dim_683,dim_684,dim_685,dim_686,dim_687,dim_688,dim_689,dim_690,dim_691,dim_692,dim_693,dim_694,dim_695,dim_696,dim_697,dim_698,dim_699,dim_700,dim_701,dim_702,dim_703,dim_704,dim_705,dim_706,dim_707,dim_708,dim_709,dim_710,dim_711,dim_712,dim_713,dim_714,dim_715,dim_716,dim_717,dim_718,dim_719,dim_720,dim_721,dim_722,dim_723,dim_724,dim_725,dim_726,dim_727,dim_728,dim_729,dim_730,dim_731,dim_732,dim_733,dim_734,dim_735,dim_736,dim_737,dim_738,dim_739,dim_740,dim_741,dim_742,dim_743,dim_744,dim_745,dim_746,dim_747,dim_748,dim_749,dim_750,dim_751,dim_752,dim_753,dim_754,dim_755,dim_756,dim_757,dim_758,dim_759,dim_760,dim_761,dim_762,dim_763,dim_764,dim_765,dim_766,dim_767
alligator,0.763,0.5947,-0.2222,-0.3667,0.3296,-0.657,-0.5195,-0.2437,0.04172,0.0744,-0.3293,-0.3992,-0.6157,-0.8135,0.4949,-0.3318,-0.625,-0.1085,0.6626,0.0516,-0.3677,-1.72,-0.4348,-0.1781,-0.1605,-0.1584,-0.3855,0.534,0.06305,0.625,0.1791,0.5024,0.659,0.3975,0.881,-0.1475,0.4114,0.02422,0.624,0.4832,-0.1059,0.2123,1.304,-0.1417,0.3938,-0.8296,0.858,-0.611,-0.3296,-0.814,-0.1598,-0.2426,0.8257,0.9556,-0.1437,0.4834,0.2764,-0.1108,0.6816,-0.4243,0.976,-0.08545,-0.2598,0.3628,0.3542,0.9585,-0.06146,0.2825,0.503,-0.1148,0.628,0.3384,0.715,0.1337,0.5845,0.3115,-0.398,0.2798,-0.6743,-0.01286,0.8384,-0.4153,0.9077,-0.1698,-0.0251,0.2615,0.2751,-0.5303,-0.3296,-0.1533,0.5522,-1.231,-1.288,0.739,0.3528,-0.1794,0.2197,-0.833,0.328,0.00626,0.994,0.2333,0.09247,-0.947,-0.0979,1.079,-0.2339,-0.987,-0.09045,-0.8496,-0.4146,0.3008,-0.1926,-0.3186,-0.8843,0.09814,0.3076,0.0005965,0.7734,-0.183,0.2118,0.2676,0.253,-0.02495,0.081,-0.4836,-0.1138,0.2216,-0.646,0.2842,0.626,-1.098,-0.2534,0.04147,0.09186,-0.588,0.4473,-0.7803,0.1042,0.3452,-0.402,-0.5474,-0.02986,1.3125,-0.385,-0.05502,0.06604,0.4214,-0.2115,0.27,-0.5986,0.07446,0.2437,-0.4766,0.4216,0.309,-0.2344,-0.4802,-0.1467,0.56,0.595,0.3447,0.0047,0.41,-0.6934,-0.632,0.5596,0.033,-0.2333,0.637,-0.02069,-0.4236,0.158,0.1489,0.01151,0.573,-0.4094,-0.764,-0.4988,0.3154,0.2476,0.799,-0.0863,0.10895,0.4714,0.4897,-0.2861,0.7656,0.9634,0.578,-0.4622,-0.01417,0.266,0.4697,-0.3442,0.788,0.783,0.2593,0.0671,0.1586,0.663,-0.4272,0.0807,-0.3904,-0.08344,0.1763,0.2341,-0.2385,0.6826,-0.814,0.512,0.475,0.2266,1.205,-0.013565,0.6924,0.7466,0.3577,-0.371,0.224,-0.3455,-0.387,0.521,-0.06976,-0.0795,-0.1619,-0.1815,-0.5312,-0.748,-0.3408,-0.2522,0.521,0.7334,-0.2417,-0.1682,0.1521,0.8496,-0.3208,0.04242,0.5747,0.2078,0.05548,1.105,-0.13,-1.527,-0.572,0.3655,-1.426,0.237,-0.5513,-0.2727,0.2817,0.1704,-0.3892,0.6577,-0.4094,0.4255,1.051,0.0496,-0.3105,0.4316,0.6035,-0.541,-0.367,-0.527,-0.248,0.283,-0.09705,0.5825,-0.2585,-0.06067,-0.1904,0.02925,0.2844,-0.1825,-0.8,0.11127,0.2078,-0.2676,-1.265,0.0784,-0.4146,0.6123,0.315,0.355,0.3247,0.664,1.102,0.51,-0.287,0.3525,-0.1814,-0.3828,-0.1718,-0.913,-0.01037,0.4856,-0.129,0.0873,0.771,0.4062,0.576,-0.1142,-0.5874,0.4927,-1.13,-0.1938,-0.45,-0.3047,-0.2852,0.42,-0.5405,0.01124,-0.5127,0.5474,0.01656,0.401,0.6655,0.1826,0.3628,0.668,-0.268,0.4277,-0.478,1.301,0.587,-0.6772,0.4617,-0.545,-0.1671,-0.4934,-0.763,0.5376,0.3066,0.1746,0.6914,0.2275,-0.1265,0.08624,-0.418,0.5474,-0.2744,0.665,-0.4568,-0.0904,-0.7314,-0.7515,-0.0787,-0.1006,-1.511,-0.03677,-0.3975,-0.4475,0.4983,-0.4656,-0.1854,0.2158,-0.1908,-0.3,-0.3093,-0.796,-0.04578,0.913,-0.2576,-0.637,0.4543,0.7363,-0.1147,-0.4985,0.2532,0.0183,0.10736,0.1349,0.383,-0.7285,-0.493,0.3467,-0.465,-0.2023,-0.0857,-0.1888,-0.187,-0.4204,0.2245,0.4285,-0.5327,-0.596,0.3933,-0.502,-0.2668,-0.02177,-0.0616,-0.12085,-0.1316,0.462,0.696,-0.3306,-0.3015,-0.5273,0.04025,0.6797,-0.408,-0.293,0.2708,0.2104,0.2004,-0.4834,-1.021,-0.4648,-0.9688,-0.568,-0.5645,-0.201,0.2832,0.251,0.01,-0.375,0.1359,-0.03845,0.3904,-0.6094,-0.7837,-0.05917,0.6934,0.06088,0.4595,-0.67,-0.02213,-0.014725,-0.1342,0.7314,-0.947,-0.905,0.2812,0.772,0.07336,0.2339,0.5996,-0.4985,0.2847,-0.0473,0.7188,0.9956,0.561,-0.251,-0.847,-0.498,-0.2844,0.93,0.4126,-0.3176,0.28,0.1371,-0.212,-0.3523,-0.2308,0.336,0.2932,-0.78,0.0204,-0.449,0.8677,0.9263,0.06964,0.1981,-0.03638,-0.05872,0.1284,-0.4822,-0.687,0.3145,-0.4834,-0.077,-0.1498,-0.1826,-0.6445,0.6606,-0.6646,0.483,-0.328,0.5366,-0.455,0.3022,0.89,-0.4565,-0.2079,0.424,1.04,0.5273,0.379,-0.16,1.043,-0.2935,0.7866,-0.994,-0.7285,0.03111,-0.648,0.2286,-0.4473,-0.757,-0.5938,-0.775,-0.7124,-0.05103,0.402,-0.406,-0.2246,0.631,-0.586,0.02612,0.1294,0.742,0.2773,-0.11304,0.5107,-0.3835,0.4648,-1.405,0.2751,-0.471,-0.1061,-0.1881,0.2588,0.4019,0.4177,0.3013,0.785,-0.3413,0.1981,-0.658,0.2048,0.5713,-0.4753,0.296,-0.404,0.04587,1.083,-0.721,0.4563,-0.286,-0.3984,-1.116,-0.8286,0.4465,0.0993,0.5557,-0.2856,0.641,-0.208,0.02951,-0.672,-0.7935,-0.3179,-0.332,0.1359,-0.6597,-0.0851,-0.1231,0.2488,1.087,-0.2542,-0.2837,0.2559,-0.391,-0.1648,-0.08826,-0.554,0.06647,0.563,0.9043,-1.09,0.03595,0.9375,-0.1823,-0.85,-0.1982,-0.8135,-0.3298,1.297,0.3535,-0.258,0.8184,0.4194,-0.09033,0.532,-0.2703,-0.1482,0.6436,0.819,-0.2815,0.725,0.98,-0.286,-0.0591,0.0639,-0.3599,-0.64,-0.9526,0.332,0.4275,0.39,0.0927,0.4873,-0.722,0.05127,-0.6846,-0.3481,0.1161,0.05746,0.0729,-0.4993,0.3586,-0.358,0.3018,-0.2283,0.4746,0.6606,0.5483,0.10583,0.3384,0.754,0.2566,1.344,-0.0658,-0.7637,0.0835,0.3164,0.1672,0.7163,0.1395,-1.014,0.3167,-0.3472,-0.06525,0.516,0.942,0.007187,0.009766,0.2427,-0.1947,0.1284,0.0022,0.04147,-0.1388,1.019,-0.4573,-0.824,-0.518,-0.2366,-0.524,0.5186,-0.143,0.4263,-0.4685,0.6396,-0.3938,0.4192,-0.415,-0.947,-0.03848,-0.894,0.535,0.08636,-0.1721,0.2556,-0.09143,0.639,-0.755,0.519,-0.2289,-0.03116,-0.3455,0.998,1.254,0.922,-0.6157,-0.1602,0.4932,-0.194,-0.0076,0.1293,-0.819,-0.5767,0.1807,0.5854,0.0727,-0.04492,0.2076,0.1099,-0.677,-0.2788,-0.3433,1.004,0.2347,-0.632,0.3257,0.4695,-0.1652,-0.2169,-0.2664,-1.039,-0.1109,0.3503,-0.439,0.875,0.578,0.1927,-0.7285,-0.009026,-1.262,0.4805,-0.2053,-0.273,-0.05154,-0.0858,-0.609,-0.0537,-0.7183,0.3499,0.5957,1.07,-0.00995,0.03638,-0.4468,0.1842,-0.4265,-0.8315,0.467,1.407,-0.5337,-0.2292,0.4365,0.68,0.1841,0.2185,0.501,-0.1455,0.02318,0.05026,0.00777,0.12415,-0.1133,0.2522,0.3289,-0.04282,-0.2627,0.5493,0.0511,-0.2834,0.854,-0.3633,0.3667,0.576,-0.708,0.261,-0.3157,-0.7866,0.608,-0.1554,-0.4163,0.406,0.567,0.6123,-0.2051,-0.1759,-0.03043,0.4485
ankle,0.7153,0.4382,-0.1182,0.3574,0.0968,-1.321,-0.1484,-0.6523,-0.36,2.273,0.11523,-0.7847,1.756,-0.8486,0.1849,1.195,0.1503,0.4373,1.322,-0.539,0.463,0.4968,-0.2278,0.04425,0.7744,0.914,-2.762,-1.764,-0.768,1.273,-0.727,-1.36,-0.07263,1.645,-2.268,-0.044,1.779,1.987,-0.03793,-0.288,-1.029,0.4255,-1.429,-0.1037,-0.3047,0.536,-0.9805,-1.851,0.726,0.2052,0.258,-0.8276,-1.919,-0.12494,-0.2307,1.424,-0.3875,0.6973,0.8325,0.9707,-0.264,0.6875,1.082,-1.291,-1.991,1.113,0.3237,0.3,-1.958,-0.4773,0.161,-1.753,-1.415,0.527,-0.01166,0.0842,-0.4773,-0.4302,1.395,0.938,-0.814,1.385,0.8013,-0.7085,0.7944,-0.2194,-1.285,0.6626,1.903,-0.2537,1.613,-0.2407,-0.9556,-2.19,-0.1466,-0.707,0.5767,-0.1722,-0.725,-0.03677,-1.814,0.2227,-0.3499,0.769,1.879,-1.414,-1.355,0.388,-1.417,0.7637,0.414,-0.2883,0.673,1.316,0.7285,-1.101,-1.039,-1.588,0.2903,-0.716,0.416,-0.2769,-0.6113,-0.443,-0.4475,0.5464,0.1578,1.649,0.279,-0.86,0.3064,0.3528,-0.791,1.098,-0.1786,-0.689,1.539,-1.173,-0.2347,0.791,0.864,-0.2305,1.771,-1.206,0.0715,0.7505,1.036,1.722,0.722,-1.509,-1.016,-0.7563,-1.642,0.1361,-1.187,-0.645,-2.129,0.4377,0.2615,-1.958,-0.67,1.754,2.201,0.775,-0.1697,0.6978,-0.0376,-1.027,-0.252,-1.7705,0.777,0.4355,0.8867,1.328,-1.162,0.2224,-0.1835,1.519,0.603,-0.586,0.3289,-0.003284,1.005,-1.166,-1.537,-1.399,0.06775,0.4854,1.813,1.061,1.093,0.6787,-0.726,1.625,-0.4104,-0.2465,-1.392,0.812,-1.021,-1.475,0.185,0.4941,-1.128,1.54,-2.012,0.09265,0.663,0.5625,2.041,0.1378,0.5312,-0.6704,-2.293,0.2299,-2.545,-0.664,-0.3276,-0.4468,-0.983,0.986,0.325,-0.1573,0.4004,-2.232,-0.818,1.417,-0.6978,2.068,0.4175,0.612,1.145,-0.07,0.3708,2.39,-1.488,-0.8457,0.331,0.8125,1.806,-1.288,-1.23,1.421,-0.7886,0.9004,-0.1008,-0.3372,0.6055,-0.01047,1.996,1.345,1.668,-0.3308,1.807,-0.6406,-0.7896,-1.632,-1.029,-0.5957,-0.4944,-0.1305,0.0503,0.576,1.686,-0.4033,0.4966,0.3625,-0.3472,2.295,-3.611,0.2451,1.0625,0.7007,3.459,-0.03622,-1.346,-1.629,0.4424,0.3347,0.762,-0.772,0.1083,-0.1512,-1.275,-2.117,0.2095,-1.858,-1.076,-1.955,-0.5654,1.459,0.1947,0.1625,0.8613,1.323,0.1593,0.565,1.756,1.286,-0.8813,-2.934,-0.3706,1.217,1.239,-0.05322,-0.6895,1.069,-0.9414,0.1375,1.149,1.849,-0.298,0.76,1.148,0.8022,0.6235,2.525,-0.6733,0.3923,0.9805,0.2573,1.078,-1.147,1.067,0.6953,-0.0001785,0.4595,1.288,0.7563,0.5117,0.9575,0.1538,-1.873,-2.436,1.779,-1.665,-1.581,1.101,0.9395,0.1714,-0.7065,-0.06757,-0.863,-2.223,1.374,0.621,-0.6387,0.479,-0.891,0.704,-0.2812,0.9585,-1.187,-0.8667,-0.2366,-0.4976,0.1111,-0.31,-1.128,-0.0593,-1.432,0.7163,0.01389,-0.3018,1.109,0.9526,0.4148,-0.4795,1.073,0.7324,1.962,-0.697,0.7583,1.115,-1.35,2.555,0.7485,-0.05975,1.812,-0.498,-1.783,-1.29,-0.744,0.3071,-1.447,1.623,0.5234,1.963,-0.5737,-0.3057,1.561,0.305,-0.3389,-0.3545,-0.4077,-0.3074,0.1088,-0.03503,-0.2448,-0.445,0.1396,-0.502,-1.049,1.09,-0.001565,-2.213,-1.004,1.227,2.34,0.5923,-0.542,0.9785,-0.727,0.5596,-2.447,1.079,0.9478,0.748,-1.825,0.1853,-0.64,0.9116,-0.3904,0.421,-0.3179,-0.388,-0.1637,1.399,0.03302,-0.9253,-1.022,-0.5435,-1.205,-1.864,-0.06476,-0.7656,-0.954,-2.395,-0.3035,2.057,0.2954,1.53,1.302,-1.632,-1.314,1.179,0.4077,0.3684,0.587,-0.4211,0.1453,-0.9497,0.0917,-0.9194,-0.903,0.1975,-1.12,-0.656,-0.9375,1.285,-0.2844,0.662,-1.633,-1.073,-1.331,-1.286,0.4243,1.721,-1.5,-1.276,-0.9907,-0.00715,0.3853,1.326,-1.051,-0.0668,-1.01,0.3196,1.818,-1.406,-0.6235,1.132,-1.02,-0.00855,-2.553,1.856,-0.1875,-0.6133,0.429,0.6753,1.836,-0.2085,1.066,2.008,-0.3264,1.423,0.877,-0.0748,0.1636,1.251,1.551,-1.123,-1.313,1.38,-0.4763,0.978,-0.7524,0.2668,-1.571,-0.7827,1.433,0.574,-1.601,0.7876,-0.1127,-1.089,0.679,0.11786,0.885,-0.875,1.148,0.4954,-2.648,1.674,-0.867,0.03342,-0.01098,1.397,-1.063,-0.4727,0.3118,1.062,0.9917,1.065,1.593,-0.0746,0.1812,0.748,0.821,1.042,1.43,0.869,2.873,-0.1351,-1.008,-0.4998,1.998,1.165,2.941,-1.115,0.647,-2.611,0.6626,0.945,-1.082,1.303,-0.3115,-0.655,0.168,-0.11597,-0.391,-0.5464,-0.7744,0.4023,1.397,-0.867,-1.125,-0.8413,0.901,1.047,-2.107,-1.786,0.9507,-1.443,-0.456,0.2258,0.2908,2.125,1.041,0.267,-1.638,-1.426,1.573,-2.408,0.1953,-0.796,-0.7554,1.29,0.3354,-0.4243,-1.541,-0.4304,1.17,-0.05777,0.2625,-1.045,-0.1726,0.8115,0.543,0.1827,0.4556,0.63,0.6523,-0.08844,-1.108,1.345,0.9106,-0.1153,-1.541,0.891,1.123,-1.073,0.005184,-0.5625,-0.0813,-0.5117,0.653,-0.01254,-0.505,0.2051,0.2302,1.318,-1.056,-0.8613,-0.914,0.632,0.069,1.723,1.147,-0.2886,2.0,-0.6123,-0.1233,0.5283,-0.0551,0.2345,0.272,-0.2612,-0.3914,0.569,-0.804,1.409,1.496,0.735,0.2642,-0.08875,-0.09106,-0.7524,0.919,-0.707,-0.9326,0.6094,-1.188,-0.1282,-0.4402,-0.3489,0.2703,0.4316,1.026,1.337,-0.1964,0.671,2.291,-1.104,-0.3499,0.972,1.7705,-0.08136,-0.088,0.04703,-3.389,-2.28,-1.735,-0.1783,0.529,0.3643,0.643,0.9297,-0.7363,-0.4236,1.891,0.4841,-0.4583,0.557,-0.1584,-2.57,-1.016,1.22,1.327,-1.225,0.7964,0.2556,-0.8823,2.01,0.1592,-2.04,-1.311,-0.76,0.1757,0.4636,0.5957,0.03162,-0.04037,1.137,-0.9546,1.547,-0.7314,0.1313,1.097,0.2651,0.7837,-0.273,2.053,-0.3708,-0.678,1.283,-0.8843,0.669,2.537,-0.9277,1.3125,1.271,-0.10754,-0.2295,0.7383,0.4873,0.882,0.5703,-0.1504,0.4363,-1.128,0.886,-1.123,-0.63,-0.586,-0.2576,-2.834,1.335,-0.9043,0.578,-1.127,-0.387,0.296,-1.511,-1.329,-1.919,1.34,0.0388,-1.233,0.4287,-0.526,-0.00828,-0.4202,-2.424,-0.511,0.7695,-0.517,0.252,-0.03812,0.8745,-0.953,0.254,-0.767,-0.5317,-1.433,0.2107,-0.8076,0.736,-0.2744
apple,-0.4988,-1.422,1.621,-0.517,-0.2903,1.784,2.615,0.6416,1.326,1.986,0.5605,-0.765,1.357,1.726,-1.228,-0.3286,1.8125,-0.3103,-0.2827,0.125,1.935,1.025,2.223,-0.002802,-0.7617,-0.439,-0.0625,-0.1368,-0.793,-0.976,1.131,-1.755,0.7847,0.2003,-0.0873,0.5415,0.651,0.3674,-1.496,-0.3103,-0.2019,-0.154,-0.4011,1.049,0.2622,-0.2998,0.05524,1.004,-0.607,1.225,1.135,-0.0673,-0.389,-0.4282,0.529,-0.0526,1.142,-1.323,-1.102,2.107,-1.09,-1.191,0.4775,-0.7056,-1.581,-0.1733,-0.812,-1.309,0.07465,-2.418,-1.64,-0.7563,-1.361,-1.715,-2.36,-0.699,-1.363,0.983,0.787,2.248,0.117,1.908,-0.1665,1.751,1.981,-0.515,-0.573,-0.2864,0.0214,0.6245,1.869,1.262,0.6304,1.258,-0.8706,0.8203,0.4797,0.2664,1.188,-0.611,0.2583,1.683,-1.191,0.1632,0.1838,0.3945,1.728,-1.18,1.188,0.4202,-1.066,-1.114,-0.1467,-0.8467,0.7397,0.1774,-0.992,0.0865,-2.105,0.3945,1.512,-0.798,1.23,-1.937,-1.021,1.211,-0.1027,-0.36,2.193,-0.893,0.9614,1.447,0.651,1.847,-0.5303,0.4368,-0.352,-0.2778,-0.8257,-0.3142,0.2893,0.3901,-1.08,-1.306,0.4312,2.04,-0.3335,-1.045,1.503,2.525,0.7095,-0.2952,-0.505,-0.424,0.4985,-1.712,-0.1167,0.534,1.483,0.8486,0.0911,0.1783,-0.06836,0.2136,0.3916,1.274,-1.809,1.234,1.623,-0.1444,-1.1045,-0.905,2.408,-0.2346,0.097,0.4868,-2.129,2.318,1.741,1.231,-1.126,0.4893,0.003115,-0.984,1.65,-1.493,0.81,-0.074,-1.926,-1.173,-1.239,-1.31,-0.905,1.208,-1.871,-1.715,-2.768,1.567,2.307,1.31,-1.667,1.15,0.5703,1.195,-1.578,-0.741,-1.198,1.364,0.776,-0.5425,-1.211,-1.155,-1.341,-1.56,-1.099,-1.18,0.1785,0.1633,-0.2551,0.134,1.758,-0.639,-0.7085,-1.862,0.1066,-0.1897,0.995,0.739,-0.02257,1.335,0.8447,-1.654,-1.133,0.436,1.602,1.064,0.05576,-0.63,-0.676,0.261,-1.486,-0.947,0.649,-0.8037,-0.442,0.3054,-1.917,1.089,0.713,0.4373,1.354,-2.014,0.46,1.283,-0.933,-0.985,-1.336,-0.8223,0.02126,0.932,2.3,0.3643,1.561,0.7646,1.765,0.6807,-1.428,0.17,-0.533,1.253,-1.298,-0.2583,-0.225,0.296,2.506,-0.5874,0.1619,0.1792,-0.10297,1.376,-1.269,-0.251,1.348,-0.724,-2.34,0.0935,-1.511,-0.2954,-1.996,0.2386,0.335,-0.2656,0.2401,0.317,-0.8,-1.003,-0.651,0.634,-0.4438,-1.174,0.791,0.05142,3.225,-1.017,0.07117,-1.036,-0.439,-2.227,0.993,0.02463,-0.957,1.387,-1.497,1.329,-0.02557,0.4404,0.2069,-0.5503,0.435,0.3813,-0.7515,0.615,-0.00883,-1.566,0.8784,-0.9634,0.2239,0.2286,0.1241,1.154,0.968,-0.2347,0.969,-0.1165,0.835,-0.503,-2.057,-0.5,0.1343,-0.2092,-1.342,-0.10175,0.4495,0.884,-2.846,0.602,0.4639,-1.735,0.2141,0.8633,-1.2,1.691,0.8257,-1.038,0.1967,-1.131,-0.508,2.73,1.294,-1.948,2.19,-1.236,-0.4128,0.8486,0.2499,-0.976,-0.151,0.6963,0.595,-0.6226,1.46,-0.1208,-1.892,-0.3728,-2.72,0.08203,0.4277,1.622,0.4758,-1.478,-0.8857,0.906,0.4314,-1.555,-1.569,1.6875,-0.0303,-1.77,1.598,1.28,1.268,0.5527,-1.351,1.482,0.4712,-0.708,1.622,0.9673,-0.542,-1.929,0.1334,-0.5107,-0.0936,0.285,0.884,-0.1169,1.416,1.279,0.3152,1.025,1.828,-1.169,0.983,-2.025,-0.5366,-2.533,0.5464,-1.383,0.05246,-1.209,1.037,0.6455,0.004967,-0.473,0.2268,-0.8247,-0.0432,-0.1514,-1.184,0.3503,-0.763,0.3052,0.3325,1.228,-1.47,0.8955,0.285,-0.8984,1.287,-0.416,-0.3594,-0.4688,0.02216,0.541,0.4375,-0.2673,0.1469,0.6885,0.2554,1.628,-2.908,-0.701,1.698,0.31,0.95,1.877,-0.4485,0.4524,-2.203,-0.4763,1.767,-0.2893,-0.7583,0.959,-0.321,-1.524,0.557,-1.253,2.436,1.82,-0.3633,0.766,-0.7173,1.999,-0.02155,-0.3281,0.4336,0.985,-1.21,-0.969,-1.989,-1.509,0.4048,-2.066,1.02,-1.839,-1.885,-1.134,-0.637,-0.3948,-0.6807,-0.9575,0.4783,-1.853,-0.0898,1.22,-0.6016,-0.1825,-0.4993,0.969,-1.642,0.802,0.4956,2.887,1.361,-0.56,-0.885,1.815,-1.774,0.422,-0.532,-0.3623,-1.316,-1.007,2.041,1.281,1.3955,-0.12494,0.884,-2.088,0.593,1.314,-0.4802,-0.3623,-2.182,-1.403,-0.216,0.2815,-0.4988,0.6963,0.779,0.664,0.529,0.11865,0.559,-0.2842,-0.07184,-0.9385,0.8525,-1.95,2.125,-0.7266,1.235,1.007,-0.542,1.702,-0.6064,0.4592,-0.26,-0.5303,-0.0361,0.54,0.3804,0.1897,-1.323,-2.086,2.285,1.987,0.12213,0.585,0.0414,0.4246,-1.193,-0.143,-0.02153,-0.1909,0.4463,-0.4568,-2.51,0.0415,-2.383,-1.574,0.634,0.4656,0.4644,0.725,0.2429,2.092,-1.294,-0.6685,0.9507,-0.2048,-0.1952,-1.475,-0.0952,-0.1594,-0.3655,0.93,-0.8027,1.015,-0.3955,-0.5293,-2.352,-1.345,-1.273,-0.00824,-0.3147,0.6855,1.596,-3.191,0.764,-0.539,0.3445,0.651,0.7974,0.5986,-0.2698,1.821,1.549,0.129,-0.03198,1.069,-0.1722,1.102,0.0968,-0.1117,-1.047,-0.949,-2.564,1.169,-1.571,1.284,-0.8037,-2.303,-1.334,1.133,-0.2269,1.513,1.497,-0.2698,0.791,0.1892,-1.637,2.44,0.7534,-0.6597,-1.041,-1.442,0.529,-0.3928,0.2515,1.491,-0.937,0.341,0.961,-2.027,-0.4968,0.5044,-1.392,3.041,-0.9844,-1.47,1.286,-1.12,-0.005856,0.9263,0.062,-0.9,-1.748,1.015,0.4849,1.66,-0.825,0.5996,-0.915,-0.296,-2.39,0.02187,0.9653,0.4458,-0.3064,0.418,-0.242,-1.485,1.518,-0.6235,1.383,-0.1053,0.7686,0.4639,-0.2113,0.2617,1.409,0.004845,-0.9556,1.214,-0.2473,-1.563,1.244,-1.904,2.21,0.359,0.5767,-1.423,-1.569,0.03986,-1.231,-0.435,0.2,1.032,1.38,1.798,0.3564,0.10504,0.666,-0.959,-0.548,-2.535,-0.735,-0.2241,1.35,-1.35,0.77,-0.971,-0.4973,0.1754,1.285,0.1975,1.097,-0.3435,1.048,-2.664,0.2042,0.833,-1.128,1.511,-0.4604,1.115,0.602,0.2737,1.136,-0.2413,-1.852,-1.0625,-0.3657,-0.07074,-1.001,2.055,-1.205,1.056,0.4937,-0.788,-0.5415,-0.0864,-0.6816,0.1987,-0.011086,0.9937,-0.2229,1.115,-2.395,1.563,2.1,-0.7104,0.568,-0.6,-1.373,0.4888,-2.04,0.829,-0.564,-1.493,-0.294,1.215,-0.4646,1.541,2.346,-0.2396
applesauce,-0.2825,-0.1818,-0.1816,1.276,0.9697,0.4985,-0.4294,0.5703,-0.0434,-0.6606,0.3015,-1.591,0.401,0.675,-1.148,-0.515,0.78,-2.195,-0.4797,1.434,-1.031,-1.033,-0.705,1.001,0.3367,-0.2947,-0.9907,1.158,0.974,0.7163,0.5234,0.02538,-0.3098,1.558,-0.0957,0.698,-0.2827,1.7,0.3323,-1.493,-0.6445,0.5645,-0.8735,0.707,-1.097,0.2377,1.096,-0.1458,1.202,0.1586,0.014656,0.7783,-0.293,1.706,-0.1737,-1.663,-0.5493,0.02399,-0.41,-0.734,-1.153,0.339,1.794,-0.1947,-0.7607,0.3828,1.669,-1.856,-0.132,0.04803,0.0002627,-1.0205,0.04956,0.01695,0.2566,-0.799,-0.6885,-1.161,0.1782,1.503,-0.378,-0.8335,-0.7773,0.793,1.052,0.7686,0.2162,1.414,-1.17,0.925,-2.072,0.4612,1.66,-1.022,-2.96,-0.8315,-0.0377,0.08215,-0.553,1.037,0.2974,0.9365,-0.797,0.2595,1.819,-1.094,-1.897,-1.595,0.3477,-1.043,-1.166,-0.9785,1.234,-0.505,0.92,0.1387,-0.1792,0.136,-0.0777,0.00723,1.139,0.1691,-0.6914,0.4792,0.549,1.663,0.09174,-0.8115,0.2954,0.1886,-0.824,-0.1028,-0.7793,-0.00998,0.1263,0.4414,0.7983,-0.3406,1.479,-0.02945,-1.037,-1.816,-0.2307,-0.736,1.634,-0.201,-0.3247,0.862,1.182,-1.592,-0.2488,0.399,1.057,0.6714,-2.342,-0.337,0.3506,1.909,0.1865,-0.2515,-1.372,-0.3218,0.309,0.514,2.014,0.02202,-1.316,1.806,0.03152,0.339,1.107,0.0472,-0.4592,-0.3933,-0.2053,1.218,1.028,-0.3567,-1.006,1.456,0.1238,-0.3772,-0.3545,-0.5537,0.659,0.3037,-1.014,0.3857,0.471,-1.108,-0.992,0.4001,-0.1054,0.9355,-0.1659,-1.297,-0.8237,-1.015,-0.1925,1.155,0.8315,2.553,-0.4275,0.9683,-0.1157,1.408,0.4106,1.083,-0.117,-0.2754,1.247,-0.4727,0.858,-0.09076,0.2986,-0.971,0.812,1.321,1.325,-0.4243,-0.3347,-1.445,-1.237,-0.1714,0.006363,-0.4058,0.0276,0.7266,0.1484,-1.91,-0.5654,0.119,-1.409,-0.1676,-0.4832,-0.799,-0.7593,1.49,-0.1703,-1.846,-0.987,-1.164,0.256,-1.207,0.458,-0.756,-0.223,-1.106,-0.835,0.891,0.0481,-0.986,1.471,0.1619,0.724,0.2007,0.1285,-0.3171,-1.207,1.957,-0.03342,0.9775,-0.3438,2.031,1.154,0.649,-0.444,0.11664,0.04642,-0.917,-0.7354,-0.3315,-0.3096,1.533,1.223,1.095,0.6206,-0.09924,-0.1593,-0.2296,0.1329,-0.2856,0.761,0.3928,1.157,0.04276,0.3596,-1.68,1.297,-1.794,-0.7974,0.3877,0.92,0.654,-0.375,0.4714,-1.442,0.4663,0.0898,-1.074,2.254,1.1,-0.1099,-1.091,-0.385,1.584,1.946,-0.2347,-0.4714,-1.508,-0.7656,0.4565,0.3284,-0.4539,-0.5337,-0.569,-0.713,1.292,0.3303,1.925,1.067,-1.508,-0.03683,-0.1753,0.1843,-0.57,0.004303,0.8423,2.049,-0.8315,0.03534,0.3374,0.4028,1.965,0.2844,1.241,-2.062,-0.1652,-0.4407,0.6606,0.2915,0.9644,-0.8115,-1.971,-2.172,1.978,0.679,-1.269,-0.2798,0.802,0.5723,-1.196,-1.887,1.002,0.9565,1.2295,0.4915,0.652,-1.303,-0.875,0.7827,0.634,-0.531,1.046,-0.3386,-0.733,0.548,0.3586,0.02684,0.8916,0.3298,-0.773,0.628,-1.035,0.1519,0.0718,-0.5083,-1.398,-0.338,-0.3948,-0.6704,-0.2625,1.151,0.821,0.3228,-0.3164,0.1791,1.1875,0.771,-0.7974,0.2424,-0.176,0.861,0.4512,-1.301,-0.4624,0.993,0.521,0.3079,-0.1509,0.1428,0.04556,1.3125,1.029,0.704,0.514,-0.334,0.248,0.744,-0.644,0.7046,0.1356,-0.2544,0.2764,1.295,-0.7075,-0.795,0.7983,-0.4153,-0.9365,-0.6597,-0.7964,0.2505,-0.0443,-1.368,-0.2207,-0.525,0.5396,-1.088,-0.225,-0.49,-0.952,-0.2708,-0.10547,0.4434,-0.632,0.0743,0.787,0.262,-0.897,0.9497,-1.29,-0.997,-0.11676,1.068,-1.435,2.5,0.9053,0.927,-1.203,1.662,-1.464,0.895,-0.8027,0.132,-3.428,-0.976,-1.522,0.3625,-0.264,-1.068,0.06726,-0.324,0.1921,0.8467,-0.2847,1.149,-0.6943,1.05,0.08435,-1.012,0.2386,2.033,1.716,1.294,-0.123,-1.494,0.477,0.3809,0.5806,-0.7817,-0.8774,1.343,0.1512,0.1492,-0.878,0.758,0.293,0.667,0.9795,1.657,0.401,0.283,0.3672,0.899,-0.3306,0.2196,1.028,0.1906,-0.305,1.101,-1.473,-0.092,0.4143,0.1808,0.0713,0.359,0.6465,-0.78,2.1,1.557,-1.563,-1.333,-0.0673,1.295,-0.229,1.075,1.682,0.824,1.372,0.4824,0.7266,-0.526,-0.656,0.5244,-0.4678,0.1904,1.923,0.3108,-1.449,0.4663,-1.704,0.9,0.804,-1.214,0.893,0.1571,-1.184,-0.983,-0.5225,0.629,0.8584,-0.8535,0.664,0.1015,1.277,-0.577,0.332,-0.8486,0.603,-0.605,0.5244,-0.58,-1.314,-1.351,-0.002878,1.906,-0.533,-1.549,0.186,0.3638,0.644,-0.294,-0.6265,0.7656,1.181,0.5864,-0.3396,0.3525,1.171,-0.3772,-0.5874,-0.5625,0.3594,0.97,-0.4165,1.847,-1.36,0.932,-1.282,-0.09174,0.2915,-0.9556,-1.49,1.384,0.298,0.884,-1.552,-1.334,0.3064,-0.878,0.05994,0.6294,1.181,-0.4097,-1.309,0.8496,-2.264,1.705,-2.262,1.037,-0.3936,-0.4211,-0.2832,0.4019,0.0184,-0.743,1.004,-0.2318,0.8296,-0.4753,-1.212,-1.401,-2.367,0.551,-1.196,-1.054,-0.7417,1.091,0.3877,-1.299,0.607,-0.971,-0.482,-1.0205,-0.068,0.9893,-1.004,-0.3015,-1.158,-0.9453,-1.371,0.2595,-0.295,-0.637,0.9976,0.04224,-0.612,-0.3232,-0.2524,0.06238,-0.1223,0.09973,-0.579,0.6406,-1.558,0.04312,-0.582,-0.3276,0.933,0.1732,0.2578,-0.684,0.467,0.4763,1.069,0.3784,-0.8496,-1.076,-0.892,-1.234,-0.2898,-0.1765,2.104,0.509,-1.095,0.827,0.638,0.2404,1.117,-1.68,-1.226,-0.408,-0.397,-0.7793,0.1265,-1.24,-0.03738,-0.1449,0.637,-1.259,-0.455,-0.1178,-0.2913,0.5645,-0.737,-0.3186,0.665,-0.652,0.632,0.7476,0.10834,-0.3552,-0.10565,-0.6724,-1.236,0.1976,-0.921,0.5073,-0.7163,-0.292,-0.865,-1.133,0.851,-0.303,0.8403,0.9775,-0.234,-0.998,-0.385,-0.8423,-0.4006,0.01508,-0.9663,-0.4265,-0.0964,0.3357,-1.58,-0.00799,0.1871,1.669,0.1647,-0.443,-0.5464,-0.2253,1.034,-1.126,1.048,-0.868,-0.837,0.3813,1.175,-0.4211,-0.3752,-0.587,0.0771,-1.116,0.3423,0.76,-0.664,-1.446,0.933,0.6704,0.4788,-0.8994,-0.944,-0.9565,-0.28,0.1626,1.541,-0.1833,1.098,0.0713,0.6885,0.8247,-0.172,-1.59,1.391,1.746,0.535,0.538,-0.1289,0.2788,0.7197,-0.9507,0.649,-0.6357,-0.646
arm,-0.0738,0.10065,-0.9995,0.2345,1.722,0.05823,-0.06793,-1.527,-1.823,-0.1056,-1.071,-0.9365,1.026,-1.122,-0.06335,0.519,-1.383,-1.814,0.702,0.1523,-0.0969,0.365,-0.601,-0.0992,0.691,-0.33,0.07166,0.906,-0.2377,1.31,-0.8545,-1.322,0.2786,0.00993,0.9746,-1.289,-0.6675,0.4177,1.899,-0.5693,-1.516,1.053,-0.3938,-0.8354,-0.0814,-0.2147,1.358,-0.3474,0.8813,-1.977,0.6216,-1.021,1.291,0.2338,-1.47,0.735,0.10706,1.076,0.432,-0.785,0.2147,0.839,-1.624,0.491,0.572,2.375,0.795,0.1642,-1.873,0.8447,1.245,-0.1637,1.219,0.824,1.635,-0.03976,0.9165,-1.216,-1.913,0.5283,-0.953,-0.3193,0.1354,-0.00469,0.1672,-1.275,0.506,1.303,-0.8647,0.1714,-0.9575,-0.1609,0.1925,-0.3467,-0.4265,-0.51,-0.1583,-0.2369,-0.921,0.1748,0.925,-0.7754,0.921,-0.2192,0.9453,-0.2368,0.2426,-0.729,0.4219,-0.931,-0.843,0.4385,0.695,-0.255,0.46,-0.3318,-0.1681,0.1396,0.5557,-1.147,0.567,-0.564,-0.1436,0.3674,0.5566,0.8516,1.387,0.6885,-1.04,1.481,-0.506,-0.00974,0.1704,0.02258,0.2537,-0.3777,-0.1136,0.697,-0.775,-0.1744,0.8315,-2.775,0.5405,-0.07635,0.4524,0.767,-1.4795,1.202,0.611,-0.7915,-1.357,0.02847,0.2357,1.285,-1.196,1.167,-0.4426,-0.3257,-1.65,0.1692,0.3176,-0.1381,0.9487,1.0205,-0.447,-0.555,0.9746,1.366,-0.539,0.1211,0.9053,1.179,0.0796,0.4177,0.02512,0.2075,0.6816,-0.696,-0.577,-0.6807,-0.03506,-0.327,1.135,-0.4856,1.156,0.526,-0.4478,1.575,1.935,0.712,-0.694,1.378,1.31,0.1224,0.3745,-0.0741,-0.2128,-0.01294,-0.3237,-0.111,1.131,0.7812,0.331,0.3079,-0.6255,0.007523,0.06396,0.2008,0.8906,1.805,0.4673,0.1505,1.018,1.495,0.505,-0.2399,0.7456,-0.2322,0.3264,0.02199,-1.282,0.5396,0.5635,0.7095,-1.075,-0.5728,0.5957,0.12335,0.9185,0.1566,0.205,0.2072,0.7373,-0.5874,-0.5093,-0.215,0.7153,-0.9023,0.879,0.0409,-0.4954,0.8403,-0.4834,-0.9683,0.4084,0.6436,0.3223,-0.389,0.591,-0.7036,0.0668,0.607,-1.247,-2.006,1.369,-0.5747,-0.1976,1.572,-0.003149,-0.3179,-0.816,-0.05093,0.4614,0.5654,-0.00792,-0.537,0.7495,1.711,-0.4734,-2.076,-0.3423,0.455,0.4902,0.36,0.4514,-1.123,1.301,0.4844,-0.3442,-1.096,-0.2607,0.8125,0.509,0.4062,0.4246,-0.261,1.027,-0.4019,0.4963,-0.3662,-1.301,-1.788,0.3396,0.3933,-0.2307,0.199,-0.7725,-0.9385,-1.293,0.1879,-0.3525,1.349,-0.887,-0.751,0.8057,0.4885,0.6333,1.109,-1.281,0.4897,1.338,0.5664,-0.2622,-0.815,0.3787,0.464,-0.1869,0.10693,1.444,1.482,0.898,0.0383,0.08344,0.6406,-0.31,-1.488,-0.3823,-0.1945,0.593,-0.1059,-1.773,0.4568,-0.4614,-0.1144,0.1126,-0.0816,0.3115,0.7896,-0.178,0.394,0.2281,-1.519,-0.591,-0.1692,0.3499,0.434,0.5356,-0.9,0.591,-1.386,0.3545,-0.2085,-1.241,1.819,0.7544,1.0625,-0.0952,0.626,0.772,0.662,0.2385,0.2452,-0.4307,1.163,-0.3657,-0.742,-1.673,-0.5522,-1.795,0.4526,-0.4678,0.341,0.591,0.4783,0.005615,-0.01504,-1.226,0.5024,-0.0296,-0.03537,0.7236,-0.798,0.1666,-0.7095,-0.862,-1.222,-0.1887,0.1537,-0.582,0.3708,-1.439,0.3225,0.2311,-0.89,1.357,-0.5586,-0.5586,-0.02242,1.635,-0.6694,0.0445,0.073,1.918,-0.03912,0.6562,0.002161,-0.356,0.3188,0.04727,-0.676,-1.039,0.178,-0.5586,0.1109,-0.2522,-0.8784,0.0673,0.7075,-0.694,1.331,0.02716,-0.457,-1.718,-0.739,-0.2007,-0.1396,-0.6978,1.318,-1.059,0.4446,0.3008,-0.509,0.608,-0.4663,0.8403,0.7393,-0.4368,1.246,0.2932,0.542,0.04623,-0.03522,-1.404,0.1318,-0.565,0.478,0.05374,0.0642,0.6978,-0.5996,0.12,-0.2037,-0.013306,-1.086,0.8384,-1.359,0.1469,-0.814,0.739,0.4968,-0.574,-0.5083,1.057,0.327,-0.675,0.1464,0.3691,-1.061,-0.5845,-0.929,1.195,-2.021,0.014946,0.649,0.096,0.5986,-0.1385,-1.122,1.165,0.455,0.316,0.2184,0.522,-1.559,-0.3513,1.064,1.49,-0.2162,0.9585,-0.1885,0.431,0.5166,0.4634,1.378,0.654,0.27,0.9917,1.855,0.872,0.473,-1.298,-0.6685,0.4663,-0.3872,0.09155,-0.117,-0.482,0.3486,0.651,1.276,1.31,-1.199,0.7954,1.032,0.7954,-0.2499,-0.344,0.388,0.8867,1.05,0.1852,1.058,-1.231,-0.03287,1.152,1.486,0.5386,1.408,-0.9663,-0.148,-0.8164,0.3994,0.1014,0.5703,-0.606,0.914,0.3333,-0.2593,-1.008,0.876,0.5244,-0.2452,-0.7207,1.243,-0.1489,0.7715,0.354,-0.07104,-0.3132,-0.5522,-0.6655,-0.1863,0.683,0.3477,-0.667,1.824,0.692,-1.062,0.497,0.187,-0.1561,-0.1914,-0.4136,-0.4324,-0.2101,0.2295,-0.1674,-0.8145,-0.7886,0.689,-0.4446,0.2847,-0.8535,0.6396,-1.262,-0.654,-0.4907,-1.806,-0.7236,-0.2407,0.007336,0.01379,-0.00916,0.04938,-0.7075,1.337,1.32,-1.3545,0.272,-0.576,-0.1895,-1.287,1.657,0.0988,1.266,-0.11847,0.692,-0.4612,-1.314,-0.11053,-0.0871,0.1661,-1.725,-0.46,-0.1647,0.3423,-0.3726,-0.72,-0.492,-0.5615,-0.2354,-2.166,-0.948,-0.7075,1.7295,-0.3975,0.6143,1.587,1.228,-0.8066,-0.548,-0.0247,0.7534,-0.5327,0.2069,-0.09735,-0.6885,1.033,0.969,0.4075,-1.475,-0.938,0.774,-1.038,-0.1185,-0.2035,2.203,0.6606,-2.033,0.5464,0.563,0.04593,0.0784,0.174,-0.2092,0.3684,-0.2012,-0.4456,-0.1437,-0.804,0.7666,0.9385,-0.944,1.483,-2.54,-0.716,-0.716,0.401,-0.877,-0.1289,0.3452,-1.083,1.641,0.0902,0.8613,0.8906,0.6094,1.817,-2.172,-0.2238,0.5596,0.204,0.2313,0.2476,1.117,1.164,-0.3398,-0.1676,-0.3667,0.1892,0.5576,-0.836,-0.918,-0.4817,-0.554,-0.9697,0.9565,1.746,-0.325,-1.077,0.901,0.724,-1.038,-0.0161,-0.08966,0.5464,0.8267,0.4036,0.1201,1.342,-0.04514,-2.49,-0.563,1.305,0.4958,0.7925,0.005913,0.5728,-0.0757,-1.267,-0.2449,-1.012,-0.4207,0.382,-1.256,0.5967,-1.122,0.321,-0.74,-0.817,1.917,1.542,-0.9136,-0.1879,0.6978,-0.2332,-1.138,0.799,-0.4634,-0.1317,-0.855,-0.867,-0.8486,1.599,1.359,0.5884,0.3843,-0.8125,-0.0583,-0.621,-0.3022,1.787,0.003578,-0.686,0.2883,-0.2301,-1.295,-0.617,0.432,0.432,1.112,-0.3896,-0.8726,1.189,0.293,1.171,0.1621,0.9487,0.8086,0.12335,0.1349,1.091,1.25,0.03598,-0.2764,-0.06058,0.0878,-0.3208
ball,0.994,-1.111,1.096,-0.8955,0.0232,1.294,2.54,1.095,0.9443,1.149,-0.3584,0.10693,1.907,-0.04224,-0.6333,1.671,1.116,-0.846,-0.1798,-0.5356,1.292,1.064,0.5806,0.3215,0.9,0.8506,-1.688,-0.6606,0.292,0.09515,0.1946,-2.615,-0.3298,-0.2318,-0.4153,0.254,0.01382,0.5073,-0.9917,-0.5703,0.462,0.7305,-0.631,0.2769,0.5537,-0.8237,-0.07623,0.10706,-0.5234,0.608,0.3643,1.27,-0.1605,-0.2064,0.698,-0.5293,-0.2368,-2.205,-0.967,0.8926,0.004963,-0.4802,-0.1034,1.228,-1.637,0.672,-0.823,-1.135,-0.477,-1.415,-0.3245,-0.01672,-1.094,-2.26,-1.121,-0.211,-1.715,0.3127,0.7456,1.677,-0.8984,1.623,0.358,-1.017,0.4045,-0.2034,1.278,-0.0095,1.346,-0.2346,3.139,0.575,1.014,1.808,-0.2473,0.0808,0.2498,-0.1161,0.807,0.1606,0.3484,1.357,-0.3499,1.033,0.02075,-1.283,0.541,-1.144,0.614,-0.1697,0.145,0.7944,-1.25,-0.5894,0.862,0.1986,-2.197,-0.3364,-0.9,1.931,0.968,-0.01079,1.45,-0.4685,-1.467,1.078,0.2495,-0.8696,1.692,-0.1071,0.3196,0.1274,-0.517,1.933,-0.271,-1.279,0.8706,-1.057,-1.809,-0.1465,-0.4905,0.687,-0.4407,-0.852,-0.706,0.589,-1.605,-0.0247,1.186,2.05,0.8506,0.05984,-1.587,-1.417,0.851,-1.214,0.6167,-1.227,0.758,1.205,0.429,-0.723,0.357,0.05988,0.0987,0.749,-1.678,0.3738,0.864,-0.853,-1.989,-1.258,1.162,1.568,-0.5107,-0.233,-1.572,1.378,0.2878,0.0179,-2.469,1.037,1.224,-1.045,1.603,-1.778,0.863,-0.615,-1.607,0.696,-2.05,-1.679,-1.09,2.295,-1.275,-1.162,-0.3015,1.332,0.1797,1.238,0.4202,-0.03186,-0.1294,1.593,0.0956,0.01895,0.1115,1.268,0.14,-0.578,-1.476,-1.628,-0.465,-1.305,-1.123,0.1576,-0.7456,0.6694,0.7676,0.466,1.098,0.0758,-1.01,-0.2273,0.4407,-0.8477,0.4119,-0.75,-1.1875,0.629,1.738,-1.175,-0.5244,-1.203,-0.1398,-0.84,-0.2188,0.778,-1.528,-0.27,-1.418,0.1262,-0.0655,-0.923,-0.04703,-0.2268,-2.17,-0.231,0.3496,-0.415,-0.168,-0.817,-0.04968,1.531,-1.295,-1.499,0.3486,-0.498,0.869,0.7754,1.272,0.2197,0.362,0.3298,-0.09235,1.216,-1.111,0.4377,-0.5073,1.155,-0.6665,-0.4543,-1.0625,-0.6455,1.286,-0.9907,1.174,0.735,1.011,0.4907,-0.3845,-0.472,-0.04712,-1.15,0.4204,0.5693,-1.038,0.1715,-1.337,0.4602,0.4011,0.482,0.2166,-0.3235,-0.674,-0.1504,-0.7725,0.2966,-0.707,1.006,0.05167,0.2505,2.469,-0.367,0.6987,0.5747,-0.02289,-0.00714,1.134,-0.2825,-1.439,1.428,-0.9688,0.971,1.081,0.1649,-0.5947,-0.1294,0.0084,0.94,-1.337,0.3706,-0.1305,-1.131,0.3877,-0.6025,0.902,2.297,0.4478,1.349,0.399,-0.844,-0.289,-1.288,-0.521,0.011566,-0.5386,0.4207,0.2306,-0.05127,-0.4167,0.4011,0.7246,0.953,-1.5205,0.11774,0.5703,-1.694,-0.00605,0.5356,-0.8154,0.2034,0.4287,-1.495,-0.817,-1.255,-0.4802,0.888,0.3943,-1.797,1.905,-1.286,-0.4907,0.5283,-0.243,-2.363,0.1715,1.122,0.4697,-0.03122,1.571,0.4854,-1.36,-0.308,-1.068,0.374,-1.01,-0.605,0.1475,-0.573,-1.193,-0.634,-1.87,-1.089,1.678,0.9805,0.1666,-0.4678,1.094,-0.762,1.032,-1.06,0.2275,1.367,0.1576,-1.017,2.021,-0.4277,-3.31,-0.227,-1.801,-0.8574,-0.1688,-1.301,1.131,0.245,0.6006,1.702,-1.062,-0.821,1.84,-1.336,0.827,-0.6343,0.585,-0.4458,-0.126,-0.695,-0.3252,-0.72,1.027,1.336,-1.205,-0.4905,0.3691,-1.247,-0.00288,2.26,-0.04718,-0.9946,0.7305,0.05954,-0.862,1.235,-1.138,0.4626,-0.723,-1.146,0.39,-0.6357,0.1472,1.007,0.9834,-0.4148,-0.1207,0.02762,0.02687,-0.1552,-0.1377,0.928,-0.87,-0.2139,1.294,-0.5903,1.338,0.7285,0.1526,-0.3467,0.2534,-1.157,0.6807,-0.311,0.49,0.7417,1.314,-1.798,-0.559,1.477,1.687,0.926,-0.306,0.75,-1.75,1.378,-1.507,-0.561,-0.252,-0.683,-0.7437,-1.366,-1.378,-2.129,0.1968,-1.895,-0.2236,0.7905,-1.418,0.2264,0.503,-2.021,-0.2136,-1.133,1.746,-1.54,-0.01384,0.805,-0.2808,-0.1644,0.01157,1.025,-0.1953,1.666,0.896,3.033,0.4119,-1.191,0.1461,0.2354,-0.8438,0.3428,-0.67,0.4644,-0.12427,0.03192,1.6455,1.364,2.93,-0.4153,0.205,-1.453,-0.4087,0.423,1.224,0.7217,-1.688,-1.236,0.8994,0.7256,-0.9907,0.5303,-0.005943,-0.7227,1.775,-1.064,0.3462,-0.3826,-0.4404,-0.4895,0.597,-0.8237,0.01473,1.16,0.4485,1.098,-0.1714,1.397,0.645,1.833,-0.9956,0.04803,-0.1672,0.1279,0.1671,0.695,-0.01536,-0.7974,1.007,2.39,-0.086,0.8794,0.832,-0.1313,-0.1931,0.9614,-1.029,-0.936,-0.2457,0.528,-0.01558,0.2383,-1.816,-0.158,1.706,0.10077,0.4402,0.6006,-0.10065,1.185,0.4358,-1.616,0.5376,-0.2443,0.2089,-0.7505,0.6685,0.9204,0.0819,0.4143,-1.383,0.2439,-0.3591,0.1354,0.05814,-1.166,-1.222,1.097,0.003832,0.6475,1.037,-1.307,0.1667,-2.11,0.929,0.887,1.936,0.6533,0.5444,1.21,0.589,0.4165,-0.7085,0.188,0.12396,-0.2642,-0.01578,0.1775,-0.831,-0.3313,-1.472,0.7036,1.331,1.586,-0.7666,-0.7666,-0.3455,0.3464,0.04083,1.093,0.924,-0.264,0.1561,0.0672,-0.476,1.161,0.4277,-1.465,0.1907,-1.096,0.1572,-0.02873,-0.2673,0.8223,-1.008,-0.4807,0.0513,-1.146,-0.5776,0.4612,-0.236,0.8887,-1.509,-0.8438,0.7344,1.031,0.1758,-0.5254,0.984,0.457,-1.0,2.283,-0.8496,0.4524,-0.3574,-0.3696,-0.09814,0.2057,-1.511,-0.4082,1.505,0.0761,-2.268,-0.2267,0.6675,-1.038,-0.577,-0.2954,0.785,-1.388,0.279,-0.02766,0.3853,-0.4287,0.8687,0.706,-0.558,1.24,0.1934,-1.059,0.924,-1.627,0.9863,-0.265,-0.186,0.12225,-2.314,0.07764,-0.4294,-0.9233,0.6113,-0.6978,0.6553,1.922,0.9165,-1.182,0.5234,-0.791,-0.4033,-1.816,0.0806,1.388,1.486,-1.234,0.525,-1.551,0.497,0.652,0.808,-0.967,0.7896,-0.02628,-0.422,-1.754,-0.531,0.3293,-0.12445,1.466,1.298,0.779,-0.501,0.818,-0.03918,-1.077,-0.3357,-1.053,-0.6714,-1.679,-0.589,1.444,-0.6846,-0.569,0.26,-0.7354,-0.6772,0.1873,-1.346,1.799,0.1486,0.66,-0.5527,0.2178,-0.978,0.4531,1.074,0.1583,-0.2761,-1.132,0.3008,0.2717,-1.142,0.3376,0.917,-1.107,-0.1606,0.407,-0.0747,0.7373,0.2229,-0.9844
balloon,0.8184,-1.294,0.4854,-0.468,0.0568,0.6094,0.954,0.773,1.054,0.7935,-0.7817,1.259,0.737,-0.0632,-0.556,2.24,0.986,-0.9097,-0.797,-1.278,1.424,0.5356,1.291,0.2073,0.793,0.00666,-0.5317,-1.209,0.703,0.4272,0.3225,-2.273,-0.11316,0.6045,0.2267,0.5474,-0.4214,0.4434,-0.6284,-0.2717,-0.583,0.3904,-0.2456,0.5522,0.0806,-0.3787,0.651,0.8,-0.0475,0.2175,0.2158,0.6016,-0.1583,0.4087,0.4185,-0.2373,-1.417,-1.902,-0.562,0.625,-0.4312,-0.3203,0.552,1.112,-0.528,0.3333,-0.443,-1.406,-0.5547,-0.899,-0.685,0.3782,-1.024,-1.876,-2.088,-0.1503,-0.5723,1.184,0.8022,1.876,-0.8193,0.3406,0.4092,-0.86,0.2052,0.443,0.9355,-0.06354,0.726,-0.5767,2.17,1.4795,0.603,2.373,-0.904,0.4941,-0.4402,-0.4932,0.515,0.6724,0.1392,0.4724,0.1466,1.229,-0.746,-0.554,-0.118,-1.235,0.318,0.092,0.02411,0.2666,0.00446,0.3303,0.9136,0.4119,-1.158,-0.591,-0.521,2.238,0.6816,-0.497,1.145,-0.4368,-1.175,-0.1848,0.2092,-1.159,1.209,0.273,0.3044,0.08374,0.255,1.498,0.311,-0.634,0.722,-0.909,-0.845,-0.559,-0.38,0.7036,-0.998,-0.3066,-0.4546,0.8564,-1.168,0.379,0.3057,1.706,0.6436,0.3047,-1.773,-0.809,-0.1698,-1.055,-0.00213,-1.18,0.978,1.147,0.2524,1.287,-0.2969,-0.1923,0.5586,0.5156,-1.256,-0.2205,1.046,-0.3105,-1.888,-0.2339,0.8267,2.037,-0.669,-0.0713,-1.767,0.733,0.916,-0.4033,-2.01,1.287,0.2737,-0.49,1.452,-1.136,1.171,-0.496,-1.69,0.4338,-1.551,-1.371,-1.309,1.905,-1.108,-0.969,-1.007,1.484,-1.089,0.5615,0.4143,-0.4138,-0.1746,1.257,0.3179,-0.11975,-0.2524,0.2456,0.4983,-0.513,-1.123,-1.766,-1.573,-1.103,-0.7573,0.4028,-0.7,0.3467,0.697,0.283,0.9404,-1.291,-0.619,0.02452,0.821,-1.441,0.757,-1.085,0.3513,0.5435,1.305,-0.8306,-0.4612,-1.04,0.081,-0.751,0.1707,0.9863,-1.192,-0.1556,-0.993,0.5664,-0.367,-1.14,0.0004356,-0.1675,-2.625,0.01355,0.874,-1.027,-0.1206,-1.3125,-0.03918,0.5596,-0.959,-1.22,0.1737,-0.339,0.5986,0.641,1.255,-0.4285,0.639,0.1544,-0.571,-0.2988,-0.6206,0.6177,0.03168,0.65,0.03134,-0.484,-1.376,-0.148,0.846,-1.214,1.021,0.1043,0.3777,0.673,-0.5835,-0.3137,0.4932,-1.15,0.4548,0.0348,-0.911,-0.3374,-1.478,0.05615,1.303,0.1677,-0.1292,-0.996,-1.278,-0.4895,-0.6846,0.1747,-0.197,1.113,0.817,0.4556,1.906,0.367,-0.2191,0.3523,-0.3528,0.5815,0.6924,0.3003,-1.048,0.8857,-0.4995,0.584,1.476,-0.817,-0.973,-0.928,-0.12286,0.6104,-0.9434,0.7114,-0.1539,-1.381,0.01343,-0.2244,0.9893,2.15,0.7246,1.436,0.1672,-0.489,-0.3933,0.0727,-0.6113,-0.3008,0.0861,-0.393,1.45,0.2527,-0.7085,0.06995,0.558,0.967,-1.294,0.7046,0.03915,-1.124,0.03708,0.735,-0.767,-0.2388,1.202,-1.745,-0.06354,-1.111,-1.299,0.0646,0.4146,-0.915,2.137,-1.253,-0.3455,0.8857,-0.3003,-2.568,0.1532,0.4646,0.4294,1.191,1.232,0.695,-0.5396,-0.8267,-0.4878,0.1111,-0.3376,-0.6567,0.291,-0.5127,-0.8496,0.10754,-1.11,-0.5986,-0.1371,0.5605,0.511,-0.547,0.5015,-0.759,1.21,-0.697,0.211,1.579,-0.288,-0.6313,1.42,-1.028,-2.537,-0.5103,-1.814,-0.7363,-0.5615,-1.285,0.8384,-0.0776,0.448,0.56,0.1376,-0.3208,1.444,0.00874,0.1675,0.3984,-0.5386,-0.415,-0.2961,-0.432,-0.863,-0.5723,1.5625,1.029,-0.3179,0.098,-0.9062,-0.8,-0.252,2.105,-0.393,-0.4255,-0.5225,0.207,-1.02,1.009,-0.9478,0.793,-0.09576,-0.5254,-0.0847,-0.739,-0.0085,0.591,-0.1812,-0.878,-0.2834,-0.1057,-0.3215,-0.09143,-0.677,0.427,-1.367,0.146,0.8667,-0.2485,0.6304,0.585,0.709,0.3022,0.2588,-0.34,0.8926,0.1478,-0.08466,1.134,0.8325,-0.8145,-0.5244,1.823,1.916,0.9346,-0.336,0.861,-1.957,1.419,-1.235,-0.2556,0.03038,-0.729,-0.1396,-0.9883,-2.074,-1.371,-0.01425,-1.24,-0.0454,0.332,-1.463,-0.47,0.8354,-1.571,-0.5435,-0.2308,2.08,-1.358,-0.647,0.2605,0.4958,-0.1692,-1.168,0.5933,-0.0993,1.027,1.237,2.803,0.9053,-1.422,0.2764,-0.09595,-0.859,0.3955,-0.769,0.3098,0.2354,-0.10077,0.8506,1.72,2.33,-0.6694,0.4202,-1.39,-0.565,-0.1434,0.7407,0.2744,-1.934,-0.98,0.591,0.3035,0.232,0.1692,-0.1598,-1.266,1.349,-1.122,0.5317,-1.468,-0.02179,0.2578,0.3433,-0.7715,0.007797,-0.287,-0.3035,0.7563,0.4253,0.7007,1.06,1.337,-1.406,0.05774,-0.3352,0.1948,-0.02956,0.9014,-0.617,-1.138,0.3735,2.129,0.0689,0.7153,0.3484,0.574,0.4675,0.8237,-1.024,-0.8833,-0.0804,0.1743,0.05713,0.565,-1.552,-0.4714,1.294,-0.1442,1.165,0.741,0.0817,0.868,0.1219,-1.001,0.3604,0.2974,0.6157,-0.929,0.2354,0.522,0.1814,-0.1837,-1.154,-0.1011,0.2876,-0.3452,-0.4905,-0.9688,-0.7544,0.578,0.0858,0.5728,0.774,-0.3574,-0.04474,-1.425,0.6064,1.271,1.946,-0.1823,0.7744,1.32,0.552,0.3467,-0.703,-0.06073,-0.499,-0.3162,-0.4028,0.7017,-0.576,0.5254,-1.71,0.3953,1.503,1.355,-1.474,-0.9087,-0.4822,-0.04907,0.3376,0.1555,0.6235,0.1918,-0.5728,-0.5366,-0.3916,0.8633,0.10205,-1.992,-0.7363,-1.089,0.4988,-0.0559,0.02457,0.6104,-0.4937,-0.209,0.1136,-0.755,-0.2898,0.2854,0.1537,0.6387,-1.202,-0.3025,0.0725,0.917,0.1842,-1.138,1.366,0.571,-0.383,1.581,-0.0811,0.7783,-0.0936,-0.318,-0.8203,0.7847,-1.115,0.497,0.9,0.4114,-0.7397,-0.877,0.3438,-0.307,0.2427,-0.01175,0.6123,-1.45,1.113,-0.08075,0.1451,-0.678,1.035,1.683,-1.131,1.426,0.502,-0.9756,0.823,-2.105,1.44,0.4062,-0.515,0.855,-1.714,-0.3196,-0.931,0.2664,1.61,-0.63,0.1805,0.4014,0.61,-1.614,0.598,-1.25,-0.586,-1.391,-0.2012,1.101,1.516,-1.411,0.6953,-1.849,1.289,0.728,0.4631,-0.4678,-0.03467,-0.609,-0.773,-1.735,-0.8325,0.8926,-0.1455,0.926,0.6665,2.137,-0.413,1.288,-0.05356,-0.8213,-0.8657,-1.046,-0.8706,-0.703,-1.267,1.056,-0.2264,0.1081,0.1216,-0.2169,-0.4985,0.5967,-0.8613,1.742,-0.11975,0.612,-0.8003,0.2445,-1.066,0.01901,0.9473,-0.2019,-0.4185,-1.651,-0.04147,-0.4385,-0.3074,0.1075,1.1045,-0.3665,-0.5107,0.2416,-0.4714,1.575,0.3564,-0.8896
banana,-1.991,0.6445,-0.4995,1.711,0.0392,0.861,0.3164,0.684,0.7397,1.138,0.1142,-0.8374,1.267,0.898,-1.577,-0.7383,1.252,0.509,-0.03845,1.847,0.2157,-1.419,1.432,1.531,-1.136,-0.1466,-0.6665,-0.2827,-0.7856,-0.3416,-0.8374,0.901,0.617,0.0729,0.1661,0.276,1.672,1.512,-1.274,-0.61,-0.7207,-0.29,-0.2688,1.885,1.813,-0.0825,0.1791,0.5703,0.02328,-0.3672,-0.2642,-0.5107,-0.2566,2.129,-0.00808,-0.02678,1.118,-0.1926,-0.615,0.722,-0.6675,-1.61,0.4712,1.211,-1.208,0.03616,1.34,-0.502,0.8125,-0.503,0.002073,-1.661,-0.324,-0.6904,-0.3618,-0.55,-1.008,0.1648,1.096,0.10693,-0.5503,0.261,-1.698,2.111,0.7515,1.25,0.1952,-0.1768,-0.908,-0.1852,-0.5303,0.526,1.059,-0.2542,-0.0915,0.45,0.01965,1.327,0.4368,-0.7456,0.4006,-0.3215,0.1863,-0.5283,1.314,0.0271,-0.747,-0.01073,1.29,-0.5327,-0.387,-2.006,-0.9297,-1.475,-0.792,-0.04755,-0.8936,0.544,-1.596,-1.471,0.2754,0.679,-0.002003,-0.7793,-1.088,0.2944,-0.6826,-0.899,0.964,-0.3142,0.5835,0.3257,0.6,0.707,-0.5674,0.5786,-1.159,1.089,-1.202,-0.5786,-0.9463,-0.2954,0.5557,-0.9175,0.9897,-0.4492,0.1064,0.2128,0.2732,0.6084,0.6646,-0.0522,1.016,0.1465,-1.347,-1.013,1.156,1.19,1.377,-0.05243,-1.378,0.9146,-0.2607,-0.468,-0.3613,0.3794,-1.027,3.086,0.817,-0.3809,-0.601,-0.3108,1.208,-1.96,-0.08685,2.143,-0.2242,2.332,0.3064,1.059,-0.931,0.8076,1.046,1.115,0.5605,-0.8496,-0.658,-0.2325,-0.7974,0.1624,-0.2041,-0.6357,-0.591,-0.2448,-0.61,-0.599,0.3562,-1.097,1.161,0.842,-0.154,1.12,0.2937,-0.5815,-0.768,0.2861,-1.187,0.3645,0.3665,-0.598,0.02795,-0.5225,0.1005,-0.968,-0.7817,-0.02406,-0.2512,0.531,-0.107,-0.8516,0.964,-1.876,-1.646,-0.8496,0.656,-0.578,-0.3035,0.764,0.973,-0.4993,0.2717,-0.2372,-1.437,0.835,1.855,1.258,0.6914,0.35,-0.599,-0.565,-0.9443,-1.11,1.126,-1.568,-0.3286,-0.868,0.3064,0.5845,-0.3408,-0.1,0.7617,-1.416,0.8916,0.3975,0.1846,-0.253,0.3394,-0.8774,0.07794,0.7427,1.463,0.005314,0.4236,-0.03072,0.4407,0.03348,-0.8057,-1.74,0.1708,0.1992,-0.1466,-0.5664,0.9624,1.223,0.656,0.5527,-1.103,-0.2477,0.6284,0.8833,-1.307,-0.4404,1.598,-0.5386,-0.894,-0.858,-0.1278,-1.2705,0.5615,-1.841,0.5127,1.395,1.089,0.2074,-0.1676,-1.403,-0.3086,0.426,0.704,-1.751,0.4297,0.1543,0.8677,-0.3286,-1.191,-0.2081,-0.987,-0.6045,0.965,-2.002,-0.1185,0.4666,-1.726,1.303,-2.453,1.74,1.602,-1.214,1.502,-0.4692,0.04,-1.612,0.8774,-1.685,2.498,0.07153,-0.5503,-2.412,-0.931,1.191,1.072,-0.1752,0.693,0.4163,-2.355,0.3743,-0.6436,-0.6567,-0.5347,-0.632,0.11847,-0.2593,0.681,-0.251,-0.03128,0.3643,-0.0805,-0.53,0.3245,0.213,0.4885,1.415,-2.457,0.1115,-0.057,-0.872,1.556,1.486,-0.08496,0.4856,0.6235,1.678,0.989,-0.506,0.774,-0.00785,-0.514,0.589,0.978,-0.347,-0.529,-0.4827,-0.404,-1.694,-0.8784,1.061,0.00852,0.6685,-0.4421,-0.8315,-0.695,0.938,0.2023,-0.04758,-1.149,0.7817,-1.647,0.4644,1.747,0.2218,1.351,1.144,-0.5674,0.1855,0.8696,-0.0568,0.5137,0.2483,1.282,-0.725,-0.283,-0.957,1.015,2.105,0.5493,0.5845,1.828,0.261,0.01074,-0.367,0.939,-0.895,-0.593,-0.367,1.223,-2.17,0.2808,0.7607,0.54,-0.826,0.74,-0.09033,1.149,1.413,-1.126,0.5093,-0.3792,-0.832,-0.532,0.35,-1.336,-1.497,2.215,1.009,-0.3955,0.1674,0.2032,0.209,1.647,-0.5195,1.409,0.4185,-1.875,0.5635,1.281,1.774,-0.03552,1.206,0.721,0.5225,-0.4255,-0.638,-0.0725,-0.4683,-0.516,-0.358,-1.068,0.361,-1.137,0.8354,-1.088,0.4724,-1.002,0.5513,-1.175,-0.4597,0.864,-1.3955,1.6,0.3635,-1.236,1.539,0.7173,0.0466,2.365,-0.8325,-0.1467,-0.589,0.2673,0.8306,0.263,-1.86,0.2766,0.4517,-0.02193,-2.342,0.02902,-0.289,-0.8623,1.116,1.208,-0.1488,-0.849,-0.777,0.3901,0.1219,-0.875,-0.3242,-0.532,-0.279,0.0706,0.3562,-1.353,-1.184,1.324,0.46,-2.996,0.708,-1.294,-0.6157,-0.1647,-0.2334,-1.379,-1.263,0.7856,-0.4802,-0.11426,0.946,-0.5205,0.5894,-0.04602,0.485,0.1738,-0.4387,-0.2625,-0.7515,1.298,0.0594,0.5,1.811,0.10815,-0.005463,-1.398,-0.2966,-1.077,-0.3645,-2.336,-0.6567,-0.3933,-0.6606,1.704,-0.511,-0.7534,-0.05878,-1.283,2.25,-0.6797,-0.4343,1.038,-0.5264,-0.4282,1.886,0.05856,-1.827,-1.013,-0.0426,1.199,0.2903,-0.589,1.566,-1.655,1.131,-1.885,-2.537,0.6577,0.676,0.4229,-0.8174,0.785,0.749,-1.524,-2.098,0.3213,0.2769,0.7627,0.6846,0.0642,0.2505,-0.5747,-1.034,0.1971,0.52,-0.02467,-1.026,0.6445,-1.02,-0.3145,1.53,-0.4456,0.508,-0.3506,0.05167,-0.4011,0.2068,-2.227,-1.071,0.9526,1.237,-0.09247,-2.615,1.912,-0.7715,0.06104,0.1617,1.7295,-1.227,-0.4932,1.311,0.05438,0.3828,0.09717,1.139,1.496,0.503,-0.05878,-0.785,-2.34,0.1459,0.3367,0.7744,-2.037,-0.04794,0.011894,-0.444,-1.033,-0.2112,1.5625,-1.445,0.823,-0.6533,0.379,-0.1344,-0.8623,0.723,1.323,0.158,-0.1655,-0.3633,0.7476,-0.2019,-0.1713,-0.0021,-0.4014,-0.808,0.489,-1.214,0.5874,0.4937,-0.9556,2.508,-1.047,0.1964,-0.816,-1.182,2.436,0.957,1.915,0.8325,-0.711,0.3066,-1.572,1.365,-0.9507,1.549,-0.88,-0.3447,-0.132,0.4338,0.9536,-0.0699,0.501,0.9985,-0.598,-0.8613,-0.6123,0.5415,1.036,-0.1223,0.2351,0.2734,0.93,0.8555,0.2935,-0.989,0.558,0.371,-2.191,-0.4116,0.6206,1.515,0.809,0.6675,-0.3167,-0.617,-1.251,0.4473,-0.9155,-0.4583,0.507,0.3008,0.55,-0.2329,-1.612,0.339,-0.0873,-0.05994,0.3928,-0.148,-1.672,-0.592,0.11346,0.1425,0.505,1.0205,0.4944,-0.3542,1.143,-0.9062,0.7056,-0.0737,0.852,0.098,0.4448,0.5635,-1.746,1.056,-0.1954,1.097,0.0837,0.6855,1.094,2.238,-1.306,-1.142,-0.4792,1.755,-0.4114,1.562,0.329,0.3472,1.7295,-2.432,-0.06082,-1.295,-1.536,-1.32,0.1929,0.554,-1.244,-0.67,-1.459,0.7065,-0.0933,-1.62,1.429,0.4756,-0.4165,1.271,-1.005,-0.04282,0.01915,-0.3198,0.58,0.0807,-0.07697,0.4673,-0.00825,-0.7803
basket,-0.44,0.686,-0.2228,0.5093,-1.103,1.299,0.11334,-0.8257,-1.161,0.3503,1.105,-0.09186,0.3376,-0.8594,-0.3975,-0.283,0.771,1.639,-1.59,-1.158,0.387,1.327,-0.03726,0.4817,0.2366,0.7603,-0.2703,1.1875,0.3594,-0.57,0.6494,0.301,0.498,1.157,0.663,0.013855,0.9756,-0.01874,-0.6587,-0.8145,-0.6323,0.2439,-1.621,-0.0767,1.999,-0.189,0.3196,1.087,-0.1964,0.3425,0.1312,1.915,0.1289,0.1208,1.057,0.1624,-0.814,1.092,0.0898,0.629,-0.4854,-1.407,-0.03625,-1.153,0.7437,-1.046,-0.6226,1.146,0.04434,-0.1108,-0.7397,-0.2324,-0.5854,0.3503,0.2313,0.4229,-0.4304,0.1931,0.5273,-0.968,-0.6465,0.406,0.665,-0.1711,1.407,-0.1926,1.595,1.086,-0.1298,0.5576,0.2117,0.7505,-0.4412,-1.339,-0.2573,0.2242,0.2104,0.3113,-0.4583,0.6733,0.2048,0.5127,-0.275,0.4631,-0.7295,-0.674,0.4429,-0.587,-0.287,0.1189,-1.186,-0.1278,-0.371,0.1604,0.2678,-0.0954,0.71,0.7173,-0.4792,-0.6914,-0.946,0.6665,0.4333,1.154,0.2712,0.4036,-0.5103,0.0388,0.1971,-0.844,-0.7,-0.4438,-1.814,-0.169,0.2336,-0.3274,-0.10333,0.605,-0.0104,1.351,0.5107,0.8887,0.2512,0.01804,0.873,0.2903,0.59,-0.91,-0.5796,0.5293,0.6626,0.937,0.1312,0.665,1.434,0.0497,-0.02504,-0.5283,0.3418,-0.1411,-1.998,-0.1909,-0.705,0.6797,-0.0677,-0.575,0.6836,-0.1785,-0.1566,1.705,-0.4612,-0.514,-0.791,0.352,0.9507,-0.5127,-0.7163,0.862,-0.543,1.19,-0.2219,-0.5474,-0.1583,-1.143,-0.603,0.246,0.503,-0.1344,-0.1517,0.6714,0.1788,-1.294,0.2241,0.1731,1.523,-0.771,-0.529,0.9707,-0.406,-0.1674,0.2073,-0.805,0.8945,0.2435,-0.1882,-1.161,-0.5312,-1.118,-0.2932,0.1107,0.9814,0.202,0.5327,-0.808,-0.6406,-0.2942,-1.693,0.6245,0.2566,-0.4946,1.586,-0.4185,-0.2188,-0.6616,1.954,-0.04065,0.3098,0.6025,-0.3333,-1.467,0.5474,-1.26,0.2136,-0.323,0.5957,1.215,-0.3547,-0.2208,-0.271,-0.186,1.637,-1.119,-1.544,-0.2852,1.215,-0.433,-0.517,0.3228,-0.767,0.218,-0.11273,0.989,-0.2324,-0.1375,-0.728,1.164,-0.97,-0.1078,-1.673,1.225,0.01773,-0.539,0.6255,-0.1353,-0.2174,-0.6094,-0.3955,-0.03973,0.0307,-0.579,1.18,1.237,-1.755,-0.6577,0.3645,0.7363,-0.606,0.2817,0.06335,0.0909,0.2622,0.774,0.5083,1.222,-0.923,0.11884,-0.4595,-0.967,-0.152,0.03665,-0.46,0.606,-0.6313,-0.6855,-1.182,-0.782,-0.6807,0.893,-0.802,-0.1718,-1.518,-1.415,-0.221,0.6167,-0.4578,0.0689,0.809,0.89,-0.455,-0.4182,-0.4775,-1.0205,0.4202,-0.1969,-0.1191,0.7676,0.4563,-0.2151,0.1392,-0.6475,-1.057,-0.3855,1.464,0.08496,-0.2646,0.954,-0.003588,-1.451,-0.4363,0.509,0.0613,0.08673,0.3186,0.153,-0.323,0.1473,0.3508,0.467,-1.057,1.1875,0.0934,-0.3687,0.03845,1.017,0.3328,0.1981,0.4248,-0.4695,-0.5293,1.199,-0.5137,-0.1007,1.393,-1.963,-0.1284,-0.3984,1.008,-1.011,0.947,-0.05447,0.5015,0.2708,-0.726,0.0964,0.4653,0.7217,-0.345,-0.01323,0.672,0.111,-0.2344,0.1421,-0.05347,1.848,-0.04462,0.3828,0.652,0.0568,0.04758,-0.2178,1.073,0.3252,-1.024,-0.0543,0.2568,0.2006,0.002066,-0.09546,0.07263,-0.7363,-0.07007,0.04483,0.00724,-0.892,-0.0941,-0.618,1.436,-0.1436,-0.174,-0.6055,0.741,0.1481,-1.411,-1.342,-0.1814,0.1796,-1.365,0.3115,-0.569,-1.488,0.1798,0.68,1.127,-0.4915,-0.5176,0.2642,-0.2183,-0.4954,0.0332,-0.4912,-0.4688,0.04858,-0.09753,0.335,0.349,-0.2578,0.304,-1.292,0.146,-1.707,-0.2493,1.208,-0.7217,-0.2988,-0.1636,-1.162,0.1559,-0.3337,-0.8574,-0.3997,0.2152,-0.1301,0.839,-0.3518,-1.404,-1.571,0.2505,-1.447,-0.5757,1.568,-0.382,-0.3047,0.781,0.694,-1.701,0.286,1.516,1.369,0.1007,0.43,-0.2357,-0.2876,-1.009,0.725,1.209,1.071,-0.55,-0.2625,-1.346,0.3408,-0.318,0.01343,0.010185,1.334,-0.01011,0.3232,-0.8315,1.19,-0.3782,0.4607,0.4294,0.6216,-0.8667,-0.0813,0.6084,0.6587,-1.32,-1.212,0.05228,-0.526,-0.06055,-0.4524,-0.2314,-0.2273,0.03476,0.02985,-0.0689,-0.0002782,-0.5537,-1.391,0.464,0.3298,0.5513,-0.4243,0.0953,0.8154,0.1283,-0.834,0.0,0.387,-0.65,-0.2358,-0.1737,0.6113,0.569,-0.821,0.2333,-0.5347,0.05118,0.3796,-0.08124,-1.223,-0.3914,0.586,0.2751,-0.2646,-0.3032,-0.3486,0.5005,-0.2646,0.10455,0.769,0.5474,-0.4153,-0.324,1.045,-0.2041,-0.00803,0.5396,0.7476,-0.1127,-0.628,0.4116,-0.564,1.067,-0.4727,-0.000985,-0.1971,-0.2937,-0.884,0.3132,0.4893,0.624,0.3643,-0.1459,1.253,-0.959,-0.7656,1.2295,0.8276,-0.629,1.725,0.878,-0.4353,0.951,0.2323,-0.4617,-0.04294,-1.024,-0.1624,-0.1208,-0.4785,1.138,-0.352,-0.2676,0.7305,-0.7427,-0.06555,0.3323,-0.802,0.2278,0.128,-0.11224,0.03108,0.2444,-1.032,-1.046,-0.5435,-0.962,-0.1082,-0.9556,0.278,0.819,-0.654,-0.2332,0.0443,0.1777,0.3025,-0.575,-1.033,-0.672,0.0732,-0.6543,1.12,0.2952,-0.441,-0.1772,1.002,1.053,-0.1167,0.4897,-0.502,1.774,0.8564,-0.05234,0.303,-1.047,0.127,-0.2776,0.9585,-0.1727,-1.283,-0.7866,-0.772,-0.5786,-0.09656,-0.1913,0.5186,-0.722,-0.07697,-0.03955,-0.348,-0.05215,0.5654,-0.5435,-0.1495,-1.092,0.485,-0.00755,0.9146,-0.8154,0.2062,0.1056,0.0826,0.2031,0.7495,1.133,-0.0993,0.77,0.2473,0.3784,0.611,0.03827,1.188,0.6133,-0.509,-0.4866,1.78,0.7686,1.616,0.5596,0.2113,-0.06793,0.08966,-0.2004,-0.0753,0.4785,-1.338,0.4023,0.1193,-0.0338,1.198,0.2744,-1.184,-0.283,-0.4019,-1.383,-0.07697,-1.923,-0.9097,-0.3806,-0.6553,0.505,-0.3665,-0.3662,0.2898,-0.365,-0.2783,0.292,0.1094,-0.3948,0.919,-0.010025,-0.4058,-0.562,-1.675,-0.6997,-1.077,1.508,1.484,0.2725,0.6265,0.8687,-0.547,-0.41,0.463,0.964,2.115,-0.802,0.02856,0.549,-0.8145,0.689,0.0,-0.814,0.5957,0.001634,0.832,0.692,0.4001,-0.1009,1.188,0.0199,-0.5293,0.4553,-0.7666,1.199,-0.5137,0.55,0.332,-0.606,-0.205,0.1239,-0.5674,-0.3804,0.514,-1.434,0.7827,0.2563,0.3628,-0.758,-0.3296,0.248,0.5283,-0.1191,-1.655,0.5264,0.652,-0.635,0.669,0.7896,0.064,0.2308,-0.1638,0.07635,-0.6123,-0.0589,0.299,-0.9395,1.013,-0.5986,-1.088,-0.2986,-0.04022,0.414,-1.766,-0.6704,0.006634
bathtub,0.997,0.753,0.2186,-1.693,-0.4768,-0.009155,0.3442,-0.85,-0.601,-0.899,-0.06854,-0.348,0.7563,-1.267,1.183,0.0199,-1.367,0.042,-0.00975,0.6616,0.427,0.01367,0.257,0.2673,-0.3386,-0.411,1.227,2.367,1.504,0.703,-1.038,2.434,-0.3516,1.136,0.903,-1.8,-1.008,-1.827,0.7354,0.728,-0.7256,1.365,0.8174,-1.614,0.02348,0.5,1.681,-0.668,0.588,-0.4749,-0.1898,-0.777,-0.2783,0.6406,-0.825,-0.927,-0.633,1.022,-0.738,1.137,0.513,-0.3125,-1.555,-1.291,0.9956,1.028,0.01776,0.8613,-0.0238,1.289,0.749,0.675,1.169,0.873,0.7236,0.06198,1.275,0.03117,-2.414,-0.02934,0.6855,-0.9297,0.1908,-0.3894,-0.9688,-0.5522,0.921,0.683,-1.33,0.08374,-1.438,0.03513,1.104,0.639,0.6816,0.1869,0.2803,1.469,0.711,0.4612,0.8916,-0.9126,-0.2042,0.17,-1.292,-0.2188,1.057,-0.5547,0.4646,-0.2192,-0.1255,-0.135,1.771,0.04013,-0.773,0.958,0.9517,0.544,-0.348,-1.246,0.1326,0.0472,-1.617,-0.273,0.03342,0.2162,2.08,-0.663,-1.363,-0.2385,0.841,0.488,-0.109,-0.603,0.305,-0.6353,-0.0568,0.809,-1.913,-0.4229,0.2766,-0.1964,-0.5137,2.127,0.675,-0.02287,-0.9204,1.269,-1.139,-0.3374,0.2617,1.321,2.078,0.1879,-0.924,1.492,0.3413,-1.682,-1.414,0.06494,-0.405,1.253,-0.615,0.2585,0.5293,-1.385,-0.4978,-0.2231,-1.44,0.7305,-0.6675,1.861,-1.3125,-0.3652,-0.05933,-0.0205,-0.5356,-0.811,-0.9844,-1.14,-0.896,0.7393,-1.565,-0.507,0.59,0.8687,-1.372,0.3735,0.969,2.09,1.425,-0.875,0.989,-0.64,0.919,0.3867,-0.2496,0.7373,0.03967,0.739,0.03717,-0.4336,0.541,-1.275,0.6426,-1.724,0.678,0.7944,-0.433,0.557,0.1102,0.1033,1.215,0.8213,0.7505,0.608,1.132,1.413,1.459,0.56,-0.04166,-0.458,-0.677,1.005,-0.3882,0.2131,1.075,-0.3154,-0.4795,0.06146,0.4746,-0.096,-0.1809,-0.7676,-0.2172,-0.2573,0.637,-0.8877,-0.1315,-1.123,-0.8384,0.2422,0.4814,0.5396,-0.01176,0.4363,0.4907,0.5234,-2.477,0.3442,-0.995,1.174,-0.682,-1.037,1.4,0.8667,1.56,1.759,0.496,-1.094,-1.272,-0.569,1.115,-0.2418,-1.139,-1.015,0.4805,0.5225,1.399,-1.107,0.558,1.165,-2.03,0.118,0.918,1.162,-0.749,-0.959,-1.361,-0.0692,0.508,1.511,-1.48,0.994,1.067,0.6943,0.381,1.629,0.09265,0.947,-0.66,-0.838,-0.2142,-0.776,0.918,0.625,-0.5454,-0.00582,0.00374,0.4133,0.2866,-0.1711,-0.359,0.7544,-0.2078,-0.525,1.487,-0.3035,-1.199,-0.3765,0.3352,-0.10736,0.569,-0.9185,0.8345,1.418,-0.0658,-0.4014,-1.58,-1.225,1.571,-0.04044,1.277,1.025,0.408,0.22,-2.018,-0.499,-0.2312,-1.933,-1.375,1.252,-0.498,1.567,-0.1935,0.5317,-0.8623,0.3567,0.1754,1.472,0.3538,-0.5864,1.651,-1.016,0.3518,0.671,0.2224,1.183,-0.742,-1.22,0.899,0.4692,0.8633,0.05795,0.8286,-0.943,-0.313,-0.02782,1.048,0.2052,-0.535,0.2534,1.624,0.603,0.5327,0.1711,-1.512,-2.63,-1.076,-0.9766,-1.362,-0.3457,-0.8853,0.1895,-0.8716,-1.569,0.05203,-0.952,-0.703,-0.1085,0.777,0.835,-0.6553,0.0061,-0.1683,-1.331,-1.263,0.738,-0.988,0.798,-0.303,1.077,1.103,-1.091,0.1974,-1.747,-0.793,-0.0641,1.383,-1.772,-1.376,0.5103,-0.131,-1.158,0.1879,-0.209,-0.95,-0.4932,0.05945,-0.467,-1.242,-0.47,-0.339,-0.4968,-0.355,1.693,-1.849,-0.683,-0.8906,1.46,-1.444,-0.1564,-1.447,-0.2568,-0.1317,-0.8276,-1.839,-0.9175,0.5137,-0.911,-0.233,1.253,1.677,-1.668,1.149,1.898,-0.37,0.04056,-0.8745,-0.1598,-1.395,-1.744,1.585,-1.716,-1.4,-0.782,-0.2783,-0.887,-0.2688,-0.641,0.951,0.0798,0.752,0.9663,-1.648,0.3875,0.3691,-0.4304,-1.588,1.111,-1.415,1.131,0.2386,-1.231,0.1334,1.47,-0.7583,0.01525,0.5015,-1.554,0.4814,-1.338,1.966,-0.2214,-0.46,-0.05463,-0.6436,1.342,0.429,0.722,0.1748,0.946,-0.502,-1.3955,-1.221,-0.07056,0.804,0.4482,1.428,0.308,0.497,-1.088,-0.278,1.682,0.9775,-0.3625,0.3418,1.025,0.5625,-0.572,-0.4229,-0.3276,0.04916,-0.3682,0.746,-0.2201,1.0205,-0.853,0.3745,0.796,1.46,-1.347,0.465,0.2477,0.02667,0.0713,0.8477,-1.718,0.354,1.132,0.257,0.7266,-0.632,1.842,0.6396,0.02077,0.4915,1.348,0.756,-1.338,0.7407,0.04163,-0.2568,0.4636,-0.771,1.987,-0.11774,-1.354,-1.869,0.001314,0.0962,-1.05,-0.7324,0.516,-1.862,-0.367,-1.631,-0.983,-0.006496,-1.27,0.704,0.265,-0.94,0.2311,-0.1978,0.517,0.646,-2.188,-0.396,-1.045,0.2131,0.3618,0.6577,-0.54,0.406,-1.45,-2.088,-0.2922,0.59,0.4346,0.599,-0.2905,-0.0725,1.014,-0.5127,-0.0886,1.011,-1.897,-0.1956,0.2079,-0.673,-0.646,0.04245,-1.245,-0.2803,0.02147,-0.11975,0.2703,0.4714,-0.1254,-1.132,-0.5767,0.5527,1.354,1.499,-0.7837,-0.5527,-1.327,-0.3694,1.582,1.136,1.137,0.1644,-0.1442,-1.405,-0.4375,-0.63,-0.4277,-1.577,0.3474,0.762,-0.933,-0.0693,0.3845,2.303,-0.03555,0.596,0.942,0.8955,-0.9165,-0.1447,-0.3047,1.01,0.7725,1.739,1.374,-1.098,-0.9385,0.6978,-0.4,-1.316,-1.414,-0.2228,-1.154,0.287,-0.501,0.1251,1.75,-1.662,0.3894,1.479,1.63,1.699,-0.2656,0.5337,0.4019,1.391,1.265,-0.0699,0.1833,2.072,1.717,-0.679,-0.1075,-0.4722,-1.508,-0.878,-0.561,-0.1627,-0.02606,-1.436,-1.464,1.593,-0.8438,0.1384,-0.958,1.414,1.035,-0.3267,-0.8955,-0.723,0.984,3.139,-0.9834,0.555,0.754,-0.4602,0.632,-0.369,-1.028,-1.477,-0.2783,-1.043,-0.3372,-1.4795,1.028,0.877,0.847,-0.4968,-1.142,1.246,1.254,-0.648,-0.3743,0.4224,-0.3562,0.7856,-1.163,-1.092,1.529,-0.0888,-0.6045,-1.768,0.8765,-0.556,0.8213,0.795,1.578,-0.1724,-1.275,-0.2532,0.1611,1.741,-0.2305,0.3428,-0.03973,-0.5825,0.926,-1.122,-1.628,-0.5723,1.339,0.2524,0.11304,0.2207,-0.805,-0.858,1.268,-0.09503,0.229,-1.576,0.9766,0.1847,1.309,1.482,-0.3252,-0.5728,0.3706,0.333,-0.7075,0.7954,1.102,2.33,-0.785,-0.337,0.324,-1.377,0.817,-1.524,0.476,1.05,-0.4958,-1.278,0.6274,-1.655,0.972,0.6914,0.519,1.161,0.4487,0.4736,-1.098,1.528,0.4487,-0.9214,0.738,-1.588,0.942
bear,0.1647,0.373,-1.19,-0.9443,0.2576,-1.26,-0.53,-0.3738,-0.9883,0.1272,-0.968,-1.584,0.6333,-1.899,1.465,-0.461,-2.719,-0.9497,1.645,0.585,-1.212,0.8022,-1.578,-1.428,0.512,0.94,-0.783,1.159,-0.5073,3.11,-1.572,-0.4321,-0.11395,-0.2401,0.03754,-0.4785,-0.2852,-0.9263,1.211,0.10767,-0.6187,1.365,1.092,-1.018,0.81,-0.1561,0.1455,-1.5625,-0.946,1.211,-0.5674,0.10974,0.5703,0.088,-0.941,1.164,0.1141,-0.03528,1.723,-0.00608,-0.224,0.1282,0.07007,-0.5444,-0.1794,1.268,0.002804,0.8,-0.697,1.031,-0.4092,0.1514,1.75,0.692,-0.3264,0.8057,-1.217,-0.07855,-2.68,1.485,0.2654,-0.0103,1.452,-0.812,0.3875,-0.2368,0.712,-0.5874,0.667,-0.2573,0.4866,0.6147,-0.38,1.309,0.4836,-0.2089,0.513,-0.5894,0.506,-0.04147,0.1283,0.2864,0.4373,-0.746,1.772,0.2062,0.2517,-0.642,0.8105,-0.9966,1.426,0.866,-0.3728,0.926,-0.469,0.1996,-1.067,-1.276,0.4824,-0.5044,2.139,0.4312,-0.6597,1.0625,0.9937,0.4885,1.219,0.06137,-1.026,1.794,0.6597,-1.277,-1.268,-0.1392,-1.355,0.3372,-0.504,-0.967,-0.7456,-0.695,0.01976,-0.161,0.1952,1.181,-0.5093,0.2222,0.1084,1.158,-0.1248,-0.5215,-0.538,-0.54,-0.3286,-0.1761,0.8833,0.693,-0.5786,0.11115,-1.492,0.6494,0.3984,-0.2333,-0.8726,0.6265,0.1882,-0.8613,-0.9604,0.2512,-0.2207,1.106,0.522,-1.478,-0.003822,-0.0812,-0.9087,-0.6885,-0.3225,-1.444,-0.02492,-0.6045,1.181,1.441,0.854,0.5693,-1.126,0.071,-0.1321,1.41,-0.788,-0.594,-0.2527,0.8477,-0.2708,0.2712,-1.114,0.557,1.4795,-0.898,0.2345,-0.4084,0.3137,-0.0604,-1.669,0.6787,0.374,-0.447,-0.369,-0.6265,0.465,0.1779,0.2732,1.795,0.2573,0.3586,0.692,0.942,1.409,0.569,-1.732,-0.1448,-0.878,0.03622,0.006756,-0.597,-1.19,0.6772,0.273,-0.5444,-0.07074,-0.02971,1.203,0.8154,0.9897,0.683,-0.0477,0.617,1.119,0.1267,1.086,-0.1384,-1.445,0.617,-0.614,-0.3345,-0.8687,0.2063,-1.115,-0.7695,0.4006,0.1302,-0.792,0.4587,-0.0469,-0.955,0.882,1.95,1.405,1.218,-1.004,-0.9175,-1.07,0.1228,-0.6724,-0.245,0.1852,0.5444,0.5835,1.333,0.2908,-0.962,1.114,0.1665,1.081,0.5244,-0.3457,-0.03613,-0.0547,-0.2688,-1.135,-0.776,0.5234,-0.565,-1.268,-0.9746,1.325,0.31,0.6685,0.5586,0.4014,0.577,0.008766,-0.5747,0.3074,-0.4084,-0.02324,-0.464,0.2269,-1.307,0.4658,1.009,0.309,0.006615,-0.7275,-1.355,1.015,-0.02383,-2.416,0.55,-0.8613,0.707,0.702,1.841,-0.3486,-0.646,0.7007,-0.2365,-0.4246,0.7676,0.877,0.63,0.312,-0.4214,0.3574,-0.7812,0.3196,0.848,-0.429,0.7075,-0.507,-1.109,-1.626,-0.816,0.1964,-0.8096,-0.476,0.843,0.6484,0.3877,0.4812,0.3118,0.01974,-0.5522,0.9023,-1.537,-0.4202,-1.635,-0.9775,-0.509,0.657,-1.505,-0.4753,-1.053,-0.5586,0.406,-1.621,-0.0496,-0.6377,0.005962,0.7827,-0.2996,0.6514,0.2028,-0.0713,1.056,-0.278,0.1904,0.33,0.5513,-2.137,0.2411,-0.167,0.4744,0.827,0.9434,0.2483,-0.9316,-0.5874,-0.4036,-0.4446,-0.5645,-0.45,0.4104,-0.0758,0.0177,0.7534,-1.282,-0.197,1.705,-0.783,0.536,-1.922,0.2524,-0.6206,-0.698,1.537,0.735,-0.1057,-0.8965,0.3604,-0.2769,2.066,0.4946,0.01513,-0.2402,0.099,-1.377,-0.887,1.0205,-1.61,-1.184,-0.7686,-0.4104,-0.9126,-0.3977,0.3047,0.3535,0.0173,0.5557,0.0944,0.9556,-0.9224,-0.6953,-0.0745,1.278,-0.00468,1.125,-0.1876,-0.2742,-0.7573,-0.02597,0.7305,-0.993,-0.5215,0.7373,0.5835,0.4126,0.1885,0.5903,-0.4033,0.737,0.4033,1.387,-0.384,0.3025,1.143,1.35,-1.546,0.663,1.293,0.3066,-0.849,0.3345,0.217,-0.9663,-0.7964,-0.463,-0.5493,-0.058,-0.9453,-0.8965,-0.3928,0.657,1.195,-1.556,-1.512,0.2029,0.2213,0.7495,-0.519,-2.102,1.41,-2.31,0.4954,-0.707,-0.033,-0.716,0.7656,-0.4214,-1.175,-0.802,1.121,-0.547,0.784,-0.1213,-0.9473,0.1624,1.148,0.622,0.0999,1.01,-0.3323,1.435,-0.971,0.4617,-0.1238,-0.2449,0.063,0.06805,0.6973,0.2377,-0.2146,-0.957,0.2291,-0.1929,-0.9185,0.141,-0.513,1.08,1.455,1.286,-0.1873,1.324,1.063,0.716,-0.1552,-0.3433,-0.5635,0.3096,-0.479,0.886,0.839,-0.6616,0.7197,1.463,0.573,0.568,1.4375,0.6777,-0.03497,0.982,-1.015,-0.2332,-0.2466,-0.8115,0.3892,-0.803,0.9404,0.10297,-0.8555,0.423,0.3127,0.734,-0.9673,0.1025,0.383,0.749,1.553,0.619,0.2788,-0.9478,-1.368,0.2031,-0.701,0.07983,-0.476,-0.5166,-0.34,0.292,-0.2169,-0.3293,1.338,-0.11725,1.824,0.4,-0.32,-0.835,-0.6094,-0.6494,0.3027,-0.1726,0.4941,-1.061,-0.3042,2.078,0.613,-0.3877,0.668,-0.5234,-1.068,0.3354,-0.802,-1.086,1.412,1.083,0.3733,1.136,0.7046,-0.0842,0.992,0.2356,-0.9033,-0.4238,-0.3264,1.558,1.264,0.9907,1.016,0.0473,0.03903,0.1311,-0.999,-0.649,-0.715,-0.4932,-0.2986,0.5854,-0.3428,-0.3362,-0.5503,-1.086,-0.1247,-0.998,-0.849,0.2219,1.13,-0.5024,0.409,0.7666,1.718,-1.132,1.626,0.96,0.8774,0.5195,0.543,-0.307,0.4482,0.4983,-0.001623,0.802,-0.8496,-1.014,1.113,-1.111,-0.2908,-0.0943,-0.2803,0.2683,0.0333,0.2678,-1.513,0.347,-0.4387,-1.154,-1.207,0.1876,0.04535,-1.65,0.1771,-1.288,-0.2656,0.698,0.1724,1.534,-0.8193,1.389,-0.6543,0.3787,-1.203,0.2041,0.3606,-0.434,1.396,-0.8765,0.5264,-0.587,0.6436,1.759,-1.068,-0.2048,0.1885,-0.6714,0.759,1.067,0.6094,0.4954,-0.3845,-0.0273,0.9053,-0.482,-1.022,-0.87,-1.8955,-1.065,-0.4177,0.8267,0.5034,0.03143,-1.248,-0.1829,-1.03,-0.7705,-0.964,0.00794,-0.764,-0.1373,0.936,-1.742,-0.7075,-0.515,-1.366,-1.567,-0.2308,-0.4487,-0.7974,2.305,1.191,-0.3242,0.5757,0.4194,-0.1181,1.328,-0.631,-0.00691,1.681,-1.124,-1.084,0.63,0.2612,0.614,0.901,0.11615,-1.506,-0.8696,-0.5317,0.926,-0.9785,-1.617,0.208,1.41,1.19,-0.2031,0.1368,2.176,2.44,-1.195,1.384,-1.123,0.6416,-1.057,1.501,0.1869,-0.1741,-0.4844,-0.6367,0.4375,-2.062,-0.6543,-0.5356,-0.2715,1.266,-0.966,0.4785,1.538,-1.321,-0.688,0.686,-0.969,0.4128,0.5645,-0.8286,-0.5967,0.9585,0.2534,-0.8223,0.7603,-0.0866,-0.1824
bed,0.3062,0.4343,-1.417,-1.572,0.4895,1.427,0.7188,-0.5947,-0.7827,-1.764,-0.9624,-0.5107,-0.341,-1.712,1.63,-0.5273,-1.326,-0.2181,1.3,0.588,1.074,0.4558,-0.4714,-2.467,1.359,-0.9653,0.2827,0.3538,0.1797,-0.4219,-1.629,-0.04654,0.3572,0.1987,0.9307,-0.851,-0.1825,-1.287,1.252,0.06018,-0.3926,-0.5205,-1.371,-0.9556,1.319,-0.843,0.848,-1.138,0.927,0.313,-0.04968,-1.268,0.3616,-0.2308,-0.761,1.234,-2.348,0.1572,-0.094,-0.84,1.265,0.1362,-1.583,0.794,-0.522,0.03616,-1.673,1.031,-0.3743,0.54,-0.626,1.208,1.401,0.77,0.2556,1.031,0.459,-0.2668,-1.611,-0.1129,-0.9766,0.6914,1.4795,-0.2461,-0.4797,-0.6304,1.2295,0.01461,-1.022,0.3171,-0.2045,0.554,-0.5894,-0.1783,0.2952,-0.6035,-0.8413,-0.7227,0.02759,-0.773,2.281,-0.7583,1.39,-1.078,-0.5576,-0.897,1.408,-1.212,1.057,-0.505,0.691,0.525,0.3596,0.9624,-0.2119,-0.2162,-0.2598,0.3567,0.3071,-0.7993,0.01604,-0.1998,-1.077,1.887,1.354,-0.4397,1.031,0.838,-1.317,0.44,1.04,-0.3198,-1.745,-0.3599,1.857,-0.556,0.02287,0.42,-0.04523,-1.107,0.9185,-0.813,0.9976,0.03053,0.7305,-0.9375,-0.9263,0.4229,0.1694,0.793,-0.236,0.7534,-0.7266,0.4648,0.2512,1.668,0.4624,-1.161,-1.526,0.02861,0.03125,0.317,0.1862,-0.12067,-1.13,-1.431,0.905,0.685,-1.779,1.345,0.2522,0.713,-1.273,0.446,0.1622,-0.641,1.009,0.802,1.288,-0.2498,-1.087,1.269,-0.623,0.6343,0.4023,0.1313,-0.16,1.444,1.41,-0.791,-0.635,-0.3347,-2.12,-0.08,0.736,1.057,1.0625,0.2474,-0.7773,-0.6216,0.724,-2.648,1.053,-0.3867,1.349,0.127,-0.436,-0.604,-1.469,0.066,-0.2903,0.9956,1.511,0.1698,1.454,0.01863,0.5005,-0.0718,-0.818,1.123,-0.7847,-0.887,-0.2255,0.712,-0.5513,0.6396,0.5947,0.1527,0.4224,-0.44,-0.757,0.1648,-0.0898,-0.2097,0.2705,-0.11316,1.239,-0.97,-0.796,0.452,-1.035,1.305,-0.4463,-0.4885,-0.984,-0.094,1.451,0.1185,0.2754,-1.609,-0.8394,2.6,-0.623,-1.834,1.288,-0.3416,0.838,2.207,-0.311,-0.825,-0.812,1.402,0.1715,-0.4453,0.675,-1.55,1.045,0.1675,-0.1929,-1.023,0.955,1.129,1.128,-0.2069,-1.033,-1.131,-0.5474,0.9893,-1.273,0.1334,-0.698,0.2137,-0.3547,1.173,0.5205,0.5537,1.067,0.843,0.006653,-1.222,-0.905,-1.745,-1.55,1.793,1.346,-0.4011,-0.536,-1.673,-0.3179,1.698,-1.309,0.9653,-0.419,0.2051,-1.373,-0.642,-0.343,-0.3752,-1.04,0.5205,0.8315,0.1545,0.9756,-1.336,1.639,0.4067,0.467,1.229,0.367,0.7305,0.6597,-0.7715,0.805,0.599,-0.2556,-1.311,-1.177,-0.4343,-0.4788,-0.08496,-0.5093,1.554,-0.5957,-0.2673,-0.944,0.82,0.2167,1.117,0.435,-0.8594,0.3325,0.03482,0.1494,-1.033,0.4521,-1.266,0.1017,0.6074,-0.4592,-1.092,1.195,-0.839,1.29,0.00296,-0.3794,-1.701,-0.9673,-0.1937,1.678,1.401,0.2947,0.461,0.3647,-0.003048,-0.76,0.735,-1.378,-0.1656,-1.164,-1.9375,0.2135,0.2416,-0.705,-0.5977,-1.5,0.631,-1.274,-0.513,-0.4143,0.1344,1.111,1.209,-0.1577,-0.3716,-0.911,-1.879,-1.354,0.8257,-1.126,0.4348,-0.8237,0.2544,-0.1295,-1.97,0.443,1.184,-0.3054,-1.583,1.581,-0.8564,0.1481,0.569,-0.8403,0.1675,1.242,-0.11816,-0.718,0.7134,-0.4011,-0.6,-1.909,-1.032,-0.2231,1.788,-0.518,-1.078,-1.273,-0.5205,-2.041,1.79,-2.705,-2.346,-1.588,0.06036,0.2917,1.041,-0.1052,-1.159,0.4062,-0.973,0.5225,0.552,0.8975,-1.874,1.367,0.564,-0.468,0.492,-0.9673,-0.4348,-0.1339,-0.576,1.056,0.3037,-0.0548,0.2222,0.4683,-0.9023,-1.259,0.7207,-0.2352,-0.7427,1.273,-0.641,0.1923,0.3916,1.021,0.00916,-0.0603,-0.211,-0.2075,0.1072,0.5596,-1.582,0.8037,0.79,1.224,0.7305,-1.746,-0.78,0.8726,-1.253,-0.0894,-0.2107,-1.845,1.411,0.7925,0.01901,0.4348,0.358,-0.487,0.1242,-0.2352,-0.856,-0.263,-0.2832,-0.09326,-0.033,1.054,-0.341,-0.3218,0.665,-0.566,1.596,0.1021,-0.4578,1.332,0.639,1.819,0.662,1.072,-0.908,-0.3835,-0.3364,0.297,0.133,2.02,0.337,0.6475,0.1875,1.432,0.306,0.0598,1.888,0.4255,1.48,1.6,-0.00736,-1.596,0.6646,-0.869,-0.662,-1.088,1.932,1.576,1.616,0.5083,0.3396,-1.046,-1.353,-1.865,0.8677,0.2708,-2.133,1.221,2.266,-1.407,0.1377,-1.181,1.078,0.6904,-1.04,-0.5786,-1.891,-0.3857,-0.02151,0.3506,-1.233,-0.1377,0.326,1.001,-0.0237,-0.1233,-0.8545,-0.07776,0.4836,0.5205,-1.839,0.7817,-0.4143,1.79,0.98,0.0548,-0.10004,-0.958,0.3477,-0.732,-1.654,-0.555,-0.8037,1.592,0.1469,-0.9614,0.926,0.1826,-0.191,0.591,-0.9424,-0.5063,1.127,0.8184,-0.1359,1.785,-0.634,-0.5493,0.757,-0.12115,-0.99,1.95,-0.3403,-0.9917,0.0651,0.139,-0.1846,1.979,1.222,-1.319,-0.852,-0.7188,1.169,-0.634,0.792,-1.532,-0.423,-1.255,-0.4421,0.2869,-0.36,-1.813,-0.721,-0.824,-0.9854,1.251,0.4836,1.165,0.9717,0.1675,1.284,0.447,-1.014,0.1517,-0.5537,0.701,1.015,0.981,-0.9736,-1.054,0.5376,0.798,0.227,-0.766,-1.649,0.369,-0.1604,0.6787,0.6953,1.317,1.65,-2.13,-0.2927,0.8237,0.6963,1.322,-0.5845,0.1478,0.535,1.014,-0.08575,-0.4739,-1.662,2.16,1.395,-1.36,-0.1936,-1.27,-1.508,-1.386,0.861,-1.37,0.4556,0.304,-1.421,1.969,-1.206,1.19,-0.531,0.7803,1.692,-1.369,0.1327,0.3357,0.9556,1.953,1.683,-0.2874,-0.789,-1.63,0.0583,0.792,-0.3523,-0.4917,0.06067,-1.136,-0.9883,-0.3596,0.539,0.909,-0.38,-1.388,0.1323,0.4292,1.091,-1.995,0.03955,0.121,-0.532,1.269,0.317,-0.487,1.072,-0.65,-0.648,-1.003,0.0763,-0.3013,1.314,0.4656,1.16,-0.8296,0.5474,-0.2108,0.2047,-0.1797,1.251,0.05542,0.414,-1.362,0.1666,-0.5786,-0.932,1.058,1.785,1.444,-0.4338,-0.783,-0.812,-1.347,-1.25,2.564,1.065,-1.659,-0.7495,-1.587,0.7783,2.117,-0.4712,0.8535,-0.3125,0.797,-1.416,0.1342,1.029,1.563,-1.047,-0.4565,-0.9126,-1.389,-1.1455,-1.254,-0.75,1.146,-0.1421,-0.756,0.4397,-1.636,1.27,-0.2822,-0.03955,0.11725,2.266,-0.515,0.4358,1.447,0.325,0.1561,-0.1951,-0.821,0.7056
belt,0.2437,-2.416,0.3462,1.002,-0.9424,0.04153,-0.64,0.823,-1.059,1.105,0.4573,0.547,-0.631,0.0882,-0.1171,0.04773,0.02951,0.3516,-1.134,-1.135,0.632,1.099,-0.4783,0.4224,-1.416,0.3757,1.142,-1.175,-0.5537,-1.169,0.1956,-0.003626,-1.046,0.844,0.1065,1.111,0.951,1.141,-0.558,-0.4934,-0.4885,-0.4277,-0.686,0.12054,-0.9287,-0.3406,-1.208,-0.2466,-1.772,0.678,2.072,-0.338,0.5522,-0.6733,1.497,-0.563,-0.479,-1.596,0.4595,-0.8374,0.453,1.068,0.2637,0.627,-0.3577,-0.2893,-1.304,-0.8555,-0.7085,0.724,-0.4756,-1.139,-1.472,-0.1161,-0.3904,1.209,-0.472,1.22,0.3162,0.08966,-0.003641,0.7236,-0.2822,0.1725,0.374,-0.868,0.0706,0.785,0.1454,-0.1791,1.096,-0.5225,-0.2805,-0.446,0.508,0.1665,-0.10626,0.2957,-0.7954,0.2812,-0.6343,0.2954,-0.2102,0.8677,0.999,0.1332,-0.608,-0.10724,-0.363,0.8584,0.0883,-0.0254,-0.5957,-0.3293,-0.3965,-0.993,-0.2747,-0.3245,-0.0904,0.6016,0.6187,-0.9263,0.7896,1.1,-0.1202,-0.3467,0.2974,0.571,0.5054,-0.4272,-0.2037,0.8804,-0.01682,0.4797,-0.854,0.2087,-0.02997,-0.06635,0.2096,-0.5083,0.572,0.8066,-0.4346,-1.831,-1.203,0.94,1.19,0.5874,0.2285,-1.023,-0.705,0.965,0.3923,-0.002504,0.589,-0.885,-0.343,0.3782,1.131,-1.041,0.2861,0.79,0.842,1.808,0.769,0.4573,0.614,-0.1842,0.5127,-0.9614,0.4338,-0.18,1.167,1.151,-0.912,-0.2861,-0.49,-0.2812,0.2036,0.533,1.186,0.08105,0.3008,0.4243,-0.02174,-0.9487,2.016,-0.0774,-1.082,-0.491,0.688,0.4583,-0.2417,0.602,0.673,-0.3203,-0.2886,0.529,0.05368,-1.251,-1.614,0.6675,0.267,1.536,-0.3813,-2.035,0.0904,-0.3398,1.384,-0.734,-0.8696,-0.2052,-1.374,-0.11273,-0.285,0.558,0.1609,-0.591,0.6836,0.1299,0.6553,0.1914,0.1858,0.2666,-0.0939,0.6206,0.3105,1.201,-0.6816,0.848,0.7163,-0.696,0.4014,0.825,-0.3992,-1.072,0.584,0.2157,1.459,0.1936,-0.3699,0.2346,-0.8525,2.273,-1.622,0.8306,-0.3574,1.366,0.7754,-0.012115,0.1055,-0.482,-0.572,-0.908,-2.031,-0.0413,-0.8975,-1.665,0.6587,0.568,-0.5493,-2.025,1.441,-0.5386,-0.1525,0.0601,-0.659,0.8364,-1.322,0.6313,0.726,0.0557,0.4512,0.568,0.07983,-0.2869,-0.2122,-0.12445,0.734,-0.3245,-0.5625,0.1,0.1572,-0.3691,-0.615,0.742,-1.403,-0.457,-1.029,1.835,-0.2805,-0.3164,0.339,1.157,-1.312,-0.411,0.5977,0.757,0.0474,0.496,0.6147,-0.5835,0.3398,-0.6343,-1.023,0.312,-0.523,1.101,0.4746,0.9316,-0.616,0.501,1.283,1.681,-0.3074,0.1776,-0.2625,-0.3765,0.1887,-0.5483,0.178,0.08356,0.6577,-0.4126,-0.2793,0.996,2.117,0.2496,1.294,0.475,0.77,-0.8403,0.0524,-0.9663,0.476,-3.135,0.9883,-0.2269,0.409,-0.425,-0.725,-0.81,-0.1732,0.2313,-1.156,0.1663,-0.4985,0.2047,-0.404,0.2073,-0.549,-0.8984,-0.1896,-0.1537,1.08,0.03882,0.2908,0.3774,-0.73,0.388,1.634,0.615,0.0944,0.8687,0.62,0.205,0.1945,0.1874,-0.5195,0.491,0.946,1.284,0.1643,1.02,0.947,-0.7397,0.2725,0.4373,0.1827,-0.202,0.091,-0.2651,0.7744,-1.1,0.9897,1.506,-0.0723,1.59,-0.0524,0.3616,1.516,-0.12354,-0.821,0.3044,-0.9194,-0.8423,-0.781,0.1874,-0.322,0.4705,0.1259,0.6274,0.11914,-0.4539,-1.484,-0.663,1.183,0.03476,-0.25,-0.4946,0.564,0.8867,2.496,-1.06,0.1289,-0.01616,1.085,0.7812,1.018,-0.4832,0.1222,-0.1329,0.04382,1.071,0.273,-1.053,0.929,0.4666,-0.677,-0.1802,-0.9062,-0.0822,-0.9434,-0.0925,-1.691,0.7754,-1.009,0.1285,-0.2472,0.5645,0.1334,0.2979,-0.9614,-0.7446,0.3425,-0.5923,0.7983,-0.10626,1.271,-0.4265,-0.05362,0.02547,-1.157,0.592,0.443,-0.7373,0.4587,-0.3306,-0.2412,0.565,1.429,-0.8203,-1.604,0.5083,-0.4492,-0.3096,-0.1305,0.3977,-0.9014,1.158,0.616,-0.5796,0.531,0.6006,-0.1836,-0.3462,-0.8267,-1.623,-0.974,-1.183,-0.3987,-0.4102,-2.271,0.427,-0.5083,-0.1782,-0.05023,-0.296,0.0735,0.4531,-1.134,-0.10974,1.407,-1.294,0.3965,1.715,-0.2437,0.01002,-0.654,1.317,0.9185,-0.5835,0.526,0.0375,1.058,-0.3108,0.508,-0.158,-0.4976,0.732,-0.927,-1.312,0.3208,-0.0373,-0.7207,-0.522,-0.4077,-0.6904,0.8984,0.104,1.964,-0.5083,0.4993,-1.054,-0.7456,0.2267,-0.6655,-1.113,1.944,0.82,1.293,1.004,-0.703,-0.7812,0.504,0.09796,-0.3066,-0.2286,1.657,-0.579,0.05978,0.3743,0.4316,0.2145,0.3735,-0.663,0.12225,1.329,-0.02599,-1.584,-0.783,-1.144,0.756,0.6987,0.4102,-0.1664,0.5205,0.4543,0.3354,-0.1124,0.3242,-0.628,-0.3638,0.4937,0.7856,0.3608,0.8623,0.0677,-0.517,-0.7065,-1.386,1.554,-0.01239,0.807,0.3008,1.6455,-0.06122,1.188,0.2864,-1.324,-1.955,0.4746,-1.235,0.6743,0.6685,-0.03586,-0.131,0.2358,-0.4138,-0.2122,1.184,-0.3752,-0.2908,-1.214,-0.187,0.597,-0.9165,0.297,0.563,0.1001,-0.7373,-0.495,-0.55,-0.1853,0.962,-0.01672,0.3662,-1.2705,-0.9365,0.1857,0.6445,0.585,-0.636,-0.3682,-0.553,0.2201,-0.397,-0.965,0.533,1.428,-0.3328,0.7417,-1.46,-0.6807,1.092,0.09717,1.208,0.6855,0.1796,1.255,-0.758,0.61,0.441,0.2578,-0.2751,-0.9976,-1.354,-1.939,1.341,-0.988,-0.4053,0.202,-0.1512,0.6978,-0.2993,1.0,-0.587,0.3862,0.2089,-0.1087,-0.5967,-1.467,1.064,0.4631,-0.073,-0.6514,-0.6846,-0.1036,0.886,1.243,1.766,0.7495,-0.8784,-0.4446,0.1798,0.9736,-0.3662,-0.1353,-0.904,-1.518,1.023,0.08496,-0.633,0.5425,0.5957,-0.4543,0.7983,1.26,0.2803,-0.1245,-0.04178,-0.6504,1.889,-1.007,-0.503,-1.144,0.6685,0.789,0.463,-0.1635,0.1451,-1.219,1.045,-1.367,-0.1683,-0.00461,0.3774,0.4834,1.468,0.325,0.714,0.9385,1.491,0.3926,1.309,-0.3313,-1.346,0.06903,-0.39,-0.869,-0.4036,-0.4033,0.478,0.12317,1.536,0.9736,0.8833,0.3804,0.08777,-0.5176,-0.4304,-0.05035,-0.2627,0.2583,0.4294,-0.1525,0.3137,-0.5635,0.2698,-0.7866,0.4495,-0.4675,0.585,0.2345,-0.4602,-0.498,0.4023,-0.6377,0.6616,1.053,-0.2319,0.05978,-0.4102,0.506,1.237,-0.844,0.5522,-0.1622,0.689,-0.251,-0.004494,0.6685,-0.04538,-0.961,1.024,-0.872,1.682,0.919,1.001,-0.1589,1.007,-0.1855,-1.209,-0.811,0.3018,-0.2922,0.661,0.3865
bench,-0.3794,0.1484,-0.2722,-0.59,-0.6143,0.4443,0.58,-0.418,-1.438,-1.142,0.4832,0.6753,-1.084,-0.954,0.7695,0.9688,0.2263,0.5405,-0.8013,-1.226,0.04865,0.719,-0.10895,-0.2017,0.3696,0.9673,0.1138,0.8613,-0.1493,-1.197,0.296,-0.322,-0.01063,-0.394,-0.794,-0.866,0.3306,-0.732,-0.3855,-1.073,-0.4146,-0.7866,-0.1962,-0.6753,0.4653,-1.763,-0.83,-0.0285,-0.765,-0.422,1.01,0.1504,0.3267,-0.9077,-0.0964,0.01659,-2.03,0.8057,0.2078,-0.7344,0.441,-0.1755,-0.904,-1.122,0.6274,-1.128,-0.8423,0.7915,0.3499,-0.0818,-0.4695,1.051,-0.297,0.05847,-1.378,-0.3567,-0.4893,1.085,0.3315,-1.018,-1.097,-0.8066,0.4465,0.2546,-0.3435,-0.933,1.251,0.708,-0.362,-0.02547,-0.6035,1.719,-1.246,-0.4385,0.02917,-0.204,0.3247,-0.01027,0.6665,0.3308,-0.007294,-0.1449,-0.8076,0.381,-0.9575,-0.313,1.809,-0.03217,0.05008,0.486,-0.02646,1.63,-0.4675,-0.789,1.386,0.3684,-0.565,0.1886,-0.0918,-0.6436,-1.08,-0.4111,-0.2751,0.09,0.708,-1.018,0.1321,0.52,-0.4585,-0.297,0.9,0.705,-0.754,0.1083,0.463,0.02669,-0.6294,1.147,0.3796,0.068,0.725,0.733,0.7793,0.3706,0.2074,-0.4739,0.2546,-0.14,-0.65,0.981,-0.1459,0.239,-0.01958,0.1503,0.1098,0.855,0.365,-0.5386,-0.315,-0.2161,-0.2069,-0.1203,-0.791,-0.539,0.6157,-0.4985,0.532,0.02544,-0.988,-0.1339,-0.006767,-0.6064,-0.8457,0.07275,0.08307,-0.7812,0.8164,0.3457,0.5977,-0.1715,-0.1216,-0.3967,-0.7495,0.0793,1.043,-0.02339,-0.3381,0.1126,-0.5776,-0.0673,-0.6904,-0.906,-1.486,0.3276,-0.10156,0.3896,0.518,1.591,0.9346,0.0003994,0.711,-1.825,0.473,0.04388,1.8545,-1.675,0.2441,-0.3057,-0.4192,-0.679,0.003105,0.02414,1.125,0.2299,0.5317,-0.513,-0.5103,-0.5405,0.2593,0.3167,0.7476,-0.1339,0.429,0.353,0.5854,1.417,-0.504,0.732,-0.04645,-0.09357,-0.7485,-0.4104,-0.541,-0.009514,-0.4124,0.2898,1.043,0.1091,-0.1864,-0.9976,0.826,0.589,-0.8843,1.446,-1.023,0.3044,0.367,0.5093,-0.682,-1.272,-2.232,0.11395,-0.5186,0.4114,-0.4026,0.545,-0.289,0.761,-0.1661,-0.961,-1.064,0.04865,0.802,-0.855,0.1198,-0.9375,0.891,-0.2358,-0.4417,-0.03693,1.164,1.183,-0.10516,-1.147,0.468,0.4954,0.1532,0.08746,0.6753,-0.1388,-0.5264,0.2976,-0.07117,0.992,0.2979,-0.325,0.3982,0.679,0.1459,0.6304,-0.4822,-0.2576,-0.3125,1.923,0.4946,-0.1395,0.494,0.3352,-0.1659,1.145,-0.665,-0.3938,-0.823,0.5776,-0.426,0.5234,0.5283,-0.4736,-0.04736,-0.002735,-0.3506,0.04898,-0.03543,-0.9556,0.1153,-0.7427,1.009,0.6504,-0.3289,-1.186,-0.55,0.772,-0.6807,0.03096,-0.459,0.161,-0.795,0.9785,-0.7285,0.671,0.7124,1.608,-0.2302,1.295,0.637,-0.58,-0.223,0.4565,-0.547,-0.1276,-1.78,0.793,-0.0692,0.04163,0.9253,-0.02286,1.004,0.6816,-1.064,-0.079,0.641,0.642,-0.116,-0.3608,0.14,-0.6743,-1.314,-0.3398,-0.007965,0.6353,-0.07556,-0.3284,0.4666,0.02045,1.054,0.2089,-0.08075,-0.1676,-0.2915,-1.317,0.4026,-0.04922,-0.5654,-0.1895,0.2568,0.884,0.2168,-0.4106,0.1547,-0.5513,0.285,0.998,-0.9443,0.2583,-1.55,-0.3381,0.4338,-0.2123,-0.558,1.76,0.4717,0.846,0.695,-0.4106,0.3262,-0.389,-0.6777,0.0817,-0.1371,-0.746,-0.3237,1.674,-0.622,-0.2261,-0.02486,0.10693,-0.4517,0.9985,0.6685,-1.159,-0.4849,-0.898,0.1788,-0.6343,-0.1231,1.382,-0.1183,-0.07117,-0.554,0.4753,-0.641,-0.823,-0.05917,0.393,-0.905,0.5786,0.8584,0.0509,1.556,-0.4517,0.0879,1.081,-0.003532,-1.18,0.2664,-0.1209,0.5044,1.094,-0.8774,-0.576,-0.9575,-0.5815,-0.231,-0.1522,-1.289,-0.1085,1.386,-1.356,0.06036,-0.934,-0.3308,-1.669,-0.1593,0.5977,-0.8228,1.164,0.7812,-0.1138,0.277,0.629,-0.8057,-0.3381,-1.188,0.351,1.164,0.3987,0.0,-0.2375,-1.133,0.2283,-0.4636,-0.0713,-0.01987,-0.1213,-1.714,1.448,0.4387,-0.3086,-0.567,-0.04794,-1.011,0.874,-1.001,0.6475,-0.9087,0.885,-0.719,-0.002275,1.675,0.743,0.3867,1.151,-0.03745,0.2329,-0.0495,-0.1704,0.4922,0.2373,-0.4202,0.581,0.1791,-0.3474,0.4487,-0.814,0.2634,0.855,1.19,-0.1975,1.194,-0.1777,0.3599,1.223,-0.2245,0.305,0.6855,-1.521,0.10706,0.701,-0.6587,0.991,-0.2683,-0.3608,-0.3135,-0.01416,0.10095,0.5737,-1.506,-1.115,-0.9243,-0.4612,0.1842,0.3596,0.06915,-0.859,-0.4597,1.676,0.00688,0.6094,0.42,0.4534,-0.1322,-0.9272,-0.7554,-1.061,-0.9854,-0.2274,-0.319,0.3757,0.08185,-0.2593,0.5127,0.781,0.7144,0.674,2.266,0.466,0.718,0.05814,1.044,-0.602,0.762,0.1375,0.2717,1.111,-0.0966,-0.526,-0.1338,0.567,0.08136,-0.8057,1.426,0.2086,-0.1814,-1.001,-0.1498,-0.2542,0.3281,0.2773,0.00922,-0.804,1.344,-0.956,1.097,0.4712,-0.3345,-0.3464,-0.6514,-0.4763,0.3408,-0.2852,0.0505,0.3984,-0.449,-1.124,0.591,0.58,-1.781,0.6953,0.813,0.495,1.167,0.6216,-0.4001,-0.4238,0.03513,0.5854,0.655,-0.7393,-0.6685,-1.086,0.8706,-0.4321,1.321,0.5107,-0.4502,0.3232,-0.2291,-0.3254,-0.8145,-0.2318,-0.1236,-0.3555,-0.1003,1.009,0.8013,-0.3572,0.5107,-0.6577,0.7153,-0.5596,-0.1271,0.1317,-1.517,-0.5503,-0.862,-1.869,-0.2178,1.614,-0.6943,-0.2019,0.2124,-0.0336,0.0165,0.0963,-0.764,0.8403,1.083,1.162,0.05725,-0.5513,0.581,0.9653,0.01686,-0.6226,0.358,-1.235,-0.692,1.085,-0.1667,-0.2456,-0.1871,0.1937,0.3694,-0.4492,1.014,0.1962,0.2141,0.848,-0.5356,0.04944,-0.2393,0.9478,0.1881,0.4377,-1.606,-1.205,-0.4106,0.1384,-0.06027,-0.996,-0.855,0.67,-0.03577,0.10516,-0.2942,0.4224,0.3293,0.3303,-0.5586,-0.1346,0.9136,-0.2303,-0.699,0.2186,1.233,0.2495,0.2487,0.4512,0.8833,1.183,0.0918,1.575,0.05545,-0.503,-0.2593,0.492,-0.4927,-0.01521,-0.08527,0.6226,1.427,-0.4966,0.004314,-0.721,0.2788,0.3323,-0.226,-0.3977,-0.704,-0.1986,-0.581,-0.03403,1.121,-0.617,-0.2485,-1.438,0.6,-0.764,0.891,0.04465,-0.7207,-1.774,0.03918,0.4644,0.962,0.8735,1.854,-0.0444,0.675,0.378,-0.5356,0.4792,-0.1658,-0.6943,0.246,-0.7646,0.3093,-0.965,0.0511,-1.576,0.4414,-0.3105,0.09125,-0.879,-0.5957,-0.01865,-0.665,-0.2107,-0.6724,1.321,0.506,1.214,-0.1439,-0.5044,0.5884,-0.35,-0.355,0.828
bib,0.412,0.366,-0.3499,0.5044,0.5986,0.6143,-1.006,-0.756,-1.145,-0.07404,-0.4731,-0.6265,0.5156,-1.241,0.317,0.3103,-0.9946,-1.613,-0.3723,0.4216,-1.105,-0.367,-1.198,-0.4329,-0.32,0.141,-0.1602,0.0224,-0.8623,0.988,0.1608,0.006042,-0.3867,0.568,0.6113,-1.114,-0.02019,0.4844,1.336,0.2125,-1.154,0.7456,-0.077,-0.01607,0.156,0.1926,1.745,-0.4978,0.903,-1.21,0.862,-0.2404,1.195,0.04105,-0.6904,0.1361,-0.0769,-0.1633,0.582,0.2013,1.183,0.55,-0.2727,-0.10126,0.4385,1.242,0.8257,0.519,-1.322,0.6367,0.99,0.4182,1.122,1.53,0.726,0.01637,0.903,-1.315,-1.002,0.8047,-0.791,-0.814,0.6006,-0.2274,-0.01976,-0.378,0.3823,-0.1476,-1.398,0.3252,-0.3823,-0.6445,-0.1312,-0.994,0.3743,-1.551,-0.694,-0.702,-1.123,-0.823,0.694,-2.059,0.6997,-1.362,0.646,-0.141,-0.3152,-1.128,1.009,-1.114,0.645,0.2551,0.3977,-0.6616,0.5186,-0.131,-0.927,-0.1062,0.3064,-0.907,0.6543,-0.0793,0.08746,0.2986,1.202,0.693,0.8184,0.3806,-0.5493,0.1686,-0.5244,0.006767,0.1786,0.8174,0.542,-0.802,0.347,-0.639,-0.565,-0.46,0.008606,-1.328,-0.1525,0.2137,-0.735,0.6816,0.02611,0.929,0.8315,-0.956,-1.617,-0.492,0.697,0.02379,-0.3464,0.746,-0.465,0.7515,-1.335,-0.1963,0.878,0.773,0.8184,0.3438,-0.8306,0.3574,0.9756,-0.78,-0.7476,-0.157,0.4612,0.02434,-0.3167,0.4285,-0.9365,0.511,0.9575,-0.423,-0.0736,-0.588,1.114,0.69,0.4644,-0.1965,-0.0357,0.8535,-0.4014,1.713,0.438,0.5786,0.8525,0.361,0.3467,-0.2383,0.4854,0.1832,-0.0344,0.05426,-0.558,0.1218,-0.3477,0.378,-0.2006,0.4536,-0.4197,0.1738,0.817,0.1395,-0.7397,0.948,-0.1716,0.1382,0.2908,1.366,1.069,0.0761,0.00981,-0.3733,0.1401,-0.7017,-1.145,0.263,-0.07263,0.3577,-0.812,-0.5347,0.539,0.354,0.1947,-0.5244,-0.03854,0.0208,-0.3137,-0.4873,-0.391,-0.4082,0.02948,0.08075,1.333,-0.06824,-0.528,-0.811,-1.254,-0.6606,0.353,0.6006,-0.1141,-0.805,0.785,0.04645,-0.1263,0.335,-0.2737,-1.472,0.6294,0.0836,0.3254,0.7764,-0.2102,0.975,-0.759,-0.4492,0.11847,-0.02773,-0.3145,-0.4695,0.0565,0.7153,-1.814,-1.443,-0.353,1.019,0.0376,0.4707,-0.652,-0.391,0.946,-0.0143,0.4644,-0.843,-0.1247,-0.2231,0.2654,0.0718,0.05603,0.02464,0.707,-0.3591,-0.00256,-0.6157,-1.034,-0.857,0.0754,-0.356,-0.4714,0.5957,0.661,-0.799,-0.8716,0.4546,-0.676,1.49,-0.3298,-0.983,0.897,0.6606,-0.2703,0.7666,-0.2128,0.811,0.9536,0.2495,0.3086,-0.3318,0.2244,-0.6875,-0.72,0.0738,1.062,1.032,0.1208,-0.3057,0.1489,0.1584,-0.9316,-0.835,-0.3516,-0.6484,1.162,-0.10693,-1.639,0.4119,0.8564,-0.118,-0.866,0.425,-0.4297,1.283,-1.098,0.2832,0.4006,-1.506,0.3604,-0.2883,-0.579,0.041,-0.0712,-1.03,0.314,-0.2322,0.419,-1.025,-0.7695,0.9937,0.535,1.204,0.1459,0.94,1.07,0.4565,0.584,-0.2742,0.624,0.911,-0.1461,-0.4475,0.2627,0.5747,-1.254,0.1475,-0.9487,0.532,1.147,0.5596,0.531,-0.514,-0.0867,-0.4124,-0.3572,0.3428,0.2482,0.5723,1.131,-0.6875,0.2332,-0.481,0.4875,0.3855,-0.6826,0.3704,-0.449,-0.4912,-0.4375,-0.9946,-0.306,0.3137,0.02538,0.0873,-0.2026,0.2196,0.4146,0.173,0.74,0.9326,0.10175,-0.1761,0.7456,0.2344,-1.0205,-0.203,-0.941,0.001049,-0.3328,-0.04004,0.828,0.02385,0.2605,0.6694,0.1294,1.327,-0.6943,-0.1238,0.1624,-0.3533,-0.07227,-0.2883,-0.4766,1.452,-0.3865,-0.4382,0.4412,-0.1508,-0.2472,0.848,0.6685,-0.561,0.8457,1.147,-0.478,0.4375,1.051,-0.9062,-0.4983,0.2947,0.2637,-0.529,0.1305,-0.2289,1.215,0.619,-0.3577,0.1681,0.5737,-0.3855,0.02011,-1.035,-0.7305,-1.189,-0.0697,1.215,-0.02693,0.6143,0.8237,-0.604,0.2905,-0.3186,-0.723,-0.557,-0.415,-0.679,0.4458,-1.342,1.306,0.12384,-0.1757,0.312,0.2151,-0.5815,0.1214,-0.3909,-0.09265,0.0756,0.9097,-0.08594,-0.3765,0.6577,1.274,-0.011375,0.2303,-0.3472,0.486,-0.1602,0.898,0.536,1.029,-0.06805,1.146,0.584,0.3813,0.5986,0.312,-0.4155,0.8975,0.5654,0.874,0.3481,-0.0609,-1.355,0.2484,0.7275,0.6,0.2766,0.775,0.8955,-0.1147,0.525,-0.528,-0.1509,0.658,0.6646,0.365,0.6963,-0.624,0.1042,0.05362,1.46,0.911,1.372,-0.1609,-0.1339,-0.07306,-0.5317,-0.1797,-0.05594,0.8647,-0.2211,0.6577,-0.2367,-0.7007,0.03482,-0.35,0.0182,-0.1263,0.2177,1.157,0.9126,0.288,0.5854,-0.7837,0.678,0.1155,-0.2605,-0.03442,0.5986,-1.017,1.062,0.739,-0.643,-0.742,-0.4583,1.101,0.1004,-0.3845,-0.934,-0.05762,-0.1488,-0.1259,-1.08,0.4504,0.006504,-0.1393,0.5244,-0.618,0.7783,-0.799,0.2869,0.1294,-2.156,-0.7876,0.0056,0.1361,1.026,0.601,-0.726,-0.558,1.781,0.8193,-1.103,-0.1089,-0.767,-0.832,-0.5312,0.8174,-0.3313,0.8354,-0.2169,-0.3086,0.3389,-0.1614,-0.4536,-0.5474,-1.345,-1.919,0.0662,-2.166,0.005016,0.1381,0.4202,-0.84,0.5444,0.5244,-0.6216,-0.4233,-0.786,0.3076,-0.75,0.1978,0.2795,0.9766,-0.521,-0.4734,0.7993,-0.1725,0.5396,0.2695,-0.8486,-0.3843,0.599,-0.1866,0.672,-1.278,-1.764,0.534,-0.3723,0.59,-0.8394,0.716,-0.075,-0.824,-0.4263,0.564,-0.09155,-0.116,0.6406,0.308,0.5786,0.3499,-0.9165,-0.3481,-0.532,0.3337,0.3064,-0.654,1.159,-0.914,-0.6406,-1.243,0.2012,-0.745,-0.2976,-1.925,-0.06433,0.9966,0.998,1.801,0.348,0.9204,1.352,-1.489,-0.423,-0.6836,-0.3442,-0.05737,0.4924,0.1139,1.039,0.5156,0.4478,0.2356,0.132,-0.2083,-0.584,-0.4995,-0.78,-0.755,-0.894,1.492,0.911,0.0376,-0.1276,0.4802,0.257,-0.6577,-0.393,-0.3887,-0.4802,0.804,0.4624,0.533,0.3464,-0.3657,-1.203,-0.1212,1.553,-0.05023,1.252,0.1183,-0.01295,-0.05157,0.1293,-0.4294,0.0233,-0.1266,-0.6855,-0.2324,-0.4976,-0.7617,0.01735,0.6924,0.3154,0.527,1.515,-1.192,0.0545,0.3716,0.767,-0.605,0.01971,-0.2546,-0.1992,0.10724,0.2168,0.02046,0.877,0.8687,-0.2842,0.3257,-0.457,0.81,-0.562,-0.02126,0.4822,-0.2625,-0.3728,0.3254,-0.3442,-1.187,-1.276,0.7134,0.2068,0.2593,-0.6772,-0.117,0.939,0.04388,0.6426,0.642,1.001,0.4382,0.1147,-0.04587,0.4988,0.908,0.0434,0.00618,-0.3037,0.376,0.4045
bird,0.571,-0.04056,0.1276,-1.373,0.1952,-1.223,0.1211,0.1768,0.6064,0.603,0.04935,-0.631,-1.124,-0.08765,0.0082,-0.4087,-0.144,0.541,1.056,1.148,0.1323,-1.624,-0.3325,-0.2056,-0.2737,-0.2036,0.1398,0.148,0.55,0.4272,0.3838,0.654,-0.1958,0.702,0.1909,-0.3345,0.4856,0.3254,-0.223,-0.6245,1.109,-0.6836,2.744,0.523,-0.6196,-0.2487,-0.1791,-0.9507,-0.92,0.2306,-0.582,0.3625,0.1416,0.9126,0.3975,0.1344,0.9204,-0.4885,-0.3071,-0.9927,1.5,-1.042,0.6226,0.2344,0.6904,-0.1691,0.458,-0.39,0.9795,-0.534,-0.716,0.1461,0.0725,-0.254,0.6953,0.2491,-0.6074,-0.0496,0.3723,-0.4595,0.3896,0.6816,1.558,0.86,-0.1971,0.9834,-1.292,-0.8677,0.5195,0.01185,0.3066,-0.3076,-1.202,0.8345,-0.4563,0.5757,0.5044,-0.609,0.4844,-0.8965,-0.2134,1.033,0.1774,-0.155,-1.06,0.9146,0.02975,0.6934,-0.4666,0.601,-0.02364,0.5264,-0.2249,-0.2448,-0.935,0.3154,0.513,-0.4463,0.7773,-0.0706,0.115,0.4646,0.0367,-0.74,0.03568,-0.525,-0.5137,-0.225,-0.1118,-0.01,0.3792,-0.7383,-0.1503,0.575,0.06946,-0.8364,-0.09467,0.1378,-0.1294,0.9375,-0.7363,-0.03705,-0.7373,0.715,-0.02194,0.2252,1.009,0.1866,-0.9277,0.386,0.1147,-0.706,0.0667,-1.165,0.564,-0.43,-0.47,0.1528,0.784,0.4895,0.4,0.1735,0.013374,0.0944,-0.4695,0.02806,-0.0932,-1.199,1.098,1.802,-0.4736,0.2434,0.3267,0.04767,0.5625,0.3933,-0.704,-0.8247,-0.876,0.5986,0.4587,0.3076,0.4363,-0.08154,-0.3484,-0.3948,-0.649,0.507,-0.2477,0.2389,-0.01543,0.01417,0.08356,-0.09454,-0.8867,0.592,0.1321,0.2091,-0.607,0.6743,0.729,-0.7466,0.3347,-0.423,-0.4905,0.02075,0.5996,0.274,0.654,-1.078,0.0621,0.5127,-0.01877,0.7188,-1.059,0.733,0.455,0.4177,-0.329,-1.278,-0.0579,0.8076,1.12,0.1,-0.2267,0.1989,-0.9697,0.1067,-0.5977,0.03894,-0.335,-0.224,1.124,-0.2825,-0.08185,-0.6504,0.755,-0.2952,-0.644,1.26,1.274,0.07227,1.387,0.4187,-0.773,-0.654,0.01494,-1.377,0.4504,-0.624,0.326,-0.3198,0.05988,0.04218,0.0487,0.1578,0.1565,0.2211,0.4397,-0.8765,1.349,0.03023,-0.643,-0.5884,-1.407,0.2776,0.0,-0.3662,0.4812,0.815,-0.3772,-1.244,-0.4307,-0.5566,-0.0438,-0.809,0.2932,0.1724,0.2434,-1.431,0.9224,-1.072,1.123,-0.8926,-0.2095,0.3303,-0.4172,0.09033,-0.2222,-0.17,1.215,0.7153,-0.4353,-1.301,-0.3086,0.137,0.4136,0.1237,0.2817,-0.1231,-0.1356,0.1925,0.205,-0.547,0.872,-1.537,-0.03867,-0.368,0.1975,-0.566,-1.477,-0.9453,-0.01383,0.6333,-0.3354,-1.012,-0.0231,0.1484,-1.039,-0.1665,0.3174,-0.791,0.1231,0.4478,1.279,1.58,-0.917,0.857,-1.023,-0.789,0.2993,-0.3904,1.488,0.0188,-0.07355,0.281,0.0408,-0.2512,1.326,-0.3784,-0.517,0.3208,0.1859,-0.04703,0.6055,-0.3796,-0.52,-0.381,-0.3464,-1.409,-0.3389,0.2517,-0.569,0.1808,1.395,-0.69,0.2847,0.00993,-0.03275,-0.869,-1.03,-0.0199,0.987,-1.391,-1.01,0.262,1.239,0.2947,0.2915,-0.458,0.198,0.5605,0.2856,0.595,-0.473,-0.3418,0.3438,1.5625,0.574,0.162,-0.2708,-0.993,-1.031,0.5547,-0.252,0.3972,-0.7065,-0.2283,0.3545,-0.1716,0.3684,0.1714,0.06445,0.786,0.2566,0.0088,-0.03958,-0.3054,-1.887,0.639,0.161,-0.643,-0.1224,0.4976,0.4258,-0.3286,0.2915,-1.261,0.87,0.1992,0.4863,0.1375,-0.5425,-0.0941,-0.682,-0.325,-0.4587,0.6387,-0.3557,0.08356,0.3,0.1898,0.7915,0.862,0.434,1.043,0.57,0.01546,-0.5674,0.764,0.892,-0.7524,-0.6475,1.087,0.10486,0.4019,0.03806,-0.152,-0.589,0.695,-0.2365,0.11035,0.6543,0.02039,0.03424,0.4214,-1.242,-0.0726,0.403,0.4426,-0.4749,0.6826,0.4644,0.1869,-1.094,0.02422,-0.06714,0.548,0.02817,-0.0849,-1.056,0.7085,0.894,0.7334,-0.4204,0.45,-0.4697,0.652,-0.403,-0.0779,-0.9443,0.674,-0.797,-0.2451,0.1282,-1.1455,0.2448,-0.9775,-0.538,-1.5205,1.347,-0.2534,-0.10406,0.6367,-0.965,-0.4182,-0.3413,0.804,-0.4246,0.7607,-0.2466,0.712,-1.303,-0.5835,-1.564,-0.362,-0.4705,-0.9595,-0.1019,-0.661,-0.4648,0.599,-0.7266,-0.2874,0.0195,0.2108,-0.45,0.2354,0.1323,-0.03574,0.1598,-0.2012,1.023,-0.5107,-1.19,0.765,-1.251,-0.2703,-1.075,0.1126,-0.4033,-0.1688,0.3706,0.3176,-0.2354,-0.3604,-0.04855,-0.01808,0.5537,0.02663,-0.721,-0.2123,-0.858,0.3179,-0.15,-1.507,0.5435,1.052,0.1322,0.584,-0.682,-0.034,-0.2487,0.3035,0.744,-0.4092,0.2512,-0.6562,1.553,0.2466,-0.3535,-0.9517,-0.1705,-0.3313,-0.4404,0.0,-0.38,0.741,-0.1427,-0.2556,1.985,-0.04718,0.2041,-0.08856,0.6763,-1.148,-0.02965,0.974,0.645,0.6045,0.3374,-1.135,0.47,0.1464,0.12024,-1.119,-0.3542,-0.286,0.1368,0.761,0.4888,-1.491,0.4666,1.261,-0.1495,0.02066,-0.2059,-0.9473,0.4092,0.11896,0.1962,0.6924,1.055,-0.1255,0.0419,0.1917,0.2322,-0.04492,-0.4229,0.4895,0.01313,0.1307,0.1909,0.7305,0.1418,0.709,-0.1342,-0.9355,0.674,0.4216,0.2142,0.10077,-0.2026,-0.4172,-0.5894,-0.2347,0.2347,-1.011,0.571,0.4885,0.8345,0.892,0.5293,0.3813,-0.4773,0.541,0.3652,1.035,-1.456,0.689,1.627,-0.2283,-0.605,0.1289,0.41,0.238,-0.0484,-0.4514,0.797,-0.0955,0.1345,0.808,-0.151,-0.789,0.1087,0.8013,-1.081,-0.6655,-0.04993,0.5835,-1.164,-0.5117,0.366,0.02623,0.981,-0.049,-0.4253,1.253,-0.795,-0.4956,0.2137,-0.2703,-0.3516,-0.706,-0.131,-1.171,-0.2656,0.2177,0.222,0.9717,-0.3022,-0.772,-0.9243,0.4297,0.33,0.4673,0.2135,0.6733,-0.1349,-0.2908,0.6094,0.792,0.01788,-0.1754,1.544,-0.063,0.01929,-0.9883,0.2208,0.7686,-0.1979,-1.028,0.7383,1.619,0.2258,-0.68,-0.922,0.2489,0.881,-0.877,-0.286,0.1302,0.2695,0.7266,-0.7065,0.0648,0.0933,-0.2932,-0.5913,-0.08875,-1.135,0.4722,-0.3345,-1.225,-0.5864,-0.4358,-0.1332,-0.368,-1.055,0.2683,-0.4082,-0.4343,0.5874,0.3403,-0.439,0.424,0.2805,0.0417,0.6084,0.8945,0.7383,-0.4482,-0.3093,-0.3284,-0.0552,0.1049,0.04083,-0.3928,-0.555,0.2761,0.1544,0.611,-0.793,-0.935,0.347,0.736,0.407,0.2961,-0.404,-0.1396,0.6475,0.11707,0.691,0.2081,0.4475,0.633,0.07666,-1.129,0.1704,-1.154,-0.256,0.1301,-0.2333,-0.1555,0.059,0.796,0.3914,-0.2537
blanket,0.02832,0.1755,-1.317,-1.16,0.7266,0.8486,-0.2803,-0.0902,-1.369,-0.368,-0.2004,-0.25,-0.08734,-1.831,1.433,-0.65,-1.442,-0.0494,1.067,0.9746,0.1824,0.4583,-0.5566,-1.589,1.065,-0.795,-0.253,0.1404,-0.358,0.607,-1.621,-0.2688,-0.1393,0.74,0.4717,-1.071,0.2666,-0.827,1.34,-0.4858,-0.614,-0.0677,-0.6655,-0.666,0.9,-0.503,0.854,-0.914,0.641,0.10156,0.1691,-1.3545,0.1444,-0.7173,-0.6646,1.681,-0.591,-0.1803,0.968,-0.4768,0.7144,0.1356,-1.305,0.757,-0.9136,0.4512,-0.897,0.739,-1.107,0.5674,0.3574,0.6104,1.007,1.511,0.5903,0.6978,-0.1072,0.002337,-1.905,-0.02895,-0.879,0.04715,1.534,-0.68,-0.1411,-0.572,0.3892,-0.252,-0.1062,0.611,-0.1615,0.0912,-0.555,-0.0721,0.57,-1.264,-0.3376,-0.3035,-0.1226,-1.114,1.967,-0.644,0.9326,-1.403,-0.7056,-1.285,0.8926,-1.231,0.3535,-0.446,1.162,1.109,-0.3809,0.897,-0.513,-0.1847,-0.2712,-0.02983,0.3135,-0.904,0.2484,0.6665,-0.7563,2.459,1.672,-0.278,1.145,1.111,-1.12,0.16,1.044,-0.6113,-0.7515,-0.547,1.136,-0.6294,-0.7285,-0.07336,-0.3687,-1.149,0.1838,0.613,0.351,1.074,0.3462,0.3752,-0.4019,0.5806,0.1935,-0.072,-0.4211,1.064,-0.08124,0.338,0.4624,1.194,0.12494,-0.1459,-1.31,0.0586,0.447,0.1105,0.2888,0.592,-1.795,-0.834,1.211,0.6064,-1.524,1.236,0.4463,-0.627,-0.4937,0.04398,-0.4707,-0.4976,0.49,0.3438,0.3018,-0.1879,0.11096,0.7793,-0.1268,1.173,0.5146,0.192,0.652,1.598,1.104,-0.846,-0.3477,-0.09314,-1.609,0.693,0.3657,0.7847,0.605,0.02254,-0.5703,-1.214,1.068,-2.23,0.4055,-0.1149,1.401,-0.3074,0.1841,-0.5317,-1.57,-0.02591,0.4456,0.957,0.975,1.041,1.027,0.05435,0.1785,-0.03812,-0.4717,1.127,-0.875,-1.185,0.4045,-0.2135,-0.1893,0.3044,0.4805,0.2094,-0.5195,-0.7026,-0.498,0.2751,0.2327,-0.07513,0.3682,0.796,0.747,-0.536,0.2502,0.001125,-0.9956,1.301,-0.808,-0.7676,-1.534,-0.476,0.82,-0.512,0.1467,-1.07,-0.5596,1.676,-0.353,-1.671,0.8438,-0.2754,0.3157,1.893,-0.4111,-0.062,-0.145,0.936,-0.4226,-0.38,0.6455,-0.5527,0.2256,0.34,-0.7104,-1.008,1.182,1.432,1.181,0.4841,-0.6177,-1.917,-0.4941,0.8384,-0.899,-0.3533,-0.788,0.632,-0.504,0.5483,-0.386,0.8667,0.912,-0.3015,0.393,-0.2122,-1.011,-1.176,-0.94,1.457,0.6724,-0.7095,0.6743,-1.745,-0.1833,1.4375,-0.7783,0.9507,-0.2612,-0.516,-0.935,-0.8022,-1.388,0.3872,-1.085,1.157,1.173,0.0708,-0.281,-1.3545,0.8745,0.4832,-0.07794,0.8154,0.2532,0.272,1.294,0.10535,1.039,-0.2866,-0.1256,-0.4324,-0.7847,-0.5093,-0.1841,-0.2588,-0.936,0.9585,-0.5967,-0.8716,-1.834,0.4028,0.592,1.253,0.1844,0.0973,-0.3538,-0.5845,0.2908,-1.009,0.312,-1.252,-0.893,0.1371,-0.4084,-0.7085,0.958,-1.326,-0.2361,0.2864,-0.578,-0.9233,-0.6133,-0.2305,1.484,1.736,0.7397,-0.736,0.53,0.578,0.3145,0.4841,-0.1644,0.3188,-1.606,-0.868,-0.4294,0.6143,-0.4636,0.369,-0.4866,0.759,0.1054,-0.3906,-0.1985,0.0833,0.7197,1.307,0.3818,-0.3606,-0.3389,-1.347,-0.612,1.217,-1.447,0.309,-1.038,-0.8887,-1.275,-1.485,1.051,0.433,-0.0725,-1.193,1.524,-0.537,1.251,0.07715,-0.2922,0.5947,0.709,-0.004105,-0.3853,0.521,-1.544,-0.769,-1.145,-1.141,-0.2754,1.063,-0.3425,-0.9893,-0.4414,0.515,-1.491,1.473,-2.158,-1.898,-0.472,0.293,0.833,0.345,-0.577,-0.2947,0.095,-0.4382,-0.02292,-0.0983,-0.103,-1.565,1.003,-0.3665,-0.4187,1.069,-0.7925,-0.4307,0.7114,-0.706,0.846,-0.3015,0.2295,-0.0672,-0.551,-0.1807,-0.3943,1.072,-0.551,-0.4321,0.6943,-1.0205,-0.2866,0.4644,0.957,-0.213,-0.86,-0.8564,-0.1843,-0.3574,0.9893,-1.729,0.744,0.5737,1.021,0.191,-1.958,-0.918,1.192,-1.899,-0.1782,-0.9116,-1.021,0.8496,1.046,-0.4016,0.1265,-0.2837,-0.42,0.01329,-0.4192,-0.3997,-0.6934,0.03476,0.0928,-0.1501,1.11,-0.41,0.1691,0.7793,-0.1571,1.275,0.2261,-0.4617,0.6743,0.7925,1.476,0.717,0.2106,-0.7407,-0.2834,-0.1993,0.447,0.5513,1.403,-0.04413,0.5356,0.71,0.2335,0.3723,0.1852,1.901,-0.2421,0.6562,1.309,0.4563,-1.071,1.096,-0.602,-0.681,-0.3303,1.346,1.325,1.762,1.103,0.3074,-0.418,-1.091,-1.673,0.428,0.2097,-1.875,1.347,1.555,-0.984,0.3838,-0.924,0.3184,1.243,-0.731,-0.2262,-1.489,-0.377,0.3345,0.6655,-0.6724,-0.286,-0.09717,-0.1642,-0.514,-0.4546,-0.6167,-0.0672,-0.2441,0.1615,-1.067,0.2039,-0.5454,1.237,0.2184,0.3792,0.4539,-0.583,0.06537,-0.6675,-1.612,-0.4163,-0.485,1.801,0.4172,-1.142,1.517,0.685,-0.4312,0.8125,-1.292,-0.1771,1.3545,0.2086,0.319,1.226,-0.638,-0.4802,1.106,-0.4194,-0.4348,1.269,-0.4338,-0.5415,0.1923,0.08594,-0.01953,1.074,1.181,-0.9463,0.1694,-1.11,0.817,-0.4514,0.728,-2.148,-0.05133,-1.213,-0.4663,-0.1537,-0.2146,-1.338,-0.6753,-0.4993,-0.932,0.9575,0.04318,1.344,0.524,0.7056,1.335,0.579,-1.19,0.716,-0.2389,0.599,0.2357,1.041,-0.8843,-0.03546,1.106,0.7524,0.8765,-1.054,-1.269,0.2642,-0.06586,0.286,-0.11847,1.069,1.239,-1.566,-0.2927,0.276,1.004,0.8945,-0.2737,0.00977,0.931,0.42,-0.608,-0.4868,-1.365,1.534,1.028,-1.11,-0.01645,-0.989,-1.46,-1.095,0.2922,-1.726,0.8345,0.408,-1.178,1.761,-0.5576,1.3955,0.732,0.702,1.738,-1.549,-0.186,0.2886,0.7026,1.213,1.188,0.07574,-0.4993,-1.035,0.2213,1.208,-0.11005,-0.09344,-0.8706,-0.8364,-1.686,-0.007587,0.626,0.875,0.653,-0.921,0.0823,0.02771,0.4775,-1.301,-0.4658,-0.055,-0.535,1.277,-0.09625,-1.037,0.9697,-0.6562,-0.772,-0.9106,0.418,0.57,1.381,0.7236,1.005,-0.02902,0.4392,-0.04706,0.3926,0.3987,0.729,0.2203,0.11053,-1.334,0.06323,-0.6567,-0.0836,0.835,2.113,1.24,-0.2415,-1.165,-0.4758,-1.117,-1.933,1.6,1.195,-0.8525,-0.459,-1.188,1.571,1.848,-0.2307,1.178,-0.609,0.589,-1.048,0.7515,1.239,0.927,-0.797,-0.4963,-1.317,-1.313,-1.22,-0.455,-1.124,1.175,-0.4392,-1.029,0.3284,-1.474,0.878,-0.583,0.348,-0.3276,1.25,-0.865,0.5405,0.985,0.3237,0.10785,-0.4946,-0.3423,0.699
