label,0,1,2,3,4,5,6,7,8,9,10,11,12,13,14,15,16,17,18,19,20,21,22,23,24,25,26,27,28,29,30,31,32,33,34,35,36,37,38,39,40,41,42,43,44,45,46,47,48,49,50,51,52,53,54,55,56,57,58,59,60,61,62,63,64,65,66,67,68,69,70,71,72,73,74,75,76,77,78,79,80,81,82,83,84,85,86,87,88,89,90,91,92,93,94,95,96,97,98,99,100,101,102,103,104,105,106,107,108,109,110,111,112,113,114,115,116,117,118,119,120,121,122,123,124,125,126,127,128,129,130,131,132,133,134,135,136,137,138,139,140,141,142,143,144,145,146,147,148,149,150,151,152,153,154,155,156,157,158,159,160,161,162,163,164,165,166,167,168,169,170,171,172,173,174,175,176,177,178,179,180,181,182,183,184,185,186,187,188,189,190,191,192,193,194,195,196,197,198,199,200,201,202,203,204,205,206,207,208,209,210,211,212,213,214,215,216,217,218,219,220,221,222,223,224,225,226,227,228,229,230,231,232,233,234,235,236,237,238,239,240,241,242,243,244,245,246,247,248,249,250,251,252,253,254,255,256,257,258,259,260,261,262,263,264,265,266,267,268,269,270,271,272,273,274,275,276,277,278,279,280,281,282,283,284,285,286,287,288,289,290,291,292,293,294,295,296,297,298,299,300,301,302,303,304,305,306,307,308,309,310,311,312,313,314,315,316,317,318,319,320,321,322,323,324,325,326,327,328,329,330,331,332,333,334,335,336,337,338,339,340,341,342,343,344,345,346,347,348,349,350,351,352,353,354,355,356,357,358,359,360,361,362,363,364,365,366,367,368,369,370,371,372,373,374,375,376,377,378,379,380,381,382,383,384,385,386,387,388,389,390,391,392,393,394,395,396,397,398,399,400,401,402,403,404,405,406,407,408,409,410,411,412,413,414,415,416,417,418,419,420,421,422,423,424,425,426,427,428,429,430,431,432,433,434,435,436,437,438,439,440,441,442,443,444,445,446,447,448,449,450,451,452,453,454,455,456,457,458,459,460,461,462,463,464,465,466,467,468,469,470,471,472,473,474,475,476,477,478,479,480,481,482,483,484,485,486,487,488,489,490,491,492,493,494,495,496,497,498,499,500,501,502,503,504,505,506,507,508,509,510,511,512,513,514,515,516,517,518,519,520,521,522,523,524,525,526,527,528,529,530,531,532,533,534,535,536,537,538,539,540,541,542,543,544,545,546,547,548,549,550,551,552,553,554,555,556,557,558,559,560,561,562,563,564,565,566,567,568,569,570,571,572,573,574,575,576,577,578,579,580,581,582,583,584,585,586,587,588,589,590,591,592,593,594,595,596,597,598,599,600,601,602,603,604,605,606,607,608,609,610,611,612,613,614,615,616,617,618,619,620,621,622,623,624,625,626,627,628,629,630,631,632,633,634,635,636,637,638,639,640,641,642,643,644,645,646,647,648,649,650,651,652,653,654,655,656,657,658,659,660,661,662,663,664,665,666,667,668,669,670,671,672,673,674,675,676,677,678,679,680,681,682,683,684,685,686,687,688,689,690,691,692,693,694,695,696,697,698,699,700,701,702,703,704,705,706,707,708,709,710,711,712,713,714,715,716,717,718,719,720,721,722,723,724,725,726,727,728,729,730,731,732,733,734,735,736,737,738,739,740,741,742,743,744,745,746,747,748,749,750,751,752,753,754,755,756,757,758,759,760,761,762,763,764,765,766,767
candy,0.1826,0.338,0.1704,0.05173,0.08966,0.1425,-0.09424,0.5703,-0.3088,-0.1058,0.64,-0.04828,-1.032,-0.637,-0.0625,-0.09863,0.1066,-0.2463,-0.376,-0.3105,0.06143,0.9204,-0.1741,0.02306,0.2712,-0.575,-0.1206,-0.1405,0.3782,0.1786,-0.1207,0.0946,-0.1277,0.8174,0.1415,0.6484,-0.5615,-0.1132,0.5293,-0.2632,0.05228,-0.1783,-0.506,0.6694,-0.0171,0.08716,0.6216,0.2186,0.573,0.577,-0.7954,-0.4849,-0.014046,0.8647,0.2385,-0.468,-0.4822,-1.434,0.7266,-0.2104,-0.4175,0.2935,0.2744,0.579,0.583,-0.53,-0.4927,-0.08813,-0.2908,-0.4358,0.08124,0.04855,-0.002476,-0.4885,0.1384,0.0996,-0.1326,-0.4675,0.2328,0.5815,0.004787,0.063,0.07745,-0.6294,-0.5522,0.5156,0.3723,-0.682,-0.689,0.6416,0.1156,-0.2825,0.01119,-0.723,-0.2177,1.06,-0.7427,0.9663,-0.06094,-0.03348,0.5264,0.0763,0.386,-0.3442,-0.4346,-0.429,-0.171,0.0813,0.0827,-0.0625,-0.0995,-0.931,-0.1979,0.417,0.279,-0.6704,-0.02333,0.3162,-0.01782,0.917,0.1997,0.439,0.437,-0.1304,-0.2751,0.1934,-0.0457,-0.1716,0.595,-0.3062,-0.2769,-0.214,0.11523,-0.3306,-0.003325,-0.003817,0.06976,0.1333,-0.485,-0.1876,0.1721,0.515,-0.3787,-0.2299,0.8677,0.1484,0.35,-0.5596,-0.2207,0.876,0.2837,-0.1604,0.001314,-0.3179,0.457,-0.2583,-0.00708,-0.1445,0.1295,0.06635,0.1614,0.1915,0.2576,-0.1644,0.763,-0.169,-0.7534,0.6504,0.461,-1.359,-0.669,0.1864,-1.025,0.3499,0.3933,0.1447,-1.574,-0.1627,0.504,0.2524,-0.0239,0.073,0.242,-0.189,0.2253,-0.02325,-0.1893,0.307,-0.4277,0.55,-0.3652,0.02353,-0.494,0.3523,0.04007,-0.2603,0.02109,0.6304,-0.2288,0.5635,-0.04327,0.881,0.1615,-0.6895,0.7056,0.1523,0.1028,0.2998,0.4958,-0.2922,-0.3096,-0.3994,0.5674,0.1693,0.2556,-0.2769,0.02724,0.2181,0.4465,0.473,0.1589,0.002422,0.58,0.3025,-0.1018,-0.1365,0.03577,-0.10815,-0.5264,0.629,1.017,-0.245,-0.2942,-0.2457,0.65,-0.2415,-0.12427,0.707,-0.1987,0.4514,-0.08185,0.2964,-0.000629,-0.6904,0.7173,-0.3462,-0.6265,-0.06082,-0.375,0.6987,0.596,0.2272,0.2115,0.03476,0.1566,0.06134,0.3425,-0.01316,-0.0985,-0.2961,0.3545,-0.4395,-0.2086,-0.364,-0.174,0.1989,-0.11804,0.3245,0.455,0.7207,-0.433,0.4626,-0.196,0.7163,0.4358,-0.221,0.5977,0.3384,0.01895,-0.716,0.6484,0.3513,0.0696,-0.6616,0.4941,-0.2988,0.0359,-0.3347,-0.693,-0.06085,-0.1163,0.0902,-0.7075,0.4006,-0.3364,-0.1837,-0.7905,0.005997,-0.1002,0.1284,-0.9424,-0.03357,0.2903,0.161,-0.08276,-0.84,0.5615,0.2844,0.3513,-0.2913,0.2164,-0.4553,0.1549,-0.3433,-0.2367,-0.1571,-0.7485,0.523,-0.5176,0.00882,-0.3574,-0.4744,-0.0301,-0.19,0.4385,0.718,-0.493,0.3303,-0.892,0.4854,-0.797,-0.1577,-0.7305,-0.9785,0.0323,0.991,-0.1296,0.4097,0.1069,0.1736,-0.08795,0.05975,0.2269,-0.09784,0.4878,0.1521,-0.2783,-0.29,-0.3357,-0.01277,0.3042,0.1932,-0.129,-0.8364,0.1495,0.658,0.04547,0.02396,-0.4155,0.682,0.133,-0.0437,0.2273,-0.04108,0.0676,-0.929,-0.127,0.1781,-0.352,-0.2076,-0.311,-0.3394,-0.3142,-0.585,-0.4443,-0.5693,0.2659,0.48,0.04263,-0.0528,-0.3506,-0.1377,-0.4502,0.3345,1.033,-0.2856,-0.10565,0.3445,0.2886,-0.4023,0.10925,0.4375,-0.003286,-0.664,-0.3787,0.1095,-0.2499,0.8716,-0.4023,0.2712,0.2207,0.6035,-0.07825,0.0663,-0.207,0.08136,0.3176,1.149,-0.672,-1.035,0.541,0.02687,-0.3215,0.5283,0.3213,-0.1231,-0.316,0.02058,-0.2905,-0.2397,-0.6235,0.10266,-0.1525,0.00879,-0.41,0.1848,0.6206,-0.1946,-0.506,0.72,0.02174,0.5845,0.571,0.1087,0.4895,-0.3723,0.2878,-0.02945,0.10815,-0.1831,-0.312,0.5723,-0.664,0.3552,0.1489,-0.474,1.076,0.3171,-0.628,-0.5444,0.4119,0.1853,-0.202,0.966,0.9507,-0.459,0.9297,0.014336,0.3447,-0.165,-0.1107,0.6597,-0.3853,0.223,-0.01874,-0.0993,-0.799,-0.1824,0.2644,0.6035,-0.1304,-0.1326,0.1049,-0.2319,-0.2778,0.3433,-0.6533,0.5005,-0.1733,-0.782,0.07245,0.391,0.3198,0.03827,-0.3403,0.4685,-0.3708,-0.1606,-0.4268,-0.05194,-0.413,-0.1956,-0.29,-0.10333,-0.12384,0.03056,-0.5947,0.2385,0.4092,-0.0231,0.08545,0.2301,-0.3645,1.435,0.04947,0.4102,-0.5215,-0.2913,-0.4243,-0.823,-0.286,0.8037,0.2383,0.1567,-0.2407,-0.4534,0.04498,-0.6226,0.501,-0.1963,-0.0707,-0.4385,-0.1646,-0.8384,-0.1808,-0.0902,0.03928,-0.4922,0.954,-0.0544,-0.1943,-0.4631,0.4834,-0.3228,-0.2334,0.9927,-0.5054,1.478,-0.4558,0.1683,-0.258,-0.1627,-0.02945,0.368,-0.1556,-0.471,0.1587,-0.566,-0.301,0.08936,0.286,0.744,-0.04382,-0.2024,-0.0644,0.3096,0.2727,0.2515,-0.8657,0.4365,0.3975,0.2625,0.628,-0.795,-0.2198,0.411,-0.3982,-0.2727,0.0366,-0.2373,0.3352,0.2642,-0.2274,-0.03802,0.1447,-0.2996,-0.424,-0.7056,-0.5864,-0.4102,0.4546,0.09235,0.2725,-1.377,0.273,-0.1791,0.4788,0.5024,0.3967,-0.1345,-0.6724,0.407,0.3533,0.04532,-0.5938,-0.9736,-0.3535,-0.1852,-0.554,0.2214,-0.5664,0.523,0.0956,-0.2421,-0.45,0.1759,-0.2598,0.4734,0.05807,-0.1344,-0.249,0.007343,0.7773,0.4324,0.1736,-0.3708,-0.381,-0.1747,-0.434,0.09186,0.11646,-0.2654,0.1675,0.01358,0.292,0.615,-0.435,0.1405,0.4175,-0.3972,-0.1437,0.00429,0.6304,-0.547,0.104,-0.2803,-0.0932,-0.0018215,-0.2355,-0.02077,0.07104,-0.4985,0.1699,-0.3384,0.2786,-0.943,-0.171,0.33,-0.217,0.03041,-0.05,-0.2837,0.1567,0.625,-0.7505,-0.6064,0.463,0.7085,-0.268,-0.2067,0.145,0.1324,-0.2832,0.2783,-0.3633,0.1448,0.539,0.06604,0.02974,0.366,-0.3953,-0.9033,-0.10626,-0.1065,-0.2468,0.498,0.1517,-1.113,0.557,-0.2842,-0.4011,-0.1409,-0.1107,-0.1648,0.2644,0.762,0.04523,0.3018,0.4148,-0.05054,0.12164,-0.545,-0.0327,0.0984,-0.01791,-0.1869,-0.2076,0.0827,-0.09686,0.2551,0.1465,0.4912,0.2408,-0.1678,0.105,-0.3208,-0.4739,0.1009,0.2256,-0.005024,0.4954,0.901,-0.4546,0.3765,0.3386,0.5723,-0.0502,0.5947,-0.4553,0.792,-0.2747,-0.2974,-0.1044,-0.09143,-0.11865,0.0006385,0.12256,-0.1217,-0.7974,0.8706,-0.3474,0.6055,-0.0899,-0.2002,0.2296,-0.3052,-0.1652,0.583,0.5425,-0.5645,-0.10626,-0.0966,0.5957,-0.311,-0.1228,0.2832,-0.2089,-0.1802,0.3079,-1.41,-0.578,-0.326,-0.6753,0.1501,-0.257,0.4653,0.08954,-0.1346,0.296,0.2979,0.10785,-0.0865,0.05026,0.004433,0.03497,-0.3164,-0.6836,-0.5513
corn,-0.2844,0.577,-0.4602,-0.2329,0.0983,-0.1908,-0.8447,-0.001878,-0.6504,-0.7383,0.149,0.6006,0.862,0.4075,0.4202,0.4915,-0.1418,0.55,-0.3184,-0.3247,-0.274,1.444,-0.00774,0.2725,-0.2876,-0.1506,0.3892,0.3223,-0.5723,-0.0832,-0.0249,0.1547,-0.4504,0.2666,-0.06152,0.4255,0.3503,0.04626,-0.1072,-0.09454,-1.117,-0.2986,0.2402,0.0408,0.4983,0.513,0.2216,-0.2374,0.2252,-0.435,-0.826,0.0851,0.1885,0.0957,0.496,0.3938,0.504,0.73,-0.3284,0.3079,0.1123,-0.05637,0.69,0.2311,0.2495,-0.3088,-0.2756,0.673,0.619,-0.9014,0.95,0.00643,0.2389,0.4238,-0.12067,-0.1083,-0.1301,-0.1613,0.1082,0.02934,0.312,-0.983,-0.1274,0.00829,-0.4543,0.104,0.1592,-0.3782,0.3079,0.5938,-0.2489,-0.534,-0.5796,0.0783,-0.8096,0.1682,0.6177,0.173,0.02261,0.03056,0.502,-0.3965,1.038,-0.05347,-0.01738,0.867,0.646,0.911,0.04257,-0.2411,0.2196,-0.504,-0.383,-0.707,0.2358,-0.449,0.1644,0.1853,-0.1112,-0.2489,0.4448,-0.0891,0.459,0.576,0.2404,0.2874,0.2556,-0.4404,0.1896,0.1765,0.151,0.3706,0.0668,0.2573,-0.2292,0.2004,-0.0426,0.1575,0.4028,0.1197,-0.313,-0.1611,0.1938,0.11957,0.5493,0.1405,-0.6904,-0.4224,0.1191,-0.1954,-1.361,-0.129,0.093,0.535,-0.5117,-0.438,1.092,0.2886,0.09705,-0.3845,-0.05255,-0.4072,-0.9043,-0.0462,0.4856,0.4229,0.3345,-0.03937,-0.3682,-0.3901,0.4592,-0.7153,-0.6343,-0.7783,-0.3567,0.1609,-0.562,0.597,0.5776,0.3723,-0.1697,0.932,0.6143,-0.5093,0.1556,0.102,0.2568,0.04327,-0.1666,-0.2651,-1.551,0.4426,-0.0922,-0.554,0.3394,-0.726,-1.043,-0.822,-0.3457,-1.101,-0.2026,0.2064,-0.744,0.7417,0.0854,0.2595,-0.5933,-0.3296,-0.355,0.8354,0.6426,0.12115,-0.1558,0.00848,0.2961,-0.01226,0.3557,0.273,-0.3748,0.1853,0.0895,0.2413,0.6826,-0.2542,-0.2104,-0.5527,-0.2031,0.1962,0.1458,-0.2568,-0.1454,-0.7695,-0.6274,0.195,0.426,0.3882,0.9116,-0.04053,-0.08234,-0.5625,-0.3503,-0.2328,-0.688,-0.3647,0.0767,-0.2856,-0.2374,1.037,-0.0171,-0.2766,-0.6807,-0.2207,-0.36,-0.1768,0.318,-0.1197,0.01297,0.282,0.00894,0.452,0.333,-0.0723,-0.6167,0.4255,0.3137,-0.1747,-0.04617,-0.8945,0.07025,-0.443,-0.524,-0.05127,-0.0908,0.3816,-0.344,-0.522,-0.6074,0.11194,0.08545,-0.2622,0.1354,0.4705,-0.0719,-0.922,-0.809,0.1077,-0.05853,0.07056,-0.977,-0.1141,-0.1515,0.1022,-0.5977,-0.3645,0.286,-0.916,0.826,0.3274,-0.4373,-0.306,-0.559,0.2092,-0.857,-0.08856,-0.1981,-0.3276,0.986,0.4587,1.2,-0.8916,0.2279,0.2986,-0.321,0.1659,-0.51,0.1437,0.447,-0.2834,-0.1,-0.3198,-0.3281,-0.0661,0.1879,-0.2238,0.637,-0.65,0.1731,0.3696,-0.271,0.1396,0.007473,0.3594,-0.263,-0.5903,-0.6084,-0.2026,-0.1401,-0.5396,0.4202,-0.782,0.7593,0.323,0.000639,0.2207,0.3162,-0.569,0.1245,0.1403,0.0626,-0.2499,0.1467,-0.001616,-1.077,0.6904,0.509,1.048,-0.608,0.03111,-0.02357,-0.526,-0.2676,-0.33,-0.2356,-0.3345,-0.02614,0.2026,0.1958,-0.2864,-0.459,-0.2395,0.679,-0.986,0.3113,-0.8096,0.10046,0.0766,0.3691,-0.265,-0.254,0.703,0.3425,-0.4014,-0.3484,-0.358,0.0641,0.10126,-0.1545,-0.00471,0.1252,0.522,0.711,-0.836,-0.0986,-0.8096,-0.05377,0.269,1.106,1.283,-0.5312,-0.1476,-0.667,-0.1704,0.4458,0.5093,0.2637,1.334,-0.848,0.12225,0.028,-1.181,0.3704,-0.4863,-0.1628,0.1327,0.2345,0.0499,-0.3093,-0.5737,-0.2593,0.04086,-0.844,0.0655,0.2866,-0.2245,-0.1277,-0.03784,-0.1072,-0.6777,0.3562,0.529,0.2052,0.2832,0.737,0.03793,0.2255,-0.1569,0.1438,0.4946,0.6187,-0.0679,-0.2524,0.2494,0.6455,0.1406,0.811,-0.472,-0.565,-0.07,-0.2866,-0.0595,-0.586,0.0688,0.6216,-0.0997,-0.159,0.559,-0.207,-0.06238,-0.188,0.3967,-0.1698,-0.1483,-0.2196,0.8945,-0.1628,0.2568,-0.1299,-0.2135,0.8354,-0.2935,0.5327,0.1478,0.314,0.1923,-0.2004,-0.10443,0.09576,-1.04,-0.2812,0.4539,0.1896,-0.03714,0.3972,1.031,-0.5117,1.041,0.688,-0.2103,-0.5654,0.6343,0.9023,0.4412,-0.2705,0.1222,0.298,-0.1143,-0.0861,-0.85,0.5176,-0.7104,-0.4285,-0.332,-0.5356,-0.717,-0.4307,0.33,-0.41,-0.2668,-0.2347,-0.1648,-0.847,-1.134,-0.3108,0.2065,0.2083,-0.621,-0.09064,-0.309,-0.05655,-0.65,0.1372,-0.05478,0.3499,0.7036,0.06866,-0.0233,0.829,-0.2803,0.8745,0.9976,-0.2712,-0.1948,0.1997,0.4517,0.0015745,-0.5684,-0.2018,-0.382,-0.312,0.2396,0.7715,-0.3777,0.5073,-0.2249,-0.431,-0.5107,-0.48,0.4192,0.539,0.0522,0.2274,0.78,-0.2883,-0.7134,-0.2262,-0.09076,0.643,0.375,-0.0497,0.698,-0.3787,0.0919,0.635,0.8203,-0.293,0.123,0.05966,0.149,0.01384,-0.863,1.179,-0.3723,0.05865,0.4368,0.1456,0.159,-0.6484,0.64,0.1517,-0.3232,-0.1663,0.0684,0.797,-0.917,-0.174,0.2646,-0.4817,0.735,0.2822,-0.4385,-0.1443,-0.6104,0.05945,0.2394,-0.3901,-0.5713,0.1262,1.255,-0.10205,-0.1766,1.125,-0.3552,0.565,0.497,-0.41,0.02887,-0.319,-0.07526,0.5728,-0.925,-1.082,-0.05664,-0.5967,0.0159,0.0666,-0.2825,-0.1934,-0.0521,0.1126,-0.08765,-0.02197,0.6885,0.1042,0.6235,-0.04782,1.438,0.4478,0.08905,-0.09705,0.08636,0.2488,-0.04532,0.904,-0.4844,0.279,0.0827,-0.2754,-0.119,0.05002,-0.0874,0.5654,0.2223,-0.1162,0.06143,-0.2155,-0.2607,0.9497,0.2362,0.6157,-0.0408,-0.4917,0.301,0.64,-0.4214,0.2161,0.1154,0.805,-0.3794,-0.814,0.4355,-0.4092,0.958,0.3718,0.57,-0.189,-0.861,-0.0378,0.3186,-0.1383,-0.603,0.04883,-0.173,-0.264,-0.2524,-1.003,-0.721,0.1334,0.4082,-0.137,-0.1975,-0.182,-0.2595,0.000977,0.2954,-0.518,0.5273,-0.739,-0.683,0.1235,0.7295,-0.8306,0.533,0.0905,-1.186,-1.405,-0.4243,0.1969,-0.11383,0.3958,0.0319,1.048,-0.4348,0.1838,-0.3003,-0.011116,-0.1464,-0.02034,0.165,0.5674,0.1503,-0.3252,0.08966,0.08563,0.02567,0.1896,-0.3125,0.251,-0.21,-0.3433,0.04767,-0.02821,0.2876,-0.626,0.2698,0.566,-1.351,0.1398,1.223,0.2515,0.2411,0.2627,-0.75,-0.095,0.6733,0.618,0.2937,-0.3154,0.07715,0.1667,0.0702,-0.06335,0.06287,-0.10077,0.688,0.3687,-0.934,0.3005,0.0905,0.08856,-0.4443,1.082,-0.237,-0.1943,-0.1123,-0.3489,0.7217,0.3906,0.9243,0.2727,-0.1372,0.3188,0.5635,0.2488,-0.02509,0.1009,-0.5723,0.3948,0.6074
arm,0.1082,-0.11633,-0.2141,-0.2483,0.1448,0.10266,-0.3813,0.1478,-0.4033,0.06354,0.2335,0.2007,0.05038,-0.663,-0.081,-0.02716,-0.5767,-0.2483,0.1395,0.1265,0.02118,0.3643,-0.005558,-0.02208,0.0906,-0.1448,0.3171,0.2264,0.2932,0.1202,-0.591,-0.5337,0.4497,0.5166,-0.003313,0.05487,-0.0805,0.223,0.1213,-0.3438,-0.2534,-0.0654,0.3125,-0.1783,-0.0916,0.1295,-0.4587,0.366,0.4426,-0.585,-0.3582,-0.02313,0.752,0.6797,-0.359,0.2317,-0.02338,0.745,0.1938,-0.3408,0.453,0.147,-0.4578,-0.0512,0.673,0.1879,-0.0832,-0.3135,-0.01187,-0.6875,0.0823,-1.159,0.0776,-0.07263,0.6978,-0.1246,-0.2021,-0.0541,-0.3586,0.5444,0.03552,-0.1339,0.3203,-0.178,0.1582,-0.226,0.1581,0.897,0.4346,-0.2686,-0.2178,-0.595,-0.3127,0.08887,-0.536,0.3418,-0.004433,0.0571,-0.2742,-0.0965,0.2004,0.1545,0.01465,-0.1422,0.00338,-0.355,-0.0953,0.00867,0.01945,0.1293,-0.94,0.1956,0.009,0.4868,-0.0782,-0.1763,-0.004997,0.4707,0.0929,-0.4824,0.2732,-0.1731,-0.2017,0.7793,-0.04706,-0.03687,0.647,0.07935,0.1918,0.05487,0.3896,-0.2057,-0.1449,0.4026,-0.01767,-0.2559,0.04987,-0.02054,0.3538,0.0444,-0.0529,-0.03372,0.0843,-0.0207,0.03595,0.313,0.08777,0.1805,0.3213,0.121,0.2932,0.02646,-0.0876,0.4314,-0.538,0.2162,-0.3123,-0.2235,-0.2273,0.1077,-0.13,-0.8027,0.1935,0.247,-0.00507,-0.08234,0.0313,0.3564,0.3013,0.1235,0.1599,0.3008,0.08374,-0.2076,0.0353,0.09924,-0.2942,0.3167,0.02321,-0.1149,-0.03583,-0.1997,0.1874,-0.5835,0.0698,0.1498,-0.11237,0.00491,-0.271,0.2107,-0.2406,-0.1753,0.4595,0.1443,0.1582,-0.3984,0.1555,0.1494,-0.2517,0.291,0.1912,0.7417,0.1145,-0.2302,-0.2869,0.1087,-0.4614,0.0994,0.3909,0.2888,0.0518,-0.2764,0.096,-0.0835,-0.2563,-0.11084,0.1702,0.1383,0.2578,-0.2279,0.209,0.663,0.1283,0.642,-0.7896,-0.2925,-0.00996,-0.0636,0.3052,-0.1288,0.4963,0.07825,0.1251,-0.1711,-0.3862,-0.1516,0.184,-0.549,0.1702,0.2795,-0.2847,0.2268,-0.1443,0.0792,-0.449,-0.10913,0.03014,0.3289,-0.02461,-0.05063,-0.2954,0.02486,-0.1383,-0.10754,0.181,0.1671,0.0346,0.02284,0.5215,-0.574,-0.2325,-0.2166,0.1769,0.1372,0.1392,-0.0891,0.0653,0.4863,-0.4412,-0.1168,-0.02637,-0.06476,0.2173,0.2009,-0.02582,-0.1581,-0.4104,0.003597,-0.04156,-0.534,-0.07275,-0.04953,-0.0737,0.1497,-0.1516,-0.4146,0.009415,-0.148,-0.3474,0.2642,-0.1422,-0.01082,-0.3196,0.1154,0.1917,0.1812,-0.06903,0.288,0.132,-0.03278,0.0783,0.06934,-0.1326,-0.01087,0.0733,-0.1682,0.1284,0.4949,-0.1887,0.06073,0.04095,-0.02548,0.1724,0.02736,0.1367,0.3086,0.1602,-0.2605,0.03014,-0.0571,0.01307,0.2844,-0.0355,-0.1974,-0.1229,-0.1305,-0.2428,-0.1545,-0.5625,0.772,0.1626,-0.1543,-0.2134,0.0862,-0.1454,-0.9507,0.2245,0.02231,0.3447,0.256,-0.2942,-0.1348,-0.321,0.5293,0.08405,0.081,0.2866,-0.1495,0.2756,-0.4578,0.1844,0.4443,-0.2766,0.3625,0.11176,0.11096,-0.0882,0.128,0.01094,-0.11487,-0.2051,0.1287,-0.599,0.2242,0.01776,-0.46,0.05093,-0.1364,-0.4978,0.1427,0.11316,-0.4226,0.0864,-0.1927,0.3848,0.03342,0.271,0.2205,0.034,0.276,0.06116,0.0714,0.2783,-0.12177,0.05978,0.1384,-0.006283,-0.3025,0.1761,0.02505,0.1312,0.1406,-0.1859,0.2261,0.3452,-0.11615,-0.2393,-0.2291,-0.09753,-0.2225,0.0754,-0.05505,0.465,0.05692,0.0591,0.1859,0.347,-0.184,0.1195,-0.313,0.02548,0.4321,-0.4468,-0.4438,-0.1925,-0.4236,0.1296,0.3506,0.05353,-0.2063,0.2786,0.02982,-0.2211,0.2505,0.2698,0.1843,-0.02853,0.508,-0.6733,-0.098,-0.02547,0.1437,0.1573,-0.08026,-0.1683,0.1313,-0.2725,0.1148,0.0274,0.3972,-0.465,0.6216,-0.1914,0.1794,-0.01825,-0.1357,-0.1355,-0.392,0.1168,-0.097,-0.438,-0.3794,-0.2588,-0.09625,-0.000901,-0.0696,0.1373,-0.04523,0.079,-0.3567,-0.2537,-0.2357,0.2742,0.3184,0.218,-0.1584,0.1797,-0.4487,-0.03046,0.145,0.2375,-0.2261,-0.336,-0.2263,-0.08276,-0.1515,-0.1054,0.1274,-0.3933,0.1621,0.04953,-0.1964,0.2224,-0.2493,0.492,0.01837,-0.0622,-0.0391,0.135,0.1122,-0.3193,0.1813,0.2852,0.2323,0.593,0.12274,-0.000263,0.2664,-0.0858,0.2434,-0.0887,0.0636,0.0751,-0.5703,-0.2783,-0.6206,-0.1678,0.1729,-0.527,0.355,0.3096,-0.4841,-0.01898,-0.2197,0.04742,-0.3567,-0.391,0.2089,0.2188,-0.1133,-0.05402,-0.3362,0.1326,-0.1951,0.2795,0.7476,0.0636,0.3516,-0.3633,-0.0968,-0.1578,0.01755,0.1941,-0.409,-0.1942,0.2085,-0.4001,0.4504,0.1849,-0.149,-0.0436,-0.0317,-0.006306,0.3264,-0.1398,-0.05957,0.7095,-0.1672,-0.1283,-0.2258,-0.2213,0.4578,0.2152,-0.1333,0.1414,0.1754,-0.07117,-0.08984,0.2708,0.1812,-0.0308,-0.3706,0.03906,0.4626,-0.0715,-0.3132,0.2825,0.02182,-0.7764,0.1974,-0.4207,0.641,-0.618,0.1124,-0.01164,-0.01519,-0.0838,0.02487,-0.5254,-0.010216,0.0401,-0.1854,-0.5366,0.502,0.0728,-0.1931,0.0619,0.347,-0.1747,0.253,0.4312,-0.1967,-0.04572,0.3628,-0.4165,-0.208,0.0718,0.4475,-0.59,0.0728,-0.04492,0.1178,0.3574,0.2444,0.01712,-0.4177,0.2688,-0.3533,0.02724,0.0709,0.2502,-0.1094,-0.19,-0.01678,0.1842,0.04303,-0.00124,0.004543,0.4333,0.25,-0.05286,0.2014,0.136,-0.03607,-0.2125,0.2327,-0.3816,0.8,0.06024,-0.2466,-0.158,-0.1727,0.0953,0.04114,-0.4656,-0.1892,0.5635,0.29,-0.287,-0.06525,0.133,-0.3772,-0.1942,-0.001481,0.1744,0.0798,-0.2242,-0.06415,-0.368,0.1743,-0.2856,0.08215,-0.0798,-0.2289,-0.125,0.4084,-0.407,0.287,0.0746,-0.155,-0.01343,-0.1943,0.0866,-0.27,0.1625,0.0908,-0.4204,0.1812,-0.878,-0.0963,0.10785,0.0724,-0.366,0.2462,0.2815,0.1849,-0.1985,0.0669,-0.3057,-0.09515,0.59,-0.4275,-0.1796,0.0876,0.4446,-0.5044,0.02817,0.1421,-0.2169,-0.4766,0.5493,-0.366,-0.143,0.01412,0.1798,0.404,0.0884,-0.3723,0.2783,0.482,0.3965,-0.5957,0.3118,-0.4812,0.4912,0.11066,-0.1537,-0.05908,-0.2786,0.0821,-0.3535,-0.191,-0.2676,0.077,-0.4126,-0.0139,0.03745,0.4226,-0.392,0.02855,0.2238,0.10156,0.012924,-0.1766,0.4648,0.05063,0.1543,0.3943,-0.1246,0.341,0.224,-0.1925,-0.005615,0.5874,0.701,0.3723,-0.04535,-0.2188,-0.4128,0.4243,-0.158,0.01415,-0.12213,-0.564,-0.003736,-0.00616,0.03433,-0.3816,0.4133,-0.04877,0.359,-0.1191,-0.3699,-0.1164,0.1611,-0.03802,-0.082,0.00952,0.1746,-0.013626,-0.05234,0.2493,-0.1466,-0.209,-0.1608,0.5244,0.03397,-0.008675
oven,0.84,-0.68,-0.432,-0.285,-0.3794,0.423,-0.723,0.0654,-0.503,0.06824,0.6084,0.4045,0.12103,-0.2659,0.0814,0.4824,-0.6323,-0.532,0.2262,-0.4375,0.0345,0.65,0.29,0.2452,0.3013,0.01029,-0.6553,-1.085,-0.3516,-0.2168,0.0414,0.16,0.3176,0.3508,-0.1581,0.7505,0.4382,0.466,0.0833,1.04,-0.07025,-0.7456,0.2888,0.9985,0.3262,-0.2242,-0.1798,-0.4082,-0.0827,0.1489,0.2222,-0.1278,-1.226,-0.2122,-0.579,-0.3777,0.11597,-0.1779,-0.8643,-0.743,-0.2183,0.627,-0.6743,-0.2079,0.654,0.3918,0.517,0.5728,0.258,0.3318,-0.0644,0.1346,0.004925,-0.797,-0.3735,0.0752,0.7715,-0.186,-0.263,-0.1527,0.1515,0.8223,-0.39,-0.79,-1.056,-0.2634,-0.4749,0.1663,0.1791,0.521,-0.231,-0.223,0.2954,-0.2173,0.2144,0.1581,0.01341,0.792,-0.3555,-0.1335,0.016,-0.1775,-0.3508,0.6733,0.1272,-0.733,0.624,0.1517,-0.2357,0.0456,-0.744,0.4805,0.0183,-0.093,-0.08636,-0.1808,-0.924,0.485,-0.169,-0.2129,-0.0002768,0.2296,0.2961,0.07086,0.4883,0.1016,0.0539,-0.06067,-0.05237,0.2043,0.1045,0.1729,0.10626,-0.2983,-0.185,-0.07385,-0.0916,-1.054,-0.2345,-0.6123,-0.3325,-0.09235,-0.3994,0.0676,0.6646,0.993,-0.5576,-0.1552,0.8276,0.0716,0.1622,-0.0574,-0.474,0.1125,0.349,0.5186,-0.1392,-0.2688,0.2123,-0.4126,0.6724,0.12225,0.5303,0.005302,-1.081,-0.37,0.377,0.2094,-0.2812,0.1123,-0.901,-0.1549,0.0851,-0.2922,-0.1852,-0.8486,-0.2178,-0.646,0.1847,0.08704,-0.4602,-0.7188,-0.4895,0.6655,-0.4785,0.0928,-0.0345,0.1904,-0.3982,0.1158,-0.2389,0.1615,0.027,-0.494,-0.06934,-0.2192,-0.13,-0.0003254,-0.03952,-0.2717,0.0638,0.1589,-0.4565,0.1846,-0.9956,-0.0279,0.4858,-0.002258,0.07983,0.4817,-0.03754,-0.3496,0.775,0.0478,-0.0186,0.1377,0.141,-0.05896,0.641,-0.1334,0.4512,0.03885,0.1693,-0.0964,-0.3267,0.2043,-0.277,0.291,-0.0809,0.2727,-0.09314,0.586,-0.3477,-0.5415,-0.2035,-0.09326,-0.2615,-0.6816,-0.0405,0.5693,0.1497,-0.682,-0.1638,0.1937,-0.1389,-0.1015,0.532,-0.0725,0.09015,0.08997,0.04843,-0.00729,-0.272,0.2129,-0.0484,0.8335,-0.1461,-0.02037,0.5977,-0.0954,-0.3052,-0.1126,0.9614,1.059,-0.1896,0.2032,0.0193,-0.00909,0.03105,0.771,-0.601,-0.1531,0.1891,0.2798,0.826,0.4688,0.5938,0.4673,0.00602,0.388,0.276,-0.16,0.2373,-0.796,0.145,-0.511,0.2086,-0.8994,-0.11206,0.9375,-0.07385,-0.098,-0.2439,-0.78,0.535,-0.1212,0.002651,-0.02382,-0.3933,0.11084,-0.114,-0.8105,-1.683,0.603,-0.7935,0.3147,0.5337,0.1481,0.5264,0.4902,0.06064,-0.631,-0.359,-0.503,0.328,-0.2365,0.2032,-0.909,0.069,0.2412,0.4646,0.1282,-0.661,1.167,0.4705,0.2079,-0.8213,0.1414,-0.4214,0.4128,0.11774,0.6323,-0.4653,-0.0742,-0.837,-0.929,0.2617,0.4685,-0.877,0.0528,0.01767,0.6006,0.649,-0.653,-0.164,0.005013,0.1251,-0.3281,-0.01764,-1.06,-0.03102,-0.6094,-0.02275,-0.04303,-0.6196,-0.3228,0.542,0.03528,0.1487,0.8066,-0.502,0.01974,-0.244,-0.05835,-0.838,-0.579,0.2756,0.2233,-0.2125,-0.405,-0.5356,-0.3188,0.184,-0.1649,-0.6016,-0.08,-0.3347,0.1382,0.7754,-0.02448,0.1779,-0.3267,0.2114,-0.2612,0.5405,-0.6255,-0.1247,0.00573,-0.1243,-0.03464,0.6133,0.967,-0.09766,0.4995,1.08,0.0749,-0.12463,-0.508,0.4563,-0.62,0.1865,-1.023,0.1543,-0.521,-0.3108,-0.511,-0.0397,0.7295,-0.2185,-0.0895,-0.3074,-0.203,0.1576,-0.2625,0.4019,-0.0962,-0.1812,0.12195,0.404,-0.2338,0.0009613,0.3418,-0.3003,-0.3625,0.3745,-0.2886,-0.05096,-0.3298,-0.3665,-0.2137,0.415,0.543,0.2036,0.2632,0.1841,-0.0498,0.283,0.2019,-0.2964,0.10114,0.2472,0.2668,-0.03238,0.4805,0.4878,-0.2869,0.1616,0.06744,-0.3218,0.02744,-0.991,0.1537,-0.101,0.03052,0.2329,-0.1348,0.2003,-0.1432,0.3943,0.2092,-0.2954,0.04413,-0.6167,0.4592,-0.28,0.776,-0.142,-0.3618,-0.378,-0.2668,0.0777,0.1241,-0.1995,0.10175,0.018,-0.3438,0.0239,-0.02074,-0.2246,0.4255,0.4646,0.4675,-0.132,0.4282,-0.2401,-0.2903,0.05063,-0.1815,-0.09686,-0.1573,0.2852,0.1539,-0.1583,-0.01825,-0.5576,-0.03314,-0.624,0.354,-0.8647,0.1842,0.2407,0.7656,0.3535,0.7935,-0.3384,0.04816,0.877,-0.2727,0.259,-0.4944,-0.9907,-0.1741,0.07446,-0.9556,0.4844,-0.4824,-0.5874,-0.1904,-0.254,-0.0723,0.02356,0.453,0.01836,0.2998,-0.1919,0.1055,-0.342,0.3887,-0.1185,-0.66,0.4487,0.0752,-0.3936,0.2323,0.1595,-0.391,-0.2351,0.1227,-0.01275,-0.4236,-0.02373,0.4404,-0.3337,-0.0975,0.1992,-0.45,0.5093,0.609,0.5273,-0.2183,0.5405,0.2808,-0.7446,0.2286,-0.3323,-0.5283,-0.4097,0.6353,-0.719,-0.5195,0.3535,0.4773,0.4324,0.2167,-0.4783,0.3574,0.06445,-0.3533,0.02855,-0.3728,-0.0171,-0.3796,-0.5493,0.1835,-0.134,0.3613,0.547,0.1132,-0.4026,0.0901,0.1272,-0.1483,0.02132,0.425,0.1913,0.3503,-0.1378,0.905,0.723,-1.051,0.2915,-0.3435,0.309,0.1945,0.374,-0.9277,-0.538,0.1456,-0.7246,-0.4087,0.03436,-0.3018,-0.3386,0.3035,-0.563,-0.4463,-0.2734,-0.2404,0.09393,-0.2866,0.419,0.507,-0.712,-0.3184,-0.1416,0.2708,0.302,0.5146,-0.932,0.01974,-0.1283,-0.2947,0.1863,0.3164,-0.07635,0.2024,0.05035,0.1519,0.1265,-0.03275,0.2183,0.599,0.00704,0.06995,0.2673,-0.4878,0.1681,0.1486,0.268,-0.7554,-0.299,-0.3784,1.271,-0.2908,0.186,0.0792,0.2761,0.5596,-0.0089,-0.716,0.963,0.3687,-0.00982,-0.11566,-0.03754,0.9604,0.748,-0.3352,-0.1923,-1.116,0.1682,-0.36,0.11847,-0.08026,-0.111,-0.0354,-0.6406,0.06506,-0.379,0.4119,0.1831,-0.2307,0.06113,0.3193,0.4878,-0.168,-0.6177,0.677,-0.2595,0.9526,1.062,-0.2717,-0.05978,-0.4111,0.3271,-0.2343,0.2087,-0.684,0.3008,0.635,0.5356,-0.01433,-0.5186,-0.3252,1.009,0.4675,0.0516,-0.3706,0.543,0.7656,0.003008,-0.02373,-0.666,-0.182,-0.2178,0.07434,-0.2007,0.1766,-0.208,-0.1927,0.4011,0.2269,-0.5605,0.596,-0.0171,-0.5654,-0.1921,0.51,1.056,-0.6855,0.6235,0.1797,-0.00459,-0.04443,-0.3286,0.3574,0.01035,0.3115,0.1573,-0.07007,0.2603,0.1287,0.2263,0.5117,0.6094,0.685,1.099,0.346,0.2491,-0.4014,0.3525,0.2854,0.3286,0.648,-0.0762,-0.1855,0.4412,0.004627,-0.000781,-0.4768,-0.7036,0.146,0.6,-0.245,-0.4248,0.4924,-0.1747,0.311,0.9043,0.0281,-0.1549,-0.7144,0.01692,-0.2311,-0.4153,-0.269,0.399,0.7603
cup,0.4966,0.1578,-0.0906,-0.2021,0.01487,0.1677,-0.2888,0.582,0.3545,0.0267,0.0711,0.0951,-0.275,0.013435,0.4624,0.1558,-0.427,0.4653,-0.3145,0.1436,-0.1869,0.4883,-0.253,-0.149,-0.698,-0.02615,-0.848,-0.03137,-0.0879,0.898,-0.4924,0.006126,-0.1004,0.1433,-0.2356,-0.0461,0.2637,-0.1722,-0.4717,-0.341,-0.3728,-0.00949,0.853,-0.1736,-0.1842,0.9277,-0.3887,-0.1608,-0.2397,0.2344,-0.665,0.6235,0.2334,0.2842,-0.3633,0.959,-0.1359,0.2656,-0.1455,-0.2866,0.1176,-0.208,0.3716,-0.436,-0.1417,-0.008575,0.1142,-0.2047,0.3953,0.1843,-0.34,-0.3093,-0.0883,0.6777,0.00449,-0.1438,-0.1233,-0.1671,-0.5894,-0.07526,0.4255,-0.1345,0.641,-0.2104,-0.0774,-0.04388,0.0955,0.1641,-0.2067,-0.11926,0.207,0.2651,0.4355,0.089,0.1054,0.04904,-0.01855,0.1353,0.11945,-0.10333,0.2454,0.836,0.4744,0.229,-0.5845,-0.2123,-0.309,-0.4575,-0.09686,0.2837,-0.4312,-0.07184,-0.04044,-0.05185,-0.1393,-0.003769,0.3044,-0.1018,-0.09045,-0.1613,0.4421,-0.0827,-0.3003,-0.06042,0.3457,0.543,1.054,-0.775,-0.09064,0.181,-0.4583,-0.591,0.1772,0.4106,0.04953,0.9653,-0.272,0.02557,0.5166,-0.1015,0.4421,-0.7188,0.1355,-0.04742,-0.5435,0.4417,0.696,-0.503,-0.274,-0.363,0.315,0.1399,-0.0834,0.3103,0.1681,0.002039,-0.1746,-0.2383,-1.017,0.367,-0.565,-0.05603,-0.4731,0.00883,-0.0635,-0.1428,-0.0937,-0.463,0.06555,-0.05756,-0.1087,-0.4214,-0.2039,0.3613,-0.1781,-0.7085,-0.836,0.339,0.3706,-0.5894,-0.06635,-0.507,-0.2277,0.235,-0.009735,0.618,-0.145,0.306,-0.3376,-0.3064,-0.1743,0.279,-0.2384,0.2186,0.1497,0.1329,0.0805,-0.2944,0.185,0.8516,-0.59,-0.547,0.3477,-0.175,0.11505,-0.003418,-0.3555,0.6196,0.4,-0.39,-0.2722,0.3013,0.08887,0.1456,0.0631,0.3184,-0.1464,-0.3308,0.623,0.4333,0.2015,0.3958,-0.2341,0.403,-0.2136,0.3198,-0.1823,0.2068,0.5454,-0.5767,-0.06775,-0.0795,-0.2927,0.03708,0.0801,-0.0444,0.3262,-0.009094,0.3308,0.1431,-0.3713,-0.629,1.489,0.0563,0.3157,-0.2435,0.6846,0.4626,-0.09106,0.1082,0.691,-0.4736,-0.02872,-0.0462,0.06,-0.0914,0.136,-0.0003824,-0.2211,-0.4336,0.5034,-0.2113,0.7783,-0.2554,0.2693,-0.06052,0.1461,-0.3188,0.1605,0.3496,-0.3564,-0.574,-0.02411,-0.03613,-0.3347,0.1621,-0.2664,-0.299,-0.5034,0.156,0.6924,0.10406,-0.3445,-0.08563,-0.3042,-0.3467,0.2039,-0.05276,0.06635,-0.2676,0.8447,0.3918,0.09564,0.1047,-0.604,0.153,-0.0735,0.2544,0.1749,-0.2754,0.1091,-0.4758,-0.565,0.3286,-0.1193,0.217,-0.122,-0.404,-0.5415,-0.06604,-0.01426,-0.4282,-0.384,-0.0436,0.2883,-0.4885,-0.801,-0.2053,-0.04065,-0.9937,-0.532,0.3425,0.0856,0.2754,0.3804,0.03336,0.476,-0.7734,-0.04337,-0.2322,0.9634,0.514,0.1136,-0.648,0.9443,-0.2542,0.474,0.06854,-0.1534,0.531,0.0391,0.803,0.4602,0.1606,0.43,0.04993,-0.2954,-0.00488,-0.8823,-0.1351,0.3623,-0.3804,0.01102,-0.06683,0.2402,0.176,0.02538,-0.01625,0.735,-0.1555,0.488,-0.1611,0.01001,0.476,-0.2502,0.684,-0.0643,-0.56,-0.4355,-0.282,-0.177,0.03912,-0.11865,0.3577,-0.2499,0.462,-0.0373,0.4888,0.04022,0.1405,-0.3748,0.2927,-0.0832,0.1943,0.2278,0.3435,-0.04733,0.717,0.1943,0.28,0.09,-0.06143,-0.797,0.007504,0.604,0.3037,-0.2463,0.3452,-0.2642,0.439,0.4055,-0.6353,0.1351,0.5527,0.02888,-0.716,0.03035,-0.68,-0.2172,0.514,-0.1351,0.2037,-0.3225,0.8574,0.2402,0.445,-0.03235,-0.0015745,-0.3528,0.01071,-0.1854,0.0974,0.3914,-0.01359,0.2834,-0.854,-0.569,0.1268,0.2717,-0.08276,-0.533,0.3167,-0.2191,-0.3086,0.08264,0.1254,-0.549,-0.02258,0.3306,-0.0632,-0.1383,-0.5757,0.0657,-0.665,-0.545,-0.3442,-0.1595,0.087,0.2993,-0.3381,0.03152,-0.0567,-0.3281,0.4067,0.3674,0.2656,-0.00511,-0.0153,-0.3647,-0.0431,-0.4731,0.0275,0.1217,-0.2957,0.5312,-0.1388,1.037,0.502,0.2837,-0.403,0.1246,-0.3315,-0.379,0.345,-0.1982,-0.376,0.165,0.0999,0.445,0.127,-0.2273,0.383,0.3,0.1588,0.0278,0.0019245,0.7725,0.0554,-0.4656,-0.1571,0.1697,-0.0693,0.02783,-0.2712,-0.12396,0.02364,0.284,0.3496,0.2551,-0.4573,-0.3862,0.2583,-0.5327,-0.01585,-0.757,-0.599,0.389,-0.8525,-0.3618,-0.01625,-0.4893,-0.1621,-0.4023,0.98,0.07043,-0.2428,-0.08417,-0.7876,0.1489,-0.1302,0.0906,0.2334,0.292,-0.3052,-0.1608,0.1868,0.2169,0.2773,0.3945,-0.583,-0.61,0.1002,0.2264,0.3523,-0.142,-0.5396,0.1857,-0.2174,0.1941,-0.11487,-0.196,0.014015,0.0872,0.3267,-0.3345,0.1907,0.1205,-0.0572,0.2605,-0.08307,-0.2122,0.3198,0.2869,-0.2285,-0.11206,0.7437,-0.3545,0.4421,0.04465,-0.1757,-0.05862,0.2546,-0.328,-0.6177,-0.2686,0.2522,-0.346,0.1254,0.165,-0.4434,0.1958,-0.664,-0.4675,0.2495,-0.3203,0.03714,0.1991,0.3137,-0.1329,-0.1294,0.293,-0.2634,-0.1733,0.0722,0.0339,0.1895,0.0849,0.2966,-0.798,-0.10254,0.2094,-0.07764,-0.259,0.03482,0.04584,-0.01301,0.08417,0.2678,-0.2695,0.2969,0.593,0.5024,0.6196,0.1348,0.4795,0.118,0.1642,-0.429,-0.4595,0.698,-0.514,0.1216,0.1321,-0.6416,0.2832,-0.5493,-0.002344,0.4536,0.1162,0.3333,-0.3184,-0.09045,-0.302,-0.1937,0.3254,-0.1901,0.1125,0.1975,-0.13,0.05484,-0.2747,0.0877,-0.1538,-0.10803,-0.00601,0.01383,-0.2566,0.4268,0.7324,0.2612,-0.0755,0.7285,0.3135,0.3376,-0.261,-0.684,-0.0793,0.4446,0.2261,0.3289,0.02324,0.1658,0.888,-0.1908,0.3777,-0.0817,-0.3872,0.03033,-0.1964,-0.2349,0.01682,0.6577,-0.3706,-0.1434,-0.631,-0.1674,0.0831,-0.12494,-1.2,-0.641,0.02158,0.1696,-0.3916,0.4446,-0.2551,0.2267,0.04727,0.3472,-0.2307,-0.3323,0.0963,-0.903,-0.07245,-0.4456,0.2181,0.256,0.849,0.2021,-0.04047,0.2568,-0.2625,0.0635,-0.1206,0.309,-0.555,0.4692,-0.1066,-0.7026,-0.878,-0.558,-0.2317,0.9937,0.2188,0.07275,0.3206,0.2744,0.08246,-0.5815,0.5605,-0.1473,1.022,-0.1422,0.7544,-0.2896,-0.765,-0.1609,0.4316,0.3916,-0.3772,-0.636,-0.5137,0.3088,-0.04266,0.6934,0.1636,0.656,0.5,-0.535,-0.05954,-0.3108,0.1985,-0.502,-0.2827,0.5513,0.9536,0.77,-0.378,-0.1559,-0.4995,0.2084,0.6885,-0.4795,0.525,-0.0928,0.4285,0.1344,0.1298,-0.2847,0.7812,-0.1083,0.196,-0.4934,0.1337,-0.0624,0.1863,0.415,-0.8706,-0.04236,-0.287,0.2473,0.2886,0.508,-0.2032,-0.3015,0.0805,-0.03836,0.0368,-0.4326
door,0.438,0.01229,-0.01732,-0.505,-0.2415,-0.2815,-0.004314,0.2935,-0.5723,0.1214,0.2832,-0.2391,-0.514,0.02225,0.2278,0.3086,-0.1538,-0.1545,0.1991,-1.099,-0.2169,-0.1263,0.2069,0.2751,-0.2646,0.1067,-0.4114,0.1699,-0.04675,-0.468,0.9707,0.01804,0.1497,0.2573,-0.4177,0.3438,0.08844,0.5176,-0.2086,0.1863,0.2656,-0.1351,-0.2595,-0.02304,0.576,-0.3264,0.3203,0.1486,-0.4956,0.1423,0.1144,-0.4487,0.808,0.3967,-0.1799,-0.264,0.2532,-0.552,0.5825,-0.3464,0.2489,0.05948,0.392,-0.517,-0.8433,-0.0408,0.2178,0.1425,0.1658,0.01241,0.1475,0.09357,-0.02382,-0.748,0.1295,0.2074,0.3926,-0.1713,0.12335,-0.5947,0.4373,-0.2944,0.147,0.12006,0.0876,0.2424,0.5225,-0.4595,1.1,-0.02391,-0.1344,-0.2021,-0.1401,0.2334,-0.1704,0.557,0.3105,-0.2277,0.1698,0.04678,-0.0865,-0.3574,-0.2003,-0.4224,-0.10986,0.262,0.1761,0.0778,0.1268,-0.04694,0.6626,-0.1398,0.0421,0.726,0.1681,-0.1643,0.12286,0.59,-0.2266,0.4153,0.274,-0.504,-0.5103,-0.2878,-0.398,-0.4832,0.1929,0.10596,0.5117,0.1351,-0.0785,0.4846,0.1029,-0.1497,-0.201,0.3828,-0.2737,0.002207,0.08875,0.514,-0.01313,0.519,-0.004536,0.06714,-0.2986,-0.0187,-0.838,0.11615,0.509,-0.1357,-0.2778,0.102,0.4492,0.01422,1.137,0.602,-0.865,0.7666,-1.387,-0.6206,0.2874,-0.2937,0.2861,0.3914,0.02441,-0.4407,-0.1076,0.2908,-0.3433,0.08734,-0.2551,0.7544,0.2744,-0.3015,-0.1632,0.1473,0.0627,-0.09296,-0.4583,0.6206,-0.1575,-0.3862,-0.2058,0.2086,1.019,-0.666,0.1497,0.2062,-0.3254,0.2097,0.2903,-0.1448,-0.2432,0.0821,0.3696,0.777,-0.5215,0.2854,0.2595,0.02518,-0.3992,0.7173,-0.1726,-0.4329,0.745,-0.1327,0.5063,0.05853,-0.2686,-0.3735,0.3027,-0.068,-0.4392,0.2358,0.1721,0.03418,0.2119,0.4443,-0.0129,-0.0626,0.367,-0.705,-0.4832,0.04327,-0.08075,0.2996,-0.508,0.1454,0.3997,-0.1338,-0.05258,-0.2815,-0.0919,-0.4521,-0.1063,-0.1411,-0.07587,-0.2051,-0.2203,0.2333,0.1547,-0.3171,0.0774,0.566,-0.573,0.12415,-0.368,-0.2783,0.2258,0.4348,-0.1163,0.277,-0.208,-0.1201,-0.1953,-0.013306,0.1539,-0.0948,0.967,-0.3958,-0.526,-1.351,-0.0355,0.4602,0.10223,0.1628,0.1487,-0.06323,-0.2035,-0.411,-0.0293,0.1602,-0.1842,0.03442,0.418,0.1244,0.2874,0.3206,-0.2888,0.0185,-0.2043,-1.064,-0.1255,-0.1857,0.1026,-0.11743,0.1981,-0.3533,-0.2747,-0.09424,-0.07275,0.3264,-0.6777,-0.2512,-0.01553,0.2213,0.04504,0.2864,0.1957,-0.1257,0.1709,0.5854,-0.5796,0.5786,-0.4636,-0.7993,-0.5864,0.69,0.1581,-1.355,0.2067,0.167,0.2461,0.2754,-0.1914,0.2164,0.4363,0.1536,0.1117,-0.697,0.1458,0.4685,-0.1497,0.5967,-0.04312,-0.6934,0.9985,0.4473,-0.3228,-0.4756,0.5923,0.7,-0.00826,-0.6777,-0.1302,-1.226,-0.2104,0.5405,-0.1653,0.03442,-0.2278,-0.0178,0.1666,-0.1975,-0.03745,-0.2622,0.4036,0.2754,-0.1048,-0.0866,0.05338,-0.785,0.4802,-0.6045,-0.1997,-0.10724,-0.319,0.1378,-0.2566,-0.4697,0.719,-0.1755,-0.2301,0.2908,0.3564,-0.6416,-0.1384,-0.1117,0.1409,-0.12024,-0.02832,-0.7676,-0.59,-0.4802,0.2783,0.4885,0.207,0.02835,0.152,-0.76,0.5786,0.2585,0.7847,0.1469,0.1974,0.0651,-0.1807,-0.704,0.1498,0.3276,0.3186,0.2021,0.658,-0.439,0.304,-0.19,0.6353,0.1582,-0.2957,0.4487,0.2285,0.1628,-0.08105,-0.07764,0.2534,0.2029,-0.2281,-0.301,-0.1049,-0.2947,0.2166,-0.01888,-0.07166,-0.4985,0.04633,0.944,0.02548,-0.1631,0.475,-0.05472,-0.413,0.0729,0.2686,0.3032,0.348,-0.0579,-0.5215,-0.529,0.3174,0.313,0.4998,-0.06125,0.9517,0.2086,0.2676,0.2576,-0.2355,-0.3914,-0.5264,-0.3486,0.1791,0.2798,-0.492,-0.2047,0.07996,-0.8433,0.05423,0.531,-0.1382,-0.1239,0.0715,0.00129,-0.482,0.0585,0.4587,-0.293,0.05276,0.1384,0.0687,0.2115,0.3489,-0.162,0.501,-0.068,-0.6357,-0.11536,-0.293,0.5728,-0.4368,0.1349,-0.8213,0.2847,-0.2476,-0.538,0.10144,0.698,-0.07385,-0.3743,-0.3308,0.462,-0.3381,-0.2438,0.04938,-0.1965,0.668,0.06027,0.1412,-0.04294,-0.2128,0.588,-0.4468,0.356,-0.2216,-0.3225,0.5845,0.10425,-0.1785,0.10394,-0.1512,-0.1495,-0.3162,-0.2151,-0.2715,0.4048,0.2245,-0.4653,-0.3284,-0.4534,-0.1465,-1.03,0.08344,-0.03867,-0.2021,0.0234,0.1842,0.0653,0.07745,-0.01514,0.2454,0.2673,-0.1746,0.5146,0.5215,-0.217,0.02942,0.2114,-0.05478,0.2646,-0.7207,-0.506,-0.136,0.479,-0.3203,0.1277,-0.5474,0.5625,0.3418,-0.1884,0.3342,-0.7373,-0.085,0.3872,0.2925,-0.1054,-0.4119,0.3904,0.12317,0.4219,0.8613,-0.2281,0.4084,-0.06415,0.5156,-0.301,-0.254,1.012,-0.2212,-0.6704,-0.2751,-0.01851,0.2957,-0.01287,0.05045,-0.1587,-0.10156,0.1085,-0.358,0.003872,-0.1768,0.3506,-0.669,-0.3035,0.4697,-0.01746,0.1377,-0.1906,-0.2605,0.1188,0.413,0.573,0.3855,-0.10547,0.1852,0.1465,-0.0914,0.254,-0.2297,-0.255,-0.0936,0.182,-0.0737,0.3872,0.1089,-0.1209,-0.2793,-0.1426,0.1329,0.745,-0.05438,0.339,0.0922,0.3992,0.3123,0.02734,-0.2146,-0.4866,0.3022,0.1866,-0.07245,0.2515,-0.3303,0.1,-0.8833,0.4705,-0.1793,-0.11456,0.07275,-0.3506,-0.4836,0.04166,0.01056,-0.4004,0.02837,0.5625,-0.2152,-0.1628,-0.288,0.755,-0.3535,-0.521,0.179,0.3945,-0.2173,0.1458,0.02971,0.2153,0.02895,0.5083,0.0783,0.2524,0.2966,0.669,0.53,0.05777,1.074,0.834,0.4446,0.1904,-0.4482,-0.3367,0.263,0.1862,0.2988,0.1953,0.8037,0.6807,-0.2969,-0.3796,0.1298,-0.2664,0.6353,-0.1307,0.2617,0.2722,-0.4077,-0.1906,0.2898,0.6396,-0.3572,0.3345,0.1896,-0.1606,-0.3352,-0.3486,-0.427,-0.469,-0.501,0.4001,0.01845,0.4783,0.369,-0.4355,-0.1411,0.1245,-0.702,0.2852,-0.2104,0.2905,0.1659,-0.3818,-0.7935,-0.6187,-0.03903,-0.2554,-0.2808,-0.795,-0.11633,-0.4375,-0.593,-0.3867,-0.127,0.3994,-0.7783,-0.0843,-0.2273,0.1868,-0.1153,0.03665,0.01429,-0.2487,0.1797,0.4185,0.4941,0.0738,0.96,-0.12366,0.04495,-0.07184,-0.3943,-0.1886,-0.695,-1.418,-0.5034,0.2705,-0.3826,-0.4001,-0.01017,-0.2115,0.4014,0.3213,-0.4438,-0.05783,0.1691,0.1456,0.8047,0.985,-0.0894,-0.0005035,-0.6333,0.1283,-0.6978,-0.5596,0.208,-0.2742,0.04538,-0.3062,0.01878,-0.894,0.926,0.3086,0.2003,0.00358,-0.5938,-0.286,0.2162,0.2244,0.4553,-0.042,0.4077,-0.1274,0.4817,0.554,0.04242,0.3296,-0.24,0.914,-0.1707,0.2484
dish,0.4753,0.06573,-0.1001,-0.3564,0.1223,-0.2954,-0.0672,0.01605,-0.0365,-0.779,0.4082,0.2002,-0.5005,0.221,0.05093,0.2041,-0.2979,0.539,-0.2751,0.2389,0.05832,0.3638,-0.05243,0.03992,-0.564,0.1769,-0.707,0.27,-0.2037,0.521,-0.262,-0.5938,0.4734,-0.0757,-0.1542,0.0115,0.4797,0.3037,-0.371,-0.001999,-0.4285,-0.10785,0.4324,0.2637,-0.1925,1.555,-0.09735,-0.02354,0.3538,0.0533,-0.2396,0.1826,-0.1956,-0.0218,-0.01322,0.4546,0.509,0.08453,-0.1315,-0.039,-0.5,-0.1729,-0.4424,-0.5845,0.1285,-0.4082,0.2979,0.2742,0.09686,0.437,-0.0794,0.07336,0.2922,0.7607,0.01808,-0.0809,-0.346,0.1848,-0.2473,0.114,0.1532,-0.10846,0.357,-0.3027,0.4934,0.426,0.3794,0.2078,0.012405,-0.1598,-0.1631,0.0591,0.3442,0.2236,0.729,0.02678,0.479,0.142,0.05542,-0.001609,-0.02637,-0.2152,0.1404,-0.1096,-0.7344,-0.423,0.1133,-0.652,-0.2097,0.5,-0.3386,-0.4685,0.8423,-0.3237,-0.9053,-0.4175,0.523,0.3293,-0.553,-0.3635,-0.1162,1.129,-0.196,0.207,0.7637,0.4966,0.5366,-0.9775,0.1056,0.01945,-0.3694,-0.3875,0.2676,0.3977,0.12,0.8804,-0.003153,0.0665,0.5605,-0.2107,0.0768,-0.89,0.1256,-0.06726,-0.5576,0.4924,-0.0797,-0.298,-0.349,0.09064,0.694,0.5,-0.3804,0.2452,-0.10266,0.0908,-0.08716,-0.464,-0.6587,0.761,-0.6343,-0.01598,-0.535,0.1761,-0.5537,-0.04025,0.261,-0.483,0.1472,-0.8276,-0.2366,-1.057,0.03143,0.2236,-0.04852,-0.91,0.04608,-0.09753,0.0562,-0.4563,0.02028,0.2917,-0.354,0.289,0.8584,0.1703,-0.417,0.2223,-0.493,-0.004818,0.4148,-0.381,0.141,-0.00848,0.6084,0.1393,0.04855,-0.604,0.10187,0.3933,-0.5796,-0.372,0.0364,-0.7666,-0.306,0.2861,-0.7744,0.7,0.7515,0.3142,-0.00407,0.596,0.04312,-0.006336,0.2047,0.0949,-0.1586,-0.0998,-0.02242,0.8306,0.3347,0.4053,-0.165,0.54,-0.01584,0.5103,-0.00744,0.607,0.2815,-0.897,-0.0748,-0.1031,-0.1265,-0.3784,0.3716,-0.2878,-0.26,0.1803,0.04553,0.5283,-0.3855,-0.4482,0.74,-0.1508,0.4983,-0.1409,0.4636,0.3792,0.01604,0.3008,0.8784,-0.4744,-0.0612,0.00991,0.04666,0.1359,-0.429,0.0344,0.401,0.1849,0.6553,-1.076,0.8135,-0.1207,0.4941,-0.0317,-0.0702,0.3152,1.061,0.3171,-0.937,-0.715,0.3684,-0.332,0.332,-0.5596,-0.1733,-0.4897,-0.344,0.061,0.1376,0.4668,-0.2612,-0.3955,0.1947,-0.5757,0.2424,0.1141,-0.339,-0.724,1.222,0.419,-0.3076,-0.01093,-0.615,-0.3271,-0.1648,0.2573,0.0456,-0.3135,0.4075,-0.749,-0.702,0.4658,0.2053,0.2354,0.1797,-0.6714,-0.8047,0.128,0.413,-0.667,-0.0942,-0.0668,0.85,-0.581,-0.7236,-0.4536,0.2546,-0.7793,-0.4001,0.524,-0.1859,0.7217,0.7383,-0.3718,0.3215,-0.962,0.1124,-0.3828,0.6553,0.588,0.4119,-0.537,0.6494,-0.0195,0.2964,-0.0788,-0.1516,0.05914,0.4067,0.802,0.3816,0.2756,0.09705,0.2462,-0.2362,-0.3833,-0.6978,-0.1847,-0.1666,-0.2654,0.1046,-0.0575,0.3035,0.4546,0.506,-0.2272,0.8506,0.2563,-0.2391,-0.2917,-0.09845,0.369,0.4182,0.01173,0.1187,-0.574,-0.011635,-0.381,-1.256,-0.151,-0.2169,0.6934,-0.07184,0.3809,-0.3264,0.5166,0.3303,0.11664,-0.3474,0.3787,-0.3364,0.3452,0.02382,0.2288,-0.1018,0.4136,0.11115,-0.2115,0.3604,-0.6973,-1.124,0.08026,0.932,-0.06323,-0.6543,-0.3623,-0.2429,0.4963,-0.10876,-0.1089,-0.05487,0.5903,0.0982,-0.321,-0.1415,-1.07,0.4163,0.6426,-0.2045,0.3342,0.08673,0.3762,-0.4617,0.589,-0.2072,-0.232,-0.1283,0.1398,-0.3315,-0.1274,0.1547,-0.4094,0.3086,-0.653,-0.8643,-0.00936,0.1965,-0.2778,-0.2129,0.0681,0.007442,0.2734,0.2947,0.07227,-0.3423,0.005627,0.921,-0.2969,-0.1858,-0.2825,0.2349,-0.2542,-0.2291,-0.545,-0.1272,-0.7764,0.0274,-0.3157,-0.4167,0.10767,0.04596,0.402,0.572,0.468,-0.304,-0.4873,-0.647,-0.1993,-0.9443,-0.0862,-0.438,-0.0121,0.2268,0.4055,0.6777,0.425,-0.1267,-0.1119,-0.355,-0.03693,-0.194,0.5103,-0.5063,-0.2305,0.3528,0.1313,0.8936,0.2693,-0.2634,0.2435,0.2705,0.03864,-0.474,-0.3704,0.4712,0.3435,-0.1049,-0.168,0.5913,-0.01732,-0.2347,-0.10565,0.03287,-0.3164,-0.0852,0.486,-0.0905,-0.843,0.07336,0.8447,-0.323,0.87,-0.831,-0.2988,0.5825,-0.3618,-0.4316,-0.5283,-0.3542,0.2228,-0.7256,0.551,0.2332,-0.337,0.05206,-0.513,0.02766,-0.04974,0.1947,0.1896,0.3535,-0.3281,-0.27,0.2035,0.903,0.2446,0.1935,-0.2463,-0.7,0.603,-0.347,0.3977,0.2825,-0.07916,-0.2776,-0.18,-0.01266,-0.08527,-0.1211,0.3208,0.312,0.2515,-0.6943,0.634,-0.5,0.01513,-0.0772,-0.0578,0.0994,0.8984,-0.0562,0.2837,-0.2483,0.4912,0.08563,0.351,0.0963,-0.28,-0.6655,-0.2898,-0.5264,-0.7754,0.03574,0.2683,-0.275,0.1271,-0.11993,-1.028,0.668,-0.689,-0.3594,0.3013,-0.1245,0.2029,-0.2487,0.2612,-0.6924,-0.263,0.03003,-0.3625,-0.1436,0.6587,-0.3489,-0.8413,-0.11255,0.691,-0.492,-0.2081,-0.01718,-0.1173,-0.0479,0.06006,0.1642,-0.2174,-0.2133,0.689,-0.3208,0.331,0.2373,-0.1934,0.5527,0.2291,-0.0588,-0.897,0.0591,-0.1584,-0.3635,0.4707,-0.2452,0.4202,0.3594,-0.3325,0.2585,-0.8,0.3655,0.0873,0.4211,0.1294,-0.1509,-0.3892,0.321,0.07996,-0.0693,0.0642,-0.281,-0.08765,0.10516,0.1155,0.02911,-0.4314,0.1299,0.06757,0.05826,-0.03592,-0.4497,0.4724,0.2458,0.1886,-0.01958,0.5493,0.444,0.2737,-0.01904,-0.3938,0.7124,0.4883,-0.03775,0.2189,0.496,0.1412,0.7397,-0.2001,0.1993,-0.012474,0.2515,-0.2966,-0.06494,-0.3748,0.04617,0.726,-0.287,-0.2081,-0.5625,-0.3835,-0.2052,0.03537,-0.895,-0.834,0.004063,-0.3926,-0.343,-0.0914,-0.2747,0.5977,0.1915,0.712,0.0932,-0.607,0.2324,-0.382,0.02063,-0.01909,0.8086,0.08624,0.382,0.2703,-0.00946,0.1306,-0.0272,0.4607,-0.388,0.7896,-0.7437,0.3655,0.04132,-1.083,-0.8364,-0.658,-0.1053,0.8545,0.2554,-0.2417,0.7373,-0.08453,0.2566,-0.4902,0.1892,-0.2396,1.425,0.2563,1.123,-0.2695,0.4907,-0.08105,0.2257,0.473,-0.1077,-0.4543,-0.8555,-0.2803,-0.2195,0.9507,-0.03207,0.4556,0.4624,-0.611,-0.167,-0.331,0.314,-0.281,-0.4258,0.2705,0.7344,1.191,-0.507,0.0865,-0.7295,0.588,0.4187,-0.1508,0.2678,-0.08044,0.53,0.2247,-0.1018,-0.2656,0.615,0.2444,0.531,-0.1759,0.8413,-0.05646,0.3103,0.6206,-1.24,0.2512,-0.4565,0.26,0.2014,0.4553,-0.2947,-0.2021,-0.01463,-0.006927,-0.06287,-0.3862
popsicle,-0.35,0.702,0.3057,-0.3884,-0.296,0.9126,-0.871,0.3547,-0.3843,0.2428,0.08606,0.442,0.2942,0.413,0.00584,0.04742,-0.02759,-0.6606,0.06183,-0.1576,0.03928,0.8687,-0.002645,0.8013,-0.21,-0.2942,0.09985,-0.3235,-0.2053,0.5317,0.1575,0.1577,0.1362,0.31,-0.2517,0.01657,-1.003,-0.09656,-0.0734,0.1123,0.01058,-0.26,-0.1598,-0.2676,-0.4631,-0.2524,0.1923,-0.07745,0.11316,0.1256,-0.5825,-0.784,0.6113,0.135,0.551,0.2737,0.04422,-1.234,0.1976,-0.4138,0.2935,-0.3567,0.0083,-0.8633,0.8267,-0.00777,-0.266,-0.4976,-0.1924,-0.4077,0.01947,0.2134,0.1646,-0.1782,0.2072,-0.635,0.2202,-0.6177,0.005737,0.3083,-0.1224,-0.3027,-0.6357,-0.2065,-0.2915,0.9546,-0.55,-0.603,0.2378,0.03314,-0.4683,-0.6104,0.00469,-0.2051,-0.722,0.562,-0.2231,0.1711,0.012596,-0.252,0.3638,-0.1665,-0.02129,0.2542,-0.2144,-0.8564,0.1888,-0.00472,-0.3132,-0.1747,0.751,0.2454,0.4604,0.2388,-0.1725,-0.5117,0.9297,0.0785,-0.2411,0.5527,0.4321,-0.2544,-0.2081,0.0821,-0.2517,0.19,0.4414,-0.56,0.06323,0.2208,-0.08215,0.0904,0.131,0.3896,-0.1373,-0.2183,0.6504,-0.2218,-0.4626,0.0652,-0.8047,-0.513,0.1059,0.4226,0.2206,0.659,0.07556,0.0511,-0.0601,-0.0022,0.2803,-0.5806,-0.07776,-0.5293,0.2456,-0.3298,-0.3977,0.1993,-0.1816,-0.3008,0.1544,0.01857,-0.1624,-0.011894,1.531,-0.1974,-0.688,-0.2334,0.2379,-0.3872,-0.04465,-0.5645,0.421,0.03458,-0.395,-0.02426,-0.4333,0.073,0.3958,0.1884,-0.1442,0.2488,0.1938,0.1112,-0.7705,0.2423,0.04858,0.11884,0.01052,-0.3875,-1.117,-0.345,0.182,0.3396,0.2515,0.00948,-0.717,0.3809,-0.02768,1.111,0.4934,0.2285,0.02873,0.6157,0.4094,-0.0745,0.2445,-0.666,-0.3188,0.1663,0.5195,0.3901,0.4053,-0.1564,-0.0686,-0.1975,0.003092,0.2893,-0.613,-0.9067,-0.0921,-0.02293,-0.2625,-0.297,0.4612,-0.5107,0.3376,-0.1814,-0.2461,0.3103,0.01567,-0.5913,-0.3293,0.486,0.4373,-0.2512,0.4905,0.5156,-0.3508,-0.6265,0.1744,1.105,0.6045,-0.0993,0.02263,-0.589,-0.3665,0.2515,0.0385,0.3506,-0.343,-0.3103,-0.1105,-0.1675,0.2131,-0.3315,0.2181,-0.1582,0.404,-0.4927,0.2083,0.1833,-0.2507,-0.0726,0.1597,0.0547,0.186,-0.724,-0.3516,0.10583,-0.64,-0.1283,-0.436,0.715,0.4553,-0.1611,0.528,-0.05215,0.475,0.0589,0.5835,-0.3796,-0.04584,-0.2842,0.05783,0.0672,0.0324,-0.0601,0.441,-0.2974,-0.9917,-0.3125,0.2776,1.444,-0.6143,-0.3445,0.1159,-0.2634,0.1667,0.4578,-0.4011,-0.451,0.1611,0.05008,-0.3274,0.4973,-0.03793,-0.1742,0.13,0.5757,0.2915,-0.4019,-0.4253,-0.1136,-0.6016,-0.06274,-0.8813,0.2043,-0.3054,0.1151,-0.1075,0.563,0.4639,-0.1559,-0.08765,0.3281,-0.3562,0.66,-0.5127,1.127,0.5015,-0.3733,0.2289,1.014,0.1604,0.2898,0.09955,-0.5215,0.5527,0.1031,0.2314,-0.6475,0.1902,-0.1862,-0.06305,0.10516,0.5303,-0.428,-0.916,0.1631,0.2852,-0.4194,-0.1642,0.3157,1.014,0.1282,0.4421,0.1595,0.1159,0.3208,-0.2893,-0.7534,0.1779,-0.00873,-0.6475,-0.2426,-0.1887,-0.2595,-0.3235,0.224,0.1103,-0.6475,-0.0266,0.2551,0.06122,0.2573,-0.0469,0.0778,0.1964,-1.122,-0.4043,-0.956,-0.1077,0.304,-0.3848,0.1569,-0.01637,-0.06064,0.1454,-0.3186,1.115,0.3706,0.6196,-0.269,0.2028,0.361,-0.3826,-0.5503,0.5415,0.2184,-0.3066,0.1691,0.163,0.5557,0.011086,0.02281,0.3252,-0.2678,-0.3083,-0.0718,-0.2034,0.1827,-0.4949,0.04868,0.1627,0.0331,-0.1074,-0.2136,-0.06155,-0.571,-0.267,0.1172,0.504,-0.0653,-0.5234,-0.324,-0.2827,-0.296,0.1274,0.1519,0.1073,-0.05685,0.8745,0.01883,0.1887,-0.04776,0.10126,0.1304,-0.4114,-0.04404,-0.5264,-0.2927,-0.003336,-0.1512,0.156,-0.1425,0.2258,0.08044,-0.1554,-0.49,-0.008934,-0.3535,-0.2935,0.1901,0.6084,0.083,0.2607,-0.1108,-0.1703,-0.161,0.1787,0.512,0.1854,0.0951,0.128,-0.2207,-0.6187,-0.04617,1.191,0.12366,-0.06757,-0.3135,0.3735,-0.5,0.3203,-0.0861,-0.746,0.1936,-0.1792,-0.1565,-0.3523,0.672,0.0246,0.4434,0.08563,-1.274,0.196,0.1267,0.154,1.118,-0.08435,0.096,-0.4119,-0.1342,-0.336,-0.07996,-0.3127,0.507,0.1819,-0.2927,-0.1056,0.1023,-0.582,-1.065,0.3572,0.0395,0.6646,0.2277,-0.3118,0.963,0.2202,0.521,-0.1432,-0.3875,0.1425,0.6694,0.6885,-0.3545,0.5176,0.217,-0.07623,0.1456,0.0898,-0.577,-0.1375,-0.762,-0.885,-0.0839,0.6606,-0.701,0.567,0.08673,0.4333,0.004414,-0.518,0.1558,-0.4636,0.337,-0.4326,-0.3333,-0.00409,-0.5723,0.6797,0.3645,0.1722,0.2798,-0.0562,0.0991,0.164,-0.3386,-0.1354,0.743,-0.1927,-0.3481,-0.0708,0.408,0.482,-0.1686,-0.01653,0.0716,-0.12085,0.3809,-0.0817,-0.1431,-0.7188,-0.319,-0.198,0.5024,0.381,0.0609,-0.01306,0.4375,0.0818,0.1632,-0.01115,-0.1027,0.514,0.1538,-0.03427,-0.3687,1.474,-0.1749,0.0425,-0.4495,0.1765,0.2078,0.2961,0.1552,-0.2062,-0.004776,-0.3174,-0.1719,-0.03635,0.1763,-0.7695,-0.6963,0.0183,-0.0634,0.2072,-0.413,0.277,0.2695,0.5356,0.2437,0.2935,0.221,0.04843,-0.979,-0.403,-0.4014,0.03485,0.2354,-0.3745,0.1807,0.05295,0.0596,-0.5605,-0.5034,-1.074,0.1029,-0.1022,-0.1354,0.1415,0.5845,0.02708,0.6484,0.1567,-0.394,-0.4766,0.0871,-0.1403,0.01747,-0.733,0.4453,0.03044,-0.4731,-0.002512,0.548,0.0648,0.2275,0.1664,-0.5464,0.5747,-0.05994,0.2896,-0.6133,0.497,0.2705,-0.2805,0.2051,0.1279,-0.002161,0.05423,-0.656,0.3516,0.3228,0.432,-0.4963,-0.2405,-0.06836,0.09827,-0.652,-0.3767,0.2345,0.079,0.4595,-0.0887,0.2502,-0.548,0.2935,0.3074,-0.5645,-0.1471,0.4546,0.003418,0.6997,-0.11,-0.724,0.4338,-1.11,-0.1868,0.2952,-0.1727,0.0728,-1.295,0.3757,0.07697,-0.293,-0.3342,0.8374,-0.244,-0.573,0.4346,1.265,-0.7603,0.835,0.0372,0.4468,0.568,-0.4888,0.494,-0.7188,-0.1252,0.3257,-0.2065,-0.0698,0.08105,0.04016,0.01206,0.3022,0.6953,1.252,0.567,0.1729,-0.3154,0.6797,0.00988,0.03268,0.074,0.6606,-0.3728,0.5684,0.02415,-0.06082,-0.216,-0.623,-0.12054,-0.1284,-0.431,0.484,-0.02904,0.654,-0.3215,0.2494,0.3328,0.612,0.002136,0.002356,0.2345,-0.1691,0.0528,0.1508,0.532,0.3218,-0.5,-1.065,-0.2646,-0.3438,0.07196,-0.1584,-0.0689,-0.0437,-0.5327,-0.2128,0.0122,-0.1995,-0.428,-0.11316,0.7134,-0.3584,0.2703,0.1533,-0.1149,0.02528,-0.03384,0.1056,0.4077,-0.7075
pillow,0.366,-0.2756,-0.3086,-0.014145,0.02687,0.09625,-0.2642,0.707,-0.3306,0.3005,-0.3933,0.257,-0.596,-0.536,-0.11865,-0.04422,-0.3555,0.317,-0.2744,0.0628,-0.2125,1.018,-0.0299,-0.4998,-0.01619,-0.014534,-0.1136,-0.01222,0.04483,-0.04834,-0.3313,0.464,0.187,0.3552,0.3481,0.12256,0.6743,0.1575,0.08,0.03735,0.3987,-0.1729,0.2048,0.1841,0.02985,-0.0597,-0.3704,-0.1577,0.264,-0.1803,0.3022,-0.219,0.08875,-0.358,-0.01469,0.6733,-0.4395,-0.3848,0.0971,-0.315,0.602,0.512,-0.2118,-0.621,-0.07654,0.3354,-0.3958,0.2488,0.04526,0.4028,-0.209,0.1111,0.09393,-0.6377,-0.308,-0.28,-0.3374,0.3274,-0.3523,0.1487,-0.1827,0.1015,0.2478,-0.11865,0.11487,-0.681,-0.10284,-0.06506,0.1534,0.3547,-0.0556,-0.09393,-0.06018,-0.4236,0.02768,0.0327,-0.1583,-0.0957,-0.0676,0.4138,0.3672,-0.3127,0.5176,0.6074,-0.7036,-0.1626,-0.03793,0.1945,-0.3906,0.02821,0.427,0.679,-0.138,0.816,-0.5474,-0.775,-0.2069,-0.2583,-0.4028,-0.218,0.3591,0.1808,-0.3708,0.04498,0.525,0.2219,0.5166,-0.05353,-0.1091,0.138,0.2883,-0.8564,-0.2476,0.5186,-0.1049,0.1528,0.2046,-0.1829,-0.06604,-0.1359,0.2642,0.8154,0.0544,-0.1832,0.2003,0.8965,-0.08734,0.4138,0.2698,0.363,-0.524,0.6235,-0.6753,0.07025,-0.164,0.1611,0.54,-0.1962,-0.4912,-0.08374,0.3203,0.9736,0.3267,0.2167,-0.6226,-0.0759,0.192,0.4707,0.09375,-0.1724,-0.01775,-0.385,0.02814,-0.2969,0.1902,-0.4778,-0.3496,-0.0988,0.0492,0.4202,0.2944,-0.255,-0.2374,-0.09296,0.3962,0.748,0.2311,0.359,0.02403,-0.0633,0.2585,-0.2615,-0.5327,0.4233,0.0896,0.06964,-0.0841,-0.6157,-0.2368,-0.045,0.543,-1.103,-0.10504,-0.1693,0.263,0.209,-0.3892,-0.01947,-0.309,-0.3794,0.0778,-0.1115,0.02321,-0.05933,-0.1779,-0.01209,0.2343,-0.3657,-0.6333,0.4902,0.2041,0.3757,-0.4302,-0.06146,0.1295,-0.293,-0.1613,-0.502,0.4512,-0.3672,0.431,-0.4058,-0.10364,0.03555,-0.6616,-0.10004,0.2136,0.2783,-0.10803,0.3286,-0.603,0.397,-0.2258,0.0715,-0.3625,-0.1566,0.2188,-0.05524,-0.05423,-0.2983,0.01865,-0.03415,0.2732,-0.093,0.175,-0.171,0.3672,-0.05057,-0.2413,-0.06494,0.5444,0.02057,-0.04034,-0.2231,0.01262,0.0193,-0.06946,0.2542,-0.2037,0.0647,-0.09247,0.1133,0.2224,-0.0735,0.2267,-0.762,0.6,-0.4897,-0.1292,-0.06824,-0.2385,-0.3005,-0.3127,-0.06152,-0.0969,0.01221,-0.2424,-0.4155,-0.303,-0.397,-0.2019,-0.02928,-0.04056,0.08875,0.3484,-0.1367,0.06244,0.3376,0.06012,-0.07825,-0.8066,0.1119,0.7593,0.2627,-0.1627,0.0854,-0.2898,0.342,-0.0897,-0.0844,0.304,0.06885,-0.3845,0.01802,-0.2544,0.10736,0.7583,-0.491,0.1605,-0.61,0.05154,0.253,0.1016,-0.2039,0.1659,-0.367,-0.1721,0.3706,-0.2416,-0.06805,0.4014,0.1212,-0.5923,-0.1562,0.0944,-0.7397,0.571,0.0944,0.679,-0.286,-0.7544,0.2285,0.252,0.0645,0.51,0.0733,-0.2856,0.003601,-0.4517,0.2793,-0.04025,-0.1906,-0.133,-0.06207,-0.392,-0.1431,-0.1885,-0.289,0.2874,0.3562,0.2996,0.175,0.003704,-0.1321,0.5933,0.2065,0.2462,0.3965,0.273,-0.5415,0.09454,-0.1428,-0.3433,0.472,-0.238,-0.0829,0.356,0.2133,0.10065,-0.2216,0.2346,0.04047,-0.581,0.4045,0.4136,-0.101,-0.1015,0.2925,0.2118,0.1885,0.2747,0.005478,-0.356,-0.8594,0.375,-0.4702,-0.4963,-0.52,-0.3308,0.08594,0.335,0.2122,0.2449,-0.1299,-0.1707,-0.4438,0.5938,-0.6484,0.05368,-0.1266,0.1826,-0.473,-0.097,-0.0664,0.03093,-0.05402,-0.3484,-0.1875,-0.323,0.1089,-0.307,-0.1365,-0.1346,0.61,0.3008,0.4336,0.2402,0.06058,-0.1072,0.1943,-0.5264,0.145,0.3088,0.08997,0.1699,0.08606,0.00853,0.47,0.06354,0.1354,-0.3708,0.263,0.1848,-0.3667,0.05472,-0.3298,0.3325,-0.1389,-0.2927,-0.1202,-0.824,-0.2207,-0.03513,-0.1558,-0.1896,-0.1378,0.06116,-0.297,-0.10333,-0.002094,-0.0759,0.1688,-0.1864,-0.4333,-0.1288,0.4949,0.1044,0.6826,-0.5464,0.05243,-0.1372,-0.1783,-0.498,0.0263,-0.6577,-0.1041,0.3782,-0.3218,0.07294,-0.10614,-0.0871,-0.3406,0.1509,-0.013336,0.529,0.556,-0.1462,0.06445,-0.4001,-0.1609,0.721,-0.3977,-0.006252,0.04004,0.1287,0.00451,0.2155,0.09814,0.398,0.5493,-0.1268,0.3198,0.8413,0.4312,0.1484,-0.675,0.1658,-0.259,-0.4727,0.2362,0.273,-0.3948,-0.0826,0.01999,0.083,0.09076,-0.2162,0.645,0.0739,0.0394,-0.2292,-0.01097,0.3188,0.277,-0.3877,0.671,0.65,0.11707,-1.293,-0.3328,-0.171,-0.526,0.1109,-0.3164,0.3157,0.5073,0.2084,0.6025,0.2382,-0.06146,-0.0477,-1.116,-0.04395,0.08704,0.4077,-0.2815,0.02975,0.04572,0.1298,0.0751,-0.4824,0.5317,0.4336,-0.02914,-0.268,0.0311,0.1827,0.3372,-0.39,0.1985,0.2642,0.1142,0.3628,0.0349,-1.102,0.2996,-0.3228,-0.296,0.0771,0.0663,0.304,0.582,-0.968,0.1346,0.3425,-0.228,-0.2126,0.2244,-0.1808,0.2218,0.11694,0.08527,0.5586,-0.4016,0.1738,0.0564,-0.05222,0.01996,0.1528,0.2175,-0.1073,0.177,0.2903,-0.1295,-0.05554,0.7764,-0.0993,0.298,-0.2091,-0.317,-0.0652,0.2196,-0.4114,0.518,-0.1063,-0.4495,-0.4001,0.4233,-0.2622,-0.09515,-0.126,0.1819,-0.1516,0.4958,0.0738,-0.545,-0.1328,0.4736,0.1509,0.11554,0.287,0.1694,0.3823,0.1304,0.4583,-0.363,-0.4363,0.646,-0.1447,0.3167,-0.1175,-0.2417,0.3022,-0.0824,-0.2554,-0.1469,-0.2106,0.5186,0.4844,0.541,0.1896,-0.367,0.9224,0.007324,0.404,-0.0379,0.4006,0.1098,-0.4333,0.09436,0.454,0.2021,-0.1211,-0.2101,0.277,0.0928,-0.3184,-0.0485,-0.686,0.1508,-0.2,-0.010124,0.2136,-0.2659,0.575,-0.5127,-0.142,-0.01855,-0.6597,-0.118,0.2412,0.2224,-0.02124,-0.4849,-0.903,-0.005123,0.2316,-0.1324,-0.2676,0.33,-0.495,-0.3186,-0.3125,-0.759,0.541,-0.1451,0.2025,0.01332,-0.1672,-0.3315,0.672,0.265,-0.4585,-0.09375,-0.1041,0.2458,0.0889,-0.1362,-0.281,-0.3828,-0.645,-0.0429,-0.091,0.547,0.3435,0.3198,-0.09076,0.3513,0.2461,0.09033,0.1194,-0.2076,-0.3298,-0.3533,-0.01144,0.1603,-0.1187,-0.5825,-0.176,0.0402,0.8247,-0.05212,0.2294,-0.0584,-0.079,0.4006,-0.0405,-1.106,0.8657,0.1183,0.4382,-0.04654,0.09155,0.355,0.9434,0.3823,-0.00721,-0.0727,0.002666,-0.0615,0.2734,-0.2534,-0.1555,-0.3074,0.0427,-0.575,-0.0968,-0.05914,-0.04306,-0.3054,0.1481,-0.08856,-0.04315,-0.0257,-0.2124,0.076,-0.4487,0.12213,-0.794,0.156,-0.1292,0.4675,-0.1185,-0.1648,0.03885,0.06476,0.4124,-0.05063
tricycle,0.7046,0.9673,0.001326,-0.1072,-0.173,-0.1296,0.571,-0.504,0.56,-0.3496,0.3093,0.2493,0.04398,-0.93,-0.0337,0.5127,-0.255,-0.825,0.04596,0.7666,0.2021,-1.069,-0.2462,-0.05283,0.001185,0.5996,0.2961,0.05222,-0.813,0.02328,0.1406,-0.2876,0.3682,0.0893,-0.3467,0.621,0.10736,-0.1091,0.4722,0.4531,-0.2013,-0.3738,0.04126,0.5386,-0.04565,0.504,0.3635,-0.2957,0.668,0.3315,-0.589,0.1032,0.6406,0.3232,0.652,-0.3108,-0.7334,0.228,0.6035,0.10785,0.5474,-0.434,-0.08856,0.3083,0.4978,-0.662,0.06714,0.7397,0.2708,-0.772,0.746,-0.3364,0.4238,-0.03305,-0.1642,0.3276,-0.3442,0.1633,-0.2717,0.5923,0.0545,-0.6113,-0.4053,-0.961,-0.5537,0.1685,-0.1141,0.983,0.2195,0.4688,-0.539,-0.1852,0.10156,-0.1285,0.7114,-0.2788,-0.1935,-1.132,-0.3457,0.2053,0.1797,-0.3125,-0.601,-0.1709,-0.2686,-0.4182,-0.2686,0.905,0.1302,-0.1824,0.2382,-0.09534,-0.2289,0.05527,0.0991,0.1355,0.627,-0.0105,-0.006836,-0.7163,-0.5703,-1.002,-0.5654,-0.644,0.2498,-0.03687,0.4202,0.1693,-0.00894,0.1422,-0.8564,0.6055,-0.3018,-0.7773,-0.4104,-0.1377,-0.3464,0.02655,0.1757,-0.3816,-0.703,0.6426,-0.2253,0.3254,-0.651,0.443,0.3364,0.291,0.4402,-1.008,-0.07825,-0.584,0.1527,0.0718,0.0638,0.3247,-0.342,-0.02516,-0.3955,0.1808,-0.7524,-0.363,-0.5083,0.02899,1.018,-0.011185,0.06305,-0.564,0.8643,-0.005493,-0.3555,-0.2053,-1.332,0.4216,-0.574,0.3833,0.2355,1.263,0.1865,0.193,-0.4216,0.3877,-0.93,-1.154,-0.9663,0.0983,-0.673,0.02548,-0.4429,1.045,-1.014,0.1058,0.744,-0.0511,-0.7656,0.4167,-0.7725,0.733,-0.4338,0.6714,0.0474,0.04715,-0.08466,-0.5015,0.02321,-0.04507,0.5464,0.8857,-0.4084,0.07556,0.4373,0.2705,-0.5776,0.03403,0.1476,-0.1049,0.4258,-0.04855,0.00964,-0.856,0.3032,0.485,-0.542,-0.303,0.54,0.5054,-1.336,0.11926,0.2966,-0.41,0.3535,0.2284,-0.0643,-0.809,-1.153,0.321,-1.29,0.8145,-0.309,-0.556,0.1932,0.9634,0.4353,0.1941,-0.09216,0.1266,-0.2637,0.5557,0.2498,-0.9087,0.2515,0.3857,-0.011055,0.1719,-0.0743,-0.73,-0.099,-0.2007,0.4746,0.1367,0.2727,0.2874,-0.1558,0.11725,0.2406,-0.2673,0.1838,-0.7627,0.732,-0.2313,0.0599,0.493,-0.1029,-0.591,-0.1315,-0.1091,-0.01422,0.0476,0.701,-0.4075,-0.03424,0.254,0.02104,0.03012,0.2969,0.5054,0.1326,0.2449,-0.1458,0.3438,0.8853,0.4426,0.1191,-0.4795,-0.0752,0.5396,-0.2722,-0.5854,-0.0509,-0.2444,-0.2517,-0.278,1.002,-0.1556,0.6797,0.07025,0.2394,-0.383,-0.4817,-0.6777,0.1335,-0.3591,0.4707,0.2241,-0.0862,0.2585,-0.007263,0.2074,-0.1594,-0.2705,-0.118,0.5845,-0.3335,-0.376,0.551,-1.142,-0.00946,0.3748,-0.945,-0.0559,0.2732,-0.9575,-0.31,0.3655,-0.03049,-0.00237,0.1317,1.067,-0.2646,-0.11664,-0.418,0.1796,-1.275,-0.3281,-1.135,0.71,-0.4028,-0.01359,1.164,-0.439,0.2004,0.555,-0.674,-0.4907,-0.1412,-0.3516,0.573,-0.4084,-0.835,0.1118,-0.8306,-0.1302,0.7354,-0.5645,-0.4111,-0.1278,-0.01944,-0.619,-0.461,-0.521,-0.715,-0.7603,-0.416,0.07874,0.1368,0.04575,-0.6064,0.06274,-0.3704,-0.806,-0.1709,0.3123,0.1249,0.1725,-0.0375,-0.04474,0.1029,-0.3386,0.1635,0.2302,-0.3093,-0.4841,0.4941,0.2742,-0.4316,0.4033,0.6196,0.3953,-0.4937,0.7603,0.2394,0.921,-0.2688,-0.843,-0.597,-0.04446,-0.2059,0.733,0.627,0.5337,-0.2075,-0.5063,-0.1915,0.4995,0.4988,-0.006523,-0.349,0.2261,-0.616,-0.399,-0.1172,-0.06042,0.2345,0.667,0.10815,0.4128,-0.1338,-0.3162,-0.3374,0.3242,0.6577,-0.2135,0.10315,0.05798,0.2228,-0.01412,1.072,0.69,-0.3386,0.6714,0.4443,-0.1804,0.2065,-0.907,-0.6753,0.8267,0.1499,0.324,-0.8096,-0.1375,0.9243,-0.009834,0.04993,0.02138,0.21,0.195,0.7544,0.193,-0.749,0.33,0.1051,0.06824,-0.2433,-0.098,-0.791,0.359,-0.6265,0.42,-0.3943,-0.4045,-0.1992,0.0205,-0.2267,-0.381,-0.3054,-0.1032,-0.83,0.2406,-0.501,0.1716,-0.2228,-0.1626,0.169,0.458,-0.154,0.9585,-0.01839,0.3545,-0.3762,0.4478,0.553,0.665,0.0258,-0.05,-0.1921,-0.05023,-0.2186,0.07446,0.4172,0.0762,0.2494,0.2229,0.1274,-0.638,0.08575,0.06647,-0.8506,0.2267,0.00892,0.08325,-0.3276,0.1466,0.8257,-0.181,-0.3574,0.2988,0.0922,0.377,-0.08765,-0.7705,0.05493,-0.3364,-0.575,-0.3206,-0.281,-0.262,0.3271,-0.1027,-0.0514,-0.4285,0.764,0.0538,-0.0725,0.05975,-0.3174,-0.3665,-0.467,-0.1079,-0.3376,-0.1404,0.2996,0.277,-0.9473,-0.1252,-0.5005,-0.1512,0.2402,0.3147,-0.02765,0.2012,0.4985,0.385,0.2314,-0.2595,-0.4902,0.0416,0.3945,0.483,-0.6636,-0.487,-0.02274,-0.1887,-0.00991,0.5845,0.3816,-0.141,-0.656,0.8447,-0.3086,0.02399,0.0374,0.2231,0.2808,-0.2148,-0.4675,0.331,0.5503,-0.6143,0.628,0.762,1.252,0.3206,0.05582,0.2153,0.2903,-0.2036,-0.1626,-0.2556,-0.5615,0.1908,-0.3062,0.4934,0.66,0.939,0.4304,0.0403,-0.6665,0.8574,0.42,0.5166,-0.2927,0.6533,0.404,0.4514,-0.1403,-0.4578,0.1825,-0.5537,-0.8525,-0.8525,0.01085,-0.0353,-0.382,0.10706,-0.1288,0.373,0.7896,-0.4016,0.2512,-0.5913,-0.348,-0.1415,0.1032,1.022,-0.811,-0.576,-0.3955,0.545,-0.454,-0.786,-0.03232,-0.1416,-0.874,0.03384,-0.478,-0.4788,0.05756,-0.04782,0.2583,-0.4404,0.2698,-0.1573,0.04633,0.13,0.964,-0.0449,0.3198,0.2318,-0.356,-0.2476,1.04,-0.251,-0.561,0.1381,0.7754,-0.02002,0.5645,0.2115,0.4087,0.6694,0.464,0.1969,0.3086,-0.106,-0.5894,-0.837,-0.2617,-0.3435,0.502,0.535,0.2385,0.3213,0.2847,0.01811,0.209,0.3076,-0.06885,0.2404,0.2202,0.1064,-0.155,-0.2134,-0.456,0.6357,-0.0881,-0.337,-0.3625,-0.3105,-0.021,-0.597,-0.0718,0.06088,0.2356,0.507,-0.4282,0.1675,0.05835,0.1059,0.3542,-1.021,-0.501,0.0858,-0.142,0.2478,-0.3286,0.4087,0.5327,-0.3853,-0.535,-0.4946,-0.04996,-0.10626,0.3232,-0.605,-0.75,0.01057,-0.1534,-0.3887,-0.2578,0.474,-0.4094,-0.4087,0.8394,-0.202,-1.247,0.0384,-0.2269,0.257,-0.5127,0.4849,0.868,0.3223,0.16,0.0666,0.4856,0.0583,0.596,0.373,0.3264,0.5566,-0.171,-0.2228,0.2386,-1.416,-0.2834,0.0982,0.1725,0.364,0.837,0.941,0.02348,-0.1785,0.1934,0.113,-0.2615,0.6826,0.05435,-0.01921,-0.6978,-0.2822,-0.709,0.6177,-0.1924,0.3206,-0.1895,1.555,-0.1882,0.79
knife,0.1531,0.3271,-0.4006,0.3953,-0.1447,-0.6074,-0.687,-0.682,-0.1593,-0.658,-0.2854,1.027,-1.068,0.1353,-0.1925,0.603,-0.579,0.1255,0.536,0.0517,-0.582,-0.1052,-0.11694,-0.03857,-0.02312,-0.0234,-0.6914,-0.3013,0.3428,-0.123,0.2656,-0.4854,-0.10114,0.13,-0.4048,0.523,0.6685,-0.1416,-0.3108,-0.129,0.4136,-0.2047,0.4592,0.595,0.706,-0.6562,-0.585,-0.0453,0.2024,0.928,-0.6035,-0.1923,0.06464,-0.1333,-0.1927,0.531,0.4004,0.6284,-1.153,-0.7856,0.446,1.047,0.3074,-0.1512,-0.1849,-0.141,0.502,0.4502,0.08844,0.199,-0.164,-0.08923,0.2112,-0.4448,0.252,-0.2627,1.226,-0.4792,-0.2815,-0.5483,0.00963,0.4644,-0.439,-0.4763,-1.021,0.594,0.09503,0.322,-0.4543,0.578,0.133,0.375,1.054,-1.106,-0.551,-0.0118,0.02312,0.2932,-0.0653,-0.9023,0.0674,0.02965,0.4436,0.07465,-0.435,-0.819,-0.1918,0.2556,0.1276,-0.3574,0.636,0.1663,-0.2556,-0.612,-0.2102,0.3315,-0.2416,0.5737,-0.05457,0.1437,0.1125,0.9453,0.3105,0.543,-0.553,0.3127,0.682,-0.08,-0.04077,-0.08685,0.03061,0.1824,0.2917,0.7847,-0.4233,0.12085,-0.1302,0.2979,-0.668,-0.4888,0.1781,-0.6343,0.1256,-0.1449,0.5347,0.1023,0.3032,0.1847,-0.09625,-0.2206,0.5747,-0.0659,0.06155,-0.00368,0.0879,-0.131,-0.4282,-0.3782,-0.276,-0.4692,-0.5933,0.4807,-0.0886,-0.1764,0.1993,-0.1188,0.742,-0.2344,0.79,-0.5303,-0.8955,-0.855,-0.01483,-0.0638,-0.542,-0.11505,0.416,0.9033,0.2484,0.1891,-0.0805,-0.4207,-0.0639,0.9663,0.945,0.32,-0.8574,-0.2424,-0.4102,0.2568,-0.4868,0.661,-0.1561,-0.3472,-0.4065,0.3281,-0.347,-0.5996,0.4858,0.396,-0.2688,0.803,-0.2537,0.128,-1.06,-0.2445,-0.0634,-0.2678,-0.2028,0.4614,0.634,0.1619,-0.0645,0.2996,-0.1289,-0.004955,0.3896,-0.617,-0.12494,0.477,0.3635,-0.0324,-0.1059,-0.1356,-0.6685,0.3525,-0.7793,-0.1475,0.9844,0.3843,0.7827,0.718,0.166,-0.8877,-0.0479,-0.02042,-0.3484,-0.1493,0.00437,0.009796,0.2754,-0.2837,-0.05502,0.10406,0.498,-0.2664,0.3064,0.1101,0.1161,0.3577,-0.1667,-0.3022,-0.2632,-0.07886,0.2175,0.1752,-0.674,0.1719,0.4827,0.3494,-0.3093,0.406,0.2507,0.156,-0.00767,-0.309,0.2181,-0.716,0.4563,-0.1614,0.1294,-0.309,-0.06433,0.03882,0.4912,0.034,-0.2507,-0.4158,0.1744,0.3345,0.01999,-0.596,-0.2351,-0.558,0.9443,-1.406,0.06494,1.2705,-0.4934,0.284,0.3235,-0.2094,0.0692,-0.2021,-0.05316,-0.489,0.6235,-0.1002,-0.2886,0.312,0.4138,-0.3025,-0.5625,0.01846,-0.2698,0.5728,-0.3132,-0.317,0.1844,1.118,0.702,0.601,-0.6353,0.0898,-0.4126,0.6885,0.569,0.67,0.1771,0.1137,0.4348,0.824,-0.2183,0.6797,-0.573,0.7036,-0.3057,-0.3015,0.4348,0.01333,0.094,0.87,-0.2449,0.618,-0.8096,-0.818,0.7812,0.2842,0.4028,0.05606,0.2837,0.4114,-0.87,0.4067,-0.159,-0.531,-0.7905,-0.4263,0.6514,0.2803,0.367,0.4153,-0.5635,-0.0751,1.43,0.259,-0.275,-0.2401,-0.1671,-0.0632,-0.1326,-0.04822,-0.408,-0.2229,0.6294,0.8027,-0.2957,0.3787,-0.2432,-0.2842,0.3032,-0.4421,0.0447,-0.0576,0.1279,-0.4758,0.146,-0.012,-0.338,-0.007225,-0.7983,-0.3826,0.5254,0.4612,-0.05588,0.1044,-0.1103,-0.4993,-0.0849,-0.418,0.1837,0.1617,-1.037,0.23,0.3193,0.983,-1.052,0.221,-0.132,0.3745,-0.2812,0.6724,0.1953,-0.1847,0.5146,-0.4453,2.076,-0.717,-0.2025,0.2795,-0.09485,0.0777,0.0328,-0.1528,-1.555,0.6978,-0.1466,-0.2537,0.517,-0.1736,-0.1086,-0.1678,-0.8403,-0.194,0.3264,-0.3926,-0.465,-0.589,-0.1945,0.2778,-0.233,-0.6597,-0.118,-0.1819,-0.2389,0.11725,-0.4043,0.309,0.2141,-0.004803,-0.3176,0.7485,-0.08844,0.456,0.3481,-0.002132,0.1544,-0.0449,-0.3171,0.4788,-0.1912,-0.1761,-0.2646,0.2172,-0.06506,0.3618,-0.3816,0.1602,0.4429,-0.429,-0.893,-0.209,0.2335,0.07715,-0.1315,0.8003,-0.04596,0.005997,0.5054,0.557,0.171,-0.2244,-0.2219,0.56,-0.08,-0.59,0.372,0.4348,-0.443,-0.371,0.2278,-0.8047,-0.2068,-0.1663,-0.874,-0.01588,0.471,0.10535,0.3423,0.456,0.3384,0.08105,0.0872,0.1705,-0.4941,0.1398,0.8965,0.4656,-0.1263,-0.519,0.5767,-0.357,0.4087,-0.5986,0.11536,-0.1619,0.5034,-0.1661,0.2812,-0.1725,1.037,-1.525,0.066,-0.1743,-0.0379,0.3936,-0.2367,0.2498,-0.695,-0.347,0.2998,0.2527,0.8325,0.75,0.1923,-0.4143,0.0386,0.173,1.452,-0.2478,0.10016,0.694,-0.2617,0.04715,-0.8374,-0.6533,-0.5664,-0.6743,-0.1405,-0.1721,-1.055,0.477,0.01787,0.3406,-1.055,0.8994,-0.927,0.3186,-0.2107,0.07074,0.1373,0.3406,-0.4648,0.4517,-0.3218,-0.3987,-0.00811,0.9824,0.4282,-0.57,0.5425,-0.875,-0.1041,-0.5356,-0.856,0.0872,-0.1628,0.86,-1.385,-0.2056,0.05502,-0.0816,0.347,-0.257,-0.02464,-0.04007,0.902,0.11694,-0.69,0.865,-0.2449,-0.02477,0.47,-0.744,-0.2424,0.1105,-0.3997,0.0001932,-0.11285,-0.782,-0.614,-0.0533,-0.2224,0.09753,-0.641,-0.1914,0.5547,0.7656,-0.1393,-0.0866,-0.1174,0.0279,0.2673,0.1376,-0.7354,0.746,-0.76,-0.1346,-0.0721,-1.548,-0.005005,0.3926,-0.2737,-0.1422,-0.327,-0.536,0.4524,0.6465,-0.3652,-0.943,-0.782,-0.254,0.9526,0.1053,-0.2177,0.3,0.2417,0.1763,-0.1327,-0.722,0.404,0.311,-0.7646,0.69,0.5527,-0.523,0.1007,0.5317,0.177,-0.4558,-0.2747,0.1075,0.907,0.1932,-0.881,-0.5396,0.05743,0.3186,0.1338,0.00783,0.3115,0.2424,0.27,-0.613,-1.097,0.187,0.4224,-0.3196,0.6294,-0.3948,0.3323,-0.4578,-0.2004,0.1235,-0.6465,-0.5703,-0.533,0.2009,-0.616,-0.4028,-0.06055,0.1793,-0.3723,0.2465,-0.3784,0.2339,-0.959,-0.2588,0.551,-1.029,-0.2059,-0.433,-0.0858,-0.1715,-0.04025,-0.12146,0.2742,-0.06915,0.284,-0.717,0.2417,0.1137,0.02274,0.3171,0.04056,1.005,0.3875,-0.05435,0.3145,0.02156,-0.1509,0.1084,-0.4521,0.315,-0.4336,0.4775,0.301,0.2573,0.823,-0.135,-0.012474,-0.6,0.663,-0.04086,-0.743,0.02547,0.01561,1.103,0.641,-0.0081,0.0724,-0.3584,1.109,0.1665,-0.10925,-0.2041,-0.0106,0.167,-0.3665,0.02148,1.276,0.1749,-0.01198,0.6904,0.7227,1.372,0.359,-0.01387,-1.28,0.3245,0.3816,-0.196,0.1036,0.3318,0.0771,0.4502,0.04807,-0.1411,-0.1594,-0.3818,-1.104,0.1588,0.533,-0.1769,-0.463,0.9614,-0.4985,0.2788,-0.0645,-0.1808,0.03616,-0.1112,0.0455,1.136,-0.131,-0.7305,0.6167,0.1367
clock,0.3975,0.1254,-0.0716,-0.0786,0.4873,0.443,-0.04443,1.348,-0.474,0.2291,-0.1375,-0.1322,0.548,0.817,-0.3516,-0.3018,-0.2225,0.7236,-0.4395,-0.9795,0.177,-0.8857,-0.06683,-0.3438,-0.1978,0.033,-0.4521,0.2075,1.004,0.0579,-0.1061,-0.9194,0.0001627,0.34,-0.2455,-0.1864,0.2827,-0.332,0.009285,0.704,-0.3381,0.0809,-0.4485,-0.08307,-0.1517,-0.02966,0.2369,0.6133,-0.4097,-0.645,0.2341,-0.296,-0.446,0.2386,0.2029,0.788,0.5347,-0.2206,-0.4558,-0.2156,-0.4797,-0.8115,0.175,0.8706,-0.6836,0.01148,-0.3457,0.12134,0.2245,0.1964,-0.0536,-0.2546,0.2455,-0.2527,-0.005173,0.0714,-0.10144,-0.1558,-0.3188,0.06976,-0.02898,-0.1804,0.2227,0.592,1.003,-0.09796,0.666,-0.0696,-0.584,-0.7954,0.01826,0.2374,0.5703,-0.447,-0.5894,0.7676,-0.5767,-0.711,-0.1231,1.083,-0.00846,-0.2251,0.4868,0.6567,0.02876,-0.302,0.1887,0.1785,-0.503,-0.3733,0.4854,1.192,0.5615,-0.167,-0.6963,-1.053,0.11,-0.013535,-0.552,-0.5845,-0.0633,0.4646,-0.4043,0.2244,0.05576,-0.2139,0.055,-0.4465,-0.2075,-0.2654,0.1678,-0.1159,0.05765,0.1909,0.06604,-0.537,-0.1205,0.6284,0.05157,0.13,-1.215,-0.4402,0.005093,0.4397,-0.89,0.1804,0.577,-1.063,1.119,0.178,-0.1477,0.10223,-0.0827,-0.00877,0.7393,-0.00347,0.1838,-0.006084,-0.9146,-0.5063,0.0621,-0.0641,-0.1045,0.1064,0.608,-0.2335,0.2544,-0.17,-0.9736,0.583,0.4155,-0.0877,0.0808,-0.2856,0.7476,-0.1486,0.4658,-0.4216,-0.10425,-0.02995,0.1837,-0.5127,-0.4673,0.0881,1.24,-0.2257,0.04306,0.1378,-0.188,-0.2808,0.255,-0.1415,0.571,0.1654,0.2815,-0.291,-0.00655,1.164,0.1469,0.1295,0.2905,-0.675,-0.0002136,-0.7954,-0.842,-0.1313,-0.275,-0.366,0.3977,-0.014854,0.1376,-0.42,0.1743,0.1191,0.3103,0.1049,0.18,-0.84,-0.5317,-0.574,-0.1198,0.9307,-0.8325,-0.1315,0.2169,0.4731,-0.2394,0.1799,0.1986,-0.2222,0.0658,-0.3926,-0.6636,0.1301,-0.4768,1.187,-0.455,-0.348,0.2168,0.777,0.10266,0.1103,-0.725,-0.13,0.943,0.05026,0.3335,-0.02263,-0.10724,0.863,-0.2976,0.556,-0.1517,-0.0891,-0.1644,0.1021,0.4578,-0.2795,0.275,-0.1531,-0.692,-0.2266,0.4966,-0.3809,-0.583,0.2761,0.452,-0.65,0.505,-0.1493,-0.2499,0.1783,0.677,-0.821,0.6494,-0.3296,-0.5957,0.693,0.1422,0.3196,0.05194,0.001912,-0.11285,-1.248,-0.531,0.747,-0.178,-0.1467,-0.4785,0.6255,0.06354,0.7246,-0.3787,-0.014565,0.439,-0.1776,-0.2205,0.01519,-0.4255,-0.3508,-0.6445,0.4238,-0.812,0.4321,0.7573,-0.008705,-0.04083,-0.743,0.2227,-0.2373,-0.4636,-0.0739,-0.3384,0.2361,-0.1621,-0.7456,0.229,-0.03433,-1.143,0.3665,-0.01214,0.6973,-0.3853,0.06464,-0.2062,0.04202,0.549,0.6323,-0.3252,0.841,0.04977,-0.3196,0.08716,0.0325,0.2009,-0.1923,0.2944,0.4087,-0.1373,-0.1824,0.3665,0.1993,0.895,-0.2913,-0.1449,0.3098,0.2299,-0.2042,-0.554,-0.05045,-0.0497,0.8965,-0.3477,-0.39,0.514,0.3188,0.4182,-0.4172,-0.06696,-0.5376,-0.2603,-0.2488,0.265,-0.03096,-0.0858,-0.2225,-0.03195,-0.0976,0.06506,-0.591,-0.822,-0.1707,-0.571,0.000285,-0.1501,0.052,-0.608,0.4324,-0.05048,-0.06384,0.5337,0.2224,0.1406,-0.3997,0.2666,0.2876,0.2537,-0.3596,-0.7505,0.7036,0.0884,0.3477,0.06076,-0.001993,-0.4514,0.528,0.8267,-0.6196,-0.4019,0.4858,-0.02147,-0.657,0.597,0.2148,-0.2383,-0.105,0.04208,-0.3848,-0.11163,-0.411,0.746,0.1589,0.007935,0.3594,0.1655,0.0704,-0.325,-0.4888,-0.1007,0.1035,0.1674,-0.0732,-1.09,-0.0906,-1.511,-0.4983,0.0943,1.164,-0.489,-0.0607,-0.0657,-0.859,-0.1315,0.3464,-0.1696,-0.07196,0.0364,-0.1835,0.0554,0.2169,0.3713,0.593,0.605,-0.4155,0.4478,0.2341,0.5356,-0.5693,0.581,-0.0858,0.831,0.1793,-0.2815,-0.0419,0.4827,-0.000814,0.31,-0.396,-1.199,-0.667,0.009605,0.1871,-0.2903,-0.6533,-0.1569,-0.674,-0.2915,0.03317,-0.512,0.254,-0.5854,0.1631,0.1813,-0.6978,0.2593,0.1976,-0.2185,0.1257,0.146,-0.364,0.1378,-0.58,0.392,-0.6,0.6875,-0.5005,-0.1267,0.291,-0.02429,-0.1611,0.7817,0.4355,0.2236,0.4685,0.533,0.1835,-0.1425,-0.10394,-0.57,0.1735,-0.11505,0.0711,-0.4072,0.2764,-0.4429,-0.08246,0.3706,0.0964,0.1537,0.8823,0.10754,0.0544,0.4673,0.002176,-0.2344,-0.1372,-0.06305,0.523,-1.289,-0.1879,0.5566,-0.1628,-1.426,-0.2637,0.661,-0.6577,-0.2698,-0.31,-0.1295,0.10406,-0.2057,-0.2522,0.3674,-0.4106,-0.384,0.3315,-0.04828,-0.9287,-0.4028,-0.1613,0.07367,0.64,0.7983,-0.1019,0.2788,0.4346,-0.3103,-0.4023,0.1191,0.264,1.0205,0.6265,-0.2644,0.2708,-0.6616,1.463,-0.0606,-0.1614,-0.5635,0.1726,0.623,-0.2329,-0.11847,0.2233,0.509,0.8247,0.8257,0.6323,0.6245,0.4324,0.6875,-0.5273,-0.3003,-0.2089,0.3208,0.2712,-0.2262,0.332,0.03604,0.135,0.388,0.4692,0.2883,0.6704,0.4343,0.1616,-0.59,-0.2126,0.679,-0.3054,0.01604,0.5586,0.6777,0.1322,-0.83,-0.3486,0.07635,0.556,0.4807,0.3699,-0.733,0.3672,0.0955,-0.3042,-0.3315,-0.7983,0.07526,0.4333,0.5444,-0.2169,0.2625,-1.01,0.1415,0.7393,-0.09924,-0.2656,0.1758,0.1262,0.0358,0.708,-0.2668,0.1744,-0.2266,-0.104,-0.3794,-0.665,0.3057,0.2935,-0.8374,0.07806,0.4807,0.304,0.00594,0.547,-0.2003,-0.2837,0.03427,0.10425,0.2206,0.4243,-1.045,-1.093,0.72,0.1277,-0.404,0.885,-0.1483,0.372,0.2654,0.1423,0.4329,0.1788,0.292,-0.3157,-1.029,0.0794,-0.1516,0.952,-0.747,0.03014,0.3328,-0.203,0.05756,-0.1879,-0.5063,-0.6284,-0.2417,0.2424,0.7393,-0.151,-0.04514,0.3464,-0.3125,0.1766,-0.1694,0.1671,0.1775,-0.8843,-0.3425,-0.3486,-0.09863,-0.6387,-0.4043,0.506,-0.01947,-0.0598,0.02057,-0.516,-0.6543,-0.0509,0.718,0.2673,0.573,-0.6304,0.2484,-0.9956,0.2435,0.3872,-0.5576,-0.4766,-0.8667,0.7314,-1.03,-0.331,0.1638,-0.1054,0.138,0.09937,0.4614,0.268,-0.4836,0.709,0.0746,-0.6294,0.639,0.06415,0.1459,1.202,0.09424,-0.4978,-1.019,-0.3396,-0.362,0.861,-0.713,0.385,0.00716,0.909,0.5537,0.4978,-0.2372,0.577,0.0708,0.11304,0.0398,-0.7397,-0.4133,0.0842,0.0779,0.0116,-0.611,1.1045,-0.8164,-0.007305,-0.2908,0.0975,0.7266,-0.05927,0.6255,0.12427,0.5366,-0.12286,0.1001,-0.01982,0.7563,0.393,-0.2683,-0.4087,-0.3025,0.1016,-0.1102,-0.6274,-0.2239,-0.1086,-0.147,1.677,-0.4302,0.3948
chair,0.177,0.1257,-0.557,-0.5015,-0.2479,0.532,0.536,0.2335,-0.11597,-0.1081,0.1617,0.254,-0.4016,-0.6685,0.3228,0.5327,-0.09094,0.178,-0.1589,-0.07477,-0.3267,0.4575,-0.306,-0.3804,-0.6733,0.0783,-0.5884,0.04263,0.4363,0.1906,0.2676,0.257,0.1942,0.2448,-0.4082,0.3606,0.3376,0.2455,-0.1116,0.0877,0.2515,-0.0311,0.2595,-0.1803,0.7974,-0.71,0.147,-0.277,0.289,0.1527,-0.303,0.07666,0.1403,-0.59,-0.5405,-0.1907,-0.82,0.2612,0.6216,-0.2856,-0.3987,0.642,0.1553,-0.2306,0.2465,0.0561,0.2216,-0.2427,0.01139,-0.01889,0.1627,-0.4192,0.3474,-0.4321,-0.2319,0.05646,-0.10913,0.549,-0.2812,0.1771,-0.04077,-0.1804,-0.2808,0.4678,0.4502,-0.3809,-0.085,-0.0981,0.534,1.365,-0.4736,0.1062,0.5874,-0.4163,-0.2654,-0.1091,0.0449,0.2517,0.1081,0.1364,0.2026,0.4304,-0.3489,0.4421,-0.5728,0.2012,0.469,-0.276,0.184,-0.05823,0.3926,0.1522,0.3896,-0.2004,0.09515,-0.3374,0.3247,-0.12134,0.2191,-0.843,-0.05878,-0.1323,0.02629,-0.3071,-0.3374,0.2256,0.503,-0.0764,-0.0463,0.04718,0.0696,-0.1095,-0.5454,0.56,-0.081,-0.656,-0.2668,-0.3691,0.3691,-0.3564,-1.013,0.7173,-0.005947,0.05054,-0.11487,-0.08453,-0.06116,0.2085,0.3682,0.11005,-0.3025,0.398,0.7456,-0.05225,-0.42,0.4138,-0.6533,-0.2683,-0.673,-0.544,0.03952,0.4443,-0.5117,-0.01089,-0.1059,-0.3193,0.3113,-0.401,0.8145,0.2308,-0.1971,0.0987,-0.4019,0.2157,0.1565,0.6523,-0.2479,0.01776,-0.56,0.6655,0.03111,-0.1786,-0.282,-0.1729,-0.655,0.2524,0.952,0.1913,-0.5947,-0.3354,-0.343,0.1658,-0.2905,-0.1636,-0.2058,-0.1654,0.01389,-0.181,-0.3467,0.4312,-0.1567,-0.936,-0.08777,0.2786,-0.289,-0.2754,0.186,-0.8833,0.832,-0.0915,-0.1821,0.2401,0.0789,0.0094,-0.0723,-0.07983,0.242,-0.4375,0.552,-0.2693,0.31,0.2585,0.355,0.1467,-0.2092,-0.10345,-0.441,0.9917,-0.321,0.1434,0.455,-0.4028,-0.1287,-0.2563,-0.2996,-0.2988,0.3896,0.4268,-0.2969,-0.3132,-0.02393,0.5205,-0.6064,0.2837,0.2354,0.259,-0.3586,0.6016,-0.2426,-0.2343,-0.729,0.1848,0.1011,0.2566,-0.10645,-0.1965,0.5044,-0.01775,-0.04837,-0.2842,-0.2048,-0.489,0.0801,-0.2302,0.139,-0.546,0.3281,-0.0197,0.01145,-0.0515,-0.9473,-0.2295,0.404,-0.449,0.02444,-0.1886,0.5933,-0.3025,0.3335,0.21,-0.4783,0.498,0.05035,0.677,-0.3467,-0.621,-0.2351,-0.498,0.287,-0.0631,0.3958,1.029,-0.004047,0.0722,0.2212,-0.2854,-0.2834,0.2837,-0.1328,0.491,-0.1781,0.4717,-0.584,0.544,0.1177,-0.5405,0.0566,0.1354,-0.3125,-0.1055,-0.1637,0.06104,-0.04477,0.0914,-0.0904,0.1531,0.02943,0.1708,-0.12494,-0.3674,-0.11774,0.843,0.173,-0.0859,0.4077,0.3745,-0.754,-0.0673,-0.1426,-0.08057,0.3389,0.6616,-1.464,0.7085,-0.02275,-0.9556,0.01156,-0.4678,-0.3323,0.0272,0.04578,0.732,0.012695,-0.1211,0.1718,0.1305,-0.7925,-0.1754,-0.7666,0.6104,0.434,-0.03665,-0.03232,-0.454,-0.6895,0.5835,-0.315,0.1803,-0.2944,0.2617,-0.5127,-0.1497,0.04855,0.1633,1.334,1.209,0.0669,-0.4578,0.162,-0.6426,0.00891,-0.3613,-0.1105,-0.2073,0.3147,0.178,0.1179,0.01404,0.03008,0.2089,-0.195,0.3342,-0.0906,0.507,-0.1213,-0.283,0.0451,-0.02551,-0.2045,1.029,0.738,0.6816,0.3743,-0.6045,0.94,-0.6016,-0.3054,0.521,-0.2751,-0.1594,0.3638,0.432,-0.3525,-0.1783,-0.2158,0.204,-0.121,0.248,0.667,-0.1548,-0.5225,-0.2153,-0.02539,-0.3733,-0.4944,-0.4617,-0.3833,0.2554,-0.99,-0.2727,0.01952,0.2118,-0.37,0.15,-0.1418,0.6826,-0.2554,-0.0892,-0.0727,0.1821,0.3262,-0.6597,-0.1847,-0.06757,0.2017,0.09607,-0.008705,0.798,-0.7695,0.6465,-0.4036,0.01622,0.2274,-0.2979,-0.6064,-0.4614,0.007366,-0.08923,-0.0796,-0.5415,0.168,-0.2247,0.3691,-0.01199,0.1887,0.3596,0.7046,-0.54,-0.4937,-0.563,-0.569,0.4949,-0.265,-0.537,0.07513,0.0245,-0.04578,0.1387,0.0628,0.0684,-0.00241,0.1371,-0.3044,-0.5757,-0.1638,0.2104,0.5444,0.05994,0.1826,0.393,-1.001,0.7627,0.3198,0.12036,-0.3225,0.4863,0.2915,0.3447,0.8086,0.848,0.4219,0.3987,0.1569,-0.1498,-0.2974,0.3179,-0.1785,0.0225,0.10406,0.2314,-0.2505,-0.3977,0.4023,-0.719,0.2487,-0.4707,-0.3333,-0.706,0.1061,-0.03232,-0.1351,0.7563,0.575,0.2242,0.709,0.1945,-0.2329,0.161,-0.09894,0.2343,-0.2448,-0.0364,-0.1367,-0.4539,-0.06158,0.381,-0.7734,-0.366,-0.3215,-0.1744,0.718,-0.2634,-0.004772,0.09454,-0.7705,0.1041,0.4941,0.01877,0.0648,-0.9893,-0.339,-0.6577,-0.4922,0.3862,-0.2312,0.02608,0.271,0.08386,-0.4282,-0.3118,-0.301,-0.0852,0.516,0.304,-0.3547,0.741,-0.03476,-0.07153,0.2096,0.004333,0.3389,-0.1663,0.1372,0.2214,0.8726,-0.2803,-0.0839,0.3352,-0.1126,-0.79,-0.02966,-0.0369,-0.171,-0.1023,-0.256,-0.007214,0.11646,-0.0504,0.326,0.2542,0.8623,-0.1412,-0.364,0.04276,0.666,-0.433,0.01089,-0.1338,0.04074,-0.2286,0.2844,0.7363,0.1515,0.0979,0.428,0.1171,-0.305,0.4116,0.5103,-0.2203,0.0431,0.04794,0.4512,-0.2764,-0.3801,0.009865,0.2637,0.02031,-0.1327,-0.6953,0.441,0.1873,0.0464,0.3933,-0.2312,-0.1893,-0.0488,0.2852,-0.01074,-0.05984,-0.2003,-0.341,0.3438,0.873,0.0776,0.7656,-0.1068,-0.4233,-0.0921,-0.259,0.0901,0.3093,-0.6655,-0.1334,0.02568,-0.725,-0.11053,0.642,0.4558,0.1198,0.3833,-0.07935,0.797,0.10394,0.08374,0.1472,-0.3967,0.457,-0.4692,0.07245,0.1803,0.0955,-0.3333,-0.6636,0.3435,0.5044,-0.0331,0.3672,0.38,-0.1061,0.0845,0.1871,0.5723,-0.1177,-0.5083,0.217,0.3755,0.352,-0.4631,-0.6035,-1.11,-0.5815,-0.2795,0.6094,-0.3862,-0.005085,0.2349,0.06366,-0.2942,0.6836,-0.727,-0.2493,-0.02858,-0.3606,0.5913,0.1652,-0.008705,-1.008,0.0548,-0.2666,-0.0708,0.0521,-0.165,0.686,-0.189,0.1209,0.0806,0.186,0.5557,0.191,0.1133,0.2527,0.03195,-0.4792,-0.4844,-0.03029,-0.1912,-0.10144,0.3354,-0.04367,-0.1489,-0.7085,0.1036,-0.642,-0.2291,-0.0224,0.0557,0.0307,-0.1823,-0.5957,0.806,-0.1516,-0.1713,0.1069,0.2024,-0.1587,0.0829,0.3438,-0.4685,0.1858,0.5444,0.142,0.2101,0.1416,0.9126,-0.2156,0.522,-0.1866,0.6743,0.078,0.328,-0.5913,0.2435,-0.708,0.3928,0.2405,0.677,-0.4343,0.4133,0.1453,-0.12115,-0.0543,0.65,0.3118,-0.1998,0.4377,0.08984,-0.982,0.5356,-0.2479,0.1444,0.517,-0.0246,-0.7456,0.3853,-0.06647,0.4026,-0.398
sled,-0.4104,0.2338,-0.0713,-0.443,-0.2236,0.2267,0.31,-0.2473,-1.023,-0.1775,0.1443,-0.2566,0.2064,-0.07275,0.272,0.552,-0.283,0.1142,-0.1188,-0.4954,-0.3848,0.413,0.2467,0.2375,-0.05713,0.2194,0.3386,-0.05316,0.13,0.528,-0.3313,0.3665,0.3782,-0.09796,-0.2163,0.3018,0.007156,-0.2451,-0.1595,-0.2515,-0.114,0.07916,0.3936,-0.4675,0.678,-0.688,-0.1854,0.000692,-0.198,0.31,0.0174,0.3928,-0.2974,-0.7554,-0.573,0.6675,-0.275,-0.9097,-0.2834,0.2343,-0.3748,-0.01267,0.709,0.0005183,0.2415,-0.378,0.1083,-0.1923,-0.03726,-0.4768,0.382,0.04303,0.2888,0.075,0.4204,0.03848,0.2175,-0.1698,-0.1538,-0.351,-0.5356,-0.04584,0.4062,0.09595,-0.1562,0.0383,-0.01135,-0.3367,0.6924,0.638,-0.09705,0.1833,-0.2445,0.1987,-0.2186,-0.163,-0.2003,0.0639,0.00423,0.3562,0.0862,0.2026,-0.10114,0.9077,-0.4236,0.1124,0.1946,0.65,0.3296,0.07166,-0.755,0.6025,-0.292,-0.4194,-0.1361,0.1995,-0.02171,-0.2213,0.0687,-0.542,-0.1606,-0.274,-0.3726,-0.537,-0.705,-0.03375,0.3035,0.6597,-0.0272,0.1556,0.2404,-0.548,0.03467,0.2566,-0.487,-0.1316,-0.4326,0.2832,-0.09924,-0.1598,-0.10406,0.4697,0.3042,0.09106,-0.171,0.1735,0.349,0.11334,0.2323,-0.286,0.4092,-0.441,-0.05194,-0.267,0.6904,0.273,-0.4622,0.347,-0.0519,0.2576,-0.02858,0.442,0.1058,0.2325,0.1401,-0.2194,-0.2161,-0.2632,0.3662,0.1884,0.03894,-0.2374,-0.577,-0.734,0.3816,0.289,1.1045,0.2113,0.184,0.259,0.004955,0.4004,-0.0002441,-0.1357,0.1378,0.3381,-0.523,0.0495,0.5063,0.322,-0.3735,-0.3687,0.2832,0.149,-0.0984,0.1052,0.4053,0.3303,0.000651,0.433,-0.4377,-0.0431,-0.3616,0.0512,0.7285,0.00926,-0.5234,0.3242,-0.1526,-0.2319,1.059,0.2612,-0.1757,0.1395,0.05447,-0.1481,0.3604,-0.02197,-0.7603,-0.222,0.08655,-0.3267,0.1359,0.2186,0.1962,0.2366,-0.309,-0.1644,-0.4998,0.1995,0.0876,-0.03275,-0.338,-0.02016,-0.4148,-0.2103,-0.1906,-0.1973,-0.0515,-0.3467,0.1244,1.333,-0.0815,0.1255,0.305,0.04404,-0.513,0.006317,-0.11884,-0.3923,-0.2139,0.4458,0.503,0.0157,0.1394,0.03094,0.0386,-0.01013,0.05066,0.1307,-0.182,1.069,0.02113,-0.3813,-0.2216,-0.1699,0.1824,-0.2468,-0.355,0.577,-0.05426,-0.1575,0.3408,-0.422,0.4578,0.4087,0.2654,-0.1558,-0.3848,-0.2466,-0.04993,0.1676,0.02869,-0.3096,0.0717,0.105,-0.2153,0.559,0.933,-0.2379,0.986,-0.1445,0.2107,0.0741,-0.1359,-0.4275,-0.3772,-0.247,-0.03714,0.2795,-0.2379,-0.521,0.4136,0.3765,0.4321,0.3718,-0.1128,-0.099,0.0932,-1.994,-0.004745,-0.292,0.2461,0.3538,0.1543,-0.1667,-0.01662,0.4956,0.3162,-0.3462,-0.2043,0.09174,-0.4531,-0.1337,0.4543,0.118,-0.1318,0.0392,-0.2544,0.03226,-0.00472,0.1035,-0.5684,0.196,0.2151,-0.447,0.3218,0.2073,-0.7197,0.01461,-0.7163,0.1616,-0.308,0.1788,-0.2107,0.03873,-0.5874,-0.358,-0.1718,-1.041,0.1364,0.721,-0.1649,-0.05777,0.5034,-1.09,0.004627,0.02013,-0.5127,0.02818,-0.3079,-0.3225,0.02751,-0.0894,0.2096,0.1951,0.03113,-1.122,-0.1454,-0.05737,0.081,-0.295,-0.11163,0.2195,-0.2389,0.1545,0.097,-0.539,-0.3442,-0.743,0.1385,-0.05826,0.1876,0.0966,-0.607,-0.0587,-0.0437,0.2808,-0.4019,-0.1749,0.8647,-0.5195,0.3745,0.1978,0.04868,0.5415,-0.2404,-0.1191,-0.2216,-0.4324,-0.3418,0.7065,0.32,0.1744,0.543,0.10364,0.2957,1.198,-0.308,-0.2084,-0.09564,-0.539,0.1326,-0.01434,0.01245,-0.1411,-0.01481,0.015015,-0.627,0.06714,0.0418,-0.10034,0.5015,0.76,-0.65,-0.4255,0.08185,0.007732,-0.3032,-0.10406,0.5005,-0.1323,-0.02844,0.02003,0.1849,-0.0685,0.6665,0.4045,-0.2134,-0.189,-0.3613,-0.5776,0.2113,-0.2695,-0.06647,-0.1254,0.2216,-0.275,0.435,-0.1888,-0.06186,-0.208,0.1103,0.3904,0.515,0.11035,-0.1092,0.4143,0.1951,-0.208,0.506,-0.0703,-0.6006,0.2495,0.709,0.2344,0.3816,0.1633,-0.1973,-0.05814,-0.1351,0.1158,0.12445,-0.5103,0.09326,0.2142,0.11584,0.1995,-0.1467,0.2102,-0.8564,0.01991,0.2668,0.3613,-0.0736,-0.075,-0.666,0.1067,0.239,0.2559,0.0734,0.7515,-0.3782,0.10724,0.9277,0.032,-0.00818,0.0735,-0.2917,-0.703,-0.4731,0.0733,-0.10223,-1.442,-0.2332,-0.02142,-0.1355,0.1306,0.1937,0.9165,-0.0433,1.472,0.2106,-0.04187,0.1901,-0.564,0.001424,0.237,-0.10333,0.05737,0.00473,0.0217,-0.0321,-0.5366,0.3096,0.0491,0.6846,-0.1218,-1.139,-0.456,-0.208,0.311,0.5283,0.0823,-0.0819,0.004845,0.029,0.2083,0.1299,-0.1076,0.1829,-0.3481,-0.5054,0.111,-0.1511,-0.418,0.5176,0.7046,-0.1813,0.03424,0.05182,0.609,-0.1509,0.0526,0.1815,0.1378,0.2318,0.07526,0.5654,-0.281,-0.0859,-0.3704,-1.308,-0.08075,-0.4775,0.3462,-0.7627,0.7104,0.1097,-0.483,0.3066,0.1217,-0.952,-0.1576,-0.683,-0.0939,0.6187,0.4873,0.3503,-0.1785,0.1682,0.1609,-0.1694,-0.4153,-0.2343,-0.0887,-0.005085,0.04907,0.05063,-0.2822,0.2354,0.4688,0.003845,-0.11487,0.2007,0.10675,-0.1307,-0.08185,0.0482,0.2964,0.426,0.4475,0.8843,0.3687,0.1184,0.6567,-0.2311,-0.3394,-0.4277,-0.281,0.0896,0.4482,-0.1876,-0.864,-0.0576,0.03293,-0.2358,0.007122,0.2307,-0.158,-0.0392,0.2429,-0.1259,-0.07275,-0.2173,-0.2454,-0.04218,0.4075,-0.5645,-0.2896,0.02007,0.4104,-1.311,0.1954,-0.527,-0.3215,-0.247,1.478,-0.0933,-0.2445,0.8506,-0.5215,0.10114,-0.2493,0.3555,0.0875,0.726,0.2717,0.3323,-0.2798,-0.0671,0.1848,-0.01576,0.004223,0.606,-0.3098,-0.1062,0.6743,-0.1489,-0.4155,-0.4932,0.3623,0.3706,-0.144,-0.03806,0.2473,0.2297,0.546,-0.1947,0.2352,-0.782,0.2898,-0.2095,0.05978,-0.593,-0.4856,0.1919,0.4724,0.02483,-0.0754,-0.505,0.291,-0.04626,0.5137,-0.08734,0.4673,0.2644,-0.1633,0.1791,-0.533,-0.02473,0.03745,0.1709,-0.3293,0.3665,-0.0306,0.0337,0.4968,0.1661,0.1777,-0.01522,0.7075,-0.0419,-0.5576,-0.3735,0.1399,-0.268,-0.2854,-0.1923,-0.07367,-0.03293,0.3325,-0.0332,-0.227,-0.494,-0.3198,0.0403,0.357,0.3337,0.412,-0.0404,0.6084,-0.005207,-0.0995,-0.067,-1.121,-0.0421,0.4763,-0.081,0.001018,0.1896,-0.2722,-0.08624,0.0806,0.721,0.2808,0.534,-0.1945,0.2117,-0.2158,0.1913,-0.2117,-0.2297,-0.709,0.3965,-0.2472,0.2227,0.0595,0.4863,0.1301,-0.2346,-0.1647,0.398,0.0635,-0.0835,-0.4153,-0.2062,-0.6284,-0.5723,-0.1602,-0.2532,0.7764,0.05905,-0.3328,0.02327,0.03117,-0.03552,0.1953
jeans,0.0863,0.0992,0.0756,-0.3662,0.08075,0.234,-0.331,-0.01604,-0.751,0.3757,-0.166,-0.0549,0.1494,-0.1879,0.2905,-0.5312,-0.7305,0.4744,0.06824,-0.1896,0.0869,0.4055,-0.1552,0.0541,-0.1271,-0.02666,0.1559,-0.6343,-0.02803,0.473,-0.4597,0.135,-0.1714,0.5034,-0.2493,-0.1987,0.3774,-0.1323,-0.3809,0.1859,-0.1481,-0.09564,-0.0655,-0.1797,0.4268,0.4185,-0.263,0.05075,0.189,-0.2534,-0.0989,0.2211,0.051,-0.6074,-0.0481,-0.2827,-0.0989,0.4702,-0.1171,-0.377,0.2046,0.09625,-0.236,0.0773,0.1501,0.1567,0.4575,-0.3416,0.2191,-0.04224,-0.8516,0.2252,0.010056,-0.1178,-0.1505,0.0955,-0.02516,0.2576,-0.3364,0.5664,0.00791,-0.1298,0.1965,-0.3694,-0.1991,-0.0053,-0.2034,-0.0903,0.882,0.17,0.4072,-0.4102,0.425,-0.731,-0.2632,-0.2683,0.376,-0.2896,-0.478,0.09125,-0.0728,-0.2566,-0.07043,-0.1632,0.326,-0.2367,0.02281,-0.3975,0.1392,-0.3428,0.0641,-0.3306,-0.2688,-0.0575,-0.4182,-0.06525,-0.3135,0.5796,0.1143,0.04404,0.2651,-0.1929,-0.10297,0.007122,-0.05737,-0.0315,0.4226,-0.1864,-0.03983,-0.1469,0.2847,0.3328,-0.274,0.1225,-0.1023,0.3113,0.05527,0.939,-0.1815,-0.0008755,0.3752,0.4832,0.1886,0.04053,-0.34,-0.774,-0.837,-0.2096,-0.02313,0.02364,-0.298,0.284,0.2075,-0.000158,0.010544,0.362,0.0162,0.2388,-0.529,-0.2593,-0.38,-0.08496,-0.03345,0.1482,-0.08856,-0.001149,0.572,-0.533,0.6597,0.2197,0.268,-0.497,0.02362,-0.005096,0.2385,0.2241,0.0156,-0.02756,0.38,0.2166,-0.1221,-0.4387,-0.01063,-0.4707,-0.448,-0.11206,0.02188,-0.10126,-0.6436,0.201,-0.1826,0.00454,0.284,0.4756,0.4126,-0.0153,-0.1664,0.4888,0.2035,0.0783,-0.459,0.4175,-0.755,-0.072,0.01869,0.0876,0.23,0.1309,0.2546,0.01715,0.03528,0.289,-0.1159,0.003126,-0.06805,0.10693,-0.0785,0.291,0.1783,0.08856,-0.273,0.11475,-0.173,-0.146,-0.3271,-0.04468,-0.2104,-0.1886,-0.3625,0.7896,-0.471,0.1748,0.08374,0.4485,-0.4,0.1776,0.1935,0.2817,-0.2517,0.2776,-0.1581,-0.4775,-0.1383,0.2487,-0.3564,0.03076,0.1584,0.3755,-0.0519,-0.0791,0.1337,0.1228,0.05972,-0.1617,0.0568,0.1271,-0.1808,0.01096,-0.0747,0.3887,-0.01735,-0.0758,0.5474,0.002312,0.09424,0.5806,-0.03613,-0.1214,0.1483,0.3872,0.5835,-0.205,0.0352,0.2437,-0.03375,-0.4001,0.0006895,0.1277,0.2151,0.1349,0.08813,0.5205,0.2422,-0.4436,-0.3477,0.1812,-0.1536,0.2793,-0.4512,0.03638,-0.3457,-0.1514,-0.03038,0.4346,0.39,0.735,-0.01472,-0.5063,0.3123,0.4739,0.1131,0.02692,0.0758,-0.1222,-0.04657,-0.516,-0.424,0.4734,0.1384,0.08514,-0.1481,0.2251,-0.271,0.3237,0.4202,-0.163,0.3496,-0.002758,0.2013,-0.5913,0.3743,-0.2844,0.11316,-0.0683,0.1116,-0.1865,-0.0708,0.3398,-0.5522,-0.2242,0.4,0.1494,-0.887,-0.1137,0.3665,-0.745,-0.1353,0.2102,0.05887,0.5903,0.589,0.05603,-0.0971,-0.1633,0.259,0.1383,0.1821,0.2942,0.4204,0.08777,-0.2317,-0.3586,-0.07465,-0.09534,-0.5215,-0.3486,0.0916,-0.3218,-0.4385,0.0766,-0.5938,0.2695,-0.29,0.0223,0.1934,-0.4326,0.00691,-0.0665,-0.3064,-0.01456,-0.09564,0.141,-0.2024,-0.01411,-0.0767,-0.1343,0.1923,0.2184,0.1344,-0.1846,-0.6943,0.1062,-0.1239,-0.2368,-0.4373,-0.08704,0.2446,-0.02705,-0.1553,0.9683,0.1016,0.187,0.4739,-0.01419,-0.593,0.007412,-0.1742,0.2291,-0.02873,0.1562,0.2947,-0.1082,0.654,0.1022,0.2195,0.1015,0.3083,-0.2954,0.0532,0.1043,0.0455,0.3967,-0.4258,-0.29,-0.02864,0.3071,-0.276,-0.04596,0.07153,-0.5747,0.3086,0.3203,0.19,-0.1772,0.512,-0.08264,-0.737,-0.0677,0.441,-0.2488,0.422,-0.1963,-0.256,0.03754,-0.002663,-0.01825,-0.406,0.03705,-0.1534,0.2236,-0.4119,0.362,0.2131,-0.01878,0.1354,-0.1879,-0.2805,-0.2003,0.11487,-0.2413,-0.013695,-0.0407,-0.04895,-0.1225,0.263,0.342,0.5923,0.01678,-0.1206,-0.2576,0.1304,0.232,-0.2185,-0.1412,-0.01854,0.2339,-0.11774,-0.1637,-0.7344,-0.1993,0.1044,-0.1428,-0.2052,0.129,0.192,0.1586,-0.3909,-0.1514,-0.2418,-0.106,0.552,0.1333,-0.2664,0.0679,0.1833,0.576,0.4253,0.0293,-0.403,0.3625,-0.03458,0.1997,0.0892,0.00645,-0.01252,-0.02794,-0.1602,0.3503,-0.2498,-0.261,-0.2864,0.528,0.7085,-0.501,0.3218,-0.1415,0.3118,-0.03023,-0.1605,-0.3752,-0.11145,-0.1497,-0.4067,-0.4146,-0.0386,-0.4758,0.4648,-0.6216,-0.614,-0.2295,-0.1622,-0.1614,-0.2428,-0.349,-0.4172,0.6113,-0.03873,0.3506,-0.3052,-0.2244,0.1186,-0.0501,-0.3457,-0.2761,-0.02576,-0.36,0.4941,0.4026,0.3196,-0.1194,0.283,0.1484,-0.075,0.2036,0.1898,0.10535,0.3706,-0.3557,-0.3335,-0.1207,0.367,-0.1307,0.1168,0.1364,0.05325,0.4094,-0.3062,-0.2281,-0.5864,-0.3838,-0.3665,-0.11884,-0.3088,-0.2805,0.4175,0.2305,-0.272,-0.2783,-0.1914,-0.2766,0.3154,0.4646,-0.4155,-0.1461,0.1865,0.05817,0.1472,-0.04816,-0.1747,0.3308,0.04178,-0.00912,-0.499,0.501,-0.2087,-0.2715,-0.123,-0.1245,-0.2961,0.5083,0.3245,0.0688,-0.05124,-0.11005,-0.2578,-0.6006,-0.04657,0.06113,0.2954,0.0848,-0.1229,-0.2463,0.097,-0.11743,0.3853,-0.2947,0.4126,0.1121,-0.3406,-0.3088,0.2751,0.1582,0.0755,-0.349,-0.06244,0.682,-0.2078,0.2327,-0.4885,-0.1599,-0.439,0.4182,-0.1566,-0.0441,-0.0327,0.007324,-0.0833,0.4539,-0.06195,0.5654,-0.02376,-0.07745,-0.0664,-0.008675,0.593,-0.2399,-0.4844,0.4707,-0.3267,-0.042,0.0572,-0.1835,0.5664,0.0862,-0.3323,0.2404,-0.2158,0.0722,0.4824,-0.07605,-0.1812,0.1727,0.0521,0.0246,0.2186,0.2817,0.1255,-0.09467,0.1225,-0.2593,-0.04117,0.258,-0.759,-0.313,0.21,0.2842,-0.5464,0.443,-0.6924,0.3743,0.12024,0.05273,-0.2305,0.545,-0.1162,-0.5933,0.1588,0.1279,0.6914,0.4194,-0.2576,-0.0531,-0.1652,0.3684,0.4983,-0.10455,-0.0442,0.506,0.634,0.01172,-0.2769,-0.05527,0.2163,0.0045,-0.1333,1.211,-0.000605,-0.4568,-0.4038,0.4316,-0.0745,0.3638,0.1868,-0.07104,0.2969,0.1923,-0.07086,0.2812,0.3027,-0.2101,-0.4866,-0.521,0.01686,-0.11,0.2451,-0.274,-0.2206,-0.01023,-0.888,-0.3193,-0.3064,0.06946,0.05002,-0.4534,-0.285,0.3582,-0.1406,0.1772,0.2395,0.2566,0.1617,-0.5366,0.03958,0.191,0.8,-0.2378,-0.1076,-0.1654,-0.4639,-0.4944,-0.1166,0.1759,-0.02507,0.2263,0.2026,-0.12244,0.1858,-0.3557,0.0861,-0.1692,0.257,-0.2412,0.1736,-0.003218,0.1418,0.08374,0.7817,-0.05496,0.02054,-0.02933,0.451,-0.0004272,0.11865,1.193,0.306,-0.04172,-0.2041,0.144
car,0.1819,-0.548,-0.1719,0.1315,0.1301,-0.02547,-0.0867,-0.2979,-0.1619,-0.2744,0.02156,0.02275,-0.2126,-0.196,0.2097,-0.0555,-0.219,0.292,0.1746,-0.1538,0.3418,-0.177,0.05557,-0.2993,0.1846,0.2201,-0.256,0.4602,-0.7036,-0.2017,0.4692,-0.2285,0.601,0.3208,0.0571,0.1578,-0.6387,0.03217,0.0098,0.1394,0.3147,0.10126,-0.1215,-0.10815,-0.0004883,0.1733,-0.518,0.2273,0.05252,-0.3467,0.02483,0.1777,0.3606,-0.1212,-0.0565,-0.305,-0.294,0.1176,0.3784,0.6436,0.04947,0.4292,-0.01489,0.2242,0.03482,-0.0371,-0.03165,0.457,0.513,0.1251,0.2136,-0.4597,0.05624,-0.2646,-0.311,-0.2228,-0.0681,-0.351,0.1833,0.1904,0.3591,0.1084,-0.4128,-0.378,-0.0293,-0.432,-0.11786,-0.1515,0.010475,0.03372,-0.4666,0.492,0.2494,0.0632,0.1649,-0.0904,-0.2317,0.0691,-0.515,-0.643,-0.2888,-0.3098,-0.1226,0.5005,-0.03775,0.2783,0.15,0.3237,0.1936,0.09845,0.2522,-0.0992,-0.04477,-0.3572,0.1981,-0.2905,-0.1243,-0.298,0.11194,-0.05884,0.1904,0.379,0.52,0.398,-0.1915,0.2612,0.1729,-0.04672,-0.1764,-0.1503,-0.3018,-0.1942,0.2073,0.0652,0.1769,-0.2495,-0.104,-0.097,0.4001,0.4417,0.07,-0.0283,0.3347,0.6387,-0.1005,0.569,-0.2703,-0.3364,0.06793,0.1693,-0.3354,0.4065,0.03256,-0.12463,-0.04752,0.4622,0.3499,-0.321,0.3699,-0.265,-0.1361,-0.03464,0.001648,-0.11176,-0.267,-0.0871,0.658,-0.06976,-0.0644,0.04605,-0.4487,0.001628,0.08374,0.1113,-0.193,-0.01237,-0.2089,0.10754,-0.299,0.1339,0.03262,0.383,-0.1522,0.303,0.017,0.1087,-0.046,-0.1981,-0.0707,-0.278,-0.2744,0.0951,-0.0656,0.4993,0.1324,0.3428,0.177,0.3052,-0.2766,0.10284,0.252,-0.003557,-0.391,-0.1499,0.27,0.0819,-0.2522,-0.3345,-0.148,-0.2032,-0.29,-0.507,-0.3079,-0.2249,-0.12335,-0.1548,-0.001323,-0.428,0.265,0.3215,0.3186,0.3535,-0.165,-0.172,-0.0017805,-0.555,-0.3228,-0.03918,-0.4697,-0.2812,-0.2076,-0.03516,0.3862,0.2152,0.3396,0.4026,0.177,-0.3313,-0.605,0.178,0.758,-0.2505,0.6875,-0.2246,0.06934,-0.3787,0.03983,0.5522,0.1882,0.2627,-0.582,0.2219,0.0896,-0.183,-0.4116,-0.4968,-0.05933,-0.121,0.2037,-0.133,-0.00863,0.3235,0.2448,-0.1274,-0.256,-0.04068,0.378,0.263,-0.233,-0.010216,0.2534,0.0975,0.3962,-0.4736,-0.02759,0.1726,0.0834,0.0444,0.3074,0.3274,-0.1442,-0.4954,0.516,-0.0944,0.0223,0.4226,0.1321,0.06683,0.2397,-0.00843,0.2874,0.275,0.1031,0.1215,0.4795,0.5635,0.03775,-0.2693,0.3062,0.4954,0.4792,0.1265,0.02023,-0.1858,-0.1746,0.5835,-0.5703,-0.1475,0.4036,0.3389,0.05185,0.4001,-0.04724,-0.1876,0.01613,-0.0676,-0.09796,0.1599,-0.5107,-0.6533,-0.2788,0.1016,0.3303,0.1587,-0.07635,0.1019,-0.1769,-0.6973,-0.03378,0.4812,0.3235,0.3174,-0.05826,0.03363,-0.2588,-0.11536,-0.07935,0.02863,0.205,0.151,0.03183,0.3284,0.398,-0.202,-0.6147,0.333,0.669,0.00839,-0.1315,0.01868,-0.3396,0.04395,0.1305,0.2021,-0.2275,0.3667,-0.4993,0.1036,0.01753,0.01445,0.4253,0.11487,-0.2744,0.4973,0.4324,-0.06323,0.2703,0.4038,0.008865,-0.1124,0.0644,0.04153,-0.10144,-0.4639,0.267,0.0959,0.1772,-0.4785,-0.2588,-0.0877,-0.26,0.1316,0.2216,0.2383,-0.255,-0.1786,0.3074,0.3247,-0.144,-0.562,0.3713,-0.003428,0.09454,0.1688,-0.02556,0.1218,0.342,0.3252,0.1654,0.5444,0.5503,-0.586,0.0709,0.2632,0.1142,-0.4438,-0.09784,0.2783,0.4844,-0.03015,-0.07416,0.02873,-0.1642,-0.3696,0.342,0.2332,0.2898,0.6113,-0.2,-0.2306,0.1324,-0.354,0.6484,0.1473,0.1932,0.4534,-0.006104,-0.21,0.337,0.4978,-0.1993,-0.539,0.2301,0.2617,0.297,0.1984,0.06216,-0.3218,-0.09357,-0.2343,-0.6914,0.1447,0.2396,-0.05948,-0.3103,-0.4514,-0.08765,0.008644,-0.0711,-0.2656,0.2903,-0.11835,0.1511,-0.0733,0.02414,0.3176,0.2542,0.03864,-0.02292,0.1879,-0.2072,-0.07916,-0.1132,0.2463,0.1122,0.5947,0.1448,-0.0861,0.2032,0.004684,-0.2333,0.3923,-0.01411,-0.4883,0.2418,0.4138,-0.3892,-0.158,-0.2178,0.4602,-0.06152,-0.3123,-0.03745,-0.261,0.01726,0.1903,-0.6377,-0.10724,-0.1354,0.05942,0.551,0.0893,-0.354,-0.2688,-0.265,0.3608,-0.0525,-0.3496,0.01002,-0.07446,-0.11694,-0.1489,0.4287,0.2281,0.356,-0.2651,0.00895,0.302,-0.0895,-0.08276,-0.8584,-0.2837,0.2247,0.1321,0.09467,0.4531,-0.11084,0.2368,-0.0871,-0.71,0.1934,-0.0929,-0.117,-0.2632,0.4119,0.218,0.3381,0.2522,0.09326,-0.2374,-0.1725,-0.1257,-0.1696,0.4683,0.1078,0.4294,0.4255,0.5923,-0.7417,0.2117,-0.639,-0.03824,0.227,0.3667,-0.2107,-0.0967,0.06915,0.2053,-0.0277,-0.309,0.2018,-0.329,-0.5254,-0.4263,0.0867,-0.1842,-0.2861,0.3684,-0.2893,0.2246,-0.01183,-0.10864,-0.315,0.0635,0.10077,0.2634,0.2017,0.1231,0.485,-0.5596,0.2461,-0.2722,0.2249,-0.363,0.01349,-0.137,-0.2133,0.04865,-0.5786,-0.3247,-0.1598,-0.257,-0.006817,-0.1086,-0.2125,0.3562,0.06415,0.01352,-0.307,-0.01709,0.1947,-0.3926,-0.07135,0.1892,-0.4917,-0.474,-0.4658,-0.0575,-0.05817,-0.2922,-0.01062,-0.1938,0.1504,-0.1577,0.2455,-0.1682,0.09106,-0.666,0.1311,0.4214,-0.0199,-0.08984,-0.3923,0.1458,0.07404,-0.2074,0.5547,0.2637,-0.2119,-0.10205,0.1205,-0.6416,-0.4966,-0.3494,-0.2087,-0.0491,0.0857,0.02641,-0.293,-0.4285,0.4868,-0.2178,-0.639,-0.1978,0.03223,0.1355,-0.11523,-0.01458,0.261,-0.321,-0.4302,-0.837,-0.0699,-0.2303,0.5146,0.1514,0.1841,-0.1404,0.2006,-0.3047,-0.3083,0.1279,0.3052,0.3247,0.316,-0.213,0.3052,-0.1337,-0.0886,-0.5864,0.0392,-0.4404,-0.0536,0.001393,0.1604,-0.3604,-0.3079,0.5757,0.4673,0.04745,0.271,-0.2117,-0.0197,-0.05017,0.977,-0.1603,-0.2969,0.1382,-0.3186,0.35,0.06946,-0.1212,0.1692,0.1626,0.3152,-0.2471,0.1456,0.29,0.09015,-0.3142,-0.1777,-0.04712,-0.313,-0.6846,0.003195,-0.11285,0.09863,-0.3354,0.276,-0.12067,-0.585,-0.0686,-0.2404,0.1035,-0.2588,-0.2683,0.09503,0.3599,-0.0828,-0.5884,0.2002,0.1675,-0.2008,-0.0865,-0.1447,0.07434,0.0653,-0.227,-0.0775,-0.0925,0.5815,0.2239,-0.0709,0.3206,-0.0728,-0.178,-0.03308,0.2416,0.2369,-0.01513,-0.09424,-0.311,0.1597,-0.2367,0.4568,-0.002035,-0.2263,-0.0513,-0.1163,-0.375,0.0554,0.302,0.1844,-0.659,0.1498,-0.5547,-0.04507,-0.2551,0.1681,0.1609,0.0386,-0.1159,-0.04526,0.007095,-0.07025,-0.2942,-0.2874,-0.2112,-0.1963,0.2402,-0.3389,0.1114,-0.1316,-0.2034,0.0761,0.4639,-0.1012,-0.6123
