text,0,1,2,3,4,5,6,7,8,9,10,11,12,13,14,15,16,17,18,19,20,21,22,23,24,25,26,27,28,29,30,31,32,33,34,35,36,37,38,39,40,41,42,43,44,45,46,47,48,49,50,51,52,53,54,55,56,57,58,59,60,61,62,63,64,65,66,67,68,69,70,71,72,73,74,75,76,77,78,79,80,81,82,83,84,85,86,87,88,89,90,91,92,93,94,95,96,97,98,99,100,101,102,103,104,105,106,107,108,109,110,111,112,113,114,115,116,117,118,119,120,121,122,123,124,125,126,127,128,129,130,131,132,133,134,135,136,137,138,139,140,141,142,143,144,145,146,147,148,149,150,151,152,153,154,155,156,157,158,159,160,161,162,163,164,165,166,167,168,169,170,171,172,173,174,175,176,177,178,179,180,181,182,183,184,185,186,187,188,189,190,191,192,193,194,195,196,197,198,199,200,201,202,203,204,205,206,207,208,209,210,211,212,213,214,215,216,217,218,219,220,221,222,223,224,225,226,227,228,229,230,231,232,233,234,235,236,237,238,239,240,241,242,243,244,245,246,247,248,249,250,251,252,253,254,255,256,257,258,259,260,261,262,263,264,265,266,267,268,269,270,271,272,273,274,275,276,277,278,279,280,281,282,283,284,285,286,287,288,289,290,291,292,293,294,295,296,297,298,299,300,301,302,303,304,305,306,307,308,309,310,311,312,313,314,315,316,317,318,319,320,321,322,323,324,325,326,327,328,329,330,331,332,333,334,335,336,337,338,339,340,341,342,343,344,345,346,347,348,349,350,351,352,353,354,355,356,357,358,359,360,361,362,363,364,365,366,367,368,369,370,371,372,373,374,375,376,377,378,379,380,381,382,383,384,385,386,387,388,389,390,391,392,393,394,395,396,397,398,399,400,401,402,403,404,405,406,407,408,409,410,411,412,413,414,415,416,417,418,419,420,421,422,423,424,425,426,427,428,429,430,431,432,433,434,435,436,437,438,439,440,441,442,443,444,445,446,447,448,449,450,451,452,453,454,455,456,457,458,459,460,461,462,463,464,465,466,467,468,469,470,471,472,473,474,475,476,477,478,479,480,481,482,483,484,485,486,487,488,489,490,491,492,493,494,495,496,497,498,499,500,501,502,503,504,505,506,507,508,509,510,511
coat,-0.26915613,0.29184976,0.1333847,0.09094429,-0.041986782,-0.13989003,-0.13879521,0.13210057,0.24219894,-0.111213684,0.28181458,-0.159029,0.37557983,-0.116420425,0.29770914,-0.32925668,0.07737223,0.07549763,0.23523521,-0.2654597,0.18535328,-0.022385916,0.067055546,-0.3949852,0.29556784,-0.06499863,-0.06760216,-0.06681061,-0.12073326,-0.13167286,0.18377559,0.01418813,-0.22632344,0.12174479,0.3921763,0.35784402,-0.116989136,0.22101784,-0.10445277,1.8224283,-0.04542923,0.043441772,-0.16794841,0.145607,0.08957291,-0.794637,0.07513046,0.11774063,-0.022789001,0.23681004,0.65374756,-0.083859764,-0.027009645,0.13528188,-0.337005,0.2951355,0.42836,0.13100688,0.06709671,0.10434469,0.35757956,0.30316415,0.39287186,0.06375376,-0.3310089,0.037001926,0.23913829,-0.8639323,-0.024791082,0.060399372,0.06815592,0.10700798,-0.22209166,0.14903767,-0.107990265,0.11431122,-0.072686195,-0.077765144,0.015989939,-0.262441,0.025393805,-0.03901291,-0.15169525,0.2406184,0.49184164,0.09301134,0.41598892,-0.16103919,0.041957855,-0.050093334,0.22028096,-0.03902054,-7.320638,0.0044809976,0.16154735,-0.08729807,0.2641449,0.19103241,0.55806476,1.2364908,-0.085622154,-0.046052296,-0.105482735,-0.2673416,0.22420628,-0.2296346,0.11090597,0.07475916,-0.09548696,0.08580843,-0.108568825,-0.13972981,-0.1482991,0.0586497,-0.15999858,-0.14919662,-0.2175153,-0.1496938,0.21311443,-0.09757868,0.070961,0.049763996,0.09326998,-0.14895058,-0.110393524,-0.07395045,-0.30518088,-0.06253719,0.14158344,0.20227559,0.32300568,0.36247125,0.0743103,0.8819173,-0.23669052,0.25612387,0.15401204,-0.025594076,-0.08336043,0.3657303,0.10969671,-0.3351644,-0.20866077,0.18769836,-0.06406069,-0.23741786,-0.10597038,0.2554029,-0.016556263,0.13525136,-0.1293602,0.24301656,1.1784058,0.26726913,0.08452988,-0.21857326,0.06302452,0.32072005,-0.21555328,0.38025412,-0.20724075,0.006061554,0.06571134,0.075157166,0.024971962,-0.26269022,0.71177167,0.19024594,0.19646518,0.09993553,0.04123052,-0.047828674,-0.065361656,-0.22344239,-0.21315257,-0.14771016,0.68111163,0.05169932,0.29004416,-0.103159584,0.6642253,-0.1428833,0.14333598,-0.1839742,-0.16214244,0.0928944,0.017163595,-0.054339092,-0.21274693,0.10027504,-0.1919225,0.21576945,0.12082926,0.062040646,0.2624251,-0.007024447,0.09593455,-0.065275826,-0.29693094,0.21821086,-0.24601746,-0.2682991,0.12997182,0.08830515,0.05132103,-0.19402568,-0.05333519,-0.20494588,0.0076711974,0.3948803,-0.20853679,0.3282763,-0.015042623,0.015363057,-0.3169149,0.1388904,-0.31420135,0.2826074,0.25377926,-0.41527557,-0.015319824,-0.6991374,-0.036453247,-0.10893631,0.083561264,0.036369324,0.19713847,0.055318195,0.037556965,0.009290218,-0.17374802,-0.34158325,0.03465907,0.718394,0.0014794668,-0.06278642,0.0037473042,-0.062651314,-0.0030059814,-0.020866394,0.04756673,0.28734207,-0.107282005,-0.1250108,-0.026770273,-0.13851929,-0.11958472,0.02603213,0.08708843,0.0129776,-0.20145798,0.12501208,0.34605265,-0.051638287,-0.118195854,0.046583176,-0.20164871,0.22668552,-1.1481323,-0.047490437,0.2610033,-0.13378508,0.17202885,-0.42063394,0.16229439,-0.20476787,0.020966211,0.012638728,0.012839,0.18100102,0.018513361,0.033147175,0.3098348,-0.13371468,-0.28557587,-0.20932643,-0.17050934,-0.095980324,-0.058308918,0.13814609,0.24449413,-0.06630961,-0.678304,0.029956182,-0.16003926,0.103956856,0.35280356,0.079362236,0.074419655,0.0529391,0.18266296,-0.05612691,0.010580063,-0.12371063,-0.16110738,0.04849116,-0.82804364,0.18492126,0.032464344,-0.0500412,-0.16815694,0.06675974,0.045791786,-0.1456871,-0.16803105,-0.58316547,-0.17600322,0.35871378,0.057540894,-0.019101778,-0.19666798,-0.013899486,0.8811442,0.26571402,0.1866843,0.22898738,0.26811728,0.16068284,-0.28285217,0.0049591064,-0.036791485,1.0451254,-0.21324158,-0.36078262,0.033417385,0.14611602,0.2896792,0.24888103,0.13240893,0.11477256,0.12580235,-0.13260746,0.2098821,-0.22667949,0.10459026,0.08685986,0.09601339,-0.03930664,-0.26877594,0.2848867,-0.10457627,-0.4081478,0.18086497,0.23772176,0.061765034,-0.1257019,-0.37083945,-0.078801155,0.05831941,-0.046990078,0.024050394,-0.22468472,-0.014647166,-0.025785446,0.06720861,0.35686874,-0.19896317,0.19976299,-0.24512546,-0.14399846,0.50859326,0.11523247,-0.2678833,0.5077184,0.16997273,-0.12052854,-0.10979716,-0.42420706,0.018953959,0.058481853,0.11596934,0.1738205,0.020838419,0.10131041,0.26287332,-0.12232844,1.267273,-0.122787476,0.27089182,0.19892883,-0.13689749,-0.112691246,-0.10697111,-0.11329778,-0.23510678,0.045309383,0.04675929,-0.12726219,-0.19596998,0.7603963,-0.69803876,-0.24932194,-0.19438712,0.20381165,-0.3078003,-0.044699352,-0.13247173,0.025027454,0.16397603,0.36825562,-0.14425914,0.19359525,0.6971385,-0.11591848,0.10341263,-0.17888153,0.09097544,-0.17556,0.17931111,-0.18919373,-0.24174881,-0.3396581,-0.061455052,-0.29006448,-0.3020172,-0.0039008458,0.5268046,0.39427695,-0.05481847,-0.49320474,0.1583252,-0.05207777,0.3099289,0.39184174,-0.087379456,0.0362854,-0.09119415,0.18608348,-0.96553546,0.044068653,0.06003062,0.0030740101,1.2986246,-0.13741557,0.067723595,-0.09990692,-0.14717484,0.0141318245,0.2133255,0.009474437,-0.19483073,0.26923624,-0.059483845,-0.00026957193,0.043823242,-0.18844795,-0.060521442,-0.10033417,0.026065826,0.12688828,-0.40622458,-0.14056332,0.2653071,-0.16789024,-0.22017415,0.1001358,0.10935593,-0.020407995,-0.09275309,0.037722986,0.11470515,-0.010896762,-0.30392838,-0.36371866,0.22589429,-0.1822834,0.03755753,-0.025261631,-0.041615803,0.046587627,0.21420495,-0.27831015,0.011721293,-0.30800375,0.23806763,-0.11634064,-0.031277973,-0.106475376,0.05681737,0.051251728,-0.18249576,0.045000713,0.008392334,0.028563181,0.24040985,0.0701135,-0.29346848,-0.14183044,-0.074728966,-0.20999782,0.38253784,-0.09662119,0.3274536,-0.37350464,-0.3446757,-0.31010947,0.31811523,-0.15731557,0.110303245,0.30994034,-0.45662436,0.23003133,-0.22595803,0.22838084,1.1660156,-0.3449707,-0.25671133,-0.057629902,0.17509969,0.598999,-0.13857205,0.1430486
can,-0.19374709,-0.0050960886,0.013546684,0.24557218,0.5731978,0.12671453,0.43320534,0.4322177,0.09603743,0.2389998,0.34966487,-0.10661871,-0.17468262,-0.23392557,0.7548384,0.14151001,0.622148,0.13484539,0.034157492,-0.51003194,-0.82830256,-0.13532048,-0.15589905,-0.39513987,0.18212752,0.37700862,0.36319524,-0.22007336,-0.24962546,0.18453425,-0.29861727,0.015652223,-0.30040395,-0.28909442,0.07011275,0.032939218,-0.089710586,-0.040058482,-0.49739215,0.25133723,-0.1565732,-0.4096014,-0.025318492,0.16860771,0.034240723,-1.1332841,-0.13897982,0.023117065,-0.1976263,0.06861045,-0.14780565,0.26366493,0.27456525,-0.60498047,-0.08758935,-0.13833341,-0.74576086,0.0774009,0.37055138,0.077783756,-0.30904043,0.25801226,0.05981723,-0.15033583,-0.15108465,0.06214211,0.028969504,0.339472,-0.055668224,-0.01701017,0.13569364,-0.21702714,-0.015236595,-0.47146052,-0.14632346,-0.18705611,-0.15929617,-0.15540105,-0.018891769,-0.34361684,0.2852256,-0.08192999,-0.4136852,-0.9604492,-0.2333818,0.21000533,0.36769244,-0.037758566,0.31785375,-0.25289917,0.20402527,-0.008491949,-6.574574,-0.37764254,-0.17724055,0.2518033,0.28647682,0.33247235,-0.3601518,0.45170453,0.12440074,-0.3719538,-0.47469816,0.038608897,-0.17582178,-0.11865165,-1.7913264,0.008322976,0.3544034,-0.039495293,-0.035749957,-0.20681658,-0.12005477,-0.29803607,-0.060868695,-0.09051912,0.057017587,0.19098248,-0.0036184138,0.03967285,0.19067383,0.22231501,0.2378651,-0.029757412,-0.12569636,0.3299699,-0.37672007,0.16106762,-0.1186357,0.027239712,-0.15424277,-0.23405318,0.56832606,0.9211204,0.4469771,-0.25007907,0.032738425,-0.1975389,-0.0694164,0.26823738,-0.082074255,0.07543252,-0.55581945,0.24505892,-0.04746038,-0.27631032,-0.086387485,-0.5730646,-0.24026212,-0.120114416,0.18816029,-0.008746234,0.32181063,-0.2582564,0.22205423,-0.43581322,-0.052080676,-0.087955825,0.3204956,0.123402335,-0.2125681,-0.09547632,0.07157204,-0.6459739,0.08120034,0.39817116,-0.10096533,0.15953757,-0.058023367,0.30742854,0.23150358,0.1868,-0.24021219,0.22455944,0.005778746,0.36610273,0.23299894,-0.29642278,0.41172096,0.09713745,0.11344216,-0.5215454,-0.049878683,-0.55891556,-0.23029462,-0.07697591,-0.01102933,-0.19579835,0.11909901,0.040467694,0.1421495,-0.37139338,-0.45075017,0.2450839,0.10643699,0.056074664,-0.17752352,-0.56549627,-0.2880804,0.06454884,-0.056729402,0.108914465,0.106134586,0.1960477,0.4112105,-0.032737732,-0.45126066,0.30655184,-0.12871413,0.060145292,0.19470805,0.0765048,-0.39015892,0.1263693,0.29126948,-0.19335938,0.18880533,0.09402743,-0.46645287,0.14751886,0.029679038,-0.022100275,-0.33839,0.088459365,0.14540984,0.15005493,-0.15168485,-0.109695435,0.23427373,0.11424463,-0.24050626,-0.3267434,-0.11313074,0.16013622,0.0648665,0.52045786,0.24739283,-0.13488215,-0.38737348,0.056952737,0.115800336,0.4724676,-0.121987775,-0.04203467,-0.40806997,0.5759832,0.4227711,0.48951653,0.022508102,0.08761874,-0.07946639,0.036281586,-0.040777728,-0.06159557,0.13428567,-0.08708052,-0.13950972,0.41834605,-0.32232112,-0.12547718,0.28227094,0.33987704,0.14189702,0.5104647,0.33853427,-0.04929421,0.26090586,-0.09927645,0.47504216,0.23521735,0.30218506,-0.21274081,-0.022914194,0.013234919,0.24891247,0.2295463,-0.68694514,0.05452104,-0.09288302,-0.111647174,-0.16185969,0.40236595,-0.45881236,-0.034235176,0.21096732,-0.13301225,0.30274546,0.2865101,-0.059602216,-0.25280207,-0.043293346,-0.13263494,-0.2601346,-0.073192246,0.23675537,-0.28850764,-0.09164706,0.2535428,-0.25600365,0.07939425,-0.039182488,-0.032192577,-0.15674314,0.22996382,-0.082797654,-0.012179288,-0.1930216,0.2911266,0.04753945,0.25402,-0.26812744,0.37654808,0.92116475,-0.2920227,0.26189077,0.15035178,0.29837868,0.1095484,0.024102645,-0.3677944,0.07060242,1.1402477,-0.055739664,0.09697168,-0.4292103,0.11758284,0.005860242,0.12769422,-0.31152898,0.04088315,0.016453136,-0.046551097,-0.051578175,-0.011930986,0.12586837,0.10131004,0.20022306,0.39446467,-0.38245738,0.30530062,-0.06051844,0.080897935,0.20392679,-0.024993896,-0.053201154,-0.40184438,0.38074943,0.09112965,0.13288455,-0.15792154,0.14598013,-0.28712046,0.15257956,0.20661233,-0.29746315,-0.17431086,-0.36215764,-0.03951194,-0.12679361,0.06977428,-0.8409313,0.082268804,0.13890284,-0.19490814,-0.09054704,-0.027608698,0.26718417,0.31747645,-0.01659428,-0.29285085,-0.19581188,0.14171982,-0.26964638,0.08395975,0.24418224,-0.29652265,0.68646795,-0.25602582,-0.05341196,0.1591145,-0.30300072,-0.56607336,-0.25931618,-0.08136333,0.129948,0.55684036,-0.07783231,-0.4183738,-0.069455236,-0.83405095,-0.29305258,-0.0908869,0.31092417,0.026862405,-0.3184551,0.17335095,0.40203303,-0.15475343,0.48076838,0.2798462,0.07866495,-0.045135237,0.50418925,0.15441895,-0.23830344,-0.3937156,-0.46078214,-0.113557294,-0.02161945,-0.19867152,0.0033784346,0.052122638,-0.1375358,-0.12652865,-0.090104535,0.2516535,-0.042199567,-0.5209295,-0.2189456,0.19413064,-0.46657494,0.34002545,0.036243785,0.50018865,-0.103458755,-0.086159445,0.0109752305,-0.18545948,-1.8390447,0.05144787,0.18677312,0.20191401,0.9931419,-0.37475586,-0.27999878,0.26887095,0.0057178843,-0.26290616,0.0951669,-0.007923473,-0.10894151,-0.28673208,-0.041312218,0.3263217,-0.07024869,0.05940888,-0.21815352,0.33599854,-0.08519953,-0.25050908,0.16224462,-0.014459783,0.2122671,-0.67349523,-0.178747,0.26005414,0.18101467,-0.70973897,-0.041451886,-0.21750155,0.29070142,-0.1566072,0.07474795,-0.12022746,0.5053045,0.07014639,0.056512658,-0.019193476,-0.07922363,0.12693648,0.064974,0.19231553,8.877841e-05,-0.33179542,0.0106756035,-0.20735861,-0.06430886,0.09915993,0.19794534,-0.41315806,0.04233898,0.0416669,0.099866,-0.20096692,0.028887661,-0.02005265,0.011990634,0.40578392,0.23020242,-0.012284712,-0.16431774,-0.23415583,0.5632324,-0.59803355,0.28801936,-0.12688655,0.21260904,0.3173301,-0.19130845,-0.26160985,-0.046148125,0.10197449,0.106440715,0.4543568,0.26495916,-0.043788563,-0.029905839,0.12472534,-0.415888,0.7545277,-0.2840042,0.07334761
table,-0.23511505,0.32877603,0.0042204857,-0.037481308,0.17275746,0.055398304,0.30363464,0.11391274,0.012355804,-0.02193896,0.14264171,0.25791422,-0.028479258,-0.1948344,0.3607699,-0.30740356,0.394811,0.29896036,-0.17518623,-0.3314816,0.34445572,0.22493236,0.25096384,-0.09423319,0.01088206,0.6084595,0.16517894,-0.17493184,-0.049170017,0.10649236,0.07098261,0.4931539,-0.2731247,-0.20582072,0.21770604,-0.41581216,-0.2868525,-0.06756592,0.009361267,0.9242757,-0.1777354,0.004989306,0.06386057,-0.0023082097,0.19747289,-2.2321777,-0.016011557,0.28962198,-0.34242758,0.24129803,-0.12627919,-0.176675,0.392217,-0.092113495,-0.36895752,0.033677418,-0.42332458,-0.06685988,0.24805196,0.45425415,-0.2180605,0.08535004,0.3129476,0.32136282,0.0034888189,0.09908835,0.2485199,0.02280108,-0.19242351,0.15954797,0.12873967,-0.049001057,-0.2144038,-0.07475535,-0.13434601,-0.088476814,0.02788671,0.23170471,0.24033101,-0.06598902,-0.23261516,0.008824666,-0.108631134,0.05644353,-0.112521805,0.21298726,0.53041077,-0.17460378,-0.036410015,-0.08509763,0.29240927,-0.25923255,-6.6064453,0.2564281,-0.095436096,0.25117493,0.25049844,0.24745178,0.05949847,0.8548584,-0.20190763,0.040303547,-0.17490387,-0.045160294,-0.09562174,-0.027565638,-0.98912555,-0.05320994,-0.090662636,-0.0035177867,-0.07052676,0.14513652,0.1589222,0.16104889,-0.17545573,-0.2606775,-0.30125937,0.3756002,-0.088516235,0.2734159,0.46329752,-0.2730306,-0.33659872,-0.14424069,-0.18839519,-0.012344996,-0.27238464,-0.10276858,-0.07179197,0.0971516,-0.11551794,-0.20649719,0.35461935,0.8140462,0.2675527,0.18532896,0.11641439,0.20505778,-0.003927549,0.18885295,0.4446411,-0.16062737,0.060905457,0.3726298,0.0351305,-0.20148341,-0.34080505,-0.11088562,0.12709554,-0.15488072,0.012547811,-0.015289307,0.97143555,-0.15543143,0.21873982,-0.03115654,-0.10120392,-0.00017770131,0.114601135,-0.07474772,-0.21757507,-0.37446085,0.36730257,-0.16979535,0.12571175,0.05384318,0.1724701,0.111922584,0.019493103,-0.20291393,-0.054316204,-0.05516116,0.21146393,0.08768717,0.18263371,0.31754556,1.1640015,0.10967636,-0.19867992,-0.30284563,0.30046082,-0.07645941,0.40107727,-0.0087890625,-0.11496607,0.5751343,-0.16596477,0.27794456,0.1256736,-0.048068363,0.041260045,-0.01605606,0.4617106,0.2204334,0.07875824,-0.12520726,-0.06205718,-0.17361514,-0.53849286,0.08699036,0.15237935,0.28401312,0.06745633,0.056215923,0.13085938,0.30149207,0.08434677,-0.23222606,-0.2980372,0.061649323,-0.2637806,0.7214152,-0.05523936,-0.14050357,-0.127299,-0.014501572,0.15950902,0.41249847,1.0796713,-0.113753,0.1354955,-0.057057697,-0.36023965,-0.40149435,0.112449646,-0.059785206,0.018971762,0.005288442,-0.23541005,-0.094680786,0.038962364,-0.037457783,-0.0051280656,0.59490967,-0.0731856,-0.027547201,0.19429016,-0.19611867,-0.4180552,-0.1885821,0.0664018,0.10372925,0.04670334,-0.1272494,0.004193147,1.0155436,-0.14655113,0.24681091,-0.33577475,0.6237984,0.15102609,0.11972523,-0.4257711,-0.5143738,0.103396095,0.104466595,-0.14938736,0.18054707,-0.9578145,-0.07239151,0.034014225,-0.05795479,-0.27459717,0.3230845,0.07644653,-0.23323822,-0.13340251,0.09762573,0.3825723,-0.17663701,-0.1118749,0.2060992,0.37527466,-0.029378256,0.13580322,0.09901746,-0.25036493,-0.1216565,-0.1888235,-0.16217422,0.3047816,0.30900702,-0.1333936,0.29312706,-0.027961096,0.022391,0.89609784,0.12307612,0.09351858,-0.4001821,0.1827863,-0.23312123,0.060123444,0.19335938,-0.21347046,0.17253749,-0.28669485,0.010677655,0.04718272,0.027949652,0.008829753,0.15570576,-0.15085857,-0.014939626,0.053135555,-0.49442545,-0.035266876,-0.017185846,0.06717046,-0.16792123,-0.10313336,0.33036295,0.8123779,-0.14848073,0.0019636154,-0.11573473,0.5077413,0.25198078,0.05336253,-0.47234535,0.14922588,2.348714,0.046529133,-0.16374715,0.08404287,-0.15337117,0.42674765,0.0805734,-0.12601216,-0.13743336,-0.03791221,0.3254272,0.10238775,-0.2920545,0.040487926,0.25009027,0.17346637,0.01761055,0.016595205,0.016971588,-0.17720795,-0.10641289,-0.06404368,0.006310145,0.44993082,0.044362385,-0.064435326,-0.20226502,-0.1188151,-0.071730055,0.18501472,0.1252187,-0.27521262,-0.3839213,-0.19099426,-0.10382334,-0.23761971,-0.28651443,-0.06482347,-0.17500179,-0.74643964,0.20019627,-0.038019817,0.18778229,-0.33054605,0.065556206,0.13092296,0.20532958,0.36361185,-0.079701744,0.21635818,-0.18171628,0.1577975,-0.15889995,0.0034834545,-0.13956578,1.1542358,-0.04024299,0.29639181,-0.19827795,0.0069910684,-0.17759545,0.11336136,-0.062016804,0.27252197,-0.110734224,0.18053277,0.013933818,-0.06737518,-0.15601349,-0.24504216,0.49391684,0.079844154,-0.07099342,-0.41555786,-0.14985211,0.06491216,-0.41029868,0.9097493,-0.08803558,0.08834076,0.09787496,1.580892,-0.09653664,0.048619587,0.27635702,0.106534325,-0.12939961,-0.3593801,-0.2187144,0.14667256,-0.08063253,0.4471461,-0.14489746,-0.36605582,0.07558187,-0.17946625,-0.2537435,0.2151947,-0.16445923,0.0699412,0.028986117,0.2341919,0.45975748,-0.04890442,-0.27509308,-0.07598853,0.12310854,-1.0589803,0.11934575,0.15690994,0.13923518,1.6796875,-0.23232429,0.03473155,-0.15803273,0.20363109,-0.16548157,0.34324837,-0.07662455,0.09783808,-0.0048739114,-0.025427183,0.30852255,-0.0029160182,-0.47099304,0.059829712,0.05152766,0.19115956,0.027416548,0.3866221,0.32506308,0.27094397,-0.07305527,0.05992043,0.26634726,0.68929034,-0.20975399,0.19401932,-0.031247934,0.07236513,0.02486674,0.13157529,0.037432354,0.2731425,0.23107402,0.17311843,0.0557038,0.025458336,-0.21983083,0.088396706,-0.2480901,-0.04905955,-0.46126303,-0.09060923,-0.16598003,0.16088359,-0.04586919,-0.031085968,-0.071938835,-0.13613193,-0.2257169,0.3204193,0.27287802,0.036654156,-0.12394079,-0.33966064,0.099122845,0.34084067,0.1574467,-0.07433923,-0.18510437,0.6801758,-0.4787191,-0.15794182,-0.20021057,0.25200143,0.2964808,0.12900543,-0.21450233,-0.18574016,-0.0816555,0.40104166,0.40470377,0.0037612915,-0.1660754,-0.20032501,0.42412314,-0.4714152,0.35805956,-0.31944785,0.19401042
foot,-0.05001259,-0.11678464,0.44867215,0.08092853,-0.2532305,0.09805625,0.31208584,0.2568174,0.28854698,-0.08500344,0.119989395,-0.6532157,-0.42051262,-0.32340568,-0.1061009,-0.06932395,0.14452253,0.12997273,0.25128284,-0.052887507,-0.48920113,0.20445906,-0.17534201,0.013476236,-0.26899502,-0.103897095,0.03427451,0.15729141,0.09920829,-0.022894723,0.031833105,0.12726593,-0.4354248,-0.37559944,-0.034420557,0.15648434,0.21431568,0.15826198,0.05997971,0.36938477,-0.66355675,-0.21187265,0.04979488,0.040530615,0.05644662,-0.023709979,0.10098048,-0.074685775,-0.4883946,-0.1344321,0.21606228,0.12962614,0.03556333,-0.18124716,-0.099013194,-0.08919872,0.5157994,-0.004693985,-0.4851423,0.36410087,0.6960536,-0.086220875,-0.24285017,0.1640625,-0.003333228,-0.07427434,-0.36989048,1.0247629,0.20974568,-0.35933632,0.0462374,-0.19354902,-0.10350255,0.16241892,0.13832092,0.061567035,0.05615888,-0.14025879,0.13428389,-0.5834612,0.4160723,-0.19811903,0.21262033,-0.2769296,-0.2697754,0.029183524,0.59384155,-0.028033393,0.2976461,0.03342288,0.12605993,-0.23119028,-7.200614,0.48268345,0.37489477,0.24525997,-0.10184969,0.46458218,-0.43911308,0.1624407,0.032868523,0.2919355,0.13544028,-0.08606557,0.32947212,-0.16763742,0.40251595,0.1638576,-0.20558058,0.1890929,0.017402649,-0.008275168,-0.247171,-0.3298165,-0.20327322,-0.19468252,-0.08618382,-0.26301903,0.11354283,-0.0048343115,-0.10092163,-0.16098022,-0.25897434,0.05657782,0.30525425,-0.073143415,-0.021595001,-0.41308594,0.33242363,0.11378043,0.0053471155,0.22793034,0.06378011,0.935512,0.104978286,0.37033954,0.1716799,-0.39727348,-0.22290584,-0.019005911,-0.14274216,-0.08466666,-0.5253939,0.26244137,-0.36627632,0.38687134,-0.16050829,0.18539865,0.08065442,0.2275505,0.051471166,0.10167122,0.718144,0.26835522,0.06012753,-0.23658098,-0.3087856,-0.044403076,0.35342842,-0.090583734,-0.22018433,-0.24003164,-0.36546326,-0.08731515,0.3401402,-0.14800917,-0.26594326,0.22504862,0.013345718,-0.13492468,-0.14325224,-0.49878803,-0.6924874,0.007830484,0.038392205,-0.049460273,0.1899523,0.30625042,-0.27458572,0.027885983,0.18166025,-0.3747297,0.33663067,-0.019003186,-0.42482212,0.20390375,0.39420208,0.21162197,0.11334337,0.082311355,0.37356132,-0.1651486,0.13389717,0.23893084,0.34663063,0.014645032,-0.10931083,-0.2121691,0.05226193,-0.23541151,-0.08582742,0.11596925,0.43889508,0.2900674,0.3293893,-0.06420953,-0.18735613,-0.23355539,-0.020189557,0.13551752,0.24010031,0.53139824,-0.05718122,0.5672956,0.15813337,-0.17688642,0.17688806,-0.037537713,0.45436314,0.16289411,-0.4170652,0.51890236,0.3837629,-0.3411274,0.31297955,-0.1875545,-0.025638035,0.19452776,0.23086765,0.5150495,-0.1116284,0.1525503,0.0034765515,0.06353487,0.09464591,-0.72599137,-0.1597538,-0.11284665,0.44945636,-0.22715269,0.06918989,-0.007972172,0.23322514,0.3024292,-0.1187864,-0.39431217,0.016662598,0.42898995,-0.28299603,0.04208919,-0.07042204,-0.39779118,0.0375794,0.0050702775,0.08135332,0.005469322,0.36490303,0.34423828,-0.11897932,0.08882141,0.0031948686,-0.22421482,0.021347046,0.38436672,0.35645404,0.2390213,-0.19957161,0.2627171,-0.017544338,-0.36090088,-0.41513497,0.060266633,0.0007664817,-0.26695904,0.20949772,0.2292219,-0.5869838,-0.2661242,0.11150142,-0.119532995,0.24505806,-0.20461164,-0.056221824,0.008880615,0.21947588,0.072114125,-0.2815421,0.07421221,0.34184483,-0.25992256,0.50105506,-0.008975983,0.116139,0.20958601,-0.020592825,0.14731489,-0.6199951,0.15146801,0.14425169,0.17423357,0.007958412,0.035247803,-0.2836173,0.30876812,0.09994834,0.07442147,-0.71466935,0.11195918,0.29778618,-0.2841993,-0.00069100515,-0.176357,0.9351632,0.02199173,-0.043591637,0.092344284,0.23520443,0.23139736,0.19719614,-0.20852947,-0.27027676,1.4960763,-0.29481453,-0.5281285,-0.13974762,-0.0146045685,-0.15438978,0.18035343,0.057115827,0.16418783,0.24464417,0.045122147,0.02794075,0.16634369,0.06139156,0.07911001,0.15369089,0.18524061,0.14222322,0.6774205,-0.377485,-0.054169517,-0.10362244,-0.04186276,0.367909,-0.45500836,-0.14221872,0.26363453,0.06879248,-0.10765403,0.57328373,-0.1689584,-0.2844914,-0.06933757,0.17160906,0.050469536,-0.20263346,-0.19563185,0.12075697,-0.17000797,0.33246884,-0.23117392,0.18750437,-0.19405746,-0.28365654,0.113215856,0.059803553,-0.9870257,0.43658012,0.07425731,0.1235951,0.63436455,-0.23028347,-0.16339874,0.11040824,0.40012905,1.278268,0.14873123,-0.2710702,0.34523663,-0.049671717,-0.0499006,0.15687561,-0.31149727,0.096290044,0.1589677,-0.07505907,0.26518303,-0.3389631,-1.1497453,-0.24389158,0.1683851,-0.11803382,0.31488404,-0.13451059,0.11751147,0.39245823,-0.078420915,0.3345683,-0.023868425,0.012453352,0.23495047,1.0765555,-0.039014,0.11298507,0.15649033,-0.2316415,0.023464749,-0.31747654,0.012076105,0.36536518,-0.0260959,0.10347966,-0.1921632,0.31497845,-0.21010372,-0.14148167,-0.0060795373,-0.16652489,0.28879657,0.034467425,-0.03315452,0.054039,0.2692032,0.19218008,0.0014233589,-0.5935669,0.12609482,-0.9645516,0.43120903,0.006025042,-0.039172582,-0.08300781,-0.03729323,-0.4117715,-0.28956604,0.0018914087,-0.079096116,0.15070452,0.09405736,-0.056150027,0.14918081,0.14511108,0.05643463,0.0013961792,-0.17930439,0.2629678,0.029342106,0.24358585,-0.024833951,-0.09589168,0.13986805,0.0934184,-0.27188164,-0.4809396,0.11492266,0.41899982,-0.15287563,-0.41682652,-0.007855824,-0.053759985,0.11506544,0.092755996,-0.03229928,0.1693682,-0.33340454,-0.21723011,-0.15086855,-0.40359497,-0.16077723,-0.20794678,-0.20555115,0.016971588,-0.5472363,0.5115182,-0.014596666,0.13319397,-0.049178455,-0.6134033,-0.15266882,-0.041550774,0.12118585,-0.17132084,-0.059547458,-0.086758204,0.20497595,0.21854809,-0.14121737,-0.122331895,0.2031904,0.40530124,-0.2578125,0.020324979,-0.4009334,-0.084714614,0.047683716,-0.13126156,0.13054827,-0.2753492,0.15401132,-0.20072992,0.14934158,-0.039535522,0.10591344,0.018734524,-0.028102329,-0.23900495,-0.00399644,-0.5332903,0.51060265,0.5257394,0.09859248
soap,-0.36512616,0.51426005,0.15627219,0.39898127,0.36086205,0.14054593,0.26999733,0.42980957,0.03342091,0.15546764,-0.080221005,-0.39000356,-0.09546384,0.089100234,0.12060893,-0.22406492,0.05394398,0.2656701,-0.07930825,-0.28801382,-1.4399858,0.2931907,0.10731229,-0.085310504,-0.37011164,0.32704857,-0.21227871,-0.11250825,-0.25072134,-0.116726965,-0.03280917,0.19557051,0.34671298,0.09039584,0.32921532,0.48160067,-0.05517162,-0.044969037,0.16200186,0.641313,-0.4658203,0.04682645,-6.935813e-05,0.19580078,0.13206829,-1.1917058,0.41547185,0.15026717,0.016824896,0.11890065,0.12376127,0.044749867,0.52974075,-0.045605745,-0.23014139,0.24799138,-0.22135596,-0.14058374,0.12367387,0.33110186,0.012634277,-0.43694237,0.042419087,0.22843666,-0.08558104,0.36697665,0.4385265,0.96244675,-0.2694286,-0.20160398,-0.44936302,-0.1160528,-0.014475042,0.094610386,0.11189964,0.24158825,0.031120993,-0.42574242,0.17014937,-0.12419267,0.37491676,-0.07394964,-0.0031849255,-1.0217063,-0.008214777,0.04345183,0.73961294,0.04462502,-0.028661555,-0.11133645,0.09864252,0.09301064,-6.7908382,0.35229492,0.01402144,0.16226162,-0.036046807,0.3244934,-0.3705916,0.43549138,-0.041075274,-0.61030716,-0.5731756,0.16288757,-0.4327587,-0.26545575,-0.59020996,-0.24084888,0.035731923,0.019968206,-0.16590466,-0.017852783,0.18821369,-0.25343183,0.045963112,0.08274009,0.24285503,0.17305408,0.37732488,-0.3105656,0.12512179,0.09601662,0.3104026,0.056565132,-0.06301048,0.03576591,-0.16588522,0.019194515,0.19313951,-0.12647595,0.10420019,-0.118553855,0.06893644,0.8941761,-0.14174375,0.0654505,0.23182124,0.04137074,-0.38770294,0.20399614,0.23447488,-0.17273746,-0.15790905,0.19173084,-0.25451106,0.0971267,-0.004650463,0.11195512,-0.19515714,-0.070614904,-0.33480558,-0.15067638,0.45899546,-0.21107449,-0.12253363,-0.0015425249,0.4239724,0.13466644,0.07626481,-0.16287093,-0.25990713,-0.44949064,0.030797785,-0.03459029,-0.17994438,0.1755385,-0.23077531,0.051963806,0.35512197,-0.23340677,-0.29044965,-0.20807023,-0.16488647,0.11411008,-0.31372625,-0.24195342,0.36151677,0.3836448,0.24371338,-0.04212813,0.35515386,-0.12290816,-0.15678336,0.0012283325,-0.36240318,0.12810351,0.2979015,-0.13236861,-0.057902943,0.03439747,0.42242986,-0.110865854,0.110616855,-0.15586957,0.4716242,-0.13694625,0.0070544155,-0.19459672,-0.34921265,-0.11611488,0.18660302,0.10160845,-0.12874117,0.21412624,0.051841043,0.19831848,-0.033275258,-0.21934648,-0.18779963,-0.19052957,0.10138772,0.7412914,-0.02331543,0.19498652,0.0075531006,-0.17165305,0.3275979,-0.15389182,0.02329046,-0.116140194,0.010104093,0.08062744,0.049286928,-0.35049993,-0.020421809,-0.055909935,-0.28181598,0.052236125,0.0064697266,0.09484586,-0.02747449,0.0039905203,0.045007184,0.39740336,-0.1438682,0.7109375,0.40194702,-0.18750833,-0.004283558,-0.11223533,-0.33286908,0.44064608,0.1753013,-0.1499382,-0.27228892,-0.21594204,-0.111644395,0.8903143,0.032589998,0.3108576,0.26924965,0.17120916,-0.046780672,0.014852003,-0.00010265003,0.035246417,0.26245257,0.20266654,-0.6352033,-0.118683554,0.045776367,-0.045284964,-0.025643088,0.4708141,0.1290949,-0.015045166,-0.19870272,0.2971136,0.040571734,-0.11323409,-0.36481267,0.23348722,-0.1654566,0.047510322,0.006346269,0.033977162,-0.09028972,0.029746316,-0.030358922,-0.1933566,0.17027491,-0.017470967,-0.063809484,-0.037700307,0.40525264,0.18837391,-0.8620384,-0.10861483,0.00962136,-0.14518322,0.016944192,-0.27126798,-0.016709674,-0.39438698,-0.18242298,0.08457739,-0.43216947,0.22241488,0.17593107,-0.31088397,-0.15887833,-0.17309986,-0.3224931,-0.021343274,0.39271128,-0.021867232,-0.1300784,-0.19066967,0.20984441,-0.20196949,-0.042104546,0.3681141,0.89426494,-0.32331988,-0.11145297,0.0773149,0.32079524,0.109480426,0.11653554,-0.43166283,0.4507058,2.1993964,-0.42524302,-0.3137429,-0.11360602,0.09741211,0.07104492,0.11633578,-0.30162466,0.042194713,0.2098361,-0.20083202,0.008134321,-0.024735885,0.018937545,0.15414983,0.14853929,0.12937789,-0.03982197,0.0917511,-0.34774503,-0.48044655,-0.04377053,0.09656455,-0.028636586,-0.18740012,-0.3404458,-0.097447485,0.1827559,-0.43940318,0.27451393,0.14688249,-0.003956188,-0.04630349,0.10860276,-0.23513517,-0.18111974,0.17634028,0.31025836,0.03393763,-0.32264015,-0.28053424,0.09569203,-0.23592862,0.3091625,-0.02904996,-0.20185159,-0.55073684,-0.051417958,-0.055207685,0.06860837,-0.0013497092,-0.045972303,0.12426411,0.443831,0.08577104,1.2786754,0.17715143,-0.49779165,0.22290039,0.017678695,-0.4124201,-0.13611394,-0.36196345,0.24111661,-0.19542903,0.03156766,-0.09010176,-0.65443003,-0.43239525,0.20420837,-0.47676226,-0.07724606,-0.14808725,-0.17104149,-0.12450478,-0.2503662,-0.46353427,-0.16601008,0.30495384,-0.04664612,-0.14368162,0.5001526,0.10206327,-0.35357735,0.0062051252,0.096191056,-0.1300992,0.10322085,-0.20450383,-0.02678403,0.009940928,0.011448253,0.22415994,-0.29812345,-0.3696067,-0.53323644,0.40613347,-0.17734598,0.24233732,-0.08417997,-0.18161844,0.06643954,0.017442184,0.095956974,-0.21072249,-0.017460562,0.14676008,-2.4824219,0.15837513,-0.010259455,0.028863734,0.5895885,0.16146521,-0.19683777,-0.23811479,0.2685297,-0.116578534,0.30411598,0.037759956,-0.09722207,0.19158658,0.124816895,0.17472978,-0.14897989,-0.07830672,0.14699034,-0.00661954,-0.020920493,0.23769309,0.44216642,-0.4572199,0.07332542,-0.5896995,-0.03422191,-0.10326039,0.29741877,-0.41738632,0.22154097,-0.5869474,0.016114669,0.036854137,-0.06502377,0.068323486,0.21194458,-0.050232455,0.05579168,0.0725812,-0.12083158,0.19681063,0.07442405,-0.018467296,-0.055957448,-0.14103699,0.0672441,-0.13385287,0.10004494,-0.28791255,-0.078336366,-0.2377479,-0.09028209,0.19856071,-0.18403955,0.10287892,0.034788653,-0.04704146,-0.3380543,0.44931862,-0.15350619,0.17392245,0.24158964,0.10966284,0.18155184,-0.41169044,-0.4222856,0.30217952,0.2770774,0.041004527,-0.3287298,0.05802779,0.0879149,0.056892395,0.10746419,0.40081233,0.24494882,-0.42936566,-0.2387072,-0.19876932,-0.1948464,0.5074019,-0.09598576,-0.41989967
stroller,-0.2791052,0.026337028,0.40077972,0.28238535,0.08461441,0.15052366,0.14350891,0.24703407,0.35863113,-0.26402855,0.36385536,-0.19174957,0.10856223,-0.13908106,0.7452698,-0.18188149,0.07571888,-0.086108536,-0.22088814,0.036460876,-0.13200474,0.091285706,0.1844883,0.09895897,0.36252952,0.41761398,0.21883392,-0.2422142,-0.002663374,0.031129837,0.018554568,0.15741587,-0.008748531,-0.0113425255,-0.09662056,-0.221035,-0.2803955,-0.29364395,0.14748931,1.0401611,-0.14575481,-0.0047674775,-0.03150654,-0.11566639,0.23285532,-1.4501724,-0.10878754,0.20582402,-0.013054371,0.04300022,0.37043285,-0.30737114,0.055204093,0.1274445,-0.11441231,-0.18559265,-0.11254692,0.1673261,-0.0035610795,-0.01680708,0.5446539,-0.18304986,0.033382893,-0.20681289,-0.41449738,0.000787735,0.2505064,0.46608925,0.060991287,-0.02697897,0.08043909,0.12701225,-0.08642292,0.30270767,-0.08242226,-0.4316864,-0.04405594,0.07738161,0.3351097,-0.13828754,0.027582884,-0.29206133,-0.0022907257,0.07634503,0.0559268,0.23048496,0.73643494,-0.0676775,0.50426483,-0.03562069,0.5506592,-0.593338,-6.4838867,0.029459,-0.00043678284,-0.17559624,0.052993298,0.22096252,-0.57415867,1.1947021,0.016039848,-0.072551966,0.58387756,0.1860356,0.1194458,-0.27981377,-0.36728668,0.03978014,0.019832611,-0.25519753,0.12670517,0.27889228,-0.031136036,0.0652132,0.43948746,0.34978485,-0.5588913,-0.3709221,0.1427269,-0.29546794,0.20691395,-0.6361351,-0.18618393,0.021986961,-0.13823187,-0.12414551,-0.15241814,0.03240776,-0.062318802,0.3973894,0.107027054,0.32872105,-0.0821929,0.8529663,0.22342491,0.11759251,0.63936615,0.029267669,-0.16758919,-0.20514202,0.26987457,-0.20600033,0.4493866,-0.003785491,-0.103933096,-0.112047434,0.108138084,-0.0705843,-0.06900418,-0.06792545,0.43162537,-0.06704438,0.41641808,-0.046562195,-0.38507462,-0.19030893,-0.27913284,-0.45864487,-0.35379148,0.21442145,-0.20193112,-0.19588661,0.122415066,0.09317827,0.17649746,-0.17076826,0.483284,-0.07460308,0.15355968,0.06362915,-0.17110205,-0.0697546,0.31102753,-0.16058505,-0.2701695,-0.19494224,0.9686737,0.011789322,-0.66815186,0.18302727,0.27121258,0.2438798,0.3514719,-0.24733353,-0.26060677,0.2599287,-0.031742096,-0.3903656,-0.30270338,0.024307013,0.16987371,0.28972816,-0.10627937,-0.035783768,-0.15609837,-0.36740112,-0.46176147,0.37716675,-0.5188999,0.098890305,-0.11617565,0.15081263,0.14424261,0.29268265,-0.27912378,0.12593341,-0.10358691,-0.1658678,0.07489473,-0.15472245,-0.19921017,-0.017762661,0.007169366,-0.21875381,-0.2661705,0.19972134,-0.05855179,0.113981724,0.3314743,-0.26187515,-0.07891846,-0.23412085,-0.035790443,-0.12405491,-0.045484543,0.08121014,0.066342354,-0.55582047,0.19628108,0.2205205,0.41911316,-0.0044345856,0.49140167,0.8226929,0.14524221,0.019758224,-0.14982867,0.0026254654,-0.096042946,-0.41804504,0.36249256,-0.1829629,-0.115458965,-0.08539057,-0.13201618,0.22642088,0.09775925,-0.020118237,0.045152664,0.25224733,0.08539009,-0.30058098,0.06914711,-0.19921637,-0.10244274,0.70643616,-0.20550442,0.027432919,-0.088998795,-0.0051136017,0.034158707,0.02914381,-0.20334959,0.19913101,0.09792709,0.23728466,-0.20766258,-0.20188141,0.57810974,-0.12408233,-0.6278839,0.15935326,-0.16244793,0.2645836,0.13219786,0.18508911,-0.21163774,-0.28516006,-0.11968899,0.03900814,-0.08581996,0.17624187,-0.15544224,0.0124025345,0.16679764,-0.21450424,0.1066618,-0.047705412,0.06190729,-0.28887337,0.2877378,-0.41452026,0.24854136,0.19089508,-0.24712467,0.24686384,-0.06696701,0.023292542,-0.011594772,-0.13469219,-0.077260494,-0.23443747,-0.25180435,-0.59773636,-0.0362854,-0.5467882,0.11667395,0.20630646,-0.011809826,-0.01629281,0.05991167,0.24223709,0.85150146,0.039969444,-0.0008049011,0.09503269,0.21733856,0.1899848,0.27810287,-0.08565903,-0.0753994,1.1819153,0.048391342,-0.47946167,-0.041036606,-0.1566658,0.30776215,0.4938202,-0.030409813,-0.047074795,0.33171844,0.4064293,-0.048771143,-0.22830677,0.25868225,-0.0104055405,0.35621262,-0.07519698,-0.15151191,0.09473848,-0.44110107,-0.26809692,0.3533783,-0.19218779,0.10761595,-0.13803911,-0.47331238,0.22932923,0.13538504,0.1990509,-1.0265961,0.20829773,-0.12899971,0.0934329,0.10290289,0.20715332,-0.429451,0.3773594,-0.011163831,-0.009221077,0.10714722,0.32565308,-0.2170639,-0.66267014,-0.67186975,-0.3015442,0.043137174,-0.3276558,0.2790668,0.3791809,-0.13737106,0.13604832,-0.3012619,-0.34357452,-0.12122917,-0.006201744,1.7401123,-0.16082764,0.37007374,0.024085999,0.26867962,0.357808,-0.2748375,-0.18720865,0.06560707,-0.10767174,0.44602203,-0.119895935,0.045111537,-0.76805115,-0.62879753,0.1908102,-0.06172371,-0.14829159,-0.37856102,-0.27064896,-0.1777401,-0.00010228157,0.567688,-0.24251938,0.24162865,0.4607296,0.56204224,-0.30025864,0.14704227,0.08596134,0.3761778,0.3190956,-0.3945999,-0.06657684,0.09952545,-0.008164167,0.32505798,0.22577286,-0.28751755,0.13788724,0.069223404,-0.0601964,-0.251091,-0.40555573,0.1332593,-0.048133016,0.24681282,0.027038574,-0.16612476,-0.21347332,-0.42443085,-0.24750519,-1.6742249,-0.15948176,-0.27526283,0.5379486,0.9250641,-0.26614952,-0.084415436,0.11872172,-0.06939888,-0.16784906,-0.17011452,-0.02120018,0.38217926,0.12403011,0.46111298,-0.38045883,-0.20413971,-0.25380802,0.32175457,0.26428986,-0.028728485,0.28183746,-0.31443405,0.11226177,0.07891321,-0.0019283295,-0.22063446,-0.29055405,0.06787777,0.19093394,0.15860116,0.31225586,-0.077389,0.2046135,0.056885004,-0.07985401,-0.068021774,0.15301323,0.39753723,-0.1402092,-0.18405342,-0.37475204,0.32522583,-0.35574102,0.02358675,-0.34184456,0.11593127,0.01975727,0.078490496,-0.118291855,-0.1568222,-0.037929058,-0.014273167,-0.22062209,0.085926056,0.123379946,0.294631,0.09505844,-0.54603577,0.35703087,0.29511356,-0.43002367,-0.41495514,-0.019872189,0.7602539,-0.51851654,-0.27714443,-0.01815319,-0.11394048,0.20906019,-0.44631195,-0.13249508,-0.1341896,0.035451412,-0.10539961,0.74031067,-0.3442955,-0.12734127,-0.1835928,0.24169731,-0.14364731,0.2698307,-0.22525215,0.17063141
glass,-0.10533079,0.54243976,0.12879436,0.2154452,0.55041504,-0.15996425,0.23933792,0.27413177,0.2087218,0.21545918,0.123547494,-0.041260403,-0.026047865,-0.43145752,0.35368243,-0.08433715,0.7172343,0.30966696,0.0009829203,-0.3484014,-0.82023114,0.08463033,-0.3570353,-0.2574787,-0.2249438,0.52982587,-0.05237897,-0.08458456,-0.1735115,-0.24707286,0.06803528,0.31266275,-0.3522695,-0.21992175,0.21588898,-0.029930115,-0.33543143,-0.16106415,-0.41147867,1.0617676,-0.24558003,-0.3855667,0.11437225,0.12375864,-0.15994518,-1.2958832,-0.05878194,-0.31736246,-0.055217743,-0.14761989,-0.086340584,0.15494664,0.30780062,-0.15150197,-0.07805761,-0.17450015,-0.53392535,-0.0018723806,0.21973927,0.5387065,-0.13195293,-0.25135168,0.05205663,0.42689005,0.17831945,0.35473633,-0.03276062,0.064006805,-0.38160196,0.084062256,-0.11186981,-0.018022537,0.13142204,-0.17785518,-0.03336382,-0.28330994,-0.10092926,0.022984823,-0.28477478,-0.32286835,0.09922918,-0.08044815,0.0065530143,-0.36333594,0.070628166,0.056251526,0.42814,0.12457784,0.06320699,-0.10105896,0.17215474,0.10898336,-7.232096,-0.15606563,0.03041776,0.03521474,0.11577606,0.31996155,0.28092194,0.11343638,0.20653915,-0.6480713,-0.23775227,0.3809611,-0.32874808,-0.20856476,-0.5884196,0.10430781,0.1796519,0.1879781,0.23334503,-0.23575847,0.34629312,0.17561722,-0.039665222,0.12699254,-0.444458,0.08746719,-0.22025299,0.070017494,0.096375465,0.12010193,0.09645462,-0.319692,0.09384028,-0.16841252,-0.20669048,0.14758174,0.078995384,-0.22810364,-0.09338919,-0.4272054,0.041837055,0.91548663,0.35472107,-0.07259496,-0.16843922,-0.24701945,-0.5800781,0.26294962,-0.11932119,0.31914267,-0.4073995,0.028155645,-0.3961741,0.18005435,-0.089619316,0.052069347,-0.39113364,-0.05619208,0.23277538,0.039886475,0.7332509,-0.36098734,0.15869395,-0.24842834,0.006689573,0.0048306785,0.27937698,-0.3021647,-0.16726558,-0.36704507,-0.16261292,-0.29597726,-0.08494822,0.42673746,-0.3214353,0.085300446,-0.028986612,0.15561803,-0.12660217,-0.110777535,-0.05494054,-0.0910333,-0.42533365,0.06730207,0.5390218,0.1346957,0.50341797,0.052139282,0.3138021,0.038856506,0.2612203,0.11230596,-0.37810263,0.058493298,-0.13901138,-0.07669195,-0.08688048,0.22979927,0.16608937,-0.24962299,0.16815694,-0.08767446,0.52090454,0.011417389,0.124061584,-0.45876566,-0.22775523,-0.2405421,0.043380737,0.16699822,-0.18995667,0.6848958,0.17469025,0.06496048,-0.1325353,-0.045101166,-0.31396484,-0.090297066,0.18924968,0.99713135,-0.035118103,0.18938446,-0.07018789,0.049266815,0.48960367,0.33736482,0.19381459,0.1168162,0.25560507,0.2560514,-0.016565958,-0.5066223,0.34740195,-0.092225395,-0.098454796,-0.32188925,0.015630722,0.21896362,0.018330574,0.08495744,-0.40499368,0.109386444,-0.4349772,0.24500942,0.16857846,-0.46402994,-0.55636597,-0.019568125,-0.33972168,-0.054270428,-0.100893654,-0.38892618,-0.73343915,0.043344814,0.14737622,0.8837077,-0.26079306,0.33673096,-0.28915405,0.11672465,-0.3132464,-0.28194556,-0.24549103,0.016398111,-0.26965332,-0.14890034,-0.98920184,0.13619168,-0.11108494,-0.38162598,-0.2059428,0.3556137,0.050493877,-0.057724,0.14093144,-0.11802419,0.25689188,-0.090743385,-0.40079752,0.39450517,0.41642252,-0.14391327,0.10433197,0.1553262,-0.075582504,-0.059310913,-0.25045395,0.0382576,0.04573949,0.2796173,-0.49336752,0.04189555,-0.0778176,0.031140009,0.23970287,0.14444415,0.080790676,-0.24311066,0.28830972,-0.22411601,-0.25671387,-0.07160187,-0.028905869,0.0742391,-0.20554988,0.5425313,-0.17110872,0.37015787,-0.27072397,-0.32227835,0.22846286,-0.052312214,-0.029702505,-0.15230815,0.21516418,-0.09112803,-0.0063788095,-0.013033231,0.15605672,0.48546347,0.91483563,-0.3495687,0.13447697,-0.39482626,0.61973065,0.18494923,0.026770273,-0.2957357,0.2992681,1.9519857,-0.27212653,-0.22871399,-0.020298004,-0.29191718,0.108784996,-0.31151834,0.07494736,0.15889995,-0.009821415,0.09221903,-0.4203097,-0.2047205,0.012763977,-0.14592838,0.25495562,-0.009882609,0.14027405,0.12881343,-0.2237587,-0.09846958,0.024570307,0.1571471,0.042690277,-0.051894505,-0.044768017,0.13909848,-0.19888306,0.027488708,0.16365814,0.07809639,0.20748456,0.045152664,0.07643008,-0.22104645,0.0450929,-0.17539056,0.003434499,-0.025093555,-0.55914307,-0.17608643,0.20807648,-0.30644736,-0.4355062,0.13783264,0.22352092,0.38887152,0.04806264,0.21098582,0.010820389,0.11395868,-0.15466817,-0.03701671,-0.10646502,-0.5788472,0.8080037,-0.007486979,-0.023288727,-0.042874653,-0.24685065,-0.85408527,-0.4045919,-0.35833612,0.32182312,0.11564954,0.009383838,-0.041101456,0.010885875,-0.20631409,0.1622467,-0.44769287,-0.073643364,-0.3152248,-0.24040508,-0.038734436,-0.40805054,-0.21156502,0.6321513,0.33948264,0.0008055369,-0.053981144,0.989034,0.028740564,-0.24303055,-0.071203865,-0.119236626,0.007385254,0.2734604,-0.079455055,0.44865417,-0.14990234,-0.1037089,0.06594213,-0.11104965,-0.0038070679,-0.19631584,-0.15305392,-0.15919304,0.008815129,-0.14194743,0.013825734,0.14041646,0.13196118,-0.43575034,-0.07621086,0.02626419,-0.16378784,-1.3466288,0.32382202,0.32315063,-0.042156857,1.1567789,-0.28495407,-0.16837819,-0.3490499,-0.13336563,0.004135132,0.4160563,-0.023167292,0.083382286,0.06671349,0.1869278,0.3702189,0.356781,-0.16520183,-0.039589565,-0.00051116943,0.015010993,0.40966797,0.64052325,-0.022760311,0.12681325,-0.4906006,-0.18739955,0.1945076,0.057549793,-0.39055887,0.2599589,-0.16888428,0.46598306,-0.17319997,-0.09246445,-0.07875315,0.13893636,0.19001038,0.30794907,0.06531016,-0.1169014,0.2487011,-0.22839355,0.15258853,0.18909772,-0.67510986,-0.15498543,-0.41936493,0.191096,-0.3640798,0.29729208,-0.21511586,-0.061641216,0.029177984,-0.12619019,0.2054987,-0.16391818,-0.29273477,-0.34113565,0.36943564,-0.074773155,-0.20453389,0.19167073,-0.22414906,0.4985911,-0.4603068,-0.10642409,0.34372965,0.37354025,0.24335735,0.20506795,-0.16027069,-0.057029724,-0.060014725,0.106861055,0.30811056,0.41246542,-0.14855702,0.20876312,-0.101205826,-0.2940836,0.5753581,0.28959146,0.123223625
grass,-0.21977335,-0.23027344,-0.037046432,-0.01414566,0.22328287,0.016943868,0.5497477,0.7464518,0.33326823,0.2625936,-0.02166748,-0.18760554,-0.7046061,-0.17650756,0.015833156,-0.17172648,0.30304387,-0.18601914,0.067192584,-0.013867696,-0.26107788,0.009562683,-0.060039267,-0.6282552,0.08061422,-0.17725931,0.22769776,0.37445477,-0.026691437,-0.5648763,0.076439284,0.03735606,-0.2188436,0.15587959,0.29387614,0.1432574,-0.011957805,-0.20090942,0.053142294,0.95709634,-0.26072997,-0.21133627,-0.3867269,0.11153119,0.21053466,-1.7623047,-0.3424825,0.0026536703,-0.12266744,0.116042584,-0.29933268,-0.11839867,0.6083496,-0.05939916,-0.11469523,-0.049429193,-0.06764691,-0.092634074,0.053867087,0.061322022,0.86295575,-0.0097759245,-0.00847009,0.5186198,-0.294104,0.12726848,0.04861094,0.17140147,-0.011543528,0.12042236,-0.28284505,-0.30066985,-0.43740234,0.21238403,0.098627724,-0.31583658,-0.061381657,0.01564331,0.2043986,-0.5066406,0.10457865,-0.013861593,0.04917755,-0.5064779,0.03902537,0.27174073,0.14308065,-0.102064766,0.34345296,0.04983724,0.20681864,0.0033096313,-8.536979,-0.15350062,0.28998768,0.2911967,0.15894724,0.66782224,-1.34375,-0.370814,-0.0035502117,0.14805704,-0.17621256,-0.21260783,-0.09281108,-0.012391154,-1.0801758,0.6785156,-0.07117316,-0.16621399,0.45725912,0.06158854,-0.18311565,0.0061330157,-0.20418142,0.19349721,-0.21331991,-0.049858473,0.08718643,-0.47039387,-0.14548594,0.11979116,-0.24125163,0.023585256,0.28385416,-0.46533203,-0.42027995,-0.06820373,-0.055774942,0.25987548,0.5750651,-0.2064331,-0.29042968,1.0485351,-0.17903748,-0.10785522,0.19110209,-0.7594076,-0.20969239,-0.17096914,-0.38585612,0.19925867,-0.106002964,0.17483622,-0.023129908,0.036516316,-0.3956787,0.1643097,-0.17843017,-0.06022606,0.2602356,0.019008381,0.72788084,-0.13146883,-0.10701498,-0.024442038,-0.19401449,0.32505697,0.21489665,-0.49782714,-0.2927958,0.08816426,-0.37342122,-0.4162923,0.03558121,0.19772543,-0.6818522,0.13774414,-0.106427,0.19066772,-0.13647613,-0.056800332,-0.44241536,-0.4104492,0.33014932,-0.26306152,0.2276769,0.18989258,-0.4783203,0.10322418,-0.2649048,-0.14514668,-0.46704915,-0.3754476,-0.033134207,-0.045003254,-0.19661662,0.90022784,0.18128459,-0.35090333,0.02892882,-0.034466553,0.25069174,0.21142152,-0.03407796,-0.0818751,-0.04053141,-0.3630371,0.04923045,-0.15352122,-0.42996418,0.010577393,-0.018927384,-0.080012515,-0.15207316,-0.14969413,-0.33933106,-0.055614218,0.2217743,0.09839986,-0.16070557,0.39222005,-0.012535604,-0.060013834,-0.06949005,-0.14287491,0.26490733,-0.20616251,0.91503906,-0.2822347,0.23747355,0.13634643,0.09369303,-0.35402018,-0.196816,0.48284504,0.008006287,-0.87301433,0.06865285,0.31636962,-0.21328202,-0.3694936,-0.29937845,-0.6399251,-0.19707234,0.37759602,0.070140585,-0.124520555,-0.08174693,0.1758606,-0.10316162,0.15344493,0.028403219,-0.051646933,0.077458955,-0.36640218,0.013618469,0.29456466,0.007382838,-0.15608953,-0.18366241,-0.037153497,0.0120375315,0.19980773,-0.21319987,0.09798991,0.030911764,0.3933838,0.990918,0.25630698,0.1162618,-0.17976074,-0.13012137,0.78500974,0.02093633,-0.49970704,-0.047934975,0.37625325,0.24096476,-0.22378336,-0.36627606,0.24934895,-0.40878907,0.21739045,-0.040825367,-0.14838079,0.034493003,0.1060791,0.22271524,-0.23258565,-0.07114868,0.10378647,-0.08518575,-0.10645132,0.124853514,0.19079997,-0.24443258,-0.60483396,-0.009915669,0.028327433,0.001260376,-0.12583974,0.37118328,-0.040894825,0.05434392,-0.24424031,-0.15567221,-0.071378455,0.355542,0.11982015,0.039816156,-0.22315064,-0.034511313,0.34991863,0.026015218,-0.08212077,-0.25284374,-0.00078582764,0.031057993,0.39557698,0.45309246,-0.1615406,1.0477539,0.030964661,0.18248291,0.30345052,0.18336588,0.34624022,-0.28378397,-0.49980468,-0.1920982,1.7632161,-0.09051514,0.0037831625,0.26037598,0.36616212,-0.24917398,-0.014643097,0.10110423,0.66973877,-0.3129069,0.20351766,0.09400533,-0.09109751,0.45450032,0.14264856,0.3382243,0.63357747,0.14858297,0.33192545,-0.17614403,-0.1370596,0.14058635,-0.08443479,0.13390706,-0.15747884,-0.08767007,0.25817463,0.22415772,-0.41426596,0.040667024,0.25023192,0.13537827,0.050680827,0.2789632,-0.19025879,-0.12847131,-1.0422852,-0.29328892,0.07608338,-0.5902018,-0.05774188,0.43742675,-0.10592855,-0.079558305,-0.08920059,0.101075746,0.19810385,0.42440593,-0.342395,-0.03130849,-0.17990825,-0.46494955,-0.16213481,0.30760497,0.118293256,0.86189777,-0.17779541,-0.32115477,0.22118327,-0.062416587,-0.22594604,0.36648762,-0.468278,0.12928873,0.045666505,0.09988047,0.43403322,-0.3057251,-1.0410482,-0.6178223,-0.51505536,0.48297527,-0.2739217,0.049066164,-0.055720773,-0.11289902,-0.3559733,-0.39826253,0.19816081,-0.13717143,-0.14918695,-0.19943441,0.106920876,-0.19033407,0.15491536,-0.5805176,0.25340042,0.3202881,0.0045488994,0.32151183,0.035530217,0.21463013,-0.20602621,-0.062441,-0.5705078,0.021230062,0.0983785,-0.24817708,-0.37252578,-0.17031454,-0.1256874,0.09862671,-0.3643636,-0.119387306,0.18932444,-0.47096354,-0.03891093,-1.2451009,0.089213304,0.05206299,-0.5085612,0.42571613,-0.34459636,0.26520184,-0.14164582,-0.04434611,-0.0006072998,-0.056605656,-0.20510559,0.16203816,0.056832887,-0.011897405,-0.59833986,-0.4756022,0.30090332,0.2673299,0.25450337,0.021416219,-0.41675618,0.06598613,0.19024353,0.098491415,-0.68046874,0.23653361,-0.3887207,0.25786236,-0.14688963,0.24849243,-0.114676476,0.23284301,-0.1419342,0.035958864,-0.15621077,0.09105326,0.06098302,0.029114787,-0.32312825,-0.27129313,-0.33615723,0.47569987,-0.24694824,0.20390625,0.1601822,0.21043701,-0.4129476,-0.028816732,0.2157959,-0.34028322,-0.04342791,-0.073222354,0.18605423,-0.015131633,0.098739244,0.26739502,0.22356771,-0.51713866,0.109679155,0.12588908,0.117470294,0.19051412,-0.29571533,0.23198852,-0.37298992,0.24403483,-0.0886556,0.10086187,0.1813975,-0.19366862,-0.11595624,-0.5795451,0.2879964,-0.12902832,0.1567922,1.0058268,-0.13384196,0.22388688,0.4155843,-0.32528076,0.3589569,-0.22989298,-0.22111206
necklace,-0.33880004,0.04188919,0.25017902,-0.027523153,0.1455813,-0.057391357,0.18478495,0.03000285,0.30264893,0.19188029,0.49453938,-0.087750755,0.10867716,0.07921753,-0.36702067,-0.21941121,0.50747377,0.02799886,-0.45463866,-0.40020344,-0.31595865,0.012836456,0.16098174,-0.15227635,-0.20291544,0.13615112,-0.50512695,0.055110678,-0.23753662,0.06727091,-0.08801397,0.2608144,-0.19347127,-0.5358561,0.022580719,0.5756836,-0.25122172,0.30414835,0.09839745,1.0574381,0.1860972,-0.11715921,0.077653,-0.08347677,0.49214682,-1.5930827,0.10572001,-0.023527209,-0.42645466,0.21818583,0.048028566,-0.01228536,0.11570842,-0.16304524,0.13668258,0.0829188,-0.2240804,0.43362835,0.3199768,0.29593098,0.58249104,-0.25697988,-0.064023845,0.10762024,-0.09220174,-0.07750473,-0.4056722,-0.5580729,0.12949626,0.13874105,0.15653077,-0.009491475,-0.19648266,-0.12681809,-0.29575616,0.18523598,0.19555359,0.043164063,0.274705,-0.28325194,0.12594554,-0.35886803,0.016187541,-0.5748698,0.31021118,0.15772502,0.102129616,-0.16400808,0.49026692,-0.117004395,0.09444733,0.0017588298,-6.611979,0.19046763,-0.38553873,-0.0786583,0.053367868,-0.20397136,-0.009922282,0.93509114,-0.034124754,0.14774826,-0.043349203,0.096018985,0.18941854,-0.05893717,0.3890119,-0.08821309,0.2456014,-0.14266993,0.13688049,0.027237955,0.15028127,-0.15729879,0.13953857,0.008323542,-0.2758199,0.2099589,-0.21902466,0.109040834,0.17306799,-0.45832112,-0.026593082,-0.07558238,-0.07483216,-0.012746175,-0.13999367,-0.0870931,0.26385906,-0.14010824,-0.2904307,-0.059998576,0.06662191,0.81263024,0.2648946,0.054001365,-0.2406484,0.029565748,-0.18468933,-0.057425436,0.19471028,0.021490479,-0.31339315,0.23443349,-0.16532364,-0.028083801,0.023906453,-0.1949941,-0.2640625,0.10236231,-0.19709371,0.37532553,0.26449382,-0.0193189,0.074984744,-0.25262755,0.21140239,0.12366689,0.19564006,0.26472473,-0.15568288,-0.071481146,0.22167155,-0.11960843,-0.100150555,-0.30706584,0.3491557,0.096582286,-0.22675273,0.11232745,0.14388326,0.38802898,-0.7215983,-0.052923582,0.082214355,-0.56361085,0.25731406,-0.06466268,-0.064198814,-0.34443742,0.4283854,-0.11089649,0.11088816,-0.02575531,-0.10840956,-0.048539225,0.19635722,0.24148355,-0.013071251,-0.039827473,0.055859376,-0.19782105,0.11899109,-0.15768433,0.6200114,0.018293763,0.7536051,-0.2193461,-0.005797132,-0.047229514,-0.09107717,0.3156652,0.10206604,-0.02975769,-0.04845594,0.2874715,-0.1960551,-0.2104702,-0.19243114,0.36704916,-0.26841432,0.18148409,0.25335693,0.1748839,0.058263745,0.15274607,0.07388916,0.2933919,0.32837322,-0.48667398,-0.24547425,-0.3139262,0.08454679,-0.12847087,0.38648072,0.046505228,0.09695994,-0.210436,-0.1979126,0.14571403,-0.2321045,0.42390952,-0.11238149,0.36962482,-0.23422852,0.21356608,-0.14146322,-0.38756865,-0.22689006,0.23563233,-0.14712869,0.09548747,-0.06031291,0.1978829,-0.21827392,-0.31552735,-0.058902994,0.5076111,-0.43338215,0.13638,0.07979024,0.3316081,-0.24419148,0.11749039,0.054972332,0.093672685,-0.30555266,-0.3790222,-0.45247397,0.11307602,0.22570358,0.1915095,-0.10078736,-1.0385742,-0.0959816,-0.19454448,-0.09927597,-0.25687307,-0.011276754,0.086249925,0.12074178,0.194251,0.0011057536,-0.3277087,-0.17586619,-0.039138414,-0.052379355,-0.11981608,-0.08388125,-0.34387308,0.1023407,-0.15648396,-0.3081075,0.24495442,-0.1828827,-0.02849757,-0.10979767,0.022928873,0.12273432,-0.124694824,0.29294127,0.15420762,0.20991822,-0.092095055,-0.34454042,0.0065373736,-0.8212728,-0.08886515,-0.2082489,-0.07465096,-0.16843008,-0.17847443,0.36534423,-0.059087373,-0.10546468,-0.059828185,-0.034117,-0.07414703,-0.14208984,0.00528361,-0.14026693,0.27485707,0.8109049,0.30135906,0.05265859,-0.08100484,0.40564778,0.08499959,-0.29475912,-0.48173827,0.37689617,2.663737,0.06476644,-0.3959512,0.24396972,-0.15069173,0.21337382,0.02472051,-0.17972413,0.0461202,0.21445923,-0.042744447,-0.14689179,0.26713052,-0.13166708,0.07738088,-0.5334717,0.21705729,-0.16594519,-0.11069616,-0.3445231,-0.40880534,-0.02746175,0.38859048,-0.14374427,-0.38606974,-0.05284238,0.019191487,-0.34209797,0.0024683634,-0.011753082,0.09457194,0.45005697,-0.3098816,-0.19845377,-0.04815674,0.048091635,0.32756552,-0.17240651,-0.06748352,0.4487915,-0.25151926,8.7992354e-05,-0.17925212,-1.1638875,-0.073251344,0.026447041,-0.25553995,0.16971156,0.26091918,0.16033338,0.023358155,0.6798503,-0.13290913,-0.16248576,-0.14188029,1.127832,0.10364482,-0.026594035,0.28640136,0.033842724,-0.29740602,-0.15580139,-0.046522267,-0.017117342,0.20936865,0.22383219,0.24067587,0.025190098,0.7149556,0.23992513,-0.35168457,0.23332113,0.26207072,-0.58282876,-0.28514403,-0.013028462,0.05483602,0.63225096,0.15985107,-0.07722982,0.083300784,1.1541992,0.22480367,0.17956313,-0.13613078,-0.10688528,-0.23057556,0.067464195,0.08123169,0.12364095,0.23936361,0.26446941,0.16014506,-0.020192465,0.34371135,-0.29158732,0.0001953125,-0.15891927,-0.16233952,0.07169749,-0.028244019,-0.17312826,0.37297517,0.055037435,-0.028025564,-0.084848024,0.03352051,-0.7715942,0.036576845,0.11873932,0.038221233,1.4844726,-0.55816245,0.08968506,-0.10834147,0.13776246,-0.0146113075,0.22538249,-0.047469582,-0.04596659,-0.13576253,-0.006107076,0.27676493,-0.118003845,-0.16007437,0.2441223,0.07098083,-0.4060974,-0.0067026536,0.10383759,-0.19430797,0.015638225,-0.43605143,0.051966794,0.36833495,-0.10090993,0.21701558,0.18056233,0.15775554,0.30562338,-0.17318115,0.004312134,0.115067035,-0.35606688,0.10740967,0.38025716,0.13375041,-0.20613912,-0.34186807,-0.31358206,-0.14106649,0.030603027,-0.40242514,0.1391093,-0.14815241,0.046406556,-0.08869502,-0.03968506,0.06579284,0.19309768,0.08330981,0.10111186,0.17698975,0.20903116,-0.39767253,0.102232486,0.34798178,-0.14603272,-0.02511692,0.20136109,-0.14083596,0.337264,-0.40681154,-0.22041829,0.12593861,-0.251355,0.0611262,-0.2831909,0.0561059,-0.006340408,0.060188293,-0.04026286,-0.13260333,0.16220297,-0.49040526,0.1469452,-0.08957265,-0.3351359,0.7493001,-0.15364583,0.24337564
candy,-0.30686697,0.30344644,-0.44999185,0.16591696,-0.38867697,0.019298345,0.07247893,0.4640131,0.4586792,0.60542804,0.1456229,-0.15677845,-0.3865684,0.02873516,-0.12120851,0.1185201,0.27762222,0.026639303,-0.22664006,-0.21347554,-1.8406576,-0.1780777,0.060122173,-0.15542953,0.2407964,0.14742787,-0.29874167,0.28176245,-0.38976035,0.071159996,-0.39866638,0.013029178,-0.13265038,0.14917152,0.11039686,0.5581868,-0.29033408,0.44640097,0.108330406,0.5272522,-0.30530295,-0.16778056,-0.013590495,0.15657298,-0.40937296,0.107242584,-0.20963542,0.2273782,-0.33803305,0.1377856,-0.09370693,0.10919698,0.15000899,0.14936574,-0.18534406,0.25138855,-0.44769287,-0.08088366,0.3600057,0.08309873,-0.21396065,0.05754598,-0.2870585,0.2691218,0.07097372,0.3929952,-0.28255463,0.53340656,-0.23345058,-0.2620341,-0.355615,0.011141459,-0.28545633,-0.27995872,-0.31089273,0.14618938,0.1184934,-0.537679,-0.05041313,-0.22007878,0.0078646345,-0.04082362,-0.4024048,-1.0413818,-0.17248535,-0.050394695,0.055627823,-0.043679554,0.280131,-0.26390776,0.36561584,0.109814964,-7.2340493,-0.046333313,-0.028941473,-0.27272543,0.80391437,0.20472081,-0.25819525,-0.31670633,-0.026798248,0.15546417,-0.48395792,0.15364075,-0.4570923,-0.42591858,0.26131693,0.10270691,0.017947832,-0.28199258,0.2154587,0.24466705,-0.0062179565,-0.0562617,-0.19476588,0.333196,0.2158699,-0.3328298,0.023435593,-0.19486873,0.38434854,0.16505177,0.2081949,0.25767517,-0.07704369,0.12395731,0.10102844,-0.10196177,0.19230779,-0.14314778,-0.16685359,-0.114254,-0.056223553,0.9610596,0.1653595,0.027244568,-0.08923594,-0.20090611,0.057502747,-0.083994545,-0.41829428,-0.16055298,-0.35203043,0.10643514,-0.16023748,-0.07680098,0.40723166,-0.37257895,-0.17650096,-0.29615784,-0.12211736,0.07823149,0.6303304,-0.37123108,0.048307735,-0.13591671,0.3468081,-0.29589844,0.04631297,0.1178147,0.14760017,-0.059960682,-0.56013995,-0.03951772,-0.031895954,0.0838329,0.3550695,-0.09723409,-0.35801187,0.25818124,-0.5355428,0.30500856,-0.07581266,-0.0045954385,0.047771294,0.45259604,-1.1375732,0.54956055,0.583725,0.14069112,-0.19884491,-0.008120854,-0.42829385,0.21460088,0.1841863,-0.016270956,-0.0015761057,0.048772175,0.054280598,-0.106300354,-0.21305974,0.22671127,-0.059619904,0.2924398,0.67352295,0.049340565,0.2631785,0.024034819,0.12209193,0.56532794,0.2436231,0.40246582,0.10064951,-0.08147049,-0.33499146,-0.32133356,-0.19572449,-0.30956015,0.19884364,-0.16211064,0.2745819,-0.30621085,-0.27942657,0.13424683,0.38038382,-0.23314412,-0.05810674,-0.0141614275,-0.3519411,-0.26852417,0.2586924,0.45941162,-0.069119774,-0.44269815,0.05379812,0.09731039,-0.23568185,0.06018607,-0.2644577,-0.4533081,-0.092851005,0.26871237,-0.38982138,-0.048905373,-0.17580731,0.5953166,-0.13385455,-0.08973821,0.1068306,0.012379329,-0.06685766,-0.1042277,0.045865376,0.031102499,-0.33387756,-0.2738495,0.03772227,0.5336711,0.025104523,0.22470856,-0.41693115,0.09687042,0.034127157,0.18531036,0.032752037,0.24945068,0.13585918,0.008846283,-0.5970014,0.276886,0.11592897,0.09790802,-0.184906,0.7744344,-0.078175224,0.10513178,-0.22015889,0.1974767,0.21555646,-0.21747334,0.14936312,0.10164674,-0.2907206,-0.055287838,-0.55281574,-0.32072958,-0.27637735,0.07853699,0.009564717,0.13411744,0.3978119,0.51194257,0.23666637,-0.34300742,-0.13892108,0.52195233,-0.9503784,0.38198343,0.29962668,-0.15250365,-0.28324127,0.17176946,0.32439932,-0.24077861,-0.519221,0.440684,-0.6074219,0.055325825,0.28200784,-0.26377997,-0.17320538,0.0501887,-0.20501709,-0.1931305,0.3235804,0.33454895,0.124650955,0.30389404,-0.06536356,-0.21404648,-0.12904644,0.18839645,0.96158856,-0.19668452,0.176946,-0.17832439,0.11205953,0.35308328,0.24610901,0.10218684,0.122854866,1.1267904,0.12957446,-0.18937556,0.47650656,0.3463745,0.03300063,0.28061423,-0.36019135,0.25096384,-0.06035741,-0.4148356,0.11695933,-0.28282166,0.13679822,-0.24676768,-0.24313991,0.25370216,0.062318165,-0.08217875,0.29767862,0.037902515,-0.086520515,-0.015755972,0.28450522,0.021348,-0.12790298,0.328324,0.33314228,-0.12084214,-0.30062357,0.11669668,0.16341336,-0.3973185,0.13355,0.08307394,0.088793434,0.85685223,0.18823497,-0.06404241,-0.7080078,-0.2557068,0.013470571,-0.3622335,-0.54116946,0.020958265,-0.088988304,0.7454631,0.41559854,0.14348094,-0.21387736,0.106355034,0.18376656,0.046267986,-0.07676569,-0.42048135,1.4508871,0.09288152,0.4418386,0.15142567,0.17139308,-0.5213216,0.18776067,-0.23427582,-0.17837016,0.17286174,-0.23057048,0.21453857,-0.3441957,-0.4787445,0.28549704,-0.49135208,0.3368632,0.4052938,-0.34581313,0.20238121,0.37263998,0.11298116,-0.11894226,-0.23461533,0.67612714,-0.10903994,-0.77375287,-0.43450928,0.045633953,-0.3585256,-0.057224274,0.10390218,0.017161528,-0.038538616,0.06773313,-0.15407181,0.12037039,0.26002884,-0.118209206,0.091724396,-0.32536253,-0.313797,-0.04359309,0.8124593,-0.18829854,-0.02056376,0.16776276,-0.16645558,-0.18268585,-0.22342427,-0.15726931,0.54978436,-1.8774414,-0.0474329,0.15458298,0.21947925,0.9433594,0.11650222,-0.10746511,-0.26424155,-0.07050005,-0.04506429,0.098968506,0.26943207,0.022201618,0.3634669,-0.16411845,0.43173218,0.06872114,0.12799382,0.2245326,0.3998108,0.06392161,-0.3235499,-0.20010757,-0.02897633,-0.026260694,-0.3398107,0.04251607,-0.26700845,-0.48462424,0.023658752,-0.13681667,-0.3113861,0.2513275,-0.10663477,-0.06335703,0.1764323,0.046318054,-0.21051025,-0.6229248,0.15434265,-0.2908783,-0.2791392,-0.10597038,-0.094179474,0.08104706,-0.20480347,0.30706787,-0.40812173,-0.16462071,-0.4188334,0.8406372,0.14817302,0.108857155,-0.18802293,-0.09341685,0.22890218,-0.14573605,0.4547119,-0.24622345,0.22377269,-0.056289673,0.16281796,0.53312176,-0.2946752,-0.07610432,-0.46858725,0.018417358,0.12371572,-0.027417501,0.1830724,-0.12642288,0.061461132,0.2739118,0.39650473,0.055500984,0.41908392,-0.3859984,-0.0245651,-0.1281945,0.37150064,-0.5616252,0.095383964,-0.15375264,-0.3711548
jeans,-0.09937395,-0.0128037585,0.15702023,0.25245366,-0.2648601,0.066621915,-0.10522788,0.34027752,0.13064575,-0.06773158,0.13342121,-0.057377763,-0.10774885,-0.059072766,-0.13072313,0.07702582,0.32214683,0.18049622,0.2973327,-0.1937294,0.21714129,0.39702496,0.36951336,-0.11192785,0.22719029,0.3400661,0.0020310539,-0.09712982,0.0144522535,-0.14493015,-0.074394226,-0.10592692,-0.05995396,-0.16513279,0.19509451,0.36427525,0.0902165,0.3342416,0.059016638,1.3584158,-0.44434902,-0.102149144,-0.08222417,0.096952304,0.06196485,-0.49203703,0.116971694,0.13740431,-0.12007904,0.28494373,0.14859636,-0.15144566,0.23885672,0.30809674,-0.05720956,0.2392164,0.12203871,0.18732466,-0.40906635,-0.051524024,0.28653717,0.18182155,0.0014441354,0.18860735,-0.14077213,-0.029173443,-0.059533257,0.1299119,0.08704376,0.008112227,-0.038976397,0.29162598,0.0380091,0.00088426046,-0.17213985,-0.1826063,0.2844805,-0.08792966,0.09227208,0.0776111,-0.52605766,-0.5533491,-0.043814797,-0.043300085,-0.052242007,0.13861696,0.3838305,-0.116622925,0.29805866,-0.11063576,0.37985665,0.1328155,-7.3228235,0.67013985,0.18829891,-0.046181817,0.47489277,0.1556658,-0.048841204,0.6204747,-0.12790354,-0.33392662,-0.2516354,-0.1781311,0.010814667,0.38739014,0.1011283,0.15352957,-0.05835179,0.116057806,-0.16352953,0.23822287,0.1386359,0.0035193136,0.0020065308,0.14337376,-0.14460447,-0.49724907,-0.0037679672,-0.034259014,-0.13699068,-0.011073521,-0.14586857,-0.05897522,-0.17525972,-0.02494376,0.004944938,-0.1080889,0.12051446,0.28349957,0.2253636,0.13941301,-0.09654563,0.8929618,-0.10357884,0.43243572,-0.19004059,0.07811628,-0.07653557,0.053938728,0.017075675,-0.19992365,-0.34330097,0.2391292,-0.17492403,-0.033493042,-0.17490952,0.14475441,0.0024430412,-0.047403608,0.01209586,-0.1359073,1.1537389,0.05630803,0.012523651,-0.2722713,0.16822842,0.2765372,-0.029029028,0.15153313,-0.02746146,-0.18195711,-0.1212725,-0.06368474,-0.14297049,0.10098158,0.054611206,0.11951991,0.0011781965,0.21943665,-0.22010586,0.097590856,-0.15698025,-0.15682112,-0.09080124,0.012517111,0.8747777,-0.19681767,0.015734809,-0.12471036,0.25179583,-0.18033436,0.2606855,0.050831933,-0.21405683,0.29608536,0.0990666,0.05614533,-0.07343837,0.06988744,0.2506278,0.09053821,-0.1243515,0.20274462,0.14518192,-0.13680159,-0.06919425,-0.07287379,-0.01159995,-0.15199716,-0.10597066,0.03452519,0.086757116,-0.10880443,0.025722776,-0.22921535,-0.20587158,0.18488094,-0.39385334,0.39414543,-0.13312149,0.32622963,-0.089782715,0.28227234,-0.24150522,0.15430777,-0.12796047,0.11051451,-0.025279453,-0.031397957,-0.21858189,-0.35457394,-0.072291784,-0.14560373,0.04206889,-0.0064833504,0.0572052,-0.2781067,-0.05838149,0.13778795,-0.014432634,0.04070609,-0.22463825,0.3406699,0.13521685,-0.3329348,-0.20078823,-0.06760897,-0.070667915,-0.052036285,0.26708984,0.33338276,0.017459733,0.020566668,0.123261586,-0.30851528,-0.13813782,0.24804245,-0.17392404,0.11749215,0.11841856,-0.034732003,0.1293226,0.06535121,0.124208726,-0.037186213,-0.32479313,0.15275519,-0.5535627,-0.19733974,0.28277153,-0.09897722,-0.036523003,-0.6943185,0.17198671,-0.1250147,-0.11929103,0.29165602,0.2636457,0.08459473,-0.09073325,0.054153986,0.06965746,-0.11134938,-0.12367303,-0.005516597,-0.25477818,0.079794474,0.0065898895,0.0560815,0.067952834,0.015605382,-0.88124305,0.090707645,0.08708191,-0.09915161,0.9272112,0.14311872,-0.15851484,-0.1345568,0.36299896,0.09816415,0.050085068,-0.00010367802,0.06956373,-0.14984348,-0.8641881,-0.27015904,-0.06642369,0.17325266,-0.16279657,0.11617606,0.15667725,-0.20072256,-0.03891645,-0.06729289,-0.54033554,0.23766436,-0.22402838,-0.0019509451,-0.06464781,0.19597735,0.89177597,0.46679252,-0.034104485,0.3137839,0.28924233,0.30322266,-0.2110138,0.04091835,-0.18319975,1.6633214,-0.16952814,-0.39350238,0.039013725,-0.2628686,0.039546967,0.06281049,0.08896528,0.20858328,-0.45323834,-0.1397269,0.19000898,-0.03627232,-0.083014354,0.06702968,0.31339374,-0.0037979397,0.048027582,0.2833688,-0.20862253,0.002292088,0.196761,0.44882637,-0.07106236,-0.18604878,-0.0996358,0.014457703,0.1714107,-0.01295226,0.2896467,-0.2087991,-0.13516235,0.19786072,-0.10524423,0.07842799,-0.23855154,0.5546134,-0.09608241,-0.42393276,0.213768,0.25510678,-0.027702332,0.0039389473,0.9053737,-0.020398822,-0.17421934,0.041364398,-0.074035645,0.089920044,0.24180712,0.3913836,0.14243099,0.1943948,-0.06912667,-0.020821707,1.2561733,-0.103684016,0.2087555,0.253782,-0.12590681,-0.10637338,-0.022830145,-0.45464215,-0.0498006,0.21565983,0.18496267,-0.35847256,-0.12388665,0.18759115,-0.33479133,0.11224801,-0.11290468,6.212507e-05,-0.2571542,0.030180795,0.07189669,-0.3433511,0.25097004,0.4062271,0.05433219,0.07579259,1.0418265,0.101825714,-0.119248524,-0.07646615,0.08726283,-0.0048541343,-0.14734758,0.12034934,0.046746664,0.20426287,0.21588135,-0.18754141,-0.26119122,-0.26498848,-0.029429844,0.1770431,-0.1911632,-0.1854902,0.04850769,-0.09221758,0.25305176,0.3375037,0.030574117,0.0019498552,-0.47535923,0.009586879,-1.74646,0.15147209,0.0369339,-0.07207721,0.8774589,0.010563442,-0.038736615,-0.022691999,0.09270586,0.2962562,0.25227028,0.016082764,-0.07966696,-0.021464756,0.09436362,-0.010502679,0.02627945,-0.21271951,-0.06545802,-0.06291171,0.0494739,-0.23014614,-0.40202114,0.17115293,0.19897135,-0.29467556,0.04945755,0.20032501,0.03766523,-0.012914385,-0.15121678,0.18763515,-0.085960016,-0.1307918,-0.08949007,-0.062194824,0.1978896,-0.11420536,-0.05259146,-0.23801817,-0.06157575,-0.07903726,0.27238545,0.15917587,0.025953839,-0.5378418,0.076337434,-0.15729414,-0.0605011,0.0666196,-0.064593725,0.018554688,-0.091717854,-0.030700684,0.11993844,-0.05651365,-0.31399536,0.11467961,-0.071393356,0.020124163,-0.20069231,-0.37130955,0.24898256,0.08023507,0.19405256,-0.24426706,-0.4167851,-0.064689636,-0.14803492,0.20305456,0.01298666,0.02363859,-0.21980286,0.13561575,-0.16352518,0.27143887,0.37337384,-0.07870265,-0.3840392,0.06738554,-0.039047785,0.58334786,-0.19778879,0.58708847
cake,0.20436198,0.3467285,-0.06503525,0.123194374,-0.045602035,0.057953898,0.27820638,0.24077962,0.5544759,0.23579915,0.19776052,0.09159495,0.31775767,0.13606058,0.41050923,0.032088723,0.75737,-0.08595886,-0.00013122559,0.0014119466,-1.284733,0.27990112,-0.07084147,-0.44749755,0.45067546,0.13482055,-0.3317383,0.3696533,-0.36659342,0.40753174,-0.045703124,-0.041146852,-0.06503003,-0.047528584,0.6304118,0.22238973,-0.32218832,0.41757405,-0.29592055,1.0672201,-0.55981445,-0.0335378,0.14883956,-0.08517609,-0.08150355,-0.55136514,0.59893394,0.15699768,-0.06451378,0.049868267,-0.49218953,0.15698038,-0.20539144,-0.0205424,-0.22332357,0.17995097,-0.21161397,-0.35149333,0.11441091,-0.047296524,0.15057169,-0.31898716,0.057174172,0.36728516,0.1512024,0.25851643,0.06951383,0.26549885,-0.045224253,-0.17341715,0.08482361,-0.37762043,-0.27981365,-0.0006184896,-0.16162314,0.04746806,0.2129453,-0.5067912,-0.1500234,-0.08528035,-0.088002525,-0.36467284,-0.098957315,-0.2589864,0.0053863525,-0.06052653,0.17071533,0.09950269,0.20705363,0.11222915,0.08803711,-0.12097778,-6.1153646,-0.0056325276,-0.3345164,-0.13571778,0.10119069,0.047714744,0.22571005,0.2683543,-0.055714417,-0.17187525,-0.09977722,0.21314697,-0.1844869,-0.19471334,1.0855306,-0.025269063,-0.097853646,-0.40294597,0.06695251,0.23947348,-0.33081666,-0.54594725,-0.055166624,0.0142150875,0.12774047,-0.046009574,0.042401124,-0.5668132,0.32312012,0.23407593,0.061990738,-0.17402954,0.07225952,0.1617808,0.29081216,0.09478454,-0.23081462,0.4280721,-0.15452881,-0.0027033489,-0.2067688,0.826888,-0.008705648,0.0059346515,0.11401443,-0.20977452,-0.017279562,0.25579426,0.22232056,-0.09602865,0.12850457,0.26790974,-0.06499939,-0.25042114,-0.17921461,0.05204773,-0.18633525,0.29419354,-0.1411148,-0.20775655,0.38447672,-0.42401123,-0.005122884,-0.27360433,0.31871948,0.03896688,-0.18118897,0.054036967,-0.49685058,-0.10073242,-0.5629313,0.24308065,-0.15892233,0.040592447,0.37631023,0.21925558,0.022289021,-0.06944606,-0.22219136,0.09340414,0.14795533,-0.73020834,-0.4890788,0.4741862,-0.40872803,-0.0063919066,0.739327,-0.3575765,-0.01722056,-0.17408548,-0.5490397,0.05670166,-0.30745035,-0.066239424,0.10798035,0.06159363,-0.041001383,0.20699869,-0.17112936,0.36665446,-0.057757568,-0.1076355,0.29852906,0.2649821,-0.14654846,-0.1379577,-0.286438,0.05572408,-0.0057607014,-0.17150472,-0.0730957,0.063697055,-0.0822113,-0.6040527,0.17235947,-0.3337565,-0.16399333,0.051135253,0.08315938,0.58740234,0.37088215,0.32922566,-0.36794636,-0.11929219,-0.2160848,0.14810994,0.5201945,-0.034076564,0.18874511,0.26031086,-0.19047648,-0.22091344,-0.4416504,-0.080434166,-0.2632614,-0.30285236,-0.08227336,-0.16729228,0.11210429,-0.04113973,-0.13688354,0.34349364,0.27410176,0.39776,0.3882487,0.17184016,0.35419923,-0.1641683,0.020389812,-0.036113992,-0.019448852,-0.10023193,0.1584961,-0.07983882,-0.06962535,0.14121908,-0.30311114,-0.06422322,0.2776479,0.171462,0.18721008,0.064426675,-0.089473724,-0.16057739,0.36005682,0.17534485,-0.49009603,0.21194407,-0.47476095,0.12987874,0.20370382,0.09423828,-0.24842733,-0.34752196,-0.014598592,0.12945405,0.09906718,-0.3136495,0.37219647,-0.025580533,0.13293558,-0.19332275,-0.19564208,-0.14188741,-0.2864909,-0.07299986,0.0845871,-0.04743131,0.15972239,0.07013346,0.1110026,-0.22096965,-0.50746256,0.06400909,-0.1101092,0.36609498,-0.12063395,0.12269338,-0.21463674,0.09448115,0.07786407,-0.2919403,-0.73063153,0.3922282,-0.41529134,0.18580373,0.25771028,-0.07045059,0.105797194,0.0144317625,-0.25663453,-0.054307558,0.4200114,-0.10500793,0.20312093,0.3243571,0.11390762,-0.33210245,-0.1610911,0.22209269,0.82522786,-0.32469076,0.32834408,-0.09204559,0.459139,0.2732503,-0.058451336,0.1641215,0.4204834,2.00625,0.054161582,-0.27999777,0.406191,-0.008627129,0.17907003,0.025199382,-0.124564104,0.06559703,-0.1451889,-0.5537435,0.054018147,0.09065043,0.05483297,-0.31683248,-0.0013348897,-0.1143987,0.28623047,0.22230835,0.1283563,-0.26118165,-0.18434468,0.12127037,0.3190674,0.4117452,-0.27521884,-0.28196818,0.32629803,0.35912272,-0.1551239,0.17926127,0.14969076,-0.43137714,-0.15995026,0.004494222,0.12921956,-0.25085667,0.17325236,0.14515686,-0.65436196,-0.11866048,-0.075573474,0.16528663,-1.2313313,0.115568034,-0.045377605,0.9031087,0.396226,0.23737793,0.18570395,-0.1388738,0.47267252,-0.13021444,0.013614909,0.13984172,1.3220378,-0.027964273,-0.015161132,0.16608073,0.014026133,-0.6852051,0.00055491127,0.2763631,0.09131241,-0.2721883,0.24122468,0.26715901,-0.34221852,0.5883606,0.5702474,-0.062076822,-0.07615356,-0.15483755,-0.29862976,-0.49116212,0.10974019,-0.008666992,-0.11954142,-0.11199341,0.40908813,0.21164653,0.17251028,0.06827596,-0.015908305,0.00877889,-0.08200379,0.33822632,0.30624592,0.19543253,-0.03565496,-0.05642395,0.12678833,0.25197142,-0.38358054,0.0986674,0.03851547,-0.25596923,-0.7247396,0.22242025,-0.011240514,-0.19069876,0.31318766,0.12390137,0.073408,0.19321111,-0.28606555,-0.1630422,-0.99449867,0.044277444,0.39303386,0.2676717,1.0950196,0.5807943,-0.0021911622,-0.43361816,0.03573405,-0.07611707,-0.33797202,0.26996866,-0.0075960797,0.3128418,0.34917933,0.2666677,0.5614746,0.027222443,0.2421102,-0.19774678,0.09289042,0.28385362,-0.46767578,0.06744995,0.1503357,-0.5339884,-0.18192749,0.20228882,-0.45633546,-0.11453044,-0.10872504,-0.45656127,-0.14131369,-0.2952352,0.08622538,-0.035889182,-0.11833089,-0.4238688,0.27601802,0.35945028,-0.09534505,0.18764165,0.19354655,0.15503897,-0.061682127,-0.12783864,0.19779918,-0.5113037,-0.29152018,-0.055229187,0.8875,-0.23185691,0.016926067,-0.09627482,0.07172241,0.13843587,-0.071570076,0.066249594,-0.022083538,0.31125894,0.057138063,-0.3231125,0.15188135,-0.20142822,0.064983115,-0.426945,-0.087553404,-0.3926318,0.3236674,0.3665202,0.052077357,0.16793035,0.34664917,-0.028131103,0.113145955,0.187382,-0.067660525,-0.15102272,0.013220724,0.013012695,-0.068934634,0.44584146,-0.3831772,-0.22157492
toast,0.3929772,-0.36057222,0.17348245,0.12614323,0.28398955,0.31752717,0.188162,0.56265026,0.39727312,0.067373425,-0.13463005,-0.5029109,0.43264535,-0.029475871,0.20394193,-0.32523286,0.73916394,-0.013541002,0.06327233,-0.033292916,-1.5999099,-0.0046175444,-0.34472656,-0.22593337,0.50196254,0.26934814,0.1764949,-0.045621432,0.22479248,-0.078178994,-0.18112887,0.10832332,0.08852093,-0.028139554,0.49549043,0.13744412,0.20864986,-0.43165,-0.10151848,0.8070021,-0.5201604,-0.018756572,0.15690613,-0.17008972,0.16532311,0.18707745,0.38886908,0.12556809,0.122583315,-0.117377646,-0.33260286,-0.38185003,0.2794926,-0.25712585,0.06675368,-0.35130662,0.26414606,-0.3048706,-0.18055314,0.00737381,0.19650973,0.00780311,-0.23174813,-0.2157405,-0.07465216,0.29842436,-0.01566168,1.1078726,0.24641067,0.09490849,-0.45135027,-0.34861872,-0.17342435,0.2420936,0.40798715,0.2266517,-0.09613859,0.17293137,0.16569167,0.2321296,-0.106012195,-1.0001127,0.04528222,-0.2925914,0.019498091,-0.23087604,0.26766497,0.062421944,0.6946176,-0.019048838,0.23780823,0.19107291,-7.3858175,0.6180138,0.1856713,-0.35808903,-0.23966628,0.388085,-0.32854754,0.06965637,-0.16879037,-0.28254113,-0.82455677,0.006757883,-0.8850661,-0.031893235,-0.0031245304,0.40243766,0.026635574,0.11374312,-0.115169816,-0.05910903,-0.059849665,-0.5960036,-0.020061787,-0.31488037,0.13037814,0.34700835,0.2035006,-0.4274151,0.20977753,0.10723642,0.08939596,0.30632752,0.34090012,0.2967858,0.048459273,-0.1883627,-0.1859031,0.14018777,0.3763897,-0.21108495,-0.16254425,0.9815204,0.049106598,-0.042398307,-0.056065485,-0.4587778,-0.074840836,0.3652907,0.21642831,0.31629357,-0.18752347,0.28823617,-0.18400867,0.3570545,0.5354849,0.0033179063,-0.15571536,0.01129033,-0.1404689,-0.14221191,0.78617036,-0.2909845,-0.20230404,-0.31294602,0.25340155,0.10227262,-0.32662728,-0.018106313,-0.21461369,0.08878165,-0.18341945,0.06835468,-0.039402448,-0.15623944,0.43270874,-0.30176485,-0.28024057,-0.25286394,0.14474091,0.099961504,0.27795762,-0.32034066,-0.020530114,0.3178852,-0.30279306,0.25621384,0.41301668,0.17325085,-0.26110137,-0.53046125,0.013718825,-0.20227051,-0.35706976,-0.005353781,0.28091666,0.22212102,-0.12684983,0.27026838,0.13129953,-0.027425326,0.32936448,-0.15314542,0.5543307,-0.061993524,-0.26415545,-0.015566606,-0.5921725,-0.15912686,-0.10023381,0.022740621,0.10878695,-0.055445746,0.37107965,-0.4164147,-0.18678284,-0.16245915,0.2666098,-0.089984015,-0.040030845,0.65322644,0.032661144,0.043916557,0.07822359,0.36999983,-0.020606995,0.3002846,0.3125141,0.18015143,0.056951378,0.3482267,0.06673754,-0.29828936,0.41972467,0.14080341,-0.24534725,-0.26136428,0.24034706,-0.084164545,-0.30055588,-0.18681923,0.17395255,0.078956015,-0.33841646,0.0513021,0.24205604,-0.24235417,0.3164532,0.27943304,0.12454157,0.028484931,0.31614333,-0.19033168,-0.24205135,0.017599253,0.29858634,0.30778152,0.07867725,-0.4092642,0.47121957,0.1431556,-0.328125,-0.049491003,-0.20454758,-0.13985737,0.39111328,0.33519334,-1.3095328,0.08692228,-0.4078369,0.014222365,0.36712176,1.1096191,-0.23247264,-0.18399283,-0.11689993,0.2824754,0.13174203,-0.27038574,-0.35311186,-0.027376322,0.030208882,0.24626277,0.2946161,-0.09983356,-0.07163063,0.43083307,-0.0047349194,0.20259564,0.63638073,0.14165203,0.044736423,0.19604492,-0.3891977,0.43283316,-0.4982476,0.118781164,0.071668774,-0.16929777,0.17324212,-0.0103190495,-0.14318965,-0.1671307,-0.3577881,0.18859394,-0.024775578,0.28668684,0.43700233,-0.1617995,-0.048411444,-0.27809027,-0.35107422,0.21637784,0.057345755,-0.21800937,0.13844769,0.18966675,-0.03387334,0.050633945,0.29086655,-0.0017970159,0.9819336,-0.30197847,0.14173068,0.47624794,0.29456037,0.14077054,0.2078247,0.09862537,0.24945714,1.3398813,-0.3104367,-0.21206783,-0.026054969,0.19510709,-0.032913208,0.013819447,-0.07162857,0.26286432,-0.4148137,-0.09619728,0.031979486,-0.102912314,0.14352652,0.16533954,-0.25238037,-0.025770921,0.333975,0.09353462,-0.32522818,-0.72558594,0.20337619,0.3834698,-0.22421382,0.059689447,0.12040593,-0.47573617,-0.06938406,-0.065503635,-0.2738941,-0.15966885,-0.06477708,-0.0024437536,-0.3096161,0.13468406,-0.41193098,-0.58805025,-0.18886624,0.5577862,-0.9144381,-0.053264618,-0.23461914,0.41979042,0.036185887,-0.02321082,0.034119826,0.35074556,0.3674692,-0.45780122,0.01318242,-0.23881707,-0.11779375,0.23453464,0.070560165,-0.33445975,0.7292293,-0.07975651,-0.69195086,-0.024831625,-0.1517017,-0.70682466,0.16038162,-0.15725473,-0.13244277,-0.2489401,0.19560154,-0.15841675,-0.44344977,-1.2456641,0.09139076,-0.07371403,0.15362021,0.29691726,-0.29707688,-0.021961065,0.06385921,-0.47775972,0.15242943,-0.17378117,0.046412833,0.1408128,-0.11400516,-0.024158917,0.06387916,-0.097156234,-0.19586006,0.33600557,0.34979248,-0.36025766,-0.085848,0.058454,0.065648004,0.3849722,-0.3382756,-0.14132397,-0.19208233,-0.2644806,-0.1818786,0.27573395,0.14064613,-0.35698053,0.0014039003,0.49176496,0.09709637,0.0076481747,-0.09979013,0.10888672,-1.2443659,0.28212798,-0.62946963,0.29970258,0.54958874,-0.36030462,-0.35771295,0.099379316,0.20794208,0.18389188,0.16514,-0.2721182,0.1788776,0.30162752,0.2453226,-0.11164328,0.03250826,0.036583535,-0.2151677,-0.022722244,0.24241969,0.051805936,-0.062401406,-0.19217835,-0.092595026,-0.45665565,0.2107943,0.11386101,-0.19217624,-0.21318406,-0.18713143,-0.47706956,0.035999004,-0.43545297,-0.0052994946,-0.26624006,-0.022742786,-0.33068377,0.09366138,-0.043137915,-0.4299645,0.21521583,-0.027190208,0.4556556,-0.33169556,-0.41252723,-0.25653547,-0.1700956,-0.04273928,0.14720154,0.14438805,-0.3868643,-0.40497297,0.15973252,0.37581694,-0.19930209,0.027173556,-0.22691463,0.21377094,0.6761874,0.10037349,-0.18200214,0.17741981,-0.43765494,0.54458386,-0.28665864,0.2754188,0.08323787,0.4342135,0.19043674,-0.48844087,0.20370014,0.04937539,-0.14486313,-0.46804574,0.38552153,-0.033828735,-0.14251944,0.18992732,-0.17601483,0.1402048,0.44956854,-0.47107872,0.21000084
alligator,0.44597515,-0.5518799,-0.063107625,-0.12601307,0.38233295,-0.14180538,0.20438276,0.45677075,0.50052315,0.55688477,0.1461694,-0.21690586,0.062322836,-0.40329415,-0.16222708,-0.30591393,0.26707187,0.29686627,0.20494093,-0.15831539,-0.5084403,0.3386187,-0.08158003,-0.42944336,-0.0590586,-0.18913269,-0.05228969,-0.25128174,0.33382526,-0.5875419,0.09892082,0.16840145,0.17095783,-0.0129530085,0.13627188,0.23579843,-0.027278082,0.089493886,0.018599374,1.8847656,-0.0101420535,0.13388716,0.035557337,-0.00072656356,-0.06421334,0.30808258,0.2387085,-0.19472721,-0.34558105,-0.29313007,-0.302051,5.0953455e-05,0.14186205,-0.44421387,0.18342426,-0.11934335,0.09959371,-0.07137626,-0.19503567,-0.051993232,0.60688126,-0.48571777,-0.57580566,0.2716288,0.09509496,-0.09267589,-0.12402998,0.6962716,0.19557407,0.20867702,-0.13856833,0.17292568,0.07544409,-0.354623,0.06990814,-0.58382744,0.0449573,-0.14341204,0.014226096,-0.27297974,0.34751675,0.071047105,-0.073056355,-0.5214931,0.47103447,0.35258266,0.16147614,0.014496987,0.43470982,-0.085627966,0.46962193,-0.038576398,-7.108817,0.35609326,-0.17252895,0.015754905,0.1590617,0.16695404,-0.9929548,0.2055882,-0.12122876,0.120447434,-0.43838066,0.2532328,0.07141863,0.097494945,-1.6273019,-0.021944387,-0.06497955,-0.44353375,0.0587071,0.19390215,0.10471126,-0.41607666,0.00020774773,-0.4825788,0.72509766,-0.31864494,0.13341387,-0.22696686,0.45415825,0.2563651,-0.11331177,0.10989489,-0.20458548,-0.2580087,-0.01689795,0.073394775,0.31003243,0.08572769,0.092322215,-0.2191511,-0.199149,0.9433245,-0.09640438,-0.15622003,-0.08418601,-0.82387,0.010100501,0.13625567,-0.07447869,-0.35394287,0.16138878,-0.080013275,0.28239223,-0.29219708,-0.067830496,-0.38008335,-0.20407541,0.5776542,-0.29169574,0.1310403,0.26672363,-0.17491804,0.08102131,0.16264561,0.123408996,-0.2574659,-0.5078125,0.19140188,-0.7733329,-0.37176514,-0.03665052,-0.30113575,-0.03346937,-0.62629044,-0.34088898,0.3117763,-0.3548584,0.11688668,-0.16549246,-0.34242466,0.18626295,-0.7957589,-0.37312534,0.23074886,-0.93209404,0.09708296,-0.29479107,-0.35003662,0.51379395,0.25689262,0.14830017,0.13511221,-0.3771275,0.16691348,0.10992813,-0.30738178,0.0018724714,0.20477186,-0.0665602,0.30045864,-0.053271703,0.36475483,-0.103208266,0.23428345,0.25611877,-0.14318848,-0.43859428,0.52007186,0.09711456,0.40156773,-0.072806224,0.56492394,0.21432932,0.026904242,-0.05985587,-0.2764217,0.18284607,0.13078526,0.014363698,-0.18031801,-0.1359099,-0.113827296,-0.34783596,-0.152965,-0.2507496,-0.0028424945,0.3485805,0.32365036,0.088611804,0.94904435,0.13988169,-0.16462162,-0.12260927,0.14432962,0.0983854,-0.008345468,0.30476597,-0.05763081,-0.4657244,-0.4146903,-0.15256174,0.37349156,0.18648855,-0.5962873,0.24214745,0.0040381295,0.19952175,0.14476721,-0.1638347,0.031428404,-0.056419373,-0.07083021,-0.1068731,0.32940674,-0.17305483,-0.60885185,-0.10025569,0.02421236,-0.11610957,0.21522522,0.45989338,-0.48936245,-0.45356968,-0.16935948,0.19607244,-0.09159251,0.4585397,0.072581016,-0.00819724,-0.4081944,-0.11681093,-0.26260594,0.16005598,0.05993625,0.043000903,0.11924525,0.27373832,0.16149685,-0.39833286,-0.08457593,0.28288487,0.12869917,0.01777431,-0.3322901,0.10549818,-0.16845839,-0.3344029,-0.10919257,-0.21430752,-0.37789044,-0.13762501,-0.43481445,-0.13881738,-0.3920288,-0.37353516,-0.5470668,-0.24302647,0.028135028,0.06320041,0.14835548,-0.035916466,-0.24847957,0.011737279,-0.047634125,1.2852957,0.33871025,-0.060029168,0.5319127,-0.032685418,-0.3609314,-0.21056472,-0.10294179,0.21684374,0.052333288,0.06173706,0.29824612,0.46939522,-0.016761234,-0.19692121,-0.30808803,0.9426618,0.19382095,0.08543396,-0.30605426,0.18223898,0.46538433,-0.17133005,-0.28749084,0.2951767,0.7506278,0.05223356,-0.5084054,-0.174251,-0.88490516,-0.35045624,-0.32447162,0.15343693,0.19147165,-0.16692789,0.17018835,0.18110766,-0.30179706,-0.21880452,-0.4848284,-0.0051017487,0.26370892,-0.2685983,0.22416387,-0.25166103,-0.18227713,-0.2586147,-0.056208473,-0.009842737,0.13688333,-0.03765869,-0.1866374,0.14989908,0.14757429,-0.18312073,-0.3090733,-0.035436902,-0.12917764,0.098512374,0.051644463,0.08997454,-0.9439174,-0.36633518,0.19646345,0.24348013,-0.60349816,-0.031205313,0.43060303,-0.42657036,0.39425224,0.12550354,-1.0102888,-0.4866856,0.38564628,-0.1089532,-0.037741523,0.020365579,-0.15505981,0.018476486,-0.24559239,0.8070243,0.36550468,-0.7207206,0.07707433,-0.16601671,-0.08723014,-0.28730503,-0.019332886,-0.05382538,0.42776924,-0.5953369,-0.07193156,0.15826853,-1.4495326,-0.021398272,-0.5433434,0.17976053,-0.22671291,-0.31566948,-0.23817444,-0.017046247,0.31274414,-0.84688896,-0.6564767,-0.5436837,0.21928623,-0.7563651,0.30202845,-0.0073928833,-0.124420166,-0.3238874,0.15302059,0.18309021,0.060804777,0.69984657,-0.25254822,0.24957275,0.5969238,-0.06846237,-0.14685003,0.5504848,-0.099899836,0.17969619,0.06003189,-0.026054928,0.09011732,0.2583422,-0.06792232,0.2619062,-0.23845781,0.075712204,0.2522779,-0.14293562,0.0125692235,-0.24672644,-0.03078665,0.062729426,-0.09161554,-0.06651863,-0.33254132,-0.50891113,0.043865748,-0.3014352,-0.22239044,-0.04623413,0.26022774,0.015803745,-0.21109207,-0.08573369,0.18210493,-0.12934658,-0.21422032,-0.003161839,0.1061009,-0.26748222,-0.17597307,0.18718393,-0.0429524,0.09622411,-0.2915606,0.40992084,-0.11201804,-0.06742614,0.06964656,-0.084764205,0.46486992,0.2773045,0.07628087,0.41310337,-0.113961354,-0.23809052,-0.11226436,0.33042473,-0.016985757,0.1629606,-0.091535844,-0.46318707,-0.07606806,-0.0062582833,-0.04127584,-0.5066441,0.36000714,-0.1662283,0.08835439,0.1273395,-0.20720564,-0.047721863,0.29898506,0.23223005,-0.21246992,0.003902367,0.21334974,0.07915824,-0.15456364,-0.010212489,0.09604536,-0.06586129,-0.3673837,0.24762617,-0.1038505,-0.042051043,0.049967628,0.22768728,-0.101697646,0.04745143,0.33826774,-0.24618967,0.2390093,-0.08783395,-0.504412,-0.044204712,0.26668984,0.053887505,0.30548805,-0.11622197,-0.15221405
dryer,-0.20575768,0.16785939,0.17345725,0.26882935,0.16886012,0.16550191,0.26824698,0.33526358,0.17835236,0.005620321,0.27673897,-0.36694336,0.39902243,0.04858319,0.28064474,-0.4303945,0.07031504,0.2023061,0.005800883,0.028852463,-0.25809732,-0.040854137,0.27937064,-0.11647161,0.2486136,0.28794226,0.19206238,-0.37226358,0.17157936,-0.05487569,-0.34858704,0.18522882,-0.027460733,0.21166737,0.06985601,0.21812947,-0.019530693,-0.58772784,-0.3058904,0.588857,-0.058354694,0.06166585,-0.21339925,-0.19539611,0.045951843,-1.3260905,-0.17363994,-0.12568665,-0.32152176,0.16769664,0.3699646,0.03881073,0.13733546,0.19854873,-0.119200386,-0.054140728,-0.7550252,-0.14594142,0.32243347,-0.03168297,-0.13232899,-0.4526774,0.2174638,-0.031047186,-0.12074026,0.17641592,0.74104816,0.53688556,-0.35920715,0.0071344376,-0.371521,0.32406107,-0.35400772,-0.21971004,-0.35149893,-0.07914861,-0.03439331,-0.039670188,0.25680032,-0.009250641,0.19216283,-0.041344326,-0.13645063,-0.22849782,0.18082936,-0.19809215,0.91729736,-0.30634436,-0.23516338,-0.15550232,0.23894246,0.3331655,-6.844401,-0.62249756,0.028378805,0.14298058,0.3537979,0.22568195,-0.012832642,0.47656503,0.38237,-0.29508463,-0.32571158,0.541097,-0.06003316,-0.42238364,-1.6741537,0.21828206,0.094963074,-0.092253365,-0.049619038,-0.12988536,0.009577115,-0.1672287,0.12125969,-0.022743225,0.1423289,-0.016300539,0.14356677,0.5890503,-0.0668141,-0.12212499,0.10325559,0.18227132,0.15831693,-0.12527402,0.3523763,0.049500782,0.07453791,0.2792562,0.30246353,-0.19957733,0.116062164,0.8706868,0.3051262,0.16669719,0.20929973,-0.10707855,-0.2872696,0.22781627,-0.0038986206,-0.18045759,0.23870087,-0.08403651,-0.4083557,-0.06091054,-0.32546997,-0.06327057,0.0825545,0.010613759,0.07737223,0.23199145,0.057689667,-0.0045140586,0.009145101,-0.05496788,0.2994876,-0.011761983,-0.05202484,-0.012897491,-0.29631552,-0.05393465,-0.00945441,0.23844147,-0.00696365,0.06461652,0.2692032,-0.16664886,0.24187215,-0.2638054,-0.038907368,-0.23734283,0.01375707,0.0769755,-0.044035275,0.24458568,1.0519205,0.041127842,0.21542485,0.09332927,0.20394643,-0.6656901,0.11061414,-0.05282116,-0.28664175,0.31771788,0.18759155,-0.0097300215,-0.3627777,0.044436138,0.0067367554,-0.12459564,-0.06065591,0.3640035,0.14528911,-0.1796112,0.03950119,-0.11042277,-0.8767586,-0.44684854,0.2733256,-0.29856873,0.19922638,-0.08771261,-0.16188876,-0.18036461,0.07676569,-0.1871465,-0.12271595,0.16072655,-0.03784752,0.5726013,0.07736047,-0.23016739,-0.13795345,-0.46651205,-0.056350708,0.20544434,-0.018094381,0.10564804,-0.3979416,-0.57493085,-0.0733312,-0.575887,0.034124058,0.18244426,0.10561752,0.03403155,0.21401978,0.08547735,0.23003928,-0.038823444,-0.09816233,0.8262329,0.15333302,0.57074994,-0.2220726,0.113899864,0.0028584797,-0.30670676,0.48279318,-0.10298411,-0.08363342,-0.2156442,-0.38389078,0.97802734,0.42199707,0.2729918,-0.07091013,0.21351337,0.21447627,0.08986028,0.18077596,-0.07606125,0.035166424,0.07555262,-0.1798172,0.117631115,-0.4464868,0.06899134,0.057623547,0.050364178,0.025495052,0.71864444,0.2345454,-0.19936693,-0.2692019,0.20430143,0.21656291,0.13760948,-0.5062663,0.17702007,0.058680218,0.06635666,-0.18191688,-0.17069626,-0.24754207,0.045987446,-0.054968197,0.32864633,0.4203186,0.071061455,-0.13398106,0.047339123,0.11782583,0.22849147,0.027805945,-0.02145958,-0.4223938,-0.2561086,0.28876528,-0.26253128,0.28704453,-0.026486397,-0.058057785,0.0956556,-0.2470557,0.42919922,0.23287964,-0.020081997,-0.0772113,-0.009410858,-0.5351359,-0.13322322,0.05271848,-0.5459493,-0.13278198,0.42388916,0.14167278,0.11115011,0.04148674,0.7121989,0.8708089,-0.0903066,0.086085,0.035927694,0.12871806,-0.03176753,0.39864096,-0.26880646,0.4981791,1.1060587,-0.034201305,-0.15430069,-0.17737453,0.15820694,0.17876561,-0.47910562,-0.32965088,-0.06336721,-0.043444317,-0.1283385,0.140728,-0.25454965,-0.08282598,0.19517136,0.21035767,0.289683,0.068365894,-0.19922383,0.061528523,-0.27797446,-0.109799705,0.28673086,-0.27306938,-0.09004275,-0.5628662,-0.061290424,0.34000015,0.02061081,0.24444962,-0.19562404,-0.66556805,0.5357768,-0.1595459,-0.10345459,-0.58671063,0.8256836,0.13396199,-0.37027994,-0.70110065,0.30449423,-0.08756701,-0.107549034,-0.18297322,-0.004297892,0.07034048,-0.44260153,0.15309624,-0.08278545,-0.06954193,0.11712726,-0.09442266,-0.27604547,0.3443807,-0.54054767,1.1606039,0.00054295856,-0.166605,0.09359995,-0.143562,-0.26717505,-0.26208243,0.0434494,0.382967,-0.35103354,0.11653137,-0.16257732,-0.110554375,-1.0391439,-0.13457505,0.19923528,0.11713791,-0.043451946,0.12515259,-0.4588267,-0.047869366,-0.51239014,0.17652638,0.02868112,-0.22086334,0.1499532,0.8017375,0.027863821,0.011495332,-0.09853935,0.04068057,0.29014334,-0.31472555,0.09688822,-0.15184529,-0.169439,-0.13111794,0.008527855,-0.027769089,-0.15078719,0.052629154,-0.00023778279,-0.09341494,-0.45059204,-0.018866858,0.032007854,0.44625854,0.34110007,-0.075214386,0.20295589,-0.05795288,0.12760162,-1.7978516,0.23107655,-0.26603952,0.018257141,0.5885442,0.06823126,-0.089271545,0.32479858,-0.009544373,0.025565466,0.24437968,0.31539536,0.24499767,-0.033323843,0.3556668,-0.25845847,-0.2398529,-0.18972652,-0.13324118,0.29491392,0.22041066,-0.36642203,0.60117596,0.05381775,0.21006112,-0.20036061,0.056739807,0.22059377,0.22712453,0.010910034,0.37754187,-0.289711,-0.41160202,-0.079369225,-0.052029926,0.13322194,0.36514282,0.030232111,0.035397213,-0.31126913,-0.19499047,-0.22875214,0.43250528,0.078801475,-0.048656464,-0.0872879,-0.024841309,-0.0036760967,-0.33141676,-0.21126938,-0.272082,-0.08895874,-0.22025745,-0.029443583,0.17150116,0.42071533,0.0012073517,0.32279715,0.18603484,0.30975342,0.017930666,-0.033546835,-0.44210815,0.2426122,0.29637146,-0.45105997,-0.09958903,-0.3007202,0.089393616,0.47506714,0.030635834,-0.16216023,-0.0034065247,0.15609233,-0.062140148,0.6719157,0.43856654,0.05584844,-0.071362816,-0.044460297,-0.11646906,0.40364584,-0.19081624,0.03514862
squirrel,0.29523033,-0.15664347,-0.2758887,-0.17650059,-0.19185312,-0.0194664,0.42497906,0.41822162,0.12891279,0.3182896,0.07632882,0.01812608,-0.24333517,-0.31756538,-0.001963411,0.03123038,0.2304456,0.28428432,0.17685373,0.2810146,-0.30786568,-0.27426583,0.14055742,-0.2964396,-0.03653608,-0.074054174,0.21302795,-0.26269096,-0.02743571,0.11010204,0.30866787,-0.32235283,0.29496112,0.11330741,0.55953544,0.19731858,-0.08530678,-0.10090964,-0.20744541,1.5147182,-0.20232283,0.21130098,0.23758371,0.13274166,0.22906058,-0.8859733,0.408456,0.09928029,0.055210862,0.2781372,0.21393694,0.1935749,-0.38829476,-0.50123817,0.27710834,0.0066457475,0.22082956,0.4752023,-0.25289807,0.07538496,1.0377371,-0.2280862,-0.64097375,-0.27587017,-0.039424352,-0.41394043,-0.0872988,0.5216239,-0.06336648,0.26024517,-0.4462629,-0.34306553,0.23776028,-0.11092118,-0.11770303,-0.5243792,-0.266207,-0.007206508,-0.27444893,-0.32366943,0.044546943,0.30482265,0.105177335,-0.3180869,-0.24383108,-0.025599344,0.5062169,0.09639413,0.28775898,-0.35417828,0.1371678,-0.50439453,-6.689453,0.22402954,-0.23393686,0.1380806,0.10326903,0.04562705,-1.2215053,0.3477696,0.40739223,0.09343447,-0.18591091,0.03969237,0.43875504,0.24863979,-0.5486472,0.39907184,0.2302377,-0.16539165,0.22380802,-0.30221775,0.20619766,-0.1058088,-0.09879194,-0.21832275,0.20494027,0.11061096,0.45220947,0.13128117,0.37963867,0.53744286,0.2255249,0.4140625,0.12507847,-0.3513227,0.091506205,0.02821459,-0.3548061,-0.20105635,0.33277676,-0.118424006,-0.04839107,0.8977748,-0.47120014,-0.038509913,0.025959833,-0.47289166,0.29387555,0.123780385,0.00458656,-0.15582834,0.013511794,0.5855713,0.17781503,0.10957445,-0.06687464,0.23638698,-0.27243695,0.069264,-0.036108833,-0.22410162,0.25467846,-0.2909306,0.12601253,-0.03376334,-0.17511423,-0.3745815,0.12474414,0.16575678,-0.34711567,-0.2630539,0.30299595,-0.25947136,0.1380757,-0.5601458,-0.32364327,0.17629541,0.121564694,0.3158918,-0.016671317,0.17203304,0.12736294,-0.25850567,-0.21440561,-0.38560268,-0.0917293,0.20445034,0.3753139,-0.11792537,-0.20534189,0.0035710335,0.22523172,-0.12309156,0.27569145,-0.10328647,0.096441545,0.025560107,0.027149575,0.27385983,0.43702915,-0.0114887785,0.30887276,-0.041459493,0.2766612,-0.17873438,0.04812404,-0.08291626,-0.44924492,0.5085885,0.2146127,-0.007251501,-0.40599713,0.37688336,0.056392126,-0.122024536,0.073200226,-0.3120466,-0.12513828,0.14384978,-0.20764378,0.22538975,-0.4365823,0.26645878,-0.16988046,-0.09275927,-0.38262504,-0.009739467,1.0736258,0.15423693,0.7331543,0.6066371,-0.12691553,-0.20381819,-0.07751984,0.24416243,-0.08791733,0.383667,0.10889108,0.26370785,-0.08552987,0.08116204,-0.11017064,0.2617231,-0.12485068,-0.01891872,0.34503174,0.15991701,0.1192537,-0.29699272,-0.437221,0.14417431,-0.024980817,-0.2531433,0.0012032645,0.34404644,-0.21473895,-0.35831398,-0.30413055,-0.059916906,-0.16281073,0.23518589,0.5297416,-0.38404194,0.262643,-0.06278937,-0.097235546,0.30882046,-0.18288748,0.14858477,-0.14179039,0.42179653,0.042869568,0.16269548,0.28560638,-0.012521335,0.22655813,0.16524397,0.3002047,-0.3702,0.46615165,-0.0422881,0.34892926,-0.15012686,0.15790884,-0.16748483,-0.009959357,0.14679281,-0.409729,0.025740488,0.084569655,0.13205501,-0.07293374,0.13001688,-0.06884261,0.26984897,-0.80275184,0.12179457,-0.22233364,0.09815625,0.016208377,-0.3440203,0.27652413,-0.14516184,-0.19633,-0.4242641,0.038672037,-0.077185765,0.32415336,0.18679592,0.19406128,0.06736415,-0.1809142,-0.01473672,-0.22224644,0.16294752,0.44531032,0.12616076,0.7352295,0.18431528,0.09186077,-0.00090026855,0.89637977,-0.10743777,-0.0063046045,0.029304435,-0.4485212,0.25906372,0.15165602,-0.37527466,0.2950788,0.87719727,-0.08001055,0.14660862,-0.10235814,-0.29964665,-0.05822536,0.23278591,-0.16728756,0.046720233,0.29322162,-0.28186908,0.00017997196,0.009598323,-0.018858774,0.13203213,0.045443673,0.24874441,-0.41512626,0.25440174,-0.20518494,-0.32745796,-0.033303943,0.01152202,0.089884624,-0.08616461,-0.31357685,-0.0010291508,0.3932931,0.059768133,-0.90495956,-0.010658468,0.17188427,-0.6838204,-0.13666807,0.24784197,0.02102879,-0.60041153,-0.2626212,0.07184601,0.15016937,0.04101971,0.040058136,0.42357308,-0.15989044,-0.113194875,-0.030909674,-0.38508394,-0.24979074,-0.14342608,0.28134155,0.43695068,0.44340298,-0.34223285,0.09233148,-0.14852034,1.185826,0.2526714,-0.27365765,-0.17238508,0.041047234,-0.4069715,-0.18467712,-0.3274577,-0.21161325,0.50219727,-0.208701,-0.28944615,0.05487224,-1.6912668,-0.22072601,-0.4086478,0.009933745,0.39874268,-0.15661512,-0.1601465,-0.011479207,0.07929039,-0.6804199,-0.6784668,-0.030646188,0.067108154,-0.33221436,-0.17059898,-0.098135814,-0.35703823,-0.20121983,0.06893485,0.54115516,0.058394294,0.47372,0.47748676,-0.29570442,0.38602993,-0.57768905,-0.017465863,0.1823567,-0.25435093,0.008304051,-0.28520966,0.11150796,-0.14728001,0.27831432,-0.4433681,0.12361227,-0.027921949,-0.16128977,-0.15976225,0.094255924,-0.06659453,0.2525068,0.17292568,0.11302185,-0.07917567,-0.46090263,-0.32838657,-0.20983341,0.050215583,-0.26555416,-0.23608835,0.11619466,0.030107703,0.1835458,-0.34156147,-0.17273548,-0.039272852,-0.05653327,0.11934771,-0.04721805,-0.20426287,-0.24325998,-0.0423148,-0.34757778,0.11029219,0.15880966,-0.22918265,0.6800712,-0.2564959,0.14121138,0.05747223,-0.17549732,-0.05300304,0.12427112,0.18677194,0.40704346,-0.016509738,-0.5573905,-0.43729946,0.37230572,0.35628837,0.35761616,0.17469351,-0.4052996,-0.14443152,0.044445038,-0.08794921,0.00214277,-0.22865078,0.1240605,-0.33436802,0.11032323,-0.10042136,0.13544424,-0.5680978,0.004361289,0.4765102,-0.055988517,-0.05382708,-0.10351699,-0.24847412,0.3579145,-0.17658438,0.44412667,-0.31209892,0.44343784,-0.11006383,-0.19731358,0.3450666,-0.04296766,-0.24813843,0.013575963,-0.08324541,0.27943638,0.36220878,0.3142526,-0.14663805,0.085178375,-0.02330344,0.1367208,0.3820888,-0.5959996,0.06538902
