,dim_0,dim_1,dim_2,dim_3,dim_4,dim_5,dim_6,dim_7,dim_8,dim_9,dim_10,dim_11,dim_12,dim_13,dim_14,dim_15,dim_16,dim_17,dim_18,dim_19,dim_20,dim_21,dim_22,dim_23,dim_24,dim_25,dim_26,dim_27,dim_28,dim_29,dim_30,dim_31,dim_32,dim_33,dim_34,dim_35,dim_36,dim_37,dim_38,dim_39,dim_40,dim_41,dim_42,dim_43,dim_44,dim_45,dim_46,dim_47,dim_48,dim_49,dim_50,dim_51,dim_52,dim_53,dim_54,dim_55,dim_56,dim_57,dim_58,dim_59,dim_60,dim_61,dim_62,dim_63,dim_64,dim_65,dim_66,dim_67,dim_68,dim_69,dim_70,dim_71,dim_72,dim_73,dim_74,dim_75,dim_76,dim_77,dim_78,dim_79,dim_80,dim_81,dim_82,dim_83,dim_84,dim_85,dim_86,dim_87,dim_88,dim_89,dim_90,dim_91,dim_92,dim_93,dim_94,dim_95,dim_96,dim_97,dim_98,dim_99,dim_100,dim_101,dim_102,dim_103,dim_104,dim_105,dim_106,dim_107,dim_108,dim_109,dim_110,dim_111,dim_112,dim_113,dim_114,dim_115,dim_116,dim_117,dim_118,dim_119,dim_120,dim_121,dim_122,dim_123,dim_124,dim_125,dim_126,dim_127,dim_128,dim_129,dim_130,dim_131,dim_132,dim_133,dim_134,dim_135,dim_136,dim_137,dim_138,dim_139,dim_140,dim_141,dim_142,dim_143,dim_144,dim_145,dim_146,dim_147,dim_148,dim_149,dim_150,dim_151,dim_152,dim_153,dim_154,dim_155,dim_156,dim_157,dim_158,dim_159,dim_160,dim_161,dim_162,dim_163,dim_164,dim_165,dim_166,dim_167,dim_168,dim_169,dim_170,dim_171,dim_172,dim_173,dim_174,dim_175,dim_176,dim_177,dim_178,dim_179,dim_180,dim_181,dim_182,dim_183,dim_184,dim_185,dim_186,dim_187,dim_188,dim_189,dim_190,dim_191,dim_192,dim_193,dim_194,dim_195,dim_196,dim_197,dim_198,dim_199,dim_200,dim_201,dim_202,dim_203,dim_204,dim_205,dim_206,dim_207,dim_208,dim_209,dim_210,dim_211,dim_212,dim_213,dim_214,dim_215,dim_216,dim_217,dim_218,dim_219,dim_220,dim_221,dim_222,dim_223,dim_224,dim_225,dim_226,dim_227,dim_228,dim_229,dim_230,dim_231,dim_232,dim_233,dim_234,dim_235,dim_236,dim_237,dim_238,dim_239,dim_240,dim_241,dim_242,dim_243,dim_244,dim_245,dim_246,dim_247,dim_248,dim_249,dim_250,dim_251,dim_252,dim_253,dim_254,dim_255,dim_256,dim_257,dim_258,dim_259,dim_260,dim_261,dim_262,dim_263,dim_264,dim_265,dim_266,dim_267,dim_268,dim_269,dim_270,dim_271,dim_272,dim_273,dim_274,dim_275,dim_276,dim_277,dim_278,dim_279,dim_280,dim_281,dim_282,dim_283,dim_284,dim_285,dim_286,dim_287,dim_288,dim_289,dim_290,dim_291,dim_292,dim_293,dim_294,dim_295,dim_296,dim_297,dim_298,dim_299,dim_300,dim_301,dim_302,dim_303,dim_304,dim_305,dim_306,dim_307,dim_308,dim_309,dim_310,dim_311,dim_312,dim_313,dim_314,dim_315,dim_316,dim_317,dim_318,dim_319,dim_320,dim_321,dim_322,dim_323,dim_324,dim_325,dim_326,dim_327,dim_328,dim_329,dim_330,dim_331,dim_332,dim_333,dim_334,dim_335,dim_336,dim_337,dim_338,dim_339,dim_340,dim_341,dim_342,dim_343,dim_344,dim_345,dim_346,dim_347,dim_348,dim_349,dim_350,dim_351,dim_352,dim_353,dim_354,dim_355,dim_356,dim_357,dim_358,dim_359,dim_360,dim_361,dim_362,dim_363,dim_364,dim_365,dim_366,dim_367,dim_368,dim_369,dim_370,dim_371,dim_372,dim_373,dim_374,dim_375,dim_376,dim_377,dim_378,dim_379,dim_380,dim_381,dim_382,dim_383,dim_384,dim_385,dim_386,dim_387,dim_388,dim_389,dim_390,dim_391,dim_392,dim_393,dim_394,dim_395,dim_396,dim_397,dim_398,dim_399,dim_400,dim_401,dim_402,dim_403,dim_404,dim_405,dim_406,dim_407,dim_408,dim_409,dim_410,dim_411,dim_412,dim_413,dim_414,dim_415,dim_416,dim_417,dim_418,dim_419,dim_420,dim_421,dim_422,dim_423,dim_424,dim_425,dim_426,dim_427,dim_428,dim_429,dim_430,dim_431,dim_432,dim_433,dim_434,dim_435,dim_436,dim_437,dim_438,dim_439,dim_440,dim_441,dim_442,dim_443,dim_444,dim_445,dim_446,dim_447,dim_448,dim_449,dim_450,dim_451,dim_452,dim_453,dim_454,dim_455,dim_456,dim_457,dim_458,dim_459,dim_460,dim_461,dim_462,dim_463,dim_464,dim_465,dim_466,dim_467,dim_468,dim_469,dim_470,dim_471,dim_472,dim_473,dim_474,dim_475,dim_476,dim_477,dim_478,dim_479,dim_480,dim_481,dim_482,dim_483,dim_484,dim_485,dim_486,dim_487,dim_488,dim_489,dim_490,dim_491,dim_492,dim_493,dim_494,dim_495,dim_496,dim_497,dim_498,dim_499,dim_500,dim_501,dim_502,dim_503,dim_504,dim_505,dim_506,dim_507,dim_508,dim_509,dim_510,dim_511,dim_512,dim_513,dim_514,dim_515,dim_516,dim_517,dim_518,dim_519,dim_520,dim_521,dim_522,dim_523,dim_524,dim_525,dim_526,dim_527,dim_528,dim_529,dim_530,dim_531,dim_532,dim_533,dim_534,dim_535,dim_536,dim_537,dim_538,dim_539,dim_540,dim_541,dim_542,dim_543,dim_544,dim_545,dim_546,dim_547,dim_548,dim_549,dim_550,dim_551,dim_552,dim_553,dim_554,dim_555,dim_556,dim_557,dim_558,dim_559,dim_560,dim_561,dim_562,dim_563,dim_564,dim_565,dim_566,dim_567,dim_568,dim_569,dim_570,dim_571,dim_572,dim_573,dim_574,dim_575,dim_576,dim_577,dim_578,dim_579,dim_580,dim_581,dim_582,dim_583,dim_584,dim_585,dim_586,dim_587,dim_588,dim_589,dim_590,dim_591,dim_592,dim_593,dim_594,dim_595,dim_596,dim_597,dim_598,dim_599,dim_600,dim_601,dim_602,dim_603,dim_604,dim_605,dim_606,dim_607,dim_608,dim_609,dim_610,dim_611,dim_612,dim_613,dim_614,dim_615,dim_616,dim_617,dim_618,dim_619,dim_620,dim_621,dim_622,dim_623,dim_624,dim_625,dim_626,dim_627,dim_628,dim_629,dim_630,dim_631,dim_632,dim_633,dim_634,dim_635,dim_636,dim_637,dim_638,dim_639,dim_640,dim_641,dim_642,dim_643,dim_644,dim_645,dim_646,dim_647,dim_648,dim_649,dim_650,dim_651,dim_652,dim_653,dim_654,dim_655,dim_656,dim_657,dim_658,dim_659,dim_660,dim_661,dim_662,dim_663,dim_664,dim_665,dim_666,dim_667,dim_668,dim_669,dim_670,dim_671,dim_672,dim_673,dim_674,dim_675,dim_676,dim_677,dim_678,dim_679,dim_680,dim_681,dim_682,dim_683,dim_684,dim_685,dim_686,dim_687,dim_688,dim_689,dim_690,dim_691,dim_692,dim_693,dim_694,dim_695,dim_696,dim_697,dim_698,dim_699,dim_700,dim_701,dim_702,dim_703,dim_704,dim_705,dim_706,dim_707,dim_708,dim_709,dim_710,dim_711,dim_712,dim_713,dim_714,dim_715,dim_716,dim_717,dim_718,dim_719,dim_720,dim_721,dim_722,dim_723,dim_724,dim_725,dim_726,dim_727,dim_728,dim_729,dim_730,dim_731,dim_732,dim_733,dim_734,dim_735,dim_736,dim_737,dim_738,dim_739,dim_740,dim_741,dim_742,dim_743,dim_744,dim_745,dim_746,dim_747,dim_748,dim_749,dim_750,dim_751,dim_752,dim_753,dim_754,dim_755,dim_756,dim_757,dim_758,dim_759,dim_760,dim_761,dim_762,dim_763,dim_764,dim_765,dim_766,dim_767
alligator,0.9346,1.05,0.7544,0.7656,0.5723,0.8086,-0.332,-1.423,-0.4277,1.206,0.5854,-0.2622,-2.08,-2.096,-0.9272,-0.6714,-0.9795,0.691,0.04004,0.07025,-0.7266,1.262,-0.6123,-0.0377,2.178,1.893,-1.585,-1.924,-0.952,0.771,0.776,1.265,0.009605,0.658,2.055,-0.7656,-0.5215,2.324,-1.472,0.4155,-2.36,0.958,2.22,-0.6895,0.456,0.05515,-0.2808,0.3784,-0.1887,-0.727,0.2484,0.523,0.2852,0.3904,-0.05106,0.12494,-0.8496,0.756,-0.512,-1.973,0.1628,-0.864,-0.7886,-0.8022,0.089,-0.6304,-0.139,-1.515,1.009,0.4312,0.4114,1.008,1.476,0.1276,0.745,0.0978,-2.256,0.544,0.3877,-0.886,0.9507,-1.587,-0.9995,-0.3289,-0.2241,-1.615,-0.2715,-2.082,0.5425,-1.042,0.3933,-0.09796,-1.312,-2.746,2.52,0.672,-1.15,0.4758,-1.341,0.9585,0.5234,-1.383,1.68,-1.409,-1.134,-0.701,0.5913,0.39,0.5576,-2.3,0.6826,-0.0882,-0.695,0.2423,0.339,2.322,-2.154,1.247,2.152,-0.591,-2.346,-2.617,0.1272,-0.798,-2.682,0.4993,-2.64,-0.1135,0.1455,1.863,0.00895,-0.412,0.2478,-0.4312,2.367,-0.1089,1.65,1.287,-0.6943,1.12,-1.688,0.1345,1.274,0.6904,-0.6084,-0.11884,-1.795,0.4253,0.2281,0.00793,-2.203,-1.26,0.9854,-0.03473,2.371,-1.229,0.267,0.0483,0.4749,0.0927,0.2612,0.087,0.3347,-0.8203,0.581,-1.511,-0.2166,0.2272,-0.329,1.793,0.769,0.3113,-2.398,0.1793,1.055,-1.302,-0.159,0.2896,1.471,1.665,-1.639,1.188,1.103,0.783,1.559,-0.0809,1.139,-1.323,-0.4329,1.705,0.8687,0.02415,1.658,0.08203,2.564,3.902,-0.75,0.9224,-1.349,-0.3877,-0.524,-0.3818,0.577,0.1525,-0.7925,0.701,-1.502,-0.2502,-0.8374,0.1945,0.06964,1.01,-1.17,-0.5713,1.145,0.581,0.3555,2.268,-0.1198,-0.02274,0.1685,1.08,0.4775,0.822,-0.2546,-2.188,-0.4302,0.7305,-0.006912,0.6597,-1.143,-0.237,0.2742,-0.667,1.248,0.98,0.984,2.58,-1.03,-1.902,2.35,-1.442,-0.5903,-0.011696,0.6064,-2.045,1.042,0.2303,-0.5967,-2.432,-0.6567,-0.177,-1.004,-2.46,-0.1545,-0.549,0.01375,2.428,-1.154,1.848,-0.4824,0.1611,0.08234,1.505,-0.02339,0.5576,-1.413,1.254,-1.386,-1.167,0.1685,1.481,-0.12317,0.03732,-0.81,0.871,0.002914,-0.10657,-0.358,2.055,-0.1304,-0.8037,1.496,0.57,0.498,0.922,0.1887,-0.399,1.803,1.681,1.476,0.9272,-0.8794,1.71,2.225,0.042,-0.927,-0.5586,-3.754,-0.2002,-0.2822,-0.53,0.4724,-1.328,-0.538,0.2229,0.2883,-1.667,-0.2908,1.347,1.576,-0.2352,-0.1426,1.326,0.9277,0.9023,1.068,-0.985,-2.031,-0.1854,1.654,-1.165,-1.79,-0.949,0.154,0.2344,-0.3743,1.752,-2.281,0.03598,-0.126,-0.6655,-0.7993,-1.13,1.191,1.221,-0.3562,0.9116,0.1267,0.7173,-0.10675,1.386,0.596,0.594,-1.227,0.5015,1.526,-1.233,2.154,-0.8843,0.805,-1.008,-1.129,0.6616,0.596,-0.2634,-1.156,0.646,0.2708,0.7686,-0.576,-0.6284,0.7305,-2.354,-1.187,-0.9185,-0.3823,1.453,-0.2822,-1.426,1.882,-0.1293,1.529,-1.623,-0.537,-0.5947,0.3289,-0.5654,1.008,0.7935,0.2512,-0.2795,-2.213,0.5303,1.19,1.494,0.2291,-1.584,2.62,-0.3,-0.0908,-0.1815,0.6816,-0.1553,0.353,2.164,0.384,-0.6177,-0.1669,1.002,0.1065,-1.438,-1.52,1.562,0.8325,0.5806,0.788,-1.707,-3.643,0.4043,-1.221,1.334,0.825,1.633,1.724,0.4707,-0.7363,-1.523,0.5127,0.6826,0.09735,-0.4578,1.318,0.4407,0.643,0.969,-0.1976,0.1271,0.9565,1.069,0.3787,-0.04364,-0.9893,0.902,0.0001522,-0.658,-0.2496,-1.159,-1.066,0.00524,0.2046,-0.841,-0.733,1.665,0.892,2.574,-1.578,2.648,0.1979,0.09467,0.3345,0.8447,0.5083,-1.758,0.1467,-0.589,-0.049,-0.3057,-2.04,0.386,-0.1267,-1.808,0.652,-0.02846,-2.111,-0.4543,0.1566,1.169,-1.973,-2.05,0.2842,-0.286,-0.559,-1.21,0.4124,0.1915,-0.3652,0.4038,-0.949,-1.308,0.6523,-0.4753,-0.7886,0.429,0.942,0.2578,1.399,1.716,0.874,-1.389,1.988,-1.502,-1.597,1.224,-1.252,-0.4216,-0.05948,-1.05,4.05,-0.5903,-0.9766,-1.371,-0.5845,1.695,1.23,2.139,-1.012,-0.00558,0.9497,-0.1115,1.726,-0.2352,-0.905,-1.521,-1.153,0.4749,0.5737,1.4795,-1.854,-0.4404,-0.2169,-0.3838,0.2496,-0.4358,-0.601,0.2666,1.878,1.351,0.1183,-2.502,-1.181,0.7656,-0.02603,-0.3728,1.38,-2.07,0.7725,1.857,-1.185,-0.7954,-1.207,0.03384,0.373,0.2081,-0.09796,-1.933,1.314,0.683,-0.981,2.295,1.407,0.2524,1.784,-0.6387,1.063,-0.391,2.098,-0.834,0.6226,0.821,-2.006,-1.03,0.292,-0.55,-0.1663,-1.242,0.2546,1.44,-0.552,0.9663,0.535,0.6226,-0.06744,2.283,0.416,-1.196,-0.1335,0.857,-1.099,1.252,-1.6,-0.06866,-0.6196,2.865,-0.59,-0.7285,-1.929,1.411,-1.417,0.586,-0.7954,-0.2186,0.812,-0.1349,-1.627,0.2029,0.8086,-0.343,-0.815,-0.1311,1.692,-0.7974,-0.0633,-2.791,0.02177,-1.155,-0.1324,0.1959,-1.572,-0.753,-0.9907,0.2708,-1.311,-0.05927,2.982,2.326,1.313,0.8784,-0.1519,-0.664,0.556,-0.469,-0.407,1.41,-0.6323,1.724,-1.613,-1.045,-0.1292,-0.5107,0.3281,-0.2583,0.9585,0.259,-0.8066,1.391,-1.327,1.314,-0.149,0.853,-0.6025,-0.8687,-0.4275,-1.725,-1.194,0.865,-2.688,-0.494,-0.1897,0.0726,-1.491,-1.097,2.234,-1.772,-1.293,0.8267,0.36,-0.6016,1.06,0.4407,-0.139,1.018,-0.492,0.5786,3.2,-1.785,0.05295,-0.9126,1.492,-0.605,0.07007,0.9766,-0.2646,-0.8076,1.802,0.641,-2.64,-0.499,-1.75,-1.834,1.114,0.616,-1.521,-0.368,-1.489,-0.531,0.506,0.3718,-2.572,0.214,0.809,-1.464,-1.619,-0.7905,0.4485,-0.467,3.994,0.6147,-0.2573,1.047,0.6206,-0.8955,-1.756,1.833,-1.559,-1.864,0.1864,-0.2485,0.6943,1.078,0.858,-0.5957,0.06216,-0.04987,1.288,1.105,-2.174,1.054,-1.236,0.769,-0.296,1.669,0.1453,-1.596,-0.341,-1.37,-0.539,1.74,-2.535,-0.2367,-0.8716,0.1523,0.6846,0.1453,0.7437,-1.119,-0.551,-2.018,0.3452,0.4995,-2.008,-0.3804,0.3945,-1.0205,-2.043,-0.796,-1.361,1.664,-0.1375,-1.66,-0.9326,3.05,1.922,-0.6055,0.10846,0.528,1.059,-1.353,1.861,-2.734,-1.215,0.6626,-1.358,0.4014,1.689,0.5127,1.166,0.0687
ankle,-0.6113,0.582,-0.856,1.166,-0.01894,0.7134,-0.3472,-1.476,-0.4468,0.1649,-0.879,-1.034,0.9976,-0.654,-0.1274,0.9575,-1.055,1.73,1.14,-0.1366,0.3508,-0.02324,0.04367,-0.7065,1.135,0.1726,-0.912,-0.6646,0.2213,0.198,-0.3118,-0.794,1.009,-0.3865,-1.821,-0.3108,1.449,0.222,0.5254,0.4507,0.4907,-0.531,0.3962,-2.094,0.1154,1.949,-0.7905,0.007812,1.368,-0.1588,1.42,-2.123,-0.01165,-0.921,1.009,0.273,-1.275,0.647,0.712,0.518,-0.3965,0.3066,-1.102,0.618,-3.285,0.634,0.2957,1.1455,-1.339,-0.9526,-0.98,-1.195,-2.121,0.952,-0.5933,1.244,-0.451,0.6206,-0.1155,-0.4033,-0.1619,0.93,0.02084,-1.145,-0.7334,-1.969,-1.238,-0.512,0.1879,-1.397,1.483,1.892,1.679,-1.058,-1.146,-0.4504,-0.934,-1.518,-0.4224,-0.01518,-0.7393,1.272,-1.741,0.04056,1.318,0.2004,-1.17,1.038,-2.14,-0.6733,0.7217,0.1176,0.1704,1.478,-1.574,-1.8125,-1.1455,-0.699,0.5312,1.384,1.826,0.06775,-0.673,-2.932,0.04272,0.671,1.445,1.97,0.2988,-0.00353,-0.6553,-0.728,-1.008,0.4321,0.3694,0.501,0.808,1.148,0.6216,0.501,-0.1444,0.2683,2.25,0.0635,1.178,0.2866,-1.753,1.125,0.014885,-0.6,1.5205,-1.87,-0.6616,0.2788,-2.736,0.2295,-1.545,0.09955,-0.2114,-2.367,-1.247,0.9375,1.119,0.5625,-1.369,1.017,0.04407,-0.3843,-0.3357,1.81,-0.02219,0.0372,0.06223,0.227,1.097,-0.1633,-2.291,0.349,-0.3608,1.485,-0.612,-0.3115,-0.566,-0.618,-0.2935,1.043,0.3894,-0.01254,0.9365,-0.5596,-0.000714,-0.1404,-0.10626,0.6084,-0.8706,-1.554,-1.165,0.72,1.308,-1.045,0.8228,0.551,0.917,0.4106,-0.7695,1.782,0.525,0.8765,0.1646,-0.878,0.9653,-0.8584,-0.9155,0.7417,-2.133,-0.4563,-0.439,0.0989,-1.311,0.2534,-1.178,-0.4985,2.105,-2.236,-1.3,1.713,-0.5215,-0.91,1.86,0.1531,-0.6655,0.592,0.3843,1.932,0.3848,-0.6304,-0.7886,0.1122,1.532,-1.857,-1.153,0.001999,0.5093,0.2185,-0.64,0.972,-0.406,-0.551,-0.5405,0.6543,0.872,-0.28,1.285,-0.4692,0.9707,-0.1628,-0.9414,1.63,-1.166,-2.932,-0.2546,1.348,0.665,-1.044,1.736,0.8916,-0.852,2.295,0.6978,-1.4795,0.3894,0.3103,2.027,-0.2969,-1.799,-1.315,0.266,-0.6016,-0.3193,0.3384,0.1522,2.01,-0.0865,-0.12354,1.561,0.1814,-0.1578,-1.549,-1.25,-0.517,0.1752,0.02142,-0.0194,1.74,1.009,1.203,-0.7075,1.725,-1.259,-1.943,-0.5303,2.455,1.607,-0.685,1.69,0.0683,-1.044,0.8486,0.7124,0.388,0.2522,0.6274,-0.521,0.14,1.024,2.592,0.894,-0.06052,0.922,1.433,1.808,-0.9517,2.238,-0.642,-0.3508,0.422,0.786,1.352,0.1849,1.449,-0.8164,-1.261,-2.537,0.2688,0.3638,0.2883,-0.2438,-0.2598,0.278,-0.03604,-0.698,0.02618,-1.074,2.072,-0.8096,-1.724,0.708,1.244,1.144,-0.511,0.704,-0.2612,0.305,0.468,-0.6704,-0.787,0.304,-1.101,-0.3948,0.5107,-0.8584,0.7783,-0.7017,0.2113,-0.7397,-0.215,-0.037,0.8525,-0.5024,1.693,-0.6226,-1.161,-0.84,-0.723,0.794,-0.6523,-2.332,0.9707,-1.102,-0.502,-1.055,-0.51,0.443,-2.188,-0.741,0.1713,1.12,-1.183,0.432,0.148,0.1451,-0.03168,0.2113,1.001,-0.01646,-0.391,1.173,1.08,-0.07367,0.675,-0.4749,-1.171,-1.292,0.9014,-2.19,-0.3918,0.892,1.033,2.05,1.22,0.7695,-0.0476,1.0625,-1.038,1.229,0.415,1.465,-0.4153,-0.924,-1.756,2.705,0.866,-0.066,0.1012,1.992,1.159,0.712,0.1895,-1.227,0.3882,0.09735,-2.377,0.01476,1.053,-1.843,-0.4192,-0.3198,-0.9185,1.82,0.9,-0.4788,0.653,-0.8955,-0.3684,-1.634,1.798,1.239,0.3179,-2.158,-0.714,-0.891,-0.758,-1.041,-0.3113,0.06223,-0.8438,-0.3906,0.7495,-0.00503,-0.0738,0.84,-0.5454,-0.1875,-0.2976,-1.266,2.713,2.688,0.00646,-2.186,-1.054,1.172,-1.074,1.325,-0.7104,-0.9194,0.0363,2.152,2.674,-0.3726,-0.129,-0.6055,0.2306,0.8237,-1.441,2.049,-0.837,-0.6123,0.357,0.9185,1.441,-0.8843,0.2793,1.165,1.09,0.3164,0.835,0.346,2.822,0.9775,0.7505,-0.0993,1.646,-0.2192,-0.8896,-0.838,-1.559,-0.9126,-1.309,-1.309,1.346,0.876,-0.2317,1.898,0.08264,-0.7236,1.737,-1.461,-0.9976,-0.8447,-1.3545,0.1175,-1.619,0.1866,1.824,0.3364,0.1976,0.1987,-0.332,-2.46,0.4038,0.1119,1.178,2.018,-0.03714,-1.339,0.835,-0.594,1.922,0.867,0.648,1.508,-0.05975,-0.9536,0.10144,-1.303,-0.633,0.781,0.8457,-0.75,0.7827,-1.571,2.041,0.9,-1.756,-0.8833,0.4639,-1.82,0.607,-2.299,-0.2301,0.03064,0.3213,1.424,-0.756,-0.1014,-0.9023,0.935,0.6304,0.9233,-1.995,-1.189,1.115,-1.169,-1.06,-0.49,0.5464,-0.3838,-1.14,1.381,-1.038,-1.338,1.38,-2.615,0.8975,-0.755,-1.617,3.154,-1.103,1.164,0.5483,0.0482,-0.6978,2.326,0.3523,-1.16,-0.372,0.496,1.002,-1.802,0.9434,1.063,0.586,0.6714,-0.0821,0.9453,0.585,-2.3,-1.3955,1.426,0.5303,-0.8413,-1.324,0.1461,0.5215,0.4631,1.01,-0.686,0.978,-0.04922,0.3906,1.371,-0.638,0.1808,0.3206,-0.4822,0.208,-0.05063,1.8545,2.602,0.9375,-0.8984,-0.8345,-0.756,-0.7646,1.239,1.107,-0.1531,0.01386,0.4124,-1.051,0.877,0.5674,1.218,1.217,0.8457,-1.1045,-0.5195,-0.671,-0.55,-0.5464,0.0603,-1.361,0.975,-1.894,-0.9243,-0.4543,1.03,0.9688,0.9106,-0.2654,2.158,2.074,1.373,-0.466,1.409,1.445,0.2411,0.9434,-0.2837,-1.864,-1.886,-2.51,-1.13,0.1506,1.416,0.806,1.06,-2.14,-2.24,0.95,0.1831,-1.017,-0.4731,1.416,-2.025,-0.579,0.6807,0.675,-2.488,0.6123,1.112,-0.9717,1.197,-0.6187,0.1376,-1.57,0.8325,-0.04318,-0.01785,0.012505,1.03,0.802,-2.586,0.7754,0.614,-1.383,1.607,0.012436,1.03,0.061,-0.766,0.2205,-0.5674,0.1333,-1.476,1.356,0.4868,0.4985,-0.7485,0.7554,1.711,1.396,-1.078,0.771,0.948,-0.03065,0.0,-1.321,0.3833,-1.666,0.1737,-2.34,0.1035,0.1572,0.2389,-2.672,0.1289,-0.422,1.363,-0.4827,-0.03586,0.813,0.8823,-0.745,-1.3125,1.089,0.139,0.4717,1.879,-0.4412,-0.4587,-0.5366,-1.094,-0.7373,0.09534,-0.982,-0.4412,-0.527,-0.6133,-0.575,1.183,1.068,-1.116,-2.303,-0.2683,-0.8267,0.3008,-1.162
apple,-1.052,-1.773,0.4976,1.008,-0.5806,0.4543,1.249,0.3896,-0.1256,1.754,0.395,-2.197,0.7217,0.587,-2.004,0.6133,0.1037,-0.3481,-0.9624,1.594,1.549,2.117,-0.7656,0.662,0.831,0.459,-0.09894,0.771,-0.04205,-0.3447,-0.592,-2.049,0.9463,1.561,-0.1892,-0.6406,-2.0,-1.813,0.1881,-0.118,-0.8506,-1.059,-0.2343,0.05304,0.791,-0.5547,0.7427,1.535,1.365,0.2766,0.3118,-0.1339,-0.789,-1.106,0.847,-0.2898,0.815,0.1191,0.6025,1.396,-1.179,-0.3748,-1.083,-0.3345,1.987,-1.4375,-0.06995,-0.2363,0.4443,-0.02814,-1.495,0.8516,1.508,-1.158,-0.4075,0.6113,0.7993,-1.268,0.5107,0.2246,0.8584,1.707,-1.169,0.4043,1.748,-0.303,0.8496,0.4834,-0.1456,-0.646,1.456,1.32,-0.9224,0.9854,-0.864,-0.0348,1.929,-0.956,0.7876,0.1982,-0.07153,0.2715,-0.9565,-2.016,-0.4714,1.121,1.274,-1.248,1.1875,-0.1567,-1.657,0.173,0.924,-1.223,0.1084,0.1975,0.05603,-0.838,-1.122,-0.2737,1.162,-1.519,0.2316,-0.871,0.945,0.4678,0.1614,1.187,1.197,0.5723,0.4219,-0.5537,-0.2551,0.665,-0.2408,-1.253,-1.224,-0.5747,-0.55,1.19,-0.801,-0.4524,-1.129,-0.2866,0.07605,0.2966,0.491,-2.262,-0.7695,2.906,0.01753,-1.522,-0.1437,-1.115,0.1566,-1.175,-0.5605,-0.11743,-0.2954,1.173,0.35,0.6436,1.429,0.01715,0.9004,0.8486,0.593,1.415,0.7637,1.086,0.4912,-0.7817,2.293,-0.9053,1.167,1.405,-0.1975,0.8906,1.913,1.199,0.1995,-1.159,-0.4717,-0.8022,0.3792,-0.742,-0.657,-0.3718,-0.4006,-0.3037,-0.2512,-0.03128,-1.231,-0.2141,-2.898,-1.695,-2.008,1.326,-1.117,-1.11,-3.055,0.7686,-0.5586,0.4036,-2.084,2.143,1.352,1.206,0.7036,-1.135,-0.3474,-0.2356,0.0798,0.8574,1.005,-0.3557,0.467,0.131,0.3855,-1.194,0.3855,-1.177,-0.3315,-2.156,-0.3777,-0.2852,1.86,-0.4175,-0.03442,-1.898,0.05844,-1.191,-2.027,0.627,1.694,1.716,-0.6777,-1.03,-0.92,-0.0926,-0.4736,0.2659,1.382,0.0934,-1.178,-0.6187,-0.5723,1.343,-0.000724,0.6724,1.937,-0.174,1.311,0.08075,1.235,-1.129,-1.149,1.082,0.02945,0.2124,1.938,-1.732,-0.261,0.2903,2.094,-0.9536,0.5405,-1.07,-0.7866,-0.818,-1.232,0.4583,2.002,0.676,1.677,-0.431,-0.3694,-0.6265,-1.14,1.326,-0.2612,0.8135,0.4788,0.07043,-2.396,1.744,0.1433,0.563,-1.072,-0.3208,-2.027,-1.766,-1.078,0.813,-0.378,-2.328,-0.681,-0.834,0.8203,-0.1324,-0.867,0.9126,1.208,-1.255,-0.1342,-0.2394,0.3206,-1.038,0.234,0.5645,0.522,2.129,-1.517,-0.0813,0.3396,1.268,0.4329,1.671,-0.07874,-0.10736,-1.426,-0.02013,0.8306,-0.762,-0.928,1.857,-0.1545,0.03897,0.6836,0.2673,0.04642,0.518,1.471,-1.712,0.3435,0.22,-0.65,-1.073,-0.548,0.00829,-1.624,-0.4878,1.4375,0.002134,-0.879,0.596,-0.1348,-0.3394,0.89,0.906,0.02379,2.006,-0.7207,-0.1526,0.0736,-0.2115,-0.465,1.374,0.1971,-0.3638,0.9946,-0.9297,-0.02669,0.6826,-1.272,-0.6978,-0.5576,-0.22,-1.334,-1.071,-0.645,-0.5566,-0.9644,-0.1348,-2.295,0.3523,-0.1271,0.786,-0.807,-1.691,0.658,1.477,0.3853,-1.54,-1.164,3.299,2.262,0.0983,1.119,1.76,1.085,-0.9146,0.12354,-0.781,0.529,0.837,1.741,0.8667,0.07214,-0.9165,2.482,-0.5537,-0.285,0.758,2.09,0.7285,0.8594,-0.166,-0.5146,0.7666,1.543,-0.0711,0.2688,-1.298,-1.305,0.394,0.4385,0.9033,-0.054,1.552,0.4492,-1.076,-0.1885,0.6157,0.661,-1.346,0.09186,-1.248,0.01477,2.088,-1.354,0.3696,-0.57,-0.79,0.9653,0.1103,0.3257,-0.9946,1.042,0.3765,-1.101,-0.6987,-1.325,-0.2063,-0.06757,-1.614,-1.301,-0.2883,0.006626,-0.2273,-2.512,0.1073,1.489,-0.287,1.562,0.1097,0.6523,-0.4165,-0.3406,-0.04398,2.252,0.3638,-0.5312,0.538,-0.4797,-0.4373,0.0566,-1.857,-0.2905,2.637,-0.8105,0.3562,0.9565,0.02242,-0.1879,-0.9404,1.501,0.7803,0.1886,0.406,1.063,-0.5176,1.008,-1.327,2.777,-2.729,-0.558,-2.887,-0.2091,0.4287,0.04602,0.5723,-1.824,0.5386,-0.287,0.3218,-0.9937,1.325,0.574,-0.548,-2.754,-0.6606,0.6494,1.177,0.7163,0.3809,-0.4294,0.642,-1.493,-0.706,0.5557,0.637,-0.1853,-1.958,1.239,1.038,0.7573,-0.787,1.285,-2.342,-0.02019,2.227,-1.489,-0.601,-0.3389,-0.8525,0.2023,0.4355,0.01825,0.0665,-0.4993,-0.003052,0.812,0.938,0.2021,0.6914,0.667,-0.9067,-1.065,-2.178,0.2072,-0.756,-0.5156,-0.3066,0.1652,1.35,-0.4612,-0.311,0.2238,0.588,1.44,-0.0725,1.344,0.6187,-0.5444,0.04996,2.514,0.05573,0.1467,1.085,0.1593,0.961,-2.984,-0.5386,1.798,-0.07666,-0.8433,-0.1454,-2.162,-1.879,-0.563,-1.145,-0.5728,1.399,-0.317,0.405,0.9453,1.447,-0.5005,-0.3103,0.405,0.4204,-0.881,-0.855,-1.453,1.869,-0.722,-0.1029,-0.6055,1.221,0.28,0.3877,0.0418,0.603,-0.5845,0.4263,-1.576,-0.2798,0.03006,-2.314,-0.5767,0.7856,-0.332,-1.412,1.72,-0.1709,-0.1072,2.584,0.03714,-0.01071,0.1797,1.161,-1.106,1.045,0.2952,-0.182,1.609,0.0615,-1.872,0.908,-1.131,1.133,0.08624,-0.961,0.07794,-0.0442,-0.655,-0.1962,-0.03024,-0.902,0.821,-0.959,-1.5205,0.756,-0.965,0.2416,-1.558,0.1797,0.679,0.6323,0.9907,-1.061,-1.026,-0.8877,1.59,0.10474,-1.05,1.128,-2.059,2.195,0.925,1.057,-0.8545,-0.3691,0.2664,0.1209,-0.888,0.689,-2.064,0.2974,0.1898,-1.167,-0.4072,0.625,-0.6357,-1.1875,0.0838,0.7524,1.161,0.03029,0.968,1.907,1.465,-0.1753,1.487,0.08044,-0.05267,1.299,0.006,-0.815,1.069,0.823,-0.2969,0.4526,-1.644,1.584,0.882,1.4375,0.413,-0.6953,2.014,0.4402,0.8135,1.11,0.2025,-0.3708,0.0921,-1.063,-0.8276,0.4905,-0.2383,-0.2141,0.793,0.345,0.944,-0.7783,-0.154,-1.799,-1.643,-0.543,0.2263,0.975,0.8457,0.335,-0.6016,-0.96,1.17,1.409,-0.752,-0.0782,1.487,-1.209,0.9604,0.37,-0.412,0.6123,-0.0838,-1.844,-0.1412,0.4685,1.177,-0.1761,-0.7446,0.201,0.07184,0.878,-0.02605,0.967,-1.809,0.404,1.936,-0.604,-0.904,-0.5083,2.057,0.873,-1.2,1.8,0.6206,0.669,-0.4104,0.5996,-0.7837,-0.1065,-0.6035,0.03162,-2.207,1.196,-1.599,0.522,-0.762,-0.0938,1.438,2.1,-1.27,1.285,-0.3542,0.3142
applesauce,-0.5703,-1.181,-0.5894,-1.205,0.4358,0.397,0.002422,-0.899,2.22,0.7793,0.274,-1.475,0.1267,1.6875,-1.488,-0.9146,1.1,-0.7227,-0.10156,1.197,-1.644,0.7656,0.778,-0.544,-2.105,-0.761,-0.05225,0.3047,0.3801,1.231,-0.10425,0.6206,-0.5396,0.004498,-1.059,0.4355,-0.8657,0.2966,-0.9854,-0.092,0.0753,0.3901,-0.149,1.144,-0.4854,1.322,-1.037,-0.1372,-0.4636,-2.232,1.208,0.9087,1.079,0.01458,0.1382,0.1813,-1.035,-0.624,1.252,-0.1616,-0.683,0.05255,1.303,0.9365,0.2842,0.1049,0.9907,-1.572,1.473,0.7954,-0.1189,1.381,-0.3152,0.38,-1.342,-1.083,0.827,-1.793,0.694,0.04153,0.05597,1.777,0.4673,1.209,2.791,-0.0672,-0.7104,2.533,2.107,-1.961,0.483,0.1343,-2.799,-0.02792,1.091,0.8154,-0.8535,-0.03195,0.2433,-0.0451,2.512,0.88,-0.2556,1.018,0.3972,-1.133,2.826,-0.4934,1.405,-2.35,1.31,-1.147,0.9395,-0.03644,-0.3118,1.693,-0.264,-0.4187,-1.64,0.2573,-0.2113,1.146,-0.3374,-0.5337,0.311,0.7065,-0.5054,0.229,-0.539,-0.9067,0.04645,-0.03528,0.01869,1.298,-1.232,-0.204,0.725,-2.25,0.673,-0.2742,0.8716,1.329,0.422,-2.115,1.863,-1.358,2.18,0.566,0.6436,-0.7505,0.166,-1.481,0.4734,0.5576,0.1753,-1.534,0.1597,1.669,0.09753,0.623,-1.169,0.1642,0.8506,-2.148,1.889,0.3438,-0.822,1.057,-0.4521,1.645,-0.1279,-1.295,3.414,-1.641,-1.146,-0.452,0.681,0.2288,0.414,1.194,-0.642,0.776,-0.9575,-0.2092,1.003,-1.472,-1.562,-0.649,1.13,-0.471,-0.3435,0.5225,-1.07,-2.379,-0.4749,0.487,-1.258,-0.5093,0.639,-2.559,0.2637,1.004,1.92,-0.408,-0.182,-0.4067,0.3833,-1.239,1.27,0.7637,1.276,0.07605,-1.109,-1.85,-0.701,-1.379,1.03,-1.75,0.691,-1.094,0.1608,-1.62,-0.894,0.7725,-1.309,-0.2281,0.3318,-0.963,-0.567,-2.389,-0.6895,0.568,0.03732,2.648,-0.1312,0.2291,1.667,-0.5347,-1.837,-1.5205,0.4897,1.011,1.363,-0.8696,-0.5713,0.00811,-0.6084,-0.7295,0.059,-1.401,0.359,1.584,-0.3718,1.199,0.737,-2.375,-0.4978,-0.0556,-0.563,0.491,-1.567,-1.989,0.722,0.824,-0.6763,0.841,-0.1965,-0.859,-0.06885,-0.319,-2.271,-0.3022,-0.7104,0.8394,0.337,0.2208,-1.484,-1.049,1.678,0.159,-0.236,-1.163,-0.6113,0.2485,0.4092,0.744,1.823,1.522,0.3054,-0.8203,0.3904,0.3682,0.884,2.24,0.1437,-0.7466,-1.684,0.602,1.492,-1.477,-0.2827,-1.527,-0.2389,-0.988,-2.338,0.541,-1.069,-2.09,-1.167,-1.82,1.203,0.762,0.3228,-0.747,-0.543,0.17,0.6353,1.285,-1.23,0.867,-0.2832,-0.3706,-0.3762,1.219,0.3523,-0.2927,-1.039,0.1112,0.4954,0.902,2.09,-2.6,0.2698,-0.909,0.9834,-0.01035,-1.107,-2.582,-0.6045,-2.592,-0.605,-2.023,-0.3674,-0.1409,-0.517,0.8374,0.4805,-0.3635,-1.239,0.3506,-1.183,0.2878,1.289,1.537,-1.909,0.3232,1.496,0.4187,0.524,-0.01807,-0.6187,-1.823,-0.7944,0.407,-0.4294,0.1444,-1.199,1.686,-0.09845,1.735,1.29,0.2168,1.263,-0.3245,-0.489,-0.2375,2.254,-0.7256,1.041,-0.255,1.511,-0.1128,1.796,-0.505,0.0254,-0.1736,-0.703,1.023,-0.7334,-0.352,-1.188,-0.3313,0.591,1.216,0.551,0.596,-2.025,-0.5723,2.152,-1.703,-0.0682,0.1475,1.041,0.0964,-0.2272,-0.54,0.341,0.05002,0.2457,-0.0832,0.2573,-0.6245,-0.4648,-0.266,-1.047,0.664,1.257,0.271,-2.28,-2.723,-0.3423,-0.494,2.725,-0.3625,0.855,0.4202,0.1816,-1.1875,1.297,-0.9956,1.954,1.129,-1.63,-1.356,-0.7246,-1.717,1.836,-1.56,1.202,0.6064,1.093,-0.3245,-0.6265,0.09686,-1.346,-0.02562,1.46,2.705,1.204,0.8696,-1.116,0.726,0.07935,-1.9375,0.0073,-2.857,-1.921,0.0694,-0.4658,-2.912,0.817,-0.5435,-0.5093,0.678,0.9185,0.02763,-1.443,2.291,0.4043,-0.3567,1.393,-0.2194,-2.697,1.739,0.6934,0.1892,-1.7,1.81,1.043,0.323,-0.8755,-1.212,0.6665,2.672,1.453,-0.3914,0.2295,-0.8213,0.01877,0.512,1.776,-1.679,-1.334,0.09326,1.448,0.1456,1.203,-0.262,0.2908,0.7505,0.2213,1.838,-1.795,0.464,0.707,-0.3438,0.8623,2.613,-1.24,0.2908,0.11316,-0.8237,-1.992,-0.6826,1.257,-1.134,0.805,1.144,-0.2224,0.9307,0.5957,0.07465,-0.35,-0.4346,-0.9224,0.0879,-1.195,1.227,-0.297,-0.705,2.014,-0.542,-0.138,-2.773,1.049,-1.506,-2.3,-0.2883,-1.404,-0.0636,0.471,1.525,1.061,-0.3938,0.3984,-0.1128,-1.24,0.4285,-0.3745,0.411,-0.75,0.2048,-0.6763,-0.902,1.161,0.648,1.67,0.6694,0.1301,0.807,-2.705,0.1887,1.694,-0.304,-0.1265,-1.479,-0.671,-1.527,1.555,1.288,-2.475,0.361,0.2974,0.6636,0.4236,-0.1543,0.625,1.266,-0.3745,0.00839,1.781,-0.7134,-0.786,-0.4988,-0.5293,1.255,1.063,0.0936,-0.622,-0.529,1.653,-0.04965,-1.633,-0.3572,-0.381,0.5903,-0.5586,-0.7173,0.872,-0.6196,1.077,-2.232,0.1418,-1.256,1.072,1.488,0.767,1.172,-1.058,0.2461,0.4937,0.563,-0.72,0.9814,-1.191,-0.9453,1.038,0.9673,2.334,1.378,-0.752,-2.275,-1.831,-1.067,1.396,-1.526,2.723,-1.18,-1.009,-0.9194,0.952,1.263,-1.175,-0.1835,0.2576,-0.746,-0.589,1.142,-0.2048,-0.3093,-0.283,-0.4758,-0.3044,-0.086,1.704,-0.2856,0.2126,0.8853,0.4233,-1.179,1.854,1.153,-0.4087,-1.711,-0.8423,0.03598,-0.7056,0.5337,-0.981,1.615,-1.107,-1.529,0.326,1.017,-0.9565,0.06204,-1.554,-0.464,-0.6523,0.288,-0.02698,0.5244,-0.877,-0.2048,-0.4807,-1.407,-1.535,0.1671,-1.036,1.838,-1.406,-1.35,0.4783,1.892,0.717,0.4624,0.7173,-0.723,0.1942,0.6924,0.4202,1.093,-0.391,1.004,0.993,0.6,0.1367,-1.377,0.0627,-0.988,0.559,-1.112,-0.7373,2.383,0.786,0.1259,0.02527,1.021,-0.676,-1.5205,0.859,-1.263,-0.5645,-2.291,-0.9624,1.876,1.447,-0.925,1.615,-0.3657,-0.1342,-0.3728,-0.4797,0.3726,0.377,-0.1432,-0.9604,-1.486,-1.518,-0.6836,0.634,0.12384,0.1323,-1.089,-0.631,-0.4446,-0.1226,-1.151,-0.8843,-1.069,-0.10046,0.846,-0.422,-0.821,-0.908,-0.1322,1.249,-0.0682,0.8174,0.5537,-1.414,1.305,0.3235,-0.7026,-0.03424,0.2224,-1.69,1.059,-1.078,-0.00645,-1.991,1.71,1.449,-1.386,-0.0449,2.889,-0.3276,0.721
arm,-0.0955,-0.2357,-0.638,-0.2625,0.585,0.0998,-0.7773,0.24,-0.8125,0.08484,0.6816,0.2368,0.04114,-1.165,-0.6025,-0.03812,-0.66,-0.7905,0.4084,0.2058,0.3213,0.126,-0.0364,0.05264,0.5156,-0.2803,0.7734,0.6274,0.8276,0.2053,-1.198,-1.084,0.9956,1.211,-0.1266,-0.4028,-0.4243,0.452,0.784,-0.94,-0.7593,0.03696,1.022,-0.3215,-0.3293,0.05313,-0.5903,1.163,0.8906,-1.366,-0.539,0.1247,1.406,1.54,-0.931,0.4822,0.04855,1.482,0.6016,-0.9297,0.997,0.4504,-1.259,0.2607,1.543,0.9634,-0.1289,-0.5547,-0.3162,-1.366,0.1237,-2.406,-0.2385,0.0633,1.358,-0.3813,-0.5513,-0.0461,-0.6426,1.122,0.01595,-0.344,0.588,-0.2737,0.3096,-0.7017,0.3167,2.41,0.6587,-0.766,-0.537,-1.094,-0.556,0.3184,-1.265,0.873,-0.06573,0.2231,-0.519,-0.2915,0.528,0.578,0.04126,-0.7896,0.2296,-0.7417,-0.3276,-0.11426,-0.005848,0.6104,-1.543,0.4172,-0.10754,0.9897,0.2773,-0.1593,0.1472,1.099,0.6533,-1.084,0.2388,-0.4834,-0.1943,1.766,-0.04654,-0.532,0.8086,0.509,0.4563,0.4924,0.8906,-0.335,-0.4932,0.885,0.3257,-0.4287,-0.036,0.0276,1.217,0.3066,-0.1567,-0.1558,0.0514,-0.0681,0.1592,0.508,0.2544,0.5576,0.6743,0.3289,0.333,-0.1558,-0.2004,1.795,-0.986,0.817,-0.5376,-0.305,0.4045,0.327,-0.1354,-2.02,0.504,1.041,-0.0474,0.05453,-0.07294,0.826,0.435,0.2251,0.4998,0.822,0.4033,-0.5083,-0.1744,0.5146,-0.578,0.6445,-0.3271,-0.252,0.1208,-0.2098,0.7617,-1.0625,0.1427,-0.1571,-0.00416,-0.2646,-0.4963,0.1959,-0.1968,-0.4058,1.247,0.2842,0.356,-0.865,0.1571,0.1647,-0.893,0.481,0.573,1.532,0.5293,-0.359,-0.635,0.2462,-0.9336,0.11206,0.797,0.688,0.097,-0.9155,0.2522,-0.003618,-1.131,-0.2676,0.2312,0.251,0.648,-0.4658,0.3806,1.046,0.4329,1.325,-1.485,-0.792,0.1909,-0.274,0.7666,-0.2537,0.933,0.2108,0.4187,-0.497,-0.8047,-0.682,0.554,-1.416,0.691,0.899,-0.5244,0.3132,-0.4001,0.235,-1.19,-0.05927,-0.1108,0.6816,0.166,-0.3315,-0.5923,0.0801,-0.4456,-0.381,0.714,0.2852,0.1748,0.03378,0.952,-1.491,-0.696,-0.4944,0.2499,0.3408,0.266,-0.1965,0.0782,1.144,-1.136,-0.411,-0.03424,-0.01146,0.428,0.6025,-0.1449,-0.4124,-1.131,-0.04053,-0.07874,-1.601,-0.3125,-0.06464,0.117,0.6294,-0.3047,-0.82,0.07794,-0.356,-0.6147,0.7275,-0.384,-0.3896,-0.836,0.4814,0.01428,0.3604,-0.158,0.555,0.273,-0.01604,0.2815,-0.02878,-0.3745,-0.3127,0.2942,-0.2937,0.515,1.285,-0.6406,0.484,-0.1753,0.03964,0.8223,-0.1519,0.2695,0.72,-0.0677,-0.4163,-0.145,0.2698,0.072,0.725,0.01993,-0.4673,-0.4634,-0.495,-0.689,-0.1978,-1.248,1.349,-0.0413,-0.554,-0.4463,0.2109,-0.4207,-1.582,0.336,0.02864,0.6953,0.5356,-0.832,-0.845,-0.69,1.34,0.23,0.4592,0.6846,-0.11945,0.304,-0.9414,0.6846,1.049,-0.817,1.019,0.07715,0.3716,-0.0953,0.927,0.11395,-0.3167,-0.2214,0.4546,-1.498,1.128,-0.01298,-1.044,0.3042,-0.2108,-0.7686,1.272,0.436,-0.748,0.527,-0.344,0.936,0.1488,1.063,0.4602,0.02382,0.583,0.5327,0.2852,0.503,-0.776,0.0337,0.297,0.1406,-0.577,0.559,0.02403,-0.137,0.2178,-0.4531,0.9263,0.824,-0.3323,-0.5786,-0.4668,-0.1351,-0.6733,0.1948,-0.07806,0.913,0.02254,0.04807,0.679,0.8135,-0.3435,0.135,-0.756,-0.1337,0.921,-1.745,-1.03,-0.146,-1.119,1.11,1.121,0.1301,-0.363,0.4812,0.04395,-0.5503,0.7085,0.4724,0.3684,0.1278,1.093,-1.94,-0.3472,0.010056,0.402,0.2976,-0.5684,-1.045,0.5376,-0.6875,0.2181,0.03247,1.024,-1.013,1.225,-0.4568,0.537,-0.1796,-0.307,-0.498,-0.7017,0.553,-0.2932,-0.8237,-1.139,-0.6533,-0.724,-0.1323,-0.3853,0.03268,-0.0941,0.4822,-0.4348,-0.5254,-0.574,0.911,1.356,0.4758,-0.5156,0.379,-1.109,-0.0902,0.5796,0.594,-0.7563,-1.039,-0.47,-0.2308,-0.4211,-0.245,0.0463,-0.732,0.3545,0.0827,-0.4412,-0.2798,-0.47,1.174,0.1312,-0.377,-0.00746,0.5146,0.1765,-0.871,0.3123,1.057,0.8853,1.43,0.368,0.2257,0.435,-0.0951,0.7925,-0.341,-0.10736,0.1383,-0.82,-0.374,-1.092,-0.5693,0.2416,-1.026,0.8545,0.4854,-0.9595,0.0794,-0.3574,0.03418,-0.5757,-1.133,0.515,0.449,-0.1719,-0.036,-0.616,0.1316,-0.453,0.6846,1.882,-0.006496,0.9453,-0.6353,0.0962,-0.338,0.01182,0.5576,-1.065,-0.3457,0.609,-1.056,0.5938,0.731,-0.3833,0.0008388,-0.04944,0.03384,1.074,0.014786,-0.295,1.099,-0.627,-0.2192,-0.978,-0.515,0.518,0.71,-0.0617,0.4072,0.2793,-0.0793,-0.1589,1.017,0.4202,0.085,-0.8257,0.2256,1.1,-0.2832,-0.682,1.061,-0.254,-1.586,0.7915,-1.147,1.437,-1.148,0.5415,0.012215,-0.0757,-0.2812,-0.3408,-1.218,0.1638,-0.01898,-0.51,-1.162,1.099,0.03857,-0.4133,0.2041,0.6113,-0.5815,1.038,1.272,-0.4946,-0.02615,0.662,-0.831,0.0666,0.2366,0.728,-1.442,0.1056,-0.10223,0.09503,0.6343,0.6626,0.281,-1.022,0.797,-0.833,0.1897,0.1276,0.3167,-0.5933,-0.4355,0.1067,0.601,0.2888,-0.1022,-0.1691,1.131,0.5425,0.09955,0.58,0.2727,-0.2108,-0.312,0.4243,-0.941,1.797,0.353,-0.441,-1.069,-0.4302,0.3594,-0.06714,-1.411,-0.5684,1.737,0.07654,-1.142,0.12164,0.2196,-0.9556,-1.188,-0.0622,0.3687,0.686,-0.6475,-0.688,-0.6787,1.015,-0.5825,-0.2683,-0.4324,-0.345,-0.3828,0.8423,-0.771,0.6675,0.04813,-0.2415,-0.1914,-0.6035,0.316,-0.891,0.713,0.698,-0.781,0.1881,-1.316,-0.0757,0.5938,0.2815,-1.095,0.6387,0.7827,0.1656,-0.495,0.215,-0.5796,-0.2488,1.152,-0.8506,-0.3816,0.251,0.86,-1.334,0.2261,0.372,-0.6987,-0.782,1.026,-0.7925,-0.5684,0.1793,0.4995,0.68,-0.04233,-0.3088,0.6714,1.088,1.026,-1.426,0.763,-1.428,1.295,0.1492,-0.4604,-0.1606,-1.0205,0.469,-0.9556,-0.4258,-0.63,0.345,-0.6484,0.2279,0.0977,0.824,-0.783,0.2263,0.509,0.385,-0.0796,-0.3152,1.131,0.03864,0.744,0.7534,-0.4194,0.764,0.291,-0.4097,0.0379,1.385,0.2097,0.5073,-0.02026,-0.524,-0.616,1.069,-0.6885,-0.02438,-0.86,-0.832,-0.010635,0.2063,-0.166,-0.9697,0.589,0.00937,0.6514,-0.0555,-0.979,-0.519,0.629,-0.3108,-0.10364,0.10394,0.3743,-0.002354,-0.10376,0.3555,-0.509,-0.508,-0.3884,0.839,0.09186,0.2488
ball,1.032,-1.36,0.645,-0.761,-0.1704,1.038,1.298,-0.1603,0.7847,-0.1752,-1.099,0.002758,1.31,-1.56,-1.065,1.532,0.3083,-0.751,-0.3057,-0.11426,0.8047,0.6753,-0.537,-0.4143,2.258,0.4463,-1.327,0.3657,-0.12274,1.831,-0.288,-1.406,0.4316,0.458,-0.783,0.5522,-0.2335,0.414,0.1777,0.8174,0.1182,0.527,-0.06696,0.2457,0.8535,-0.779,1.496,-0.6377,1.128,-0.1465,-0.829,1.426,-0.04065,-0.2969,0.07135,-0.266,-0.5664,-1.165,0.678,0.686,-1.188,-0.851,-0.6445,0.9053,-0.09985,1.023,0.627,-0.2998,-0.4717,0.2034,-0.002811,0.927,0.7534,-2.22,0.687,0.3293,-1.226,0.4363,0.1316,0.6265,-0.745,0.6855,0.31,-1.7705,0.003674,-0.7373,1.405,-0.09595,1.078,0.4785,0.6685,0.6987,0.0982,1.267,-0.1759,-0.508,0.0379,-0.7183,0.329,-0.1969,0.4238,0.03102,-0.4634,0.5605,-0.6167,-0.779,0.006763,-1.158,0.4126,-0.09845,0.3945,0.467,-0.801,-0.216,-0.365,-0.311,-1.629,-0.7754,0.3381,1.021,-0.1311,0.9014,1.195,-0.8545,-1.084,-0.1686,0.512,-0.5645,1.424,-0.279,-0.2622,0.3057,0.2316,2.127,0.3186,-1.467,0.5273,-0.2135,-1.511,0.01715,-0.3914,-0.223,-0.1378,0.3586,-0.5596,-0.664,-1.148,0.2688,0.2196,0.963,0.821,-0.2769,-1.591,-0.774,-0.242,-0.1747,0.729,-1.838,-0.3765,0.615,0.756,-0.568,0.01915,-0.2559,0.1506,0.4885,-1.565,1.158,-0.116,-0.3826,-1.118,-0.7954,0.0596,1.5625,-0.729,-0.1818,-1.596,0.0694,0.4465,-0.7485,-0.6567,1.231,0.971,-0.956,0.63,-0.7207,0.4858,-0.3794,0.1396,0.4834,-1.488,-1.67,-0.1455,0.5713,-1.293,-0.5444,0.1569,-0.1958,-1.33,0.2498,-0.6245,-0.982,-0.8057,2.188,-0.1339,0.8657,0.1301,0.1426,-0.559,0.062,-0.7495,-0.4688,-0.1132,0.2915,-0.2517,0.2551,0.4219,0.2937,0.7803,0.1525,-0.621,0.177,-1.058,1.565,-0.404,-1.158,0.8584,-1.003,-0.527,-0.431,1.522,0.1709,-0.2299,-1.143,0.5264,-0.7866,-0.337,0.4226,-0.2119,-1.315,-1.199,1.378,-0.01585,-0.549,-0.554,-0.8555,-1.199,-0.8105,-0.507,-0.771,0.1522,1.612,0.0818,0.7627,0.3872,-1.637,0.662,-0.5547,1.202,0.02397,1.173,0.0597,-0.03162,0.015564,-0.1003,-0.1155,-0.4944,0.4692,0.2007,0.864,-0.2167,0.08105,-1.224,-0.7393,-0.2181,-1.0,0.8394,-0.502,0.2446,0.4136,-0.3755,1.282,-0.1451,-0.682,1.101,1.153,0.826,0.5723,-0.2627,0.3274,0.1855,0.765,0.8096,-0.05167,-1.425,-0.149,-0.933,-1.289,-0.9287,0.1985,-0.08844,0.2314,1.249,-0.01805,0.513,0.418,-0.256,-0.345,-0.1143,0.672,0.3042,1.133,-0.3333,-1.005,0.2905,-0.3015,-1.127,1.365,-0.3237,1.4795,-1.274,0.4087,0.3733,-0.366,0.09674,0.8315,1.169,1.461,0.728,0.8135,-0.901,-1.03,-0.2294,-0.452,0.1764,0.35,-0.2367,0.454,-0.08014,0.2129,0.02573,-0.4783,0.3008,1.184,-0.2744,-0.8643,-0.02698,-1.412,0.1047,-0.3496,0.4207,-0.1907,0.12,-0.3752,-0.306,-0.1936,-0.1737,0.1825,-0.298,-1.237,1.733,-0.3435,-0.6826,0.11896,-0.1427,-1.684,0.4026,1.497,-0.4353,0.3826,0.6553,-0.1268,-0.1215,-0.8794,-0.5737,-0.98,-0.4602,-0.8306,-0.232,-0.568,0.2861,-0.364,-2.201,-0.4915,1.142,-0.3958,0.6177,-0.1686,-0.832,0.2074,0.843,-2.03,0.802,1.06,-0.5527,0.7476,0.822,-1.034,-2.125,-0.2322,-0.8525,-0.1721,-0.1495,-0.3257,-0.1498,0.1427,-0.4893,0.4539,-0.6216,-0.7505,0.813,-0.1353,0.061,0.3848,-0.2367,-0.283,0.307,-0.5454,-0.9795,-0.303,0.05905,-0.011765,-0.4907,-0.5557,-0.3713,-0.709,0.4775,2.125,0.2263,-1.102,1.665,-0.0923,-1.031,0.4846,0.1107,0.0847,-0.1326,-0.04453,0.8745,-0.2808,-0.1589,0.8457,0.841,-0.657,-0.5337,0.1871,0.2524,0.4607,0.10156,-0.3557,0.1616,1.1875,0.8325,0.7944,-0.0423,-0.1514,-0.4817,-1.584,0.45,1.304,0.001464,-0.515,-0.0663,-0.569,0.373,-0.926,-0.4495,2.209,0.737,-0.19,0.2805,-0.8696,-1.577,0.7637,-1.617,-0.687,0.307,-0.303,-0.4724,-0.1575,-0.511,-1.086,-0.1857,-1.007,-0.567,0.1891,-1.219,-0.03114,1.069,-1.326,0.666,-0.736,1.677,0.3796,0.08307,0.1276,-0.3447,0.1827,0.1847,0.8584,-0.2146,1.33,0.01358,1.661,-0.1511,-1.136,0.2678,1.392,0.4695,-0.7266,-0.11896,-0.0509,-0.1849,0.4233,0.3545,2.164,2.607,-0.721,-0.3245,0.1853,-0.4062,0.827,0.621,0.9673,-1.328,0.3674,1.884,1.594,-1.173,0.1526,0.01338,-0.9966,1.775,-0.936,0.3347,-0.2318,-1.258,0.4036,-0.302,0.0673,0.589,0.9224,-1.279,0.395,-0.1997,0.9707,0.54,0.7676,-0.276,0.5474,-0.1511,-0.664,-0.529,0.9087,0.547,0.4243,-0.008385,1.884,-0.959,0.5107,0.585,-0.5317,0.315,0.9165,-1.086,-0.2007,-0.9834,0.3389,0.4001,-0.0783,-1.862,-0.0995,0.7476,0.1466,0.9775,1.053,-0.2485,-0.4238,0.456,-0.9707,1.251,-0.2314,1.071,-1.034,-0.636,0.843,-0.2496,0.7793,-0.6006,0.4285,-0.68,-0.0483,0.436,-0.3015,-0.519,1.861,2.44,0.123,-0.4102,0.2222,0.581,-0.1693,1.56,0.6113,1.579,1.379,0.6846,0.5796,0.3796,0.4883,-0.67,-1.504,0.1523,-0.506,0.6367,0.1555,-0.01715,-0.06854,-1.044,-1.25,0.6323,0.506,0.828,-0.8276,-0.3743,0.009865,-0.4321,-1.138,-0.1772,-0.174,-1.22,-0.6196,-0.1418,-0.1594,-0.01001,-1.092,0.1688,0.1653,-0.551,0.9307,1.61,0.07855,-0.4985,-1.226,-0.4465,0.381,-0.1671,-0.04416,0.10626,0.2012,-1.328,0.1247,-0.909,1.58,0.7607,-0.7324,0.2076,0.79,-0.9346,0.1837,0.2313,0.333,1.085,-0.5454,0.769,-0.2079,0.3525,0.4087,-0.454,0.494,-1.101,-0.359,1.389,-0.4824,0.05478,-0.8926,-0.2761,-1.255,0.00356,0.00498,0.3726,-0.0743,0.1786,1.457,-1.144,2.498,1.105,-0.3503,0.675,-1.736,-0.1564,0.219,-1.37,0.326,-1.87,-0.8,-1.058,-0.173,1.33,-0.674,0.4111,-0.3157,-0.0945,-0.1405,0.793,0.2595,-0.5254,-0.01474,-0.588,1.129,1.939,-0.1119,-0.4634,-0.6094,0.8267,0.834,-0.352,-0.7153,0.2646,-0.2316,-0.2094,-0.6797,-0.6533,-0.1289,0.03943,0.628,1.107,0.3044,-0.9175,0.804,-0.498,-0.832,0.703,0.293,-0.334,-1.257,-0.01636,0.6655,0.341,0.0989,0.7256,-0.58,0.3335,0.3518,-0.6353,1.381,-1.559,-0.3328,-0.1938,-0.5596,-0.365,-0.57,-0.002676,0.548,-0.568,-0.303,0.559,0.7964,-0.615,0.04758,0.2683,-1.326,1.205,0.8506,-0.658,0.919,-0.927,-0.5244
balloon,-0.05984,-1.293,0.6772,0.367,0.946,0.692,-0.003473,-0.1103,-0.4907,0.5303,-1.561,0.824,1.022,-0.6724,-0.261,2.129,1.031,-0.2173,-1.402,0.248,1.036,0.738,1.952,0.1254,1.165,-0.4036,-0.676,-0.2578,0.8853,0.706,-0.7485,-0.4873,-0.10645,-0.4075,0.3474,1.314,0.1081,-0.159,0.668,0.2898,-0.669,0.9517,-0.8438,0.0868,-0.1738,0.3787,2.002,-0.10535,-0.4397,-0.8647,-0.9717,0.147,1.245,-0.0823,0.02635,-0.491,-1.304,-2.05,-0.1504,1.457,-0.775,1.294,0.2092,1.479,1.75,2.645,0.3362,-1.886,-0.313,0.003195,-0.2998,1.522,1.955,-0.5215,-0.948,0.1497,-0.1164,0.4058,0.2327,0.733,0.2542,-0.962,0.7173,0.2158,-0.361,0.5356,-0.0371,1.17,-0.6167,-0.726,0.4873,0.4067,0.2358,0.4006,0.148,-0.7183,0.2031,-1.322,0.9404,1.337,2.016,-1.774,0.4302,0.6636,-1.949,0.1078,0.01173,-1.711,1.351,0.1934,-0.514,-0.01646,0.775,0.614,0.02745,0.7446,-0.3684,0.0939,0.4268,0.1207,-0.04163,0.3474,0.4404,0.07025,-1.368,-1.292,0.86,-0.4854,0.1904,1.341,0.2092,-0.4834,1.335,0.8145,0.682,0.6978,0.301,1.1455,0.403,-0.924,-1.364,0.2283,-1.177,-0.618,0.0288,-0.1975,-1.327,-0.1459,-0.8984,0.5933,0.5195,0.181,-1.176,-0.1906,-0.3386,0.5054,-0.4197,-1.606,-0.412,0.8867,-0.1553,1.959,0.0736,0.3499,0.307,-0.401,-0.5674,-1.143,-0.4011,-0.2283,-0.3423,2.078,0.1566,1.491,-1.166,0.4744,0.10895,-0.2544,0.993,-1.42,0.8716,1.257,-0.1931,-0.998,0.0374,-0.7886,-0.4873,-0.07086,-0.7866,0.1992,-0.1487,-1.578,-0.859,1.338,0.1952,0.4788,0.3472,0.883,-0.02142,-0.7993,0.8975,-0.884,-0.06186,-0.3235,0.9614,-0.7573,0.06186,0.3298,0.4724,-0.3032,-0.2377,0.2437,-2.227,0.3384,-0.009964,1.168,-1.246,0.551,0.2134,0.00714,0.808,-2.002,-1.482,0.375,-0.02069,-1.609,-0.402,-0.5137,1.41,-1.0625,0.04718,-0.07245,-0.5776,-0.81,-0.1294,-1.153,1.107,1.49,-0.655,0.4644,-0.2893,-0.3928,0.5317,-0.857,0.3372,-0.6577,-0.935,1.121,1.642,-1.345,-0.7764,-0.8154,-0.904,2.195,0.5376,-0.645,0.6396,0.4192,0.2542,-0.663,1.284,-0.5063,0.06586,0.9995,-0.5474,-1.79,-0.15,1.79,-0.10596,0.0709,0.2393,0.3777,-0.9116,0.941,-1.976,-1.533,1.059,-0.1615,-0.2155,-0.06064,-0.252,0.3198,1.546,0.067,2.166,0.4148,-0.0676,0.1865,-1.322,1.455,0.06287,0.1159,-0.829,-0.8345,-1.778,-0.5654,-2.805,-0.952,-1.736,0.682,-0.2394,0.1653,0.05246,0.6104,-0.4348,-0.802,-0.05423,1.326,-0.1969,0.705,-0.419,0.2573,-0.4404,0.0829,0.9053,-0.6797,-0.532,-0.897,0.1554,0.4668,-0.575,0.729,-0.2126,-0.934,-0.0264,0.7905,0.669,0.7495,-0.271,0.2354,-1.11,-0.1848,-0.04056,-0.1869,-1.005,-0.2974,1.033,-0.566,1.404,0.4822,0.8477,-0.3684,0.1917,1.774,-0.4739,0.9785,0.3264,-0.1526,0.547,0.721,-0.1299,1.166,1.439,-2.02,0.4958,0.0922,-0.2744,0.3354,0.1509,0.4749,-0.2184,-0.1467,-0.9897,0.627,-0.978,-1.274,0.936,0.828,-0.801,1.658,-0.2559,1.582,-1.463,0.10864,-0.9834,-0.3596,-0.002224,0.3604,0.2406,-0.378,0.6313,0.0221,-0.03256,0.1785,-1.188,-0.2397,-0.0952,-0.1143,-0.52,0.859,1.552,0.1781,-0.1121,1.982,0.4133,0.3738,0.998,-0.06757,-0.2666,-0.1415,-1.148,-0.2637,0.6284,0.0699,0.3198,-0.8496,0.5625,-1.394,1.727,-1.444,-0.1349,0.2825,-0.2847,1.586,-0.842,0.656,1.439,-0.1509,0.6436,-0.3586,1.345,-0.0454,-0.004047,0.2954,-0.0693,1.27,-1.247,0.634,0.746,-0.878,-0.3953,1.233,1.054,0.995,1.143,0.03632,-0.27,0.1461,-0.2275,-2.361,-0.0567,1.121,-0.8276,1.888,-0.2725,0.8213,-0.86,0.0929,-0.10583,0.1418,-0.717,1.467,0.4634,0.891,-0.8394,-0.014465,0.134,-0.03317,-0.0697,0.2264,0.2969,0.553,0.2244,-1.601,-0.119,-0.56,0.2443,0.3132,0.3472,-0.03925,-0.3784,-0.2622,-2.018,0.718,-0.6533,-0.2054,-0.2407,-1.664,0.8716,-0.6455,-0.871,0.824,1.12,-0.8438,-0.4907,-0.03784,-0.9688,-1.429,0.254,-0.4854,-1.028,0.4634,1.397,0.3887,-0.841,-0.1144,1.789,-0.443,-1.282,1.611,-0.3167,1.825,0.04214,2.057,1.335,-0.2046,-0.9473,0.4922,0.11163,-0.2637,-0.6265,-0.2064,1.013,-0.734,-0.3132,2.19,2.049,-0.0921,0.5737,0.00225,-0.3772,-0.802,0.392,-1.055,-0.567,1.739,-0.637,-0.814,0.7944,-0.0654,-0.4968,-1.144,0.174,-0.013016,0.4958,0.5396,0.1321,-0.2937,0.1815,-0.31,-0.4167,-0.616,0.2386,0.383,-1.112,0.9023,0.165,-1.19,-0.2922,0.4763,-0.4558,-1.48,0.414,-0.795,-1.623,-0.4626,-0.9937,2.213,0.387,-0.1277,0.4382,1.626,0.1903,-0.7783,-1.125,-0.1442,-0.1663,-0.5635,0.432,0.335,-0.3381,-0.1315,0.3943,0.02477,1.304,0.614,-0.4504,-1.92,-0.1853,-0.269,-0.8975,-0.3943,0.2974,-0.898,0.2205,0.1433,-0.2483,-1.629,-0.464,-0.755,0.5977,0.0873,0.191,-1.113,-0.2566,-0.296,-0.255,0.2286,-1.057,-0.1205,0.3867,0.4026,-0.6494,1.424,1.051,-0.656,-0.2527,0.8325,0.569,1.171,-1.065,-1.694,-0.3306,0.03784,-0.3193,1.095,0.8022,1.19,-0.362,-0.9287,0.7197,2.014,-1.0,-0.2308,0.575,-0.4634,0.309,0.5825,0.927,0.5566,-1.466,-1.06,0.8345,0.3665,0.8447,-0.9897,-0.004185,-0.4028,-0.984,-0.875,0.866,0.35,-0.1842,0.1641,-1.247,1.453,0.497,-0.6274,0.1875,0.4792,-0.4749,0.811,-0.568,1.704,-0.2463,-1.118,0.7007,0.5483,0.326,1.538,-0.778,1.746,0.8936,-0.4998,-0.03387,0.000623,0.7217,1.746,-1.683,0.3552,-0.609,-0.3728,-0.4236,0.2693,0.962,-1.439,0.711,-0.8457,1.3955,-0.0998,-0.1367,-1.777,0.654,2.055,-0.627,1.824,0.87,-0.2659,0.3875,-1.379,1.246,1.586,-1.246,-0.7124,-0.652,-1.336,-2.506,0.2764,0.3564,-1.259,-0.4458,-1.663,0.6274,-0.391,-0.4392,-0.1383,-0.9873,0.16,-0.887,0.867,0.982,-1.6455,-0.4128,-0.9087,1.414,-1.011,0.08954,-0.772,-1.561,-2.102,0.319,-0.5635,0.1252,-0.3396,0.7026,1.073,-0.8657,1.099,1.231,2.105,-0.5474,0.2625,-0.4133,-0.3264,0.505,-1.032,0.3203,0.5195,0.503,0.6406,-1.556,-0.1653,-0.077,0.831,-0.7837,1.584,-0.9424,-0.8457,-1.495,0.2505,-0.3381,-1.252,0.2942,0.6284,-0.03091,-0.8276,0.2003,0.308,0.0618,0.1578,1.16,0.08856,0.4211,0.2605,-0.4126,0.4253,0.1796,0.0514
banana,-1.893,0.702,-0.8105,0.577,-0.2551,-0.07513,1.476,-0.2808,0.6387,-0.546,-0.3022,0.11816,1.993,0.4685,-1.092,-1.231,0.4202,-0.729,0.4138,1.394,0.778,-0.3428,-0.1764,1.686,0.06287,-1.46,0.703,0.7554,-1.816,-0.2524,-2.209,1.5205,0.0713,0.0783,-0.4155,0.1665,1.466,2.93,1.127,-0.45,-0.08466,-1.491,-0.2239,0.7573,2.135,0.839,-0.6035,-0.3645,1.092,-1.379,-0.4248,-0.6055,-0.418,3.09,0.4282,0.3496,0.508,1.706,0.1233,0.9565,0.915,-1.352,0.2047,2.51,-0.6113,-0.8423,0.9175,1.203,-0.9976,0.8125,2.209,-1.169,-0.1721,0.988,-0.394,-0.6865,1.318,-0.57,1.033,0.383,-0.6255,0.445,0.1575,2.125,-1.089,-0.10785,2.266,-0.01253,-1.542,-0.4316,-0.1598,1.56,-0.8657,-0.76,-0.6875,0.6143,0.0526,1.513,0.4229,-1.037,1.519,-1.586,1.534,-0.28,-0.04004,-0.59,-0.1664,0.0943,0.713,-0.6465,-0.4607,-2.004,-1.162,-1.695,-0.333,0.497,-1.276,0.4084,-0.1595,-1.038,0.1755,0.013054,-0.0649,-0.672,-1.142,0.7637,0.3308,0.1045,-0.4863,-0.211,0.03406,-0.268,0.1635,0.3342,-0.9814,0.1392,-1.967,1.369,-1.9,-0.3413,-1.671,-0.4128,0.697,0.3237,0.7637,1.438,0.09015,0.629,-0.591,-1.01,-1.039,-0.517,0.608,-1.076,-1.678,-1.108,0.9604,0.7324,0.8047,0.919,-1.95,0.7075,-2.379,-1.7295,-0.422,0.922,1.992,1.371,0.1169,0.8174,-0.886,0.857,0.9272,-1.881,1.532,1.54,1.109,3.354,0.1495,0.7026,0.1013,1.422,2.473,-0.914,-0.2698,-2.791,-0.9663,0.8125,-0.9043,1.013,-0.7935,0.315,-1.691,-1.378,0.0252,-0.002728,2.055,-1.221,0.154,0.6133,0.504,1.116,1.612,-1.543,0.8774,1.753,-1.219,-0.5605,-0.975,-0.878,0.952,-0.2715,1.015,-0.389,0.0412,0.4116,0.02924,-1.055,0.541,0.1064,-1.118,-2.25,-0.729,0.1726,0.335,0.2937,-0.9814,1.013,0.7803,-1.072,-0.8535,1.319,-0.3562,1.071,1.0205,2.416,3.648,0.48,1.507,-0.9956,-0.756,-1.282,2.86,-0.9893,-1.2295,-0.2098,2.344,-0.605,0.753,-0.9917,0.8643,-1.481,-0.457,0.585,1.9795,-0.2524,-0.08057,0.1708,1.229,-0.848,0.5,-1.207,-0.7397,-1.92,0.1962,0.7183,-1.039,-2.908,-1.73,-1.468,0.216,-0.3132,-0.4055,0.9473,-0.9966,-0.3796,-0.706,-0.2273,0.578,1.544,-0.003841,1.096,0.5747,-0.695,-0.3882,-1.06,0.98,-1.08,-1.998,-0.0948,-1.012,0.086,1.827,-0.915,0.3977,-1.257,0.774,-0.03757,0.1705,-2.684,0.6543,-0.5796,-0.4167,-1.219,-2.824,-1.067,-2.326,1.677,2.121,-2.482,0.5176,0.3003,-1.368,1.4375,-1.298,1.203,2.062,-1.697,1.557,-0.7656,-0.571,-3.57,0.751,-2.592,2.145,-0.047,-1.233,-1.92,-1.444,-0.583,0.5835,0.3167,1.166,0.794,-2.883,0.4553,2.371,-0.271,0.2903,-2.36,2.035,-2.303,0.2615,-0.8223,2.373,-0.1831,0.6147,0.1184,0.8687,-0.3403,0.7734,2.271,-1.693,1.252,-0.3135,-1.8545,1.67,0.865,0.0063,0.3384,-0.4949,-0.0809,0.9507,-1.044,1.401,0.1759,-0.4478,0.2588,0.516,-1.583,-1.43,0.3755,0.523,-0.12024,-0.8594,2.021,1.143,-0.6567,-0.1503,-1.358,-1.455,0.03564,0.3936,-0.0985,0.609,1.367,-1.736,1.111,1.595,0.5522,1.827,0.9004,-0.393,-1.021,0.1237,-0.5776,0.772,-1.985,1.47,-0.3203,-0.3599,-1.178,2.45,1.928,1.275,0.9126,2.396,-1.8955,1.212,-1.35,-0.3762,-1.1875,0.9917,0.5537,0.2512,-2.682,0.6895,2.645,1.477,1.199,1.426,-1.004,0.632,1.492,-0.4436,0.1821,-1.037,0.514,1.163,0.601,-2.188,-2.695,2.395,-0.4158,-0.285,0.1874,0.722,0.9683,1.094,1.214,2.336,0.6304,-1.709,0.811,0.04016,2.729,-0.979,0.7085,1.851,-1.518,0.1278,0.695,-0.635,-1.099,-0.874,0.4412,-0.637,-0.934,0.95,0.8438,-1.125,0.3687,-0.14,-0.571,-1.154,-0.4004,0.423,-0.4792,-0.4753,-0.8037,-1.573,0.9683,-0.5786,0.0963,1.095,-1.936,-0.2502,-2.45,-1.767,-1.02,1.261,-2.102,0.0682,-1.012,-0.9795,-3.504,2.883,-0.4368,-0.412,1.346,-1.181,2.016,-0.617,1.068,0.359,0.472,0.0397,-0.56,-0.6978,-0.9604,0.3772,-0.1658,-1.05,-1.619,-1.596,-0.0592,-2.188,-0.2137,-0.2051,-0.3298,0.3174,-0.5674,-0.875,-0.424,0.728,-0.01506,-1.679,-0.1346,-1.04,0.05063,0.542,-0.2146,-0.00081,0.8423,0.676,0.006058,2.139,-0.8604,-0.86,3.26,-1.588,1.335,-2.408,0.568,-1.937,-0.6865,-0.6953,-0.6636,-1.723,0.1763,0.1508,-0.5586,-2.076,-1.138,-1.231,2.66,-1.207,0.6626,0.407,-0.716,-0.0673,1.295,1.21,-2.828,-0.457,2.018,0.2673,-0.735,0.5103,1.815,-0.4714,1.92,-2.205,-2.62,0.06107,1.522,0.2847,0.4768,2.818,-0.572,-1.0625,-0.1902,-0.1422,0.0825,-0.225,0.93,-0.1552,-0.001458,-0.4026,-1.379,-0.7866,0.296,-0.7363,0.1968,0.477,-0.9663,0.0315,1.081,0.8354,0.2495,0.717,-0.0999,1.153,0.7407,-2.234,-0.2627,1.997,1.734,-1.663,-1.981,2.768,1.164,-0.313,-1.097,0.4253,-0.54,-0.7495,1.522,-0.08636,-0.592,0.6567,-0.1921,1.556,0.841,0.544,-0.9634,-2.41,-0.4783,2.223,-0.4526,-3.262,0.1842,-0.3984,0.334,-0.6367,-1.648,1.768,-1.994,1.279,-1.55,0.6772,-1.066,0.1261,0.803,2.787,0.01637,1.15,-0.0513,1.123,-0.8003,1.157,-0.374,-1.055,0.3152,0.05872,-1.1455,-0.0811,1.224,-1.321,0.962,-1.444,-0.414,-0.8535,-0.8955,3.688,2.244,2.115,2.152,-0.91,1.987,-1.585,-0.00926,-0.3245,-0.0555,1.283,-2.514,1.058,-0.1335,0.4402,-0.0401,0.0637,1.267,0.648,-1.014,0.09094,1.59,1.572,0.9395,0.7495,-1.151,2.05,2.51,0.419,-1.475,0.2368,0.512,-1.815,-0.8667,0.1359,0.758,-0.6743,-0.1091,0.697,-0.604,-0.738,-0.2407,-1.248,-0.4165,0.00189,0.772,-0.1578,-0.6655,-0.7456,1.091,1.469,-0.54,1.008,-0.247,-0.9233,0.01553,-0.2026,0.9907,-0.2316,0.7554,0.3203,-0.1504,1.417,-0.04413,1.161,-0.2294,-0.792,1.632,0.1166,1.515,-0.9194,-0.8306,1.22,0.8154,8.13e-05,0.5576,0.2698,0.98,-0.928,0.818,-1.188,0.1427,0.76,0.822,0.2427,1.134,3.604,-0.866,-0.904,-0.1367,-1.12,1.154,-0.766,-0.006874,-1.788,1.403,-0.3455,-0.6533,-2.951,-1.717,0.4897,0.555,0.9775,2.074,-1.73,0.651,1.778,-1.883,1.972,-1.309,-0.5586,-0.8374,-0.8896,-1.483
basket,-0.1521,1.151,0.1287,0.3127,-0.867,-0.355,0.1088,-0.03888,-2.05,0.4326,0.1313,1.225,-0.705,-1.548,-1.407,0.7134,0.544,1.474,-0.8594,0.10754,-0.2498,1.884,-0.3943,1.739,-0.2408,1.342,-0.772,1.23,0.1072,1.09,1.004,0.9805,-0.842,0.6523,0.9717,1.854,1.478,0.4944,0.02861,-1.164,-0.3909,1.6,0.0806,0.1121,2.074,0.781,-0.1852,-0.2812,-0.899,0.2776,-0.9717,1.598,0.2106,0.3015,1.835,0.04584,0.00989,2.404,1.095,1.392,-0.3481,-1.132,1.138,0.1254,1.237,0.126,0.05954,0.5366,-0.283,-0.7397,0.04907,-1.463,-1.575,0.1312,1.414,-0.566,-1.407,-0.281,0.12396,-1.691,-0.4429,0.4412,0.909,0.96,2.58,-0.776,1.114,0.6655,0.3242,0.2344,-0.6484,0.3901,-1.873,0.487,0.7573,0.809,-0.966,0.3914,0.9937,0.699,0.2223,-0.2003,-1.228,0.1306,-1.14,-0.3235,0.1184,-0.1815,-0.2311,-0.9473,-1.366,-1.388,0.10266,0.0442,0.597,-0.0975,-0.8833,-1.225,-0.04968,-0.894,-1.459,-0.359,-1.027,0.2683,-0.2683,-0.689,-0.5923,0.187,0.4375,0.745,-1.601,-0.715,-0.2007,0.0616,-0.7124,0.8193,-0.9165,-1.396,-0.908,-0.7075,0.566,0.7544,-0.534,-0.1736,0.525,0.6025,0.3406,-0.541,1.461,1.01,1.234,1.788,0.241,1.192,0.7607,0.2974,-0.1162,0.2092,-1.173,1.021,-2.676,0.01645,-0.3145,1.344,-0.893,0.4136,-0.1896,-0.9478,0.4402,2.613,0.4756,-0.87,0.5234,-0.7437,0.8066,-0.6377,0.848,-0.2698,-1.461,0.9478,0.235,0.508,-0.8867,-1.97,-1.389,0.1964,-0.3508,0.3337,0.646,-0.4856,-1.1455,-0.4832,0.578,0.1853,1.07,-0.637,-0.6875,0.07794,-0.1656,-0.7104,-0.1736,0.456,-0.3188,0.3582,-0.721,0.75,-0.612,-0.0569,-0.958,-0.3193,-0.06647,1.894,-1.15,-0.04404,-0.01764,-0.07043,0.9194,0.1003,-0.521,-1.601,0.1655,0.07855,0.2776,-0.3289,1.002,0.683,0.5747,0.709,-0.03317,-0.877,0.05197,-2.443,-0.01348,-0.2856,-1.583,1.282,-1.142,-0.8193,-1.08,-0.4094,0.1181,-1.6455,-1.567,0.0004148,2.041,-0.458,-0.7275,-0.7114,-0.5464,-0.4607,1.253,2.25,0.3796,-0.4177,0.2285,0.679,-0.959,1.462,-0.5254,0.8916,0.0467,-1.061,0.2532,1.095,1.025,-1.039,0.464,0.775,-0.12213,-0.3398,1.416,1.59,-1.784,-1.841,1.092,-0.01901,1.295,0.1599,0.9263,-0.0797,-0.4668,0.8633,-0.7593,0.135,0.4297,-0.5786,0.512,-0.6484,-0.4128,0.8135,1.099,0.1494,-0.0386,-1.79,-1.072,0.2438,0.2336,0.433,-0.616,0.06476,-1.884,0.2607,-0.8364,0.3164,0.2195,-0.5054,0.7524,0.962,0.69,-1.109,0.605,-1.107,0.3425,-0.5356,-0.0085,0.793,-0.278,0.511,-1.144,-0.03818,-0.4165,0.7637,-0.4011,1.65,0.03366,1.461,0.4382,-0.836,-0.23,1.505,-0.2605,-1.394,-0.2092,-0.4255,0.2974,-0.452,0.4812,-0.2515,-0.05194,0.7427,-0.604,0.4824,-0.6533,0.647,0.902,-0.4612,-0.6655,-1.341,-0.4873,0.4539,-2.531,-0.4705,1.728,-1.422,-0.836,-0.1914,-0.02582,-1.205,0.7827,-1.463,1.991,-0.3728,-0.544,-0.09015,1.467,2.424,-0.19,-1.023,0.701,-0.998,0.0595,-1.288,-0.4143,2.654,-0.4343,0.719,-0.3638,-0.2798,-0.2439,-0.01203,-0.1495,-1.705,-0.5044,0.239,0.3806,0.302,-0.231,0.656,-0.798,0.4036,0.287,0.866,0.8145,-0.5156,-0.11115,0.5327,1.785,-0.1183,-0.2089,-0.503,1.718,-0.24,-0.613,-0.1808,-0.1727,-0.052,-1.645,-1.849,-0.6406,-1.207,-0.1606,1.258,1.677,-0.01203,-1.09,-1.091,-1.0,-0.7207,-1.692,-0.6685,-0.9272,1.509,-0.2737,0.07697,-0.12115,-0.02289,-0.655,-1.882,-0.1098,-0.16,-0.1122,1.087,-0.7515,0.4424,1.23,-0.0918,-0.5015,-0.821,-0.10486,0.9097,0.9365,-1.835,-0.2556,-0.3152,-1.227,-2.05,0.372,-1.411,0.3904,0.8584,-0.0602,0.6597,0.39,0.2073,-0.543,0.1832,-0.01755,2.809,0.3835,1.178,-0.634,-1.236,0.0553,0.971,1.691,0.735,-0.47,0.4446,-2.031,-0.78,1.344,-0.4138,0.5674,1.723,0.936,-1.323,-0.752,1.548,-0.848,0.795,0.05878,-0.538,0.4678,0.73,1.027,0.664,-1.213,-1.133,0.4106,-1.746,-0.4421,0.7,-0.816,-0.0956,-0.1829,-0.1054,-0.08704,-0.9453,-0.968,-1.671,-0.709,0.916,1.6,-0.5728,-0.3708,1.119,-0.817,0.657,-0.117,0.8843,0.09576,-0.167,0.5723,0.9976,1.392,-0.7485,-1.328,-0.8247,1.146,1.132,-0.1351,0.5376,0.2942,2.004,0.03647,0.4204,1.427,0.3513,0.7505,1.812,-0.3916,0.7812,2.203,0.3086,0.2192,-0.663,0.1072,0.0008926,0.132,0.5835,-0.405,-0.2031,0.706,2.008,1.13,0.1647,0.7017,0.5312,0.2373,-1.088,0.3145,-1.34,0.2666,0.0083,-1.87,0.59,-0.528,-2.057,1.475,0.2983,0.1081,0.3188,0.1042,0.1475,0.6973,-0.7085,-0.7334,-0.842,-1.172,-0.5186,-0.5845,-0.828,1.253,0.7607,-1.504,0.27,0.4202,0.12427,-0.2705,-1.148,-0.3557,-1.153,-0.904,-0.8003,0.0862,-0.2125,-1.334,1.284,0.6646,-1.18,0.8633,0.605,0.4712,0.1166,-0.3708,-0.2051,-0.5625,-0.1501,0.569,-2.0,-0.354,1.207,-0.007446,1.1,-1.141,-0.4746,-0.9434,1.714,-0.647,0.2019,1.743,-0.1602,0.581,-0.6416,-0.209,0.5654,-0.665,-0.2825,0.719,1.224,-0.02809,-0.514,0.4954,-0.5225,0.2322,0.01982,-0.2211,1.0,-0.3865,-1.064,-0.3877,1.253,-0.627,0.3308,0.0847,1.136,0.483,0.5415,0.2832,0.26,0.339,0.7153,0.0544,-0.8594,-0.06055,1.177,0.8174,0.03378,1.014,-0.636,0.0804,-0.5576,-0.2917,1.632,1.44,-0.1666,-2.092,2.148,1.602,0.538,0.678,1.754,0.006405,0.014595,-0.4646,0.2423,-0.3894,1.138,-0.6855,1.516,-0.3499,-0.656,-0.765,-1.274,-0.1197,-0.722,-1.404,1.6875,-0.707,-0.4775,-0.6685,-0.7847,0.389,-2.049,0.3088,0.6885,-0.8696,0.3704,1.682,-0.1344,-1.012,1.506,0.9478,-0.2737,-1.438,-0.887,-0.425,-1.039,0.8486,0.435,0.4575,-0.01281,-0.9087,-0.7266,-0.376,0.1569,1.347,2.084,-0.677,-0.2014,0.721,-1.083,0.2091,-1.144,0.7827,-1.052,0.4731,0.804,0.5967,0.727,0.3064,1.802,-0.1682,-0.2424,0.471,-0.9204,1.431,0.2776,1.083,-0.011,0.10706,0.2365,0.3445,-0.627,0.94,-0.539,-0.8135,0.1328,-0.3816,1.818,0.01323,-0.5444,-0.307,0.6143,-1.198,-1.04,0.285,0.3235,-0.5796,1.137,-0.382,-0.3948,1.193,-0.1813,0.284,-0.3489,-0.71,0.0553,-0.539,-0.3967,-1.763,-1.41,-0.01107,-0.9346,-0.2388,-0.9033,0.0737,1.053
bathtub,0.6094,0.7925,-0.3628,-1.204,-0.1228,0.2069,1.121,-0.4736,0.917,1.468,-0.7046,0.6514,2.309,0.0791,1.722,-0.5186,0.4158,-0.87,0.9683,0.7153,0.039,0.6465,2.729,-0.1421,-0.128,-0.5254,1.795,0.6616,-0.448,-1.267,-0.04193,1.758,0.5195,-0.5337,0.445,1.153,0.454,-1.317,0.2905,-2.008,0.904,-1.483,-0.4934,-0.905,-1.199,0.423,0.622,-1.047,-0.761,0.1726,-0.3875,-0.7993,-0.5576,-0.2177,-0.1051,0.02365,1.074,0.831,0.3577,-0.808,0.01826,-0.09357,0.07654,0.1416,-0.2231,-0.698,-0.562,0.9155,-0.824,0.5425,0.371,-1.415,-0.4285,-0.12,-0.8115,1.035,-1.021,-0.724,-1.048,0.795,-0.9526,-0.9014,1.057,-0.2615,-1.025,0.4053,0.5986,-0.8926,-1.569,-0.576,0.4224,0.4395,0.182,1.637,-0.3357,1.473,-0.7783,1.233,0.574,0.2766,0.7695,-2.1,0.3503,0.57,-0.9814,0.7363,2.586,-0.879,1.889,0.2798,-2.246,-1.977,1.57,-1.012,-1.543,0.8784,0.12134,-1.09,-0.8545,-0.696,-1.112,-0.715,-1.705,0.10944,0.2115,0.11847,0.2299,0.3076,-2.133,-1.89,0.5806,0.1521,-1.689,-0.11755,0.2932,0.2446,-1.182,0.8237,-2.277,-0.2869,1.513,0.3745,-1.328,0.446,0.4348,1.276,1.394,0.4148,-0.4587,-1.955,1.376,1.007,0.824,1.239,-0.662,0.933,1.608,-0.4111,1.436,2.31,-1.048,0.9863,-0.595,-1.53,0.8003,0.3833,0.285,0.5044,-0.3245,1.984,-1.703,0.9263,0.8516,-0.2312,-0.7227,0.004013,-0.2776,-1.989,-1.684,-1.913,0.265,1.713,-1.545,-0.726,0.3228,0.184,-0.8486,0.4705,-0.751,1.554,0.309,-2.016,-1.049,0.784,-0.922,0.93,-0.1814,3.748,0.872,0.8784,1.383,0.3772,1.086,-0.12335,2.125,-1.786,0.05554,-0.03833,-0.9194,-0.558,0.9536,0.745,0.3613,3.111,-0.647,1.297,-0.4285,0.4866,1.307,0.629,-0.472,-1.397,-0.1389,-0.3596,-0.4268,0.34,0.8433,1.949,-1.904,1.925,1.742,-0.818,0.3108,-0.3586,-3.521,-0.489,-0.914,-2.041,-1.736,-0.3193,-0.4917,0.1509,0.3203,1.165,-1.035,0.724,-2.115,-1.654,0.2593,0.1897,-1.984,-0.2145,-0.1918,0.2668,0.2803,2.527,0.6753,0.4949,0.5312,-1.158,1.238,-0.0564,-0.859,-1.569,-0.3765,1.324,-1.619,0.707,0.03738,-0.348,2.871,-1.389,-1.437,-0.2524,-0.5767,1.137,-0.653,-0.00449,-0.02455,0.2747,1.137,-0.0803,-1.411,-0.582,0.872,-0.3027,0.0913,-0.6675,-0.6084,0.91,-2.06,-1.179,0.5054,-1.28,1.473,0.04126,2.05,-0.2013,0.4185,0.5063,1.531,-0.766,1.741,1.841,-0.941,-1.127,0.655,0.07477,-0.4302,-0.8857,0.151,-0.9004,0.2632,1.171,-0.696,1.335,0.4758,-0.801,-0.902,-1.175,0.3203,0.2428,0.604,-0.915,0.599,0.4546,-1.316,0.8794,1.08,-0.4578,-0.2866,1.484,-0.7007,-0.2363,0.0632,0.981,0.7827,1.202,1.4375,0.2339,0.5273,-1.048,-0.543,-2.033,-1.932,0.6157,1.061,1.64,0.4846,0.04575,-1.791,0.1505,1.338,-0.8345,0.6914,0.7427,-1.435,1.041,-1.596,-1.463,0.1703,0.2079,1.313,0.1015,0.2212,1.186,-0.2135,-1.272,2.156,-1.034,0.3008,0.6895,-1.845,-0.574,-1.103,-1.156,-0.7407,-1.988,0.8457,-0.792,-0.2333,3.26,-0.789,0.576,0.0627,-0.8115,-0.5405,1.659,-0.144,0.1925,-0.3567,0.4304,0.0692,0.1672,-0.748,-2.365,0.5947,-0.4976,0.642,-0.4753,0.4717,0.2722,-1.435,0.31,0.775,0.2,0.001436,-0.5674,-2.096,-0.1294,0.3372,-0.08826,0.2456,0.09,0.9067,1.481,-1.485,-2.89,-0.7373,0.2698,-0.2905,0.0838,0.308,-0.04657,1.8545,0.10614,-1.535,-0.5444,1.16,-1.317,0.2384,1.106,0.7417,-0.1582,-0.3264,2.785,-1.918,0.372,-0.7793,0.688,0.9927,-1.326,0.5576,0.6675,-0.868,-0.491,0.99,0.2656,-1.733,-0.6714,0.854,2.21,0.3333,-0.262,-0.11676,0.693,0.586,-0.863,-1.93,0.6396,-0.6797,-0.3694,-1.515,0.4648,0.5225,1.722,-1.683,0.3125,0.2045,1.806,0.969,1.3955,-0.46,0.008835,-1.404,0.713,-2.709,0.964,0.3728,-0.10333,-0.01351,0.9307,0.1669,-2.182,-1.47,-0.755,0.2854,0.6646,0.8057,1.227,-0.221,-1.357,1.139,-1.597,-1.301,0.2378,-0.01114,-0.2847,-0.398,-1.407,0.2952,-0.3108,0.5176,0.0866,-0.4475,-0.1818,1.038,-0.5933,-0.292,1.101,-0.999,-1.855,1.437,0.2627,-1.429,-0.8555,0.801,-1.941,0.834,-0.994,0.8203,-0.569,-0.4136,0.1984,0.002647,-0.5654,-0.73,1.127,-0.4087,-0.8716,0.854,2.344,1.298,0.1508,-0.833,1.346,0.872,-0.8774,-0.1888,0.3508,1.479,-0.4856,0.3628,1.414,-0.05276,-1.159,-0.1367,-1.972,0.1779,-0.305,-1.326,0.04135,-0.3235,0.962,1.327,0.3801,-0.8296,-1.242,0.8545,-0.3376,-0.3928,-0.5146,-1.229,0.435,-0.7524,1.95,-0.5303,-0.5596,-0.7515,0.02145,0.5923,-0.6094,0.1138,0.9224,-0.05167,1.187,1.45,-0.499,0.3535,-0.894,-1.474,-0.2698,-1.118,-1.66,0.751,0.4126,-0.998,0.9717,-0.55,1.198,0.995,-0.9614,0.848,0.9727,1.026,0.741,0.621,-0.8604,-0.05167,1.535,2.346,1.474,0.9814,0.519,-0.8813,-0.02779,-1.384,-0.2246,0.1539,2.102,1.814,0.463,-1.41,0.5635,-0.2075,0.1359,0.6914,-0.757,0.05786,-0.951,-0.1046,1.51,-0.23,0.3027,2.387,1.318,-0.9893,1.304,-0.801,0.1637,0.0888,0.2378,-0.8403,-0.78,1.171,0.3032,-0.7876,1.473,-0.3552,0.4182,1.35,3.752,1.059,1.027,0.2537,1.277,-0.5264,1.028,-0.4314,-0.153,1.878,0.2651,-0.3809,-1.738,0.6367,-0.8945,-0.2869,-0.2223,0.4927,-0.685,0.01201,-0.2542,-0.5557,-0.611,-0.004456,0.4268,1.032,0.4573,0.522,-0.545,-2.047,1.089,3.488,-0.2974,0.4558,0.2267,-0.1765,-1.24,-0.276,-0.847,-1.188,0.286,-1.491,1.82,0.01958,-0.619,1.437,1.4795,0.624,-0.4272,-0.0644,0.4817,0.397,-1.339,0.2683,1.2705,2.273,0.1305,-1.686,-0.0968,0.622,0.796,-2.701,-0.7295,-0.0745,-0.0467,-0.3618,0.788,0.2588,-0.642,-0.758,-0.55,0.3481,-1.69,-0.3567,-0.691,-0.4856,1.277,0.518,-1.281,-1.234,-0.0958,-0.854,2.55,1.222,-1.345,-1.977,0.86,0.9355,-1.311,-2.262,0.786,0.4387,-0.1467,0.5728,0.0975,-1.217,1.063,-2.23,-0.4854,0.2096,-0.9004,-0.667,-0.6616,-1.07,0.949,1.471,1.118,-0.4355,-0.06433,0.842,0.2854,-1.085,0.1913,0.6494,0.7144,-0.8257,0.3906,-1.502,-0.501,-0.05908,-0.3445,0.03482,-0.707,0.3496,-0.705,-1.224,0.708
bear,0.4944,1.029,0.1782,-0.498,-0.364,-0.6465,0.1299,-0.9946,0.4336,-0.9043,1.005,-0.607,-0.3623,0.818,-0.05856,-1.019,-1.691,-0.1774,-0.51,-0.142,-0.599,2.32,-1.317,0.9814,0.6807,-0.1164,2.664,0.543,0.621,0.786,-0.47,-0.4456,0.2507,0.853,0.794,1.802,-0.01643,0.343,-0.585,-2.275,2.275,-1.164,-1.166,0.952,0.2124,-0.7275,0.596,0.9307,0.356,0.448,-1.056,0.2524,0.707,-1.018,-0.1893,-1.493,1.798,-0.5483,-0.10364,0.4092,1.981,-0.7847,0.709,-0.4392,0.10443,0.855,0.261,0.7583,-0.01417,0.4858,0.4194,0.00505,-0.9795,0.3652,0.1968,0.2957,-0.837,-0.306,-0.538,0.3232,0.767,-1.048,2.186,-0.1599,0.2471,0.0681,0.09344,-0.6006,-2.018,-0.792,-0.668,-0.2769,0.3047,-0.724,-0.886,2.229,-0.262,0.1567,-0.3486,-0.522,-0.801,-0.3142,-0.2012,0.01848,0.6523,2.16,1.865,-0.881,1.445,0.37,0.1123,0.2544,1.304,-1.237,0.6914,0.24,-0.1322,-0.3196,1.233,-0.4126,0.0774,1.25,-0.752,0.3098,1.028,1.1875,-1.78,0.6304,-0.7554,0.5864,1.421,1.186,0.224,1.398,-0.3027,1.212,1.464,1.92,0.04843,0.1665,-0.9907,0.8467,-1.049,0.005886,-1.677,-0.6787,0.8154,0.8745,-1.014,-1.488,-0.5835,-1.125,0.8345,0.5747,0.4954,-0.4885,-0.306,0.612,0.5044,1.524,-0.194,-0.702,-1.212,-0.529,1.37,0.0747,-0.6514,-0.2305,0.2507,0.0843,1.809,-1.6455,0.00771,0.979,-1.058,-2.664,1.401,-0.671,0.2078,-1.448,-1.785,-0.734,1.688,1.957,0.8086,0.2311,0.1865,0.5215,-1.06,0.0506,-0.2834,-0.6797,-1.2705,-0.6665,0.3804,-0.2637,0.9116,-1.014,-0.12024,0.2852,0.576,-0.1624,-1.828,-0.1888,-0.893,-0.6123,0.3347,-0.992,0.0608,1.365,-0.661,1.63,-0.6245,-0.542,0.1326,-1.144,-0.8916,2.152,-0.598,1.285,-1.6455,-0.3198,-1.684,0.848,-1.019,-0.4795,-0.641,-1.327,-1.479,0.1549,-1.708,-0.2717,0.579,0.71,-1.084,0.31,-0.3516,-0.2776,-0.708,-0.4993,1.872,-0.805,0.232,-0.261,-0.10236,-2.166,0.3174,0.1774,-0.2263,1.544,-0.3247,-1.072,-1.953,-2.26,-2.607,1.26,-1.993,0.0398,-0.5234,0.7793,1.432,1.301,-1.149,0.8667,-0.91,0.191,0.07043,1.766,-0.586,-1.71,-0.866,-0.3022,0.9336,0.1637,1.669,-0.8096,-2.56,-0.9487,0.9365,-1.6,0.804,-0.7065,-0.924,2.531,2.744,-1.146,0.3494,0.791,1.173,-0.2408,-0.6987,-0.7886,1.238,-0.3984,1.0205,-0.04782,0.4639,-0.532,2.639,-1.119,-0.5723,-0.9854,-0.233,-0.5537,-0.616,1.323,-1.804,0.1969,0.0361,-0.1696,0.5435,-1.519,0.0581,1.276,0.542,0.0776,1.143,-0.517,1.832,-1.059,-0.6333,1.394,-1.776,8.34e-05,1.127,-0.1708,0.578,0.6616,-0.5137,0.5786,-0.696,0.3074,-0.525,0.649,-0.211,-0.2277,0.687,-0.3037,0.3418,-0.8325,-1.261,-1.552,0.1652,1.075,0.2338,-1.196,-0.8276,-0.1718,-0.505,0.00447,1.995,-1.447,-0.506,-2.188,2.094,1.071,-2.139,-2.072,-0.9272,0.03293,1.113,0.1339,1.57,-1.335,0.2373,0.004383,0.6523,-1.392,-1.177,1.161,0.7344,1.799,-0.1816,-2.486,-1.231,2.32,0.998,-0.7437,-0.5303,1.914,1.268,-1.389,-0.1556,1.894,0.07306,-0.2126,0.3337,1.134,-0.1433,0.3528,-0.1697,-0.1669,1.012,-0.362,1.73,2.812,-2.072,0.1952,1.257,0.3147,0.1432,0.04877,-1.026,-2.295,0.324,-0.138,0.3223,0.556,0.1199,-1.048,0.02159,-1.84,0.6216,0.4739,-0.2534,-1.327,0.1976,1.119,-0.663,-0.0964,-2.805,0.502,-0.666,0.3135,-1.67,-1.12,-0.4404,-1.099,-1.074,0.0772,0.05716,0.1924,-1.364,-0.529,0.1819,-3.572,1.345,1.998,2.293,0.83,1.36,-1.417,2.752,0.3127,0.5264,3.115,-0.214,-0.2349,1.235,0.2109,-1.813,-1.912,-0.0255,0.5894,0.3206,-1.569,-2.092,1.536,-2.06,-1.299,-0.569,0.4216,2.236,2.455,-1.323,-0.21,-0.252,0.7466,-1.19,-1.666,-0.02396,0.284,0.959,-0.286,-0.08875,0.806,0.02171,0.1644,-1.283,-1.626,-0.1589,-0.5117,-0.6997,-1.958,0.3535,0.03583,-0.797,-0.584,0.03876,1.016,-0.3687,-1.513,-0.0499,-0.5273,-1.38,1.501,0.373,0.3794,-0.937,-0.906,-0.8286,-2.074,0.007744,-0.0832,-1.257,1.216,-1.741,0.1527,0.4146,0.2118,-1.088,-0.07117,-0.2471,-0.9546,0.9595,2.045,0.4607,-1.364,-0.5776,1.55,-1.944,0.2266,-0.3057,0.4646,0.276,0.096,0.42,0.799,-0.168,2.217,-0.3494,-0.1843,0.908,-1.308,-0.513,0.2495,-0.803,1.502,-1.17,1.287,-2.426,1.689,-0.2532,1.381,1.3955,-0.693,1.091,0.259,0.4617,-0.7476,-0.5654,-0.1127,-0.5415,1.003,0.806,-0.6875,1.366,-0.96,0.7417,-0.965,1.049,1.591,-0.9673,-0.1747,1.271,1.196,-0.4048,-1.282,-0.5547,2.477,0.4395,-1.315,0.7905,0.643,-0.1442,0.00299,0.02995,-1.076,-1.211,-0.425,-0.2455,-1.157,0.4712,0.4922,0.348,0.6304,-0.421,0.713,1.309,0.531,0.3494,-0.2546,-0.54,-0.10645,-0.567,-3.201,-0.08936,0.4768,4.05,1.167,1.36,0.715,0.603,0.5757,-0.2446,2.135,0.4705,-0.4912,0.05667,-0.0534,-0.575,1.347,-1.987,0.8745,-1.732,-1.124,-0.1819,-0.4019,-0.793,-0.09546,-0.06186,-1.027,0.844,1.469,0.382,-0.823,0.4087,-1.382,-0.4077,-1.129,0.08685,1.806,-0.577,-1.469,-0.25,-0.42,0.1112,0.4375,-0.0658,-0.2252,-0.1743,-2.166,-0.524,0.868,-0.923,0.5347,-0.561,-0.465,-1.996,1.039,-1.168,-0.3328,-0.138,0.3867,0.8345,1.171,-1.019,1.293,-0.544,0.9546,-1.552,0.0288,0.4304,-0.5483,2.533,-1.053,1.382,-0.667,1.169,1.531,-0.463,1.055,0.4604,-2.611,1.588,1.161,-2.709,0.3196,-1.594,0.6104,0.09045,-0.668,-1.077,-0.528,-1.407,-0.3567,-0.8047,-0.938,-0.1199,0.6675,2.148,0.1561,-0.2214,-0.2842,-0.04776,0.6533,1.987,0.29,0.593,-0.964,-0.2866,-0.00427,-0.09503,0.292,-0.5522,-1.738,1.888,-1.621,1.117,-0.307,-0.1958,-0.868,-1.313,2.6,0.798,1.534,1.04,-0.1488,1.934,-1.773,0.9707,-0.524,-0.6724,-0.1223,-1.299,0.728,1.251,-1.598,0.33,0.97,-2.305,1.318,0.851,1.845,0.7456,-1.3545,-2.326,-2.018,-1.097,0.2203,-2.617,-0.03885,0.8716,-0.5366,0.518,-0.703,-0.8667,0.0933,-1.034,0.7207,0.6113,-0.8853,-1.605,-0.4214,-2.135,1.897,1.8545,-1.131,1.419,0.5215,-0.1011,1.474,0.3792,-0.4434,2.074,0.2717,0.159,-0.3984
bed,-0.065,-0.2202,-1.537,-0.2517,0.2998,-0.5405,0.002884,2.2,0.688,-1.258,0.23,0.789,-1.9,-0.2708,-0.006077,0.5835,1.453,1.07,2.191,-0.11145,-0.134,-0.3345,0.2043,-0.7324,-0.02855,-0.3242,-0.515,-1.232,-0.721,-1.6045,-0.4636,0.6265,-0.1436,-2.0,1.228,-0.5566,-0.00881,-0.00495,0.5234,-0.634,0.1648,-1.095,-0.6616,-0.61,-0.7227,-0.09155,-0.4985,1.094,-0.4526,0.08624,0.1517,0.3684,-0.00494,0.7734,-0.625,0.784,-1.248,0.0452,-0.1726,-1.931,1.016,0.2267,0.768,0.3208,-0.353,-0.11145,-0.4875,0.7544,0.1987,-0.1526,-0.1224,0.6074,-1.282,-0.3296,-0.526,0.1642,-0.7173,0.2703,-0.2422,0.968,-1.732,1.368,0.7607,-1.201,-0.3823,0.1675,1.542,-0.3154,-0.454,-0.5024,-0.1638,-0.5547,-0.201,0.1515,0.793,0.5967,-2.705,-0.88,0.2542,-0.6636,0.346,-1.326,1.172,-0.1592,0.453,0.882,-0.916,0.2527,-0.0928,-0.1598,-0.1147,-0.958,-0.431,1.119,-0.3896,0.2212,0.0331,-0.2333,-0.2365,0.51,0.611,-0.2172,0.9526,0.2343,-0.2559,-0.0883,-0.8193,-0.874,-2.16,0.1299,-0.84,-0.3696,-3.178,-0.1919,-1.044,0.3354,-1.141,1.509,0.2693,1.452,0.447,1.717,0.164,-1.26,0.8193,-0.3984,-0.5825,-0.547,-0.0654,0.596,-0.287,1.091,-1.343,0.2448,0.2323,0.738,1.311,-1.276,0.1098,-1.002,-0.4463,2.1,0.772,-0.642,-0.02852,0.3213,1.138,-0.9404,-1.281,1.751,0.543,-0.6865,0.829,0.46,-0.9326,-0.3193,0.3298,0.3516,0.3733,0.00947,2.133,-0.1531,0.16,1.074,0.632,-0.687,0.3726,1.721,-0.6826,-2.082,0.9624,-0.5386,0.3318,-0.8584,-0.1392,1.338,-0.3074,-0.699,1.153,0.5337,-0.01784,-1.189,-0.2644,-0.505,-0.929,0.2208,-1.353,-0.979,-0.2546,0.7144,-1.517,-1.135,0.1366,0.913,0.04504,-0.912,0.667,-0.3232,-1.943,0.586,-0.14,0.6084,0.9004,-0.577,0.413,-0.05646,-0.1604,0.6826,-0.5156,0.8867,-0.76,-1.485,0.0772,0.1342,-0.575,-1.054,1.729,0.6846,-1.261,1.517,-0.3652,0.299,0.915,-0.6675,-0.833,0.9507,0.2952,-0.641,1.145,-1.354,0.3254,0.4973,-0.4949,-1.303,-0.09015,0.608,0.568,-0.575,-0.797,-0.4736,-0.775,0.754,-0.447,1.334,1.952,-0.565,-0.918,0.4126,0.3936,0.45,-0.11194,-0.8853,0.6064,0.319,-0.931,0.6235,-0.31,-0.3245,-1.061,-0.5605,-0.162,-0.2778,0.7275,-1.183,1.165,-0.001229,0.2585,-0.7075,-0.9307,0.1283,-0.4895,1.427,-0.9663,0.359,0.10626,-0.9395,0.93,-0.4421,-0.443,-0.4922,-0.3862,-0.08624,2.018,1.469,-1.908,-0.884,-0.762,-1.155,-0.363,0.1646,-1.158,-0.148,-0.1183,0.6963,0.335,-0.5244,-0.02054,0.2576,-0.0526,1.899,1.281,-0.195,0.1791,1.663,-0.6514,-1.12,-0.0005646,0.1888,1.097,0.1038,0.446,-0.01184,-1.179,0.2644,0.006016,0.6772,0.4744,-1.652,0.287,0.778,0.2438,-0.2686,1.122,0.2646,1.27,-1.81,-0.07404,0.69,-1.473,1.019,-0.2344,-0.4756,-0.0591,-0.2175,0.1804,-0.3533,-2.158,1.687,1.374,0.777,-0.1602,1.098,1.976,-0.4292,0.9487,-0.001184,1.556,0.1128,2.105,-1.192,1.758,0.2896,-1.581,0.6772,-2.074,0.8745,0.7065,0.5396,0.31,0.2908,0.951,0.247,-0.972,0.462,-0.579,-0.9585,-1.406,-0.0893,1.234,0.88,-0.3076,-0.607,0.2065,0.1868,0.4263,-1.339,-0.925,-1.693,0.0009594,-1.56,-0.3958,1.253,-0.1632,0.5566,0.5107,-0.681,0.775,1.056,1.396,0.1672,-1.606,-0.8057,0.08673,0.5635,-0.3225,-0.375,-2.828,-1.8545,-0.8267,1.103,-1.21,-2.943,-1.63,1.707,0.2559,-0.05057,1.164,-1.778,-0.2715,-1.396,0.623,0.8945,-0.538,0.719,1.359,1.013,-1.028,1.231,0.8867,-0.3352,-0.2417,-1.12,1.002,-0.84,0.5957,-0.1187,-0.3665,0.931,-0.694,-1.061,-0.738,-1.18,-0.999,-1.473,0.6206,-0.0865,-0.1306,-1.662,-0.864,-1.626,1.059,0.7065,-1.575,-0.8125,0.3828,1.611,0.3137,0.7793,-0.902,1.023,0.3127,1.697,-1.057,0.1724,-1.933,0.9595,-0.2712,0.7256,0.08276,0.2825,1.151,0.3435,-0.569,0.8,1.496,-1.83,0.477,1.218,1.101,0.966,0.1589,-0.0709,-0.4722,-0.5654,0.2556,-2.459,1.836,-1.103,-0.5015,0.862,0.2142,0.5425,0.6553,0.604,1.039,-0.2788,1.225,0.2339,-0.5947,0.296,1.257,-0.1372,-0.3247,0.5293,-0.4526,0.2146,0.7715,0.1626,-0.938,-1.539,-1.27,-1.053,-0.2004,0.638,-0.587,1.173,0.2405,0.388,-0.882,-1.6875,0.03433,0.2651,1.101,0.07605,-1.298,0.9463,-1.393,-1.537,0.899,-0.9233,0.5654,-1.568,0.1924,0.5913,1.424,-1.728,-0.6006,0.04465,0.473,0.875,1.181,0.6157,0.4033,0.3188,1.531,-0.2347,-1.698,-0.4216,1.874,1.385,0.9106,1.667,0.6416,-0.674,-0.5356,-0.0635,0.4075,-0.381,-0.8047,0.085,0.372,0.09607,-0.4712,-0.886,0.4463,0.000558,-0.2485,-0.4927,-0.2776,-1.03,1.22,1.337,0.3928,-0.1353,-0.041,0.0461,0.773,0.619,0.2627,-0.3008,0.2974,0.7417,0.3008,0.4167,-0.3298,-0.0657,-0.1311,0.957,0.3499,-0.864,-0.378,-0.2117,-0.1621,0.04294,0.5576,-0.668,-0.4885,-1.091,0.2186,0.679,-1.4,-0.4463,-0.7534,0.999,-1.094,2.086,0.419,-0.9424,-0.293,-0.5713,0.1564,0.7954,-0.3062,1.233,0.18,1.615,0.742,0.3684,-1.822,-0.01269,0.0893,-0.6646,0.2328,-0.2761,0.143,0.2291,0.6035,0.283,0.11993,-0.5273,0.528,-0.263,1.159,-0.4578,0.856,0.1757,0.378,-0.3655,0.10144,-0.1097,0.4114,-0.8667,0.6157,-0.533,-0.655,-0.4868,0.02145,0.6562,-0.2145,1.371,0.3015,1.281,0.3171,-0.4382,-0.395,-0.862,-0.359,0.451,-0.56,0.06635,-0.325,1.159,-0.3135,0.93,-0.7427,0.4128,0.252,0.4302,1.043,0.3613,0.1824,0.9424,-1.361,-1.322,0.5767,-0.4993,-0.09784,-1.801,0.6094,0.562,-0.479,-0.10156,-1.949,-0.8174,0.364,0.465,0.9,0.4597,0.1481,-0.3997,-0.6113,-0.6157,0.4634,-1.579,1.007,-0.8545,-1.05,0.8374,-0.4404,1.057,-0.9956,0.1455,0.599,0.341,-0.889,1.018,-0.4084,-0.604,0.922,-0.6167,-0.5386,-0.003777,0.3276,-1.294,-0.9023,0.4084,-0.518,-1.471,1.921,-0.6006,0.418,0.8057,-0.02498,-1.383,0.701,-0.2131,-0.6143,0.5786,0.03091,-0.5684,-0.08185,-0.673,0.3455,0.0127,0.505,-0.5073,1.068,-0.339,1.07,0.6626,-1.264,-0.0627,-0.926,0.3545,0.0387,-0.542,1.019,-0.8784,0.6895,4.035,0.582,1.104,-1.145,-0.7236,0.7466,-0.001295,-0.03357,1.619
belt,-0.472,-1.012,-0.337,-0.2747,-0.2003,-1.494,0.713,-1.026,0.647,1.191,-0.1266,-0.1825,-0.387,-1.996,0.722,-1.652,-1.519,0.605,-0.408,-0.602,0.6367,-1.272,-1.414,0.0894,-0.4163,0.3462,1.307,-0.7417,-0.897,0.7153,-0.911,1.07,0.1031,-0.3577,1.083,-0.1854,0.619,-0.1807,0.4026,-0.4563,0.727,1.293,0.4895,-0.1234,1.627,-0.9336,-1.181,-2.148,-0.6465,0.2124,0.3027,1.121,-0.3254,-0.0664,1.446,0.2903,0.3982,2.107,0.4648,-1.896,1.702,-0.04404,-1.825,-0.77,0.3894,-1.219,-0.742,-1.169,0.279,0.4148,-1.189,-1.426,-0.9077,-1.338,0.4011,1.315,1.177,-0.3997,-1.068,-0.4065,-0.9614,-0.389,-0.247,0.519,-0.4854,-0.4446,-0.2386,-0.0821,0.907,-0.4978,0.959,-0.2827,0.7637,1.06,-0.6294,-0.8203,-0.9087,-0.5024,-1.33,-0.4229,-0.3357,0.356,0.04382,1.043,-0.4502,0.242,0.696,-0.01146,0.5205,-0.2568,-0.772,-1.304,-0.581,1.443,-1.759,-0.674,-0.621,-0.294,0.4172,0.516,0.628,0.4358,1.589,0.8237,-1.254,-0.9033,0.8174,0.571,-0.6587,-0.1033,1.624,0.3772,0.9688,-0.533,-1.286,1.295,0.03665,-0.0922,-0.3433,-1.963,-0.6235,-0.2393,-0.1859,-2.37,-1.332,0.758,1.963,0.359,-0.5156,0.6685,0.1818,1.222,0.3435,0.02829,0.4924,0.5615,-0.1611,0.836,-0.509,-0.10895,0.4573,0.0711,0.01987,-0.0346,1.482,0.758,-0.1332,0.12024,0.2328,-0.8813,-1.159,1.724,2.535,0.1194,-0.05313,-0.4036,1.723,-1.195,-0.7476,-0.2328,0.341,-0.486,0.619,0.4192,0.2573,0.7285,0.2642,-0.6133,-2.578,1.409,-0.2345,0.09973,-0.1401,-0.2717,-0.611,-0.712,-0.2925,1.041,1.168,1.015,-1.339,0.601,-0.506,0.6963,-0.595,-0.1368,1.702,-0.3882,0.6484,-1.552,-0.6763,1.073,-0.506,0.5366,-0.03897,0.2305,0.8784,1.591,-1.025,2.818,1.231,1.927,0.8813,1.33,1.281,0.1636,-0.05893,1.592,0.6484,0.2825,-0.2446,0.729,-0.6973,1.346,0.5474,-1.168,-0.287,2.826,1.225,0.9165,-0.11957,-0.918,-0.624,0.4705,-0.1555,0.907,-0.761,1.075,-0.2585,-0.3496,2.375,-0.879,-0.7075,-1.215,0.5347,-0.8784,-0.8726,0.01862,-0.1416,0.7134,-2.283,-0.4246,1.476,0.9233,-0.06024,0.1185,0.58,-0.01193,-0.3098,-0.122,-1.224,-0.6465,-0.9585,-0.2212,0.4165,-0.9995,0.1532,-0.5156,-1.366,-0.7114,0.7803,0.06244,0.445,-0.6733,0.6997,-0.387,-0.3967,0.3652,-0.2634,0.2133,-1.108,1.185,-0.4285,0.1071,0.3738,0.4167,-0.71,0.1782,0.8916,-0.9316,0.9087,-1.095,-0.3938,-0.1993,0.6167,1.534,-0.1273,-1.063,0.1461,0.7783,0.3796,1.332,0.07684,-0.4622,0.2195,-0.793,-0.38,0.3904,1.072,-1.136,-0.2715,0.4368,1.353,0.4749,-1.12,-0.1339,0.2301,-0.3608,-0.4434,0.3633,0.0935,0.291,-0.533,-0.2275,1.045,-0.44,0.32,0.452,0.1295,0.8633,0.3098,-0.997,-0.4749,1.921,0.357,1.233,-2.143,-0.0397,-0.8003,1.12,-0.358,-0.4092,0.883,0.2024,1.756,-1.471,-1.624,0.4558,-1.487,-0.362,0.3455,1.202,-0.03357,0.4316,0.1093,1.472,-1.14,0.1456,-0.06186,-0.1372,-0.3713,0.688,1.441,0.6343,0.6655,-0.4622,-0.9707,-0.904,0.11206,-0.0911,1.465,-1.592,0.09045,-0.264,0.2893,0.01756,0.8887,0.09454,-0.3015,0.3394,0.02531,1.244,-0.4053,0.588,-0.6533,-0.546,-1.459,0.556,-0.02473,-0.8633,1.224,0.6743,-0.399,1.18,-0.6064,0.3909,-0.3164,0.3057,-2.9,-0.8916,0.3638,0.962,1.07,-0.1755,0.2642,0.2373,-0.4636,0.5083,-2.09,0.1732,0.1521,-0.4263,0.8403,0.555,1.729,0.3772,-0.1089,0.02884,-0.518,-1.038,1.066,1.165,-0.318,-0.4666,-0.1726,-1.034,-1.92,-1.195,-0.0092,-0.6104,0.06396,-0.7583,0.622,0.02762,0.886,-0.3457,-0.2695,-1.125,0.1722,-0.758,0.8633,-0.507,0.2217,0.1626,0.455,-0.974,0.8677,-0.8394,0.231,0.8843,1.386,-1.242,0.124,1.265,-0.10315,-0.211,-0.939,-1.771,-0.2998,0.574,1.843,-2.064,1.691,-0.1993,0.842,-0.3567,0.489,-2.207,0.1367,-1.36,-0.1305,-0.2465,-2.09,-0.3528,0.53,-0.0831,1.249,1.173,1.295,1.144,0.5693,-1.263,-1.643,-0.1231,1.167,1.544,0.08527,0.731,-0.2046,-1.291,-0.1874,0.11926,2.03,-0.4202,0.5386,0.1908,0.1891,-0.172,0.1521,-0.00967,-1.62,0.5923,0.1543,-0.7764,0.55,-0.0945,-0.4822,0.5103,-2.262,-1.29,0.455,-0.794,0.1505,-0.825,0.2566,0.5293,-0.344,1.263,0.9404,-0.0778,-0.3748,0.72,-1.118,-0.753,2.027,-0.0836,-0.4548,-1.097,-0.1077,-1.541,0.3904,-0.3315,-1.221,0.11505,1.962,-0.345,0.846,0.03943,1.346,-0.671,1.007,0.59,0.3018,-1.163,-0.4424,1.326,-0.1388,-1.082,-1.437,-0.968,-0.2827,-1.515,-1.593,0.1615,-1.067,1.172,0.3672,0.3384,0.4028,0.619,-1.235,-0.4302,-0.7847,1.011,0.501,-1.345,-0.865,0.2742,0.5674,-0.694,-0.424,0.2551,-0.961,0.818,0.8096,0.886,-1.061,-1.126,0.1909,0.3215,-1.063,-0.4429,1.203,0.2954,0.2057,0.678,0.4758,-0.6177,0.06158,1.111,-1.506,0.1678,0.3723,-0.5386,0.8857,0.7134,0.219,0.00791,-1.979,0.3318,-1.934,-0.2646,-1.855,-1.351,-0.696,-0.1583,-1.993,0.8774,0.5093,1.527,-0.9033,1.491,-1.44,-0.41,1.047,0.766,-0.511,-0.0189,1.43,-1.337,-1.009,1.179,-2.303,-0.6157,-0.6787,-1.338,0.2003,0.4614,1.368,0.784,0.6885,0.3735,0.3044,0.7354,-1.034,-0.1373,0.3713,-1.371,0.013885,-0.0554,0.3054,-0.7734,0.9604,0.9517,0.1843,-0.963,-0.591,1.196,-0.4973,-0.6206,0.3948,-0.68,-0.9126,-1.341,1.328,0.8037,-0.2876,-0.4048,-0.8423,0.61,1.674,-0.571,-1.729,0.3276,-0.628,0.4304,-0.0693,0.9575,0.03036,0.68,-1.007,-0.8843,1.055,-0.4722,0.891,-1.177,0.5474,0.973,0.2996,-0.275,0.1462,-0.503,0.697,-0.2825,0.3496,1.015,0.8574,-0.0777,0.2114,-0.368,0.07697,0.7715,1.344,-0.7856,-0.4753,1.167,2.896,-0.105,-0.655,-0.1982,0.4434,-0.921,-0.1278,1.025,-0.322,-1.052,-1.196,-0.4216,-1.247,-1.842,-0.3152,0.783,1.867,0.4155,-0.1525,-1.268,-0.736,1.551,0.07794,-0.07184,0.05597,-1.361,-0.0929,1.134,-0.0641,1.027,-0.1455,0.3435,-0.8833,-1.492,0.3381,0.2443,-0.572,-1.146,0.05496,-1.382,-0.5083,0.0781,-0.1892,0.752,-0.318,0.622,-0.8105,0.2578,1.443,0.4224,0.438,0.831,1.009,-0.4492,0.1022,0.7744,-0.2303,-0.804,1.901,0.787,0.04227,1.37
bench,1.544,1.416,-0.91,-0.4795,-0.3982,0.4177,-0.3667,0.8506,-0.078,-1.08,0.8115,-0.447,0.6562,-0.4333,-0.3464,1.506,0.6313,1.654,-1.332,-1.743,-2.084,0.1006,1.099,0.5864,0.0324,2.012,-0.0807,0.645,0.557,0.05533,0.8794,0.857,-0.516,0.06223,-0.3325,0.6807,-0.1676,0.7817,-1.439,0.2546,-0.085,-0.02525,-0.04886,-0.2927,0.3352,0.1588,1.154,0.4814,-1.285,0.802,0.5713,-0.6924,-0.5874,0.2013,-0.511,0.553,-0.4395,1.088,0.08563,-2.48,-0.651,0.695,1.79,-0.3945,0.2151,-0.571,0.829,0.2795,0.1906,0.153,-0.04926,-0.013466,0.874,0.6665,0.599,-2.082,0.1636,-0.1447,1.306,0.00996,-0.7974,0.1732,-0.1754,0.1251,-0.0534,0.358,0.646,0.5977,-1.2705,0.05048,-0.7993,-0.2393,0.3572,-0.204,-0.11865,0.9087,-0.433,0.768,1.544,0.3188,0.908,0.2678,0.51,1.741,-0.5195,0.1558,0.954,0.345,-0.5127,-0.756,-0.6167,1.156,-0.26,-1.015,1.396,-2.0,-1.466,0.9395,0.768,-1.481,-0.7476,-0.88,0.05972,-1.148,0.5034,-1.735,-1.256,1.326,0.4902,0.465,-0.9165,-2.254,-0.1589,0.2622,-0.00211,0.984,0.05273,0.05548,0.566,0.2905,-0.4922,0.1053,1.0,-0.53,-0.7686,-0.738,0.863,1.376,-0.6064,1.86,-0.2847,0.5522,-1.537,-0.2155,0.3445,0.5273,-1.236,0.53,-0.914,0.3892,-0.972,-0.2988,-0.4666,-1.029,0.2732,-0.67,0.333,-1.153,0.5728,0.05698,0.344,-0.2524,-0.1283,-1.592,-0.6934,1.122,0.246,1.118,-0.8325,-0.3164,-1.373,-0.6587,0.2605,-1.338,0.8867,0.7065,-0.4524,-0.09796,0.1494,-1.051,-0.2122,-0.1953,0.2666,0.401,-0.012054,-0.2363,1.064,1.426,-1.648,1.462,-0.718,-1.06,-0.10956,0.3318,0.547,-0.4666,-1.03,0.1777,-0.0664,0.533,2.809,0.77,-0.1097,0.2268,-0.476,-1.055,0.884,-1.85,1.1045,-0.2427,0.1493,-0.4517,-1.038,-0.3845,0.3774,0.5166,-0.3804,0.3887,-0.9,-0.5864,0.6064,-0.02304,-0.597,-0.5347,-1.722,-1.157,0.608,0.3103,-1.612,-1.276,0.435,0.3818,-1.48,0.6343,-1.6045,1.281,-1.187,-0.1142,-1.246,0.05792,-1.951,1.45,-0.1652,0.847,-0.8047,-0.7144,1.843,-0.3394,0.4065,-0.4802,-0.5327,0.0795,-0.8774,-1.557,0.05005,-0.3787,0.2798,-0.1945,0.151,1.624,0.0965,0.354,-0.2822,-1.555,0.443,-0.1189,2.201,-1.125,0.2935,0.3516,-0.4146,-1.907,2.414,0.955,-0.8037,-1.45,-0.8633,0.308,1.83,-0.8013,-0.1643,0.7075,0.8667,-0.1709,-0.1683,-0.551,0.6616,-1.349,1.901,1.935,-0.6465,-1.402,0.1919,0.6323,0.013504,-0.599,1.092,1.035,0.697,-0.465,-0.6675,0.3906,-0.2764,0.4302,-0.814,0.808,0.0355,0.6846,-1.095,-0.842,-0.203,0.504,-0.331,0.839,0.991,1.071,0.0812,0.8667,-0.4583,-0.4163,0.5137,1.468,0.2507,0.677,-0.5444,0.04715,-0.9062,2.174,-1.027,-0.858,-0.07623,-0.3125,0.5815,0.435,0.6763,-0.6885,-0.7847,0.3384,-0.9385,-0.4695,-0.3337,1.276,-0.3245,-1.117,-0.955,0.001589,-0.855,1.236,-1.029,-0.2426,-1.086,0.3337,-0.10724,-0.513,2.475,1.271,0.7324,-0.0949,0.6924,-0.87,-0.536,-0.8325,-1.25,-0.9326,0.6294,-0.1896,1.274,-0.946,0.783,-2.059,0.84,-0.4573,-0.241,0.6772,-0.3875,-0.23,0.145,0.556,-0.433,0.379,1.056,0.6846,-0.1433,-0.4895,0.2418,-0.4973,-0.9727,0.991,-1.024,-1.1875,0.5938,0.2015,-0.361,-0.1375,0.45,-0.5806,-0.4062,0.7437,0.03284,0.548,-0.337,-0.5728,-0.061,-1.587,1.3,1.202,0.2086,0.659,-0.3982,-0.9453,0.1753,-0.639,-0.03348,0.897,-0.869,0.9565,1.474,1.184,0.591,0.4897,-0.3184,0.4329,-1.616,-0.4797,0.677,0.338,0.02487,0.667,1.21,-0.6787,-2.242,-0.1873,-0.698,0.01869,-1.027,-1.52,0.8403,-1.481,-0.3562,-2.033,0.282,-0.506,0.06384,1.17,-1.223,0.284,1.415,0.1787,1.404,0.00738,-2.79,0.744,-0.1936,0.5083,0.1316,0.479,0.436,0.5337,-0.3604,-1.067,-0.501,0.8213,0.4956,-0.288,-1.313,-0.1075,-0.01465,-1.079,-0.5005,0.925,-0.3113,-0.002773,0.5474,1.631,-0.771,-0.704,-2.03,0.0722,-1.165,0.376,0.05182,1.068,0.5557,-0.1077,1.712,-0.4255,0.0908,-0.914,-1.128,0.3232,-1.22,-0.127,-0.2042,-0.04648,1.821,0.4148,1.358,-1.677,1.194,2.354,1.656,0.3535,0.299,0.7583,1.028,-1.12,-0.3833,-0.0705,1.256,0.9346,-1.172,0.02489,-0.317,-0.0897,0.4685,1.245,-0.2313,-0.8496,-0.5293,0.1793,0.1606,0.316,0.5527,-0.2045,0.606,0.506,0.8623,0.3098,0.9185,0.05225,-0.762,-1.075,0.425,0.07416,0.978,0.777,0.798,0.5034,-1.102,-1.448,0.7637,-0.12286,0.706,0.05106,-0.4663,0.6685,1.163,0.636,1.129,1.206,0.396,-1.66,-0.554,0.3245,-1.514,0.982,-1.064,1.887,1.767,-0.168,0.0705,0.04767,0.1084,-0.9897,-0.5415,-1.691,0.2273,0.7437,-0.03156,-1.681,1.444,-0.697,0.07336,0.4236,0.706,-0.2256,-0.485,-0.7134,0.5347,-0.2517,0.3196,0.6836,0.3782,-1.197,0.03812,0.05185,-1.347,0.9707,1.864,-1.042,0.8564,-1.402,0.569,-0.1702,0.10974,-0.01633,-0.6543,-0.867,0.8184,-0.5835,0.952,1.589,-0.4844,-0.733,-0.534,-0.1904,-0.808,-0.6,-2.152,-0.4412,-0.01151,1.41,0.2145,1.403,0.2864,0.0696,-0.13,-0.1761,0.7495,-1.475,0.2273,0.9634,-1.758,-1.242,-0.517,-2.229,0.1816,1.916,-0.6177,-0.0817,0.5034,0.177,-0.8936,-0.761,-0.633,-0.1759,1.01,0.7373,-0.9106,0.539,0.623,1.062,0.1952,0.0377,0.1942,-0.11804,0.5513,-0.1686,-0.9033,-1.645,-1.758,2.256,0.722,0.1941,0.865,0.8467,-1.39,-0.06256,-0.662,0.332,-0.5522,2.305,-0.2908,-0.1864,-1.415,0.4739,-1.065,0.9204,-0.627,0.8066,-0.603,1.151,0.3972,-0.502,0.11584,-0.556,-0.584,-1.942,1.044,-0.2178,0.5527,-0.4792,-0.04208,1.157,0.5225,-0.5747,-0.8667,0.5576,2.016,0.2942,1.94,-0.0479,-0.653,-3.0,-0.647,-0.0244,-0.1054,-0.1488,0.719,0.3345,1.174,-0.8403,-1.381,0.10925,-0.656,-2.4,-0.6016,-0.7236,0.6143,0.0004609,-1.575,-0.783,0.8174,0.41,0.6675,0.662,-0.8755,-0.05453,-1.108,0.201,-0.5977,-0.2505,0.969,-0.3818,1.181,0.668,1.866,-0.794,1.619,1.694,-0.09644,-0.998,-1.298,0.0706,1.53,-0.2512,1.267,-0.601,0.8794,-1.369,0.8726,-0.3457,-0.1898,0.2087,-1.267,0.6294,-0.702,0.4163,-0.2158,1.507,0.601,0.6763,-1.283,-1.619,-1.027,-0.3625,1.325,-0.3584
bib,-1.384,0.8843,-0.002684,1.349,0.3384,-0.1864,-1.569,-0.39,2.781,0.4902,0.2878,0.8223,1.027,-0.4717,-0.5103,0.312,1.452,-0.6914,-1.728,0.8413,-1.524,-1.765,-0.2864,0.9917,0.53,-0.6885,1.035,0.943,0.964,1.2705,0.4417,0.906,-0.644,0.4243,-0.6265,-0.03238,-0.2297,-0.1287,1.3545,0.6636,0.2063,-0.863,0.1958,1.12,-0.902,-0.903,1.75,-0.2461,-0.9185,-0.07446,-0.4836,-0.3547,1.037,0.0552,-0.5137,-1.555,0.359,-2.166,-0.3245,0.701,0.3562,-2.139,-1.382,0.466,0.854,0.92,-1.684,-0.245,-0.744,-0.4856,0.4727,0.1661,1.479,0.607,1.797,1.133,0.9253,0.3591,0.4534,-0.701,-0.2301,-1.859,1.256,0.8213,-0.562,0.3088,-0.795,0.1846,-0.2507,-0.7725,-0.948,-0.758,-1.207,-0.497,0.415,-1.15,-0.0642,-0.4463,0.4014,-0.246,1.805,-1.041,1.237,0.1455,-1.82,1.353,0.817,0.6216,1.354,0.1229,-0.07385,0.5244,-0.2786,0.06198,0.5244,1.246,-0.2059,2.92,-0.5566,0.1254,1.2295,-0.3494,-1.056,1.107,0.692,-0.1163,-0.05307,0.5435,0.1904,0.8447,0.6255,-0.468,1.527,1.479,0.085,-0.852,1.185,-1.586,1.3,0.624,-0.535,0.723,-0.07745,0.2935,0.359,-0.332,-0.00721,-0.567,1.256,-0.849,-1.809,-0.9897,0.01124,1.272,0.3765,-0.2495,-0.4336,0.0851,0.08527,-0.3318,1.808,0.4377,1.194,-0.514,-0.6396,0.705,0.364,-0.2283,0.5435,0.1584,1.321,1.027,1.193,-0.3176,0.641,0.7715,1.775,-0.0864,0.6284,0.4622,1.642,1.205,0.8237,-0.0435,-0.4778,1.0205,0.7993,2.008,-0.09656,0.2612,1.749,0.1776,-1.212,-1.492,-0.2546,0.4895,-0.672,-0.0749,-0.932,-2.824,-0.3035,1.072,-0.0928,0.6396,-2.025,1.025,-1.713,-1.209,0.1009,-0.5166,-0.8765,-0.687,-0.1149,-0.01538,1.196,-0.5796,-1.128,0.775,-0.4766,0.2766,-0.5107,0.6333,-0.06506,-0.7646,1.758,-2.266,2.71,-0.617,-1.7295,0.1553,0.4187,-0.709,0.0867,-0.0506,-0.946,0.6553,0.014755,-1.068,-0.783,-0.3381,-0.6675,0.817,-0.8633,0.3716,1.09,-0.431,-0.6094,-0.219,-0.3906,0.542,0.1328,-1.038,0.885,-1.241,0.4136,-1.401,1.102,-0.0701,-1.416,0.8916,0.655,-0.4355,0.9116,-1.086,0.746,0.00741,0.1587,-0.1359,-0.564,0.2727,0.6934,0.63,0.902,-0.1144,0.05524,-1.547,0.4207,-1.294,-0.629,-1.177,-0.6426,0.7837,0.2832,0.1735,-0.625,0.9297,0.7085,-0.4917,1.605,-0.1131,-0.3123,0.7827,0.06235,-0.1256,-1.12,1.542,1.709,-0.01987,0.2705,0.9897,0.637,0.849,-0.3953,0.4429,1.079,-0.8354,-0.372,1.646,-0.808,0.402,-0.4893,0.3752,-1.43,0.5034,-0.5337,-1.205,-0.4658,1.15,1.508,-1.626,-1.526,0.2825,-1.589,1.68,1.217,0.8076,-0.9624,-1.776,-1.118,-0.84,0.001366,-1.47,0.966,1.417,0.0657,0.964,-2.096,1.089,-0.832,1.4375,-0.7393,0.7056,-0.675,0.02815,0.1115,0.5327,-1.111,-0.6484,0.7646,-0.726,-0.1885,-0.621,1.548,0.754,0.4346,-1.266,-0.004414,0.4807,0.9316,1.172,-0.56,-1.391,0.02373,-0.1254,-0.1515,0.3223,1.244,-0.006256,1.722,0.2332,-0.148,0.8037,0.1837,-0.6074,0.517,0.0533,0.6416,-1.477,-1.962,3.283,0.44,-0.06076,1.808,0.03897,-1.198,0.795,0.816,0.2197,-0.884,0.1753,-0.641,0.052,0.3494,0.8687,0.2607,-1.038,0.238,-0.01419,0.259,-0.2028,-0.592,-1.58,-1.496,0.524,-0.7847,0.1139,-0.392,0.1312,-0.1958,0.5464,-0.777,-1.461,-0.02773,-0.4897,-0.10626,-0.98,-0.3425,0.4854,-0.1483,-0.716,-1.25,0.3352,1.55,-0.1759,-1.363,0.10657,0.5913,0.0819,1.308,-0.001128,-1.107,-1.075,1.997,0.698,0.4392,0.3325,1.268,-0.2605,0.5225,-0.518,-1.959,-0.825,0.294,-1.933,-0.6826,-1.424,-1.181,0.627,1.109,-0.09937,-1.102,-0.3994,2.318,-0.4426,-1.392,0.3286,-2.342,1.336,-0.6553,0.951,-0.6636,1.495,0.701,-0.9854,0.0899,-0.551,-0.4692,-0.6743,-0.868,-0.786,-1.524,-0.1401,-0.818,0.2498,0.4834,-1.398,0.7065,0.0043,-0.6504,-1.158,0.1704,-1.016,-0.3896,0.347,-0.982,0.8633,-0.8906,-0.2172,-0.997,-0.5283,0.322,-0.9937,-0.2583,-0.2678,-0.2229,-0.799,-0.1868,-0.9194,-0.9067,-0.8867,0.09454,-0.428,0.3076,1.361,0.939,-0.2296,-0.4468,-1.4795,-0.0465,1.029,0.5757,1.523,0.08234,-0.369,-1.26,0.5127,0.1385,-0.814,0.2964,0.9673,0.1381,-0.006344,-1.077,0.7124,1.17,0.7593,2.102,-0.2793,-0.61,-0.297,-1.126,0.9155,-1.441,-0.571,-0.5415,0.11835,-0.1594,0.1562,0.3452,0.965,0.297,0.973,0.1919,-0.371,0.4268,0.0462,-1.602,1.426,1.486,0.76,0.5415,0.691,-0.2444,0.7754,-1.29,-1.245,0.08215,0.8193,-0.5693,-0.602,-0.4297,1.101,1.662,-0.705,0.09796,-0.5796,0.503,-0.014465,-0.981,-0.5674,1.211,0.2361,0.9985,0.86,-0.7734,-1.009,1.421,-0.2922,-1.355,0.0437,1.193,1.647,0.1984,-1.139,0.6636,0.6455,-0.6665,0.1837,0.719,-0.3625,-0.1793,1.132,0.3315,-1.945,0.4941,-0.1956,-0.2008,-0.09814,0.437,0.743,0.4048,-1.381,-2.32,1.181,-1.535,-0.1329,0.486,-0.2417,0.649,1.111,0.7617,-0.993,0.4976,-0.1659,0.446,-0.865,0.9014,-0.0607,0.3381,-0.778,0.1678,0.3328,0.6426,1.424,0.1705,1.113,-0.2474,0.2964,-0.0757,0.5347,-0.2666,-1.692,0.737,1.46,-0.1838,0.2593,0.346,-0.5415,-0.4678,-0.9844,0.584,-1.154,1.16,-1.637,-0.5117,0.566,0.2769,-0.9033,-0.1882,-0.804,1.902,0.1142,-0.836,-0.252,0.1217,-0.8784,-2.365,-1.23,0.0762,-2.182,-1.575,0.2644,-2.195,-0.01894,2.21,0.835,-0.311,-1.24,-0.5293,-0.00851,-0.08356,-1.236,0.6665,-0.755,-0.06384,0.5454,1.386,1.15,-0.526,0.1329,-0.6636,-0.8887,-0.4575,-1.886,0.3928,-0.5747,1.149,0.1722,0.31,-0.4875,0.005276,0.5264,0.9707,-0.7046,-0.968,-2.648,-0.97,0.781,-0.529,0.834,-0.2325,0.1295,1.268,-0.0815,-1.798,1.744,-0.338,-0.463,0.005936,-0.246,-1.907,1.563,-0.518,1.608,-0.766,0.6978,-0.0939,0.2605,1.281,2.773,0.2064,1.914,-0.6875,-0.6133,0.4463,-0.05804,-0.2474,-1.5,-0.5684,1.358,-0.1647,0.127,0.727,-2.146,-1.063,1.483,-1.816,0.504,1.216,-1.6,-0.2788,-0.4773,-0.569,-1.996,0.891,2.37,0.1279,0.6187,-1.416,1.28,-0.906,0.4043,-0.1945,0.5522,-0.534,-1.282,0.773,0.1318,1.081,-0.651,2.041,1.051,0.83,-0.01613,-0.1254,1.541,1.25,-0.2534
bird,0.948,-0.2893,-0.554,0.0693,0.2335,-0.2126,0.2328,-0.06885,0.42,0.004673,-0.5415,-0.1907,-0.4348,-0.04474,0.563,-0.934,1.323,0.2435,0.3606,0.001018,0.4556,-0.4065,-0.1793,0.06445,-0.993,0.03296,0.1545,0.179,0.8237,-1.233,-0.786,-0.437,0.1172,-1.02,-0.2148,-0.09393,-0.01785,-0.862,0.575,0.6943,-0.4004,-0.314,-0.2734,-0.282,-1.386,-0.2751,-0.3665,-0.08234,-0.5947,0.437,-0.2228,0.1503,-0.4429,0.02258,-0.776,-0.4475,1.23,-0.1797,0.2317,-0.4792,0.0874,-0.3174,-1.355,-0.0181,-0.5366,-0.2125,-0.2062,0.2993,-0.0869,0.07886,0.289,0.625,0.382,0.6304,-0.5996,0.914,-0.365,1.33,0.2035,0.5527,1.104,0.03552,0.1114,-0.1952,0.2808,0.10065,0.1267,0.3103,0.3086,0.352,0.3223,0.621,-0.0865,-0.162,0.0776,-0.6274,-0.395,0.6074,-1.052,-0.3496,0.3125,0.999,0.1611,0.2969,0.1829,0.6226,0.0879,-0.504,0.1534,3.545,0.3635,-0.6294,-0.6084,-0.7905,1.359,0.4114,-0.607,-0.04498,1.036,0.2175,-0.4712,-0.144,-0.85,0.1635,0.323,0.2129,-0.04126,-0.4482,-0.7207,0.178,-0.8037,0.3574,-0.692,0.358,0.346,1.033,1.116,-0.1782,0.5635,0.6772,0.8247,-0.3782,1.5,0.373,0.3274,-0.4666,-0.07556,0.11505,-0.04297,-0.952,-0.368,-0.64,0.2238,-1.145,0.4727,-0.649,-0.591,-0.01648,0.9297,0.2827,0.3467,-0.2527,-1.018,-1.66,0.361,-1.981,-1.044,-0.655,-0.4185,-0.361,0.03696,-0.2644,0.7686,0.4187,-0.7036,2.447,-0.1272,-0.1584,0.9834,-0.09296,0.9683,0.634,0.3752,-0.5825,-0.06046,-0.1942,-0.1427,-0.1606,1.053,-0.2742,0.2734,-0.2394,-0.4946,0.1644,-0.1052,0.1245,-0.10815,0.844,-0.7896,0.2052,-0.03,0.1738,0.1824,0.4683,0.12006,0.8438,0.1588,-0.3008,0.1364,-1.362,-0.937,-0.8574,0.431,0.582,0.682,-1.101,0.567,-0.1925,-1.126,-0.4011,0.3484,0.06226,1.815,0.434,0.638,0.03009,-0.0745,0.68,-0.7837,0.2449,0.8076,-0.8335,0.4714,-0.0804,0.381,-0.035,-0.8486,-0.0942,-0.7866,0.4907,1.81,-0.2842,-0.9497,-0.451,-0.6807,-1.923,-0.01706,0.758,-0.0683,-0.3367,0.2437,0.2373,-0.5146,-0.47,-2.033,-0.2292,-0.583,1.149,-0.2168,-0.3694,-0.9614,-0.0457,-0.2144,0.4875,0.4531,-0.05362,1.988,-0.4746,-0.1912,-0.9185,0.0712,0.2133,0.3752,-0.7837,-0.3193,-0.2389,-0.345,0.857,0.05453,-0.5376,1.168,-0.3486,-0.0992,-0.3462,0.7163,0.201,2.082,-0.2659,0.0691,-0.369,0.2747,0.0531,0.545,0.08026,0.56,-0.7812,0.781,-0.482,0.5166,0.2742,-0.5854,0.3066,-0.728,-0.02194,-0.1624,0.643,1.868,-0.1171,-0.2091,0.0002182,-0.934,-0.2803,-0.3247,-0.3677,-0.06726,0.4033,-0.1659,0.637,0.1274,0.4087,-0.3567,-0.448,0.523,0.04605,0.616,0.3635,-1.68,-0.1842,0.1592,-1.2,-0.363,-0.1921,0.2542,0.13,-0.3228,0.59,-1.163,0.3,0.716,0.8228,-0.2146,-1.183,0.5127,-0.2416,-0.2651,0.69,0.3965,0.921,-0.3794,0.2798,1.459,-0.2089,0.1749,0.7393,-0.10455,-0.5024,0.1948,0.2197,-1.042,-0.3005,0.7656,-0.972,0.07996,-1.035,-0.5283,-0.01624,1.1875,0.6846,-1.2705,0.219,-0.6064,1.18,0.887,-0.4019,-0.6445,0.5376,0.347,0.10785,1.651,-0.2379,0.4768,-0.843,-0.3215,1.055,-0.4927,-0.672,0.03275,1.71,-0.317,-0.7754,-0.85,0.6807,0.372,-0.2373,-0.02708,0.1628,0.455,-0.384,-0.3926,-1.084,-0.2961,-0.08044,0.4832,0.3196,-0.1755,-0.687,-0.984,0.1503,-0.6045,-0.3958,-0.0188,0.2524,0.57,0.4558,1.136,0.3035,-0.6074,0.1749,-0.1962,0.8223,-0.617,0.4915,-0.278,0.346,0.5195,0.661,0.9,0.8765,-0.4436,-1.005,0.6187,-0.3472,0.0428,0.04337,0.10126,-1.073,0.014824,-1.017,0.3948,-0.6475,-0.1959,-0.2177,0.355,-0.278,-0.03253,-0.1156,-0.2788,1.086,0.6895,-0.1387,0.005383,-0.2634,1.104,-0.5923,-0.3655,-0.7046,-0.0703,0.1312,0.00604,-0.5205,-1.552,0.2598,-0.1691,1.705,0.2341,-0.653,-0.1971,0.8696,0.77,-0.6807,0.9478,1.145,-0.1876,-0.1903,0.802,-0.8125,-0.3545,-0.6226,-0.12396,-0.424,-1.78,-0.3809,0.698,-0.566,0.4443,-0.2328,-0.8457,-1.188,-0.151,-0.6133,-0.574,-1.076,-0.6396,-3.07,-0.2064,2.48,0.4138,0.7515,0.4434,-0.2354,-0.01068,0.0419,0.549,0.5156,-0.6626,-0.0779,-0.2532,-0.1741,-0.25,0.5967,-0.234,0.7803,0.069,1.198,-0.651,-0.4907,0.4878,-0.008514,1.095,0.2644,-2.055,-0.296,0.4407,-0.2461,-0.931,-0.7925,-0.0956,0.7495,0.2944,-1.169,-0.1472,-1.176,-0.4775,0.02682,-0.03354,0.3608,1.031,0.438,-1.151,0.09576,-1.57,-0.576,-0.291,1.917,0.509,0.817,-0.0543,-0.2888,0.2761,1.679,1.066,0.321,1.03,-0.582,-0.1296,-1.046,-0.2034,-0.10565,0.3025,1.125,0.2042,-0.517,-0.75,1.399,0.07794,0.2744,-0.3757,-0.4792,0.9062,-0.4631,-1.116,0.5117,0.1466,-0.762,0.71,-0.654,0.2986,-0.502,1.195,0.3389,-0.3171,-3.03,0.2473,-0.4988,-2.01,-0.653,0.7188,-0.307,-0.6787,0.4346,0.4053,-1.067,0.6875,-0.4678,-0.4949,0.3203,0.2085,-0.4158,-0.04025,-0.2399,0.1015,-1.446,-0.691,-0.1072,-0.02237,-0.2896,-0.7266,-0.633,0.4734,0.376,-0.10474,-0.2917,0.9434,-0.0734,0.421,-0.1545,-0.3125,0.1599,0.1193,-0.3115,0.1467,0.9478,-0.2247,-0.5986,0.484,-0.995,0.1498,0.7324,-0.1582,-0.618,1.118,1.354,-0.1317,0.7964,0.2123,-0.4758,-0.7554,-0.1655,-0.488,-0.11145,-0.2379,-0.609,0.5073,-1.05,-0.2456,0.5874,0.11194,1.814,0.05426,0.599,0.663,1.215,-0.9985,-0.27,-0.549,-0.331,-0.3667,-0.3054,-0.3784,-0.787,0.1227,0.0933,-0.6216,-0.8584,0.474,0.697,0.3696,-0.5815,1.579,0.626,0.1868,-0.03525,0.857,0.985,0.10834,0.789,0.10254,-0.12134,-0.4163,-0.6963,-0.976,0.3875,0.3716,-0.5044,0.3545,-0.6313,0.9473,0.2058,-0.58,0.03348,0.0896,-0.3252,-0.12103,0.8613,0.2264,-0.861,0.4875,-0.3857,0.7124,-1.402,-0.3008,-0.006878,0.05618,0.2483,-0.5293,-0.4087,-0.1149,-0.3372,0.3801,1.533,-0.2175,0.4429,-0.669,0.5913,0.4866,0.2952,1.288,0.825,0.7056,-0.5103,0.5283,-0.3206,0.614,0.789,-0.705,-0.2515,-0.6616,0.667,-0.603,0.1687,-0.4128,1.243,-1.378,0.07336,0.666,-0.2172,-0.5405,0.631,0.1753,-0.4329,-1.076,-0.1195,-0.0949,0.1573,0.3682,-0.0879,-1.268,0.6006,-0.4238,-0.3567,0.949,1.919,0.3667,1.365,0.7373,0.4404,-0.2634,-0.3433,0.4287,-0.687,-0.3806,-0.1648,0.3477,0.4731,0.9346,0.6616,-0.02205,0.325
blanket,1.216,0.595,-0.473,-0.6396,1.018,1.053,0.2399,0.3157,-0.638,-0.0486,0.09174,-1.125,0.03915,-0.4958,0.4336,-0.576,0.2183,0.1375,0.849,0.5938,0.8794,0.697,0.652,0.576,-0.5913,0.1312,-0.2742,-0.1724,0.0749,1.223,0.2695,-0.7427,-0.9033,0.725,0.67,1.044,0.010956,0.03555,1.098,-1.362,0.05023,0.0323,1.443,-0.6904,-0.5337,0.0699,0.0702,-0.6865,-1.743,-0.4858,-0.883,-0.444,0.0566,-1.026,-0.6387,-0.598,-0.4565,-0.8193,0.896,0.296,-0.3516,0.952,-0.2295,-1.111,-0.649,0.9595,-0.1169,-0.5396,-0.624,-0.5845,0.2788,-0.1276,-1.329,1.159,-0.776,-0.4675,0.2357,0.5073,-0.816,0.2942,0.3438,-0.698,-0.391,1.069,-0.4998,-0.4993,-0.5186,-0.8013,1.167,0.09467,0.02904,0.604,-0.8066,-0.3076,0.2458,-0.2634,0.425,0.10425,0.6367,-0.9673,1.145,0.4617,0.0647,-0.2246,-0.7754,-0.689,-0.1926,-0.594,-1.096,-0.552,0.3433,-0.4204,-0.3916,0.638,-1.17,0.651,0.2725,0.2961,-0.3362,-0.539,0.1641,0.5146,-1.203,0.257,0.5034,0.785,0.1776,0.01772,-1.122,-0.1542,0.8506,-1.395,-0.702,1.147,-1.165,0.253,-0.1774,0.4497,-0.9727,-1.251,0.606,1.696,-0.2747,1.1,0.6343,0.6123,0.694,-0.3076,0.2676,1.395,0.2483,1.026,0.0826,-0.89,0.9307,1.128,0.705,-1.344,0.3564,-0.3723,-0.808,-0.3594,-0.931,-0.2822,-0.5933,-0.1157,-0.382,-0.2245,0.127,1.01,-0.1583,-0.488,1.805,-0.04883,0.9014,0.4287,-1.294,0.3057,0.8955,0.06714,0.4075,0.5513,0.7944,1.297,-1.464,0.6587,0.6606,1.475,-0.9297,-1.242,-0.333,-0.857,0.4172,1.218,0.3877,-0.364,-1.085,-0.168,-1.041,-0.11334,0.5947,0.674,0.4941,1.139,0.751,-0.802,-0.4963,-0.688,-0.541,-0.847,0.7744,0.0912,0.42,-0.2334,-0.4685,0.0561,-0.4487,0.575,-0.2318,-0.1487,1.531,0.05914,0.364,0.4187,0.5864,-0.3982,-0.7646,0.157,-1.318,0.6147,-0.01089,-0.2864,0.5605,0.3518,-0.64,0.1842,1.111,-0.624,-0.832,1.25,-1.159,0.4248,0.6045,0.2532,-0.918,-0.805,0.4639,0.5137,-0.938,-0.08405,-1.742,0.1852,-0.8896,-0.04175,0.4084,0.716,0.2517,-0.3562,-0.8345,-1.195,1.318,0.864,0.0983,-1.601,0.1748,-0.02284,-0.304,1.141,0.253,0.7427,-0.915,0.1306,0.349,0.1433,1.436,-1.93,0.1945,-1.491,0.1405,-0.2742,-1.49,1.055,-1.133,-1.502,-0.442,0.5557,-0.3423,-1.382,0.365,0.576,0.5195,-1.051,0.1318,0.6787,0.10596,0.524,0.3594,0.9443,0.709,0.826,-0.139,-0.05798,0.349,0.6323,0.9,-0.6772,0.09216,0.912,-1.502,-0.0966,0.3804,-0.5107,0.02544,-1.248,0.269,-0.7383,-0.4565,-0.513,-0.2367,-1.481,-0.1833,1.013,-0.3035,-0.1549,1.647,0.9688,0.1011,-0.565,-0.03195,0.05267,0.964,0.2336,0.06885,-0.675,-0.6685,-0.4536,0.02885,-0.11804,0.1877,-0.007668,-0.5127,0.727,0.9106,-0.6416,-0.2566,-0.4658,-1.061,-0.902,-0.4333,-0.9526,0.3352,-0.4736,-0.4055,-0.432,0.182,-0.9897,0.7324,-0.2908,0.3855,0.3604,0.7153,0.1987,-1.119,0.5396,0.801,1.423,0.1655,-1.401,0.9087,-0.946,-0.504,-0.347,-0.815,-0.3918,-0.0882,0.9453,1.278,0.3396,0.4297,0.956,0.03445,-0.759,0.3542,0.1637,0.5337,-0.09406,0.254,0.691,1.181,-0.565,-0.9253,-0.763,-1.734,-0.7183,0.7637,0.666,0.0462,-1.005,0.811,0.1708,2.191,-0.4048,0.2389,-0.7026,0.2473,0.2905,-0.8643,0.3547,-0.481,-0.9414,0.0003107,0.00426,-1.565,-0.2876,0.1864,0.4521,-1.871,-0.4263,-1.107,-0.2854,-1.358,-0.1843,0.1818,0.9155,0.478,0.02945,-0.5957,-1.343,0.1544,0.1859,-0.6025,0.719,0.407,-0.1092,1.414,0.03995,0.1208,1.23,-0.7515,0.5894,0.3132,0.4048,0.763,0.0934,0.8804,1.183,-1.116,0.633,-1.081,-0.57,-0.347,-0.0894,-0.81,-0.84,-0.4907,-0.3633,0.767,-1.544,-0.59,0.05106,-0.3582,0.1813,-0.3772,-0.8125,1.455,0.1161,-0.98,1.718,-2.328,-0.2432,0.1484,-0.9473,-1.027,-0.3967,-1.222,1.092,0.1421,0.2646,0.2448,0.4314,-0.8193,-0.662,-0.3738,0.8477,0.1197,-0.8076,0.09454,-0.2054,-0.5845,-0.8223,0.5513,-0.51,-0.6284,-0.573,-0.2803,-0.6255,-0.6133,1.041,0.2502,0.3838,-0.7124,-0.1169,-0.3176,-0.9937,0.5034,0.0689,1.462,0.3894,-1.132,1.862,-0.2458,-0.2069,-0.2996,0.4321,1.353,0.3032,0.6133,-0.5854,0.801,0.1896,-0.6167,-0.4763,0.0929,0.786,0.361,1.96,0.2467,1.38,-0.4116,-1.6045,-0.585,0.564,0.2263,0.05084,0.257,1.672,0.4912,0.437,0.7476,-1.598,0.05826,-1.297,-0.3464,0.3506,-0.2292,0.1702,0.9727,-0.3552,0.644,0.443,-0.0909,0.422,0.04965,0.3748,-0.4163,-1.082,0.822,-0.859,-0.4155,0.2607,0.6816,-0.681,0.5713,0.432,1.864,-0.2368,-0.07965,-1.069,-0.6514,-0.6313,1.394,-0.9434,0.0989,1.286,0.4763,0.1499,-0.1985,-0.4004,0.818,1.233,0.891,-0.384,0.0924,-0.2455,-0.3647,-0.918,-0.6665,0.2634,0.5024,0.3235,0.5967,-0.4097,-0.7344,0.5947,-0.1919,-0.1409,0.7075,0.1259,-0.00711,-1.168,-0.3145,-0.2502,-0.57,-0.6416,-0.5923,-0.1974,-0.77,-0.7607,-1.551,0.259,-0.2837,-0.599,0.5786,1.447,-0.2974,0.1674,0.8145,-0.7812,0.0792,0.6006,0.94,-0.03763,-0.1555,-1.211,1.488,-0.836,-0.02078,0.679,-1.14,0.862,-1.004,0.7085,1.276,0.372,0.3516,-0.239,0.8906,0.6313,0.7734,-0.2527,-0.409,0.873,1.27,0.44,-0.434,1.093,0.2983,-0.1192,1.253,0.9663,-0.3057,-0.931,-0.7886,0.9,-0.06335,0.3018,-0.468,-1.059,-1.449,-0.10016,-0.1348,1.657,0.256,-0.6553,0.3955,-0.3171,0.8364,0.7197,-1.003,0.2617,0.1826,0.1903,-0.01689,-0.4062,0.3516,0.3333,0.2563,-0.665,0.4827,0.4243,-0.0192,-0.9053,-0.921,-0.4883,0.997,-0.1217,-0.5146,0.3308,0.2615,0.4055,-0.1674,-0.8984,-0.6685,-0.2397,0.2335,-0.1439,-0.673,-0.10455,-0.685,0.2233,0.0457,-0.7173,-0.01173,0.702,-0.0342,0.448,0.5312,-0.2274,-1.037,0.5674,-0.4197,0.11127,0.684,-0.522,-0.2773,0.1013,0.4639,0.2878,0.6113,0.2264,-1.063,1.096,-0.9375,-0.01432,-1.146,-0.839,1.202,-0.6816,-1.212,0.545,-0.1216,-0.6304,0.211,-0.4146,1.149,-0.619,0.005493,-0.39,0.8716,-0.07135,0.3416,-0.02495,-0.839,0.3726,0.7026,0.1633,0.683,-0.03177,-0.1539,1.009,0.1267,0.45,-0.0843,-0.3723,0.03125,-0.2217,-0.01359,-0.3108,0.3145,-1.039,-1.154,0.4038,-1.207,0.1842,1.043,0.2346,-0.2109,0.8203
