,dim_0,dim_1,dim_2,dim_3,dim_4,dim_5,dim_6,dim_7,dim_8,dim_9,dim_10,dim_11,dim_12,dim_13,dim_14,dim_15,dim_16,dim_17,dim_18,dim_19,dim_20,dim_21,dim_22,dim_23,dim_24,dim_25,dim_26,dim_27,dim_28,dim_29,dim_30,dim_31,dim_32,dim_33,dim_34,dim_35,dim_36,dim_37,dim_38,dim_39,dim_40,dim_41,dim_42,dim_43,dim_44,dim_45,dim_46,dim_47,dim_48,dim_49,dim_50,dim_51,dim_52,dim_53,dim_54,dim_55,dim_56,dim_57,dim_58,dim_59,dim_60,dim_61,dim_62,dim_63,dim_64,dim_65,dim_66,dim_67,dim_68,dim_69,dim_70,dim_71,dim_72,dim_73,dim_74,dim_75,dim_76,dim_77,dim_78,dim_79,dim_80,dim_81,dim_82,dim_83,dim_84,dim_85,dim_86,dim_87,dim_88,dim_89,dim_90,dim_91,dim_92,dim_93,dim_94,dim_95,dim_96,dim_97,dim_98,dim_99,dim_100,dim_101,dim_102,dim_103,dim_104,dim_105,dim_106,dim_107,dim_108,dim_109,dim_110,dim_111,dim_112,dim_113,dim_114,dim_115,dim_116,dim_117,dim_118,dim_119,dim_120,dim_121,dim_122,dim_123,dim_124,dim_125,dim_126,dim_127,dim_128,dim_129,dim_130,dim_131,dim_132,dim_133,dim_134,dim_135,dim_136,dim_137,dim_138,dim_139,dim_140,dim_141,dim_142,dim_143,dim_144,dim_145,dim_146,dim_147,dim_148,dim_149,dim_150,dim_151,dim_152,dim_153,dim_154,dim_155,dim_156,dim_157,dim_158,dim_159,dim_160,dim_161,dim_162,dim_163,dim_164,dim_165,dim_166,dim_167,dim_168,dim_169,dim_170,dim_171,dim_172,dim_173,dim_174,dim_175,dim_176,dim_177,dim_178,dim_179,dim_180,dim_181,dim_182,dim_183,dim_184,dim_185,dim_186,dim_187,dim_188,dim_189,dim_190,dim_191,dim_192,dim_193,dim_194,dim_195,dim_196,dim_197,dim_198,dim_199,dim_200,dim_201,dim_202,dim_203,dim_204,dim_205,dim_206,dim_207,dim_208,dim_209,dim_210,dim_211,dim_212,dim_213,dim_214,dim_215,dim_216,dim_217,dim_218,dim_219,dim_220,dim_221,dim_222,dim_223,dim_224,dim_225,dim_226,dim_227,dim_228,dim_229,dim_230,dim_231,dim_232,dim_233,dim_234,dim_235,dim_236,dim_237,dim_238,dim_239,dim_240,dim_241,dim_242,dim_243,dim_244,dim_245,dim_246,dim_247,dim_248,dim_249,dim_250,dim_251,dim_252,dim_253,dim_254,dim_255,dim_256,dim_257,dim_258,dim_259,dim_260,dim_261,dim_262,dim_263,dim_264,dim_265,dim_266,dim_267,dim_268,dim_269,dim_270,dim_271,dim_272,dim_273,dim_274,dim_275,dim_276,dim_277,dim_278,dim_279,dim_280,dim_281,dim_282,dim_283,dim_284,dim_285,dim_286,dim_287,dim_288,dim_289,dim_290,dim_291,dim_292,dim_293,dim_294,dim_295,dim_296,dim_297,dim_298,dim_299,dim_300,dim_301,dim_302,dim_303,dim_304,dim_305,dim_306,dim_307,dim_308,dim_309,dim_310,dim_311,dim_312,dim_313,dim_314,dim_315,dim_316,dim_317,dim_318,dim_319,dim_320,dim_321,dim_322,dim_323,dim_324,dim_325,dim_326,dim_327,dim_328,dim_329,dim_330,dim_331,dim_332,dim_333,dim_334,dim_335,dim_336,dim_337,dim_338,dim_339,dim_340,dim_341,dim_342,dim_343,dim_344,dim_345,dim_346,dim_347,dim_348,dim_349,dim_350,dim_351,dim_352,dim_353,dim_354,dim_355,dim_356,dim_357,dim_358,dim_359,dim_360,dim_361,dim_362,dim_363,dim_364,dim_365,dim_366,dim_367,dim_368,dim_369,dim_370,dim_371,dim_372,dim_373,dim_374,dim_375,dim_376,dim_377,dim_378,dim_379,dim_380,dim_381,dim_382,dim_383,dim_384,dim_385,dim_386,dim_387,dim_388,dim_389,dim_390,dim_391,dim_392,dim_393,dim_394,dim_395,dim_396,dim_397,dim_398,dim_399,dim_400,dim_401,dim_402,dim_403,dim_404,dim_405,dim_406,dim_407,dim_408,dim_409,dim_410,dim_411,dim_412,dim_413,dim_414,dim_415,dim_416,dim_417,dim_418,dim_419,dim_420,dim_421,dim_422,dim_423,dim_424,dim_425,dim_426,dim_427,dim_428,dim_429,dim_430,dim_431,dim_432,dim_433,dim_434,dim_435,dim_436,dim_437,dim_438,dim_439,dim_440,dim_441,dim_442,dim_443,dim_444,dim_445,dim_446,dim_447,dim_448,dim_449,dim_450,dim_451,dim_452,dim_453,dim_454,dim_455,dim_456,dim_457,dim_458,dim_459,dim_460,dim_461,dim_462,dim_463,dim_464,dim_465,dim_466,dim_467,dim_468,dim_469,dim_470,dim_471,dim_472,dim_473,dim_474,dim_475,dim_476,dim_477,dim_478,dim_479,dim_480,dim_481,dim_482,dim_483,dim_484,dim_485,dim_486,dim_487,dim_488,dim_489,dim_490,dim_491,dim_492,dim_493,dim_494,dim_495,dim_496,dim_497,dim_498,dim_499,dim_500,dim_501,dim_502,dim_503,dim_504,dim_505,dim_506,dim_507,dim_508,dim_509,dim_510,dim_511
alligator,0.934,0.2197,-0.05032,-0.7007,0.4866,-0.2188,0.5303,-0.6304,-0.4236,0.04385,-0.567,-1.0205,0.1802,-0.10846,-0.03433,-0.00223,-0.8203,0.4004,0.333,0.667,-0.3076,0.4006,-0.05438,1.092,-0.467,0.2213,-0.06052,-0.183,0.3179,-0.2861,-0.1508,0.02504,-0.6763,-0.1028,0.0,0.2357,0.2069,0.824,1.311,-0.1558,-0.1964,0.5415,0.2357,0.5186,0.9585,0.374,0.474,-0.3052,-0.1427,0.252,0.2148,-0.4885,-0.7305,0.2346,0.0709,0.2512,-0.06635,0.74,0.2744,-0.993,0.2866,-0.2783,-0.8525,0.0648,-0.2637,0.3503,-0.2251,0.3,0.4763,0.283,0.4358,0.578,-0.006557,0.02837,0.5527,-0.75,-0.04092,-0.9062,-0.0627,-0.10333,0.2588,0.1521,-0.9004,-0.01436,-0.3508,0.2751,-0.419,0.004463,0.58,0.641,0.1012,-0.8335,0.1061,0.562,0.1699,0.2646,-0.2238,0.04562,-0.305,0.281,0.8066,0.484,0.1823,0.0737,0.1187,0.2864,-0.1318,-1.213,-0.1085,-0.4775,0.1266,-0.1323,0.4468,0.6084,0.335,-0.2803,-0.0959,0.344,0.271,-0.1729,0.907,-0.6055,0.10693,-0.04236,-0.4146,-0.8003,-0.716,0.05347,0.8394,-0.4116,-0.0429,-0.6953,-1.478,-0.2708,-0.552,-0.567,-0.0289,-0.5713,-0.4211,-0.83,0.02771,0.2754,0.3066,-0.106,-0.7295,-0.2537,0.07733,-0.1602,-0.3877,0.7783,-0.095,0.2214,-1.347,-0.9546,0.396,-0.4875,0.747,-0.1827,0.1559,-0.3003,0.4204,1.018,0.1332,-0.2932,0.0984,-0.8867,0.3032,-0.00924,-0.3093,0.647,-1.198,1.02,0.5137,-0.1334,-0.87,-0.2196,-0.9717,0.517,-1.097,-0.354,0.541,0.1561,0.03384,0.10944,0.914,0.851,0.3677,-0.496,-0.002024,0.05457,0.3992,-0.5645,0.705,-0.1721,-0.899,0.589,-0.06183,1.158,-0.574,0.4373,-0.5635,-0.149,-0.347,0.1148,0.07776,0.2374,-0.7354,-0.1305,-0.64,0.639,-1.133,1.008,0.541,0.4517,-0.1048,-0.584,-0.2386,0.5366,0.2256,-0.9814,0.1466,0.238,-1.054,0.0525,-0.1034,-1.065,0.3242,-0.366,0.3184,-1.118,-0.2795,-0.673,-0.02628,0.1755,0.176,0.06604,0.367,0.911,0.8877,0.4736,0.835,-0.1592,-0.162,0.3457,0.9575,0.1095,0.896,-1.039,-1.014,0.3882,-0.265,0.99,0.405,1.041,-0.6914,-0.4626,-0.802,0.9326,-0.9546,0.6567,-0.1595,0.2167,0.12195,-1.156,0.1511,0.09546,0.812,-0.8394,-0.7314,0.1891,-0.2705,0.06213,1.103,-0.514,0.524,-0.525,-0.824,-0.5005,0.0187,-0.276,0.1216,-1.045,0.2827,0.103,-0.0159,0.2352,-0.513,-0.6055,-1.41,0.3867,-0.4097,-0.3398,0.2646,-0.04895,1.062,-0.8105,0.691,0.721,0.1638,0.7476,0.142,0.407,0.0794,-0.655,0.3882,-0.4028,-0.596,0.4985,0.4856,0.718,-0.8716,-0.1153,-0.2703,1.472,-0.6636,-0.701,-0.3132,0.3738,-0.1459,-0.703,0.3547,0.2295,0.3384,0.5396,0.0722,-0.4243,0.4697,-0.2463,-0.437,-0.6577,-0.3687,0.5024,0.104,-0.11053,-1.303,-0.02246,0.3127,-0.6436,-0.9795,0.2499,-0.2554,-0.1527,-0.014496,-0.74,-0.2961,0.673,0.1327,-0.1581,0.4607,-0.4358,0.347,0.965,-0.1056,0.8965,0.1631,-0.01408,0.6943,0.1399,0.6187,1.115,0.61,-0.2979,-0.9805,-0.4246,0.3376,0.7803,-0.2915,-0.5986,-0.594,0.9155,0.9707,-0.702,0.664,0.486,0.1335,0.0068,0.4426,0.494,-0.002577,-0.2598,0.105,-0.3203,-0.179,-1.01,-0.1681,0.2233,-0.439,-0.3665,0.888,-0.483,-0.6733,0.2498,-1.16,0.3132,0.0568,-0.3457,-0.2255,0.3352,-1.324,-0.7075,0.4307,-0.0655,-0.2407,0.1653,-0.479,-0.1381,0.0943,-0.3389,-0.3035,-0.2964,1.262,0.04333,-1.467,0.6484,0.001742,-0.4202,0.809,0.3464,0.433,-0.4844,-0.6035,0.1912,1.112,0.10443,-0.537,-0.5474,-0.5576,0.617,1.479,0.1709,-0.04993,1.068,-0.1818,0.12103,0.3984,-1.007,-0.1365,0.1375,-0.1732,0.1055,0.1658,1.626,-0.3977,0.2627,0.868,0.1362,0.2996,-0.3977,0.3745,0.2507,0.3108,-0.756,1.242,0.539,-0.08997,0.1953,1.226,1.146,-0.3704,0.9526,-0.6206,0.3384,-0.5337,0.09296,0.669,0.03644,-0.5596,-0.599,-0.1058,0.4238,-0.414,-0.1063,-0.5786,0.6475,-1.345,0.772,-0.0413,0.1517,-0.2452,-1.029,-0.4756,-0.599,1.094,-0.6045,-0.04956,-0.684,-0.9434,-0.148,-1.187,0.798,0.4382,-0.6533,0.186,-0.718,-0.1433,-0.238,-0.8433,0.2673,0.31,0.6045,0.2277,1.081,-0.376,-0.2161,-0.546,0.1213,-1.068,0.4036,0.725,0.1228,-0.1732,0.214
ankle,0.3306,-0.5483,-0.4712,-0.946,-1.429,0.253,-0.2888,0.7876,2.027,1.242,0.684,0.2715,0.1081,-1.223,-2.418,-0.2378,0.8486,-0.137,-0.0134,0.5986,0.277,-0.4712,-0.6553,-0.009735,-0.2312,-1.998,0.391,-0.6426,0.03558,0.6313,-0.04608,-0.563,1.06,-0.6714,-0.04327,0.885,0.7715,-0.4287,-0.991,-0.603,-0.9033,-1.636,-0.4656,-0.8706,0.01305,0.972,-0.729,0.669,-0.682,-0.979,0.9775,0.6753,0.943,-1.546,0.677,0.4094,0.5176,-1.004,-0.818,0.7373,1.192,0.4475,0.2202,-0.602,0.6045,-1.072,-0.73,-0.6646,0.2357,-1.1875,0.06012,-0.3188,-0.3264,0.3713,-0.641,1.619,0.3052,0.3,-0.4504,0.1978,-1.229,0.6885,0.2908,-0.05457,-0.8564,-0.707,-0.4023,0.09607,-1.01,0.336,-0.6514,-1.149,-1.291,0.782,0.0985,0.79,0.5024,0.0321,0.208,0.12317,-1.403,0.547,1.663,-0.972,0.8496,-0.662,1.315,1.009,-0.5537,0.4497,-0.768,0.755,-1.378,-1.472,-0.3848,0.2617,0.7217,-0.752,0.8853,1.07,-1.441,-0.05188,-0.401,0.988,-0.2847,1.601,0.863,-0.1647,-0.12036,0.4058,-1.471,1.503,0.1693,1.257,-0.7163,1.118,0.6206,0.6255,-0.0784,-0.3816,0.2703,0.343,-1.276,-0.5366,-0.3535,0.3435,0.2063,0.1277,1.353,-0.932,0.1088,-0.2542,0.6333,0.3606,0.25,-0.6357,-0.2328,0.2717,0.5195,0.2017,0.6,-1.27,0.412,-0.2983,1.118,0.9336,-1.04,0.06204,0.2852,-0.9106,0.2615,-1.332,-0.83,-0.4243,0.572,-0.0688,0.8735,0.05048,-0.318,-0.2363,-0.0583,-0.1091,1.771,-0.2075,-1.799,-0.1525,0.88,0.0437,0.333,-0.915,1.134,-0.6904,-0.4602,-0.826,0.5205,-0.853,0.531,-0.9106,0.3196,-1.707,-0.2644,0.8774,-0.1816,1.211,1.716,0.9146,0.1098,-0.6626,-0.1404,-1.29,0.829,-0.4883,-0.7056,1.187,0.1292,1.203,-1.357,-1.819,0.1372,1.513,-0.6157,0.0891,0.8623,0.7324,0.5,0.1974,0.6987,1.529,0.319,1.565,-0.08685,1.157,0.2072,-0.4924,0.2798,-2.055,-0.7495,-0.7354,0.194,-0.6733,-0.0962,0.865,1.511,0.6777,1.041,-1.314,0.675,0.399,0.1558,-0.3416,0.2935,-0.444,0.7275,-1.717,0.5195,-0.2473,1.43,-0.1614,0.05582,-0.5903,1.892,-0.9453,-1.278,0.3838,1.159,0.2039,0.03415,0.553,1.404,-1.569,0.7456,0.645,-1.101,-0.8374,-0.5244,1.073,0.2344,-0.0614,-0.563,-0.7373,-1.009,-1.038,-0.1368,-0.6426,0.714,-0.8896,1.311,0.6855,-0.05008,-0.11475,0.501,0.5566,0.5933,1.846,-0.3486,-0.2422,-0.1427,-1.093,0.1226,0.1907,1.798,-0.5347,0.1836,1.515,-0.6904,-0.3208,-0.569,-1.768,-1.344,0.5664,-0.793,-0.727,1.255,0.737,1.493,0.4253,-0.2969,1.344,0.0789,0.03625,-2.398,0.0664,-1.214,-0.8154,0.01614,0.509,-0.7705,1.641,0.772,1.1875,0.2847,-0.749,1.192,0.902,0.2117,-0.3977,-0.3218,-0.332,0.8047,0.8584,0.2341,0.862,0.683,0.0938,0.257,-0.013885,0.626,0.4893,-0.543,0.4165,1.323,-0.9683,-0.5127,-0.4187,1.306,0.342,-0.746,0.1153,-0.1896,-1.21,1.139,-0.05624,-0.06506,-0.9536,-0.2988,1.277,-0.2452,-0.7427,0.612,-0.2783,-1.263,0.8374,-0.91,1.183,0.3916,1.796,-0.3938,0.711,-0.7627,0.8774,0.282,0.5566,1.035,0.6113,0.3218,0.724,-0.9854,0.7505,-0.7837,-0.657,-0.4353,-0.2468,0.72,-0.9805,-0.1578,-0.577,-0.243,-0.02264,0.3726,1.075,0.1068,1.485,1.209,-0.3628,0.931,1.419,0.138,0.307,0.0558,1.286,-0.09515,-1.035,1.374,-1.228,-0.2439,-0.589,-0.4895,1.544,-0.692,-0.3562,-0.7744,-0.557,-2.1,-0.308,1.12,-1.015,0.02855,-1.206,0.04636,0.862,0.6567,-1.611,0.05435,0.1925,-0.6978,-0.2043,0.9414,-0.1803,0.3435,0.003845,-0.764,-0.921,0.548,-0.7437,-0.578,1.179,0.3433,0.9824,0.2314,-0.2537,-0.641,1.389,0.1306,-0.9126,-1.146,0.7256,-0.9854,-0.5283,-0.7666,-0.269,1.147,0.5146,1.1,0.5557,-0.1344,-0.2705,0.1581,-0.439,-0.9023,-0.613,-0.2883,-0.4934,1.409,-0.399,1.185,-0.862,1.311,-0.442,-0.5986,0.8345,-0.1642,0.8774,-0.4055,1.129,-1.02,-0.0782,0.3745,-0.9814,-0.1145,-0.6523,0.447,-0.2922,-0.957,1.034,-0.04102,-1.007,-0.167,-1.546,-1.122,0.2888,-0.1311,-0.877,-0.642,-1.148,-0.1697,-0.1477,0.6797,-0.675,-1.529,-0.07367,1.085,0.6816
apple,1.398,0.852,-1.6875,-0.4397,-1.015,-0.7344,-1.203,1.039,0.04776,0.4036,0.074,2.146,-2.328,-0.749,-0.629,0.3916,1.187,0.4448,-1.0,-0.05066,-0.244,-1.185,0.615,-0.6997,-0.19,-1.019,0.4329,-0.07794,-0.538,-0.10364,1.767,-1.404,-0.3098,1.325,0.099,-0.2927,1.397,-1.916,-1.49,0.01554,0.5405,-0.5996,0.195,-1.652,-0.0746,-0.003181,-0.8677,1.59,0.515,-0.9844,0.1324,-0.2065,1.964,0.16,1.402,-0.2045,0.273,-0.7866,0.5957,1.286,0.5444,-0.0895,-0.268,-0.3481,0.2742,-0.3577,-0.955,-0.2269,-0.0863,0.889,-0.1617,-2.129,0.3596,0.8477,-1.503,1.044,-0.499,1.682,1.04,-1.361,0.725,0.691,0.7104,-0.1837,1.071,-1.323,-0.953,-1.6875,-0.3079,-1.567,-0.3093,-0.1306,-0.283,-0.3198,0.5664,-0.5503,-0.3696,-1.158,-0.0927,-0.891,0.913,-0.2145,0.9263,-1.347,0.3257,-0.07245,-0.3452,1.624,-1.267,1.079,0.2334,-0.695,-1.478,-0.0655,-0.2002,0.7017,1.72,-0.4075,1.361,0.4429,-2.45,0.4626,-0.788,-1.384,0.2734,0.7085,1.59,0.696,0.08167,0.11365,-0.04086,0.9644,1.432,0.7153,0.3425,1.707,0.0867,-0.7153,1.089,1.123,0.4062,0.5566,-0.2032,-1.627,0.08716,0.709,-0.549,1.095,1.747,-1.4795,-1.068,0.872,0.5,1.066,-1.445,0.2935,0.937,-0.01014,-1.557,0.725,0.1597,-1.718,-0.619,-0.5103,-1.579,1.614,-0.9385,0.6772,0.165,0.03146,0.01909,-1.175,-0.3474,-1.341,1.869,0.9824,-1.231,0.5464,0.9106,-0.3057,-1.274,1.033,0.4343,0.1748,-0.6865,-1.814,0.792,1.821,-0.8237,2.393,-0.309,1.355,-0.5967,0.0686,1.387,0.461,0.934,-1.499,0.4167,2.145,-0.2808,-1.633,0.396,-0.283,1.768,1.487,1.36,-1.144,0.8384,-1.499,0.874,0.478,-2.105,-0.303,-0.0664,0.3845,-0.997,-1.097,1.259,2.19,1.551,1.138,1.013,0.6113,-0.843,0.821,-0.1848,0.975,-0.523,1.14,-0.5366,1.28,0.2148,-1.42,1.523,0.1652,-1.126,-1.941,-1.651,0.51,-1.305,1.886,1.191,-0.7026,-0.683,-1.037,-1.025,0.1868,2.03,0.3665,0.2766,-0.08466,1.37,-1.185,1.6875,1.271,0.04547,-1.184,-0.561,-1.13,0.639,1.43,-0.2498,-0.663,-0.6904,-1.424,0.01707,1.048,1.205,-0.9707,1.018,0.909,-2.207,0.299,-0.4482,0.585,1.262,1.043,-0.8003,0.3386,-0.729,0.3716,1.216,0.042,0.951,-1.207,0.1791,1.658,1.342,2.2,0.5376,1.498,0.525,0.4429,-0.4424,0.446,0.8447,-0.6206,0.4114,-1.028,-0.4233,-1.177,-0.2815,-0.765,-0.566,-0.04437,1.541,-0.745,-0.3735,-0.2446,-1.119,-1.503,0.7144,-0.9985,-1.914,1.035,0.2382,0.068,1.339,0.5454,0.1484,0.5737,-1.728,-1.409,0.859,0.1132,0.2349,-0.0318,0.681,0.757,1.303,-2.3,-0.798,0.701,1.826,-0.531,-0.3281,0.8203,1.865,-1.095,1.679,1.44,-0.586,1.742,0.8574,1.006,1.305,0.4084,-0.787,1.179,-0.6675,0.773,0.7305,-1.082,1.312,0.589,0.618,-1.107,-0.1862,-0.4082,-0.218,-0.06616,0.3452,0.696,-1.281,0.6777,-1.574,1.324,1.263,-1.317,-0.35,0.7085,-0.4207,-0.822,-0.0672,1.314,-0.984,0.2622,-0.964,0.3347,-0.8125,-1.181,2.266,2.105,-1.412,-0.05106,-0.453,0.529,-1.596,0.6816,-0.2854,-1.119,1.599,-0.3982,0.08624,1.603,-0.714,-0.5176,0.336,-1.121,-0.9434,-0.771,-0.616,-1.2705,-0.563,0.2925,-1.021,0.852,1.114,-2.389,-1.037,-0.1593,1.215,0.2002,-1.244,0.6006,-1.133,0.5273,-0.821,-0.1765,0.9253,-1.418,-0.5464,-1.239,0.863,0.588,0.227,0.2417,-0.7656,-1.622,-0.95,-0.1664,-0.02216,-0.843,-1.914,0.1382,0.9214,0.4338,0.9224,1.034,-1.595,-0.4756,0.2112,-0.4963,-1.852,-0.3071,0.3213,1.71,-1.166,0.205,0.4282,-0.553,-0.658,-0.3489,0.2935,1.625,-1.127,-1.61,-0.3804,-1.722,0.223,0.1587,0.9907,-0.72,-0.1984,-0.04404,1.18,0.6274,1.215,0.7837,-0.0005326,-0.5947,-0.12335,-2.021,1.379,-1.415,0.9595,-2.717,0.2086,1.25,1.715,-0.03488,-1.957,-0.0603,-1.996,-0.6914,-0.853,0.112,0.672,-0.3982,-0.1048,-1.177,0.09406,0.4043,0.2042,0.004105,1.2,-0.3525,0.6426,-0.1173,0.3362,-1.493,0.858,-0.861,0.7427,-1.123,0.604,0.468,0.59,-0.07367,1.355,-0.1218
applesauce,-1.055,1.272,0.36,0.626,1.299,1.214,0.288,-0.2316,-1.038,-0.8965,0.037,-1.025,-0.4675,0.9927,-0.2048,-0.1129,0.0478,0.911,0.03827,-2.379,-1.749,-0.569,-1.527,0.769,-0.3713,0.342,0.1508,0.9062,-1.186,-0.4905,0.0764,0.581,-0.823,0.3115,1.632,0.657,1.173,0.3413,-0.2961,0.2996,0.8745,0.05667,0.1879,0.5674,1.31,0.0811,1.739,0.508,1.217,0.585,0.1428,-0.9453,-1.149,-1.5,0.978,-0.445,-0.348,-0.175,-0.617,0.9233,-0.0707,-0.57,-1.324,-0.7803,-0.542,0.519,-0.7617,1.888,0.05478,-1.08,-1.379,-1.1875,-0.4949,-0.4563,-0.305,1.079,-0.626,-0.522,-0.236,0.2776,1.603,0.202,0.727,-1.536,0.1754,-1.165,0.528,1.619,1.265,0.2979,-0.1948,-1.155,0.866,-0.2656,0.748,-1.452,-0.1405,0.5454,-0.2688,0.9106,1.587,0.897,0.559,-0.08124,-2.041,-1.137,-0.2803,-0.6,-0.3086,0.9487,0.8057,0.921,1.2,0.629,-0.2197,0.836,1.006,0.9707,-0.5913,-1.556,-0.33,-0.4888,0.9956,-0.408,0.5176,-0.03372,0.2236,-1.05,0.2786,-1.751,0.5923,0.1727,0.9727,-0.8506,1.695,-0.5244,-2.158,-0.2805,-0.5386,0.01904,0.9277,1.106,-1.08,-0.3447,-0.2212,1.197,-0.232,0.258,-1.546,0.5728,-0.1694,0.618,-0.688,-0.4282,-0.4053,-1.069,1.209,-0.4373,-0.896,-0.7837,0.8555,1.115,-0.01042,-0.2864,-0.7866,-0.1777,-0.5654,-0.2476,0.4424,-0.561,-0.2129,-0.3022,-0.2585,0.4717,-0.7275,2.031,-1.007,0.881,0.742,0.04102,-1.423,-0.133,-0.10095,-0.4226,-0.238,0.4375,-1.929,0.2651,2.332,0.1794,-0.1082,0.2173,2.342,-2.086,0.9297,0.257,0.0391,-0.9,0.933,0.413,-1.376,0.9204,-1.351,0.3298,-0.8423,0.752,-1.069,1.688,-0.9243,0.579,0.2141,-0.1531,0.625,0.4038,1.38,1.06,1.54,-0.4705,-0.9053,-0.8096,1.0,1.031,0.7485,-0.961,2.43,-0.943,-0.036,0.1613,-0.0973,-0.369,0.3315,-0.02773,0.258,-0.9194,-0.521,2.145,0.5386,-0.6484,0.0926,-1.497,-0.3533,0.706,0.364,-1.009,-0.482,-0.9897,0.3848,1.725,-0.653,-1.409,0.0956,0.09625,0.1705,0.3716,-0.3743,-0.02184,0.684,0.1683,-0.3423,0.5815,-0.3264,-2.127,-0.251,0.286,-0.822,-0.605,0.4426,-1.965,-1.128,0.2233,0.4126,-0.7227,-1.252,0.901,0.647,0.9785,-0.3215,0.2551,0.5493,-1.189,0.4639,0.722,0.9316,-0.03485,-0.05707,0.0911,-0.8896,-0.362,0.9097,-0.5127,0.1613,-0.806,-1.009,-0.6406,1.553,-0.97,0.519,1.452,-0.1924,-0.1646,-1.379,0.7827,-1.647,-1.209,-0.314,1.722,1.235,-0.984,0.776,0.804,-0.802,-0.8057,-0.869,-0.329,-0.06033,-2.078,-1.509,0.1842,0.705,0.5063,0.1469,0.824,0.05322,0.11035,-0.96,0.0755,0.798,0.6245,0.6216,-1.033,0.4385,-0.821,1.553,1.2,-0.3308,-1.096,0.4033,0.02383,-0.334,-0.702,0.4102,0.3918,1.619,0.2067,0.2717,-1.808,-0.8486,-0.3906,0.2281,0.025,0.0713,1.776,-0.655,-0.2,0.9424,-0.3884,0.6577,-0.1748,-0.4673,-0.3083,-0.8423,-0.3408,0.4128,-0.748,0.2512,-0.2079,-0.963,-0.661,-0.6094,-0.08923,-0.4429,-1.335,-0.1104,1.421,-0.04016,0.9087,0.3728,0.5825,-0.6187,0.4924,-0.646,-1.217,0.227,-1.012,-0.954,-1.614,-0.1315,1.2295,-0.2805,-0.2952,1.358,-0.5166,-0.5986,0.904,1.496,0.4607,-0.844,-1.328,0.3604,1.367,0.514,0.371,-0.7837,0.3147,-1.549,-0.01146,0.836,-1.387,0.0886,-0.5986,-1.266,0.1089,-0.9443,0.1942,-1.729,-0.6626,-0.3687,1.995,-0.3884,0.921,-0.3083,-0.306,0.842,0.2438,-1.109,0.3418,-0.3857,-0.2133,-0.3413,0.253,-0.4087,0.2803,0.4487,-0.06226,0.715,0.2366,-0.389,0.2415,0.02812,0.95,-0.6143,-0.02177,0.3796,0.8013,0.999,-0.1125,-0.1412,0.9775,0.3796,1.06,2.172,-0.5127,0.1799,-1.909,0.2231,1.42,0.435,0.674,0.2166,-0.6343,0.05374,-0.2578,-0.9766,-0.577,-1.002,-0.631,-0.4468,1.719,-1.764,0.0693,-1.279,0.2373,-1.012,0.2507,-0.3394,-0.2059,0.2637,-0.1987,1.474,-0.087,-1.03,0.01522,-0.2028,-2.016,-1.148,-0.03296,0.4246,0.2192,-1.84,1.514,0.1969,-0.7554,-0.4856,0.08044,-1.679,2.316,-0.7783,-0.876,-0.51,1.123,1.785,-0.07043,1.403,-0.3545,-1.562,-1.005,-0.279,0.855,0.2988,1.036,2.145,-0.1761
arm,0.08167,-0.4795,1.909,0.873,-0.3877,2.32,1.013,-1.529,0.3767,0.6016,-0.0909,-1.471,-0.2354,-0.2793,0.0454,-0.744,-1.234,-0.0427,0.4346,-0.901,0.32,-1.625,-1.466,1.428,0.04782,-1.826,-0.3545,0.1384,3.113,-0.2405,-1.36,1.871,-1.038,-1.479,1.194,2.996,-2.03,0.996,0.4014,-0.791,-2.645,-0.10144,-1.5,0.2145,1.162,1.247,1.282,-0.723,-1.446,1.541,1.425,0.04898,-0.657,-1.299,-0.6504,2.01,1.222,-0.7993,-1.54,1.46,0.0888,-0.846,-0.83,0.717,-0.916,-0.4075,-0.4556,1.637,1.716,-1.944,1.034,1.548,0.8325,-1.184,-0.03146,0.365,-0.64,-0.543,1.818,1.221,-0.459,-0.3374,-0.337,1.183,-1.498,-1.155,2.31,0.11316,1.428,1.482,1.924,-0.4517,-0.318,0.87,-0.8677,2.262,0.02864,1.215,0.3462,0.472,-0.613,1.363,2.064,-0.3325,-0.384,0.0207,1.293,-2.484,2.477,0.2563,-0.437,0.4475,-0.4438,-0.2322,-0.4878,-0.6177,-0.4365,0.878,-1.257,-0.5044,1.25,0.536,0.0332,-0.665,0.3271,-0.2062,1.774,-0.799,-0.1539,0.0723,1.444,0.4106,-0.2632,-0.5415,1.19,-0.739,0.2927,1.537,-1.674,-2.656,-1.701,-0.3591,0.2725,0.4495,-0.594,-0.4011,-0.1473,-0.448,0.9155,0.0698,-0.3025,-0.1991,0.1366,-0.4224,2.707,-1.545,0.3242,-1.326,0.424,-0.5283,0.693,0.906,-0.602,-1.746,1.106,-1.441,1.164,1.324,-0.573,-0.10376,-0.714,1.025,-2.518,2.482,-1.647,-0.1754,0.6704,-0.5986,-0.7153,-0.8896,1.412,-1.346,0.997,-1.592,0.73,1.512,-0.1702,0.2812,1.482,-1.186,2.037,-1.63,1.4375,-0.8335,-0.7456,-0.4666,-0.4675,0.1465,0.9424,-1.752,-1.921,1.368,-1.908,-2.004,1.571,0.6367,-1.641,0.362,-1.778,0.6196,0.879,0.9614,1.298,1.036,1.128,-0.948,-1.559,0.438,-0.04877,0.217,-1.78,-0.2986,-0.2656,-1.223,2.111,-1.728,0.0846,0.796,2.104,-1.292,-0.7754,-0.862,0.666,-0.6484,-1.3,-0.5435,-0.2041,1.239,1.72,0.2522,0.3577,-0.09375,0.526,-0.1721,-0.8853,-0.5796,1.212,0.1477,-1.256,-0.558,-0.3252,1.07,1.637,0.7373,-1.678,-2.229,1.276,2.438,-0.59,1.996,-1.059,-0.979,1.3545,-1.253,1.091,-0.1779,1.074,-0.03046,-0.4404,0.7056,-0.7783,2.004,0.0502,-1.186,1.563,-0.5845,-1.835,-0.8213,0.436,-1.586,0.4692,-0.1919,-0.2773,0.6016,1.799,1.44,-0.2019,0.1104,0.37,0.02834,0.838,-0.5796,0.714,0.1409,-0.5347,-1.046,-1.315,1.674,-1.358,-0.1423,-0.395,1.319,-0.3323,0.1853,0.758,0.3755,-0.7363,0.5796,0.852,1.097,-1.347,0.3699,-0.56,0.87,0.546,-1.067,-0.4697,-0.7153,1.494,0.5464,-2.113,-0.4937,0.2098,0.8306,-1.76,-0.896,2.17,-0.6606,0.389,-0.8115,-0.4482,1.373,1.011,2.123,-0.978,1.326,0.3464,-1.757,-0.97,0.749,-0.5264,-1.597,-0.1512,0.5327,-0.06506,-1.223,-0.1985,-2.062,2.496,-1.472,1.841,0.8813,-1.724,1.412,-1.356,-0.857,-1.435,1.227,1.013,-0.3674,-0.1892,-1.404,1.349,-0.634,1.797,0.8345,-1.515,-2.393,1.121,0.877,0.5566,-1.611,-0.4746,0.2081,0.8193,0.6094,1.856,2.47,0.5425,1.027,0.2644,-1.033,-0.02048,-2.047,0.3262,-1.068,1.8545,-0.3418,1.3545,-1.147,1.869,0.957,-2.145,1.371,-0.09045,0.333,1.899,0.836,-1.461,1.491,1.321,1.014,1.547,1.511,-0.2944,1.542,0.4587,-1.035,-1.126,0.6353,-0.2283,0.983,0.0761,-2.021,0.513,-2.2,0.8047,2.098,1.978,-0.1326,-1.751,-0.0997,0.0666,2.158,-0.11017,-2.02,-2.463,0.9927,0.1637,2.201,-1.091,-0.6484,-0.9775,2.082,0.0911,-0.2006,-0.6196,-0.912,-0.7837,0.507,1.558,-0.03812,-1.031,0.908,1.54,-1.483,-1.291,-1.557,-0.4236,-0.03082,0.75,-0.5425,3.354,-0.0326,1.027,-0.4924,1.042,1.16,-0.3042,0.7417,-1.352,-1.499,-0.2825,0.782,0.16,0.0705,0.1416,0.9727,-0.8315,1.024,-1.981,-1.125,0.708,0.6113,-1.851,-0.5684,-0.1901,1.503,-0.4192,-1.355,-0.901,0.6963,1.529,-0.9263,0.1334,-1.247,-0.281,-2.146,-2.373,-0.3982,1.7705,-1.428,-0.7056,1.264,-0.749,-0.05063,0.0175,-0.832,-2.729,2.457,1.03,1.912,-0.7905,-0.9775,-0.7817,0.1368,0.6465,-0.01855,-1.09,1.793,0.7334,-0.5996
ball,0.6646,-0.05484,-1.507,-0.3232,-0.6523,-0.729,-0.734,0.09326,-0.0451,-0.78,0.382,2.07,-1.891,-0.2307,-1.451,1.741,1.092,-0.4812,-2.088,-0.523,-0.4893,0.356,0.518,-1.069,-0.3215,-1.761,0.199,-0.6333,-0.2688,-0.7827,0.757,-0.825,-1.3125,-0.001557,0.292,0.532,0.452,-1.618,-1.184,0.1686,1.089,-0.771,-0.02698,-0.674,-0.2013,-0.4414,-1.716,1.703,0.2446,-0.938,0.743,1.413,1.24,0.2903,-0.813,-1.087,-1.135,-0.856,-0.5215,0.5215,0.823,-1.539,0.7954,-0.03305,0.8403,-2.15,-0.38,-0.02661,0.8994,-0.87,-0.5737,-1.668,-0.3174,0.0502,-1.046,0.7476,-0.0079,1.483,1.234,-1.175,0.4917,0.6973,-0.236,-0.1637,1.182,-0.933,-0.8086,-1.612,-0.864,-1.851,-0.902,-0.7236,0.495,-0.829,-0.307,0.5645,-0.532,-1.606,-0.8877,-1.67,0.689,-1.088,2.08,-0.5024,0.5757,-1.788,-0.7905,-0.10596,-0.777,0.6523,0.188,-0.8047,-0.1062,0.001658,-1.233,1.13,1.759,-0.4424,1.744,0.2308,-2.541,0.6226,-0.04895,-1.348,-0.1995,0.6304,1.615,0.527,1.075,-1.161,-0.8696,0.2966,1.749,-0.1547,0.07074,0.809,-0.2664,-0.8647,0.9985,1.68,0.7817,-0.1367,0.4172,-1.221,0.1888,0.7266,-0.2578,0.79,0.7637,-0.02701,0.9453,0.333,-0.584,0.3418,-0.809,1.285,0.527,0.3806,-1.829,0.1045,0.02498,-1.353,-0.2766,0.047,-0.698,1.152,-0.5054,-0.1908,0.3286,0.148,-1.203,-0.6143,-0.707,-1.431,0.999,0.1992,-1.876,0.5396,-0.05737,-1.03,-0.954,1.316,0.4521,0.712,-0.431,-0.978,0.9175,0.848,-0.4377,1.301,0.4678,1.856,-1.623,-0.7188,1.518,0.1473,0.738,-2.377,0.861,1.659,0.2382,-0.9995,-1.135,0.3953,0.2081,0.9424,0.5967,-1.081,0.4302,-0.8174,0.377,0.2494,-1.69,-1.486,0.07715,0.6978,1.304,0.0169,0.01524,0.8115,1.564,-0.2054,-0.496,0.8535,-0.3792,0.2695,-0.4785,0.08,-0.433,0.003057,-0.68,1.2705,0.3044,-0.3167,1.266,0.4756,-0.2026,-2.3,-1.114,-0.069,-0.3936,1.548,0.4167,-0.9004,-1.135,-0.0776,-0.7295,0.2598,1.342,0.9985,0.6855,-0.0708,-0.2318,0.1986,1.011,1.043,-0.0939,-1.863,-0.531,-0.9688,1.221,1.419,-0.764,-0.544,0.2367,-1.02,0.10095,1.137,0.2695,-1.34,0.6655,0.691,-0.731,-0.1904,-0.717,0.6567,0.7646,1.909,0.211,0.2532,-0.5317,1.544,0.4797,-1.138,1.208,-1.137,0.7905,0.544,1.157,1.584,0.4197,1.036,-0.6665,0.05255,-0.3699,-1.106,-0.12036,-0.771,0.1313,1.078,0.12274,-0.3323,-0.03069,-1.218,-0.768,0.3516,2.393,0.1733,-0.7275,-0.8438,-0.2844,-1.154,-0.1545,-1.187,-2.188,1.087,-0.0979,-1.007,0.3518,-0.4475,0.622,0.5435,-1.71,-1.181,1.396,-0.5347,0.3877,0.03745,-0.6885,-0.0261,0.5786,-1.602,-0.0325,0.964,0.8696,0.437,-0.05026,0.5986,1.097,-1.182,1.704,0.815,-0.76,2.475,0.695,1.965,1.081,1.773,-0.2954,0.49,-0.6157,1.172,0.7876,-0.4204,1.291,0.558,0.939,-0.5317,-1.004,0.1913,0.153,-0.7163,-0.01752,-0.545,-1.309,-0.556,-1.568,0.982,0.716,0.1516,-0.2214,1.071,0.7563,-1.483,0.000772,0.0789,-0.6353,1.503,-0.3015,0.0347,-0.565,-0.5596,1.179,1.37,0.3123,-0.08167,-1.004,0.6484,-0.995,0.9194,-0.483,-1.392,0.8594,-1.285,-1.146,-0.0792,0.02472,-0.1696,0.491,-1.309,-1.009,-1.484,-0.781,-0.3687,0.3872,0.2418,-0.2856,-0.3213,0.1854,-1.648,0.0834,-0.02986,1.398,-0.593,-0.3118,-0.1523,-1.034,0.9155,-0.9385,0.6973,0.631,-1.6045,-0.897,-1.269,0.126,-1.312,0.9243,0.892,-0.9136,-1.357,0.443,-0.2426,-0.2715,0.264,-1.046,-0.3533,0.59,0.7363,1.171,0.2756,-1.2705,-0.704,-0.0825,0.37,-1.095,-1.075,0.1956,1.289,-0.3423,0.89,1.282,-1.382,-0.4597,-0.296,0.01239,0.205,-0.7207,-0.433,0.459,-1.63,-1.235,-0.01259,1.46,-0.01162,-1.14,-0.5703,1.045,1.026,0.09753,0.4111,-0.3713,-1.103,0.2067,-1.224,1.527,-1.56,0.7344,-1.997,0.1459,2.445,1.096,-0.2905,-2.496,-0.4077,-1.111,0.002298,0.02151,0.8154,1.513,0.2356,-0.9043,-0.525,0.7896,-0.2976,-0.3296,0.804,1.428,-0.719,0.5815,0.1642,-0.0877,-1.051,1.388,-0.5225,0.1349,-1.527,0.3142,1.423,0.1825,-0.565,0.6606,-0.4124
balloon,0.2744,0.519,-1.747,-0.555,-1.073,-0.927,-1.07,0.5786,0.282,-0.2876,0.8506,1.705,-1.62,-0.2361,-1.502,1.385,0.8486,-0.331,-1.376,-0.283,-0.4033,0.553,0.4072,-0.703,-0.5376,-1.503,0.276,-0.9595,-0.2386,-0.5156,0.614,-0.2405,-1.314,-0.7803,0.003328,0.318,0.8965,-1.72,-1.378,-0.1863,1.734,-0.4563,-0.2808,-0.431,-0.223,-0.3994,-1.041,1.612,0.1124,-1.074,0.6763,1.679,0.577,0.0556,-0.4553,-0.577,-2.0,-0.1732,0.1427,0.6367,0.911,-1.512,0.857,0.09656,0.6665,-1.679,-0.7617,-0.117,0.327,-1.042,-0.4102,-1.072,-0.522,0.3926,-1.123,0.6245,-0.1737,0.7734,1.015,-0.9976,-0.03001,0.5,-0.4688,-0.451,1.453,-0.739,-0.842,-1.168,-0.869,-1.561,-1.151,-0.402,-0.1061,-1.368,-0.1614,0.3667,-0.2148,-1.065,-0.2129,-1.321,0.3704,-1.524,1.91,-0.2009,0.725,-1.658,-0.745,-0.03973,-0.625,0.926,0.173,-0.4082,0.1953,-0.01327,-1.583,0.868,1.406,-0.0803,1.6875,0.3662,-2.527,0.584,0.1964,-0.5376,0.2666,0.711,1.711,-0.1697,0.7944,-1.387,-0.523,-0.1504,1.3125,0.3674,-0.438,0.7554,0.1683,-1.215,1.236,1.516,0.992,-0.2551,0.2185,-0.8877,0.4407,0.6953,-0.818,1.371,0.634,0.242,0.7686,0.218,-0.08154,0.1676,-0.6313,1.009,0.474,0.5776,-1.483,0.127,0.305,-1.366,-0.2101,-0.0487,-0.235,1.314,-0.574,-0.7183,0.3862,0.4978,-1.397,-0.322,-0.4329,-1.1,0.814,0.1038,-1.641,0.1305,0.209,-0.9736,-0.365,1.27,0.3162,1.205,-0.3457,-1.08,0.845,0.7295,-0.6035,0.8823,0.2856,2.066,-1.876,-0.998,1.173,0.443,0.752,-2.076,0.944,1.784,0.3337,-0.5264,-1.139,0.00267,0.10486,0.2603,1.23,-0.3186,1.067,-1.29,0.5347,0.361,-1.571,-1.349,-0.0509,1.139,0.9307,-0.1385,-0.1555,-0.3433,1.471,-0.219,-0.4211,0.5874,-0.649,0.429,-0.213,-0.1757,-0.6987,-0.2998,-0.446,1.231,-0.051,-0.2352,1.029,0.545,-0.00398,-1.546,-0.854,-0.3467,0.11566,1.541,0.3564,-0.501,-1.299,-0.177,-1.007,0.2428,0.788,0.948,0.2029,0.1863,-0.513,0.1119,0.9126,0.889,0.1521,-1.732,-0.365,-1.309,0.842,0.8003,-0.8296,-0.0583,0.3237,-0.4595,0.6724,1.245,0.0285,-0.5024,0.7095,0.1498,-0.4773,-0.4683,-0.4934,-0.1592,0.6655,1.439,-0.12317,-0.3276,-0.8516,1.599,0.4636,-0.509,0.6484,-1.232,0.52,0.8794,0.963,1.175,-0.1322,0.9355,-0.6406,0.0657,0.1635,-0.8296,-0.4055,-0.712,0.12164,1.156,0.381,-0.5693,0.5386,-1.0,-0.8213,-0.1433,2.293,0.1139,-0.7124,-1.182,-0.10895,-0.4841,0.367,-1.221,-1.5205,0.6294,0.3035,-1.437,0.4922,0.0715,0.08545,0.571,-1.113,-0.998,1.025,0.3657,0.2627,0.3066,-0.511,0.532,0.1279,-1.543,-0.234,0.6685,0.891,0.7104,-0.3435,0.4243,0.814,-0.5166,1.756,0.6426,-0.5,1.99,1.035,1.033,1.279,1.117,-0.66,0.7876,-0.3345,0.6274,0.898,-0.491,1.414,0.1576,0.3528,-0.10114,-0.4807,-0.186,0.1735,0.04797,-0.03754,-0.4404,-1.305,-0.8965,-1.363,0.5156,-0.182,0.1285,0.0997,1.1455,0.8066,-0.365,-0.58,0.0939,-0.6797,0.06726,-0.1753,0.05597,-0.4272,-0.2053,0.9116,1.361,-0.0732,0.1052,-1.45,0.9443,-0.265,0.964,-0.4792,-0.9756,1.065,-1.317,-1.1875,0.2717,0.3545,-0.00991,0.6226,-1.326,-0.7207,-1.235,-0.7563,-0.796,0.11804,0.546,-0.1886,-0.3171,0.5396,-1.521,0.05176,0.0123,1.03,0.23,-0.3135,-0.442,-1.177,0.9653,-0.7705,0.4417,0.7227,-1.435,-0.948,-1.313,0.08905,-1.23,0.614,0.8564,-0.911,-1.269,1.177,-0.6045,-0.2742,0.0876,-0.811,0.4045,1.285,0.3086,1.045,-0.2861,-1.096,-0.658,-0.165,0.552,-1.097,-0.7686,0.6104,1.827,-0.8477,1.095,1.442,-1.266,-0.4827,-0.2009,-0.131,0.4668,-1.116,-0.3276,0.7075,-1.528,-0.2418,-0.392,1.103,0.1588,-1.449,0.1371,1.389,0.868,0.1074,0.4624,0.00586,-0.8335,0.3462,-1.13,1.923,-1.163,0.2249,-2.045,0.0708,2.338,1.064,-0.1503,-2.086,-0.4766,-1.089,0.246,0.002232,1.14,0.9087,-0.0321,-1.004,-0.293,1.494,0.1213,-0.3098,0.413,1.173,-0.562,0.4932,0.1838,-0.7524,-1.138,1.251,-0.4958,0.1232,-1.822,-0.09796,0.9004,-0.3386,-0.6187,0.5337,-0.1794
banana,0.517,1.6875,-1.103,0.1589,-1.752,0.5083,-0.11536,0.688,-0.5815,0.414,-0.8477,0.8276,-0.233,-0.1235,-0.3345,-1.685,0.592,0.005337,0.0708,0.3037,-1.263,-0.439,-1.112,0.566,0.8755,0.946,0.4495,-0.0175,-1.087,0.731,0.8345,-1.114,0.614,2.453,-0.1248,-1.55,1.087,-0.501,-0.8154,-0.1733,1.216,0.007458,0.259,-0.7246,-0.05087,-0.08435,0.887,1.633,0.615,-0.889,-0.7324,-1.83,0.4688,0.0759,2.18,0.91,0.984,0.444,0.05597,0.8174,0.699,0.65,-1.3955,-1.415,-1.002,1.464,-0.527,0.5254,-0.566,0.3748,0.01591,-1.216,-0.939,0.972,0.1573,0.5503,0.251,0.1948,-1.263,-1.449,1.07,-0.9565,0.808,-0.5054,1.023,-0.3506,-1.441,1.155,0.5747,-2.123,-0.6855,-0.9175,-0.4597,0.5005,1.329,-1.6,-1.716,-0.002253,-0.295,0.3777,1.757,0.338,-1.358,-1.346,0.2502,0.7944,-0.529,-0.1642,-0.864,-0.4917,-0.844,-0.0797,-0.08514,1.228,0.782,0.209,1.579,-0.412,0.687,-0.2135,-0.419,0.1211,0.1779,0.2482,0.13,0.2415,1.207,0.568,1.88,-0.5015,0.010216,0.5864,1.499,0.754,0.8105,1.118,-1.429,-1.482,0.1197,-1.036,1.279,1.283,-0.725,-0.1282,-0.2422,0.511,-1.149,-0.592,-0.3066,0.1427,-1.865,0.1545,-0.325,0.3066,-1.267,0.546,1.633,-0.3699,-1.702,0.1819,0.8965,-0.2861,0.231,-0.982,-0.773,0.07184,-0.798,-0.0561,-0.0521,0.8467,0.5566,-0.4055,1.434,0.06445,0.8364,1.667,-0.4438,0.724,0.868,-0.9365,-0.794,0.1941,-0.01865,-0.4307,-1.013,-0.786,-1.197,1.686,0.8765,2.377,-0.381,0.882,0.7817,-0.515,0.645,0.425,0.05133,0.0757,0.2228,0.7495,-2.494,-0.657,0.8643,0.585,0.8013,-0.4812,0.2505,-0.16,0.2754,-0.3708,-0.6064,0.5435,-0.197,0.0623,-0.01772,-0.5396,-2.158,-0.9863,0.4146,1.671,0.6445,0.4734,0.906,0.977,0.552,0.2742,-0.664,-0.0006194,-0.826,0.4587,0.841,0.645,1.292,-1.151,1.118,-0.1849,0.68,-0.2208,0.03232,-0.0708,-0.558,1.709,0.599,-0.3743,0.718,-0.7163,-0.2374,0.5586,0.844,-0.2458,0.5547,-0.05466,0.509,-1.099,0.7227,0.443,-0.603,-0.4438,-0.451,-0.11066,-0.586,0.41,0.327,0.3755,-0.938,-1.509,-0.2717,-0.5366,-0.2993,-0.093,0.4583,-0.02893,-1.667,-0.346,0.2766,1.121,1.087,-0.4434,0.507,-0.4153,0.594,-2.06,0.6616,0.11566,-0.5913,-1.552,-0.2876,0.7427,0.3616,0.99,-0.6,0.954,0.3518,0.4097,0.6357,0.928,0.96,-0.591,-0.62,0.01839,-0.8145,-0.703,-1.299,-1.64,-1.001,0.8564,1.073,-0.9,-0.1371,0.03958,-0.6987,-0.6226,0.734,-0.2827,-1.124,0.6606,0.287,0.4849,0.7627,-0.1771,-0.05988,1.078,-0.7134,0.2252,0.02184,1.165,-2.545,0.8384,0.505,0.4385,0.3525,-1.064,0.5034,0.5483,0.873,-1.528,-0.84,0.9585,0.6455,0.9937,0.4766,0.834,-0.6216,-0.336,0.659,1.08,0.1823,-0.8135,0.4958,0.2773,0.0233,1.368,0.1796,-1.771,1.129,-0.314,-0.1339,-0.559,-0.5366,0.1203,-0.4915,0.5044,0.06003,-0.437,-0.603,1.965,-0.1409,0.601,-0.0557,-1.096,-0.03738,0.06042,-0.2642,0.0968,1.859,2.115,-0.5273,-0.518,-0.907,0.1063,-0.6133,-0.8784,1.057,0.4219,-1.833,0.251,-1.098,0.761,-1.861,0.62,-0.3137,0.06165,0.131,-0.754,1.046,1.471,-1.246,-1.103,0.443,-0.2979,0.2153,-0.526,-0.361,-0.1558,-1.161,-1.447,-0.3518,0.03433,0.691,-2.014,-1.195,-0.0123,0.0666,1.185,-1.746,1.026,-0.7676,1.519,-1.036,0.1754,0.901,-1.307,-0.01359,-0.847,0.3694,0.5757,0.4597,-0.4976,-0.514,-0.8813,-1.097,-0.653,1.1455,-0.903,-0.8594,-0.696,0.2197,1.226,0.2742,0.544,-0.8306,1.047,-0.2294,-0.41,-1.11,1.652,0.952,1.563,1.518,-0.3582,0.4282,-0.1935,-0.4668,-0.4521,-0.6143,2.076,-0.2598,-0.7183,-0.11334,-1.309,0.8516,0.4263,-0.1141,-0.5923,1.427,-0.6895,0.04398,1.081,-0.3354,0.2627,1.033,-0.6523,-1.259,-0.7837,0.2656,0.427,-0.737,-0.7993,0.4583,0.2542,-0.00265,0.3652,-1.008,0.2957,-2.13,-0.9224,0.04068,0.514,-0.3923,-0.0297,0.3667,0.803,-0.6724,0.01888,-0.5015,0.02463,-0.7812,-0.5923,0.66,-0.0099,1.152,-0.548,0.471,0.9546,0.0413,-1.163,0.04858,0.3135,1.45,0.4714,1.037,1.195
basket,-1.004,-0.6665,-0.6836,-0.8086,-0.01791,0.3337,1.126,0.4277,-0.8613,0.314,0.4285,1.28,0.632,-0.7275,-0.3257,1.077,-0.0863,0.2402,-0.754,0.4082,0.1654,-1.03,1.61,-0.4028,1.276,0.3384,0.9307,-0.5903,-0.3552,1.935,-0.537,-0.3455,1.082,-0.4812,-0.942,-1.679,-0.8203,-0.255,-0.742,-0.04266,0.2808,-0.935,0.451,-1.02,-1.924,-0.7,-0.5386,-0.05292,-0.1312,0.1616,-0.05713,-0.4321,0.827,0.12476,0.1225,-1.142,-0.5566,-0.8354,-0.2307,-0.1884,-1.032,0.3074,1.143,-1.326,1.051,1.004,0.9053,-0.336,-0.7817,0.2026,0.3113,-0.1445,1.196,-0.6157,0.3108,-0.745,0.403,0.4973,-0.782,-0.1447,-0.69,0.4563,0.572,-0.7866,0.7495,0.1697,-0.825,0.5947,-0.7573,-1.083,-0.3953,0.07623,-0.0884,-0.2642,-0.1404,-0.23,-0.4558,0.1775,-0.0825,0.1326,-0.0401,-1.391,-0.2996,0.02785,0.0687,0.593,-0.5513,0.1616,-1.024,-0.2505,-0.5786,0.04263,0.768,0.0788,0.33,0.3977,-0.776,-0.999,-0.555,-0.0248,-0.25,-0.2249,0.6963,1.092,-0.2107,0.3274,-0.3171,0.1062,0.05847,0.816,-0.6333,0.3313,2.055,0.4834,0.2347,0.302,0.638,-0.0412,0.8203,1.085,0.6816,-0.4216,-0.1545,-0.0554,0.4504,0.1924,-0.2468,-0.391,-0.6587,0.471,0.585,0.616,-1.067,1.637,-0.8857,0.73,-0.06238,0.05298,0.542,0.04895,0.04688,-0.2052,0.874,0.1188,-0.261,0.4165,-0.04477,-0.87,-0.3164,-0.1743,1.123,-0.4692,0.5757,0.1144,0.3862,-0.0818,0.786,0.6685,-0.0861,-1.074,-0.5664,0.02402,-0.3223,0.5977,-0.5854,-0.724,-0.705,-0.0365,-0.3704,0.677,0.0801,1.288,-0.7363,0.3293,-0.0915,0.0606,-0.0771,-0.1353,-0.356,-1.075,-0.4834,-0.0978,0.2081,-0.0841,-0.869,0.381,0.2024,-0.671,0.4126,-0.9326,0.1353,-1.07,-0.4978,-0.2686,-0.7075,0.2395,-0.3774,0.00573,-0.2042,-0.525,0.2756,-0.1786,1.161,0.2937,-0.2837,1.419,0.531,-0.232,-1.122,1.241,0.806,-0.5894,0.1499,0.252,-1.273,0.02972,-0.0662,-0.11865,-0.817,0.9473,-1.162,-0.9624,-0.847,1.211,0.2827,0.4844,-0.544,0.1171,0.635,0.5146,-1.145,-0.8076,0.4504,-0.1602,0.4849,0.1809,0.2722,-0.5854,0.2866,-1.185,1.327,0.9336,-0.0595,1.066,-1.219,0.53,0.174,0.603,0.0868,-0.586,0.3486,-1.76,-0.2188,-0.794,-1.743,1.091,1.018,-0.2644,0.2632,0.3508,0.1624,0.4924,0.5337,-1.568,-0.4949,-0.579,0.1771,-0.01965,-0.793,-0.2308,-0.0886,0.4849,-0.5737,0.00955,0.5684,0.05515,0.4402,-0.8823,-0.1255,0.3389,-0.665,-0.5137,-0.398,0.2129,-0.4758,0.5186,-0.657,0.2318,-0.4492,-1.511,-1.353,0.8433,0.483,-0.3877,0.849,0.3845,1.034,0.4348,-0.2474,-0.1503,0.3367,-0.4377,-0.4548,0.1831,0.03134,-0.988,-0.3225,1.065,0.2524,0.519,0.9365,-0.06665,0.5977,-2.021,0.5615,-0.1492,-0.4749,-1.058,0.4546,0.518,1.676,-0.443,-0.6895,-0.657,-0.856,0.0773,-0.6665,-0.09674,-0.742,1.373,-0.1769,-2.191,0.7856,0.318,-0.4646,-1.238,-1.784,0.6787,-0.0921,-0.411,-0.9336,0.574,0.3027,-0.2008,-0.7886,-0.315,1.481,1.271,0.2766,-0.3325,-0.4749,0.0919,-0.3718,-0.9062,-0.2444,-0.02994,-0.4258,-0.5405,0.9614,-0.05707,-0.9194,0.6763,-0.2306,0.4512,-0.0662,0.53,0.625,-0.4546,-0.3806,0.3044,0.2996,0.3064,-0.3796,-0.584,-1.021,0.218,-0.04114,0.808,0.3157,0.1293,0.2688,-0.642,0.03152,-0.7305,-0.917,0.002413,0.0408,0.936,-0.07056,0.3127,0.05215,0.04742,-0.0938,0.239,0.2003,1.383,-0.662,-0.3281,0.8843,-0.2172,-0.3032,1.615,0.311,-0.2559,-0.3438,0.5273,1.744,-1.709,-0.614,-0.802,0.947,-0.707,1.065,-0.3655,1.076,0.225,-0.2502,1.201,-0.2302,-0.879,-0.03604,-1.213,-0.4397,0.08014,-0.0357,0.01478,-0.3362,0.4062,0.2345,0.525,-1.719,-0.3523,-0.3972,-0.3435,0.04886,0.6055,-0.3984,-0.542,1.182,0.1515,-0.0188,0.1277,0.682,-1.75,1.299,-0.2695,-0.5166,-0.2134,0.0843,-0.7275,0.602,0.1942,-0.4067,0.2307,0.4495,0.328,-0.402,-0.2277,0.897,-0.4204,1.049,0.8584,-0.083,0.606,0.397,0.6997,0.8306,1.152,1.563,0.00642,-0.4087,-0.2441,0.628,0.2108,0.2222,-0.443,0.7725,-0.504,0.7397,-1.791,-0.05322,-0.603,0.576,-0.2458,0.531,0.9473,0.3865,0.4546,0.8584,0.4617,-0.3691,-0.2131
bathtub,-1.736,0.9937,1.652,2.07,0.06793,1.09,-0.8013,-0.357,-0.7734,-2.53,-0.9077,-0.44,-0.2554,0.8916,2.205,-2.465,-1.285,-0.3684,-0.1722,0.07214,-0.4214,-0.6826,0.353,0.9478,-0.3347,0.7393,-1.366,-0.2307,0.03326,-1.044,-0.678,1.822,-1.262,-0.9688,-0.3145,1.806,-0.4863,-0.07947,1.188,-0.4092,-0.1277,2.32,-0.4758,0.605,-0.4631,-0.3167,1.197,-1.84,-0.5005,1.962,-0.678,0.3486,-0.3167,0.004066,-0.9717,0.782,-1.35,0.8164,0.5903,1.115,-1.483,-0.864,0.293,1.6045,-0.2357,1.866,2.635,1.327,-0.8115,-0.02295,-0.1804,0.05768,0.177,-1.603,0.3826,-0.527,-0.4036,-0.2377,0.8374,1.036,-0.5317,0.3716,-0.1919,0.3245,-0.4133,-0.854,1.775,-0.1009,-0.4578,0.0872,1.294,0.7456,0.1415,-0.182,-1.711,0.4912,0.5283,1.6875,0.3125,0.579,1.204,-0.6494,-0.7817,1.896,-0.8604,-0.1432,-0.1649,-2.057,1.004,-0.3308,-1.318,0.5117,0.939,-1.427,0.49,-0.1781,0.3406,0.9453,-1.545,-0.621,1.626,-0.3936,0.3652,-0.8154,0.334,-0.4834,-0.7295,-1.6455,0.7153,0.9277,-0.04187,-1.205,0.804,-0.4834,-0.775,-1.276,-0.63,0.69,-1.633,0.05133,-1.199,-0.799,0.6963,1.486,-0.723,-0.757,-0.762,0.391,0.3582,-0.3904,0.1403,-0.6934,-0.529,-1.05,0.7993,-0.1577,0.97,-0.5986,0.825,-0.3174,-0.714,0.00251,0.014435,0.3281,0.3862,-0.2537,1.61,-0.5464,1.065,-2.348,-1.617,0.7744,0.01458,1.725,-1.494,0.949,0.0614,0.484,-0.8354,-0.2905,1.342,-1.119,-1.258,-0.6055,1.008,0.9517,0.6235,-0.3955,0.985,-1.196,0.8525,-0.3796,0.416,0.575,-1.099,-0.292,-1.179,0.007904,-1.204,-0.2551,0.983,0.3696,-0.584,-0.534,-1.35,-0.737,-0.4883,1.649,-0.7075,1.619,1.067,1.218,1.12,-0.05566,1.292,-1.396,1.135,0.6924,-0.6523,-0.01944,-0.7666,-0.5186,-0.5156,-1.452,0.2468,-1.014,-0.2756,0.281,1.888,-1.526,-0.8657,-1.037,-1.309,1.185,-1.687,0.75,1.469,1.338,1.936,0.2812,0.392,0.4949,-0.893,-0.5356,-1.952,1.027,1.683,0.6963,0.1775,0.0945,0.02515,0.285,0.1626,0.2673,-1.373,-0.601,0.6074,1.445,-0.4465,0.926,-0.789,-1.086,-0.0484,1.566,0.399,-0.01808,-0.6343,0.4458,-0.329,2.004,-0.963,0.3286,0.866,0.967,0.9707,-0.505,-1.23,-1.548,0.8135,-1.606,0.4958,0.9697,0.316,0.915,0.753,1.18,-0.7617,-1.658,0.3538,-1.086,-0.4443,-1.413,0.695,-1.806,-0.2925,-1.2295,-1.662,1.871,0.1779,0.182,-1.278,0.5713,-0.0953,-0.66,1.921,0.01706,-0.1366,0.768,-0.2303,-1.123,-0.05142,2.246,-0.4634,-0.5103,0.536,-0.752,0.287,-1.249,-0.1418,0.1542,0.569,0.4258,0.2524,1.423,-0.7495,0.2927,1.882,-1.838,-0.2336,-0.7935,-1.218,0.385,-0.783,-0.917,-0.1477,2.254,2.014,-0.8633,-1.9795,2.34,-2.15,-1.912,0.183,0.01907,0.1334,-1.096,-1.587,-0.8,1.48,-0.551,0.64,0.1714,-1.521,1.554,-1.016,-2.06,-1.29,0.994,2.201,-0.06836,-1.746,-0.9844,1.938,-0.05997,1.3125,0.739,-0.26,-0.8003,-0.5127,1.619,1.113,-0.461,0.1752,0.1646,1.1455,-1.45,0.858,0.7363,-0.05414,0.6064,0.1631,-0.1798,-1.583,-1.33,1.345,-0.958,1.415,-0.8105,0.5386,-1.946,1.411,1.235,-0.5767,0.3901,-0.3206,-0.9404,-0.541,-0.6987,-0.857,1.183,-0.3406,-0.4397,1.246,0.687,-1.361,0.506,0.2744,0.3984,-1.46,1.38,-0.156,0.806,-0.9604,0.866,-0.1655,-1.272,0.3333,0.9507,0.821,0.753,-1.466,1.077,1.892,0.3657,-0.9,-0.2349,-1.702,0.7983,-0.355,2.127,0.4976,0.9624,-0.243,0.05188,0.2181,0.5225,-1.567,-1.756,-0.09106,0.4949,1.101,-0.06805,0.2145,0.857,0.5337,-0.7505,0.00787,-1.042,-0.3115,0.6475,1.69,-1.343,0.4958,-0.1277,0.0563,-0.741,1.092,0.936,0.8784,0.0774,-0.861,-0.986,-0.8276,1.355,0.4895,1.632,-0.714,-0.9336,-0.342,-0.792,-1.6045,1.22,0.3606,0.7017,-1.448,1.655,-1.856,0.8296,-0.0415,-0.8594,-0.638,0.2854,0.9316,0.6387,-0.0888,-0.4666,-0.2023,0.712,0.04938,1.708,-0.00823,0.973,1.488,0.517,0.0657,1.409,0.3528,1.493,-1.349,0.9976,-0.2927,1.191,0.8564,1.993,0.2458,0.171,-1.019,-0.8057,-0.709,-0.0982,1.368,-1.465
bear,-1.051,-0.067,1.015,2.062,1.269,-0.06995,0.167,-0.1158,0.8047,0.4807,-2.244,-1.194,-0.7944,-0.2617,0.652,-0.269,-0.4895,-1.096,-0.178,0.632,-0.05692,0.135,0.8604,-0.2656,1.061,0.1613,1.313,0.2148,0.3528,-0.085,-0.2408,1.161,-1.88,-0.4517,0.2595,1.516,1.252,1.042,0.7344,0.449,-0.4595,1.811,-0.8896,1.377,0.8506,-0.07,-0.568,-1.368,-0.9507,0.778,1.086,-0.5386,0.3928,0.4849,-1.017,0.4666,0.9727,1.649,-0.7046,-0.3599,0.05637,-0.601,0.513,1.678,-2.113,0.314,1.269,-0.205,1.058,0.6387,1.522,0.3518,-1.153,0.1666,1.954,-0.93,-0.412,0.187,-0.02805,0.877,0.1233,-0.536,-2.057,-0.1608,-1.815,0.279,1.261,-1.138,0.738,-1.073,2.16,0.2534,-0.725,0.3625,-0.3457,1.098,0.00975,-0.1971,-1.07,-0.1609,0.404,0.4353,0.377,-0.2355,0.8306,-1.617,0.6665,-1.665,-0.7954,-0.4263,-1.702,-1.401,-1.297,-0.354,-1.362,-0.1009,-0.839,-1.437,1.206,0.7295,0.4692,-0.2637,-1.357,-2.338,-1.011,-2.238,-2.855,0.907,0.6743,0.889,1.095,-1.145,-0.7144,0.3674,-0.933,-0.3003,-2.088,0.2085,-1.364,-1.56,-1.711,-0.8916,-0.2131,1.216,-0.912,-1.325,1.792,-0.1385,-1.459,-0.1385,-0.5127,1.229,-1.489,-1.475,0.608,-0.1989,1.355,-0.956,2.416,-1.096,-0.871,0.2695,-0.11145,0.8374,0.2544,-1.267,0.2666,1.942,0.519,-0.6504,-2.293,0.9824,-1.049,0.0706,-1.045,-0.711,-1.318,-0.2769,-1.5625,-0.3271,0.636,0.35,-0.383,-0.03766,2.018,1.703,1.993,0.5977,0.03845,-1.085,1.894,-1.014,0.3174,0.726,-1.158,-0.3535,-0.1875,0.8716,-2.365,-0.728,-0.0694,1.073,0.2563,0.8584,0.0889,0.1436,-0.2996,-1.767,-0.2947,0.678,-1.237,0.5845,1.176,1.134,0.3582,1.073,0.6934,0.6177,0.8384,0.6816,-0.1466,0.1945,-2.156,-1.503,-0.6123,-2.283,-2.055,-0.2783,0.716,-1.362,-2.033,-2.02,-0.915,1.752,0.9507,0.426,1.78,1.154,0.6284,-0.2396,-1.238,-0.1984,0.0637,1.6,-0.5884,0.1415,1.556,-1.535,-1.034,0.486,1.946,0.9253,-1.0205,2.385,-0.2688,0.746,-1.362,2.049,-0.03168,1.435,0.6045,1.699,-0.0691,-0.829,0.9883,-0.8823,-0.009315,-2.031,-0.965,-0.7163,-0.639,1.831,1.334,1.706,0.0897,0.715,-1.197,1.203,-1.007,-0.19,0.8975,0.2598,-1.2295,0.4595,1.838,2.162,-1.235,-2.201,0.2905,-0.0864,-0.04794,-0.7817,0.7354,0.0394,-0.7495,-1.791,-0.5737,0.296,1.592,1.7,0.0959,0.02547,0.6025,-0.617,1.975,-0.4846,-1.547,1.453,0.1759,0.03058,0.1619,0.536,0.367,1.491,0.4583,1.235,-0.5903,-0.7153,-3.217,-0.93,-0.1909,-0.243,-0.657,-0.08234,-0.2517,-0.8687,-0.4211,-1.73,-0.02336,0.227,-1.248,0.896,-0.0585,-0.07367,-1.304,0.7114,2.129,0.1667,-1.877,0.9307,-0.2323,-1.205,-0.752,-0.5054,0.1416,0.326,-0.896,0.5376,1.593,-2.225,-1.215,1.058,0.5684,-0.1737,-0.9966,0.3462,-0.12195,-0.3818,0.3542,1.443,1.819,-0.7925,-0.998,1.145,1.511,0.4282,-0.2844,-0.6587,0.5293,0.6045,1.5625,-0.854,0.1553,-0.08905,1.644,-1.314,1.315,0.7373,-0.3892,0.8237,-0.1979,-1.278,-0.4026,0.601,0.379,-0.1562,0.7207,-1.177,1.055,0.02043,-0.6855,-1.9,-0.7695,1.238,0.1192,-2.002,2.064,1.79,-2.205,0.1937,-0.011024,-0.2888,-0.5503,1.08,0.5806,-0.6733,-1.2,-0.4202,0.1083,0.534,1.532,0.3647,-0.822,-0.05676,0.183,-1.037,2.293,1.231,0.4175,-0.341,-1.252,0.602,1.124,0.3057,0.5854,-0.7554,-2.018,2.035,1.515,0.3345,-1.01,2.287,-1.108,0.443,0.612,-0.407,-0.6953,0.275,-0.0731,-0.01836,1.29,0.4863,-0.1593,-1.924,0.8525,-1.231,0.0794,1.542,0.419,-1.086,-0.3054,-1.399,1.131,-0.3503,0.3115,-2.27,0.638,1.143,-0.4668,1.318,-0.3223,0.3867,-1.749,-1.224,0.2593,1.312,-1.864,-0.7993,0.2627,1.388,-0.9917,0.1301,0.3345,-0.1538,-1.587,1.251,0.8647,-0.01478,0.0354,0.4844,0.0331,0.4148,1.082,2.107,-1.436,-1.758,-0.991,-0.5977,-0.7515,0.862,-0.3337,-0.3801,1.798,-1.075,0.6714,0.3406,0.0,2.227,-1.009,0.6143,-0.739,1.168,-0.5474,0.933,0.6587,-0.1913,-2.186,-0.182,-0.2964,0.874,-1.359,-0.126
bed,-0.9263,-0.2979,0.9863,1.987,0.2634,-0.01945,-0.3618,-0.601,-0.513,-1.487,-0.5796,-1.041,0.005604,-0.619,1.045,-1.869,-2.688,-0.02847,-1.505,0.88,-0.0786,0.05368,0.456,2.002,0.4365,0.4148,-0.02899,0.5107,0.473,-0.3438,-1.414,1.759,-0.9814,-1.403,-0.441,1.504,-0.7188,-0.063,1.009,-0.3633,-1.373,0.7817,-1.32,0.2205,-0.7,0.4583,-0.2164,-1.092,0.3962,1.355,1.661,0.401,0.2118,1.31,-1.451,0.654,-0.3457,-1.144,-0.7085,0.156,-1.314,-1.523,0.06,1.415,-0.762,0.04102,1.616,1.521,0.4482,-0.0841,1.05,1.268,0.2172,-0.895,1.686,-0.3757,0.674,-0.1091,1.209,-0.002953,-1.423,-0.5938,-1.506,1.95,-0.3867,0.5806,1.783,-1.066,0.658,-0.327,1.734,0.2037,0.7427,-0.8657,-1.208,1.778,1.373,1.5625,0.5137,0.657,0.908,0.2019,0.1848,0.9805,-0.6323,0.9336,0.9194,-1.561,0.809,-0.5083,-0.8286,0.7983,0.4468,-1.042,0.1103,-0.6006,-0.792,0.716,-0.6035,0.0679,1.621,-1.592,0.544,-0.862,-1.544,-2.041,-1.089,-1.178,0.6997,1.307,-0.3923,1.095,-0.509,-1.024,-0.4277,-1.277,-0.7617,2.314,-0.8877,-0.709,-1.689,-1.316,2.566,1.332,-0.6714,-1.06,-0.6924,-1.669,0.539,0.9307,-0.01753,-0.1133,-2.465,-0.4956,1.536,-1.385,0.4587,-1.745,1.009,-0.1071,0.2542,0.646,1.418,0.04614,0.04553,-1.107,2.203,-0.704,-0.7666,-1.128,-0.878,1.656,0.4175,1.739,-1.527,0.04294,0.3472,-0.5415,-1.798,0.7373,0.2477,0.4731,0.2534,-1.719,1.731,1.815,0.4504,-1.3955,0.3835,-1.312,1.514,0.4358,0.3901,0.7266,-1.248,-0.2231,-0.272,0.33,-1.535,-0.6016,-1.183,0.715,-1.5,-0.742,-0.855,0.6904,-1.037,0.618,-1.3125,1.106,-0.3362,0.6416,0.744,-0.2898,-0.2458,-1.106,1.656,1.73,1.244,-0.667,-1.049,-0.3926,-2.438,-1.52,-0.5557,-0.9863,0.487,-0.6045,1.22,-1.592,-1.342,-1.492,0.1329,1.139,-0.8076,0.05615,0.7603,0.8145,2.34,0.3958,0.987,-0.741,-0.7573,-0.242,0.4827,1.326,1.447,-0.922,-1.352,0.5225,-0.255,-1.213,0.823,0.9165,-1.567,-0.2013,-0.2339,1.354,-0.54,0.9214,-0.4314,-0.2803,2.086,0.1792,0.4348,-1.586,-1.007,0.901,-1.094,0.6777,-1.179,0.6553,0.645,-0.4094,0.343,0.4768,-1.6045,-0.917,-0.04764,-0.4893,1.771,1.502,0.4958,1.17,1.335,0.944,-1.232,-1.34,1.224,-0.2607,0.244,-1.626,1.723,-1.363,-1.292,-1.509,-1.092,1.231,-1.269,0.7646,-1.358,1.471,-0.6714,-0.9824,2.236,-0.1501,-0.8145,0.7803,0.2837,-1.755,0.04236,1.63,-1.043,0.757,-0.2169,-0.639,0.12396,0.56,0.5566,1.244,-0.7974,-0.6987,0.3384,0.3674,-0.3723,-1.181,0.8574,-1.14,-1.002,-1.273,-0.827,2.373,0.2177,-1.967,-1.533,0.909,1.775,-0.866,-1.693,1.719,-1.241,-2.035,1.491,0.05963,-1.233,-0.3176,-0.5347,1.461,0.2827,-1.689,0.0836,0.1577,-1.607,1.682,-1.778,0.02393,-1.322,1.142,0.7363,0.469,-1.194,-0.589,0.5527,0.2096,1.428,0.4836,-0.11285,-1.38,-0.4136,1.513,2.066,-1.339,-0.335,1.135,1.423,-1.092,2.264,1.136,1.545,0.4656,0.978,-0.294,-1.288,-0.8867,1.274,-1.589,1.876,-1.748,0.884,-1.538,0.756,1.321,-2.15,1.643,-1.63,-1.416,-0.265,0.651,-1.909,1.23,1.574,0.1566,1.329,-0.06046,0.02824,0.5605,0.9937,1.673,-2.19,1.027,1.141,1.7705,-1.051,-0.4973,0.7188,-1.315,0.812,0.4705,1.278,-0.0139,-1.8125,0.547,1.38,1.582,-0.8984,-1.498,-2.09,0.5566,0.2888,1.891,-1.0,0.505,-0.869,1.813,0.1309,0.2737,-0.2263,-1.031,-1.066,0.0424,1.269,0.1425,0.3796,0.974,1.762,-1.547,-0.6597,-0.987,-0.7153,0.4133,0.11743,-0.8237,1.954,1.3,1.207,-0.8066,1.4795,1.412,1.3955,2.389,-1.237,-1.405,-0.634,-1.162,0.1632,0.44,-1.159,0.1658,0.3289,-0.491,-0.4993,0.3572,0.157,0.04132,-1.647,-0.10675,0.12067,0.928,-0.5996,-0.2028,-0.53,-1.312,0.9897,0.1608,1.192,0.1211,-1.671,0.203,-0.548,0.01284,0.9575,-0.515,1.508,-0.522,0.1613,0.77,0.3596,1.561,-0.8325,1.386,-0.71,1.747,1.811,0.10803,-0.7754,0.983,-1.144,1.369,-0.2355,-0.9673,-0.7627,-0.6987
belt,0.2451,-1.072,-1.367,-0.933,-0.12164,-1.225,-1.247,2.219,0.297,-0.1035,0.687,0.4734,-0.0809,-0.809,-0.1229,-0.4038,-0.3127,0.4502,0.3884,1.48,1.289,0.4333,-0.1392,-1.867,1.049,-0.7114,-0.4377,-1.456,0.5254,0.527,0.0963,0.3208,0.4775,0.2695,-1.476,-0.7856,0.984,0.004265,-0.1109,-1.602,0.12274,-0.3655,0.6646,-0.5894,-1.847,0.463,-0.6772,0.3906,-0.2172,-1.159,-0.212,0.2302,1.213,-0.0908,-0.0878,0.6416,0.2505,0.09033,0.9106,-0.9185,-0.881,-1.769,0.3677,0.747,0.8096,0.258,-0.3967,-2.193,0.0664,1.348,-0.3289,-0.974,1.371,0.447,-1.345,-0.3342,1.083,0.731,0.75,-0.75,-0.0715,0.4888,0.6743,-0.2786,0.622,0.4297,-2.133,0.7944,-0.688,-0.99,-0.48,0.5513,-1.379,0.2979,0.3481,-0.1354,0.0472,-0.608,0.578,-2.129,-0.7334,-0.2214,-0.392,-0.2069,0.4927,-0.1993,-0.708,1.902,0.5317,0.4587,-0.3228,-0.9146,-1.511,-1.13,1.162,1.157,-1.037,-0.1548,0.4077,1.248,-0.802,1.736,-1.346,0.288,0.502,0.6064,0.1006,0.6396,-0.516,0.509,-2.521,0.6523,0.04565,1.953,0.3435,1.516,0.01005,0.471,1.045,0.7583,-0.6084,-0.8003,-0.11664,-0.02615,0.6787,-0.6836,-1.017,0.915,0.645,-1.344,0.04382,1.799,0.08154,0.4512,-0.5024,0.2013,-0.603,-0.1533,0.03934,1.844,1.09,-0.729,0.794,-0.188,-1.14,1.327,-0.675,-0.2284,-0.5767,0.9253,0.7505,-1.002,-0.10376,-0.4749,2.086,-0.44,0.05667,-1.262,-0.534,-0.3555,0.76,0.9575,-0.3193,0.3098,-0.1895,-1.435,1.266,1.446,-1.028,0.4949,-0.2974,0.2079,-1.349,0.3682,-0.0709,-0.925,0.606,-0.4265,-0.817,-0.639,0.1891,0.4238,1.368,0.6797,0.1372,-0.0708,1.466,-0.581,0.7886,-0.6953,0.286,-0.1255,-0.726,-0.4194,-1.188,0.03845,-0.2068,-0.722,-0.515,0.319,-0.8066,-0.7974,0.1691,1.34,-1.547,1.752,0.443,-0.03867,-0.8247,0.6587,-0.3884,0.1493,0.8516,-0.4058,-0.04343,-1.016,-1.183,-0.6826,-0.5923,1.255,-1.674,1.042,0.4385,0.01755,-0.384,-1.007,-0.1542,-0.538,1.179,0.4075,-0.1274,-0.3914,0.4902,-1.0625,1.562,-0.9165,0.1381,-0.715,-0.849,-0.796,1.822,1.187,0.1962,0.3945,-0.6,0.397,0.624,0.1438,1.13,0.814,1.1875,0.4512,0.1231,-1.28,-1.515,0.3162,1.352,0.04138,-1.705,-0.08575,-2.115,-0.4124,-0.4968,-0.4968,0.3423,-0.8057,1.505,0.9795,0.9316,1.123,0.69,1.66,1.176,0.7617,-1.006,1.1875,-0.01118,-1.349,0.9946,-0.332,1.534,-2.502,-0.1433,1.342,0.0775,-1.628,-0.4038,-0.721,-1.266,0.1888,-0.726,0.3816,1.932,0.2452,-0.3506,1.15,1.37,0.1306,-0.5576,1.087,-0.4233,-0.8755,-0.1582,-0.3525,0.8994,1.281,-0.5654,0.938,2.055,1.709,0.1224,-0.00833,-0.4468,-0.3125,0.986,-0.964,-1.251,1.642,1.319,0.451,0.2349,0.4763,0.125,0.996,-1.266,0.6,0.0229,-0.4084,0.1786,0.7046,-0.4866,-0.3064,1.473,-0.5483,1.097,-1.658,0.337,-0.296,0.9043,-1.068,0.523,-0.3193,-0.4028,2.555,-0.5654,-0.4583,0.68,0.626,1.388,-0.5396,-0.06366,1.396,-1.57,-1.14,-0.02548,0.7563,-1.609,-0.67,-0.884,-0.1522,-0.4922,-0.166,0.449,-0.791,0.582,-0.5386,0.048,-2.027,-0.4097,1.37,0.6836,-0.0877,1.526,-0.384,-0.1311,0.8423,-0.272,-0.02336,-0.422,0.761,-1.109,-0.5435,-0.881,-0.872,0.003767,0.765,-1.154,0.1962,0.947,-0.641,-0.7754,-1.713,0.301,0.1837,0.08887,1.525,-1.435,-0.2316,-0.5312,-0.538,0.9585,-0.665,0.06384,-1.629,1.293,-0.2546,0.2588,0.08057,-0.569,-0.8213,0.4453,-1.017,-1.765,-0.843,-1.0,0.6865,0.8735,0.03973,0.504,-0.9775,-0.6196,-0.658,0.5396,-1.523,-1.526,0.952,0.542,1.233,-0.881,-1.214,-2.398,1.011,-1.31,-0.2078,-1.398,0.5444,-1.606,-1.856,-1.211,-0.2588,0.7466,0.8545,-0.3113,-0.6777,-0.0032,-0.8813,1.718,-0.2004,2.268,0.1656,0.113,-0.3445,0.6094,-1.28,0.847,-1.579,-0.5137,-0.4836,-0.2527,-0.7246,1.226,-0.2448,-0.8604,1.798,0.0877,1.836,-0.3816,-1.012,-0.2896,-1.412,1.198,0.00849,-1.276,1.779,0.864,-1.652,0.3206,-1.014,1.496,-1.856,-0.357,-1.064,0.00103,-0.3318,1.419,1.44,-0.4092,0.1633,-0.04364,1.232,-2.559,0.004116
bench,-0.10944,-0.583,0.016,-0.486,0.421,-0.00922,0.3389,0.553,-1.533,-0.707,0.675,0.991,0.4348,-0.4146,0.2603,-0.26,-0.9424,0.5767,-1.119,0.2262,1.138,0.1192,1.064,-0.1648,0.18,-0.1159,-0.812,0.2323,-0.3677,1.178,-0.2157,0.578,-0.6465,-1.068,-1.066,-1.102,-0.8057,-0.00441,0.2424,0.03827,-0.7266,0.4788,-0.3333,0.004707,-0.4604,-0.2864,-0.02235,-0.6333,-0.7725,0.3223,-0.1293,0.959,1.688,0.0434,-0.6045,0.01973,-0.72,0.515,-0.6484,0.06256,-1.233,0.3745,0.4539,0.3442,0.704,0.5723,0.9155,0.00822,-1.423,0.1224,0.53,0.188,1.388,-0.7236,0.413,-0.3655,0.1421,-0.4546,-0.363,-0.18,-2.014,0.4346,0.0917,0.07465,0.11053,0.509,-0.0794,0.3389,-0.6377,0.1035,0.1177,-0.2854,-0.5127,0.5884,-0.899,0.582,0.8174,0.646,-0.0484,-0.3718,-0.2693,-0.0779,-0.1136,0.1993,0.3003,1.17,-0.512,0.6016,-0.0729,0.03308,-0.317,1.043,0.3562,-0.08704,0.2341,-0.789,-0.91,0.0489,-0.6636,0.4841,0.746,-0.5405,-0.3477,0.599,-0.0493,-1.159,-0.267,-0.4753,-0.6704,0.7793,-0.788,0.3416,0.751,0.6187,-0.7417,-0.1901,0.4033,-0.1776,0.811,0.1672,-0.02994,-0.8203,0.4004,0.2908,0.564,-0.768,-0.9614,-0.5728,0.7397,0.1157,0.0621,-0.4172,0.1542,0.8184,0.1356,-0.06793,-0.607,-1.218,0.4578,0.04697,-0.319,-0.03638,1.198,-0.623,0.726,-0.158,0.5166,-0.392,-0.556,-1.029,0.451,0.0487,0.859,0.5986,-0.0821,0.04303,1.277,-0.08356,-0.9155,-0.719,0.4272,-0.149,-0.778,-0.1041,0.2693,-0.1708,-0.0684,0.346,0.1538,-0.982,0.0737,1.819,0.04675,0.4043,-1.038,-0.6963,-0.758,0.6855,-0.362,-1.059,0.423,0.919,0.511,0.11346,-0.884,0.434,-0.3293,0.48,0.0351,-0.3064,0.498,-0.633,0.3508,-0.257,-0.11395,-0.2405,0.014465,0.4365,0.7227,-0.3918,-0.2622,-0.4622,-0.878,0.1837,-0.634,0.6787,0.1864,0.4832,0.10657,0.2732,-0.6733,-0.674,0.36,1.038,-1.439,-0.2659,0.0881,0.1926,-0.3057,0.6826,-0.627,-0.1046,-0.10693,0.729,0.4197,1.274,-1.011,-0.000849,-0.8125,1.403,-0.7124,-0.848,0.1705,-0.822,-0.11444,-0.1635,0.0835,0.907,0.614,-0.3884,-0.004604,0.802,0.0507,0.502,-0.2133,0.3745,0.1987,0.768,0.554,0.6216,-0.6304,-0.8853,0.125,-0.545,-0.338,-0.5176,-0.3667,-0.3564,0.12244,-0.03001,0.376,0.4863,-0.0738,0.3416,0.11414,-0.07153,0.6665,-0.082,0.0751,-0.1813,-0.0305,-0.0704,-0.126,-0.477,-0.08997,0.6426,-0.06085,-0.647,-0.04153,-0.4985,0.3325,0.1179,-0.6064,0.004593,0.899,-0.7783,-0.08936,-0.2368,-0.321,-0.295,-0.1815,0.7466,0.618,-0.5713,0.2069,0.2382,0.819,0.1163,0.2515,0.01191,0.1525,-0.4407,0.4988,1.051,-0.1462,-0.8076,0.4133,0.2233,0.3457,0.4802,-0.03008,0.2512,0.793,-1.863,0.428,-0.10266,0.00887,-0.582,0.2861,0.7593,-0.7627,-0.489,-0.2039,-1.362,-0.306,1.09,0.1412,0.4028,-0.02187,-0.04483,-0.207,-1.03,-0.2798,-0.1383,-0.9062,-1.515,-0.8394,0.3489,-0.1163,-0.2097,-1.293,-0.05954,1.065,0.882,0.342,0.4243,1.51,0.351,0.0953,-0.10175,1.236,0.3574,0.0729,-0.664,-0.6997,0.1647,0.00209,-0.467,0.827,-0.3079,0.947,1.166,-0.4854,-0.5156,-0.271,-0.4504,0.6235,-0.483,0.9805,-0.5234,-0.3296,1.128,-0.4778,-0.543,-0.656,0.6865,0.1808,0.2542,-0.0763,0.3276,0.547,-0.4507,0.943,0.559,-0.3145,0.8594,0.4448,0.5435,-0.545,0.3994,0.1812,0.3306,0.9385,-0.1031,0.1951,0.4634,-0.4277,-0.8247,0.8447,0.11334,0.397,0.967,0.269,-0.132,-0.3508,0.1309,0.3674,-0.3032,0.03546,-0.1656,1.272,-1.056,-0.0735,-0.02306,-0.3047,-0.01229,-0.359,0.379,-0.4333,-0.7095,0.2217,0.09436,-0.3052,0.853,0.4756,-0.3005,-0.2815,0.334,-0.2573,0.51,-0.7915,0.9756,-0.05896,0.542,0.10236,-0.521,0.3652,-0.5283,0.8735,0.7256,0.1289,-0.409,0.3242,-0.2922,1.178,0.9116,0.07764,-0.2668,1.062,-1.03,0.684,0.1577,-0.482,0.3647,-0.521,0.633,-0.2334,0.3022,0.05124,-0.5166,0.2252,0.3247,0.83,0.5557,0.8457,0.3013,-0.4392,-0.3557,1.317,-0.5845,0.4863,0.1362,1.252,0.6675,0.4387,-1.108,0.6772,-0.5674,0.588,-0.2524,-0.4653,-0.03314,1.578,-0.1587,0.549,0.669,-0.0721,0.559,-0.10846,0.545,-0.0989,-0.62
bib,-0.557,0.02791,0.613,1.13,-0.2019,0.6865,-0.2864,-1.177,0.557,0.0702,-0.824,-0.03244,0.2122,0.3113,-0.258,-1.112,-0.7964,-0.2384,-0.1473,0.2477,-0.2412,-1.369,0.2998,1.169,-0.06354,-0.3298,-0.9087,0.565,0.842,-1.2705,-1.468,0.5664,0.736,-0.732,0.6865,1.077,-0.472,1.271,0.6074,-0.2844,-0.746,-0.07306,-1.616,0.4644,0.4282,1.229,0.6084,-0.2585,0.9434,0.8623,1.249,-0.9697,-0.685,-0.655,-0.545,0.3032,0.1166,-0.4329,-0.3892,0.3281,1.113,0.605,0.3914,-0.1602,-1.121,-0.7065,0.0442,0.755,0.05643,-0.908,0.528,0.8623,-0.436,-1.455,0.778,0.5444,0.504,-0.2208,0.818,1.761,-0.764,-0.3723,-0.4893,0.178,-0.997,-0.5186,0.6587,-0.0004463,0.987,0.267,1.063,-0.4126,0.2651,-0.3403,-0.4204,0.679,-1.012,0.04733,0.667,0.993,-0.625,0.459,1.014,-0.7886,-0.6953,-0.343,1.569,-1.135,-0.2015,-0.2106,-0.2242,0.282,0.124,-0.7954,0.593,0.4387,-0.6196,1.326,-1.33,0.10693,0.507,-0.6055,0.1052,-0.753,-0.901,-0.4248,-0.0821,-0.8574,-0.3176,0.9526,0.285,0.5913,-0.809,-0.5605,0.12354,-0.8574,-0.9097,0.8467,-1.466,-0.4976,-0.9507,-0.7534,0.26,0.749,0.4294,-0.7837,0.418,0.2173,-0.8125,-0.1868,-0.3242,0.6196,-0.765,-0.624,1.124,-0.6914,0.4531,0.1432,0.07306,0.4292,0.4397,0.8135,-0.2878,0.09485,0.1439,-0.394,0.81,0.7817,0.03766,0.561,-0.263,1.025,-0.906,0.621,-0.922,-0.253,-0.02834,-0.4978,-0.2014,0.3342,-0.2842,-0.3433,0.4705,-1.344,0.4934,1.102,-1.018,-1.389,1.08,-0.7427,1.162,-0.3965,0.741,0.318,-0.156,-0.014694,0.3757,0.4443,-0.3167,-0.6978,-0.9556,1.049,-1.19,-0.3726,0.2137,1.023,-1.117,0.514,-1.414,0.7866,-0.1619,0.03955,0.685,-0.0807,0.5166,0.0887,0.4854,1.089,-0.1799,-0.8164,-0.2267,-0.2479,-1.065,-0.619,1.105,-0.657,0.991,-0.6147,0.789,-1.293,-0.1572,-0.7812,0.3384,-0.3093,-0.4658,0.251,-0.2595,0.5093,1.271,-0.03265,0.3782,-0.9155,0.3423,-0.3638,0.244,-0.663,0.8013,0.00934,-0.873,-0.6343,0.3438,0.177,0.549,0.03598,-1.41,-0.4065,-0.3782,0.7705,-0.3303,1.145,0.101,-0.4973,0.2219,-1.138,0.708,0.05496,-0.808,-0.851,-0.9736,-0.9272,-0.1984,1.043,0.1061,0.7007,0.4224,-0.0653,-1.13,-0.494,-0.3362,-1.138,-0.2573,-0.2598,-0.2097,-0.0682,-0.2957,0.4734,-0.1333,-0.7173,0.596,-0.6416,-0.3005,-1.1875,1.087,-0.647,0.2388,-1.211,-0.9683,0.3584,-0.5063,0.546,-0.1406,0.6665,-0.3374,-0.484,0.676,0.5254,0.2025,0.1089,0.3857,1.271,-0.4387,0.3774,-0.56,1.486,0.2328,-1.55,-1.307,0.1986,-0.12305,0.739,-1.43,-0.592,0.7983,-0.7007,-0.8843,-0.499,0.7935,-0.3794,-0.572,-0.608,-0.02658,1.889,1.1045,0.2837,-1.12,0.2278,1.089,-0.8887,-0.86,-0.3713,-0.612,-0.5625,1.388,0.5864,-1.842,0.0986,0.532,-0.1675,0.96,-0.8735,0.1699,0.4844,-1.328,0.3428,-0.4421,0.8677,-0.722,1.479,-0.3743,-0.8027,0.4712,-0.1208,0.5054,-0.5356,0.4302,0.179,-1.455,-0.9736,-0.261,0.775,0.2354,-1.716,0.6562,0.534,0.9243,-0.6733,1.346,0.702,0.2036,0.945,0.2627,-0.683,-0.4941,-0.9062,-0.4077,0.08655,0.3953,0.4158,-0.207,-0.11884,0.4634,-0.313,-1.113,0.6074,-0.813,-0.528,0.3672,0.4663,-0.706,0.795,1.422,1.013,0.467,0.777,-0.209,0.8726,0.7095,-0.08813,-0.963,0.4617,0.01988,0.375,-1.486,-0.502,0.03485,-1.033,1.033,1.272,0.5996,-0.551,-1.728,-1.533,0.5137,1.0205,-0.7363,-1.061,-0.7563,-0.3342,0.9243,1.423,-0.234,0.3474,0.3777,1.316,0.3875,-0.1783,-0.3223,-1.121,-0.755,0.6523,0.954,-0.0744,0.5464,0.1709,1.036,-1.041,-0.1715,-0.4575,-0.9106,0.0672,0.87,-0.593,1.518,-0.315,0.6865,0.2493,0.3252,1.375,-0.02133,1.081,-0.596,-1.244,-0.8286,-0.1394,0.0448,0.7705,-0.3372,0.942,-0.0909,0.5225,-0.875,0.5845,0.4692,0.9175,-1.01,-0.2632,0.5703,0.5566,-0.05856,1.114,-1.336,0.08496,0.808,-0.4265,0.5767,-0.4941,-0.7607,-0.4148,0.08496,-0.2288,0.9536,-0.66,-0.2084,-0.1643,-1.5625,0.729,-1.265,0.04407,-1.397,1.431,1.085,1.204,0.6514,0.5522,-0.8037,-0.3594,0.6387,0.2676,-0.7383,0.2603,-0.4863,-0.2395
bird,1.958,0.591,-0.7183,-1.608,0.5806,-0.296,0.964,-0.0997,0.1503,0.8984,-0.077,-0.2534,0.1401,-0.2389,-0.2625,0.9346,0.06744,0.2954,0.4805,1.057,-0.2216,-0.3452,0.1613,0.4956,-1.65,0.837,1.326,-0.613,0.2128,-0.497,1.18,-0.152,-0.1836,0.7026,-0.7104,-0.5483,0.185,-0.2386,0.8804,0.417,1.03,0.0,1.288,-0.622,1.067,-0.02386,0.279,-0.10583,0.1404,-0.6343,-0.1625,0.3044,-1.024,0.0339,0.9814,-0.2211,0.253,1.291,0.129,-1.153,0.986,0.5605,-0.704,-0.3457,-0.692,-0.9883,-0.4956,-0.469,0.4265,0.4666,-0.2104,0.3577,-1.515,1.009,0.03934,-0.3516,1.303,0.02597,-1.127,-0.9062,0.2062,-0.0701,-0.1918,-0.04883,0.4924,0.6484,-0.8877,-0.7314,-0.1927,0.1853,-0.7104,-1.141,-0.2122,0.7207,1.363,0.02504,-1.264,-1.212,-0.7754,-0.805,0.5283,-0.2722,0.0924,0.1534,1.264,0.5264,-0.5576,0.0636,-0.879,-0.73,0.0809,-1.007,0.314,0.3582,0.3018,-0.03363,-0.4346,-0.454,1.964,0.287,0.2014,-0.4368,-0.12213,0.2737,0.5806,-0.2012,-0.1084,1.437,-0.292,0.02103,-0.095,-0.624,-0.7993,0.3674,-1.056,0.02083,0.4673,-0.7,0.9775,0.655,0.972,-0.01475,-0.1554,-0.8,0.1953,0.6743,-0.2725,0.8145,-0.1951,0.2744,0.9893,0.1305,-0.2056,-1.514,0.11945,1.324,0.10394,-0.1613,-0.8457,-0.287,0.918,-0.0006275,0.9175,0.08716,0.5684,-0.1514,-0.8022,0.466,0.3958,1.107,-0.912,-0.06464,0.9077,-1.108,-0.075,-0.7695,-0.5205,0.5415,-0.4443,-0.4268,0.2417,0.3733,0.1925,1.293,-0.06604,-0.0703,0.8975,-0.266,-0.6416,0.9834,-0.619,-0.7812,-0.1065,0.01747,-0.08124,0.7866,0.2413,0.408,-0.007576,1.738,0.641,-0.947,1.475,0.526,1.519,0.474,0.7637,-1.757,0.1865,0.2141,-0.6353,1.311,-0.605,0.9126,-1.168,-0.207,-1.262,-0.2333,0.625,-0.09393,0.92,0.3528,-0.0418,1.402,-0.0496,0.05957,0.155,1.301,-0.4675,0.255,0.0357,0.1323,0.3184,0.12067,0.4758,-0.8506,0.2308,0.0954,-0.2234,0.849,-0.01248,-0.5405,-0.598,-0.2559,1.512,-0.02098,-1.041,-1.284,-0.2566,0.962,0.08044,2.12,-0.3064,0.2423,-0.139,0.4583,-1.295,-0.3328,-0.0679,-0.1884,0.2856,0.3545,-1.484,-1.235,0.9746,-0.312,0.7827,-1.337,0.953,0.2047,0.1562,-0.468,0.961,-0.3782,0.939,-0.4746,0.2369,-0.0895,-0.526,0.8457,-0.2352,-0.5513,-0.459,-0.8203,-0.1478,-0.2489,-0.6353,-0.7695,-2.564,1.1455,-1.203,0.5527,0.074,0.3152,1.43,-0.04556,1.293,-0.276,0.2632,0.2072,0.22,-0.1749,1.488,0.4517,-0.8125,-0.2014,0.399,0.622,0.4316,1.047,-0.9683,-0.6772,0.3477,0.282,-0.6123,0.287,-1.02,0.5776,-1.057,-1.215,1.273,0.3833,0.1004,0.5327,1.109,-0.6216,-1.328,0.1569,-0.4568,0.0783,-0.2559,0.02882,-1.344,0.641,-0.3188,0.4756,-0.3884,-0.0369,0.1703,-0.2751,0.675,0.2883,-1.46,0.867,0.21,0.7905,0.963,-0.206,0.643,0.638,-0.3894,-0.2278,1.127,-1.197,0.3457,0.2294,0.8496,-0.9717,0.3074,2.38,1.488,0.4333,-0.929,0.4148,-0.3474,0.2191,0.1731,-0.238,-1.064,-0.0898,0.1301,0.006233,1.467,-0.05518,0.966,0.358,-0.1407,-0.2368,-0.474,-1.428,-0.4211,-0.2057,0.5225,-0.2012,-0.8467,1.297,-1.213,-0.222,0.7056,0.518,-1.491,-1.015,0.068,-0.343,0.696,0.659,-1.331,-0.09485,-1.167,-1.573,-0.85,-0.753,-0.742,-0.6694,0.2499,-0.471,0.504,0.1699,0.6875,-0.0855,1.369,0.2688,-0.7046,0.369,-0.04355,-0.1189,0.403,-1.021,-0.374,-0.9785,0.5166,0.5117,0.3167,-0.838,-0.409,0.9404,0.6777,0.0758,1.064,-0.4534,1.491,0.632,-0.1324,-1.456,-0.05014,-1.398,1.172,0.55,0.3743,-1.031,-0.4487,1.363,0.06024,-0.409,0.00815,1.179,-0.2913,-0.3088,0.3938,-0.2316,-0.6426,-1.068,-0.6304,0.863,-1.321,-0.0734,0.765,0.6436,-0.827,-0.05542,0.1638,0.2615,0.688,0.391,-0.304,0.2335,0.1168,-0.72,0.8267,0.06174,0.2708,0.4036,-0.2291,-0.2834,-0.613,0.6826,-0.2164,-0.676,0.05307,-1.13,-0.0781,-0.4385,0.194,0.685,0.2783,-0.4583,-0.4595,-0.08826,-0.998,0.4534,-0.8804,-0.827,1.35,-1.002,0.756,-0.2874,0.6587,0.3347,-0.13,-0.2305,-0.544,0.2072,-0.945,0.2357,0.3347,0.1322,-0.5527,0.8545,1.243,0.1621,0.4531,-0.688
blanket,-0.683,0.4065,0.1178,1.116,-0.76,0.1628,-0.9805,-0.4116,0.191,-0.7124,-0.9385,-0.531,-0.08246,-0.644,-0.3975,-1.11,-1.8125,0.3506,-1.129,1.579,-0.3584,-0.3164,0.5566,0.986,0.6577,0.09064,-1.1,0.886,0.785,-0.1276,-1.575,0.7515,-0.01362,-1.341,-0.464,0.958,-0.2795,0.6646,0.5386,0.2041,-1.037,0.4563,-1.763,0.3777,-1.209,0.331,-0.2656,-0.786,0.4414,1.053,1.363,-0.4016,-0.266,0.939,-1.658,0.368,-0.3333,-0.7207,-1.28,-0.6357,-0.3296,-0.6187,-0.0685,1.048,-1.175,0.03796,1.308,0.653,0.1261,0.258,1.463,1.436,0.462,-0.5054,1.835,-0.2263,0.7173,-0.609,1.165,0.812,-2.28,-0.688,-1.37,0.336,-0.1993,1.082,0.8765,-0.9883,0.583,-0.8755,1.436,0.2961,0.1238,-0.2832,-0.4324,1.225,0.8857,0.817,0.6514,0.781,0.805,0.5933,0.1373,0.0572,-0.559,0.08887,0.8647,-1.179,0.4946,-1.597,-0.9243,0.6235,0.0,-0.9062,0.2917,-0.3818,-0.5576,1.337,-0.3474,0.4421,0.7905,-1.496,0.518,-0.692,-1.615,-1.065,-0.3755,-0.933,1.441,0.9785,-0.04495,1.409,-0.6895,-0.4253,-0.461,-0.576,-0.985,0.7617,-0.696,-0.788,-1.425,-0.3171,1.574,1.014,-1.043,-0.826,-0.2542,-1.262,-0.428,0.771,0.02484,1.01,-1.802,-0.2598,1.121,-0.8125,1.004,-0.04938,1.009,-0.11444,0.2317,0.584,0.94,0.506,0.3245,-0.904,1.473,-0.3677,-0.794,-0.5312,-1.031,1.567,0.2996,0.5664,-1.108,-0.616,0.1488,0.0783,-1.609,0.5273,0.2073,0.9272,0.3816,-1.816,1.206,1.671,-0.354,-1.401,0.898,-1.671,1.443,0.2454,0.3174,0.534,-0.5645,-0.8823,0.0345,-0.2471,-1.35,-1.297,-1.542,1.104,-1.439,-0.2656,-1.128,1.03,-1.264,0.207,-1.266,0.8096,-1.108,1.099,0.535,-0.891,-0.633,-0.0887,0.535,1.33,0.744,-1.448,-0.582,-0.4626,-2.102,-0.839,-0.1984,-0.6333,1.073,-0.8867,1.253,-1.541,-1.369,-1.691,0.394,1.234,-0.7134,0.5254,0.4844,0.3708,1.66,-0.185,0.573,-0.858,-0.4395,0.2874,0.7993,-0.02919,1.462,-0.976,-1.148,0.1332,0.0855,-1.217,0.925,1.035,-1.354,-0.464,-0.3909,1.382,-0.4614,0.8423,-0.5713,-0.11194,1.721,-0.5127,0.998,-0.835,-0.842,0.336,-1.158,-0.10236,-0.924,0.63,0.6953,-0.632,-0.2336,0.723,-1.331,0.04807,-0.596,-0.3523,0.814,0.979,0.485,0.8423,1.273,0.584,-0.6934,-1.352,1.125,0.4858,-0.1627,-1.11,1.288,-0.579,0.1765,-1.425,-1.356,0.9062,-0.964,1.167,-0.307,1.052,-0.5063,-0.2673,1.84,-0.29,-1.023,0.352,-0.1802,-0.5054,-0.6143,0.9746,-0.444,1.683,0.1279,-1.285,-0.06854,0.0161,-0.0736,0.377,-1.185,-0.06036,0.2744,-0.1412,-0.2964,-0.6436,0.3567,-0.4526,-0.986,-0.4226,-0.616,2.12,1.476,-1.872,-1.452,0.0337,1.376,-0.979,-1.123,1.137,-0.4312,-1.545,1.678,-0.3938,-2.666,0.4634,-0.49,1.535,0.4146,-1.348,0.2617,-0.3584,-1.087,1.29,-1.106,0.001408,-1.192,0.6636,0.636,0.4504,-0.165,0.01654,-0.1451,0.3882,0.9795,-0.1332,-0.03084,-0.9326,-0.1893,1.032,1.74,-1.739,-0.2898,1.068,2.084,-1.364,1.723,1.42,1.41,0.7026,0.6797,-0.2512,-1.268,-0.588,0.9854,-0.3997,0.955,-1.117,0.4785,-0.646,0.192,0.659,-2.133,0.8135,-1.349,-1.797,-0.00858,0.666,-1.581,1.233,1.679,-0.00899,1.209,1.164,-0.547,0.2213,0.7866,1.49,-1.788,0.7544,1.085,0.9077,-1.663,-0.342,0.3396,-1.315,0.9697,0.6104,1.036,-0.308,-1.902,-0.2444,0.5396,1.698,0.0976,-2.023,-1.467,0.294,0.4412,1.016,-0.248,0.1415,-0.4531,2.182,0.1791,0.8013,-0.1484,-0.62,-0.848,0.2003,1.019,1.002,0.07263,0.3748,1.495,-1.58,-0.4968,-0.9883,-0.1119,-0.1323,-0.632,-0.2147,1.571,-0.1887,0.4521,-0.2383,0.9097,1.644,0.588,2.082,-0.1396,-1.469,-1.091,-1.098,0.515,0.3284,-0.958,0.09784,0.4065,-0.482,-0.7173,0.09326,0.5366,0.4402,-1.41,-0.93,0.1018,0.6274,-0.541,0.8516,-0.6187,-0.1059,0.725,0.4983,0.7715,-0.184,-1.254,0.2301,0.04123,0.902,0.8916,-0.706,0.7437,-0.4487,-0.3376,0.3982,-0.0404,0.9614,-0.9995,0.9624,0.0946,1.53,1.232,0.1682,-0.564,0.6313,-1.002,1.819,-0.02116,0.0982,-1.31,-0.01976
boat,-0.1982,0.2559,1.043,0.518,1.286,-0.09247,-0.2177,-0.11896,-0.8203,-1.93,0.2898,-0.304,-0.8945,-0.3542,1.408,-1.03,-1.242,-1.424,-0.469,-0.1407,0.088,0.478,0.555,0.4968,0.7886,0.838,-2.104,-0.2737,-1.151,-0.5225,-0.773,0.771,-2.238,-0.5874,0.3335,0.3975,0.0835,0.4626,0.6255,1.525,0.6177,2.07,-0.01156,0.9775,-0.1504,-1.259,1.15,-0.726,-0.1731,0.4712,-0.8975,1.959,0.3474,0.5527,-1.191,0.743,-1.777,1.172,-0.8384,0.4592,-1.165,-0.3813,0.9346,1.461,0.767,1.156,1.651,1.426,-1.011,-0.26,1.456,-0.9556,-0.5015,-1.447,0.3796,-0.629,-0.626,-1.047,1.019,0.2479,-1.281,1.295,0.1193,-1.103,0.1153,-0.916,-0.8213,-1.041,-0.1431,0.436,0.6123,-1.252,1.185,0.0807,-1.135,-0.1671,-0.4138,0.3333,-0.7646,-0.666,1.641,-0.1211,-1.306,1.702,-0.404,1.833,-1.233,-0.979,0.67,-0.10486,-0.2817,1.087,0.944,-0.5864,1.321,-1.186,0.815,0.799,-0.5327,-0.676,0.613,-1.354,-0.592,-0.4272,-1.313,-0.451,0.0413,-1.1,0.147,1.227,-0.51,0.561,1.281,-1.141,-0.966,-1.036,-1.031,0.816,0.3271,-0.4177,-0.2363,-0.4924,0.8467,-0.2446,0.327,-1.0,-1.963,0.7114,1.336,-0.1482,0.7476,0.2988,-1.19,0.1729,0.0853,0.631,0.2563,-1.299,0.2135,0.1243,-0.2822,-0.4165,0.531,1.212,-0.2097,-0.9106,0.6704,0.7104,0.09534,-1.0625,-0.1659,0.7207,0.9673,0.1704,-0.2448,0.4844,0.4792,0.02959,-2.12,0.5854,1.147,0.08905,-0.9316,-0.9995,0.6187,0.6997,0.1584,-0.4094,0.578,-0.4617,1.256,1.608,0.4265,0.308,-1.602,-0.676,-0.787,0.722,1.313,-0.02269,0.1447,0.521,0.612,0.39,-1.346,-0.1443,-0.1521,0.4436,-0.8804,0.702,1.3955,-1.407,0.888,-0.4675,-0.2993,-0.9526,0.4458,0.4724,-2.062,-0.758,-1.8,-0.329,0.0364,0.303,-0.9497,0.687,-0.006264,0.1514,1.249,-0.786,-1.447,-1.226,-0.654,1.887,-1.409,-1.008,0.08234,-0.872,0.5938,0.5083,0.2059,0.3945,0.2505,-0.6343,-0.6943,0.7344,0.1743,0.954,-0.9834,1.215,-0.3438,-0.973,0.2291,-0.2964,-1.315,-0.09283,-0.844,0.579,1.71,0.014565,0.0522,0.54,0.1764,0.04962,0.886,0.0564,-0.5093,1.36,0.5063,0.214,-1.447,-2.54,1.096,1.243,0.477,-0.899,-1.284,-0.4219,1.246,-1.197,-0.04077,-0.1798,0.003601,-0.6587,-0.2291,0.1421,-0.1505,-1.256,0.8247,0.4333,0.4692,-0.2474,-0.3254,-1.136,-1.048,-0.6353,-0.8086,-0.4336,0.3235,-0.2817,0.0793,-0.05148,-0.757,-0.2382,1.273,0.396,0.6455,0.7314,0.05298,0.8867,0.7095,0.934,-1.159,-0.0475,-0.1466,-0.1681,-0.4895,-1.273,-0.539,-0.952,0.2717,-0.6157,0.764,1.489,-0.4558,-0.664,0.715,-0.01697,-0.4883,-1.127,0.1692,0.2666,0.3054,0.2224,0.5625,0.8564,0.9194,-0.918,-1.097,1.334,-1.18,-0.943,0.3025,-1.698,-0.2441,-0.1613,0.4846,1.474,1.285,0.3867,-1.368,-0.174,0.1733,0.8506,-0.6187,-1.059,0.2404,0.5767,0.3953,0.3484,-0.7627,-0.08105,0.007504,0.0667,0.568,1.047,1.006,-0.7646,-0.83,0.8853,1.797,0.4424,0.6724,-0.4385,0.472,-1.123,0.834,-0.4749,0.5063,-0.244,0.4421,1.446,-0.77,-1.133,-0.644,0.4966,0.2192,-1.435,1.369,-1.04,-0.141,0.998,-0.726,-0.883,-0.503,0.11993,-0.1958,-0.74,1.274,0.552,0.643,-1.025,-1.3955,0.5825,-0.805,0.4844,0.06476,0.6133,0.648,-0.02577,0.3481,0.8394,-0.4316,0.1763,0.291,-0.2764,0.7114,-0.5967,-0.834,0.8525,-0.1387,0.08466,1.368,-1.062,-1.553,-0.5757,-0.314,0.904,-0.6094,0.746,0.97,0.02133,-0.5225,0.7935,-0.11523,-0.01113,-0.6147,-0.5347,-0.06335,0.1326,-0.1838,1.232,0.3564,-0.6035,0.709,-0.7744,1.028,-0.653,-0.5635,0.987,0.06323,-0.313,-0.09326,-0.611,-0.3096,-0.811,0.4534,1.11,0.618,0.2378,-0.7373,0.128,0.3787,-0.4646,-1.155,0.2468,0.2268,0.4353,1.153,-0.9385,-0.2136,0.4558,-0.803,0.0,0.2913,0.953,-1.319,-0.1329,0.1294,-0.804,-0.563,0.4172,1.293,-0.3792,0.7,-0.7915,-0.4375,0.3237,0.1471,0.5,0.3357,0.3027,0.9624,-1.166,-1.138,0.988,0.792,0.9146,0.0967,1.019,-0.9355,1.29,0.8506,1.265,-0.683,0.168,-0.554,1.559,0.1296,0.673,0.2404,-0.2847
book,-0.2218,-0.3936,-0.0869,-0.1617,0.01866,-1.121,-0.4116,-0.4727,-1.834,0.2808,-0.05548,-0.422,0.641,0.0453,-0.0786,-0.7266,-0.665,0.0943,0.1703,-1.011,-0.12,0.1847,0.475,1.415,-0.4788,0.5576,0.02237,-0.1305,-0.2522,-0.2094,-0.1823,0.0635,0.1333,0.2866,-0.1248,-1.154,-0.2286,0.3281,0.638,-1.612,0.2976,-1.287,0.518,0.398,0.2727,-0.1583,0.4614,0.824,0.478,0.0404,0.1643,-0.1975,0.3005,0.1071,-0.843,-1.945,-0.1478,-0.10803,1.009,0.01177,-0.4556,0.89,0.783,0.5186,0.1296,0.625,-0.141,0.1025,0.4648,-0.3691,0.815,-0.0443,-0.1425,-0.4885,0.9727,-0.4824,-0.006462,-0.6753,-0.2888,0.8,0.004288,0.907,0.1667,-0.1321,0.3508,-0.939,-0.721,0.752,0.432,0.931,-0.172,-0.8394,1.291,-0.2686,-0.1799,-0.5,-0.8247,-0.7847,0.88,-0.5347,-0.4175,-0.8306,0.1573,0.5625,-0.885,1.41,-0.6914,-0.1218,0.2341,0.188,0.8804,-0.4724,0.477,0.2106,1.043,0.0988,-0.02538,0.9243,-0.1758,-0.8438,-0.1217,0.61,0.775,1.136,-0.428,-0.7744,0.00469,0.268,-0.618,0.3635,-1.665,0.643,-0.879,-0.638,0.844,-0.3794,0.3706,0.641,0.356,1.579,0.5356,0.5825,0.784,0.2695,0.3276,1.131,-1.027,-0.543,0.3586,0.2107,1.226,1.1,-1.255,0.5806,-0.1254,-0.2305,0.0582,-0.2404,1.049,0.502,0.657,0.10443,0.8643,0.4573,-0.1813,-0.2429,1.074,-0.068,-0.298,0.2964,1.224,0.02286,1.039,-0.9062,0.4194,-1.2705,1.006,1.268,-0.2183,-0.2927,-1.542,-0.04,-0.4094,-0.11444,0.5073,0.006393,-1.009,-0.3762,0.1781,-0.1879,0.742,0.6177,0.7446,-0.01872,-0.6904,1.96,-0.3584,0.4854,0.2273,-0.521,0.626,-0.4272,0.961,-0.3645,-1.187,0.7036,0.0881,0.525,-0.599,-0.2349,-1.358,-1.2,0.1718,0.909,-0.9883,-0.444,0.4966,0.7607,-0.622,-1.493,0.04,-1.298,-0.1298,-0.2952,0.4263,0.9927,1.302,-0.9473,-0.01665,-0.579,-0.04544,-0.4233,1.059,0.458,-0.3232,-0.76,-0.5815,0.533,0.3938,0.902,0.9023,-0.06976,-0.5107,0.2712,0.461,-0.6504,0.2656,0.9595,-0.481,-0.01593,-1.004,-0.7974,0.1599,1.041,0.1644,-1.265,-0.324,-0.3892,-1.024,-0.4854,-0.0979,0.3125,0.10913,0.4358,-0.294,0.744,0.2142,0.506,-0.3887,0.67,-0.4763,-1.533,0.014206,-0.2004,0.241,0.7363,0.162,-0.5835,0.4233,-0.574,0.9,-0.956,1.634,-0.3555,1.294,-0.8975,-0.8145,-0.981,0.2306,-0.04956,-0.539,0.5283,0.498,-1.114,0.02509,-0.4844,0.7827,-0.6357,-0.0793,0.6367,-0.2161,0.3992,0.6006,-0.7773,0.8696,0.6416,-0.6978,0.05045,0.5117,0.05936,-0.2118,0.3518,-0.6567,0.1078,-0.6567,-0.8813,0.2642,0.05902,0.2556,1.254,-0.0635,-0.797,0.2357,-0.4094,0.9336,0.07416,-0.11304,0.2522,0.3528,-0.806,-0.2063,0.578,1.138,-0.07367,-0.1606,0.2494,1.0625,-0.664,0.1497,-0.3672,-0.08575,0.236,-0.806,-0.8975,-0.2864,-0.7876,-0.3616,0.4531,0.08405,0.5723,-0.429,0.5615,-0.12213,0.484,-0.1764,-0.01548,-0.5654,1.645,-1.502,0.12427,-0.7676,0.1208,0.18,-1.211,-1.856,0.0774,-0.1261,1.849,-1.204,0.3765,1.38,0.64,0.0138,0.271,-0.7065,-0.4,-0.12335,0.7266,1.2,-0.5786,0.06805,0.863,-0.334,-0.508,-0.32,0.308,-0.1398,-0.4863,0.5273,1.19,1.505,0.318,-0.4458,0.1117,-1.014,-0.05756,-0.785,-0.3252,-0.972,-0.8125,0.6777,-0.4058,-1.297,-1.026,-1.122,0.594,-0.5728,-1.156,0.0558,0.8447,0.7637,-0.1727,-0.6704,2.0,1.108,0.571,0.252,-0.4724,1.001,-0.602,-1.067,-0.3892,0.1033,-0.4292,-0.2374,-0.93,0.815,0.3057,-0.657,1.001,1.734,-0.3755,1.056,-0.385,0.7593,-0.241,0.1278,0.1711,0.01512,-0.3137,-0.1135,-1.166,-0.3425,-0.0671,0.4026,-0.514,1.307,-0.05365,0.6436,1.132,0.1256,0.622,1.135,1.003,-0.2295,0.6772,0.9043,-0.4106,0.4512,-0.59,-0.521,0.1648,1.223,-0.4084,-0.1184,-1.234,-1.673,0.02586,1.075,-0.726,0.406,1.122,-0.538,0.8013,0.5737,0.471,-0.05124,-0.4902,0.05124,-0.4119,0.1775,-0.4907,0.6826,-0.5312,0.615,1.258,0.05682,-0.07605,-0.03156,-0.427,1.745,-0.8726,0.3506,-0.586,-0.0963,-0.342,0.3467,-0.1377,0.5234,-0.1892,0.4663,-0.6704,-0.8994,0.05368,0.1349,0.2954,0.799,0.686,0.172,-0.8496,-1.42,-0.05103
bottle,0.639,-1.449,-1.382,-0.226,1.166,-0.793,0.275,1.048,-0.6006,1.842,0.576,0.7446,-0.433,-0.0768,0.517,0.841,0.5596,0.1869,0.2278,0.06683,0.2786,0.1514,0.2227,-1.427,-0.4617,0.6763,0.1278,-1.02,0.6826,0.3953,1.201,-0.3977,0.004227,0.5093,-0.611,-1.079,0.1887,-1.481,-2.324,-0.0634,0.757,-1.556,0.3767,-0.793,-1.273,-0.3118,-1.651,1.0625,0.2944,-1.179,-0.0206,1.401,1.022,0.537,-0.04514,-0.3215,-0.714,-1.147,1.094,-0.301,-0.6514,-0.352,0.7114,-0.0661,0.8145,0.5747,-0.426,-1.057,-0.725,1.105,-0.04245,-1.287,1.179,0.02701,-0.574,0.2327,0.9033,0.7007,-1.223,-0.08264,1.38,0.321,1.4,-0.244,1.439,0.4373,-0.825,0.4072,-1.051,-0.3452,-0.6724,0.5947,-0.03537,-0.6587,0.1587,0.08795,0.4058,-0.514,0.4968,-0.9624,-0.2037,-1.922,-0.9253,-0.4883,0.447,-0.803,-0.4626,1.094,0.169,1.054,-0.839,-0.447,-1.089,0.613,1.1455,1.522,-0.462,-1.537,0.1053,1.027,-0.7134,0.2595,-0.4878,-0.379,1.282,0.787,0.51,1.067,-1.768,-0.9995,-1.22,-0.01016,0.3376,0.5605,0.1724,1.491,0.828,-0.6333,0.4624,1.99,0.01475,0.10266,-0.261,-0.82,0.99,-0.6196,-0.10315,1.029,0.8857,-0.4622,-0.2908,0.2404,-0.209,1.382,-0.978,0.2499,-0.05267,0.425,-0.9634,0.4504,1.069,-0.74,0.2583,-1.2705,-0.3748,0.7134,-0.8267,0.2944,0.2284,0.5933,1.775,-1.096,0.3901,-0.2327,1.721,-0.4336,0.536,-1.407,0.51,-0.04947,0.806,1.7705,-0.2151,1.854,-0.9087,-1.539,1.253,0.546,-1.194,0.731,-1.238,0.2054,-1.924,0.958,0.495,-0.618,0.476,-1.552,0.57,-0.5186,0.4016,-1.338,0.1089,-0.2136,0.575,0.971,1.946,-0.0849,1.512,-0.753,0.6016,-0.3284,-1.316,0.219,-0.6533,0.9097,-0.7256,-0.919,-0.5884,1.367,0.4355,-0.2637,0.3281,0.1279,-0.6465,1.62,0.4402,0.5015,-0.8716,0.683,0.9033,0.4512,0.533,-0.8013,-0.4482,0.3865,-0.1855,-0.9507,-0.441,1.302,-1.025,0.253,-0.02484,-1.212,-1.297,-0.481,-2.402,-0.0645,1.887,-0.0649,-1.289,-0.6636,0.821,-0.7305,1.712,0.958,-1.18,-1.428,0.1169,-1.454,1.131,1.405,-0.3289,-0.004932,-0.3684,0.7554,0.8,0.0457,0.3147,0.217,0.6733,0.2605,0.3694,0.3962,-0.8467,0.673,0.939,-0.3938,-0.806,0.843,-1.995,0.3716,-0.3088,-0.9023,0.2142,-0.8174,0.7354,1.259,1.567,1.242,-0.295,1.42,-0.559,0.869,-0.733,1.132,0.882,-1.464,-0.2605,0.1965,-1.028,-1.06,1.229,1.332,-0.8965,-0.5356,0.458,0.1683,-0.5986,-0.3274,-0.5596,0.0503,0.56,-0.38,-0.9727,0.172,1.194,-0.4026,0.7827,1.09,-0.3994,-0.3652,0.0791,-0.08374,-0.286,1.279,-1.776,-0.004242,1.264,1.067,1.072,-0.634,0.64,0.0655,1.934,-0.8306,-0.3477,1.866,1.392,-1.251,1.393,0.69,-0.4873,0.8657,-0.2766,-0.803,0.376,0.7534,-0.1161,1.019,0.1672,-0.6406,1.691,-0.93,0.684,-0.3828,1.194,0.4272,-0.06445,-1.225,0.253,0.182,1.424,-0.3223,-0.538,-1.261,0.2386,1.395,0.1108,-1.145,-0.8237,1.476,-0.809,-0.6177,-0.2178,-0.1605,-0.9604,0.461,-0.402,-0.431,-1.097,0.2095,0.9663,0.9326,0.332,0.1881,0.196,-0.1128,-0.928,1.558,0.192,-0.4749,1.441,0.5474,-0.6304,0.799,-0.6562,0.0223,0.392,0.3787,-1.46,-0.446,-0.08594,-0.8955,-0.4136,0.06635,0.4927,-0.238,1.385,-1.218,-1.129,-1.236,1.524,-0.07916,-0.1725,0.611,-0.501,-0.4094,0.1364,-0.1808,0.3225,1.288,-0.356,-0.9087,1.165,0.699,0.8027,-1.185,-1.299,-1.095,0.817,-1.801,0.007694,0.234,-0.9165,0.4133,0.715,0.1313,0.4514,-1.271,-0.3315,-1.373,0.507,-0.312,-1.746,0.4712,0.1231,-0.1318,-0.6055,-0.2452,-0.612,-0.0771,-0.6104,0.5674,-0.629,-0.04987,-1.226,-1.449,0.3289,-0.5083,0.4702,-0.1077,0.1309,-1.576,0.0064,-0.5776,0.511,-0.257,0.9854,0.3682,0.4006,-0.2603,-0.1713,-1.289,1.2705,-0.923,0.3965,-1.123,-0.263,-0.787,1.643,0.3894,-1.36,1.304,0.3425,0.522,0.1971,0.0767,-0.0509,-1.134,0.812,1.02,-0.4565,1.167,0.2556,-0.2244,1.118,-1.3,1.414,-1.479,-0.4336,-1.409,-0.677,0.4102,1.463,0.389,1.388,0.5254,0.918,0.2063,-0.0731,-0.5537
bowl,-0.865,0.543,-0.207,0.2861,0.3328,0.0819,0.799,0.611,-0.5923,-0.214,0.376,1.102,-0.3123,-0.3325,0.621,0.737,0.4758,0.4697,0.2106,-0.4146,-0.839,-0.2915,0.05313,-1.173,0.436,0.2742,-0.1345,-1.062,-1.0625,0.2333,0.0398,-0.09607,-0.3723,0.1947,-0.3977,-0.7476,-0.09436,-0.6265,-0.6714,0.1915,0.876,-0.07306,1.011,0.03238,-1.261,-0.7734,0.1592,0.4758,0.954,-0.0923,-0.7495,0.633,0.219,-0.1288,0.3625,-0.2825,-0.8525,0.554,-0.513,-0.2156,-1.023,0.01945,0.7256,-0.399,0.3103,1.267,0.4546,0.2454,-0.7153,-0.003824,0.0336,-0.992,0.3562,-0.2952,-1.044,0.463,0.6113,0.03766,0.1361,0.0679,0.1772,0.043,0.7803,-0.7925,0.937,-0.0264,-0.4048,0.6885,-0.3767,-0.445,-1.141,-0.1213,0.1061,-0.3184,-0.2283,-1.138,-1.023,-0.2654,-0.00412,-0.3394,0.362,-1.372,-0.7715,0.2434,-0.746,-1.215,-0.7695,0.2463,0.2186,0.3745,0.1449,-0.28,0.4617,-0.543,0.3123,0.6333,0.818,0.3137,-0.4414,-0.7754,-0.3962,-0.0389,0.09344,-0.2373,-0.6455,1.123,-0.07263,0.005703,-0.2627,-0.697,-1.079,-1.039,2.021,0.116,0.02303,0.2778,-0.1332,-0.2935,0.7544,1.432,0.4429,-0.02643,-0.5527,-0.1794,0.1727,0.2866,-1.599,0.2308,-0.543,-0.4646,0.3054,1.082,-0.5474,0.7705,-0.8857,0.502,-0.1553,0.5205,0.3328,0.0006614,0.3477,-1.056,0.5854,0.0299,0.074,0.5566,-0.7583,-0.2844,0.5225,-1.075,0.5273,-0.491,0.147,0.1407,0.578,1.086,-0.34,0.1844,0.359,-0.7705,-0.4106,-0.2822,-1.017,-0.2058,-0.735,-0.8413,0.653,0.981,0.04352,0.3242,-0.536,0.2576,-0.3865,-0.2146,0.58,-0.4775,-0.9717,-1.097,0.0606,0.395,-0.2485,0.1699,0.2458,0.303,-0.5425,-0.1882,1.072,0.643,0.3894,-0.00921,0.931,0.11005,-0.0366,-0.8496,0.11505,-0.5444,0.07715,-0.3735,-0.03964,0.6934,0.622,0.1389,1.078,0.2274,0.4219,0.783,0.7656,0.243,-0.6953,0.2998,-0.013,0.1921,-0.204,0.2217,-0.7275,0.763,0.575,-0.6875,-0.607,0.2632,-0.4612,0.6367,0.3489,0.005116,-1.381,-0.156,-0.514,0.737,0.679,-0.4763,-0.1593,-0.3364,-0.10657,-0.768,0.6978,-0.010826,0.552,-0.512,0.0679,-1.14,0.7417,0.2434,-0.873,0.8394,-0.4902,-0.7056,0.1257,-0.5786,0.4287,0.9224,0.7236,-0.2443,-0.523,-0.1527,-0.345,1.127,0.3467,-0.287,-0.00882,0.1298,-1.032,1.118,0.966,-0.773,0.3584,-0.3909,0.3066,0.5156,0.7847,0.412,-0.6484,0.571,-0.937,0.04776,0.8936,0.1895,0.3528,-0.11316,-0.561,-0.608,-0.674,-0.4429,0.3384,1.021,-0.2236,0.6724,1.237,0.04944,-0.988,-0.1079,-0.3782,0.2335,0.11584,-1.267,-0.1537,-0.09796,1.021,-0.211,0.4106,0.2001,0.4011,0.3923,-0.686,-0.07336,0.152,0.7793,-0.713,0.3435,0.6377,0.2166,-0.03845,-0.9053,0.0747,-0.3901,0.821,0.557,-0.296,0.754,0.3442,0.2527,0.4639,0.6416,-0.06525,-0.0318,-0.2441,-0.4087,-0.5034,-0.3933,-0.5615,1.387,-0.0672,-0.1504,0.829,0.4866,0.5366,-1.078,-0.4075,-0.3687,0.1252,-0.1138,-1.022,0.7363,0.733,0.5513,-0.5527,-0.1531,0.3003,0.612,0.1254,-0.4219,-0.4263,1.182,-0.1277,0.3438,-0.2467,-0.5454,-0.7007,-0.708,-0.57,-0.872,-0.8867,-0.3333,-0.08813,0.0928,0.907,-0.844,-0.653,-0.282,-0.797,0.656,0.795,-0.453,0.5874,-0.7695,-0.115,0.9053,-1.004,-1.376,0.907,0.4866,-0.5137,-1.144,0.0487,-0.4216,-1.768,-0.02715,-0.786,-0.548,0.3052,-0.634,-0.7266,-0.4275,-0.05035,0.2898,-0.8955,0.2429,-0.864,-0.838,-0.5933,0.2974,0.339,0.3496,0.33,-0.58,-0.1709,0.561,0.04105,-1.216,-1.235,0.09576,1.13,-0.4595,0.2411,-0.7783,0.10284,0.05148,-0.5845,0.5195,0.3218,0.1405,-0.737,-0.3267,0.744,-0.3481,-0.516,0.2349,0.0635,0.8276,-0.3562,0.992,0.05194,-0.1028,-1.118,-0.777,-1.729,0.881,-0.4,-0.6924,0.338,-0.604,0.7197,0.013306,0.3015,-0.873,-0.2465,0.1199,0.6104,-0.02263,1.139,-0.547,-0.626,0.4175,-0.539,-0.8203,0.1097,-0.873,-0.899,-0.45,1.178,-0.01872,0.627,0.629,-0.583,0.771,-0.68,0.8193,0.784,1.0,0.8223,0.5757,-0.8574,-0.1819,-0.001393,0.7583,0.05533,0.599,0.982,-0.656,0.4473,-1.213,0.1449,-0.2402,0.609,0.0668,0.3606,0.2815,-0.2852,0.8047,0.4194,0.9233,-0.2482,-0.2041
box,-0.813,-0.634,0.4517,0.01494,0.312,0.07166,0.05563,-0.714,-1.626,0.2333,-0.4607,0.489,0.6523,1.202,0.4778,-0.623,-0.647,0.379,-0.8267,-0.832,-0.2927,-1.287,0.8057,1.372,-0.1676,0.4917,0.577,0.584,-0.8584,0.4207,-0.934,0.9736,0.1686,0.589,0.05576,-0.954,-1.017,-0.0744,0.772,-0.9575,0.1503,-0.1641,0.1292,0.002354,-0.5415,-0.4287,0.10016,-0.02724,-0.02454,0.541,0.1661,-1.089,0.2081,0.1641,-0.9136,-1.049,-1.292,0.04376,1.3545,-0.4275,-0.857,0.953,1.083,-0.521,0.8,-0.03473,0.6694,0.4456,-0.911,-1.206,0.524,0.2433,1.068,-1.532,0.4495,-1.005,-1.08,-0.6963,-0.995,0.676,-0.6426,0.4998,-0.0485,-0.5225,0.05527,-1.53,0.2974,0.4731,-0.02588,0.2708,0.06323,0.4448,1.291,-1.491,-0.8247,0.11163,0.935,0.3994,0.455,0.7075,0.4534,-1.615,0.02997,1.273,-1.017,0.955,-0.5635,-0.3948,0.1039,0.7915,0.2184,0.523,1.0205,-0.74,0.5386,0.2864,-0.2317,0.2888,-1.293,-0.867,0.0736,0.575,1.216,0.806,-0.3877,-0.816,-0.841,-0.4126,0.257,0.2678,-1.603,0.437,1.085,-1.006,0.538,-0.834,0.4097,0.507,0.1177,0.936,0.587,-0.447,0.559,0.4475,-0.1114,0.6353,-0.6484,-1.155,-0.1653,0.4954,0.9,0.2318,-1.752,0.968,-0.5,0.0849,-0.359,-0.3843,0.9214,-0.2744,-0.3513,0.752,0.789,-0.4487,-0.1065,-0.07,1.6455,-1.311,0.2756,0.1514,1.528,0.2534,0.713,0.8555,-0.5693,-0.2449,1.176,0.263,0.07825,-0.479,-0.65,-0.7476,-0.4363,0.0768,0.1477,-0.0429,-0.8438,-0.94,-0.01721,-0.469,0.2695,1.091,0.4048,-0.8384,-0.775,1.007,-0.3481,0.1267,-0.1273,-0.8325,0.2028,-0.3142,0.3347,-0.339,-1.478,0.4866,-1.003,1.015,-0.7305,-0.0875,0.0123,-1.576,0.4595,-0.03937,-0.453,0.4436,1.444,0.6064,-0.2012,-2.385,0.2178,-1.4,-0.6772,-0.1422,0.3828,0.8403,0.808,0.1028,0.5127,0.06934,0.419,-1.061,0.805,0.984,-0.5186,0.694,0.725,1.49,0.2057,0.8584,0.742,-0.5273,-0.895,0.4714,0.4246,0.7188,0.1339,1.095,-0.797,0.4827,-1.96,-0.941,0.9272,0.5254,-0.3062,-0.5864,0.41,-0.1538,-0.917,-0.8794,0.2485,-0.3015,-0.1274,0.985,-0.8047,0.773,0.795,0.0914,-0.09454,0.372,-0.616,-2.209,0.1316,0.657,-0.3093,0.945,0.0479,-0.5327,1.387,-0.747,1.395,0.3596,0.7407,-0.2769,0.0608,0.2185,-0.3943,-0.6133,-0.3413,-1.132,-0.3762,0.2954,0.539,-0.8857,0.552,-0.8467,0.2242,0.5547,0.437,0.4497,-0.9346,1.226,0.1382,-1.165,1.078,0.471,-0.743,0.5894,-0.3804,-0.5557,-0.3208,0.92,-1.004,-0.615,0.3032,-1.374,-0.3818,-0.66,1.449,1.021,0.311,-0.403,1.072,-0.6123,0.03513,-0.8594,0.542,-0.2502,-0.641,-1.096,0.4167,0.1967,0.9844,-0.693,-0.5327,1.485,0.728,-1.325,-0.1328,-0.44,0.4255,-0.57,0.4312,-1.042,-0.498,-0.5024,-1.472,-0.8936,-0.419,0.531,-0.1042,-0.583,-0.551,0.261,-0.355,-0.904,-1.91,2.057,-0.6973,-0.6265,-1.001,0.0397,0.4802,-1.24,-0.954,0.4875,0.7603,1.913,-1.111,0.4219,0.5576,-0.3303,0.7393,-0.0484,-1.384,-1.096,0.2795,-0.5005,1.384,0.1511,0.662,0.9575,-0.654,-0.1602,0.0463,-0.05536,1.159,-1.376,0.445,-0.2915,0.941,0.916,-1.0,-0.5522,-1.949,-0.2089,0.1273,-0.1483,-1.117,-0.2634,0.08356,0.539,-0.1318,-0.3755,-1.512,0.798,-0.1746,-0.863,-0.7686,1.551,0.371,0.583,-0.5845,0.7827,0.1725,0.3423,-0.02448,0.00862,1.402,0.05884,-1.345,1.465,1.081,0.3728,-1.659,-0.0859,0.2198,-0.365,-0.9253,0.783,1.984,-0.525,0.9443,0.2317,0.545,0.7734,0.1652,-0.2537,-0.3884,-0.1553,0.4792,-1.162,-0.561,1.499,0.348,-0.1478,0.0491,-0.2659,0.4912,1.625,0.10254,0.2903,1.115,0.8022,1.239,0.816,1.139,0.1296,1.315,-0.08374,-1.087,0.2338,0.4836,0.882,1.85,0.02936,-1.851,-0.06064,0.08264,-1.358,0.1268,0.4736,-0.9375,1.337,0.0379,1.42,-1.02,-0.00873,0.4705,0.1092,0.1642,-0.366,1.264,-1.756,0.1345,0.7075,1.229,0.593,0.787,-0.5273,0.1976,-0.63,-0.4355,0.3477,0.397,-0.2325,0.698,-0.3828,1.013,-0.049,0.281,0.02875,-0.0711,0.537,-0.3528,1.23,-0.01254,1.02,0.3306,-0.7905,-0.0702,-1.027
bread,1.069,-0.02693,-1.13,0.3813,-0.4126,0.1294,0.3142,1.109,-0.3113,0.9844,0.0678,0.552,0.2874,0.4993,-0.764,-0.1678,1.196,0.6816,0.4976,-0.214,-0.656,0.0695,-0.2632,-0.832,1.608,0.4275,-0.601,-0.1273,-0.2976,0.565,1.381,-1.145,0.8813,1.245,0.0674,-0.5254,0.1597,0.0861,-0.726,0.6367,-0.1267,-0.1909,0.5903,-0.4973,-0.4326,-0.915,0.5923,1.674,1.414,-0.791,-1.552,-0.2024,1.43,0.8164,1.291,0.6235,0.859,-0.9824,-0.3386,-0.12213,-0.1556,0.5176,-0.443,-1.705,-1.3955,0.749,0.4614,0.05554,-0.2456,1.256,-1.752,-0.8755,0.2495,1.374,-0.832,1.033,-0.0912,1.786,-0.03796,-0.3335,-0.04147,-1.287,1.804,-0.7866,1.014,1.474,-0.6353,0.484,-0.483,-0.07086,-0.914,-0.05402,-0.0884,2.03,1.678,-1.166,-0.9976,-0.5312,-0.0512,-0.0005894,0.424,0.5947,-1.205,-0.01656,-1.045,1.13,-0.632,0.9614,-1.096,0.909,-0.2449,-0.3477,0.652,0.03732,-0.154,-0.01027,0.4934,-0.299,0.4119,-0.4302,-0.332,-0.7354,0.855,0.1162,0.9033,1.222,1.739,0.7075,0.731,0.0529,0.2769,0.436,0.3938,0.29,0.6885,1.672,-0.05276,0.875,0.8647,0.5986,1.475,1.134,-1.023,-1.04,-1.416,0.4543,-1.393,-0.1412,-0.642,0.4675,-2.037,-0.0412,-0.1907,2.125,-1.938,0.4634,1.566,-0.02615,-1.146,0.0979,-0.1951,-0.4692,1.621,-0.4966,-0.768,0.438,-0.625,0.0957,-1.596,-0.329,0.733,-1.704,0.8306,-1.052,1.478,0.8364,0.1747,0.992,1.322,-1.086,-0.903,0.2021,0.3103,0.2352,-1.152,-1.221,1.024,1.013,0.1953,1.109,-1.874,-0.4014,0.2291,-0.3506,1.1455,-1.407,-0.0983,-1.126,-0.6562,0.2169,-0.45,0.04648,0.5625,-1.603,0.647,-0.395,1.667,-0.758,1.073,-1.541,-0.0369,0.514,-0.952,-0.4453,-0.1394,0.57,-0.4846,-0.7617,0.564,0.7983,1.031,0.9126,1.088,0.1892,-0.0538,0.542,-0.2583,-0.429,-0.814,1.68,0.1218,0.8887,0.586,0.5903,0.3098,-0.06604,0.3552,-0.7925,-0.3923,0.0998,-1.498,1.347,0.7676,-1.06,0.2485,-0.771,-0.899,0.2988,0.8594,-0.2544,0.6724,-1.136,-0.2372,-1.392,1.09,0.7974,0.9707,-0.9106,0.1704,-1.185,0.09546,0.271,-0.431,-0.0663,-2.404,-0.937,-0.6064,-0.01523,0.7705,-1.107,0.3354,0.4392,-1.203,-0.0731,-0.03436,0.791,1.253,1.119,0.773,1.355,-0.1727,-0.656,1.444,-0.2512,-0.3274,-0.827,-0.10095,0.6694,0.8516,1.024,-0.674,1.431,-1.074,-0.0848,0.2888,1.196,1.289,0.1531,0.866,-0.401,-0.376,-0.3367,-1.077,0.2374,0.07623,0.563,1.155,-0.4407,0.01674,0.901,0.1694,-1.55,0.2703,-1.163,-0.1552,1.007,0.2448,0.2129,0.599,-0.73,1.428,1.038,-1.323,-0.553,1.274,1.1045,-0.5005,1.4795,0.902,0.4697,-0.275,-1.355,0.0845,-0.3,1.291,-1.159,-1.895,0.6494,1.209,-0.2637,0.8374,0.4988,-0.3125,0.00795,0.625,0.5684,0.542,-1.148,-1.536,0.642,-0.06168,0.6377,0.5137,-1.168,0.766,-0.1252,0.1122,-1.61,-0.843,0.4082,-0.637,0.1555,-0.4553,0.8555,-1.063,-0.2024,-0.328,1.401,1.225,-1.821,-0.2837,0.681,-1.822,0.0629,0.2974,1.347,-1.122,0.4626,-0.8145,-1.6045,-1.034,-0.6694,1.046,1.409,-1.009,-1.123,-0.906,0.08813,-1.774,1.051,-0.185,0.2197,0.8765,0.0535,1.172,1.069,-0.59,-1.052,-0.0276,-0.2715,0.4702,-1.025,-0.00573,-1.0205,-0.4224,-0.941,-0.976,-0.8438,1.177,-1.726,-1.172,-0.1212,1.3955,1.1455,-1.52,0.7505,-0.982,-0.2852,-0.791,0.914,1.767,0.4697,-0.6045,-0.979,1.914,-0.02321,1.218,-0.5806,-1.08,-0.3623,-0.658,-0.569,1.213,-0.9995,-1.337,-0.1071,0.2717,1.345,0.5547,-0.2416,-1.458,0.2233,0.3218,-0.5625,-0.849,0.4614,-0.1726,-0.3716,0.6704,-0.0494,-1.225,0.1648,-0.4116,-0.809,-0.508,0.9624,-0.57,-1.24,-0.193,-1.301,1.1045,0.9683,-0.1251,-1.363,0.96,-1.232,-0.522,1.428,0.4976,0.54,0.1875,-0.2249,-1.375,-0.3733,0.1757,-0.7666,-0.11957,-0.9927,0.08356,-1.7705,0.2365,0.8457,-1.229,0.5557,-0.8457,0.563,0.9033,-0.11,-0.7344,0.1862,-0.3699,0.94,-0.2996,0.2983,0.3325,0.2449,0.803,-0.4985,0.611,-1.287,1.408,-0.6626,-0.6523,-0.6343,-0.1335,-0.6533,0.8926,-1.092,0.8325,0.3733,-0.523,-0.828
broom,-0.6875,0.0397,-0.3132,-0.1389,0.07983,-0.2181,-1.271,0.2605,-1.294,-0.4246,1.085,0.9336,1.365,0.05173,-0.1428,1.089,-0.0817,-0.882,0.2563,-1.078,0.843,1.137,0.1442,-0.05707,-0.010475,0.2886,1.058,-1.176,-0.4268,1.303,0.4324,-0.2603,1.996,-1.226,-0.8286,-1.3955,-1.543,-0.434,-1.133,-0.4692,0.9424,-1.361,0.1609,-0.5127,-0.9077,-0.5283,-0.4187,-0.5244,-1.9375,0.436,-0.2903,-1.151,-1.127,-0.3945,-0.3184,0.5825,-0.2303,0.7124,0.8887,-0.2605,0.236,0.2803,0.535,0.4258,0.1427,-0.1853,-0.09467,-0.634,-1.482,0.1205,-0.4014,0.836,0.0835,1.272,-0.08453,-1.443,0.715,-0.1624,-0.3416,-0.4841,-0.9087,0.1521,0.06186,0.3848,0.7954,0.848,-0.4805,-0.00625,-1.143,0.673,-0.7344,0.8013,-0.99,-0.27,-0.8677,-0.2888,0.926,0.2104,-0.3772,0.5015,-0.3362,0.2047,-1.366,-0.5176,1.082,-0.02502,-0.3823,-0.2847,0.819,-0.535,-0.7354,0.6963,-0.3228,1.17,0.698,-0.3774,-0.785,-1.688,-0.9,0.2927,0.7627,0.4368,0.4036,1.106,-0.4707,-0.2593,-0.0554,0.87,-0.3853,-0.271,0.3013,0.5386,-0.03568,1.024,-0.42,-0.4324,1.254,-0.2317,1.172,-0.1506,-0.097,0.6787,-0.02762,0.5635,1.395,0.655,-0.0442,0.546,0.5835,0.3872,0.954,-1.135,0.1772,-0.3027,-0.1869,-0.10675,-1.095,-0.7144,-0.4592,0.7856,-0.252,0.716,0.4875,-1.478,1.035,-0.488,-0.2351,0.747,-0.0569,1.084,1.476,0.2445,0.994,-0.144,-0.00448,-0.9204,1.429,-1.1,0.0526,-0.04987,1.203,0.513,-0.43,0.669,0.165,-0.6514,-1.018,1.638,0.3694,-0.2151,-0.8096,0.4265,-2.055,0.2695,-0.5527,-0.627,0.1466,0.705,0.58,0.0835,0.565,-0.3447,1.658,0.554,-1.109,-1.293,0.3271,0.91,2.305,-0.808,-0.955,-0.6,-1.321,-0.8354,-1.459,-0.7715,0.3538,-1.537,-0.4421,-0.803,-0.1289,-0.4702,0.0836,0.2844,-0.3164,1.141,-0.3054,0.2329,-0.0047,0.6177,1.043,0.6416,0.773,-0.1268,-0.645,-0.662,0.0767,0.5303,-0.7437,0.759,0.4832,-0.1199,-0.889,1.646,0.2437,0.5283,-1.244,0.6943,1.018,0.921,-1.186,0.1917,-0.4343,0.7275,1.04,1.587,0.2812,-0.8896,0.4119,-0.3164,-0.9287,0.2986,0.986,0.906,0.1373,0.2573,0.5557,1.205,-0.1697,0.2527,-0.6997,-1.4,1.074,-1.211,-2.074,-1.292,0.5103,-1.608,0.96,-0.968,0.08264,0.1843,-1.05,0.936,-0.773,-0.434,1.479,0.11786,-1.212,-0.11615,1.416,0.8237,-1.059,0.0979,0.4836,1.566,-0.2974,0.3904,-0.1665,-0.3176,1.023,-1.25,1.228,-0.1287,-1.199,-1.338,-0.9917,-0.4536,-0.778,-1.543,-0.2844,0.4824,1.023,-0.3977,0.474,0.6035,1.354,-0.0966,-0.2869,-0.62,-0.9033,-0.3533,-0.1354,1.809,-0.2307,1.225,-0.275,-1.154,0.424,1.339,0.0706,0.2957,-0.6094,-1.159,0.9478,-0.674,-0.4329,-0.0292,1.007,-0.2361,0.4817,0.2445,-0.01631,-0.547,0.7373,0.3535,0.147,1.564,-0.1967,-0.1117,0.9087,-0.7324,0.768,-1.019,0.359,-1.281,-0.2573,0.3147,0.318,-0.4214,-0.1458,0.877,1.698,-0.673,-0.3691,-1.002,0.813,0.8774,-0.2522,-0.0829,0.0941,0.859,0.25,-1.768,-1.009,0.5796,-0.5884,1.035,0.487,0.779,0.01788,1.543,-0.0855,-0.3145,0.01063,1.076,-0.07916,1.364,0.521,-0.08356,-0.9834,1.091,1.002,-0.798,-0.3584,0.1666,0.005352,0.1274,0.8564,-0.2086,-1.041,-0.452,0.7163,-0.3032,0.7344,0.12366,0.7627,1.431,0.8105,0.03516,-0.03815,-0.9976,1.409,0.7573,0.9,1.136,-0.9214,0.381,1.19,0.336,1.086,0.02457,0.1427,-0.204,1.293,0.05573,0.5044,-1.616,-0.05365,-1.799,-0.599,-0.841,0.743,-0.2546,0.532,0.1266,0.317,0.4858,0.3564,-1.024,-0.05765,-0.1879,0.0924,1.081,-0.7153,1.642,0.226,0.2927,-0.774,-1.066,-0.7495,0.9224,-1.181,0.555,-0.2344,-0.594,-0.8833,-0.7803,0.2144,-0.1345,0.8945,0.1364,0.986,-0.6406,0.0992,-0.4602,1.282,-1.548,-0.4578,-1.678,1.741,-1.061,0.199,0.923,0.564,-0.82,-0.2668,0.6,0.9165,-0.9087,1.409,1.751,-0.641,0.2183,0.959,0.5786,0.2834,0.2383,-0.8086,-1.014,0.5146,0.633,0.115,0.9478,0.973,-1.141,0.1212,-0.1929,0.5815,-0.6997,-1.693,-0.6665,-1.178,-0.4102,1.128,0.1587,-0.326,-0.883,-0.0886,0.4763,-0.848,0.6553
bucket,0.1458,-0.1254,-0.3374,0.1736,0.8687,0.2795,0.867,0.4019,-0.5566,1.306,0.4807,0.7524,0.1145,0.10266,0.4187,0.7446,0.6294,0.1032,-0.2106,-0.10065,-0.46,-0.4888,0.1758,-0.5337,0.0504,1.017,0.5366,-1.173,-0.6226,0.4712,-0.2377,0.2173,-0.2751,-0.3208,-0.2213,-0.717,-0.3447,-1.297,-1.351,0.02017,1.226,-0.864,0.177,0.007652,-0.9478,-0.5396,-0.672,0.4893,0.0817,-0.3733,0.3142,0.3787,0.2915,-0.3552,-0.166,-0.3577,-1.719,-0.8003,0.559,-0.387,-0.5337,0.4941,1.3955,-0.762,-0.1888,0.3145,0.519,0.01643,-0.994,-0.4436,0.2325,-0.8877,0.6143,-0.9443,-0.4111,-0.11346,0.4573,-0.1584,-1.034,0.4753,-0.353,0.938,0.7573,-1.008,1.16,-1.039,-0.6855,1.105,-1.103,-0.3015,-0.826,-0.05402,-0.07074,-1.231,-0.3098,-0.645,0.316,0.10254,0.2142,-0.1691,0.1465,-2.242,-0.7,0.3096,0.08075,-1.248,-0.5845,0.3337,0.1783,0.645,-0.6714,0.10077,0.4238,-0.4678,0.0915,1.158,0.58,-0.256,-0.778,0.007565,-0.514,0.3718,0.568,0.1888,0.2488,0.58,0.2072,-0.3572,-0.4033,-0.8833,-0.58,-0.429,1.67,0.29,-0.1486,0.4011,0.7954,-0.911,0.2002,1.437,0.4956,0.1837,-0.2815,-0.3943,0.02583,0.2343,-0.637,0.3286,-0.2124,-0.001543,0.97,0.1254,-0.7607,0.852,-0.459,0.3906,-0.4644,0.723,0.323,-0.564,0.6133,-0.34,-0.336,-0.4675,0.5684,0.4417,-0.6606,-0.3708,1.272,-0.1097,1.079,-0.3896,0.609,0.1737,0.3425,0.2362,0.3967,-0.7344,0.3708,-0.1691,0.5073,0.005,-0.645,0.7163,-0.933,-0.653,0.362,-0.0467,-0.7427,0.11646,-0.4033,0.09143,-1.266,0.0649,0.08417,-0.3435,-0.3477,-1.135,0.547,-0.7773,-0.4167,-0.2462,-0.3564,0.8667,-0.5796,0.79,0.6836,0.7,1.02,-0.2695,0.9937,-0.4634,-0.453,-0.3423,-0.7314,0.484,-0.1293,-0.934,-0.3567,0.264,0.5513,-0.5083,0.4355,0.1755,-0.10443,1.189,0.3413,0.4124,-0.3987,0.4282,0.5586,-0.3684,0.3662,-0.08685,-1.174,0.72,0.8037,-0.3567,-0.72,0.1451,-0.0969,-0.01744,-0.2192,-0.05045,-0.87,0.01642,-0.7144,0.791,0.7256,-0.1674,-0.56,-0.698,0.3064,-0.6675,0.5522,0.8535,-0.5337,-0.609,0.1938,-1.363,1.254,-0.0991,-0.574,0.749,-0.1525,0.488,1.04,0.314,0.1321,0.546,0.0825,-0.665,0.213,0.552,-0.4934,0.823,0.0932,-0.5605,0.2424,0.2598,-1.209,0.855,0.162,-0.4631,-0.2527,-0.434,0.4934,1.122,0.2998,0.1799,-0.4678,0.715,-1.051,0.4824,0.544,-0.3167,0.302,-0.759,-0.3347,0.3079,-0.8516,-0.4353,0.946,1.305,-0.6206,0.1877,1.057,0.3152,-1.11,-0.1493,-0.6294,0.6577,0.2898,-0.4348,0.3347,-0.664,0.757,-0.5938,0.526,0.2032,-0.2612,-0.1283,0.4768,-0.04187,-0.618,0.445,-0.6733,0.06323,-0.02803,0.454,0.757,-0.6963,0.8154,-0.7856,0.885,0.4907,-0.3813,-0.0515,0.404,-0.3315,1.095,0.4678,0.5054,0.11444,0.05695,-0.64,0.29,0.331,-0.2068,1.179,0.2427,-1.408,0.9053,0.2563,0.725,-0.584,-0.5938,0.688,0.0745,-0.837,-0.4302,1.216,0.653,-0.926,-0.349,-0.1592,0.9067,0.958,-0.5073,-0.04776,-0.7876,1.055,0.3044,0.3252,-0.5806,-0.7197,-0.4426,-0.8433,0.05927,-0.1958,0.0949,0.4656,-0.2386,0.4707,0.672,0.3528,-0.2695,-0.02115,-0.3071,0.3455,0.07404,-0.303,0.7314,-0.892,-1.17,-0.2769,-0.667,-0.2007,0.8594,0.3457,-0.6006,-0.0873,0.1891,-0.1809,-1.647,0.00543,0.7163,-0.1434,0.7446,-0.1348,-0.766,-0.9297,0.596,0.3225,-0.0958,-0.1252,-0.0979,0.2007,0.0756,-0.011765,-0.3481,1.056,0.356,-0.3572,0.02968,0.1903,0.5923,-1.246,-1.158,0.0792,1.657,-1.044,0.551,0.3643,-0.2668,0.5425,0.514,0.2415,-0.005318,-1.046,-0.1946,-0.705,0.2294,0.369,-0.647,0.2168,-0.367,0.4521,-0.7085,0.628,0.3162,-0.7227,-0.2329,-0.2131,-0.89,0.525,-0.2487,-0.2603,0.8926,-0.619,0.6606,0.02878,0.4724,-0.3252,0.2783,0.392,0.0797,-0.02263,0.4563,-0.756,0.2238,0.2512,0.0618,0.01282,0.3901,-0.5454,-0.1594,-0.548,0.677,0.3647,0.583,0.7305,-0.336,0.3374,-0.02942,0.721,1.394,1.42,0.534,-0.11957,-0.435,0.1299,-0.08295,0.6797,-0.2062,0.3284,1.019,-0.6943,0.567,-0.7954,-0.2158,-0.8706,0.2277,0.414,0.4626,0.3516,0.3816,0.697,0.4126,0.4224,0.5146,0.312
butterfly,2.27,-0.453,-1.217,-2.438,0.8774,-0.6304,0.887,0.4631,0.7173,-0.7466,0.7363,0.978,-0.173,-1.38,-1.212,-0.4387,0.1635,-0.984,0.6353,1.588,-0.02376,-0.3218,-0.7705,0.7305,-0.408,0.1849,0.575,-1.542,0.6445,-0.2864,1.077,-0.02853,-0.7915,1.049,-1.106,-1.346,0.04718,-1.134,1.425,-0.8843,2.045,-0.6665,2.377,-2.602,1.08,-0.0811,0.093,0.507,-0.4988,-1.633,-0.696,-0.1576,-0.8354,0.2007,1.56,-0.3843,0.2122,0.891,1.783,-0.6157,1.207,0.7207,-0.367,-1.372,-0.347,-0.912,-0.3945,-1.249,-1.07,0.4226,-0.726,0.343,-0.5527,0.5684,-0.415,-0.5566,1.213,1.119,-0.911,-1.645,0.709,-1.089,-0.3545,-0.359,1.351,0.6294,-2.28,-0.927,-0.0743,-0.721,-0.826,-0.486,-0.2122,0.7056,1.614,-0.199,-1.352,-1.215,-0.2856,-1.311,0.0133,-0.639,-0.562,0.0692,1.464,1.346,-0.6274,0.4265,-0.2372,-0.99,1.626,-1.267,-0.1089,0.7876,0.461,0.426,-0.649,-0.5947,1.846,0.5303,0.2448,-0.1556,-0.8906,1.615,1.86,-0.3066,-0.08673,1.7,-1.343,-0.2015,0.3289,-0.1443,-2.48,0.735,0.155,0.634,1.415,-1.359,1.681,0.706,1.173,2.045,0.07874,-0.4258,-1.053,0.0981,0.534,0.163,-0.753,-1.541,0.605,0.2815,-0.6543,-1.799,0.52,1.099,0.01524,1.109,0.1967,1.203,1.706,-1.013,0.9478,0.4727,-0.513,0.7603,-0.906,0.4963,-0.472,1.098,-0.1688,-0.3916,2.11,-1.969,0.9,-1.021,-0.909,0.00174,-0.9556,-1.173,0.353,1.27,0.2031,1.654,-1.729,-0.4102,0.721,-0.5127,-1.064,1.505,-0.582,0.6274,-0.5024,0.2532,0.0822,0.3035,0.476,0.895,0.1727,2.062,1.306,-0.585,0.59,0.2537,2.55,-0.1371,0.6665,-1.428,0.599,0.9624,-1.554,1.372,-0.312,1.243,-1.638,-0.69,-1.07,-0.8096,0.3232,-0.4568,0.5024,-0.546,0.3909,2.602,-0.6304,0.4094,1.821,-0.4492,-1.824,0.3506,-0.0913,-0.0838,0.898,-0.458,-0.0704,-0.644,-0.5454,-0.3462,-0.7583,1.14,0.522,-0.5645,-1.052,-1.726,1.12,-0.833,0.207,-1.522,0.765,0.01366,-0.010056,0.3125,-0.11456,0.428,0.3547,-0.5806,-1.585,-1.229,-0.5127,-0.495,-0.06186,0.4014,-2.021,-1.671,-0.1823,-0.3818,1.672,-1.199,1.246,1.2,0.662,-0.673,1.173,-2.562,0.14,-0.5986,1.4795,-0.1268,-1.023,-0.328,0.2344,-1.8125,-0.9927,0.3384,-0.914,-1.092,-0.3962,0.06506,-2.018,1.068,-1.612,1.354,0.6416,1.0625,1.344,0.674,1.255,-0.316,0.0827,0.5913,0.2443,-0.3855,0.8765,0.539,-1.729,-0.03072,-0.1472,-0.3176,0.2856,1.609,-1.276,-0.949,0.734,0.5566,-0.95,0.6655,-1.695,0.9463,-0.291,-0.915,2.412,0.939,0.356,0.0488,2.643,-0.1938,-1.394,2.127,0.472,0.3706,-0.773,0.2844,-1.225,1.032,-0.473,-0.6494,-1.173,-0.01921,0.909,1.146,0.3245,0.738,-1.442,1.379,0.2993,1.431,1.343,-0.3047,-0.1478,1.771,-0.09186,0.1576,2.123,-0.04886,1.248,0.4363,0.4285,-1.133,1.295,-0.094,1.015,0.9976,-1.92,-0.7,-1.409,0.836,-0.2585,0.4639,0.0432,-0.2625,-0.7236,0.661,1.53,-1.164,0.387,1.115,-1.08,-1.193,-0.1366,-1.061,-0.482,-0.2654,0.8535,-0.551,-0.715,2.496,-1.763,0.5464,0.3784,1.255,-1.152,-0.8423,-0.418,-0.3918,0.7246,2.004,-1.301,0.5366,-0.565,-1.788,-0.679,-1.351,-0.6016,-1.434,0.0477,-0.2377,-0.1647,0.8813,0.778,-0.5166,0.9595,-0.0404,-0.258,-0.0986,-1.033,0.2014,0.244,-1.85,-0.9375,-1.273,0.3892,-0.4136,-0.1168,-1.758,-0.3706,-0.278,1.185,1.374,1.01,-0.1998,0.872,1.457,0.252,-2.049,-0.0872,-1.163,2.441,-0.663,0.8525,-1.09,-0.7207,0.9946,-0.04373,-0.687,-0.728,1.424,0.8955,-0.1793,1.708,-0.6216,-1.518,-0.727,-1.271,0.7456,-1.136,0.4004,-1.023,0.2317,-1.422,-0.3552,-0.6543,1.623,0.87,0.596,-0.224,0.2607,0.3953,-0.7866,1.159,-0.2274,0.439,1.553,0.821,-0.51,0.2727,0.2917,0.8076,-0.622,-0.7705,-0.5796,1.217,-0.0837,0.8706,-0.02441,0.763,0.0322,1.257,0.1908,-1.357,1.164,-0.6694,-0.5903,1.494,-1.204,-0.4092,-0.2544,1.298,-0.9116,2.432,-1.117,0.2632,-1.05,-0.6523,0.6597,0.62,-0.1276,-0.8745,0.3728,1.005,-0.0442,0.616,-0.4238
